~o
<STREAMINFO> 1 39
<VECSIZE> 39<NULLD><MFCC_E_D_A><DIAGC>
~h "eight"
<BEGINHMM>
<NUMSTATES> 5
<STATE> 2
<MEAN> 39
 -7.524382e+00 -3.424939e+00 -5.693429e+00 -1.668172e+01 -6.472906e-01 -5.182703e+00 5.464805e-01 -6.746377e+00 -1.554556e+00 -6.763692e+00 -1.027623e+00 -5.331637e+00 1.714921e+01 -1.899991e-01 7.575490e-01 -8.186068e-02 -7.814216e-01 3.922372e-02 -4.146453e-01 5.495492e-02 2.967794e-01 3.011651e-01 4.559055e-02 -9.447097e-02 -9.567026e-02 2.139854e-01 3.509635e-02 8.253216e-02 1.093190e-02 8.965658e-02 -4.103681e-02 -1.680721e-01 -8.082559e-02 -2.286118e-02 2.704307e-02 6.061600e-02 5.858911e-02 -4.572453e-03 3.460668e-03
<VARIANCE> 39
 1.075566e+01 2.305989e+01 1.835911e+01 3.944751e+01 4.045773e+01 2.353823e+01 2.441684e+01 2.433767e+01 3.137267e+01 2.546993e+01 2.575882e+01 2.447262e+01 3.380881e+00 3.360932e-01 9.650868e-01 6.847195e-01 1.411202e+00 1.254013e+00 1.634339e+00 1.348136e+00 1.128170e+00 1.374355e+00 1.216740e+00 1.140095e+00 1.007742e+00 1.229727e-01 4.082793e-02 8.492040e-02 8.461767e-02 2.011292e-01 1.478566e-01 1.778266e-01 1.529668e-01 1.814227e-01 2.320944e-01 1.695028e-01 1.833525e-01 1.573070e-01 1.323955e-02
<GCONST> 8.183710e+01
<STATE> 3
<MEAN> 39
 -7.935215e+00 5.476099e+00 -4.908502e+00 -1.664693e+01 -2.357293e+00 -1.441964e+01 -3.035470e+00 -8.591137e+00 -1.333451e+00 -4.426805e+00 9.896615e-01 -5.287109e+00 1.807281e+01 2.038500e-01 -4.291134e-01 1.808154e-01 9.720992e-01 1.361575e-01 6.942971e-02 -3.419648e-01 -6.694809e-01 -5.148814e-01 -4.118688e-02 2.100103e-01 1.946106e-01 -2.363496e-01 1.020905e-02 -3.329032e-01 -3.044054e-02 6.393987e-02 4.254448e-02 3.532749e-01 1.234303e-01 5.587849e-02 -2.346455e-02 -9.194686e-02 -6.258770e-02 3.907998e-03 -6.257589e-02
<VARIANCE> 39
 9.284536e+00 1.350756e+01 2.250759e+01 3.248454e+01 1.967607e+01 2.420456e+01 5.254403e+01 3.438044e+01 4.415816e+01 2.637387e+01 3.191338e+01 2.703340e+01 1.959866e+00 2.642222e-01 1.895673e+00 4.088363e-01 7.647083e-01 7.868025e-01 2.502132e+00 1.307359e+00 1.116802e+00 1.804270e+00 1.195080e+00 1.398741e+00 1.008710e+00 6.758975e-02 3.641459e-02 9.030014e-02 5.905322e-02 1.265729e-01 9.250750e-02 1.744983e-01 1.630088e-01 2.078768e-01 2.768002e-01 1.690487e-01 1.958907e-01 1.643095e-01 4.024201e-03
<GCONST> 7.874335e+01
<STATE> 4
<MEAN> 39
 -7.116771e+00 -6.541076e+00 -5.514885e+00 -1.004293e+01 -1.215376e+00 -4.682466e+00 -8.409334e-01 -8.921483e+00 -3.019658e+00 -5.935842e+00 9.428678e-01 -4.004981e+00 1.468662e+01 -7.179882e-02 -3.660417e-01 -1.176295e-01 1.204221e-01 -4.112453e-02 3.696063e-01 1.855396e-01 1.810011e-01 1.167374e-01 8.798947e-03 1.649120e-02 9.387719e-03 -9.300441e-02 -5.684722e-03 1.757348e-01 1.040027e-02 -6.683985e-02 -1.211821e-02 -1.464314e-01 -4.599083e-02 -1.504025e-02 -6.332267e-03 2.179310e-02 -5.186550e-03 -1.391489e-02 4.871772e-02
<VARIANCE> 39
 4.560892e+00 6.159091e+00 8.314748e+00 9.574133e+00 1.262566e+01 1.589423e+01 1.697646e+01 1.696684e+01 1.732067e+01 1.627313e+01 1.523354e+01 1.399440e+01 1.034501e+00 2.099289e-01 8.405169e-01 4.288101e-01 5.955204e-01 4.862413e-01 1.170438e+00 9.931172e-01 8.546663e-01 9.812931e-01 7.909743e-01 7.432461e-01 7.057037e-01 4.874153e-02 3.460011e-02 9.647744e-02 7.128537e-02 1.091525e-01 9.177060e-02 1.887648e-01 1.756935e-01 1.504276e-01 1.623776e-01 1.354731e-01 1.324255e-01 1.272723e-01 4.818418e-03
<GCONST> 6.216201e+01
<TRANSP> 5
 0.000000e+00 1.000000e+00 0.000000e+00 0.000000e+00 0.000000e+00
 0.000000e+00 9.121952e-01 8.780481e-02 0.000000e+00 0.000000e+00
 0.000000e+00 0.000000e+00 8.976207e-01 1.023793e-01 0.000000e+00
 0.000000e+00 0.000000e+00 0.000000e+00 9.213890e-01 7.861095e-02
 0.000000e+00 0.000000e+00 0.000000e+00 0.000000e+00 0.000000e+00
<ENDHMM>
~h "oh"
<BEGINHMM>
<NUMSTATES> 5
<STATE> 2
<MEAN> 39
 -5.072903e+00 -9.817544e+00 -7.833385e+00 -8.759856e+00 -2.347719e+00 -7.078440e+00 2.847760e+00 -7.616870e+00 -4.773012e+00 -6.878157e+00 -1.687980e+00 -4.955317e+00 1.721408e+01 4.015608e-01 -2.821481e-01 -5.485506e-01 2.171540e-01 1.401623e-01 -4.945724e-01 2.322883e-01 5.781055e-01 -1.037474e-01 -3.932621e-01 -3.404440e-01 -6.349695e-02 2.903826e-01 6.013404e-02 8.892413e-02 -1.210235e-02 -5.544894e-02 1.547180e-02 -6.012416e-02 -1.276605e-01 1.861813e-02 1.092557e-01 1.495079e-03 -5.272222e-02 -5.050196e-02 1.424351e-02
<VARIANCE> 39
 8.382320e+00 1.228217e+01 1.538581e+01 1.591972e+01 2.185692e+01 2.340164e+01 2.846189e+01 5.757668e+01 3.748621e+01 3.054215e+01 2.663990e+01 2.711327e+01 3.812016e+00 4.045025e-01 5.595041e-01 6.603158e-01 6.405972e-01 7.460976e-01 1.180171e+00 1.235328e+00 1.815304e+00 1.533160e+00 1.309644e+00 1.311775e+00 1.082002e+00 1.254159e-01 4.813058e-02 7.023264e-02 8.521725e-02 8.555447e-02 1.118069e-01 1.482320e-01 1.609970e-01 2.226750e-01 2.095434e-01 1.953586e-01 2.000354e-01 1.548818e-01 1.713554e-02
<GCONST> 7.894446e+01
<STATE> 3
<MEAN> 39
 -4.965940e-01 -8.085549e+00 -1.303811e+01 -1.018379e+01 -8.909630e-01 -1.201037e+01 -8.892571e-01 -1.284810e+00 1.939334e-01 -7.884249e+00 -5.009699e+00 -6.855104e+00 1.903839e+01 2.239064e-01 4.083358e-01 -6.298881e-03 -3.375476e-01 -6.151058e-02 -1.964504e-02 -6.569710e-01 -2.515050e-01 6.164236e-01 5.838721e-01 3.178896e-02 -3.234847e-01 -1.058198e-02 -4.688038e-02 2.213248e-02 1.000646e-01 -1.014006e-02 -5.009496e-02 8.897675e-02 1.630359e-02 -1.447871e-01 -8.520424e-02 7.581841e-02 1.148443e-01 2.391929e-02 -2.662400e-02
<VARIANCE> 39
 6.028924e+00 9.347411e+00 1.555830e+01 1.589688e+01 1.975415e+01 2.333685e+01 4.428239e+01 3.314376e+01 4.055779e+01 3.755714e+01 3.123155e+01 3.914727e+01 1.183736e+00 8.543307e-02 1.427006e-01 2.976732e-01 2.936642e-01 3.913105e-01 5.535880e-01 7.245918e-01 1.116327e+00 7.998063e-01 8.947297e-01 8.656541e-01 6.944237e-01 1.391790e-02 1.175630e-02 1.537125e-02 3.537058e-02 3.572030e-02 4.852978e-02 7.178196e-02 8.156170e-02 1.012437e-01 1.109303e-01 1.075002e-01 9.628421e-02 9.289276e-02 1.245800e-03
<GCONST> 5.396381e+01
<STATE> 4
<MEAN> 39
 -7.418557e-01 -3.730203e+00 -8.383287e+00 -1.248794e+01 -3.622049e+00 -9.300109e+00 -4.000118e+00 -8.066693e+00 -2.979772e-01 -3.366275e+00 3.569866e-01 -6.248644e+00 1.795415e+01 -5.069069e-01 1.202973e-01 7.349989e-01 2.727201e-01 1.214142e-02 5.559294e-01 3.365055e-01 -4.405201e-01 -5.363593e-01 -1.885767e-01 3.968858e-01 4.349137e-01 -2.802330e-01 -1.126506e-01 -1.140010e-01 -2.908126e-02 7.595232e-02 9.950905e-02 8.985693e-02 1.345888e-01 9.031342e-02 -3.953533e-02 -1.066703e-01 -6.855689e-02 5.315121e-02 -3.464215e-02
<VARIANCE> 39
 9.361581e+00 7.810243e+00 2.079551e+01 1.825483e+01 1.941330e+01 2.692004e+01 3.110317e+01 2.683563e+01 3.199020e+01 4.008412e+01 3.906113e+01 3.790228e+01 2.412520e+00 3.826961e-01 4.593668e-01 5.507383e-01 6.217663e-01 8.842422e-01 1.264742e+00 1.251876e+00 1.298655e+00 1.305794e+00 1.263463e+00 1.279160e+00 1.245756e+00 5.453479e-02 3.299616e-02 4.469861e-02 8.896688e-02 8.728170e-02 1.096996e-01 1.661356e-01 1.871818e-01 1.997289e-01 2.127140e-01 2.068777e-01 1.755925e-01 1.748506e-01 4.194953e-03
<GCONST> 7.532748e+01
<TRANSP> 5
 0.000000e+00 1.000000e+00 0.000000e+00 0.000000e+00 0.000000e+00
 0.000000e+00 9.027606e-01 9.723941e-02 0.000000e+00 0.000000e+00
 0.000000e+00 0.000000e+00 9.042473e-01 9.575269e-02 0.000000e+00
 0.000000e+00 0.000000e+00 0.000000e+00 8.838435e-01 1.161565e-01
 0.000000e+00 0.000000e+00 0.000000e+00 0.000000e+00 0.000000e+00
<ENDHMM>
~h "seven"
<BEGINHMM>
<NUMSTATES> 5
<STATE> 2
<MEAN> 39
 -8.806645e+00 -4.769286e+00 -7.050029e+00 -8.596656e+00 -2.107399e+00 -3.131436e+00 -1.276506e+00 -8.136148e+00 -2.909430e+00 -5.214485e+00 6.799215e-01 -3.793393e+00 1.484347e+01 4.741232e-02 -4.084788e-02 -4.356929e-02 -3.256995e-01 -2.671285e-01 -1.353364e-01 2.667644e-01 1.513726e-02 1.375785e-01 -7.725407e-04 -2.047784e-01 -6.332527e-02 1.080889e-01 1.303986e-01 9.204963e-03 8.983090e-02 -1.476359e-01 -1.309364e-01 -1.120206e-01 8.733012e-02 -1.238445e-02 2.002485e-02 -2.644486e-02 -8.712224e-02 -9.269803e-02 9.199295e-02
<VARIANCE> 39
 8.339949e+00 1.013035e+01 1.380076e+01 1.310767e+01 1.612599e+01 1.582003e+01 1.759685e+01 1.745255e+01 1.826358e+01 1.723363e+01 1.706742e+01 1.463345e+01 9.047261e-01 7.144120e-01 4.608470e-01 8.613412e-01 9.991084e-01 9.701373e-01 1.283294e+00 9.959636e-01 8.575964e-01 1.029544e+00 1.155907e+00 9.210109e-01 9.517395e-01 1.512425e-01 5.368393e-02 6.783885e-02 9.750179e-02 1.360510e-01 1.662415e-01 1.770662e-01 1.648984e-01 1.456988e-01 1.700096e-01 1.546175e-01 1.450091e-01 1.504833e-01 8.093940e-03
<GCONST> 7.123418e+01
<STATE> 3
<MEAN> 39
 -5.558073e+00 -7.172778e+00 -5.193472e+00 -1.591173e+01 -6.355661e+00 -4.897015e+00 4.772485e+00 -8.474999e+00 -2.770165e+00 -6.761117e+00 -3.975046e+00 -6.626520e+00 1.896182e+01 1.894536e-01 -2.722621e-01 1.233817e-01 3.882863e-02 -6.137332e-02 -1.088011e-01 2.446570e-01 2.681849e-01 -2.807236e-01 -5.543052e-02 -6.964397e-02 -1.107265e-01 1.236364e-01 -4.178011e-02 7.839749e-02 1.111915e-02 2.926456e-01 1.553700e-01 -2.480846e-02 -2.548966e-01 3.867834e-02 -2.091163e-02 1.592018e-02 1.771701e-01 7.159724e-02 -1.270849e-01
<VARIANCE> 39
 9.614643e+00 1.303328e+01 9.436711e+00 1.827780e+01 4.580247e+01 3.937848e+01 3.187667e+01 3.950843e+01 4.652961e+01 5.849228e+01 3.255420e+01 3.130152e+01 1.240814e+00 4.410259e-01 5.954205e-01 4.993331e-01 1.548395e+00 1.671524e+00 1.672650e+00 1.827655e+00 1.089302e+00 1.392671e+00 1.776832e+00 1.809613e+00 1.326400e+00 2.114271e-01 8.204686e-02 9.001195e-02 9.646606e-02 1.114839e-01 2.523419e-01 2.721470e-01 1.781217e-01 1.666773e-01 2.018927e-01 2.407533e-01 2.262372e-01 1.834978e-01 6.062326e-03
<GCONST> 8.474818e+01
<STATE> 4
<MEAN> 39
 -3.244348e+00 -3.881837e+00 -1.891203e+00 -9.521941e+00 -3.365963e+00 -8.015675e+00 -1.088923e+00 -8.732982e+00 -4.324245e+00 -7.120043e+00 -1.906858e+00 -7.105252e+00 1.713247e+01 1.768203e-02 2.205651e-01 1.049600e-01 2.065497e-01 3.193764e-01 1.039555e-01 -2.925280e-01 -2.637331e-01 8.569272e-02 -1.439239e-02 1.277879e-01 4.227510e-02 -1.184138e-01 -5.595613e-02 -7.367320e-02 -7.384525e-02 -8.778045e-02 -2.233437e-02 9.372105e-02 1.106991e-01 -4.595831e-03 1.866121e-02 1.745069e-02 -3.220645e-02 2.023113e-02 1.415739e-02
<VARIANCE> 39
 4.974840e+00 1.019477e+01 9.926697e+00 1.395348e+01 2.822469e+01 3.043305e+01 2.586525e+01 4.089515e+01 3.293279e+01 3.570388e+01 3.328817e+01 2.974873e+01 1.533695e+00 2.533951e-01 5.250478e-01 5.539075e-01 8.538647e-01 1.339952e+00 1.253488e+00 1.628735e+00 1.363170e+00 1.438483e+00 1.411169e+00 1.273559e+00 9.896277e-01 9.358736e-02 3.738623e-02 7.812190e-02 8.698355e-02 1.507713e-01 2.341871e-01 2.027749e-01 2.726187e-01 2.366425e-01 2.360250e-01 2.409599e-01 2.174071e-01 1.500706e-01 1.437080e-02
<GCONST> 7.928008e+01
<TRANSP> 5
 0.000000e+00 1.000000e+00 0.000000e+00 0.000000e+00 0.000000e+00
 0.000000e+00 9.125736e-01 8.742636e-02 0.000000e+00 0.000000e+00
 0.000000e+00 0.000000e+00 9.003659e-01 9.963405e-02 0.000000e+00
 0.000000e+00 0.000000e+00 0.000000e+00 9.365585e-01 6.344149e-02
 0.000000e+00 0.000000e+00 0.000000e+00 0.000000e+00 0.000000e+00
<ENDHMM>
~h "three"
<BEGINHMM>
<NUMSTATES> 5
<STATE> 2
<MEAN> 39
 -7.753105e+00 -6.035279e+00 -4.949146e+00 -1.011978e+01 -8.176969e-01 -4.845855e+00 -5.888082e-01 -8.498262e+00 -2.602033e+00 -5.425552e+00 9.830332e-01 -3.779366e+00 1.488863e+01 1.181849e-01 -8.363438e-02 2.207206e-01 -4.797958e-02 -4.167414e-01 -2.858684e-01 -6.849229e-02 1.494182e-02 7.425318e-02 3.189606e-02 1.361184e-02 4.271428e-04 9.208918e-02 1.742212e-01 2.254193e-02 1.428299e-01 1.953204e-03 -2.577672e-01 -1.755567e-01 -7.574122e-02 -1.877741e-02 1.537854e-02 -9.217971e-03 -3.924723e-02 -7.054678e-02 8.471665e-02
<VARIANCE> 39
 5.400745e+00 6.329569e+00 9.779349e+00 1.060190e+01 1.435537e+01 1.431225e+01 1.606503e+01 1.761142e+01 1.951317e+01 1.776076e+01 1.686063e+01 1.459227e+01 1.170446e+00 7.019895e-01 5.235440e-01 8.963101e-01 7.510075e-01 1.499182e+00 1.312558e+00 9.016337e-01 1.036179e+00 9.999534e-01 9.323049e-01 9.825650e-01 9.153157e-01 1.193077e-01 5.916778e-02 9.076409e-02 9.846707e-02 1.380226e-01 2.011593e-01 1.855364e-01 1.564497e-01 2.030751e-01 1.781605e-01 1.662449e-01 1.641537e-01 1.611110e-01 4.958374e-03
<GCONST> 7.052025e+01
<STATE> 3
<MEAN> 39
 -2.518154e+00 -6.783512e+00 2.449314e+00 -1.140193e+01 -1.369861e+01 -9.363296e+00 -3.152583e+00 -9.428329e+00 -9.449177e-03 -5.130512e+00 1.270138e-01 -5.735048e+00 1.823541e+01 -6.862640e-02 4.227178e-01 6.951758e-01 -1.049855e+00 -3.996389e-01 3.060153e-01 -8.254078e-01 1.096501e-01 3.076093e-01 -2.807256e-02 6.153205e-02 -1.674205e-01 2.367489e-01 -2.156713e-01 2.146448e-01 -2.005214e-01 -1.428145e-01 5.230239e-01 4.712199e-02 -5.941509e-02 1.143450e-01 -1.140724e-01 -2.023023e-02 2.135111e-02 3.956055e-02 -6.774355e-02
<VARIANCE> 39
 6.507180e+00 1.457576e+01 2.008426e+01 4.937685e+01 4.245385e+01 6.100879e+01 3.522906e+01 3.826556e+01 3.064140e+01 2.820661e+01 3.707784e+01 3.334344e+01 1.447085e+00 9.619784e-01 1.476634e+00 9.228723e-01 2.725301e+00 4.895128e+00 3.382443e+00 2.206993e+00 1.969150e+00 1.296628e+00 1.095893e+00 1.152275e+00 1.164597e+00 6.899513e-02 6.798240e-02 1.290742e-01 1.773854e-01 3.907559e-01 3.806302e-01 6.812714e-01 3.772582e-01 2.755097e-01 2.400969e-01 1.746556e-01 1.705917e-01 1.637533e-01 3.908577e-03
<GCONST> 9.265445e+01
<STATE> 4
<MEAN> 39
 -6.590503e+00 3.298124e+00 -7.803821e-01 -1.672935e+01 -2.106718e+00 -1.135583e+01 -6.399148e+00 -7.962216e+00 -3.159481e+00 -5.505674e+00 -3.371079e-01 -6.525797e+00 1.789477e+01 -2.819763e-02 6.328164e-02 -6.391401e-01 7.253135e-01 7.234676e-01 -1.648535e-01 5.492710e-01 -8.268921e-02 -3.564438e-01 1.202647e-02 -7.059447e-02 5.073781e-02 -1.956449e-01 5.814487e-02 -2.881075e-01 2.510240e-03 1.697269e-01 -2.211452e-01 1.819745e-01 1.647770e-01 -6.734464e-02 9.742401e-02 8.240111e-03 2.041756e-02 2.496877e-02 -3.092037e-02
<VARIANCE> 39
 7.580572e+00 1.700889e+01 1.909972e+01 3.484730e+01 2.704715e+01 2.948734e+01 4.823300e+01 4.778434e+01 3.321829e+01 3.976888e+01 4.240128e+01 3.677529e+01 1.619902e+00 3.151310e-01 1.882895e+00 6.700112e-01 1.043713e+00 1.834866e+00 2.559843e+00 1.467122e+00 1.693754e+00 1.384676e+00 1.287918e+00 1.031998e+00 9.705040e-01 3.582557e-02 4.748407e-02 9.098871e-02 9.640262e-02 2.205397e-01 1.814752e-01 2.352821e-01 2.696325e-01 2.497821e-01 1.837021e-01 1.709955e-01 1.443274e-01 1.353057e-01 2.469559e-03
<GCONST> 8.276362e+01
<TRANSP> 5
 0.000000e+00 1.000000e+00 0.000000e+00 0.000000e+00 0.000000e+00
 0.000000e+00 9.016219e-01 9.837805e-02 0.000000e+00 0.000000e+00
 0.000000e+00 0.000000e+00 8.936684e-01 1.063316e-01 0.000000e+00
 0.000000e+00 0.000000e+00 0.000000e+00 9.153347e-01 8.466532e-02
 0.000000e+00 0.000000e+00 0.000000e+00 0.000000e+00 0.000000e+00
<ENDHMM>
~h "one"
<BEGINHMM>
<NUMSTATES> 5
<STATE> 2
<MEAN> 39
 -4.518597e-01 -3.402653e+00 -8.443861e+00 -1.270286e+01 -1.875761e+00 -5.987653e+00 -2.275595e+00 -8.867945e+00 -2.601759e+00 -6.645972e+00 -1.475363e+00 -7.365968e+00 1.769859e+01 2.104205e-01 -3.606846e-01 -7.772179e-01 3.866237e-01 4.274780e-01 9.438986e-02 -2.048012e-01 2.134466e-01 1.819922e-01 -2.419104e-01 -3.084352e-01 -2.085272e-01 1.797058e-01 -1.118936e-01 -1.460700e-01 2.927599e-02 2.153537e-01 1.227165e-02 -9.389374e-02 -2.935627e-03 1.044310e-01 5.154033e-03 -7.579083e-02 2.506492e-03 7.602444e-02 -1.570876e-02
<VARIANCE> 39
 5.495347e+00 8.374672e+00 3.132926e+01 2.276403e+01 2.856239e+01 2.622889e+01 2.260857e+01 2.060505e+01 2.743918e+01 2.315663e+01 3.019622e+01 3.007927e+01 2.038540e+00 4.331067e-01 7.311475e-01 9.485933e-01 2.139327e+00 1.344005e+00 1.366064e+00 1.271955e+00 1.039787e+00 1.139385e+00 9.681760e-01 1.110996e+00 9.685554e-01 5.947196e-02 3.949714e-02 5.502183e-02 1.856275e-01 2.318566e-01 2.499768e-01 2.470899e-01 2.300132e-01 1.749959e-01 1.963391e-01 1.583925e-01 1.854119e-01 1.750204e-01 4.527991e-03
<GCONST> 7.904077e+01
<STATE> 3
<MEAN> 39
 -2.465446e+00 -1.063748e+01 -1.057820e+01 -1.817090e+00 -8.203968e-01 -9.426534e+00 -2.030319e+00 -4.360114e+00 -3.708307e+00 -1.158827e+01 -2.280331e+00 -6.160138e+00 1.852692e+01 -5.923253e-01 -3.131129e-01 1.360770e+00 4.865760e-01 -1.327643e+00 -2.684230e-01 1.140123e+00 -1.565194e-01 -8.914832e-01 -1.474493e-02 5.522191e-01 9.290045e-02 -5.213279e-02 3.156860e-02 3.182520e-01 2.336478e-01 -5.691737e-01 -9.460913e-02 3.615989e-01 5.220947e-02 -4.228345e-01 2.292454e-02 3.597568e-01 2.881906e-02 -1.620710e-01 -2.971577e-02
<VARIANCE> 39
 6.425791e+00 9.765047e+00 1.981100e+01 2.419580e+01 2.885981e+01 1.776384e+01 3.884137e+01 3.255246e+01 4.659252e+01 3.887063e+01 3.430855e+01 3.411139e+01 1.525038e+00 1.633381e-01 5.915005e-01 6.367813e-01 1.980186e+00 7.716361e-01 1.823255e+00 1.053435e+00 2.307868e+00 1.240680e+00 1.946865e+00 1.064898e+00 1.293211e+00 8.977966e-03 2.596358e-02 5.244822e-02 1.077638e-01 1.227794e-01 3.162180e-01 1.590665e-01 4.062757e-01 1.859271e-01 3.425968e-01 2.133452e-01 2.683220e-01 1.720641e-01 8.707123e-04
<GCONST> 7.673819e+01
<STATE> 4
<MEAN> 39
 -3.841116e+00 -4.380064e+00 -1.380799e+00 -8.920121e+00 -3.196612e+00 -6.281970e+00 -2.462214e+00 -1.221232e+01 -5.214499e+00 -8.497458e+00 -2.664922e+00 -8.175360e+00 1.759466e+01 -3.702069e-03 5.640123e-01 2.622410e-01 -4.548677e-01 4.116616e-01 1.698743e-01 -3.735588e-01 -2.332939e-01 1.575051e-01 1.861115e-01 -2.805968e-02 1.649878e-01 -1.759981e-01 -2.108167e-02 -1.171265e-01 -2.145095e-01 1.096522e-01 8.703800e-02 -2.721784e-02 2.046479e-02 1.849910e-01 4.516725e-02 -7.363291e-02 3.749661e-02 8.075964e-02 -1.677443e-02
<VARIANCE> 39
 6.725621e+00 2.077586e+01 9.946099e+00 1.740437e+01 2.093867e+01 4.195507e+01 3.340989e+01 3.282907e+01 4.008403e+01 4.409876e+01 3.259622e+01 3.568680e+01 1.337982e+00 3.443264e-01 1.010749e+00 9.863437e-01 1.216695e+00 8.804988e-01 1.865003e+00 1.353847e+00 1.411808e+00 1.573511e+00 1.478413e+00 1.085042e+00 1.050121e+00 2.735206e-02 5.694270e-02 1.045719e-01 8.382078e-02 1.278460e-01 1.951412e-01 2.806724e-01 2.505270e-01 1.784431e-01 2.218318e-01 2.216897e-01 1.661882e-01 1.590855e-01 2.928929e-03
<GCONST> 7.987306e+01
<TRANSP> 5
 0.000000e+00 1.000000e+00 0.000000e+00 0.000000e+00 0.000000e+00
 0.000000e+00 9.096013e-01 9.039868e-02 0.000000e+00 0.000000e+00
 0.000000e+00 0.000000e+00 8.314164e-01 1.685836e-01 0.000000e+00
 0.000000e+00 0.000000e+00 0.000000e+00 9.086909e-01 9.130905e-02
 0.000000e+00 0.000000e+00 0.000000e+00 0.000000e+00 0.000000e+00
<ENDHMM>
~h "sil"
<BEGINHMM>
<NUMSTATES> 5
<STATE> 2
<MEAN> 39
 -5.629725e+00 -5.381889e+00 -3.959654e+00 -9.043976e+00 -2.191480e-01 -4.181882e+00 -1.412550e-01 -8.546700e+00 -2.498024e+00 -5.830912e+00 5.866464e-01 -4.487326e+00 1.512053e+01 -2.989973e-01 -2.485968e-01 -1.858010e-01 -5.063798e-02 6.951600e-02 1.348537e-01 8.168908e-02 -1.635405e-03 1.418035e-02 1.866288e-02 1.135550e-01 5.824757e-02 -1.518527e-01 2.366988e-02 -7.469838e-03 -3.844184e-02 -6.360346e-02 -7.384162e-02 -6.420408e-02 -4.218136e-02 -1.952855e-03 -3.814490e-03 -6.771649e-03 -1.694074e-02 -5.217450e-03 2.531465e-02
<VARIANCE> 39
 6.971053e+00 8.607061e+00 9.564753e+00 1.168474e+01 1.486935e+01 1.538783e+01 1.765926e+01 1.877640e+01 2.046486e+01 1.954505e+01 1.858370e+01 1.638728e+01 1.209544e+00 1.686652e-01 3.745969e-01 4.430672e-01 5.866139e-01 7.339739e-01 8.284951e-01 8.454965e-01 9.075976e-01 9.109219e-01 8.356454e-01 9.046689e-01 7.998139e-01 2.155260e-02 2.201135e-02 4.568548e-02 6.338225e-02 7.749997e-02 1.032736e-01 1.189164e-01 1.186155e-01 1.276608e-01 1.369555e-01 1.216482e-01 1.281468e-01 1.153789e-01 2.526385e-03
<GCONST> 5.922213e+01
<STATE> 3
<MEAN> 39
 -7.156939e+00 -7.236736e+00 -5.866396e+00 -1.018523e+01 -1.012348e+00 -4.339157e+00 -3.654405e-01 -8.603598e+00 -2.680013e+00 -5.571367e+00 1.005066e+00 -4.037416e+00 1.452098e+01 -3.583962e-03 4.973844e-03 -6.191820e-03 3.802015e-03 1.879632e-03 4.716035e-03 1.255077e-03 -9.876220e-03 -4.555696e-03 1.094674e-02 -2.632693e-04 2.492536e-03 -1.193070e-03 -2.368709e-04 4.887791e-03 2.877422e-03 5.286466e-03 1.315898e-03 2.870440e-03 5.487363e-04 5.853428e-03 2.717830e-03 -8.292650e-04 -4.062802e-03 -3.430506e-03 1.584959e-03
<VARIANCE> 39
 3.027164e+00 3.564780e+00 6.172702e+00 8.254441e+00 1.253747e+01 1.387374e+01 1.474216e+01 1.582846e+01 1.623779e+01 1.398251e+01 1.548319e+01 1.300188e+01 1.028432e+00 5.842901e-02 1.319094e-01 2.563351e-01 3.600302e-01 4.751975e-01 6.449600e-01 6.224144e-01 6.900986e-01 6.643435e-01 5.534229e-01 6.422850e-01 5.676935e-01 2.417417e-03 1.073367e-02 2.426562e-02 4.638895e-02 6.443688e-02 8.854955e-02 1.218526e-01 1.105602e-01 1.289114e-01 1.215520e-01 9.644398e-02 1.150023e-01 1.070999e-01 5.051112e-04
<GCONST> 4.276595e+01
<STATE> 4
<MEAN> 39
 -8.044095e+00 -6.369813e+00 -6.079093e+00 -1.016939e+01 -1.188537e+00 -4.700847e+00 -5.106691e-01 -8.720682e+00 -2.519549e+00 -5.941762e+00 9.985317e-01 -4.417076e+00 1.453678e+01 3.422079e-03 1.545883e-01 2.794153e-02 1.227966e-02 -7.638241e-02 -6.394040e-02 -6.565093e-02 4.921009e-02 -5.532502e-02 -8.987159e-02 -1.027069e-01 -6.833496e-02 4.892001e-02 4.561691e-02 5.645837e-02 2.690518e-02 -6.753047e-03 -2.037471e-03 -2.716476e-02 -1.659524e-02 -1.573684e-02 -1.398958e-02 -1.821208e-02 -3.889848e-02 -1.456868e-02 3.347779e-02
<VARIANCE> 39
 5.361465e+00 5.850701e+00 7.452250e+00 1.031438e+01 1.202344e+01 1.461870e+01 1.655217e+01 1.791412e+01 1.851075e+01 1.737202e+01 1.645255e+01 1.416317e+01 1.276582e+00 2.534422e-01 3.365520e-01 3.772636e-01 5.664126e-01 6.053315e-01 7.375299e-01 7.088121e-01 9.202797e-01 8.939188e-01 7.990524e-01 7.762712e-01 6.718940e-01 2.073161e-02 3.954322e-02 5.724549e-02 6.069210e-02 9.818368e-02 9.287839e-02 1.226492e-01 1.060883e-01 1.502721e-01 1.416596e-01 1.225172e-01 1.118093e-01 9.929962e-02 4.412939e-03
<GCONST> 5.788792e+01
<TRANSP> 5
 0.000000e+00 1.000000e+00 0.000000e+00 0.000000e+00 0.000000e+00
 0.000000e+00 7.692372e-01 2.307628e-01 0.000000e+00 0.000000e+00
 0.000000e+00 0.000000e+00 9.590834e-01 4.091662e-02 0.000000e+00
 0.000000e+00 0.000000e+00 0.000000e+00 7.109271e-01 2.890729e-01
 0.000000e+00 0.000000e+00 0.000000e+00 0.000000e+00 0.000000e+00
<ENDHMM>
~h "six"
<BEGINHMM>
<NUMSTATES> 5
<STATE> 2
<MEAN> 39
 -9.124295e+00 -4.836954e+00 -7.749950e+00 -8.266641e+00 -2.438859e+00 -2.834775e+00 -1.487293e+00 -7.798925e+00 -3.116514e+00 -4.969309e+00 3.618734e-01 -3.493934e+00 1.461232e+01 2.726815e-02 1.591602e-01 1.186004e-01 -3.531416e-01 -3.868246e-01 -2.528194e-01 -1.307373e-02 8.919952e-03 1.418948e-01 1.896524e-01 -1.204978e-01 9.511504e-03 1.277531e-01 1.224181e-01 8.574618e-02 1.920704e-01 -2.156926e-01 -1.443492e-01 -1.911085e-01 -1.348177e-02 -1.142837e-02 4.335971e-02 1.788252e-02 -7.846203e-02 -1.185638e-01 9.579266e-02
<VARIANCE> 39
 5.881861e+00 7.824511e+00 1.145771e+01 1.170149e+01 1.691562e+01 1.670044e+01 1.585943e+01 1.681437e+01 1.957147e+01 2.023767e+01 1.844874e+01 1.536606e+01 1.012899e+00 5.537637e-01 4.715960e-01 1.205765e+00 1.010496e+00 1.007774e+00 1.470701e+00 8.038266e-01 8.137790e-01 1.030870e+00 1.294179e+00 9.459658e-01 9.358549e-01 1.411681e-01 4.636097e-02 5.967518e-02 9.845407e-02 1.366895e-01 1.730452e-01 1.833200e-01 1.418882e-01 1.549592e-01 1.804593e-01 1.774093e-01 1.522814e-01 1.540164e-01 7.503502e-03
<GCONST> 7.075553e+01
<STATE> 3
<MEAN> 39
 -6.389795e+00 -1.255083e+00 -8.810621e-01 -1.937228e+01 -7.577193e+00 -8.493302e+00 -2.595068e+00 -6.569140e+00 3.325122e-02 -3.820272e+00 -2.226170e+00 -7.108534e+00 1.817332e+01 6.033789e-02 -1.004579e-01 1.973095e-01 -2.318163e-01 3.399070e-01 1.645809e-01 -1.732649e-01 1.224702e-01 4.917457e-02 -1.716382e-01 1.772010e-01 -6.580623e-03 -4.431784e-02 -7.081276e-02 -1.914884e-01 -2.624974e-01 4.212635e-01 2.477779e-01 2.067547e-01 8.841411e-02 -7.030384e-02 -1.214316e-01 -5.252286e-02 1.186420e-01 1.339913e-01 -1.487445e-01
<VARIANCE> 39
 7.367370e+00 9.635603e+00 1.569743e+01 2.776346e+01 5.692444e+01 3.167278e+01 3.629293e+01 2.495916e+01 3.438405e+01 5.661711e+01 3.469410e+01 3.674878e+01 1.645046e+00 3.757045e-01 7.674608e-01 1.271301e+00 3.640178e+00 2.695807e+00 1.950656e+00 1.896175e+00 1.366035e+00 1.928482e+00 2.033426e+00 1.879827e+00 2.011311e+00 3.396144e-01 6.646575e-02 6.525157e-02 1.520793e-01 2.585392e-01 3.130457e-01 3.120063e-01 3.695940e-01 2.303204e-01 2.922211e-01 3.375136e-01 2.687100e-01 2.614650e-01 1.433633e-02
<GCONST> 9.337853e+01
<STATE> 4
<MEAN> 39
 -8.222577e+00 -6.451437e+00 -6.277396e+00 -9.275584e+00 -2.415952e+00 -3.256265e+00 -9.182754e-01 -8.615623e+00 -2.795306e+00 -5.153826e+00 7.408623e-01 -4.248635e+00 1.464349e+01 -7.442111e-02 -1.118068e-01 -2.389872e-01 2.870738e-01 3.500330e-02 6.666906e-02 1.390730e-01 -4.188128e-02 -8.121256e-02 -2.483078e-03 7.366602e-03 3.130473e-02 -6.889616e-02 2.173764e-02 7.154384e-02 7.432591e-02 -1.248946e-01 -5.118583e-02 -6.603909e-02 -5.131251e-02 3.815508e-02 2.469883e-02 6.733376e-03 -2.995425e-02 -2.922717e-02 4.497604e-02
<VARIANCE> 39
 7.836415e+00 8.036995e+00 1.202001e+01 1.253897e+01 1.775489e+01 1.684576e+01 1.688480e+01 1.718215e+01 1.742179e+01 1.762552e+01 1.547863e+01 1.427368e+01 1.310076e+00 3.471873e-01 5.518969e-01 7.463481e-01 9.087901e-01 9.875034e-01 1.059264e+00 1.026785e+00 9.108871e-01 8.760954e-01 8.051556e-01 7.558450e-01 6.350749e-01 5.456981e-02 4.509161e-02 7.355041e-02 1.100384e-01 1.327706e-01 1.825923e-01 1.706939e-01 1.655958e-01 1.667243e-01 1.581870e-01 1.441438e-01 1.370198e-01 1.246723e-01 7.388060e-03
<GCONST> 6.779652e+01
<TRANSP> 5
 0.000000e+00 1.000000e+00 0.000000e+00 0.000000e+00 0.000000e+00
 0.000000e+00 9.049471e-01 9.505288e-02 0.000000e+00 0.000000e+00
 0.000000e+00 0.000000e+00 8.983329e-01 1.016672e-01 0.000000e+00
 0.000000e+00 0.000000e+00 0.000000e+00 9.437304e-01 5.626964e-02
 0.000000e+00 0.000000e+00 0.000000e+00 0.000000e+00 0.000000e+00
<ENDHMM>
~h "two"
<BEGINHMM>
<NUMSTATES> 5
<STATE> 2
<MEAN> 39
 -9.639425e+00 -4.513438e+00 -6.580778e+00 -9.863564e+00 -9.720449e-01 -4.070658e+00 -1.373334e+00 -8.179415e+00 -2.537166e+00 -5.722520e+00 1.014209e+00 -3.721752e+00 1.495429e+01 -3.757847e-02 2.631182e-01 2.263407e-01 -3.008494e-01 -8.029728e-02 -1.060013e-02 -1.952121e-01 2.047990e-02 1.192921e-01 3.787117e-02 -4.396828e-03 -2.839768e-02 9.347743e-02 1.950351e-01 9.726493e-02 2.115341e-01 -1.064887e-01 -1.587315e-01 -1.867048e-01 -1.174431e-01 -6.691015e-02 -2.515973e-02 -1.346599e-03 -7.481509e-02 -1.170509e-01 8.904196e-02
<VARIANCE> 39
 9.732038e+00 8.411820e+00 1.057113e+01 1.130263e+01 1.669842e+01 1.858905e+01 1.761613e+01 1.993475e+01 2.014996e+01 2.109540e+01 2.063011e+01 1.756305e+01 9.683527e-01 1.154738e+00 7.385803e-01 1.484538e+00 7.320570e-01 1.243838e+00 1.212124e+00 9.533165e-01 1.050649e+00 1.054672e+00 1.129712e+00 1.398387e+00 9.929777e-01 1.174480e-01 1.107612e-01 1.110924e-01 1.232434e-01 1.199817e-01 2.136403e-01 1.859784e-01 1.655739e-01 1.895574e-01 1.984014e-01 1.764042e-01 2.621560e-01 1.380711e-01 7.422632e-03
<GCONST> 7.620193e+01
<STATE> 3
<MEAN> 39
 -4.756932e+00 1.149315e+00 1.778223e+00 -1.527068e+01 -6.598801e+00 -9.672943e+00 -6.598322e+00 -1.044178e+01 -2.516044e+00 -5.320363e+00 -1.030022e+00 -7.239759e+00 1.830119e+01 7.193317e-01 5.999740e-01 8.360474e-01 -6.091850e-01 -1.201092e+00 -1.150000e+00 -6.212690e-01 -3.241044e-01 -7.638576e-02 1.074628e-01 -2.783286e-01 -6.924762e-01 4.804424e-01 -2.461656e-01 -2.219682e-01 -4.234540e-01 2.838056e-01 2.397677e-01 2.108266e-01 2.293680e-01 1.474367e-01 -1.436252e-02 5.922049e-03 1.442220e-01 1.762000e-01 -1.356782e-01
<VARIANCE> 39
 7.637066e+00 8.201186e+00 1.359602e+01 2.286915e+01 4.094161e+01 2.664879e+01 2.842989e+01 2.392866e+01 3.044522e+01 5.369547e+01 4.334026e+01 4.700746e+01 1.220939e+00 6.002339e-01 6.134166e-01 9.871269e-01 1.413979e+00 1.245545e+00 1.154157e+00 1.636980e+00 1.535896e+00 1.877873e+00 2.038627e+00 2.554879e+00 1.859357e+00 8.416704e-02 6.196151e-02 5.703242e-02 8.188549e-02 1.318224e-01 2.159623e-01 1.828540e-01 2.050731e-01 1.926453e-01 2.096131e-01 2.724444e-01 2.909152e-01 2.224141e-01 8.053158e-03
<GCONST> 8.427511e+01
<STATE> 4
<MEAN> 39
 -3.074161e+00 -2.498646e-01 -1.582212e-01 -1.281026e+01 -6.631938e+00 -1.135587e+01 -5.742220e+00 -1.003087e+01 -3.079259e+00 -5.508286e+00 -1.510038e-01 -7.402926e+00 1.806438e+01 2.856034e-02 -3.108919e-01 -3.225638e-01 4.777225e-01 4.160373e-01 2.897256e-01 2.823419e-01 6.164537e-02 -7.978693e-02 -2.571402e-03 1.468304e-01 2.523635e-01 -1.813462e-01 -7.879107e-02 -6.534896e-02 -4.715110e-02 -2.748246e-03 8.374491e-02 1.333984e-01 8.168693e-02 3.501737e-02 2.799246e-02 -2.889828e-03 -1.432047e-02 4.589098e-02 -4.147476e-02
<VARIANCE> 39
 6.126943e+00 7.980889e+00 1.202320e+01 3.019340e+01 3.252039e+01 2.281907e+01 3.197462e+01 3.246526e+01 4.006965e+01 4.282218e+01 5.143107e+01 4.045080e+01 1.492839e+00 2.866651e-01 2.399536e-01 4.425741e-01 6.655242e-01 9.312070e-01 1.150726e+00 1.105539e+00 1.194717e+00 1.057024e+00 1.124072e+00 1.145986e+00 1.082552e+00 3.967664e-02 3.091891e-02 3.306117e-02 5.466446e-02 9.506728e-02 1.114158e-01 1.450114e-01 1.389046e-01 1.749011e-01 1.699727e-01 1.672946e-01 1.672979e-01 1.557807e-01 3.008835e-03
<GCONST> 7.111194e+01
<TRANSP> 5
 0.000000e+00 1.000000e+00 0.000000e+00 0.000000e+00 0.000000e+00
 0.000000e+00 9.084739e-01 9.152611e-02 0.000000e+00 0.000000e+00
 0.000000e+00 0.000000e+00 7.698607e-01 2.301394e-01 0.000000e+00
 0.000000e+00 0.000000e+00 0.000000e+00 9.201578e-01 7.984218e-02
 0.000000e+00 0.000000e+00 0.000000e+00 0.000000e+00 0.000000e+00
<ENDHMM>
~h "nine"
<BEGINHMM>
<NUMSTATES> 5
<STATE> 2
<MEAN> 39
 -4.077351e+00 -3.898075e+00 -1.677281e+00 -8.971136e+00 -2.804521e+00 -6.378175e+00 -1.642704e+00 -1.116137e+01 -5.117411e+00 -8.042003e+00 -2.887749e+00 -7.734895e+00 1.762904e+01 -1.811350e-01 -6.858110e-01 -2.834678e-01 4.408299e-01 -4.285477e-01 2.355722e-01 4.030302e-01 -1.731183e-01 -1.880287e-02 -1.236227e-01 -8.592863e-02 -8.367087e-02 2.069337e-01 -5.922451e-02 -1.590379e-01 -1.030372e-01 1.132284e-01 -5.451459e-03 -1.170330e-03 5.204900e-02 4.893703e-02 3.952437e-02 9.370613e-03 7.326292e-02 3.877744e-02 -9.215595e-03
<VARIANCE> 39
 8.090956e+00 1.916350e+01 1.444467e+01 1.669302e+01 2.834809e+01 2.875760e+01 3.145677e+01 2.650789e+01 4.734479e+01 3.538868e+01 3.033119e+01 3.281597e+01 1.829779e+00 4.871452e-01 1.494069e+00 1.080500e+00 1.097178e+00 1.264093e+00 1.393845e+00 1.627397e+00 1.205143e+00 1.553548e+00 1.157376e+00 1.183345e+00 1.006630e+00 4.894963e-02 6.265662e-02 1.682054e-01 1.288508e-01 1.425371e-01 2.181618e-01 2.178726e-01 2.447268e-01 1.814135e-01 2.032971e-01 1.691320e-01 1.711289e-01 1.443609e-01 4.463028e-03
<GCONST> 8.221037e+01
<STATE> 3
<MEAN> 39
 -6.347527e+00 -1.160442e+01 -4.860507e+00 -2.734695e+00 -5.693744e+00 -5.250023e+00 1.736060e+00 -1.135922e+01 -5.539676e+00 -9.015327e+00 -1.699772e+00 -7.646741e+00 1.861514e+01 -1.102203e-01 9.686165e-02 2.307480e-01 -2.420490e-01 -2.305143e-02 2.140795e-01 -1.050672e-01 -8.696228e-02 1.959006e-01 5.474237e-02 -5.526811e-02 4.596772e-02 -2.113696e-02 2.517160e-03 1.935469e-01 6.929483e-02 -2.402583e-01 4.426311e-02 6.240258e-02 -1.060979e-01 1.121227e-02 7.537658e-02 -1.084909e-02 -6.778196e-02 2.441989e-02 -1.480030e-02
<VARIANCE> 39
 7.253245e+00 8.472351e+00 2.450036e+01 3.236942e+01 1.900659e+01 3.083621e+01 3.095137e+01 3.397374e+01 4.391692e+01 4.150166e+01 2.842898e+01 3.075455e+01 1.006125e+00 8.384617e-02 3.840291e-01 4.111279e-01 1.132714e+00 5.000379e-01 6.241732e-01 5.587711e-01 5.153655e-01 6.511046e-01 6.707075e-01 6.806698e-01 5.420510e-01 4.827257e-03 1.133341e-02 3.005360e-02 4.127564e-02 5.547943e-02 7.264981e-02 7.246996e-02 7.391037e-02 8.095083e-02 8.281090e-02 8.716507e-02 7.873295e-02 7.922971e-02 3.983416e-04
<GCONST> 5.405608e+01
<STATE> 4
<MEAN> 39
 -5.408909e+00 -2.488682e+00 -1.320183e+00 -1.141008e+01 -1.443055e+00 -5.341785e+00 -3.676816e+00 -1.048138e+01 -3.509045e+00 -8.117090e+00 -2.930915e+00 -6.527726e+00 1.769445e+01 2.317131e-01 5.105820e-01 -3.096425e-03 -1.016859e-01 4.411177e-01 -2.479209e-01 -2.011404e-01 2.756116e-01 -1.277929e-01 8.107365e-02 2.108424e-01 1.169416e-01 -1.723585e-01 -2.715238e-02 -1.583061e-01 -8.625428e-02 1.474536e-01 -3.839282e-02 -6.088499e-03 1.204318e-01 1.985661e-02 -5.447755e-02 4.231410e-02 7.832185e-02 -9.555020e-03 -2.022987e-02
<VARIANCE> 39
 1.166845e+01 1.632516e+01 1.132166e+01 2.321630e+01 3.171817e+01 3.320270e+01 3.064776e+01 2.993110e+01 4.733507e+01 3.817836e+01 3.626934e+01 3.985369e+01 1.211679e+00 5.065144e-01 1.171870e+00 6.359954e-01 1.643065e+00 1.303734e+00 1.550620e+00 1.528425e+00 1.269751e+00 1.658812e+00 1.184169e+00 1.105876e+00 1.068939e+00 2.538153e-02 7.071355e-02 8.681908e-02 9.031514e-02 1.779847e-01 1.819086e-01 2.449423e-01 1.820607e-01 2.039840e-01 2.436518e-01 1.943305e-01 1.735392e-01 1.451955e-01 2.221686e-03
<GCONST> 8.083675e+01
<TRANSP> 5
 0.000000e+00 1.000000e+00 0.000000e+00 0.000000e+00 0.000000e+00
 0.000000e+00 9.012498e-01 9.875019e-02 0.000000e+00 0.000000e+00
 0.000000e+00 0.000000e+00 9.153503e-01 8.464973e-02 0.000000e+00
 0.000000e+00 0.000000e+00 0.000000e+00 9.176036e-01 8.239646e-02
 0.000000e+00 0.000000e+00 0.000000e+00 0.000000e+00 0.000000e+00
<ENDHMM>
~h "five"
<BEGINHMM>
<NUMSTATES> 5
<STATE> 2
<MEAN> 39
 -6.145398e+00 -8.579073e+00 -7.592475e+00 -9.225067e+00 -4.230814e-01 -6.121413e+00 6.982185e-03 -6.825508e+00 -3.778275e+00 -6.490692e+00 -3.218831e-01 -4.546300e+00 1.643807e+01 1.118114e-01 -6.872371e-01 -4.786062e-01 3.255050e-01 2.195628e-01 -2.712309e-01 2.421190e-01 2.803017e-01 -3.435891e-01 -1.302779e-01 -1.266234e-01 1.665934e-02 2.472924e-01 -1.682515e-03 -5.659226e-03 5.737418e-02 4.688964e-02 -1.725119e-02 -3.236904e-02 -1.989722e-02 -4.940726e-02 -1.732673e-02 2.412042e-02 1.545623e-02 -1.459406e-02 2.062047e-02
<VARIANCE> 39
 1.125178e+01 1.815395e+01 1.972027e+01 1.332439e+01 1.797008e+01 2.025481e+01 1.944244e+01 3.697186e+01 2.612169e+01 2.326826e+01 2.203203e+01 1.616223e+01 4.948175e+00 7.423150e-01 6.843820e-01 8.868290e-01 8.866085e-01 8.226844e-01 1.096085e+00 9.428359e-01 1.701072e+00 1.496826e+00 1.271825e+00 1.231866e+00 8.357548e-01 2.129058e-01 1.004220e-01 1.065275e-01 1.570928e-01 1.148714e-01 1.338445e-01 1.695196e-01 1.473377e-01 2.760098e-01 2.348387e-01 1.802744e-01 1.906061e-01 1.286207e-01 2.516619e-02
<GCONST> 8.141030e+01
<STATE> 3
<MEAN> 39
 -5.829909e+00 -1.543208e+01 -8.489591e+00 -3.791511e+00 1.364194e+00 -9.061782e+00 2.480584e+00 -7.543465e+00 -7.266445e+00 -5.482924e+00 -5.596496e-01 -4.576601e+00 1.903887e+01 -1.610334e-01 9.881388e-02 4.891214e-01 -2.808354e-01 -2.718485e-01 4.465805e-01 6.804539e-02 -3.852470e-01 3.469816e-02 2.820530e-01 5.019205e-02 -7.338819e-02 -4.962927e-02 4.119493e-02 1.198995e-01 1.074254e-02 -1.944129e-01 -5.746704e-02 8.541045e-02 -2.819504e-02 2.903905e-02 6.260761e-02 -5.057399e-02 -7.345642e-02 -1.855376e-02 -1.597177e-02
<VARIANCE> 39
 9.235526e+00 9.516533e+00 2.487408e+01 2.134836e+01 1.890437e+01 2.361060e+01 1.802782e+01 4.020394e+01 4.783453e+01 4.513331e+01 2.691067e+01 2.542698e+01 1.368736e+00 9.077791e-02 1.726038e-01 2.727436e-01 6.954194e-01 5.202848e-01 5.777718e-01 5.082278e-01 5.121704e-01 6.401118e-01 6.122557e-01 5.999669e-01 4.835868e-01 5.997612e-03 1.192117e-02 2.521042e-02 3.123399e-02 4.833080e-02 5.224710e-02 5.349406e-02 5.804979e-02 6.689412e-02 9.045416e-02 8.805491e-02 6.807338e-02 7.103819e-02 9.688378e-04
<GCONST> 5.083694e+01
<STATE> 4
<MEAN> 39
 -5.452392e+00 -7.798140e+00 -3.664706e+00 -1.292931e+01 -3.057839e+00 -3.760884e+00 1.120399e+00 -8.346094e+00 -3.888024e+00 -5.631060e+00 -1.734009e+00 -5.652997e+00 1.761936e+01 6.895538e-02 9.293717e-01 2.307910e-01 -1.987826e-01 -1.315832e-01 -8.908918e-02 -2.932270e-01 7.891084e-02 3.928482e-01 -1.370577e-01 7.673144e-02 1.234031e-02 -2.762189e-01 -4.002770e-02 -7.254218e-02 -8.900464e-02 1.945878e-01 1.092596e-01 -8.829964e-02 -1.665305e-02 -4.514159e-03 -4.075386e-02 1.309605e-02 7.344879e-02 3.240458e-02 -1.782416e-02
<VARIANCE> 39
 7.533091e+00 2.308245e+01 1.185583e+01 2.986152e+01 3.748607e+01 2.150830e+01 2.415417e+01 3.057100e+01 4.223565e+01 2.629438e+01 2.688221e+01 2.787951e+01 2.629535e+00 3.400337e-01 7.374109e-01 6.409200e-01 2.733145e+00 1.682090e+00 1.393085e+00 9.393049e-01 1.417220e+00 1.594570e+00 1.266549e+00 1.316847e+00 1.013080e+00 6.819301e-02 5.715516e-02 1.022106e-01 9.524722e-02 3.009378e-01 2.342660e-01 2.509228e-01 1.675267e-01 2.084452e-01 2.011767e-01 1.717466e-01 2.163434e-01 1.726193e-01 9.082240e-03
<GCONST> 8.298357e+01
<TRANSP> 5
 0.000000e+00 1.000000e+00 0.000000e+00 0.000000e+00 0.000000e+00
 0.000000e+00 9.300379e-01 6.996207e-02 0.000000e+00 0.000000e+00
 0.000000e+00 0.000000e+00 9.152321e-01 8.476788e-02 0.000000e+00
 0.000000e+00 0.000000e+00 0.000000e+00 8.980064e-01 1.019936e-01
 0.000000e+00 0.000000e+00 0.000000e+00 0.000000e+00 0.000000e+00
<ENDHMM>
~h "four"
<BEGINHMM>
<NUMSTATES> 5
<STATE> 2
<MEAN> 39
 -7.667628e+00 -6.677812e+00 -5.470654e+00 -9.688788e+00 -1.112556e+00 -4.543469e+00 -5.189673e-01 -8.559961e+00 -2.271112e+00 -5.732471e+00 1.121445e+00 -4.080829e+00 1.494338e+01 3.138320e-01 1.474492e-02 -3.778498e-01 -2.939815e-01 -1.125264e-01 -9.206174e-02 -1.320327e-01 -8.572118e-03 1.231805e-01 1.055063e-01 -1.625454e-02 -4.077238e-02 1.258376e-01 2.438175e-01 9.813546e-02 -1.170310e-01 -1.288148e-01 -5.304023e-02 -1.112591e-01 -1.098000e-01 -1.808191e-02 -8.184182e-03 7.009769e-03 -7.390789e-02 -1.029500e-01 1.065351e-01
<VARIANCE> 39
 4.657629e+00 4.193461e+00 6.876471e+00 8.704011e+00 1.156782e+01 1.418995e+01 1.488088e+01 1.611066e+01 1.489994e+01 1.410065e+01 1.539702e+01 1.167682e+01 9.116796e-01 1.047064e+00 4.639156e-01 5.766310e-01 6.437188e-01 6.049656e-01 9.842657e-01 9.577646e-01 8.519959e-01 8.544623e-01 7.821159e-01 1.037502e+00 8.674470e-01 1.654561e-01 5.929447e-02 5.711768e-02 1.015155e-01 1.069118e-01 1.041822e-01 1.638900e-01 1.311688e-01 1.613805e-01 1.551099e-01 1.347690e-01 1.544513e-01 1.329648e-01 6.555370e-03
<GCONST> 6.410854e+01
<STATE> 3
<MEAN> 39
 1.545538e+00 -3.506086e+00 -1.204608e+01 -1.693925e+01 -4.004861e+00 -6.246482e+00 -3.255047e+00 -8.958972e+00 -1.451341e+00 -3.992062e+00 3.068266e-01 -6.856421e+00 1.889500e+01 3.433108e-01 -1.623344e-01 -3.558466e-01 -7.216868e-02 6.820387e-02 -2.290310e-02 -2.270721e-01 1.736737e-01 3.472258e-01 1.047987e-01 -2.364450e-01 -2.329481e-01 1.594964e-01 -1.728055e-01 -1.511368e-01 1.446061e-01 2.267967e-01 4.013219e-02 -2.949203e-02 4.305404e-02 1.087220e-01 4.690663e-02 -7.877239e-02 -5.253172e-02 5.703605e-02 -6.698068e-02
<VARIANCE> 39
 4.227973e+00 1.022241e+01 1.029043e+01 1.432918e+01 2.460277e+01 1.721144e+01 1.818636e+01 1.709348e+01 2.334691e+01 2.481168e+01 3.750475e+01 3.594285e+01 1.115809e+00 5.912065e-01 7.438638e-01 7.231898e-01 1.240830e+00 9.895772e-01 7.948636e-01 9.115136e-01 9.642987e-01 1.307602e+00 1.180657e+00 1.372136e+00 1.243436e+00 1.038317e-01 4.871612e-02 4.642856e-02 9.628277e-02 8.305278e-02 1.340592e-01 1.435018e-01 1.544317e-01 1.396359e-01 1.799935e-01 1.932644e-01 2.021901e-01 1.820075e-01 7.090536e-03
<GCONST> 7.298954e+01
<STATE> 4
<MEAN> 39
 -5.429782e-01 -1.072217e+01 -7.323061e+00 -8.565803e+00 -5.391732e+00 -8.704742e+00 -2.323937e+00 -4.895596e+00 1.831480e-01 -7.540132e+00 -3.910845e+00 -7.426204e+00 1.840886e+01 -6.129146e-01 7.466043e-02 1.055959e+00 4.896436e-01 -3.433426e-01 7.616799e-02 5.981609e-01 -1.811750e-01 -6.240147e-01 -3.440933e-01 1.658271e-01 3.014689e-01 -2.432779e-01 -9.001508e-02 2.380752e-01 -4.453519e-02 -1.996030e-01 1.165274e-01 1.960437e-01 3.099971e-02 -1.858903e-01 -1.287889e-01 1.032559e-01 1.745541e-01 4.439684e-02 -4.962655e-02
<VARIANCE> 39
 7.333449e+00 1.779966e+01 3.181581e+01 1.828333e+01 4.522181e+01 3.700929e+01 3.509676e+01 4.319452e+01 4.621222e+01 3.482871e+01 3.460004e+01 3.076928e+01 1.741647e+00 2.971740e-01 1.587485e+00 9.179333e-01 1.626268e+00 2.564562e+00 2.221735e+00 1.718489e+00 2.564759e+00 1.885273e+00 1.705944e+00 1.829044e+00 1.123809e+00 5.832970e-02 2.926787e-02 1.346428e-01 2.064870e-01 1.690588e-01 4.288318e-01 2.940583e-01 3.516539e-01 3.668489e-01 3.851878e-01 2.816694e-01 3.092497e-01 2.124632e-01 3.411676e-03
<GCONST> 9.085587e+01
<TRANSP> 5
 0.000000e+00 1.000000e+00 0.000000e+00 0.000000e+00 0.000000e+00
 0.000000e+00 9.011173e-01 9.888262e-02 0.000000e+00 0.000000e+00
 0.000000e+00 0.000000e+00 9.186854e-01 8.131460e-02 0.000000e+00
 0.000000e+00 0.000000e+00 0.000000e+00 8.810130e-01 1.189870e-01
 0.000000e+00 0.000000e+00 0.000000e+00 0.000000e+00 0.000000e+00
<ENDHMM>
~h "zero"
<BEGINHMM>
<NUMSTATES> 5
<STATE> 2
<MEAN> 39
 -6.758392e+00 -3.060475e+00 -4.886838e+00 -7.466958e+00 -1.265881e+00 -3.807472e+00 -1.414242e+00 -8.520109e+00 -3.457485e+00 -5.106246e+00 5.899844e-01 -4.556083e+00 1.523184e+01 -8.167140e-02 3.318194e-01 1.414313e-01 -3.042298e-01 -2.134102e-01 -2.738645e-01 -1.777465e-01 -1.205428e-01 1.233498e-01 2.201165e-01 -1.252791e-02 -2.018980e-04 1.060811e-01 6.807274e-02 1.068963e-01 1.512945e-01 -2.257061e-01 -1.459437e-01 -2.462647e-01 -6.497630e-02 -7.538842e-02 6.203970e-02 1.079978e-02 -2.261724e-02 -5.404428e-02 8.252454e-02
<VARIANCE> 39
 7.744964e+00 1.028930e+01 1.429265e+01 1.361021e+01 1.783426e+01 1.930273e+01 1.878031e+01 1.949875e+01 2.377155e+01 2.085678e+01 1.977685e+01 1.678351e+01 1.208771e+00 4.211856e-01 7.291070e-01 1.003779e+00 9.500787e-01 8.893938e-01 1.750875e+00 9.589941e-01 1.102162e+00 1.068050e+00 8.963199e-01 1.006113e+00 1.001697e+00 1.192612e-01 5.258026e-02 9.179132e-02 1.144113e-01 1.198321e-01 1.237968e-01 1.946354e-01 1.597978e-01 1.730647e-01 1.607265e-01 1.399884e-01 1.706448e-01 1.584625e-01 7.958888e-03
<GCONST> 7.320403e+01
<STATE> 3
<MEAN> 39
 -5.590194e+00 3.886968e-01 8.094646e-01 -1.662275e+01 -7.714167e+00 -9.220444e+00 -4.657454e+00 -8.629154e+00 -4.848059e-02 -3.802207e+00 1.259608e-01 -6.760028e+00 1.834451e+01 3.381925e-01 -6.256111e-01 4.878049e-01 -2.639945e-01 -1.101985e+00 1.288072e-01 1.560791e-01 1.536554e-01 3.344719e-01 -5.406764e-02 2.646336e-02 -1.549785e-01 1.947555e-01 4.508185e-02 -2.656628e-01 -1.693374e-01 3.430146e-01 9.910884e-03 1.398254e-01 1.906883e-01 7.248961e-02 -7.144023e-02 -4.763231e-02 -7.150233e-03 6.287745e-02 -6.160355e-02
<VARIANCE> 39
 7.283832e+00 1.920803e+01 1.718414e+01 2.744856e+01 5.852337e+01 3.940813e+01 3.188792e+01 4.335617e+01 3.245444e+01 3.001210e+01 3.378934e+01 4.993664e+01 1.156246e+00 4.295679e-01 1.775292e+00 8.561317e-01 2.667063e+00 1.664313e+00 2.653927e+00 1.728749e+00 1.475793e+00 1.339966e+00 1.175361e+00 1.141168e+00 1.379692e+00 7.311657e-02 5.099608e-02 1.108549e-01 1.223376e-01 1.858091e-01 2.377917e-01 3.920349e-01 2.243786e-01 2.434050e-01 2.199479e-01 1.773634e-01 1.723673e-01 2.130816e-01 4.551022e-03
<GCONST> 8.729592e+01
<STATE> 4
<MEAN> 39
 -1.648972e+00 -9.930880e+00 -4.553670e+00 -9.834926e+00 -9.199436e+00 -8.375539e+00 4.470944e-02 -4.371134e+00 -3.079532e-01 -6.664273e+00 -1.067237e+00 -5.913092e+00 1.846281e+01 -2.046740e-03 4.178717e-02 -4.248084e-01 2.115308e-01 6.911249e-01 -3.655739e-02 1.235442e-02 7.663789e-02 -1.452855e-01 -9.950756e-02 -4.251589e-02 5.553055e-02 -9.986489e-02 -8.146027e-02 1.026565e-01 5.171731e-02 -8.309432e-02 8.972002e-02 7.184294e-02 -5.901778e-02 -6.236252e-02 -2.359974e-02 2.521237e-02 2.534343e-02 8.705882e-03 -2.411362e-02
<VARIANCE> 39
 6.049116e+00 2.023056e+01 2.590060e+01 2.574843e+01 6.115488e+01 5.178827e+01 3.776867e+01 3.635458e+01 4.392522e+01 3.594093e+01 2.597980e+01 3.311795e+01 1.509749e+00 3.009689e-01 8.268420e-01 7.835613e-01 1.012541e+00 1.235536e+00 1.841056e+00 1.589035e+00 1.897704e+00 1.647784e+00 1.476519e+00 1.053416e+00 9.581112e-01 3.798242e-02 2.902732e-02 5.183233e-02 8.356597e-02 1.131020e-01 1.904546e-01 2.369962e-01 2.061063e-01 2.034454e-01 2.219829e-01 2.011964e-01 1.522700e-01 1.418968e-01 2.416091e-03
<GCONST> 8.033745e+01
<TRANSP> 5
 0.000000e+00 1.000000e+00 0.000000e+00 0.000000e+00 0.000000e+00
 0.000000e+00 8.903263e-01 1.096737e-01 0.000000e+00 0.000000e+00
 0.000000e+00 0.000000e+00 8.973504e-01 1.026496e-01 0.000000e+00
 0.000000e+00 0.000000e+00 0.000000e+00 9.447396e-01 5.526038e-02
 0.000000e+00 0.000000e+00 0.000000e+00 0.000000e+00 0.000000e+00
<ENDHMM>
