~o
<STREAMINFO> 1 39
<VECSIZE> 39<NULLD><MFCC_E_D_A><DIAGC>
~s "silst"
<MEAN> 39
 -5.929820e+00 -6.006202e+00 -5.328373e+00 -1.056818e+01 -2.315047e+00 -5.772311e+00 -9.313709e-01 -8.359781e+00 -2.657905e+00 -5.930420e+00 -5.541998e-02 -5.083737e+00 1.605730e+01 -2.405979e-05 1.648348e-03 1.125246e-03 4.536784e-04 -2.129523e-04 6.842171e-05 1.339417e-03 -2.353685e-03 -2.145722e-03 -9.933859e-05 -1.740528e-03 -2.707577e-03 6.070763e-04 4.065186e-04 3.207093e-04 -2.689234e-04 -1.808615e-04 2.647776e-04 9.003330e-04 -4.456909e-04 6.208544e-04 8.023616e-04 -6.001463e-04 -1.393685e-03 -1.915785e-06 1.450392e-04
<VARIANCE> 39
 1.171042e+01 1.995056e+01 1.933707e+01 2.485819e+01 2.843019e+01 2.721108e+01 2.551258e+01 2.643147e+01 2.761372e+01 2.569365e+01 2.535600e+01 2.350435e+01 4.402521e+00 3.201450e-01 6.228950e-01 6.569236e-01 9.771068e-01 1.025342e+00 1.165104e+00 1.040066e+00 1.062827e+00 1.078859e+00 9.546792e-01 9.666330e-01 8.464094e-01 7.078210e-02 3.976319e-02 7.005455e-02 8.737206e-02 1.309318e-01 1.515733e-01 1.826830e-01 1.629411e-01 1.701341e-01 1.712876e-01 1.486742e-01 1.546560e-01 1.365853e-01 6.447446e-03
<GCONST> 7.621289e+01
~h "eight"
<BEGINHMM>
<NUMSTATES> 5
<STATE> 2
<MEAN> 39
 -6.090176e+00 -4.370426e+00 -5.170854e+00 -1.196990e+01 -2.313788e+00 -6.565977e+00 -1.208414e+00 -8.071515e+00 -2.458116e+00 -5.870848e+00 -2.664683e-01 -5.319149e+00 1.650934e+01 2.876750e-03 2.025297e-03 3.413825e-03 -1.577892e-03 -8.764307e-04 2.414924e-03 9.514578e-05 4.264603e-03 3.967550e-03 5.615245e-03 1.245447e-03 4.892514e-03 -7.035604e-04 -1.175646e-04 -6.863768e-04 -3.475962e-04 2.231011e-04 3.597513e-04 3.826971e-04 4.948098e-04 6.149622e-05 -2.136530e-04 2.239640e-04 8.442016e-04 6.713558e-04 -4.778322e-04
<VARIANCE> 39
 1.359137e+01 3.140421e+01 2.234483e+01 3.401946e+01 2.941653e+01 3.340291e+01 2.987664e+01 2.855795e+01 3.139456e+01 2.687926e+01 2.764560e+01 2.627509e+01 4.508961e+00 3.644453e-01 9.777238e-01 7.440600e-01 1.270010e+00 1.104970e+00 1.461076e+00 1.250258e+00 1.197898e+00 1.290819e+00 1.074641e+00 1.074722e+00 9.250492e-01 9.457657e-02 4.408165e-02 9.905857e-02 9.485339e-02 1.605943e-01 1.597288e-01 2.124267e-01 1.862982e-01 1.839687e-01 1.978552e-01 1.681341e-01 1.707465e-01 1.501088e-01 8.626958e-03
<GCONST> 8.240102e+01
<STATE> 3
<MEAN> 39
 -6.081254e+00 -4.367521e+00 -5.161789e+00 -1.197285e+01 -2.314943e+00 -6.555827e+00 -1.206351e+00 -8.058844e+00 -2.447368e+00 -5.852176e+00 -2.581230e-01 -5.301508e+00 1.650471e+01 2.693791e-03 1.057310e-04 2.719035e-03 1.606552e-04 5.728915e-04 3.509498e-03 9.642828e-04 4.101279e-03 2.902766e-03 6.006678e-03 3.753624e-03 5.761312e-03 -2.203072e-03 -1.167294e-04 -5.517366e-04 -2.097276e-04 6.208753e-04 5.228777e-04 3.247781e-04 2.196827e-04 -2.447139e-04 -3.316401e-04 5.927079e-05 8.196742e-04 2.226637e-04 -4.941635e-04
<VARIANCE> 39
 1.356620e+01 3.123031e+01 2.233360e+01 3.391470e+01 2.940617e+01 3.339814e+01 2.986491e+01 2.856291e+01 3.133925e+01 2.683763e+01 2.755042e+01 2.608724e+01 4.489727e+00 3.626744e-01 9.730769e-01 7.410766e-01 1.266462e+00 1.102987e+00 1.457501e+00 1.249453e+00 1.196847e+00 1.287736e+00 1.073346e+00 1.074986e+00 9.229302e-01 9.411043e-02 4.382374e-02 9.854926e-02 9.444959e-02 1.602218e-01 1.595092e-01 2.117467e-01 1.860935e-01 1.837191e-01 1.974908e-01 1.677563e-01 1.708021e-01 1.499025e-01 8.586387e-03
<GCONST> 8.230376e+01
<STATE> 4
<MEAN> 39
 -6.071800e+00 -4.350555e+00 -5.150284e+00 -1.197817e+01 -2.312745e+00 -6.551190e+00 -1.203822e+00 -8.045359e+00 -2.438630e+00 -5.828895e+00 -2.420914e-01 -5.281343e+00 1.649970e+01 2.941176e-03 -3.635381e-03 1.728574e-03 4.938741e-03 2.966230e-03 5.606652e-03 1.646872e-03 2.526415e-03 1.490357e-03 5.880488e-03 6.141868e-03 5.875395e-03 -4.577075e-03 -2.633978e-05 -9.371692e-04 -2.149708e-04 1.097217e-03 5.904961e-04 5.412410e-04 2.193743e-04 -5.476246e-04 -1.871035e-04 -1.476345e-04 3.970108e-04 -2.946468e-05 -5.907872e-04
<VARIANCE> 39
 1.352389e+01 3.104218e+01 2.225456e+01 3.377830e+01 2.938614e+01 3.344938e+01 2.986020e+01 2.856286e+01 3.127841e+01 2.677509e+01 2.746182e+01 2.583675e+01 4.459617e+00 3.601496e-01 9.689844e-01 7.368028e-01 1.260667e+00 1.100384e+00 1.454945e+00 1.248653e+00 1.194599e+00 1.284608e+00 1.072249e+00 1.076800e+00 9.209822e-01 9.351151e-02 4.344322e-02 9.811532e-02 9.395741e-02 1.595296e-01 1.591620e-01 2.109750e-01 1.858576e-01 1.832389e-01 1.971102e-01 1.673973e-01 1.711237e-01 1.498321e-01 8.527860e-03
<GCONST> 8.218348e+01
<TRANSP> 5
 0.000000e+00 1.000000e+00 0.000000e+00 0.000000e+00 0.000000e+00
 0.000000e+00 6.730208e-01 3.269792e-01 0.000000e+00 0.000000e+00
 0.000000e+00 0.000000e+00 6.730204e-01 3.269797e-01 0.000000e+00
 0.000000e+00 0.000000e+00 0.000000e+00 7.850738e-01 2.149262e-01
 0.000000e+00 0.000000e+00 0.000000e+00 0.000000e+00 0.000000e+00
<ENDHMM>
~h "oh"
<BEGINHMM>
<NUMSTATES> 5
<STATE> 2
<MEAN> 39
 -4.632878e+00 -6.477935e+00 -6.858099e+00 -1.055311e+01 -2.245981e+00 -7.044684e+00 -9.553117e-01 -7.706083e+00 -2.511893e+00 -6.196263e+00 -9.680033e-01 -5.583142e+00 1.698775e+01 4.378656e-03 1.490300e-03 1.646043e-04 5.821056e-04 4.478233e-04 3.080656e-03 1.931382e-03 -1.583829e-04 -8.268743e-04 4.846600e-03 1.703975e-03 -4.455775e-04 -1.261547e-03 -3.834512e-04 -3.713789e-04 1.622139e-04 4.458744e-04 3.754888e-04 6.696132e-04 -6.150047e-06 5.128956e-04 -5.111442e-05 -1.127558e-04 -7.151393e-07 8.200709e-05 -4.463595e-04
<VARIANCE> 39
 1.545114e+01 2.060866e+01 2.501182e+01 2.461935e+01 2.369756e+01 3.062211e+01 3.098040e+01 3.568128e+01 3.325940e+01 3.157635e+01 3.118210e+01 2.958271e+01 4.396287e+00 3.932784e-01 6.246321e-01 7.025878e-01 9.170212e-01 9.354918e-01 1.168879e+00 1.135894e+00 1.229224e+00 1.232262e+00 1.117606e+00 1.106270e+00 9.626396e-01 9.101855e-02 4.286784e-02 6.974730e-02 8.452619e-02 1.205654e-01 1.442892e-01 1.737771e-01 1.644749e-01 1.783882e-01 1.810029e-01 1.648343e-01 1.641272e-01 1.445534e-01 8.084705e-03
<GCONST> 7.960455e+01
<STATE> 3
<MEAN> 39
 -4.621437e+00 -6.473821e+00 -6.855629e+00 -1.054934e+01 -2.242839e+00 -7.032243e+00 -9.515916e-01 -7.704718e+00 -2.513556e+00 -6.183169e+00 -9.612249e-01 -5.582020e+00 1.698128e+01 2.965875e-03 6.060626e-04 8.655553e-04 1.403006e-03 1.590337e-03 4.970718e-03 1.634890e-03 4.913550e-04 -7.892428e-04 4.449622e-03 3.225228e-03 7.368344e-04 -2.747965e-03 -4.344267e-04 -1.605895e-04 3.031846e-04 1.750929e-04 3.883228e-04 5.171261e-04 -1.250940e-04 1.172147e-04 -5.049247e-05 -7.378060e-05 4.349809e-04 3.914080e-04 -4.777095e-04
<VARIANCE> 39
 1.539406e+01 2.045435e+01 2.497376e+01 2.450557e+01 2.374262e+01 3.068048e+01 3.088673e+01 3.562395e+01 3.329226e+01 3.154994e+01 3.116895e+01 2.947754e+01 4.380874e+00 3.921690e-01 6.205484e-01 6.991322e-01 9.123809e-01 9.353889e-01 1.168821e+00 1.133260e+00 1.227018e+00 1.232419e+00 1.118277e+00 1.109162e+00 9.645673e-01 9.070743e-02 4.267371e-02 6.942445e-02 8.412804e-02 1.199823e-01 1.440566e-01 1.735106e-01 1.639820e-01 1.781425e-01 1.808978e-01 1.647989e-01 1.643121e-01 1.449392e-01 8.054653e-03
<GCONST> 7.953024e+01
<STATE> 4
<MEAN> 39
 -4.595117e+00 -6.467871e+00 -6.860020e+00 -1.054517e+01 -2.237270e+00 -7.022433e+00 -9.515051e-01 -7.693921e+00 -2.512096e+00 -6.169581e+00 -9.509330e-01 -5.580888e+00 1.697769e+01 2.660177e-04 1.405017e-03 3.295195e-03 1.174418e-03 3.302648e-03 8.133738e-03 1.351326e-03 -4.776827e-04 -7.429851e-04 4.530955e-03 6.444427e-03 3.113755e-03 -5.295118e-03 -6.775383e-04 3.013493e-04 5.981846e-04 -1.921700e-04 4.290481e-04 6.055395e-04 -1.117934e-04 -3.222997e-04 -1.319742e-04 -1.301081e-04 4.496580e-04 5.938717e-04 -6.144828e-04
<VARIANCE> 39
 1.532950e+01 2.025196e+01 2.499817e+01 2.436381e+01 2.380045e+01 3.079856e+01 3.079034e+01 3.560188e+01 3.333403e+01 3.154409e+01 3.119977e+01 2.938132e+01 4.361535e+00 3.909751e-01 6.150320e-01 6.953591e-01 9.065959e-01 9.359216e-01 1.168227e+00 1.129656e+00 1.225928e+00 1.233246e+00 1.120059e+00 1.112508e+00 9.669421e-01 9.013979e-02 4.241766e-02 6.895179e-02 8.365609e-02 1.191920e-01 1.439820e-01 1.729766e-01 1.632507e-01 1.780865e-01 1.808606e-01 1.648490e-01 1.645208e-01 1.453272e-01 7.995766e-03
<GCONST> 7.944511e+01
<TRANSP> 5
 0.000000e+00 1.000000e+00 0.000000e+00 0.000000e+00 0.000000e+00
 0.000000e+00 6.728501e-01 3.271500e-01 0.000000e+00 0.000000e+00
 0.000000e+00 0.000000e+00 6.728514e-01 3.271486e-01 0.000000e+00
 0.000000e+00 0.000000e+00 0.000000e+00 7.848699e-01 2.151301e-01
 0.000000e+00 0.000000e+00 0.000000e+00 0.000000e+00 0.000000e+00
<ENDHMM>
~h "sp"
<BEGINHMM>
<NUMSTATES> 5
<STATE> 2
~s "silst"
<STATE> 3
<MEAN> 39
 -5.274426e+00 -5.367243e+00 -5.030309e+00 -1.087835e+01 -3.114145e+00 -6.583949e+00 -1.400948e+00 -8.181753e+00 -2.811861e+00 -6.004518e+00 -6.274561e-01 -5.576313e+00 1.689190e+01 3.771349e-03 -2.062469e-03 2.070227e-03 2.646138e-03 4.403958e-03 3.948743e-03 4.125715e-03 1.469687e-03 1.330436e-03 4.056101e-03 4.593628e-03 4.546899e-03 -2.571193e-03 -5.332934e-04 -5.839651e-04 -2.947999e-04 1.126615e-04 5.790947e-04 5.153713e-04 3.298208e-04 -1.073723e-04 3.771269e-05 6.734216e-05 4.416098e-04 4.349194e-04 -6.229518e-04
<VARIANCE> 39
 1.480357e+01 2.690205e+01 2.604490e+01 3.191818e+01 3.476292e+01 3.357352e+01 3.114759e+01 3.192768e+01 3.423145e+01 3.091793e+01 2.954363e+01 2.856726e+01 4.100602e+00 4.666504e-01 8.735520e-01 9.020282e-01 1.295823e+00 1.344383e+00 1.482762e+00 1.292093e+00 1.262500e+00 1.300631e+00 1.160564e+00 1.110073e+00 9.764682e-01 1.036634e-01 5.622507e-02 9.524453e-02 1.130403e-01 1.704135e-01 1.954113e-01 2.232562e-01 1.973491e-01 1.937946e-01 1.988046e-01 1.788703e-01 1.744126e-01 1.519262e-01 9.720288e-03
<GCONST> 8.495334e+01
<STATE> 4
<MEAN> 39
 -5.258618e+00 -5.376271e+00 -5.023209e+00 -1.086972e+01 -3.098137e+00 -6.569408e+00 -1.384311e+00 -8.175316e+00 -2.806107e+00 -5.989017e+00 -6.089663e-01 -5.558751e+00 1.688306e+01 1.624384e-03 -4.457825e-03 9.676904e-04 3.260862e-03 6.884095e-03 6.181129e-03 5.526381e-03 1.042834e-03 1.440331e-03 4.382463e-03 6.534351e-03 6.354955e-03 -5.244836e-03 -5.457178e-04 -5.527046e-04 -2.739379e-04 1.447839e-04 5.865459e-04 5.188645e-04 3.149250e-04 -1.025232e-04 1.410465e-05 5.430018e-05 4.600773e-04 4.263918e-04 -6.427041e-04
<VARIANCE> 39
 1.471570e+01 2.672508e+01 2.595871e+01 3.186418e+01 3.472487e+01 3.352440e+01 3.108805e+01 3.185412e+01 3.420303e+01 3.079831e+01 2.936433e+01 2.841580e+01 4.073133e+00 4.623461e-01 8.660418e-01 8.961113e-01 1.288095e+00 1.340951e+00 1.478474e+00 1.289802e+00 1.258970e+00 1.297304e+00 1.156752e+00 1.105217e+00 9.729089e-01 1.023351e-01 5.561006e-02 9.434319e-02 1.121947e-01 1.691754e-01 1.948174e-01 2.225902e-01 1.969910e-01 1.933599e-01 1.981953e-01 1.782640e-01 1.737405e-01 1.514722e-01 9.600682e-03
<GCONST> 8.476780e+01
<TRANSP> 5
 0.000000e+00 7.626056e-01 2.373944e-01 0.000000e+00 0.000000e+00
 0.000000e+00 6.735608e-01 3.264392e-01 0.000000e+00 0.000000e+00
 0.000000e+00 0.000000e+00 6.735969e-01 3.264031e-01 0.000000e+00
 0.000000e+00 0.000000e+00 0.000000e+00 7.857510e-01 2.142490e-01
 0.000000e+00 0.000000e+00 0.000000e+00 0.000000e+00 0.000000e+00
<ENDHMM>
~h "seven"
<BEGINHMM>
<NUMSTATES> 5
<STATE> 2
<MEAN> 39
 -5.395280e+00 -5.340875e+00 -4.697656e+00 -1.052976e+01 -3.213396e+00 -5.972684e+00 -4.932537e-01 -8.350527e+00 -2.925792e+00 -6.010807e+00 -7.771637e-01 -5.506409e+00 1.659089e+01 5.105106e-03 1.964133e-03 5.220347e-03 2.222664e-03 1.627156e-03 5.145608e-03 1.567260e-03 -1.813670e-03 8.764835e-04 8.483075e-05 -1.413216e-03 4.740296e-04 -3.025078e-04 -4.380186e-04 -5.625101e-04 -8.731889e-04 -4.143097e-04 3.092381e-04 1.904054e-05 -1.131705e-04 -1.547763e-04 -1.257185e-04 3.185229e-04 3.826380e-04 1.351344e-04 -4.607437e-04
<VARIANCE> 39
 1.337082e+01 1.961210e+01 1.945598e+01 2.564921e+01 2.997477e+01 3.202486e+01 2.971800e+01 2.917412e+01 3.143764e+01 3.068992e+01 2.792120e+01 2.667928e+01 4.079335e+00 4.313714e-01 7.109436e-01 7.372832e-01 1.110776e+00 1.230522e+00 1.370214e+00 1.285834e+00 1.127841e+00 1.229454e+00 1.140685e+00 1.104013e+00 9.488913e-01 1.102447e-01 5.463579e-02 8.652475e-02 9.987020e-02 1.533334e-01 1.934131e-01 2.113762e-01 1.980182e-01 1.780866e-01 1.941333e-01 1.760513e-01 1.729137e-01 1.477131e-01 1.140762e-02
<GCONST> 8.208178e+01
<STATE> 3
<MEAN> 39
 -5.380578e+00 -5.336582e+00 -4.683589e+00 -1.052419e+01 -3.205693e+00 -5.956968e+00 -4.891732e-01 -8.357934e+00 -2.924569e+00 -6.009001e+00 -7.801123e-01 -5.504643e+00 1.658826e+01 3.755093e-03 4.426549e-04 3.341940e-03 1.261293e-03 3.161604e-03 5.093314e-03 1.040913e-03 -2.584682e-03 -1.292254e-04 5.089942e-04 -1.298272e-04 1.007882e-03 -1.667081e-03 -3.849781e-04 -4.665763e-04 -5.403240e-04 -2.367197e-04 4.217380e-04 5.690800e-05 -1.675401e-04 -2.479232e-04 -4.240827e-04 -6.473885e-06 4.570900e-04 2.292950e-04 -4.185122e-04
<VARIANCE> 39
 1.333262e+01 1.962271e+01 1.947573e+01 2.575547e+01 3.008185e+01 3.196592e+01 2.959120e+01 2.908450e+01 3.139820e+01 3.067941e+01 2.784634e+01 2.661278e+01 4.059860e+00 4.296100e-01 7.090614e-01 7.370750e-01 1.109104e+00 1.231036e+00 1.369033e+00 1.280203e+00 1.126690e+00 1.224252e+00 1.138117e+00 1.101973e+00 9.459257e-01 1.094104e-01 5.432633e-02 8.619063e-02 9.961583e-02 1.528875e-01 1.930010e-01 2.113212e-01 1.973604e-01 1.779686e-01 1.930910e-01 1.758340e-01 1.727447e-01 1.470951e-01 1.132378e-02
<GCONST> 8.199340e+01
<STATE> 4
<MEAN> 39
 -5.358755e+00 -5.329373e+00 -4.663321e+00 -1.052034e+01 -3.200368e+00 -5.943399e+00 -4.801526e-01 -8.370707e+00 -2.931936e+00 -6.010575e+00 -7.875315e-01 -5.507268e+00 1.659058e+01 2.691739e-03 -1.628872e-03 2.071834e-03 1.020746e-03 5.371737e-03 5.101594e-03 1.032157e-03 -3.075033e-03 -1.480092e-03 2.196146e-04 2.008720e-03 1.795508e-03 -3.093743e-03 -3.002503e-04 -5.259125e-04 -3.114779e-04 3.135497e-05 4.542919e-04 2.099495e-04 9.495227e-05 3.619824e-05 -3.838061e-04 -1.108181e-04 6.968594e-04 4.116991e-04 -3.729426e-04
<VARIANCE> 39
 1.327683e+01 1.961609e+01 1.949028e+01 2.588298e+01 3.025578e+01 3.191018e+01 2.944794e+01 2.904429e+01 3.137591e+01 3.073631e+01 2.775912e+01 2.654440e+01 4.030897e+00 4.280113e-01 7.062370e-01 7.364601e-01 1.106893e+00 1.232762e+00 1.368440e+00 1.275460e+00 1.126999e+00 1.219434e+00 1.137105e+00 1.100663e+00 9.436168e-01 1.087366e-01 5.404090e-02 8.583874e-02 9.930994e-02 1.524487e-01 1.927038e-01 2.114742e-01 1.969679e-01 1.783662e-01 1.921879e-01 1.758082e-01 1.726725e-01 1.464358e-01 1.126144e-02
<GCONST> 8.192180e+01
<TRANSP> 5
 0.000000e+00 1.000000e+00 0.000000e+00 0.000000e+00 0.000000e+00
 0.000000e+00 6.732699e-01 3.267301e-01 0.000000e+00 0.000000e+00
 0.000000e+00 0.000000e+00 6.732708e-01 3.267291e-01 0.000000e+00
 0.000000e+00 0.000000e+00 0.000000e+00 7.853748e-01 2.146253e-01
 0.000000e+00 0.000000e+00 0.000000e+00 0.000000e+00 0.000000e+00
<ENDHMM>
~h "three"
<BEGINHMM>
<NUMSTATES> 5
<STATE> 2
<MEAN> 39
 -5.694263e+00 -4.708996e+00 -3.723083e+00 -1.167515e+01 -3.670004e+00 -6.936841e+00 -1.780299e+00 -8.182258e+00 -2.374579e+00 -5.700202e+00 -4.035600e-02 -5.207516e+00 1.664094e+01 4.805285e-03 -5.243824e-03 -6.722045e-04 3.335684e-04 1.585860e-03 2.843828e-03 4.898254e-03 3.365320e-03 1.642558e-03 -7.533954e-04 1.803486e-03 3.657850e-03 3.938419e-04 -3.256354e-04 -4.907616e-04 -4.834580e-04 3.300394e-04 2.176496e-04 1.951164e-04 3.413899e-04 -1.274345e-04 -1.268912e-04 -1.080721e-04 3.326679e-04 3.706999e-06 -5.328613e-04
<VARIANCE> 39
 1.184995e+01 2.957595e+01 2.643943e+01 3.263943e+01 4.380758e+01 3.572416e+01 3.382708e+01 3.326655e+01 3.233501e+01 3.020379e+01 2.881527e+01 2.726760e+01 4.604469e+00 4.563606e-01 1.000666e+00 8.910161e-01 1.411135e+00 1.732203e+00 1.706784e+00 1.376110e+00 1.332372e+00 1.289464e+00 1.105124e+00 1.036868e+00 9.421495e-01 9.546442e-02 5.896861e-02 1.077347e-01 1.114477e-01 1.877917e-01 2.305312e-01 2.604893e-01 2.098664e-01 2.073163e-01 2.006977e-01 1.686536e-01 1.631459e-01 1.467550e-01 8.076094e-03
<GCONST> 8.606367e+01
<STATE> 3
<MEAN> 39
 -5.680928e+00 -4.727198e+00 -3.727615e+00 -1.167154e+01 -3.663670e+00 -6.928017e+00 -1.763453e+00 -8.172188e+00 -2.370330e+00 -5.702910e+00 -3.231760e-02 -5.196212e+00 1.663976e+01 3.540733e-03 -6.631665e-03 -1.812349e-03 1.698297e-03 3.021030e-03 3.418576e-03 6.322190e-03 2.704981e-03 1.076388e-03 -7.579236e-04 2.857978e-03 4.086044e-03 -1.249527e-03 -3.845301e-04 -3.461203e-04 -2.548908e-04 3.818040e-04 4.718522e-04 2.826234e-04 4.478980e-04 -1.774745e-04 -1.210814e-04 9.951639e-05 3.192877e-04 1.359788e-04 -5.071361e-04
<VARIANCE> 39
 1.182007e+01 2.962184e+01 2.642227e+01 3.271379e+01 4.360578e+01 3.566477e+01 3.386077e+01 3.331380e+01 3.232056e+01 3.016035e+01 2.873422e+01 2.723309e+01 4.581849e+00 4.553212e-01 9.978770e-01 8.898585e-01 1.408603e+00 1.732731e+00 1.705239e+00 1.377184e+00 1.333969e+00 1.289704e+00 1.102157e+00 1.034728e+00 9.390196e-01 9.507626e-02 5.884405e-02 1.073713e-01 1.112367e-01 1.871692e-01 2.306863e-01 2.601986e-01 2.103223e-01 2.074869e-01 2.006790e-01 1.678352e-01 1.630008e-01 1.461608e-01 8.037455e-03
<GCONST> 8.600792e+01
<STATE> 4
<MEAN> 39
 -5.663821e+00 -4.734761e+00 -3.718764e+00 -1.167262e+01 -3.662054e+00 -6.930742e+00 -1.751984e+00 -8.163187e+00 -2.366922e+00 -5.703242e+00 -2.009819e-02 -5.184478e+00 1.664322e+01 1.883214e-03 -8.307669e-03 -3.587491e-03 2.852318e-03 6.108040e-03 5.421557e-03 8.388495e-03 2.219711e-03 8.762623e-04 -2.318749e-04 3.444046e-03 4.920828e-03 -3.173080e-03 -3.492797e-04 -3.485000e-04 -3.703610e-04 1.340623e-04 6.178740e-04 6.190633e-04 2.313789e-04 -9.503347e-05 1.498698e-04 2.840538e-04 4.393602e-05 1.905363e-04 -4.619832e-04
<VARIANCE> 39
 1.178617e+01 2.974081e+01 2.646366e+01 3.285068e+01 4.349401e+01 3.564572e+01 3.398460e+01 3.341872e+01 3.228979e+01 3.009528e+01 2.864400e+01 2.718459e+01 4.547409e+00 4.555392e-01 9.980423e-01 8.902278e-01 1.409884e+00 1.742210e+00 1.709200e+00 1.382160e+00 1.337856e+00 1.290772e+00 1.099434e+00 1.032623e+00 9.358393e-01 9.465930e-02 5.890825e-02 1.072192e-01 1.111696e-01 1.869449e-01 2.319623e-01 2.608370e-01 2.114972e-01 2.079747e-01 2.008381e-01 1.670116e-01 1.629326e-01 1.455372e-01 7.988065e-03
<GCONST> 8.600649e+01
<TRANSP> 5
 0.000000e+00 1.000000e+00 0.000000e+00 0.000000e+00 0.000000e+00
 0.000000e+00 6.729592e-01 3.270408e-01 0.000000e+00 0.000000e+00
 0.000000e+00 0.000000e+00 6.729591e-01 3.270409e-01 0.000000e+00
 0.000000e+00 0.000000e+00 0.000000e+00 7.850003e-01 2.149998e-01
 0.000000e+00 0.000000e+00 0.000000e+00 0.000000e+00 0.000000e+00
<ENDHMM>
~h "one"
<BEGINHMM>
<NUMSTATES> 5
<STATE> 2
<MEAN> 39
 -4.578666e+00 -5.641490e+00 -5.617135e+00 -1.012653e+01 -2.440543e+00 -6.377280e+00 -1.432677e+00 -8.494667e+00 -2.987008e+00 -6.643003e+00 -8.732308e-01 -5.913589e+00 1.684279e+01 4.039177e-03 -2.151815e-04 4.230069e-03 -1.444577e-04 -7.985546e-04 3.114605e-03 2.746198e-03 1.040908e-03 -5.647424e-04 4.000984e-03 -2.865339e-03 2.055735e-03 -6.075294e-04 -6.473713e-04 -5.311779e-04 -3.509370e-04 9.053371e-05 4.012905e-04 2.715354e-04 -3.228579e-04 -2.465214e-04 -2.843211e-05 4.191567e-04 5.367775e-04 5.845946e-04 -4.991080e-04
<VARIANCE> 39
 1.428384e+01 2.394504e+01 2.627239e+01 3.206461e+01 2.952644e+01 3.158815e+01 2.814095e+01 3.193753e+01 3.284371e+01 3.271953e+01 3.009313e+01 2.843417e+01 4.042911e+00 4.108556e-01 8.266291e-01 9.483587e-01 1.331166e+00 1.252594e+00 1.417192e+00 1.230478e+00 1.263853e+00 1.283969e+00 1.190923e+00 1.090820e+00 9.693754e-01 8.286000e-02 4.857954e-02 9.019914e-02 1.100536e-01 1.754970e-01 1.894864e-01 2.192449e-01 1.984194e-01 1.958872e-01 1.974702e-01 1.834814e-01 1.737124e-01 1.543569e-01 7.324842e-03
<GCONST> 8.351559e+01
<STATE> 3
<MEAN> 39
 -4.570157e+00 -5.644692e+00 -5.604973e+00 -1.012710e+01 -2.440483e+00 -6.365272e+00 -1.425212e+00 -8.492225e+00 -2.989898e+00 -6.627228e+00 -8.784085e-01 -5.904595e+00 1.683824e+01 1.831796e-03 -2.068338e-03 3.113553e-03 1.093701e-04 8.961107e-04 4.420312e-03 2.058518e-03 3.274961e-04 -6.748764e-04 5.512462e-03 -8.842059e-04 3.524134e-03 -2.177211e-03 -7.442884e-04 -5.967808e-04 -3.106908e-04 1.348417e-04 5.957090e-04 4.300824e-04 -1.380711e-04 -3.257257e-04 1.474615e-05 4.524686e-04 5.793601e-04 3.518632e-04 -4.978791e-04
<VARIANCE> 39
 1.415504e+01 2.376777e+01 2.619820e+01 3.212233e+01 2.955416e+01 3.149775e+01 2.815066e+01 3.187112e+01 3.280991e+01 3.271523e+01 3.000113e+01 2.840228e+01 4.022914e+00 4.087637e-01 8.224913e-01 9.453223e-01 1.329242e+00 1.252677e+00 1.415304e+00 1.229899e+00 1.263348e+00 1.281631e+00 1.192067e+00 1.088992e+00 9.668902e-01 8.235070e-02 4.836392e-02 8.970578e-02 1.095636e-01 1.750889e-01 1.894050e-01 2.191313e-01 1.982933e-01 1.955336e-01 1.970737e-01 1.836606e-01 1.736172e-01 1.539117e-01 7.275299e-03
<GCONST> 8.342454e+01
<STATE> 4
<MEAN> 39
 -4.558692e+00 -5.653349e+00 -5.595187e+00 -1.012140e+01 -2.432143e+00 -6.350612e+00 -1.421602e+00 -8.492970e+00 -2.997998e+00 -6.611166e+00 -8.862068e-01 -5.898409e+00 1.683638e+01 -2.325388e-03 -4.667414e-03 2.647085e-03 3.112475e-04 3.566575e-03 6.381769e-03 2.487214e-03 -5.094020e-05 -1.246833e-04 7.433563e-03 2.015484e-03 5.285508e-03 -4.672026e-03 -1.005252e-03 -5.540552e-04 -9.346975e-05 1.297809e-04 6.250199e-04 5.345363e-04 2.187547e-04 -1.488489e-04 1.403236e-04 3.431408e-04 5.197941e-04 3.207233e-04 -5.870688e-04
<VARIANCE> 39
 1.397157e+01 2.352849e+01 2.617346e+01 3.222679e+01 2.957183e+01 3.142503e+01 2.820638e+01 3.183233e+01 3.282271e+01 3.275587e+01 2.990928e+01 2.838086e+01 3.997152e+00 4.054612e-01 8.172977e-01 9.444385e-01 1.328039e+00 1.254165e+00 1.413430e+00 1.230938e+00 1.264335e+00 1.280078e+00 1.194486e+00 1.087363e+00 9.642068e-01 8.150870e-02 4.803217e-02 8.909313e-02 1.091808e-01 1.747563e-01 1.897052e-01 2.190614e-01 1.982904e-01 1.952314e-01 1.966179e-01 1.839828e-01 1.735303e-01 1.533535e-01 7.196723e-03
<GCONST> 8.333059e+01
<TRANSP> 5
 0.000000e+00 1.000000e+00 0.000000e+00 0.000000e+00 0.000000e+00
 0.000000e+00 6.732346e-01 3.267654e-01 0.000000e+00 0.000000e+00
 0.000000e+00 0.000000e+00 6.732360e-01 3.267640e-01 0.000000e+00
 0.000000e+00 0.000000e+00 0.000000e+00 7.853372e-01 2.146629e-01
 0.000000e+00 0.000000e+00 0.000000e+00 0.000000e+00 0.000000e+00
<ENDHMM>
~h "sil"
<BEGINHMM>
<NUMSTATES> 5
<STATE> 2
<MEAN> 39
 -6.037014e+00 -6.121449e+00 -5.384350e+00 -1.052021e+01 -2.176222e+00 -5.627412e+00 -8.589488e-01 -8.380838e+00 -2.625835e+00 -5.915300e+00 4.321262e-02 -4.985561e+00 1.590900e+01 -1.940483e-03 1.718307e-03 2.100139e-03 8.880342e-04 -1.246634e-03 -2.790735e-03 2.202940e-03 -3.429816e-03 -4.133773e-03 -1.739027e-04 1.488361e-03 -5.291278e-03 2.206455e-04 3.768931e-04 5.161741e-04 -2.482868e-04 -2.748407e-04 2.344415e-04 8.249781e-04 -7.236704e-04 -1.119086e-04 4.964834e-04 -6.068303e-05 -1.915500e-03 3.239001e-04 2.227388e-04
<VARIANCE> 39
 1.106588e+01 1.860271e+01 1.811568e+01 2.352589e+01 2.716163e+01 2.595643e+01 2.444814e+01 2.536880e+01 2.641312e+01 2.471351e+01 2.448550e+01 2.250717e+01 4.293588e+00 2.939632e-01 5.778935e-01 6.156254e-01 9.222375e-01 9.741787e-01 1.115886e+00 9.986888e-01 1.032884e+00 1.046764e+00 9.235328e-01 9.439639e-01 8.285105e-01 6.462032e-02 3.651655e-02 6.488265e-02 8.173578e-02 1.222941e-01 1.419669e-01 1.728217e-01 1.545472e-01 1.629112e-01 1.635177e-01 1.411472e-01 1.484237e-01 1.315074e-01 5.834894e-03
<GCONST> 7.416544e+01
<STATE> 3
~s "silst"
<STATE> 4
<MEAN> 39
 -6.036874e+00 -6.106467e+00 -5.376275e+00 -1.051859e+01 -2.184065e+00 -5.634171e+00 -8.553926e-01 -8.391617e+00 -2.636916e+00 -5.919302e+00 2.922006e-02 -5.009140e+00 1.591864e+01 4.864057e-04 3.860934e-03 1.001577e-03 1.411445e-04 -7.589908e-04 7.340680e-04 -8.676925e-04 -8.377748e-04 -5.184544e-04 -2.749118e-03 -5.279433e-03 -5.715312e-03 1.425320e-03 6.222086e-04 6.915633e-04 -3.314996e-05 1.731425e-04 -1.651610e-04 3.721902e-04 -1.002587e-03 8.435054e-04 9.894182e-04 -7.340073e-04 -8.912900e-04 -8.468674e-04 2.690465e-04
<VARIANCE> 39
 1.111071e+01 1.875237e+01 1.823276e+01 2.366063e+01 2.725190e+01 2.608581e+01 2.454314e+01 2.552471e+01 2.653363e+01 2.483381e+01 2.462811e+01 2.265031e+01 4.328690e+00 2.978082e-01 5.838329e-01 6.190750e-01 9.273167e-01 9.780617e-01 1.117772e+00 1.004475e+00 1.039670e+00 1.051763e+00 9.302790e-01 9.508836e-01 8.307254e-01 6.551791e-02 3.697917e-02 6.562752e-02 8.247140e-02 1.235247e-01 1.430335e-01 1.739634e-01 1.556195e-01 1.639187e-01 1.647542e-01 1.422792e-01 1.495601e-01 1.321063e-01 5.919877e-03
<GCONST> 7.443801e+01
<TRANSP> 5
 0.000000e+00 1.000000e+00 0.000000e+00 0.000000e+00 0.000000e+00
 0.000000e+00 5.336879e-01 3.177431e-01 1.485689e-01 0.000000e+00
 0.000000e+00 0.000000e+00 6.669310e-01 3.330691e-01 0.000000e+00
 0.000000e+00 3.318331e-01 0.000000e+00 6.225869e-01 4.557994e-02
 0.000000e+00 0.000000e+00 0.000000e+00 0.000000e+00 0.000000e+00
<ENDHMM>
~h "six"
<BEGINHMM>
<NUMSTATES> 5
<STATE> 2
<MEAN> 39
 -6.671959e+00 -5.369943e+00 -5.323823e+00 -1.114175e+01 -3.031548e+00 -5.560451e+00 -1.268447e+00 -7.976824e+00 -2.640817e+00 -5.392817e+00 -6.726547e-02 -5.111156e+00 1.592158e+01 3.642584e-03 -2.169158e-03 2.985561e-03 2.664404e-03 7.729061e-04 2.044742e-03 6.923513e-03 3.122427e-03 -2.829815e-03 2.342621e-03 5.169393e-03 5.963485e-04 -2.127822e-04 -3.453800e-04 -5.518332e-04 -1.725777e-04 4.204501e-04 3.711457e-04 -1.250475e-06 -2.846229e-04 -1.972276e-05 -4.096906e-04 -1.823018e-04 1.242322e-04 3.410197e-04 -4.684399e-04
<VARIANCE> 39
 1.281097e+01 1.940465e+01 2.191640e+01 3.059429e+01 3.243760e+01 2.941199e+01 2.551084e+01 2.487381e+01 2.846885e+01 2.847742e+01 2.510938e+01 2.475776e+01 4.738638e+00 4.095616e-01 6.828136e-01 8.967283e-01 1.369635e+00 1.306994e+00 1.374794e+00 1.145633e+00 1.104752e+00 1.185435e+00 1.149252e+00 1.037381e+00 9.615799e-01 1.170567e-01 5.287229e-02 8.140960e-02 1.210669e-01 1.855636e-01 1.974294e-01 2.167456e-01 1.889593e-01 1.836433e-01 1.915545e-01 1.805580e-01 1.693144e-01 1.536596e-01 1.213178e-02
<GCONST> 8.243385e+01
<STATE> 3
<MEAN> 39
 -6.661909e+00 -5.379858e+00 -5.315271e+00 -1.113177e+01 -3.027873e+00 -5.554548e+00 -1.248761e+00 -7.967367e+00 -2.651461e+00 -5.385425e+00 -5.033445e-02 -5.108062e+00 1.591856e+01 2.698503e-03 -3.848168e-03 2.637173e-03 4.019815e-03 1.664124e-03 1.973863e-03 6.108797e-03 2.137721e-03 -3.160774e-03 2.210847e-03 5.703289e-03 1.468350e-03 -1.635668e-03 -3.011446e-04 -5.616153e-04 -2.114197e-04 4.595924e-04 3.575666e-04 -2.272864e-05 -1.599806e-04 -4.057715e-04 -4.371919e-06 5.859858e-05 3.204633e-04 2.523231e-04 -4.625051e-04
<VARIANCE> 39
 1.279103e+01 1.934498e+01 2.181176e+01 3.056228e+01 3.241759e+01 2.945535e+01 2.548348e+01 2.486464e+01 2.862416e+01 2.840229e+01 2.508592e+01 2.469979e+01 4.719627e+00 4.080559e-01 6.795721e-01 8.927627e-01 1.364540e+00 1.304290e+00 1.373855e+00 1.144938e+00 1.106564e+00 1.188185e+00 1.148131e+00 1.037945e+00 9.616048e-01 1.163786e-01 5.256935e-02 8.103768e-02 1.206914e-01 1.848205e-01 1.970905e-01 2.165751e-01 1.889818e-01 1.841692e-01 1.917244e-01 1.803404e-01 1.693316e-01 1.535321e-01 1.207147e-02
<GCONST> 8.237304e+01
<STATE> 4
<MEAN> 39
 -6.655674e+00 -5.390221e+00 -5.303589e+00 -1.112183e+01 -3.030665e+00 -5.544202e+00 -1.228588e+00 -7.958047e+00 -2.660501e+00 -5.372904e+00 -2.973355e-02 -5.103251e+00 1.591409e+01 2.142943e-03 -6.037756e-03 1.995332e-03 5.374896e-03 3.503781e-03 2.267296e-03 6.211640e-03 -6.249722e-05 -2.724036e-03 2.306464e-03 7.126968e-03 2.168812e-03 -3.167525e-03 -1.639725e-04 -4.710707e-04 -3.141429e-04 3.397171e-04 5.118505e-04 -1.267385e-05 2.340083e-04 -6.561073e-04 8.873158e-05 2.019320e-04 4.196995e-04 6.821202e-05 -3.750616e-04
<VARIANCE> 39
 1.273980e+01 1.920459e+01 2.166375e+01 3.056706e+01 3.233972e+01 2.945996e+01 2.542120e+01 2.481594e+01 2.880510e+01 2.831674e+01 2.508324e+01 2.460838e+01 4.687644e+00 4.059914e-01 6.743945e-01 8.881243e-01 1.360552e+00 1.302187e+00 1.373116e+00 1.144665e+00 1.107639e+00 1.191994e+00 1.147320e+00 1.039653e+00 9.613422e-01 1.157953e-01 5.218841e-02 8.051509e-02 1.203227e-01 1.842313e-01 1.968979e-01 2.164938e-01 1.893050e-01 1.846676e-01 1.920833e-01 1.802580e-01 1.695649e-01 1.534022e-01 1.202727e-02
<GCONST> 8.229902e+01
<TRANSP> 5
 0.000000e+00 1.000000e+00 0.000000e+00 0.000000e+00 0.000000e+00
 0.000000e+00 6.733844e-01 3.266156e-01 0.000000e+00 0.000000e+00
 0.000000e+00 0.000000e+00 6.733842e-01 3.266158e-01 0.000000e+00
 0.000000e+00 0.000000e+00 0.000000e+00 7.855150e-01 2.144850e-01
 0.000000e+00 0.000000e+00 0.000000e+00 0.000000e+00 0.000000e+00
<ENDHMM>
~h "two"
<BEGINHMM>
<NUMSTATES> 5
<STATE> 2
<MEAN> 39
 -5.558760e+00 -4.485312e+00 -4.337586e+00 -1.108544e+01 -3.287150e+00 -7.019709e+00 -2.004276e+00 -8.653670e+00 -2.888293e+00 -5.706607e+00 -3.187951e-01 -5.603714e+00 1.658122e+01 7.599867e-03 4.387597e-03 3.110121e-03 1.221495e-04 3.798992e-03 -3.863586e-04 -1.856187e-03 6.067345e-04 3.916943e-03 4.172338e-03 9.040851e-03 6.843660e-03 -3.726481e-04 -6.217696e-04 -9.512289e-04 -3.386730e-04 2.009735e-04 1.157083e-03 8.055555e-04 5.854187e-04 2.632318e-04 1.477671e-05 2.255977e-04 1.959785e-04 1.020543e-04 -6.900567e-04
<VARIANCE> 39
 1.523648e+01 2.392949e+01 2.426094e+01 2.814334e+01 3.602388e+01 3.371407e+01 3.280303e+01 2.778606e+01 3.129842e+01 2.875109e+01 3.156266e+01 2.904511e+01 4.257920e+00 5.610733e-01 7.733176e-01 9.313024e-01 1.166483e+00 1.339306e+00 1.464185e+00 1.300015e+00 1.178985e+00 1.248775e+00 1.131127e+00 1.227441e+00 1.033977e+00 1.065365e-01 6.798282e-02 8.955186e-02 1.196197e-01 1.539777e-01 1.936708e-01 2.200675e-01 1.934113e-01 1.878767e-01 1.951185e-01 1.772689e-01 1.926122e-01 1.552628e-01 9.758410e-03
<GCONST> 8.471425e+01
<STATE> 3
<MEAN> 39
 -5.537005e+00 -4.476270e+00 -4.329013e+00 -1.108282e+01 -3.269449e+00 -7.019648e+00 -2.007740e+00 -8.651357e+00 -2.876546e+00 -5.692589e+00 -2.894334e-01 -5.581568e+00 1.657709e+01 5.681536e-03 1.353065e-03 1.808507e-03 1.393134e-03 7.397419e-03 1.721095e-03 6.936979e-04 1.459032e-03 3.998330e-03 4.896942e-03 9.657518e-03 7.761322e-03 -2.515469e-03 -5.714595e-04 -9.291446e-04 -4.278017e-04 3.322887e-04 9.301852e-04 6.291808e-04 8.443252e-04 3.056104e-04 -4.659843e-05 2.957957e-04 1.907203e-04 2.488953e-04 -6.647803e-04
<VARIANCE> 39
 1.521301e+01 2.386594e+01 2.420619e+01 2.816294e+01 3.604344e+01 3.370600e+01 3.274800e+01 2.783626e+01 3.127543e+01 2.866859e+01 3.145189e+01 2.890794e+01 4.236029e+00 5.586246e-01 7.698707e-01 9.259342e-01 1.161951e+00 1.333240e+00 1.457586e+00 1.298717e+00 1.177063e+00 1.245367e+00 1.127588e+00 1.222036e+00 1.028485e+00 1.057067e-01 6.757772e-02 8.896977e-02 1.189363e-01 1.530122e-01 1.925307e-01 2.185942e-01 1.930349e-01 1.873143e-01 1.942630e-01 1.765172e-01 1.917306e-01 1.544989e-01 9.684543e-03
<GCONST> 8.457045e+01
<STATE> 4
<MEAN> 39
 -5.506793e+00 -4.457452e+00 -4.310593e+00 -1.108342e+01 -3.247499e+00 -7.029917e+00 -2.016247e+00 -8.644687e+00 -2.860864e+00 -5.672746e+00 -2.532366e-01 -5.556609e+00 1.657594e+01 4.184826e-03 -3.773400e-03 -3.714310e-04 3.072189e-03 1.136873e-02 4.986938e-03 4.700752e-03 2.168370e-03 4.073331e-03 5.520784e-03 1.042934e-02 9.548190e-03 -5.283026e-03 -4.646258e-04 -1.144299e-03 -5.030756e-04 1.850623e-04 7.531226e-04 8.232312e-04 9.901447e-04 1.566264e-04 -1.971891e-04 3.505079e-05 7.316237e-05 2.436695e-04 -6.744429e-04
<VARIANCE> 39
 1.515566e+01 2.378077e+01 2.412671e+01 2.818416e+01 3.606036e+01 3.368299e+01 3.265829e+01 2.797228e+01 3.129687e+01 2.864267e+01 3.133712e+01 2.880706e+01 4.205239e+00 5.543399e-01 7.635592e-01 9.169978e-01 1.154926e+00 1.323441e+00 1.449375e+00 1.296012e+00 1.176242e+00 1.242164e+00 1.124322e+00 1.216314e+00 1.023281e+00 1.047199e-01 6.687301e-02 8.789376e-02 1.177214e-01 1.515661e-01 1.907229e-01 2.166332e-01 1.923690e-01 1.869313e-01 1.934932e-01 1.757186e-01 1.908407e-01 1.537906e-01 9.593815e-03
<GCONST> 8.438216e+01
<TRANSP> 5
 0.000000e+00 1.000000e+00 0.000000e+00 0.000000e+00 0.000000e+00
 0.000000e+00 6.722694e-01 3.277306e-01 0.000000e+00 0.000000e+00
 0.000000e+00 0.000000e+00 6.722690e-01 3.277310e-01 0.000000e+00
 0.000000e+00 0.000000e+00 0.000000e+00 7.841666e-01 2.158335e-01
 0.000000e+00 0.000000e+00 0.000000e+00 0.000000e+00 0.000000e+00
<ENDHMM>
~h "nine"
<BEGINHMM>
<NUMSTATES> 5
<STATE> 2
<MEAN> 39
 -5.526100e+00 -5.697193e+00 -4.205151e+00 -9.629706e+00 -3.135270e+00 -5.997155e+00 -1.370399e+00 -9.113452e+00 -3.490725e+00 -6.848594e+00 -1.179311e+00 -5.985942e+00 1.703052e+01 8.064806e-03 5.097156e-04 3.363381e-03 3.753326e-03 4.617752e-03 6.914484e-03 -4.440006e-04 -4.599916e-04 4.124863e-03 1.249248e-03 3.118482e-03 2.662375e-03 -3.637944e-05 -3.680598e-04 -2.190926e-04 -2.211097e-05 -3.945939e-05 2.734477e-04 4.162247e-04 2.171956e-04 -4.527354e-05 2.598276e-04 1.926971e-04 5.451890e-04 6.687998e-04 -5.187728e-04
<VARIANCE> 39
 1.231784e+01 2.588473e+01 2.480442e+01 3.245816e+01 3.397144e+01 3.088435e+01 3.124438e+01 3.216050e+01 3.805045e+01 3.311934e+01 2.987895e+01 2.981965e+01 3.786791e+00 4.133858e-01 9.284392e-01 8.739593e-01 1.233250e+00 1.228540e+00 1.280784e+00 1.243499e+00 1.153673e+00 1.264837e+00 1.085832e+00 1.003197e+00 8.997935e-01 7.810007e-02 5.108164e-02 1.012514e-01 1.091845e-01 1.579759e-01 1.761065e-01 1.949676e-01 1.854598e-01 1.745172e-01 1.882738e-01 1.677415e-01 1.551030e-01 1.356437e-01 7.033912e-03
<GCONST> 8.246039e+01
<STATE> 3
<MEAN> 39
 -5.503409e+00 -5.696392e+00 -4.195542e+00 -9.618867e+00 -3.121556e+00 -5.974876e+00 -1.372628e+00 -9.114603e+00 -3.476237e+00 -6.843847e+00 -1.167341e+00 -5.974406e+00 1.702788e+01 6.337532e-03 -2.735192e-04 2.906060e-03 3.358849e-03 4.990842e-03 7.504655e-03 -4.985000e-04 -2.518136e-04 4.482674e-03 1.599949e-03 4.832716e-03 4.039262e-03 -1.766009e-03 -5.700298e-04 -2.902077e-04 -1.339814e-04 -7.260308e-05 1.390270e-04 2.296242e-04 -6.888789e-06 6.823189e-05 1.465391e-04 1.381967e-04 5.698769e-04 3.896462e-04 -5.527237e-04
<VARIANCE> 39
 1.224525e+01 2.573788e+01 2.478000e+01 3.240930e+01 3.405764e+01 3.082623e+01 3.120334e+01 3.205673e+01 3.809420e+01 3.308276e+01 2.973757e+01 2.981021e+01 3.756359e+00 4.110754e-01 9.235728e-01 8.737276e-01 1.230110e+00 1.229204e+00 1.278017e+00 1.240296e+00 1.150011e+00 1.264830e+00 1.083254e+00 9.983860e-01 9.017808e-01 7.751394e-02 5.068056e-02 1.006423e-01 1.090072e-01 1.572833e-01 1.758768e-01 1.943325e-01 1.846989e-01 1.739520e-01 1.880800e-01 1.671166e-01 1.542324e-01 1.359781e-01 6.967432e-03
<GCONST> 8.234645e+01
<STATE> 4
<MEAN> 39
 -5.479423e+00 -5.697872e+00 -4.179785e+00 -9.595764e+00 -3.111394e+00 -5.947577e+00 -1.380955e+00 -9.127595e+00 -3.462341e+00 -6.847005e+00 -1.157089e+00 -5.964775e+00 1.702858e+01 3.621109e-03 -1.893437e-03 6.234473e-04 2.230834e-03 5.706749e-03 7.965049e-03 -7.330524e-04 4.300803e-04 5.596444e-03 2.820495e-03 7.642103e-03 6.408242e-03 -4.402501e-03 -6.746089e-04 -4.755659e-04 -5.650994e-04 -1.755187e-04 1.650167e-04 1.868946e-04 1.929812e-04 1.713207e-04 4.535879e-04 3.076648e-04 6.340158e-04 6.233357e-04 -6.402344e-04
<VARIANCE> 39
 1.214220e+01 2.554077e+01 2.473145e+01 3.243639e+01 3.415581e+01 3.074643e+01 3.119453e+01 3.196935e+01 3.818203e+01 3.304892e+01 2.956756e+01 2.979799e+01 3.715053e+00 4.074719e-01 9.160515e-01 8.722562e-01 1.226703e+00 1.230165e+00 1.273180e+00 1.235244e+00 1.144981e+00 1.263976e+00 1.078777e+00 9.922723e-01 9.035323e-01 7.654372e-02 5.009368e-02 9.946679e-02 1.085313e-01 1.562615e-01 1.755773e-01 1.933507e-01 1.833764e-01 1.732500e-01 1.876086e-01 1.660278e-01 1.531494e-01 1.363531e-01 6.857467e-03
<GCONST> 8.217446e+01
<TRANSP> 5
 0.000000e+00 1.000000e+00 0.000000e+00 0.000000e+00 0.000000e+00
 0.000000e+00 6.730278e-01 3.269722e-01 0.000000e+00 0.000000e+00
 0.000000e+00 0.000000e+00 6.730282e-01 3.269717e-01 0.000000e+00
 0.000000e+00 0.000000e+00 0.000000e+00 7.850802e-01 2.149198e-01
 0.000000e+00 0.000000e+00 0.000000e+00 0.000000e+00 0.000000e+00
<ENDHMM>
~h "five"
<BEGINHMM>
<NUMSTATES> 5
<STATE> 2
<MEAN> 39
 -5.770453e+00 -7.107992e+00 -5.649298e+00 -1.022486e+01 -2.147375e+00 -6.198565e+00 -5.453038e-01 -7.967402e+00 -3.428033e+00 -5.872343e+00 -4.448602e-01 -5.161430e+00 1.686072e+01 2.767934e-03 -1.788954e-03 -2.207787e-03 2.619307e-03 6.782882e-03 5.124705e-03 3.737828e-03 2.002827e-03 2.249459e-03 6.178037e-03 8.502297e-03 7.826061e-03 -2.017671e-03 -3.521885e-04 -1.800595e-04 -3.232026e-04 -5.405286e-05 9.788464e-05 1.330907e-04 -4.783319e-04 -4.803689e-05 -1.832721e-05 -2.270487e-04 5.902054e-04 4.402619e-04 -2.118111e-04
<VARIANCE> 39
 1.180296e+01 2.860912e+01 2.351869e+01 2.971152e+01 3.023414e+01 2.866473e+01 2.881441e+01 3.122543e+01 3.437794e+01 2.841558e+01 2.680514e+01 2.471593e+01 4.375809e+00 4.056748e-01 7.899766e-01 7.897948e-01 1.197231e+00 1.141440e+00 1.236808e+00 1.088089e+00 1.207594e+00 1.195939e+00 1.034243e+00 1.016808e+00 8.503012e-01 1.049918e-01 5.307754e-02 8.310995e-02 1.012010e-01 1.583073e-01 1.683244e-01 1.860483e-01 1.670635e-01 1.880813e-01 1.804180e-01 1.566965e-01 1.613763e-01 1.374037e-01 9.714218e-03
<GCONST> 8.121877e+01
<STATE> 3
<MEAN> 39
 -5.763580e+00 -7.113834e+00 -5.658315e+00 -1.021769e+01 -2.126142e+00 -6.182036e+00 -5.368892e-01 -7.961238e+00 -3.421094e+00 -5.853576e+00 -4.179981e-01 -5.137104e+00 1.685364e+01 1.808850e-03 -1.798131e-03 -2.848148e-03 2.161300e-03 7.340986e-03 5.487020e-03 2.777103e-03 1.567861e-03 2.503368e-03 5.926555e-03 8.964043e-03 8.198647e-03 -2.631345e-03 -3.011549e-04 4.153801e-06 -1.652370e-04 -7.271304e-05 1.473679e-04 9.264192e-05 -2.159325e-04 -1.579417e-04 8.401298e-05 -6.342848e-05 1.163125e-04 7.613266e-05 -1.991130e-04
<VARIANCE> 39
 1.182133e+01 2.856981e+01 2.339478e+01 2.968958e+01 3.012659e+01 2.863349e+01 2.868628e+01 3.105418e+01 3.434379e+01 2.827307e+01 2.666879e+01 2.456684e+01 4.354741e+00 4.035974e-01 7.869168e-01 7.837510e-01 1.191838e+00 1.135671e+00 1.235852e+00 1.086846e+00 1.203792e+00 1.193554e+00 1.031628e+00 1.013041e+00 8.469154e-01 1.043879e-01 5.279969e-02 8.265854e-02 1.004427e-01 1.572848e-01 1.673741e-01 1.859036e-01 1.670588e-01 1.878487e-01 1.797355e-01 1.563194e-01 1.609565e-01 1.370809e-01 9.663415e-03
<GCONST> 8.107819e+01
<STATE> 4
<MEAN> 39
 -5.756256e+00 -7.133717e+00 -5.674340e+00 -1.020351e+01 -2.094852e+00 -6.163661e+00 -5.186431e-01 -7.948700e+00 -3.420909e+00 -5.827983e+00 -3.892315e-01 -5.108126e+00 1.685209e+01 6.050678e-04 -6.949748e-04 -2.407480e-03 1.921458e-03 7.750159e-03 6.379216e-03 3.313759e-03 6.853114e-04 2.999488e-03 5.760827e-03 8.845570e-03 8.012941e-03 -3.723851e-03 -2.714000e-04 2.614071e-04 9.086744e-05 -5.673337e-08 1.120167e-04 2.217472e-04 9.346186e-05 -3.551072e-04 1.649139e-05 1.932986e-05 -8.874515e-05 -7.410406e-05 -2.900698e-04
<VARIANCE> 39
 1.185368e+01 2.863338e+01 2.324069e+01 2.973843e+01 3.001258e+01 2.862115e+01 2.854351e+01 3.085590e+01 3.436775e+01 2.811018e+01 2.647343e+01 2.436369e+01 4.322012e+00 4.007645e-01 7.842193e-01 7.760642e-01 1.187008e+00 1.128315e+00 1.234171e+00 1.086683e+00 1.198820e+00 1.191180e+00 1.029271e+00 1.008247e+00 8.417817e-01 1.037338e-01 5.242466e-02 8.214428e-02 9.945587e-02 1.562121e-01 1.661577e-01 1.855266e-01 1.671918e-01 1.876044e-01 1.789536e-01 1.560423e-01 1.603247e-01 1.365755e-01 9.605571e-03
<GCONST> 8.091668e+01
<TRANSP> 5
 0.000000e+00 1.000000e+00 0.000000e+00 0.000000e+00 0.000000e+00
 0.000000e+00 6.734129e-01 3.265872e-01 0.000000e+00 0.000000e+00
 0.000000e+00 0.000000e+00 6.734129e-01 3.265871e-01 0.000000e+00
 0.000000e+00 0.000000e+00 0.000000e+00 7.855448e-01 2.144552e-01
 0.000000e+00 0.000000e+00 0.000000e+00 0.000000e+00 0.000000e+00
<ENDHMM>
~h "four"
<BEGINHMM>
<NUMSTATES> 5
<STATE> 2
<MEAN> 39
 -4.689302e+00 -5.945938e+00 -6.134259e+00 -1.105928e+01 -2.896209e+00 -6.306177e+00 -1.554930e+00 -8.108207e+00 -2.480672e+00 -6.021702e+00 -5.496719e-01 -5.614408e+00 1.678950e+01 5.757194e-03 -4.445830e-03 1.373298e-03 5.726193e-03 5.870392e-03 -1.844502e-04 5.381993e-03 1.143104e-03 -1.520285e-03 -5.640255e-04 4.120864e-04 3.013941e-03 -4.510013e-04 -4.615792e-04 -4.148438e-04 -1.674102e-04 1.783302e-04 3.432639e-04 7.745257e-04 8.200768e-04 -1.149248e-04 3.611962e-04 2.449229e-04 4.417174e-04 3.137907e-04 -5.147913e-04
<VARIANCE> 39
 1.847834e+01 2.205094e+01 2.445670e+01 2.852942e+01 2.850853e+01 2.998660e+01 2.695709e+01 2.870940e+01 3.087959e+01 2.677794e+01 2.894814e+01 2.698946e+01 4.334521e+00 5.247747e-01 7.743168e-01 8.775900e-01 1.126513e+00 1.208077e+00 1.329461e+00 1.196859e+00 1.201618e+00 1.212355e+00 1.109510e+00 1.135801e+00 9.915827e-01 1.056308e-01 5.799416e-02 8.791630e-02 1.148608e-01 1.491606e-01 1.857572e-01 2.082505e-01 1.891130e-01 1.886194e-01 1.890265e-01 1.768978e-01 1.830444e-01 1.582038e-01 9.553691e-03
<GCONST> 8.305331e+01
<STATE> 3
<MEAN> 39
 -4.674060e+00 -5.962354e+00 -6.131779e+00 -1.104109e+01 -2.877098e+00 -6.302706e+00 -1.533479e+00 -8.105364e+00 -2.482574e+00 -6.023970e+00 -5.464061e-01 -5.603734e+00 1.678581e+01 4.075367e-03 -5.130382e-03 9.135209e-04 6.166137e-03 6.631252e-03 2.033227e-03 7.505661e-03 5.146998e-04 -5.296178e-04 3.057515e-05 1.737148e-03 3.581116e-03 -1.996530e-03 -4.836365e-04 -2.584719e-04 -1.432841e-04 1.565132e-04 2.537053e-04 6.635464e-04 5.467532e-04 -2.639457e-04 1.789830e-04 1.828391e-04 3.333102e-04 9.670314e-05 -4.742345e-04
<VARIANCE> 39
 1.842011e+01 2.190939e+01 2.450061e+01 2.859557e+01 2.849063e+01 2.994589e+01 2.698252e+01 2.870567e+01 3.093042e+01 2.673866e+01 2.883779e+01 2.700673e+01 4.315123e+00 5.213714e-01 7.693105e-01 8.746125e-01 1.124822e+00 1.203108e+00 1.326441e+00 1.196605e+00 1.199958e+00 1.209357e+00 1.105965e+00 1.134538e+00 9.921314e-01 1.045021e-01 5.746389e-02 8.727732e-02 1.142409e-01 1.487323e-01 1.848817e-01 2.075996e-01 1.889807e-01 1.883268e-01 1.885870e-01 1.764542e-01 1.829930e-01 1.580313e-01 9.433052e-03
<GCONST> 8.294250e+01
<STATE> 4
<MEAN> 39
 -4.641389e+00 -5.985919e+00 -6.142911e+00 -1.102347e+01 -2.859568e+00 -6.296648e+00 -1.505709e+00 -8.100670e+00 -2.476785e+00 -6.028371e+00 -5.473096e-01 -5.597708e+00 1.678732e+01 1.388861e-03 -5.808989e-03 1.318175e-03 6.743345e-03 7.813869e-03 4.452827e-03 9.106393e-03 -3.648491e-04 -1.048353e-04 2.866602e-04 2.586298e-03 4.396271e-03 -3.920119e-03 -6.155526e-04 -1.789427e-04 6.953655e-05 2.756745e-05 2.904498e-04 4.191732e-04 2.126797e-04 -2.608548e-04 -1.141937e-04 6.340141e-05 3.151524e-04 8.206905e-05 -4.732714e-04
<VARIANCE> 39
 1.839508e+01 2.172765e+01 2.458507e+01 2.872823e+01 2.851827e+01 2.990403e+01 2.696275e+01 2.869296e+01 3.100883e+01 2.672472e+01 2.871910e+01 2.704267e+01 4.294260e+00 5.176748e-01 7.647966e-01 8.728157e-01 1.123928e+00 1.200224e+00 1.323738e+00 1.196706e+00 1.199394e+00 1.207784e+00 1.103160e+00 1.133439e+00 9.928250e-01 1.031690e-01 5.684217e-02 8.669040e-02 1.136326e-01 1.482191e-01 1.843085e-01 2.070885e-01 1.889418e-01 1.883863e-01 1.883318e-01 1.761017e-01 1.831234e-01 1.579175e-01 9.286988e-03
<GCONST> 8.284520e+01
<TRANSP> 5
 0.000000e+00 1.000000e+00 0.000000e+00 0.000000e+00 0.000000e+00
 0.000000e+00 6.730644e-01 3.269356e-01 0.000000e+00 0.000000e+00
 0.000000e+00 0.000000e+00 6.730631e-01 3.269368e-01 0.000000e+00
 0.000000e+00 0.000000e+00 0.000000e+00 7.851226e-01 2.148774e-01
 0.000000e+00 0.000000e+00 0.000000e+00 0.000000e+00 0.000000e+00
<ENDHMM>
~h "zero"
<BEGINHMM>
<NUMSTATES> 5
<STATE> 2
<MEAN> 39
 -4.987624e+00 -5.364350e+00 -4.216841e+00 -1.078396e+01 -4.106650e+00 -6.365993e+00 -1.440206e+00 -7.810526e+00 -2.156448e+00 -5.772505e+00 -1.637934e-01 -5.315486e+00 1.685763e+01 2.905287e-03 -2.340726e-04 3.258151e-03 1.702933e-03 1.286804e-03 -4.215557e-03 5.851411e-04 2.848848e-03 -9.313341e-04 3.438768e-03 7.913571e-04 1.239191e-04 -1.006080e-03 -2.111683e-04 -3.467719e-04 -2.673333e-04 2.861589e-04 4.270233e-04 1.627312e-04 3.432377e-04 1.574651e-04 7.921315e-05 -3.162387e-05 2.115305e-04 3.420236e-04 -4.235870e-04
<VARIANCE> 39
 1.329851e+01 2.874854e+01 2.357516e+01 3.154858e+01 4.727015e+01 3.557282e+01 3.035844e+01 3.230842e+01 3.371511e+01 2.959496e+01 2.689359e+01 2.821135e+01 4.010727e+00 4.145236e-01 9.073533e-01 8.550587e-01 1.279004e+00 1.464324e+00 1.612339e+00 1.287821e+00 1.290919e+00 1.294650e+00 1.103097e+00 1.012047e+00 9.330655e-01 8.375309e-02 4.828567e-02 9.140649e-02 1.073027e-01 1.633635e-01 1.896568e-01 2.376403e-01 1.939635e-01 1.920087e-01 1.974320e-01 1.672627e-01 1.600850e-01 1.476957e-01 7.623388e-03
<GCONST> 8.388686e+01
<STATE> 3
<MEAN> 39
 -4.979340e+00 -5.366765e+00 -4.207642e+00 -1.077814e+01 -4.101391e+00 -6.378717e+00 -1.435577e+00 -7.800376e+00 -2.158385e+00 -5.760719e+00 -1.600202e-01 -5.313736e+00 1.685243e+01 1.908877e-03 -1.443572e-03 2.460698e-03 2.234510e-03 2.127657e-03 -3.541125e-03 2.846046e-03 3.263578e-03 -7.335616e-04 3.793670e-03 1.469507e-03 1.306394e-03 -2.397585e-03 -3.359656e-04 -4.026207e-04 -2.485102e-04 1.399614e-04 3.525818e-04 3.924649e-04 8.078031e-04 4.998202e-05 2.243015e-05 1.601158e-04 1.586713e-04 4.738158e-04 -4.372380e-04
<VARIANCE> 39
 1.322885e+01 2.866753e+01 2.360213e+01 3.149821e+01 4.727588e+01 3.549610e+01 3.043916e+01 3.226755e+01 3.362076e+01 2.947961e+01 2.670079e+01 2.810503e+01 3.997617e+00 4.136874e-01 9.056001e-01 8.565941e-01 1.275636e+00 1.467922e+00 1.614725e+00 1.291566e+00 1.289956e+00 1.295543e+00 1.102641e+00 1.009032e+00 9.330280e-01 8.338691e-02 4.817856e-02 9.136028e-02 1.074997e-01 1.630104e-01 1.901376e-01 2.382731e-01 1.942947e-01 1.920005e-01 1.977046e-01 1.672441e-01 1.595881e-01 1.477950e-01 7.593952e-03
<GCONST> 8.384966e+01
<STATE> 4
<MEAN> 39
 -4.962027e+00 -5.371219e+00 -4.189285e+00 -1.077606e+01 -4.113284e+00 -6.402812e+00 -1.418608e+00 -7.777096e+00 -2.153116e+00 -5.741600e+00 -1.575620e-01 -5.310575e+00 1.685224e+01 2.824003e-04 -3.804551e-03 7.964007e-04 2.670580e-03 4.245615e-03 -2.052083e-03 5.789434e-03 3.216600e-03 -7.209276e-04 4.255115e-03 2.154772e-03 3.567248e-03 -4.287379e-03 -4.334167e-04 -5.921293e-04 -3.850846e-04 1.060943e-04 7.113714e-04 6.179654e-04 7.114478e-04 -3.918743e-05 2.024212e-05 6.771277e-05 5.464937e-05 5.651694e-04 -4.543811e-04
<VARIANCE> 39
 1.314955e+01 2.863639e+01 2.364865e+01 3.144599e+01 4.739599e+01 3.546803e+01 3.057980e+01 3.226408e+01 3.354468e+01 2.935288e+01 2.643377e+01 2.799018e+01 3.974876e+00 4.125889e-01 9.048906e-01 8.592259e-01 1.272513e+00 1.474215e+00 1.620593e+00 1.298796e+00 1.290091e+00 1.297421e+00 1.103669e+00 1.005329e+00 9.333975e-01 8.300161e-02 4.800412e-02 9.133036e-02 1.077616e-01 1.626460e-01 1.908429e-01 2.394417e-01 1.950602e-01 1.920892e-01 1.982390e-01 1.674572e-01 1.589835e-01 1.481525e-01 7.562389e-03
<GCONST> 8.383561e+01
<TRANSP> 5
 0.000000e+00 1.000000e+00 0.000000e+00 0.000000e+00 0.000000e+00
 0.000000e+00 6.736002e-01 3.263998e-01 0.000000e+00 0.000000e+00
 0.000000e+00 0.000000e+00 6.736007e-01 3.263993e-01 0.000000e+00
 0.000000e+00 0.000000e+00 0.000000e+00 7.857723e-01 2.142277e-01
 0.000000e+00 0.000000e+00 0.000000e+00 0.000000e+00 0.000000e+00
<ENDHMM>
