~o
<STREAMINFO> 1 39
<VECSIZE> 39<NULLD><MFCC_E_D_A><DIAGC>
~s "silst"
<MEAN> 39
 -5.101096e+00 -3.745085e+00 -3.204661e+00 -8.851656e+00 -1.252402e+00 -5.731514e+00 -1.833004e+00 -9.461276e+00 -3.478991e+00 -6.417187e+00 -3.618642e-01 -5.629830e+00 1.585441e+01 -6.605482e-01 -4.368709e-01 -4.504220e-01 1.695282e-01 3.048944e-01 7.035968e-01 3.738147e-01 1.090746e-01 1.427504e-01 1.503643e-01 3.308578e-01 3.688019e-01 -3.610224e-01 -2.628367e-02 -7.003964e-02 -1.099015e-01 -1.263880e-01 -9.599606e-02 -7.236950e-02 1.235138e-03 7.239471e-02 3.673254e-02 8.836102e-03 -1.458314e-02 4.345209e-03 2.622480e-02
<VARIANCE> 39
 1.138391e+01 1.075179e+01 1.352501e+01 1.354514e+01 2.080402e+01 2.470922e+01 2.384664e+01 2.471768e+01 2.801108e+01 2.727083e+01 2.579087e+01 2.359738e+01 2.021151e+00 3.761838e-01 7.455155e-01 8.213581e-01 8.123407e-01 1.143521e+00 1.286333e+00 1.255347e+00 1.298722e+00 1.409101e+00 1.269815e+00 1.244062e+00 1.111878e+00 5.170728e-02 6.987695e-02 9.996298e-02 1.068989e-01 1.142012e-01 1.560158e-01 2.199507e-01 1.942855e-01 1.873344e-01 2.099402e-01 1.842794e-01 1.817193e-01 1.527711e-01 9.202446e-03
<GCONST> 7.763288e+01
~h "eight"
<BEGINHMM>
<NUMSTATES> 5
<STATE> 2
<MEAN> 39
 -8.248701e+00 -2.946479e+00 -5.890463e+00 -1.830147e+01 2.077695e-01 -4.921151e+00 8.317569e-01 -6.796189e+00 -1.587957e+00 -7.453524e+00 -1.738614e+00 -5.735728e+00 1.742797e+01 -1.719619e-01 1.037592e+00 -1.021063e-01 -1.059125e+00 -4.150178e-02 -5.862218e-01 8.527914e-02 4.706597e-01 3.882164e-01 -9.618410e-03 -1.742838e-01 -2.416447e-01 3.309404e-01 2.992203e-02 8.731584e-02 6.166828e-03 1.468977e-01 -6.119579e-02 -1.932299e-01 -8.384130e-02 -1.911149e-02 2.247920e-02 9.386056e-02 1.167995e-01 1.739432e-04 -1.859144e-02
<VARIANCE> 39
 7.984107e+00 2.046970e+01 1.890563e+01 3.149978e+01 4.206607e+01 2.227935e+01 2.496599e+01 2.280989e+01 3.077113e+01 2.350920e+01 2.472337e+01 2.560116e+01 3.252892e+00 3.426081e-01 7.504871e-01 6.374183e-01 1.273124e+00 1.185677e+00 1.358134e+00 1.453384e+00 9.923664e-01 1.347123e+00 1.118249e+00 1.077676e+00 9.603442e-01 1.022198e-01 4.192980e-02 7.990406e-02 7.523362e-02 1.929738e-01 1.371179e-01 1.689371e-01 1.489366e-01 1.686211e-01 2.270607e-01 1.636689e-01 1.697100e-01 1.470811e-01 1.292122e-02
<GCONST> 7.929131e+01
<STATE> 3
<MEAN> 39
 -8.391376e+00 5.787782e+00 -5.518188e+00 -1.922184e+01 -2.890771e+00 -1.377347e+01 -1.652057e+00 -5.963071e+00 7.343657e-01 -4.018801e+00 7.707560e-01 -5.688770e+00 1.854611e+01 1.015121e-01 4.994722e-01 2.032009e-01 8.301125e-01 -1.078857e-02 -9.336622e-01 -6.084399e-01 -8.150918e-01 -3.626969e-01 3.254168e-01 4.626601e-01 2.259218e-01 -7.263914e-02 4.924716e-02 -2.817283e-01 2.270291e-02 1.882738e-01 8.654285e-02 2.735552e-01 2.144855e-02 -1.575946e-01 -1.933186e-01 -1.406900e-01 -7.231322e-02 3.665574e-02 -6.157998e-02
<VARIANCE> 39
 1.001239e+01 1.130617e+01 2.484850e+01 2.642263e+01 2.094931e+01 2.357879e+01 5.649888e+01 2.711003e+01 2.954066e+01 2.183957e+01 3.272367e+01 2.505424e+01 1.478648e+00 1.824280e-01 5.054504e-01 2.621260e-01 6.235917e-01 8.216023e-01 1.014425e+00 7.480390e-01 8.217361e-01 1.769900e+00 1.023662e+00 1.188817e+00 8.486164e-01 2.525881e-02 2.770475e-02 7.075670e-02 4.937192e-02 9.890585e-02 8.106418e-02 1.525451e-01 1.405114e-01 1.339660e-01 1.672363e-01 1.385644e-01 1.856844e-01 1.362782e-01 3.379937e-03
<GCONST> 6.900710e+01
<STATE> 4
<MEAN> 39
 -6.980374e+00 1.097635e+00 -4.081057e+00 -1.220473e+01 -1.200700e+00 -1.170489e+01 -4.074296e+00 -1.160322e+01 -4.452368e+00 -5.782785e+00 8.175027e-01 -4.548702e+00 1.651763e+01 2.173506e-01 -1.856279e+00 -1.379852e-03 8.870726e-01 2.203784e-01 1.605273e+00 3.216456e-01 -2.708519e-02 -3.256823e-01 -3.978485e-01 -1.442060e-01 9.589349e-02 -4.695209e-01 -7.044667e-02 -9.870066e-02 -9.856426e-02 -1.310035e-01 -4.610569e-02 1.582996e-01 1.919931e-01 2.721744e-01 2.061183e-01 6.485871e-02 2.221450e-02 -3.125004e-02 -6.177445e-03
<VARIANCE> 39
 6.043846e+00 3.359344e+01 1.484938e+01 1.932121e+01 1.613017e+01 3.821517e+01 3.278983e+01 2.460221e+01 3.940368e+01 2.737111e+01 2.588626e+01 2.413753e+01 2.808080e+00 3.511025e-01 7.438155e-01 6.183540e-01 1.034768e+00 6.516209e-01 1.243978e+00 1.758429e+00 1.480842e+00 2.022833e+00 1.219421e+00 1.376298e+00 1.140224e+00 3.563843e-02 4.191876e-02 2.592616e-01 6.981865e-02 1.186743e-01 9.767888e-02 3.273465e-01 1.812008e-01 1.963545e-01 2.995401e-01 1.795438e-01 1.978218e-01 1.933906e-01 1.057705e-02
<GCONST> 8.036772e+01
<TRANSP> 5
 0.000000e+00 1.000000e+00 0.000000e+00 0.000000e+00 0.000000e+00
 0.000000e+00 8.666737e-01 1.333263e-01 0.000000e+00 0.000000e+00
 0.000000e+00 0.000000e+00 8.551457e-01 1.448543e-01 0.000000e+00
 0.000000e+00 0.000000e+00 0.000000e+00 8.208504e-01 1.791496e-01
 0.000000e+00 0.000000e+00 0.000000e+00 0.000000e+00 0.000000e+00
<ENDHMM>
~h "oh"
<BEGINHMM>
<NUMSTATES> 5
<STATE> 2
<MEAN> 39
 -4.341324e+00 -1.039026e+01 -8.321408e+00 -8.566223e+00 -2.648305e+00 -7.672390e+00 3.621756e+00 -7.395730e+00 -5.279819e+00 -7.115108e+00 -2.464254e+00 -5.437286e+00 1.783798e+01 5.449937e-01 -2.019011e-01 -6.055523e-01 1.690017e-01 9.517282e-02 -6.935227e-01 1.397647e-01 7.359036e-01 -1.351161e-02 -4.296807e-01 -4.087305e-01 -1.479256e-01 3.486783e-01 8.998215e-03 1.045386e-01 3.844887e-03 -5.315596e-02 3.921050e-02 -8.991187e-03 -1.540332e-01 7.162683e-03 1.332074e-01 2.658763e-02 -8.663796e-03 -2.713336e-02 -2.256799e-02
<VARIANCE> 39
 8.693923e+00 1.228060e+01 1.668772e+01 1.813448e+01 2.301732e+01 2.459285e+01 3.070414e+01 6.494141e+01 3.841371e+01 3.415458e+01 2.703762e+01 3.156821e+01 2.971745e+00 2.952015e-01 5.765259e-01 6.276876e-01 6.353490e-01 6.811109e-01 9.320072e-01 1.328678e+00 1.775687e+00 1.550975e+00 1.254232e+00 1.250089e+00 1.043659e+00 9.605249e-02 3.973047e-02 6.250847e-02 7.470187e-02 7.906485e-02 9.134448e-02 1.294425e-01 1.552441e-01 2.150855e-01 1.861546e-01 1.963235e-01 1.842837e-01 1.400083e-01 1.320518e-02
<GCONST> 7.705646e+01
<STATE> 3
<MEAN> 39
 -5.688758e-01 -8.237623e+00 -1.318631e+01 -9.933803e+00 -6.912909e-01 -1.204639e+01 -8.218259e-01 -7.720390e-01 1.466872e-01 -8.227204e+00 -5.130990e+00 -6.597975e+00 1.903601e+01 2.227254e-01 4.047537e-01 -2.724965e-02 -3.481182e-01 -3.626702e-02 -2.015605e-03 -6.740356e-01 -2.482223e-01 6.653115e-01 6.059499e-01 -3.185288e-02 -3.521105e-01 -9.765282e-03 -4.120295e-02 2.424131e-02 1.012541e-01 -2.060656e-02 -5.749881e-02 9.281249e-02 1.203684e-02 -1.581651e-01 -8.162514e-02 9.145084e-02 1.215311e-01 1.126151e-02 -2.516063e-02
<VARIANCE> 39
 6.096476e+00 8.372913e+00 1.529190e+01 1.468408e+01 1.914780e+01 2.241749e+01 4.158265e+01 3.062468e+01 3.917365e+01 3.568808e+01 3.181252e+01 4.011705e+01 1.219341e+00 8.018973e-02 1.367366e-01 2.629154e-01 2.764319e-01 3.856692e-01 5.137100e-01 7.291173e-01 1.007660e+00 7.301568e-01 8.528109e-01 7.859648e-01 6.995139e-01 1.317425e-02 1.110030e-02 1.420440e-02 3.353668e-02 3.312849e-02 4.694891e-02 6.865171e-02 7.735675e-02 9.559093e-02 1.049816e-01 1.012403e-01 9.137505e-02 8.846504e-02 1.196868e-03
<GCONST> 5.207288e+01
<STATE> 4
<MEAN> 39
 1.797457e-01 -3.747309e+00 -9.929716e+00 -1.348638e+01 -3.321395e+00 -1.008137e+01 -4.948211e+00 -7.351732e+00 1.042773e+00 -2.362112e+00 -1.812727e-01 -7.006021e+00 1.844963e+01 -3.488565e-01 2.883577e-01 8.526980e-01 1.506408e-01 -2.193831e-01 3.718821e-01 2.100973e-01 -5.764169e-01 -5.870095e-01 -1.044413e-01 5.087017e-01 4.134932e-01 -2.309356e-01 -1.311691e-01 -1.056146e-01 5.189410e-02 1.420806e-01 1.060735e-01 8.458700e-02 1.854057e-01 8.485834e-02 -1.052224e-01 -1.824462e-01 -7.829514e-02 8.003610e-02 -4.432923e-02
<VARIANCE> 39
 6.290937e+00 7.037256e+00 1.859545e+01 1.555790e+01 1.893999e+01 2.848023e+01 3.128560e+01 2.747252e+01 3.058887e+01 3.711856e+01 3.964770e+01 3.649127e+01 1.765051e+00 2.388088e-01 3.547134e-01 4.247446e-01 5.878381e-01 6.865970e-01 8.702634e-01 1.177408e+00 1.224167e+00 1.196283e+00 1.307568e+00 1.200792e+00 1.026141e+00 3.050924e-02 2.296733e-02 3.297379e-02 6.561826e-02 6.524356e-02 9.790318e-02 1.570999e-01 1.654177e-01 1.874260e-01 2.028046e-01 1.907192e-01 1.711705e-01 1.631350e-01 2.734375e-03
<GCONST> 6.920271e+01
<TRANSP> 5
 0.000000e+00 1.000000e+00 0.000000e+00 0.000000e+00 0.000000e+00
 0.000000e+00 8.829181e-01 1.170820e-01 0.000000e+00 0.000000e+00
 0.000000e+00 0.000000e+00 8.919486e-01 1.080514e-01 0.000000e+00
 0.000000e+00 0.000000e+00 0.000000e+00 8.561650e-01 1.438351e-01
 0.000000e+00 0.000000e+00 0.000000e+00 0.000000e+00 0.000000e+00
<ENDHMM>
~h "sp"
<BEGINHMM>
<NUMSTATES> 5
<STATE> 2
~s "silst"
<STATE> 3
<MEAN> 39
 -7.767449e+00 -6.406520e+00 -6.113348e+00 -9.667447e+00 -1.388757e+00 -4.043338e+00 -6.771048e-01 -8.573517e+00 -2.834183e+00 -5.600221e+00 9.418147e-01 -4.055983e+00 1.480116e+01 -9.489827e-02 -1.441852e-02 -1.063266e-01 6.506810e-04 -2.441774e-02 2.738826e-02 -7.378886e-03 3.297015e-02 1.087722e-03 1.706939e-02 3.113557e-02 3.877432e-02 -1.229443e-02 6.340916e-02 7.886986e-02 6.192601e-02 -1.413795e-02 -9.460327e-03 -5.907821e-02 -3.842586e-02 -1.916050e-02 -8.724417e-03 -1.543239e-02 -3.383614e-02 -3.319359e-02 4.401046e-02
<VARIANCE> 39
 5.437153e+00 6.062984e+00 8.752899e+00 1.030776e+01 1.443565e+01 1.555531e+01 1.560874e+01 1.666969e+01 1.759780e+01 1.645186e+01 1.601724e+01 1.380751e+01 1.091719e+00 1.617898e-01 2.428056e-01 3.668922e-01 4.381326e-01 5.696939e-01 6.829489e-01 6.550552e-01 7.251078e-01 7.450342e-01 6.597946e-01 6.562684e-01 5.706541e-01 7.598144e-03 3.390757e-02 5.458620e-02 7.290041e-02 9.169587e-02 1.144243e-01 1.432047e-01 1.326103e-01 1.442589e-01 1.472312e-01 1.255532e-01 1.259726e-01 1.147235e-01 4.137252e-03
<GCONST> 5.539657e+01
<STATE> 4
<MEAN> 39
 -8.359599e+00 -5.070017e+00 -6.206588e+00 -9.044770e+00 -1.855708e+00 -3.855525e+00 -9.079413e-01 -8.369510e+00 -2.975457e+00 -5.496876e+00 6.642209e-01 -4.125188e+00 1.507262e+01 3.956048e-01 1.712748e-01 1.593776e-01 -2.482331e-01 -2.987701e-01 -4.272618e-01 -3.087725e-02 7.837061e-02 -1.271500e-02 -4.546961e-02 -2.434073e-01 -1.279208e-01 2.786025e-01 2.219742e-01 9.159525e-03 5.044729e-02 -1.658854e-01 -1.741138e-01 -2.267695e-01 3.592717e-03 2.750005e-02 1.515496e-02 -2.501901e-03 -1.216482e-01 -9.501533e-02 1.274993e-01
<VARIANCE> 39
 1.149124e+01 1.111831e+01 1.664268e+01 1.499624e+01 1.875145e+01 1.820901e+01 1.786862e+01 1.992866e+01 2.138667e+01 1.982497e+01 1.882132e+01 1.704073e+01 1.504823e+00 6.062332e-01 5.395824e-01 8.088806e-01 8.711488e-01 1.063570e+00 1.080113e+00 9.237093e-01 1.270715e+00 1.085027e+00 1.028640e+00 9.797863e-01 8.240999e-01 6.182254e-02 6.979450e-02 1.107488e-01 1.684710e-01 1.544526e-01 2.068754e-01 1.960434e-01 1.772677e-01 2.305640e-01 2.113769e-01 1.869438e-01 1.807145e-01 1.641140e-01 8.536905e-03
<GCONST> 7.550204e+01
<TRANSP> 5
 0.000000e+00 8.243101e-01 1.756898e-01 0.000000e+00 0.000000e+00
 0.000000e+00 7.946179e-01 2.053822e-01 0.000000e+00 0.000000e+00
 0.000000e+00 0.000000e+00 8.554623e-01 1.445377e-01 0.000000e+00
 0.000000e+00 0.000000e+00 0.000000e+00 5.578289e-01 4.421711e-01
 0.000000e+00 0.000000e+00 0.000000e+00 0.000000e+00 0.000000e+00
<ENDHMM>
~h "seven"
<BEGINHMM>
<NUMSTATES> 5
<STATE> 2
<MEAN> 39
 -5.691784e+00 -4.300403e+00 -4.877630e+00 -1.375655e+01 -7.057459e+00 -6.949182e+00 2.050982e+00 -7.982920e+00 -1.548549e+00 -5.001513e+00 -2.930141e+00 -6.178352e+00 1.730709e+01 4.700433e-01 -2.700277e-01 2.367768e-01 -1.316883e+00 -7.853906e-01 -1.656490e-01 1.085093e+00 1.385136e-02 1.061163e-01 -3.696990e-01 -8.008134e-01 -6.515554e-01 6.862081e-01 -1.887588e-01 -1.787638e-01 -1.919698e-01 1.463441e-01 2.463757e-01 3.189662e-01 -1.167916e-02 2.404897e-02 -1.483780e-01 -1.180309e-01 8.891342e-02 8.156209e-02 -3.744665e-02
<VARIANCE> 39
 1.060481e+01 6.385717e+00 1.009222e+01 2.899874e+01 3.431546e+01 3.012806e+01 2.940139e+01 2.580447e+01 2.877295e+01 6.078153e+01 2.719818e+01 2.717986e+01 4.028764e+00 6.521240e-01 5.466585e-01 7.618821e-01 9.095629e-01 1.818205e+00 1.940979e+00 1.365441e+00 1.215560e+00 1.512686e+00 2.098079e+00 1.226645e+00 1.538797e+00 6.588364e-02 8.453672e-02 5.858072e-02 8.708643e-02 2.307185e-01 2.894094e-01 2.081802e-01 1.945277e-01 1.476691e-01 1.631993e-01 2.910602e-01 1.957744e-01 2.148036e-01 3.022216e-02
<GCONST> 8.476034e+01
<STATE> 3
<MEAN> 39
 -6.252948e+00 -8.558150e+00 -5.685600e+00 -1.584274e+01 -4.519838e+00 -2.672896e+00 5.221066e+00 -9.276428e+00 -3.240792e+00 -7.549129e+00 -3.807375e+00 -5.833855e+00 1.910223e+01 1.536263e-01 -2.108026e-01 1.525704e-01 6.106429e-01 1.586247e-01 -2.025922e-01 -1.292592e-01 3.344028e-01 -4.542801e-01 2.213385e-01 2.478593e-01 1.065932e-01 -1.105186e-01 1.009192e-01 2.164943e-01 1.424201e-01 2.523215e-01 -3.547478e-02 -2.962693e-01 -2.921937e-01 9.702682e-02 6.479015e-02 6.726266e-02 1.672633e-01 -3.392047e-02 -1.164220e-01
<VARIANCE> 39
 9.141584e+00 9.171051e+00 8.137848e+00 1.568894e+01 4.678899e+01 3.068655e+01 3.269421e+01 3.888837e+01 5.062365e+01 4.536463e+01 3.518756e+01 3.272938e+01 1.259729e+00 3.435292e-01 5.511807e-01 3.790852e-01 6.108772e-01 1.219083e+00 1.497828e+00 1.184008e+00 9.843460e-01 1.060865e+00 1.581684e+00 1.621426e+00 9.397591e-01 5.958313e-02 4.369708e-02 4.228877e-02 4.619703e-02 9.892073e-02 2.044907e-01 1.362865e-01 1.916118e-01 1.517865e-01 1.974410e-01 1.846993e-01 2.491066e-01 1.695720e-01 4.745320e-03
<GCONST> 7.551249e+01
<STATE> 4
<MEAN> 39
 -3.270035e+00 -4.199138e+00 -2.075479e+00 -9.809794e+00 -4.101600e+00 -7.989077e+00 -4.197276e-01 -7.770399e+00 -3.933236e+00 -6.626831e+00 -1.665812e+00 -7.036881e+00 1.716465e+01 1.052380e-01 3.780590e-01 2.385622e-01 2.475534e-01 3.925557e-01 -4.140443e-02 -4.497871e-01 -3.506418e-01 4.857929e-02 -8.098079e-02 9.213144e-02 -1.228397e-02 -9.362758e-02 -4.221600e-02 -5.514910e-02 -5.201441e-02 -7.297090e-02 1.006816e-02 1.154869e-01 8.669151e-02 -5.354040e-02 4.225856e-04 -1.598753e-03 -4.365253e-02 3.812552e-02 1.843981e-02
<VARIANCE> 39
 4.983416e+00 1.071072e+01 1.035822e+01 1.384231e+01 2.864266e+01 3.241048e+01 2.647990e+01 4.165615e+01 3.197068e+01 3.590346e+01 3.236214e+01 2.850742e+01 1.752673e+00 1.950032e-01 4.218448e-01 4.848059e-01 9.370288e-01 1.403585e+00 1.188505e+00 1.688118e+00 1.275421e+00 1.424987e+00 1.408489e+00 1.286432e+00 9.407333e-01 9.297785e-02 3.569844e-02 8.105484e-02 8.891131e-02 1.531297e-01 2.527821e-01 2.064865e-01 2.870975e-01 2.311748e-01 2.306541e-01 2.414225e-01 2.152834e-01 1.505122e-01 1.528705e-02
<GCONST> 7.909159e+01
<TRANSP> 5
 0.000000e+00 1.000000e+00 0.000000e+00 0.000000e+00 0.000000e+00
 0.000000e+00 8.010713e-01 1.989286e-01 0.000000e+00 0.000000e+00
 0.000000e+00 0.000000e+00 8.508502e-01 1.491498e-01 0.000000e+00
 0.000000e+00 0.000000e+00 0.000000e+00 9.307196e-01 6.928045e-02
 0.000000e+00 0.000000e+00 0.000000e+00 0.000000e+00 0.000000e+00
<ENDHMM>
~h "three"
<BEGINHMM>
<NUMSTATES> 5
<STATE> 2
<MEAN> 39
 -2.997491e+00 -6.996925e+00 -1.653122e-01 -9.005472e+00 -1.075483e+01 -1.088191e+01 -1.292432e+00 -8.883321e+00 -1.712218e+00 -5.054539e+00 -1.735386e-01 -5.332589e+00 1.745429e+01 4.414827e-01 -1.108796e-01 9.538115e-01 -3.317550e-01 -1.532372e+00 -3.835656e-02 -2.895103e-01 -2.318774e-01 4.180509e-01 1.019653e-01 -2.158744e-02 -2.377131e-01 3.634082e-01 -1.853869e-01 1.321895e-01 -7.284388e-03 -2.993139e-01 2.515571e-01 3.003024e-01 -1.704426e-01 2.685263e-02 7.134951e-02 -2.068245e-02 4.292616e-02 8.642589e-03 -3.493014e-02
<VARIANCE> 39
 1.133638e+01 1.277366e+01 1.744948e+01 3.024396e+01 5.368822e+01 4.896540e+01 2.365185e+01 2.707718e+01 2.850668e+01 2.611101e+01 3.451092e+01 3.185487e+01 2.701759e+00 8.132144e-01 7.352515e-01 8.006122e-01 2.244449e+00 1.989711e+00 3.555624e+00 1.508389e+00 1.579767e+00 1.253041e+00 1.075472e+00 1.374729e+00 1.266845e+00 6.039614e-02 1.113468e-01 1.500051e-01 1.390227e-01 2.963872e-01 4.916835e-01 4.292299e-01 2.947348e-01 2.456444e-01 1.960525e-01 1.810997e-01 1.976392e-01 1.915636e-01 9.833448e-03
<GCONST> 9.011288e+01
<STATE> 3
<MEAN> 39
 -5.209578e+00 -3.280821e+00 5.506651e+00 -1.941927e+01 -1.181226e+01 -4.191432e+00 -8.990690e+00 -8.388551e+00 1.802880e+00 -5.882924e+00 1.013181e+00 -5.993911e+00 1.864283e+01 -8.346964e-01 1.807705e+00 -3.607365e-01 -1.611157e+00 2.434740e+00 -2.753983e-01 -1.372542e+00 9.242274e-01 -4.916376e-01 -2.194844e-01 1.064378e-01 2.939704e-02 -3.212455e-02 6.142386e-02 9.203371e-02 -4.531561e-01 5.551094e-01 3.275142e-01 -6.686043e-01 4.665390e-01 2.123976e-02 -3.589076e-01 8.504283e-02 -5.694527e-02 3.578414e-02 -5.150696e-02
<VARIANCE> 39
 7.712282e+00 2.363493e+01 1.188215e+01 2.891080e+01 5.994126e+01 2.842559e+01 4.087045e+01 6.523342e+01 2.653798e+01 2.826735e+01 3.811032e+01 3.012115e+01 1.301875e+00 2.458779e-01 5.950608e-01 9.503192e-01 1.798674e+00 1.245561e+00 3.497560e+00 2.116841e+00 1.301384e+00 1.343050e+00 1.104674e+00 6.940321e-01 7.808070e-01 1.782467e-02 4.735128e-02 1.525908e-01 9.223166e-02 2.150787e-01 4.786410e-01 2.406637e-01 3.588015e-01 3.764853e-01 1.725704e-01 1.469869e-01 1.329843e-01 1.110361e-01 2.040776e-03
<GCONST> 8.173701e+01
<STATE> 4
<MEAN> 39
 -6.740409e+00 4.122335e+00 -1.776242e+00 -1.626585e+01 -1.308590e+00 -1.262424e+01 -5.393453e+00 -8.218967e+00 -3.444196e+00 -4.954920e+00 -2.769987e-01 -6.255404e+00 1.786081e+01 1.554621e-01 -1.149846e-01 -5.508341e-01 9.793758e-01 3.931559e-01 -9.909604e-02 7.122999e-01 -3.782794e-01 -2.973520e-01 -2.662033e-02 -1.986549e-01 2.849994e-03 -1.810014e-01 6.243439e-02 -3.142342e-01 9.716839e-02 7.350157e-02 -2.259173e-01 3.152882e-01 2.927192e-02 -2.650300e-02 1.381791e-01 -3.527335e-02 2.365232e-02 1.254285e-02 -2.583368e-02
<VARIANCE> 39
 7.481660e+00 1.512759e+01 1.611382e+01 3.016697e+01 2.249363e+01 2.518943e+01 4.740490e+01 4.445376e+01 3.228436e+01 4.069113e+01 4.086383e+01 3.692497e+01 1.619980e+00 2.136774e-01 1.318869e+00 6.376798e-01 8.463329e-01 1.174578e+00 2.003484e+00 1.292898e+00 1.488534e+00 1.224817e+00 1.171014e+00 8.553297e-01 8.735373e-01 2.483735e-02 3.735936e-02 9.179392e-02 7.146613e-02 1.572100e-01 1.822572e-01 1.705728e-01 2.079824e-01 2.191118e-01 1.740860e-01 1.658074e-01 1.334882e-01 1.307335e-01 2.708590e-03
<GCONST> 7.734027e+01
<TRANSP> 5
 0.000000e+00 1.000000e+00 0.000000e+00 0.000000e+00 0.000000e+00
 0.000000e+00 8.786620e-01 1.213381e-01 0.000000e+00 0.000000e+00
 0.000000e+00 0.000000e+00 7.842460e-01 2.157540e-01 0.000000e+00
 0.000000e+00 0.000000e+00 0.000000e+00 8.894329e-01 1.105670e-01
 0.000000e+00 0.000000e+00 0.000000e+00 0.000000e+00 0.000000e+00
<ENDHMM>
~h "one"
<BEGINHMM>
<NUMSTATES> 5
<STATE> 2
<MEAN> 39
 -5.556040e-01 -3.776013e+00 -9.292370e+00 -1.282666e+01 -1.660183e+00 -5.562714e+00 -2.021228e+00 -8.864302e+00 -2.704506e+00 -6.731787e+00 -1.552194e+00 -7.300837e+00 1.775219e+01 2.762222e-01 -4.079891e-01 -8.744790e-01 4.609373e-01 4.902763e-01 4.155627e-02 -2.920776e-01 2.275259e-01 2.053108e-01 -3.066465e-01 -3.895740e-01 -2.717090e-01 2.371547e-01 -1.198156e-01 -1.468878e-01 5.488104e-02 2.660931e-01 8.108388e-03 -1.162111e-01 -1.528532e-02 9.404164e-02 -1.106622e-02 -9.052623e-02 1.139767e-02 8.364139e-02 -2.130229e-02
<VARIANCE> 39
 7.520477e+00 9.258399e+00 2.884717e+01 2.286249e+01 2.894282e+01 2.535868e+01 2.284329e+01 2.067323e+01 2.829107e+01 2.398538e+01 2.968984e+01 2.873215e+01 2.260691e+00 4.570603e-01 7.989811e-01 8.711007e-01 2.245455e+00 1.371390e+00 1.441760e+00 1.269228e+00 1.066842e+00 1.132949e+00 1.021069e+00 1.095390e+00 1.045405e+00 4.806022e-02 4.462979e-02 6.116984e-02 1.909214e-01 2.173861e-01 2.633173e-01 2.529097e-01 2.370192e-01 1.811940e-01 2.007732e-01 1.693512e-01 1.889420e-01 1.836828e-01 4.982767e-03
<GCONST> 8.016024e+01
<STATE> 3
<MEAN> 39
 -2.365336e+00 -1.071528e+01 -1.090295e+01 -1.688288e+00 -4.421549e-01 -9.496036e+00 -2.448112e+00 -4.204403e+00 -3.534644e+00 -1.173014e+01 -2.378161e+00 -6.053600e+00 1.853578e+01 -6.083284e-01 -3.740339e-01 1.339339e+00 5.730124e-01 -1.353832e+00 -3.285938e-01 1.196422e+00 -8.861453e-02 -9.252087e-01 -9.262697e-02 5.867006e-01 1.199866e-01 -4.916584e-02 2.355751e-02 3.139374e-01 2.518404e-01 -5.824237e-01 -1.344616e-01 3.767799e-01 9.220540e-02 -4.379173e-01 -3.278975e-04 3.808266e-01 4.414180e-02 -1.770354e-01 -2.978427e-02
<VARIANCE> 39
 6.135976e+00 9.605293e+00 1.864986e+01 2.375346e+01 2.699586e+01 1.739954e+01 3.765652e+01 3.137275e+01 4.645848e+01 3.754776e+01 3.383679e+01 3.320650e+01 1.544432e+00 1.544861e-01 5.156457e-01 6.040849e-01 1.830387e+00 7.391147e-01 1.710884e+00 1.006701e+00 2.246742e+00 1.165066e+00 1.864200e+00 1.028235e+00 1.293685e+00 8.475536e-03 2.362881e-02 5.254721e-02 1.007741e-01 1.224600e-01 2.851036e-01 1.527919e-01 3.757716e-01 1.780925e-01 3.358085e-01 2.002059e-01 2.674385e-01 1.680108e-01 8.552493e-04
<GCONST> 7.511839e+01
<STATE> 4
<MEAN> 39
 -4.106921e+00 -5.425584e+00 -1.642751e+00 -8.744983e+00 -4.071825e+00 -5.847075e+00 -1.670445e+00 -1.195197e+01 -4.641472e+00 -8.693138e+00 -2.584849e+00 -8.295174e+00 1.778471e+01 1.508107e-01 9.724858e-01 6.274631e-01 -7.305745e-01 4.275440e-01 -6.615642e-02 -6.324797e-01 -4.452189e-01 8.217672e-02 2.306279e-01 -1.760474e-01 5.070963e-02 -1.279721e-01 4.462942e-02 -6.820836e-02 -2.143394e-01 1.671499e-01 1.618090e-01 -6.936937e-02 -6.873124e-02 1.652897e-01 1.369356e-02 -1.166239e-01 1.015125e-02 7.506485e-02 -5.517606e-03
<VARIANCE> 39
 6.952398e+00 2.331065e+01 1.104266e+01 2.146502e+01 1.960720e+01 4.669191e+01 3.619004e+01 3.534570e+01 4.122121e+01 4.575885e+01 3.326582e+01 3.781138e+01 1.326174e+00 2.769914e-01 6.121893e-01 8.054132e-01 1.205652e+00 9.149861e-01 1.970010e+00 1.134467e+00 1.445881e+00 1.609697e+00 1.543269e+00 9.448376e-01 9.600935e-01 1.268598e-02 4.885324e-02 1.201306e-01 8.172140e-02 1.342123e-01 2.007646e-01 3.084046e-01 2.742368e-01 1.859741e-01 2.305805e-01 2.260402e-01 1.686717e-01 1.676705e-01 1.600680e-03
<GCONST> 7.852820e+01
<TRANSP> 5
 0.000000e+00 1.000000e+00 0.000000e+00 0.000000e+00 0.000000e+00
 0.000000e+00 8.979759e-01 1.020240e-01 0.000000e+00 0.000000e+00
 0.000000e+00 0.000000e+00 8.247840e-01 1.752160e-01 0.000000e+00
 0.000000e+00 0.000000e+00 0.000000e+00 8.840646e-01 1.159354e-01
 0.000000e+00 0.000000e+00 0.000000e+00 0.000000e+00 0.000000e+00
<ENDHMM>
~h "sil"
<BEGINHMM>
<NUMSTATES> 5
<STATE> 2
<MEAN> 39
 -6.777004e+00 -6.750840e+00 -5.111107e+00 -9.126957e+00 -3.996034e-02 -3.412259e+00 1.639409e-01 -8.547612e+00 -2.626938e+00 -5.771776e+00 5.619346e-01 -4.294293e+00 1.461550e+01 -3.742684e-02 -1.880705e-03 -1.310165e-03 3.491331e-02 4.253219e-02 2.741539e-02 4.724431e-02 2.676346e-03 -1.783305e-02 5.986379e-03 1.710334e-02 1.371448e-02 -1.222743e-02 -2.615075e-02 -3.385035e-02 -7.336207e-02 -1.072564e-01 -1.164790e-01 -1.135446e-01 -6.016586e-02 -6.815084e-03 -2.048745e-02 1.073650e-02 3.654922e-02 2.873039e-02 1.853343e-03
<VARIANCE> 39
 3.579937e+00 4.320510e+00 5.941437e+00 7.598478e+00 1.200037e+01 1.366894e+01 1.465053e+01 1.628818e+01 1.570424e+01 1.373433e+01 1.577606e+01 1.308271e+01 1.166722e+00 7.731810e-02 1.578939e-01 2.695678e-01 3.719522e-01 4.927017e-01 6.549709e-01 6.779672e-01 7.102079e-01 6.923780e-01 5.738255e-01 6.345269e-01 5.619640e-01 4.947448e-03 1.079633e-02 2.385483e-02 4.012738e-02 5.011135e-02 7.095488e-02 1.019780e-01 1.069151e-01 1.298660e-01 1.115920e-01 9.225545e-02 1.052773e-01 9.911496e-02 6.278493e-04
<GCONST> 4.363688e+01
<STATE> 3
~s "silst"
<STATE> 4
<MEAN> 39
 -7.617899e+00 -7.343336e+00 -6.631969e+00 -1.117604e+01 -2.169905e+00 -5.384614e+00 -1.001475e+00 -8.629476e+00 -2.686541e+00 -5.389139e+00 1.460194e+00 -3.848680e+00 1.448272e+01 -3.064539e-03 6.974414e-03 -2.927148e-02 -3.151997e-02 -5.595919e-02 -2.202663e-02 -6.062374e-02 -6.846854e-03 -3.320858e-03 -6.556596e-03 -2.234627e-02 -2.081677e-02 1.340777e-04 3.987703e-02 5.971355e-02 9.750703e-02 1.269289e-01 1.315354e-01 1.246298e-01 6.167291e-02 1.372437e-02 2.468720e-02 -1.785954e-02 -5.652970e-02 -3.982300e-02 9.064758e-03
<VARIANCE> 39
 3.540498e+00 4.180170e+00 6.420793e+00 7.871258e+00 1.127382e+01 1.264058e+01 1.500432e+01 1.600815e+01 1.776778e+01 1.534625e+01 1.513317e+01 1.344567e+01 9.952632e-01 7.825754e-02 1.695573e-01 2.894641e-01 4.173169e-01 5.060619e-01 6.773614e-01 5.971621e-01 7.457557e-01 7.116727e-01 6.090631e-01 7.021111e-01 6.141429e-01 3.311776e-03 1.455251e-02 2.907276e-02 4.215099e-02 5.747029e-02 7.378236e-02 1.094927e-01 1.041707e-01 1.289299e-01 1.337586e-01 1.061746e-01 1.176156e-01 1.101296e-01 1.141612e-03
<GCONST> 4.565572e+01
<TRANSP> 5
 0.000000e+00 1.000000e+00 0.000000e+00 0.000000e+00 0.000000e+00
 0.000000e+00 7.722327e-01 2.420191e-02 2.035654e-01 0.000000e+00
 0.000000e+00 0.000000e+00 8.265837e-01 1.734163e-01 0.000000e+00
 0.000000e+00 1.885550e-01 0.000000e+00 7.409776e-01 7.046741e-02
 0.000000e+00 0.000000e+00 0.000000e+00 0.000000e+00 0.000000e+00
<ENDHMM>
~h "six"
<BEGINHMM>
<NUMSTATES> 5
<STATE> 2
<MEAN> 39
 -8.645860e+00 -4.230345e+00 -6.935714e+00 -8.764840e+00 -3.147765e+00 -4.305966e+00 -1.965542e+00 -8.226665e+00 -3.545742e+00 -3.969220e+00 1.154086e-01 -3.144058e+00 1.497168e+01 6.818321e-01 6.863483e-01 1.213174e+00 -1.401583e+00 -1.174838e+00 -1.225596e+00 4.552350e-02 -1.296415e-01 4.312708e-01 3.508182e-01 -5.251166e-01 -4.874097e-01 6.375456e-01 6.168536e-02 1.124684e-01 2.217133e-01 -4.783918e-01 -2.733982e-01 -1.621214e-01 4.469820e-02 7.756379e-02 2.055861e-01 -4.151423e-03 -1.362321e-01 -2.402424e-01 1.432341e-01
<VARIANCE> 39
 7.560625e+00 7.823885e+00 1.277826e+01 1.151375e+01 1.925347e+01 2.028171e+01 1.524895e+01 1.791513e+01 2.011328e+01 3.013937e+01 1.912172e+01 1.706494e+01 1.903908e+00 3.593818e-01 4.723964e-01 8.851067e-01 1.150006e+00 1.082186e+00 1.328168e+00 1.013651e+00 8.122478e-01 1.426087e+00 2.252083e+00 1.083260e+00 1.334758e+00 7.576880e-02 6.209712e-02 5.616603e-02 1.155821e-01 9.857544e-02 2.023686e-01 2.102597e-01 1.472618e-01 1.777053e-01 1.846969e-01 2.380641e-01 1.709163e-01 1.683204e-01 9.097246e-03
<GCONST> 7.422746e+01
<STATE> 3
<MEAN> 39
 -6.473280e+00 -1.100737e+00 -8.548772e-01 -2.013403e+01 -7.854822e+00 -8.727530e+00 -2.441050e+00 -6.375626e+00 2.524801e-01 -3.799345e+00 -2.524763e+00 -7.323550e+00 1.832977e+01 2.335680e-02 -8.867405e-02 2.182961e-01 -2.768708e-01 3.797234e-01 2.166758e-01 -2.752903e-01 1.714551e-01 3.565495e-02 -1.974562e-01 1.718919e-01 9.804346e-03 -4.965954e-02 -5.652856e-02 -2.054149e-01 -2.671033e-01 4.885693e-01 2.881894e-01 2.204377e-01 6.842744e-02 -9.145315e-02 -1.471583e-01 -5.862210e-02 1.516926e-01 1.664239e-01 -1.671445e-01
<VARIANCE> 39
 7.692263e+00 9.757977e+00 1.664514e+01 2.295157e+01 5.856875e+01 3.112752e+01 3.721648e+01 2.461544e+01 3.463850e+01 5.829182e+01 3.545090e+01 3.745958e+01 1.433225e+00 3.492824e-01 6.518092e-01 1.075106e+00 3.228712e+00 2.390268e+00 1.754751e+00 1.734657e+00 1.342526e+00 1.887082e+00 2.011139e+00 1.866579e+00 1.894185e+00 2.929102e-01 6.821939e-02 6.608791e-02 1.610704e-01 2.253427e-01 3.065216e-01 3.194760e-01 3.841309e-01 2.240792e-01 2.869617e-01 3.401200e-01 2.639079e-01 2.553709e-01 1.167306e-02
<GCONST> 9.187522e+01
<STATE> 4
<MEAN> 39
 -6.573226e+00 -6.276466e+00 -4.707744e+00 -1.080686e+01 -9.991584e-01 -3.978621e+00 -1.420370e+00 -8.743049e+00 -2.176072e+00 -5.857421e+00 1.167067e+00 -4.220381e+00 1.473855e+01 -2.388448e-01 -9.028903e-01 -9.879609e-01 1.442214e+00 3.994317e-01 4.108858e-01 8.972102e-01 -4.432944e-01 -2.654570e-01 -4.182399e-02 1.866268e-01 2.929068e-01 -4.572784e-01 -1.051595e-01 1.713175e-01 2.113591e-01 -4.361567e-01 -3.759243e-01 -1.575620e-01 -9.021953e-02 1.696458e-01 1.166557e-01 1.015116e-01 -1.773413e-01 -1.427112e-01 1.504900e-01
<VARIANCE> 39
 3.281176e+00 5.458119e+00 9.408475e+00 1.094045e+01 1.449279e+01 1.553666e+01 1.931247e+01 1.846401e+01 1.676535e+01 1.693710e+01 1.853282e+01 1.486978e+01 1.492329e+00 2.674122e-01 4.884156e-01 9.176971e-01 1.329659e+00 2.103179e+00 1.639318e+00 1.602039e+00 1.259098e+00 1.236296e+00 1.208975e+00 1.191705e+00 1.017791e+00 8.281850e-02 3.861982e-02 6.550496e-02 1.380602e-01 1.474187e-01 2.323160e-01 1.813374e-01 2.643958e-01 1.936612e-01 1.844227e-01 1.726509e-01 1.976154e-01 1.818642e-01 5.795755e-03
<GCONST> 7.242799e+01
<TRANSP> 5
 0.000000e+00 1.000000e+00 0.000000e+00 0.000000e+00 0.000000e+00
 0.000000e+00 7.135983e-01 2.864017e-01 0.000000e+00 0.000000e+00
 0.000000e+00 0.000000e+00 8.890195e-01 1.109805e-01 0.000000e+00
 0.000000e+00 0.000000e+00 0.000000e+00 7.531360e-01 2.468640e-01
 0.000000e+00 0.000000e+00 0.000000e+00 0.000000e+00 0.000000e+00
<ENDHMM>
~h "two"
<BEGINHMM>
<NUMSTATES> 5
<STATE> 2
<MEAN> 39
 -1.105741e+01 -3.206027e+00 -6.943141e+00 -1.048592e+01 -1.143960e+00 -3.869627e+00 -2.000450e+00 -7.568661e+00 -2.357862e+00 -5.693469e+00 1.139356e+00 -3.319822e+00 1.506832e+01 4.207543e-01 6.209223e-01 9.218307e-01 -5.447397e-01 -2.432103e-01 -3.165376e-01 -4.612710e-01 -1.907286e-01 5.875928e-02 -4.607067e-02 -2.366436e-01 -3.175761e-01 3.069490e-01 3.009287e-01 4.271964e-02 2.986072e-01 -1.357867e-01 -1.752997e-01 -2.219137e-01 -1.056404e-01 -1.194502e-01 -2.551255e-02 3.911386e-03 -7.498963e-02 -1.616115e-01 8.646898e-02
<VARIANCE> 39
 8.574372e+00 8.191773e+00 1.280841e+01 1.261487e+01 1.852336e+01 2.274830e+01 1.898808e+01 2.148687e+01 2.072903e+01 2.338609e+01 2.429792e+01 1.963827e+01 9.061254e-01 1.405939e+00 5.631930e-01 1.349585e+00 8.358927e-01 1.337869e+00 1.286026e+00 9.654949e-01 1.184879e+00 1.144369e+00 1.276403e+00 1.812208e+00 1.090131e+00 7.143492e-02 1.227122e-01 1.131231e-01 1.316395e-01 1.280948e-01 2.358595e-01 2.025520e-01 1.736440e-01 2.228872e-01 2.201786e-01 1.978316e-01 3.517646e-01 1.586850e-01 8.088565e-03
<GCONST> 7.881732e+01
<STATE> 3
<MEAN> 39
 -4.610871e+00 1.251545e+00 1.847138e+00 -1.548998e+01 -6.901237e+00 -9.913392e+00 -6.677152e+00 -1.043745e+01 -2.418043e+00 -5.181521e+00 -1.119882e+00 -7.299634e+00 1.839570e+01 6.703650e-01 5.479105e-01 7.522124e-01 -5.462000e-01 -1.164594e+00 -1.109310e+00 -5.701246e-01 -2.819369e-01 -6.607513e-02 1.258843e-01 -2.180036e-01 -6.285154e-01 4.537063e-01 -2.499150e-01 -2.326947e-01 -4.255126e-01 2.973191e-01 2.681600e-01 2.293220e-01 2.342591e-01 1.458170e-01 -1.841340e-02 -8.007497e-03 1.526315e-01 1.824843e-01 -1.439646e-01
<VARIANCE> 39
 7.476318e+00 8.113333e+00 1.364920e+01 2.239000e+01 3.989930e+01 2.573520e+01 2.824405e+01 2.450627e+01 3.156186e+01 5.522872e+01 4.386195e+01 4.828443e+01 1.052075e+00 5.715556e-01 6.281111e-01 9.944324e-01 1.463346e+00 1.292621e+00 1.201079e+00 1.678360e+00 1.519061e+00 1.852945e+00 1.991155e+00 2.409281e+00 1.870710e+00 8.928151e-02 6.137449e-02 5.433411e-02 8.132982e-02 1.257232e-01 2.071734e-01 1.821579e-01 2.045897e-01 1.915017e-01 2.132338e-01 2.744582e-01 2.884343e-01 2.220243e-01 6.697359e-03
<GCONST> 8.387722e+01
<STATE> 4
<MEAN> 39
 -3.234611e+00 -5.348386e-02 -3.951165e-02 -1.367267e+01 -7.126864e+00 -1.157548e+01 -5.643623e+00 -9.633584e+00 -2.706883e+00 -5.305226e+00 -1.589153e-01 -7.600856e+00 1.824175e+01 1.672385e-01 -2.229585e-01 -2.382201e-01 5.382753e-01 3.355741e-01 8.502626e-02 9.791494e-02 -5.467249e-02 -1.938424e-01 -8.667043e-02 7.799942e-02 1.596042e-01 -1.197745e-01 -4.347685e-02 -3.808395e-02 -2.673622e-02 2.481179e-02 9.604666e-02 1.094429e-01 5.153946e-02 4.464529e-03 1.977512e-02 1.123559e-03 -5.895047e-03 4.472070e-02 -3.529753e-02
<VARIANCE> 39
 5.894065e+00 7.953453e+00 1.254028e+01 2.978065e+01 3.402226e+01 2.155689e+01 3.315405e+01 3.372256e+01 3.985446e+01 4.294094e+01 5.474125e+01 4.158241e+01 1.357748e+00 1.334074e-01 1.530303e-01 3.771583e-01 6.212497e-01 9.109703e-01 8.546267e-01 8.810157e-01 1.028085e+00 9.013503e-01 9.879462e-01 1.046132e+00 9.319627e-01 1.448750e-02 2.163652e-02 2.517409e-02 5.076822e-02 8.863933e-02 1.056274e-01 1.240670e-01 1.290659e-01 1.598334e-01 1.487932e-01 1.526692e-01 1.593513e-01 1.459684e-01 2.349216e-03
<GCONST> 6.574390e+01
<TRANSP> 5
 0.000000e+00 1.000000e+00 0.000000e+00 0.000000e+00 0.000000e+00
 0.000000e+00 8.292006e-01 1.707995e-01 0.000000e+00 0.000000e+00
 0.000000e+00 0.000000e+00 7.682065e-01 2.317935e-01 0.000000e+00
 0.000000e+00 0.000000e+00 0.000000e+00 9.013498e-01 9.865018e-02
 0.000000e+00 0.000000e+00 0.000000e+00 0.000000e+00 0.000000e+00
<ENDHMM>
~h "nine"
<BEGINHMM>
<NUMSTATES> 5
<STATE> 2
<MEAN> 39
 -4.466048e+00 -4.320398e+00 -2.080663e+00 -8.922319e+00 -3.046240e+00 -6.193745e+00 -1.510416e+00 -1.117720e+01 -5.008507e+00 -8.089003e+00 -2.962790e+00 -7.816021e+00 1.757478e+01 -1.386924e-01 -6.754439e-01 -2.243648e-01 4.968256e-01 -4.943339e-01 1.757690e-01 3.889973e-01 -1.974485e-01 -3.722974e-02 -1.531569e-01 -1.767849e-01 -1.448352e-01 2.490856e-01 -3.841595e-02 -1.266395e-01 -7.497036e-02 1.151763e-01 1.930601e-02 -6.469820e-03 3.800506e-02 3.173905e-02 1.032109e-02 6.538709e-03 8.137636e-02 3.546916e-02 -1.085007e-02
<VARIANCE> 39
 8.935103e+00 2.042012e+01 1.531235e+01 1.687069e+01 2.864952e+01 2.896258e+01 3.202325e+01 2.752885e+01 4.734674e+01 3.538993e+01 3.014947e+01 3.279119e+01 2.291122e+00 5.318574e-01 1.580620e+00 1.145347e+00 1.118413e+00 1.136991e+00 1.424368e+00 1.646106e+00 1.278303e+00 1.529282e+00 1.155217e+00 1.246700e+00 1.038705e+00 3.756090e-02 6.480344e-02 1.816265e-01 1.344569e-01 1.402550e-01 2.017405e-01 2.222277e-01 2.429076e-01 1.863313e-01 1.998896e-01 1.610442e-01 1.732017e-01 1.448060e-01 4.913121e-03
<GCONST> 8.288525e+01
<STATE> 3
<MEAN> 39
 -6.290418e+00 -1.167317e+01 -4.987722e+00 -2.492316e+00 -5.655532e+00 -5.432652e+00 1.785499e+00 -1.126436e+01 -5.680351e+00 -9.068749e+00 -1.604512e+00 -7.685365e+00 1.862178e+01 -1.082390e-01 6.588659e-02 2.330507e-01 -2.054716e-01 -4.689026e-02 2.055295e-01 -7.339440e-02 -1.009577e-01 1.717112e-01 6.963222e-02 -3.994524e-02 3.050043e-02 -1.981020e-02 -3.026601e-03 1.878353e-01 7.744893e-02 -2.486406e-01 3.299826e-02 8.106782e-02 -1.011950e-01 -1.993573e-03 8.312615e-02 -5.358113e-03 -7.949486e-02 2.509760e-02 -1.439313e-02
<VARIANCE> 39
 7.198343e+00 8.452216e+00 2.463231e+01 3.136871e+01 1.880430e+01 3.042211e+01 3.088324e+01 3.410236e+01 4.309864e+01 4.184487e+01 2.805889e+01 3.031842e+01 1.011912e+00 8.114514e-02 3.209862e-01 4.020248e-01 1.031431e+00 4.632170e-01 6.108223e-01 5.230565e-01 4.995353e-01 6.119688e-01 6.480278e-01 6.582051e-01 5.176089e-01 4.579451e-03 1.054101e-02 2.931335e-02 3.925368e-02 5.256053e-02 6.927640e-02 6.524011e-02 7.262521e-02 7.665999e-02 7.948616e-02 8.554346e-02 7.632525e-02 7.775389e-02 3.923984e-04
<GCONST> 5.266195e+01
<STATE> 4
<MEAN> 39
 -6.223773e+00 -3.177360e+00 -1.627315e+00 -1.203889e+01 -1.903517e+00 -4.486021e+00 -3.314610e+00 -1.019700e+01 -2.791653e+00 -8.222446e+00 -3.091074e+00 -6.512615e+00 1.790025e+01 3.932997e-01 8.504852e-01 1.536600e-01 -3.113292e-01 5.440619e-01 -4.759410e-01 -4.745528e-01 3.282533e-01 -1.987248e-01 5.463865e-02 9.704791e-02 5.326800e-02 -1.226159e-01 4.389327e-02 -1.234465e-01 -3.689523e-02 2.358557e-01 -1.491639e-02 -7.364580e-02 1.047380e-01 -3.512849e-02 -1.091830e-01 2.584756e-02 7.977971e-02 -2.948277e-02 -1.024376e-02
<VARIANCE> 39
 1.144293e+01 2.012275e+01 1.219398e+01 2.403668e+01 3.584187e+01 3.415635e+01 3.368834e+01 2.992746e+01 4.908007e+01 3.963484e+01 3.857562e+01 4.242739e+01 1.075776e+00 4.065170e-01 9.274309e-01 5.742171e-01 1.873143e+00 1.354393e+00 1.383749e+00 1.361010e+00 1.284729e+00 1.676009e+00 1.184747e+00 1.059598e+00 1.024265e+00 9.879657e-03 5.699033e-02 9.923289e-02 8.646993e-02 1.493622e-01 1.943127e-01 2.404696e-01 1.805890e-01 1.979676e-01 2.316740e-01 1.955185e-01 1.707309e-01 1.415406e-01 1.006115e-03
<GCONST> 7.866625e+01
<TRANSP> 5
 0.000000e+00 1.000000e+00 0.000000e+00 0.000000e+00 0.000000e+00
 0.000000e+00 8.952631e-01 1.047369e-01 0.000000e+00 0.000000e+00
 0.000000e+00 0.000000e+00 9.108939e-01 8.910615e-02 0.000000e+00
 0.000000e+00 0.000000e+00 0.000000e+00 8.979828e-01 1.020172e-01
 0.000000e+00 0.000000e+00 0.000000e+00 0.000000e+00 0.000000e+00
<ENDHMM>
~h "five"
<BEGINHMM>
<NUMSTATES> 5
<STATE> 2
<MEAN> 39
 -4.092053e+00 -1.145799e+01 -1.017020e+01 -8.208704e+00 5.333662e-01 -8.229272e+00 3.432937e-01 -4.572759e+00 -5.311381e+00 -7.989789e+00 -1.884854e+00 -4.925342e+00 1.804539e+01 3.438237e-01 -1.177814e+00 -7.034688e-01 7.955644e-01 5.208003e-01 -6.302190e-01 3.402641e-01 3.820483e-01 -7.515597e-01 -2.066839e-01 -2.832863e-01 4.080032e-03 5.580429e-01 -1.970140e-01 3.502197e-02 1.860158e-01 8.692091e-02 -1.738683e-02 1.106025e-01 2.944623e-02 -2.121650e-01 3.394042e-02 1.432111e-01 1.664936e-01 5.179169e-02 -7.928904e-02
<VARIANCE> 39
 1.067571e+01 1.952470e+01 2.369778e+01 1.687757e+01 1.911895e+01 2.038939e+01 2.544021e+01 5.183717e+01 3.248082e+01 2.824636e+01 2.504056e+01 2.010298e+01 4.239003e+00 7.722345e-01 5.626624e-01 1.181133e+00 9.019989e-01 7.906134e-01 9.825139e-01 9.672094e-01 2.191035e+00 1.728509e+00 1.727814e+00 1.361716e+00 1.026472e+00 1.237474e-01 9.343453e-02 1.312509e-01 1.739718e-01 1.232163e-01 1.365546e-01 1.434458e-01 1.540930e-01 2.980269e-01 2.735348e-01 1.909932e-01 1.741189e-01 1.405817e-01 2.743103e-02
<GCONST> 8.419807e+01
<STATE> 3
<MEAN> 39
 -5.812019e+00 -1.545200e+01 -8.549162e+00 -3.641963e+00 1.423035e+00 -9.172787e+00 2.539281e+00 -7.500731e+00 -7.214901e+00 -5.445280e+00 -4.596919e-01 -4.500241e+00 1.904588e+01 -1.654952e-01 8.454181e-02 4.904053e-01 -2.593957e-01 -2.714693e-01 4.349788e-01 6.838871e-02 -3.990414e-01 2.747801e-02 3.040213e-01 6.011597e-02 -8.482300e-02 -4.862725e-02 4.026593e-02 1.140993e-01 1.109826e-02 -1.964853e-01 -5.457010e-02 9.318256e-02 -2.875362e-02 2.475868e-02 5.613280e-02 -4.926001e-02 -7.818115e-02 -1.858401e-02 -1.484285e-02
<VARIANCE> 39
 9.169428e+00 9.381983e+00 2.481647e+01 2.081639e+01 1.874538e+01 2.314512e+01 1.748001e+01 3.901297e+01 4.702626e+01 4.446109e+01 2.685657e+01 2.550826e+01 1.356700e+00 8.761721e-02 1.526188e-01 2.695060e-01 6.316666e-01 4.946277e-01 5.507578e-01 4.975354e-01 4.920316e-01 6.111773e-01 5.691496e-01 5.671540e-01 4.730846e-01 5.840061e-03 1.172408e-02 2.412305e-02 3.021736e-02 4.795759e-02 5.107780e-02 5.157887e-02 5.690769e-02 6.410559e-02 8.503436e-02 8.408408e-02 6.626824e-02 7.025348e-02 8.945719e-04
<GCONST> 4.955968e+01
<STATE> 4
<MEAN> 39
 -5.754805e+00 -9.417883e+00 -3.944558e+00 -1.390803e+01 -3.279042e+00 -2.812121e+00 1.872928e+00 -8.423104e+00 -4.210526e+00 -5.238834e+00 -2.266000e+00 -5.520717e+00 1.830428e+01 2.171888e-01 1.207261e+00 3.704807e-01 -6.436175e-01 -3.928071e-01 -1.020711e-01 -3.097039e-01 2.566684e-01 5.548239e-01 -2.123450e-01 -7.269259e-02 -8.880422e-02 -2.458265e-01 -1.729928e-02 -2.119680e-02 -5.255567e-02 3.435107e-01 1.400736e-01 -1.805654e-01 -6.303173e-02 -9.865241e-03 -4.278192e-02 1.668575e-02 1.216048e-01 3.985759e-02 -4.834384e-02
<VARIANCE> 39
 7.870125e+00 2.308570e+01 1.220876e+01 3.193967e+01 4.212160e+01 1.956387e+01 2.462653e+01 3.668757e+01 5.316137e+01 2.795588e+01 2.709789e+01 3.010187e+01 1.834594e+00 2.146168e-01 4.980013e-01 5.737100e-01 2.635310e+00 1.471155e+00 1.622088e+00 9.745201e-01 1.331707e+00 1.638121e+00 1.337797e+00 1.268499e+00 9.161730e-01 4.132666e-02 4.302911e-02 9.679376e-02 7.580645e-02 2.405124e-01 2.362418e-01 2.298788e-01 1.662441e-01 2.295236e-01 2.226963e-01 1.789858e-01 2.066633e-01 1.646229e-01 4.442799e-03
<GCONST> 8.035278e+01
<TRANSP> 5
 0.000000e+00 1.000000e+00 0.000000e+00 0.000000e+00 0.000000e+00
 0.000000e+00 8.452973e-01 1.547026e-01 0.000000e+00 0.000000e+00
 0.000000e+00 0.000000e+00 9.122859e-01 8.771405e-02 0.000000e+00
 0.000000e+00 0.000000e+00 0.000000e+00 8.641285e-01 1.358715e-01
 0.000000e+00 0.000000e+00 0.000000e+00 0.000000e+00 0.000000e+00
<ENDHMM>
~h "four"
<BEGINHMM>
<NUMSTATES> 5
<STATE> 2
<MEAN> 39
 -6.670176e+00 -6.500791e+00 -5.547570e+00 -9.791423e+00 -1.601161e+00 -5.602602e+00 -1.254866e+00 -8.423998e+00 -1.989150e+00 -5.577785e+00 9.384868e-01 -4.290885e+00 1.538811e+01 1.588684e+00 5.437827e-01 -9.242067e-01 -8.787960e-01 -3.096978e-01 -5.404733e-01 -7.031610e-01 -1.976363e-01 1.896741e-01 2.035296e-01 -3.504708e-01 -4.961927e-01 6.516843e-01 3.431281e-01 1.217243e-01 -3.357721e-01 -3.142938e-01 -5.576723e-02 -1.257072e-03 -7.578589e-02 -1.514315e-02 1.189912e-03 5.341115e-02 -7.745411e-02 -1.301610e-01 1.405815e-01
<VARIANCE> 39
 7.987742e+00 5.519058e+00 5.394782e+00 7.903272e+00 1.005591e+01 1.253809e+01 1.447113e+01 1.358518e+01 1.599276e+01 1.350602e+01 1.627593e+01 1.232501e+01 1.764113e+00 5.058858e-01 4.387593e-01 5.928574e-01 7.417687e-01 7.222418e-01 9.127508e-01 7.457882e-01 8.239475e-01 1.034221e+00 1.104540e+00 1.542984e+00 1.247341e+00 5.614217e-02 6.993569e-02 5.326106e-02 6.045798e-02 8.241400e-02 1.010249e-01 1.510281e-01 1.212673e-01 1.492630e-01 1.394133e-01 1.604124e-01 1.993568e-01 1.877119e-01 7.430166e-03
<GCONST> 6.417879e+01
<STATE> 3
<MEAN> 39
 1.599566e+00 -3.482825e+00 -1.217865e+01 -1.705605e+01 -4.000837e+00 -6.171093e+00 -3.166716e+00 -8.951599e+00 -1.396811e+00 -3.852184e+00 4.323814e-01 -6.779423e+00 1.891752e+01 2.998468e-01 -1.892208e-01 -3.222578e-01 -3.301359e-02 7.516818e-02 -1.630140e-02 -2.178913e-01 1.763719e-01 3.548454e-01 9.290948e-02 -2.292019e-01 -2.185797e-01 1.413491e-01 -1.734892e-01 -1.543078e-01 1.505233e-01 2.368155e-01 3.839066e-02 -3.707895e-02 3.777415e-02 1.111005e-01 4.740112e-02 -8.574925e-02 -5.607550e-02 5.684234e-02 -6.759147e-02
<VARIANCE> 39
 4.138621e+00 1.028284e+01 9.551471e+00 1.372695e+01 2.443342e+01 1.714478e+01 1.859012e+01 1.716138e+01 2.364914e+01 2.483637e+01 3.813052e+01 3.759853e+01 1.083924e+00 5.159648e-01 7.252917e-01 6.829572e-01 1.208823e+00 9.686937e-01 7.697421e-01 9.081819e-01 9.562645e-01 1.306275e+00 1.173654e+00 1.336328e+00 1.238900e+00 9.200858e-02 4.956897e-02 4.577814e-02 9.588102e-02 8.000676e-02 1.359488e-01 1.435081e-01 1.562293e-01 1.413707e-01 1.816425e-01 1.922145e-01 1.992259e-01 1.872239e-01 7.220357e-03
<GCONST> 7.248497e+01
<STATE> 4
<MEAN> 39
 -2.624512e-01 -1.131561e+01 -7.983115e+00 -8.557478e+00 -5.377728e+00 -8.949846e+00 -2.202722e+00 -4.226587e+00 6.516488e-01 -7.568159e+00 -3.912384e+00 -7.361550e+00 1.855039e+01 -5.527127e-01 -3.383271e-02 1.189473e+00 5.187836e-01 -5.943129e-01 2.825457e-02 6.844546e-01 -1.581168e-01 -6.819075e-01 -3.927883e-01 1.341714e-01 2.578129e-01 -2.037673e-01 -8.733863e-02 3.025277e-01 1.055788e-03 -2.184292e-01 1.356420e-01 2.158080e-01 1.413833e-02 -2.464167e-01 -1.514876e-01 1.216249e-01 1.777189e-01 3.044705e-02 -5.098664e-02
<VARIANCE> 39
 6.971505e+00 1.430130e+01 2.847096e+01 1.840433e+01 4.721244e+01 3.738422e+01 3.525975e+01 3.891655e+01 4.503538e+01 3.448334e+01 3.467765e+01 3.192539e+01 1.576113e+00 2.193138e-01 1.522350e+00 6.621720e-01 1.662976e+00 2.088078e+00 2.162694e+00 1.565897e+00 2.597876e+00 1.819224e+00 1.726328e+00 1.796933e+00 1.076621e+00 4.091435e-02 2.918175e-02 9.463240e-02 1.878012e-01 1.660438e-01 4.428560e-01 3.015088e-01 3.551684e-01 3.383066e-01 3.789271e-01 2.793359e-01 3.072570e-01 2.166764e-01 3.208784e-03
<GCONST> 8.838219e+01
<TRANSP> 5
 0.000000e+00 1.000000e+00 0.000000e+00 0.000000e+00 0.000000e+00
 0.000000e+00 6.992019e-01 3.007980e-01 0.000000e+00 0.000000e+00
 0.000000e+00 0.000000e+00 9.180936e-01 8.190645e-02 0.000000e+00
 0.000000e+00 0.000000e+00 0.000000e+00 8.711904e-01 1.288096e-01
 0.000000e+00 0.000000e+00 0.000000e+00 0.000000e+00 0.000000e+00
<ENDHMM>
~h "zero"
<BEGINHMM>
<NUMSTATES> 5
<STATE> 2
<MEAN> 39
 -6.829189e+00 -1.788586e+00 -4.552499e+00 -7.681832e+00 -2.606243e+00 -4.786115e+00 -2.884787e+00 -8.946004e+00 -3.664092e+00 -4.113386e+00 9.477788e-02 -4.385245e+00 1.568117e+01 2.791630e-01 1.045497e+00 9.750767e-01 -1.161970e+00 -8.341907e-01 -1.412075e+00 -6.236345e-01 -6.053971e-01 3.250982e-01 3.386790e-01 -1.293393e-01 -2.372414e-01 4.923826e-01 3.255075e-02 8.775349e-02 1.784636e-01 -3.552764e-01 -1.686750e-01 -2.214009e-01 6.955862e-03 -1.707212e-02 1.701144e-01 -1.185844e-03 3.255291e-02 -8.883151e-02 8.954924e-02
<VARIANCE> 39
 6.902354e+00 1.042739e+01 1.566638e+01 1.494094e+01 2.133950e+01 2.255708e+01 1.910079e+01 1.981232e+01 2.987750e+01 2.469591e+01 2.232600e+01 2.014404e+01 1.485051e+00 3.181383e-01 4.321941e-01 7.694793e-01 9.536135e-01 8.514017e-01 1.292870e+00 9.735812e-01 1.178525e+00 1.346811e+00 9.760911e-01 1.202702e+00 1.534915e+00 4.303665e-02 4.703275e-02 1.026131e-01 1.290782e-01 1.087151e-01 1.313974e-01 2.196985e-01 1.581383e-01 1.928612e-01 1.620239e-01 1.512110e-01 1.791617e-01 1.663810e-01 6.530089e-03
<GCONST> 7.342176e+01
<STATE> 3
<MEAN> 39
 -5.559660e+00 3.011526e-01 9.563332e-01 -1.695609e+01 -7.876657e+00 -9.174129e+00 -4.569071e+00 -8.433010e+00 1.851081e-01 -3.758172e+00 1.748748e-01 -6.837440e+00 1.841206e+01 3.379567e-01 -7.502799e-01 4.375233e-01 -1.614203e-01 -1.079671e+00 2.700594e-01 2.090796e-01 1.966113e-01 3.177102e-01 -7.997771e-02 4.345308e-02 -1.239424e-01 1.642671e-01 5.211470e-02 -2.686289e-01 -1.739326e-01 3.727824e-01 1.706658e-02 1.337798e-01 1.953473e-01 5.473254e-02 -8.764098e-02 -4.343498e-02 -1.308254e-02 7.214669e-02 -6.442967e-02
<VARIANCE> 39
 7.441758e+00 2.075484e+01 1.738934e+01 2.621841e+01 5.944386e+01 4.066196e+01 3.227683e+01 4.425377e+01 3.106646e+01 3.027141e+01 3.455483e+01 5.110591e+01 1.090185e+00 4.424715e-01 1.616942e+00 8.011800e-01 2.614112e+00 1.743298e+00 2.518521e+00 1.687829e+00 1.422575e+00 1.340362e+00 1.175663e+00 1.105913e+00 1.317770e+00 6.227184e-02 5.136900e-02 1.133120e-01 1.261127e-01 1.801062e-01 2.460423e-01 4.103382e-01 2.257798e-01 2.479093e-01 2.118300e-01 1.741787e-01 1.722784e-01 2.173731e-01 4.566809e-03
<GCONST> 8.703767e+01
<STATE> 4
<MEAN> 39
 -1.602972e+00 -1.052025e+01 -4.392245e+00 -9.808116e+00 -9.689229e+00 -8.043304e+00 5.641791e-01 -4.099678e+00 -1.785167e-01 -6.702021e+00 -1.005367e+00 -5.664571e+00 1.854324e+01 8.280349e-02 1.144486e-02 -5.505213e-01 1.621090e-01 6.683200e-01 -1.772483e-01 -1.779214e-02 2.083997e-01 -6.380296e-02 -1.490750e-01 -9.277676e-02 -7.797094e-03 -5.353526e-02 -5.974748e-02 1.433375e-01 6.328271e-02 -8.655039e-02 8.668627e-02 4.154568e-02 -9.791236e-02 -8.235711e-02 -2.027956e-02 3.434830e-02 2.061609e-02 -8.949476e-03 -1.775149e-02
<VARIANCE> 39
 6.462635e+00 1.772263e+01 2.651420e+01 2.676184e+01 6.267083e+01 5.436713e+01 3.558630e+01 3.642049e+01 4.420660e+01 3.496676e+01 2.490974e+01 3.292561e+01 1.494347e+00 2.243413e-01 8.366239e-01 6.298855e-01 1.036215e+00 1.225047e+00 1.670358e+00 1.528004e+00 1.765966e+00 1.574197e+00 1.377673e+00 1.023306e+00 9.267015e-01 1.574462e-02 2.390663e-02 3.496475e-02 7.635579e-02 1.109848e-01 1.910708e-01 2.324946e-01 1.870640e-01 1.959387e-01 2.165131e-01 1.823292e-01 1.466641e-01 1.334198e-01 1.765683e-03
<GCONST> 7.713370e+01
<TRANSP> 5
 0.000000e+00 1.000000e+00 0.000000e+00 0.000000e+00 0.000000e+00
 0.000000e+00 7.333751e-01 2.666250e-01 0.000000e+00 0.000000e+00
 0.000000e+00 0.000000e+00 8.919575e-01 1.080425e-01 0.000000e+00
 0.000000e+00 0.000000e+00 0.000000e+00 9.396850e-01 6.031499e-02
 0.000000e+00 0.000000e+00 0.000000e+00 0.000000e+00 0.000000e+00
<ENDHMM>
