~o
<STREAMINFO> 1 39
<VECSIZE> 39<NULLD><MFCC_E_D_A><DIAGC>
~s "silst"
<MEAN> 39
 -7.481161e+00 -5.965358e+00 -5.463081e+00 -9.358617e+00 -9.876472e-01 -3.999614e+00 -5.487173e-01 -8.604506e+00 -2.681715e+00 -5.710482e+00 9.148578e-01 -4.216632e+00 1.480755e+01 -2.098131e-01 -1.300086e-01 -1.856953e-01 -2.223397e-02 -2.258228e-02 8.373608e-02 3.321377e-02 6.761588e-02 2.293664e-02 2.651180e-02 7.454679e-02 7.422593e-02 -7.079674e-02 6.868383e-02 5.670051e-02 3.546286e-02 -4.187639e-02 -3.668164e-02 -8.267905e-02 -5.236102e-02 -2.427449e-02 -1.038840e-02 -9.358889e-03 -3.308040e-02 -2.470494e-02 4.191477e-02
<VARIANCE> 39
 6.856304e+00 6.909376e+00 1.065687e+01 1.082524e+01 1.462029e+01 1.551566e+01 1.620529e+01 1.718224e+01 1.830512e+01 1.724795e+01 1.662401e+01 1.490086e+01 9.709765e-01 2.464698e-01 3.504488e-01 4.451225e-01 5.122251e-01 6.263784e-01 7.682450e-01 7.325049e-01 7.846155e-01 8.258216e-01 7.436664e-01 7.540221e-01 6.615326e-01 2.860348e-02 3.666108e-02 6.165627e-02 7.795265e-02 9.479813e-02 1.151630e-01 1.497380e-01 1.344540e-01 1.485538e-01 1.513893e-01 1.321901e-01 1.328933e-01 1.191862e-01 4.331971e-03
<GCONST> 6.015256e+01
~h "eight"
<BEGINHMM>
<NUMSTATES> 5
<STATE> 2
<MEAN> 39
 -8.370286e+00 -2.795781e+00 -6.016865e+00 -1.870828e+01 7.232587e-01 -4.703636e+00 7.195058e-01 -6.747632e+00 -1.472325e+00 -7.896434e+00 -1.509938e+00 -5.611077e+00 1.745923e+01 -1.759345e-01 1.089666e+00 -1.439045e-01 -1.001597e+00 -1.553198e-02 -6.646991e-01 1.027895e-01 5.677512e-01 3.336810e-01 -1.816363e-02 -7.992638e-02 -2.853826e-01 3.178702e-01 4.198933e-02 8.465879e-02 1.655835e-02 1.762574e-01 -9.673136e-02 -2.223532e-01 -6.824089e-02 -3.051150e-02 1.073854e-02 1.336206e-01 1.095386e-01 -1.079209e-02 -2.030281e-02
<VARIANCE> 39
 7.970259e+00 1.968671e+01 1.751814e+01 3.028826e+01 3.749972e+01 2.134837e+01 2.351274e+01 2.308963e+01 2.846062e+01 2.096774e+01 2.304890e+01 2.593722e+01 3.187388e+00 3.077236e-01 7.253133e-01 6.030771e-01 1.165101e+00 1.077345e+00 1.205655e+00 1.456563e+00 8.851918e-01 1.270497e+00 1.036239e+00 1.025886e+00 9.510813e-01 1.039805e-01 3.851429e-02 7.841404e-02 6.947062e-02 1.905413e-01 1.171501e-01 1.475127e-01 1.391700e-01 1.596820e-01 1.986698e-01 1.497775e-01 1.691141e-01 1.412065e-01 1.261534e-02
<GCONST> 7.696873e+01
<STATE> 3
<MEAN> 39
 -8.461300e+00 5.677712e+00 -5.516576e+00 -1.955145e+01 -2.849762e+00 -1.355077e+01 -1.613783e+00 -5.723078e+00 7.014516e-01 -4.190679e+00 6.641359e-01 -5.813334e+00 1.858093e+01 9.949037e-02 5.546536e-01 1.836432e-01 8.116556e-01 -2.068329e-02 -9.850463e-01 -5.963914e-01 -7.838344e-01 -3.290182e-01 3.581016e-01 4.707899e-01 2.223520e-01 -6.188898e-02 5.073724e-02 -2.701312e-01 2.477658e-02 2.041521e-01 8.377503e-02 2.523822e-01 1.796630e-02 -1.770432e-01 -1.909352e-01 -1.230590e-01 -6.569314e-02 4.632501e-02 -6.135561e-02
<VARIANCE> 39
 9.938090e+00 1.136307e+01 2.591459e+01 2.479704e+01 2.164603e+01 2.407067e+01 5.729667e+01 2.636583e+01 2.879553e+01 2.146679e+01 3.208475e+01 2.484105e+01 1.401100e+00 1.899794e-01 4.695589e-01 2.711979e-01 6.315727e-01 8.481543e-01 9.900090e-01 7.635914e-01 8.240649e-01 1.763371e+00 1.028439e+00 1.190698e+00 8.452391e-01 2.617318e-02 2.783206e-02 6.833800e-02 5.098870e-02 9.638296e-02 8.044028e-02 1.475500e-01 1.402974e-01 1.302233e-01 1.643958e-01 1.385096e-01 1.846816e-01 1.328851e-01 3.435053e-03
<GCONST> 6.884974e+01
<STATE> 4
<MEAN> 39
 -6.860247e+00 8.390884e-01 -4.174423e+00 -1.186123e+01 -1.134430e+00 -1.120094e+01 -3.695895e+00 -1.136597e+01 -4.203777e+00 -5.600286e+00 8.783077e-01 -4.477248e+00 1.644695e+01 1.581723e-01 -1.779054e+00 -6.144177e-02 8.412051e-01 1.888359e-01 1.523004e+00 3.542487e-01 2.125062e-03 -2.590618e-01 -3.297173e-01 -8.480618e-02 1.205282e-01 -4.607483e-01 -7.444524e-02 -6.602231e-02 -8.918869e-02 -1.541348e-01 -4.974274e-02 1.121791e-01 1.515011e-01 2.397743e-01 1.762411e-01 4.574575e-02 1.014715e-02 -3.547152e-02 2.054065e-03
<VARIANCE> 39
 6.023461e+00 3.420454e+01 1.398524e+01 1.903566e+01 1.586313e+01 4.077935e+01 3.214641e+01 2.432132e+01 3.862977e+01 2.731034e+01 2.606742e+01 2.402028e+01 2.803658e+00 3.650254e-01 7.597771e-01 6.886846e-01 1.014879e+00 6.402501e-01 1.274528e+00 1.781053e+00 1.508227e+00 2.022310e+00 1.232001e+00 1.342951e+00 1.144034e+00 3.576171e-02 4.167575e-02 2.690722e-01 6.902462e-02 1.213063e-01 9.859478e-02 3.614012e-01 2.002909e-01 1.965781e-01 2.965678e-01 1.866184e-01 1.975903e-01 1.916274e-01 1.142769e-02
<GCONST> 8.082853e+01
<TRANSP> 5
 0.000000e+00 1.000000e+00 0.000000e+00 0.000000e+00 0.000000e+00
 0.000000e+00 8.487820e-01 1.512180e-01 0.000000e+00 0.000000e+00
 0.000000e+00 0.000000e+00 8.529894e-01 1.470105e-01 0.000000e+00
 0.000000e+00 0.000000e+00 0.000000e+00 8.455104e-01 1.544896e-01
 0.000000e+00 0.000000e+00 0.000000e+00 0.000000e+00 0.000000e+00
<ENDHMM>
~h "oh"
<BEGINHMM>
<NUMSTATES> 5
<STATE> 2
<MEAN> 39
 -4.823985e+00 -1.017221e+01 -8.642878e+00 -8.580077e+00 -2.242214e+00 -7.547537e+00 3.191671e+00 -6.586109e+00 -5.190662e+00 -7.137640e+00 -1.648032e+00 -4.512994e+00 1.753534e+01 5.860283e-01 -3.646057e-01 -7.412590e-01 2.526913e-01 1.830292e-01 -6.710910e-01 2.179559e-01 7.151138e-01 -1.304941e-01 -4.978396e-01 -5.113269e-01 -1.343647e-01 4.233191e-01 4.213227e-02 1.176503e-01 6.795563e-03 -7.851198e-02 3.808771e-02 -3.355386e-02 -1.620086e-01 1.625182e-02 1.544174e-01 1.660420e-02 -4.004737e-02 -4.603904e-02 -1.283328e-02
<VARIANCE> 39
 7.987412e+00 1.235490e+01 1.596092e+01 1.758482e+01 2.151265e+01 2.272013e+01 2.757266e+01 6.163831e+01 3.919127e+01 3.240186e+01 2.425309e+01 2.703872e+01 3.158420e+00 3.310694e-01 5.510507e-01 6.438133e-01 6.854187e-01 6.863152e-01 1.040999e+00 1.263077e+00 1.958510e+00 1.466995e+00 1.349443e+00 1.186453e+00 1.071407e+00 8.578057e-02 4.473148e-02 7.433528e-02 8.149941e-02 8.722888e-02 9.788261e-02 1.399090e-01 1.668723e-01 2.348220e-01 2.052918e-01 2.146061e-01 1.865541e-01 1.473341e-01 1.692950e-02
<GCONST> 7.785794e+01
<STATE> 3
<MEAN> 39
 -1.223514e+00 -9.311657e+00 -1.190158e+01 -8.991730e+00 -1.319457e+00 -1.134975e+01 1.410005e+00 -2.148788e+00 -1.976319e+00 -8.902511e+00 -5.042505e+00 -6.367043e+00 1.900710e+01 2.740147e-01 3.807236e-01 -1.556486e-01 -2.722288e-01 -2.974584e-03 -2.243804e-01 -6.062376e-01 1.328625e-01 6.985393e-01 3.219617e-01 -1.759868e-01 -3.336977e-01 1.246349e-02 -4.097540e-02 4.003336e-02 7.859734e-02 -2.642078e-02 -4.252477e-02 8.448457e-02 -4.911996e-02 -1.526649e-01 -5.330155e-03 1.195221e-01 9.516432e-02 -1.351602e-02 -2.900523e-02
<VARIANCE> 39
 7.146310e+00 9.151820e+00 1.999788e+01 1.359788e+01 2.194878e+01 2.553982e+01 4.145720e+01 5.379945e+01 4.149910e+01 3.414021e+01 3.157431e+01 4.056217e+01 1.203130e+00 8.947850e-02 1.402914e-01 2.345764e-01 2.868375e-01 3.927671e-01 5.709124e-01 8.706104e-01 9.667604e-01 8.810471e-01 9.542602e-01 7.533458e-01 6.669265e-01 1.534578e-02 1.351739e-02 1.669024e-02 3.529150e-02 3.611963e-02 5.057786e-02 7.439031e-02 8.032350e-02 1.085224e-01 1.039959e-01 1.059561e-01 1.076199e-01 9.258293e-02 1.688847e-03
<GCONST> 5.542818e+01
<STATE> 4
<MEAN> 39
 -5.037567e-02 -3.967515e+00 -9.885125e+00 -1.289406e+01 -2.875143e+00 -1.012480e+01 -4.703386e+00 -6.815544e+00 1.247024e+00 -3.166872e+00 -1.196273e+00 -7.404976e+00 1.838501e+01 -3.446602e-01 2.376620e-01 6.982508e-01 9.079432e-02 -7.995585e-02 4.960416e-01 1.123834e-01 -6.374550e-01 -4.013665e-01 1.216660e-01 5.125126e-01 2.906233e-01 -2.353271e-01 -1.166899e-01 -1.000190e-01 2.665575e-02 8.782992e-02 6.052499e-02 8.365339e-02 1.639210e-01 6.880283e-02 -1.218757e-01 -1.364595e-01 -2.412054e-02 8.506425e-02 -3.857578e-02
<VARIANCE> 39
 6.543329e+00 7.194794e+00 2.484711e+01 1.579170e+01 2.005087e+01 2.827656e+01 2.994468e+01 2.975190e+01 3.173885e+01 3.699688e+01 4.125488e+01 3.447494e+01 1.812355e+00 3.334311e-01 3.880295e-01 4.562115e-01 6.157157e-01 7.899167e-01 1.003724e+00 1.193215e+00 1.226554e+00 1.142175e+00 1.369205e+00 1.162035e+00 1.139096e+00 4.586080e-02 2.266928e-02 3.587446e-02 7.690717e-02 6.704340e-02 9.830249e-02 1.411386e-01 1.479758e-01 1.730726e-01 1.855044e-01 1.645986e-01 1.650164e-01 1.480923e-01 2.748175e-03
<GCONST> 7.061432e+01
<TRANSP> 5
 0.000000e+00 1.000000e+00 0.000000e+00 0.000000e+00 0.000000e+00
 0.000000e+00 8.432177e-01 1.567823e-01 0.000000e+00 0.000000e+00
 0.000000e+00 0.000000e+00 8.940510e-01 1.059490e-01 0.000000e+00
 0.000000e+00 0.000000e+00 0.000000e+00 9.004136e-01 9.958641e-02
 0.000000e+00 0.000000e+00 0.000000e+00 0.000000e+00 0.000000e+00
<ENDHMM>
~h "sp"
<BEGINHMM>
<NUMSTATES> 5
<STATE> 2
~s "silst"
<STATE> 3
<MEAN> 39
 -7.914571e+00 -5.082554e+00 -5.805589e+00 -9.291706e+00 -1.865903e+00 -4.243928e+00 -9.356828e-01 -8.484151e+00 -3.153524e+00 -5.744576e+00 5.482755e-01 -4.530939e+00 1.538949e+01 3.071598e-01 3.304271e-01 2.803851e-01 -4.246381e-01 -3.280272e-01 -3.861604e-01 -5.772635e-02 -7.347979e-03 5.218396e-02 -3.185926e-02 -2.270736e-01 -1.428285e-01 2.104755e-01 2.002344e-01 3.707476e-02 3.944951e-02 -1.709412e-01 -1.638812e-01 -2.358524e-01 -2.949499e-02 2.669895e-02 6.195380e-02 1.343032e-02 -1.111914e-01 -9.059854e-02 1.229368e-01
<VARIANCE> 39
 1.237784e+01 1.292109e+01 1.486039e+01 1.635565e+01 2.184170e+01 2.093448e+01 2.024588e+01 2.124826e+01 2.380791e+01 2.248633e+01 2.134164e+01 1.914848e+01 2.309778e+00 8.273579e-01 7.224429e-01 9.711189e-01 1.041439e+00 1.204099e+00 1.602570e+00 1.062792e+00 1.323755e+00 1.481401e+00 1.218977e+00 1.153190e+00 1.024088e+00 1.317660e-01 8.191904e-02 1.183472e-01 1.692045e-01 1.937301e-01 2.252869e-01 2.352742e-01 1.917596e-01 2.294482e-01 2.390441e-01 2.014409e-01 2.026180e-01 1.823497e-01 1.025487e-02
<GCONST> 8.176695e+01
<STATE> 4
<MEAN> 39
 -5.684242e+00 -4.100055e+00 -3.552080e+00 -1.145471e+01 -3.824557e+00 -6.572460e+00 -1.578121e+00 -8.861908e+00 -2.880018e+00 -6.045197e+00 -9.480281e-01 -5.788823e+00 1.674027e+01 1.909182e-01 2.137073e-01 -2.011037e-02 -2.612012e-01 -8.920837e-02 -2.374394e-01 -3.084349e-02 1.809950e-02 1.323854e-01 7.710755e-02 -9.158046e-02 5.931685e-03 1.081658e-01 -7.984424e-03 -8.080524e-02 -1.445890e-01 -1.197017e-02 3.522020e-02 1.757245e-02 1.549259e-02 5.728275e-02 -6.632975e-03 -2.256694e-02 -5.902441e-03 5.018830e-03 3.500628e-02
<VARIANCE> 39
 1.313855e+01 1.681980e+01 1.702161e+01 2.631199e+01 3.469320e+01 2.861983e+01 2.489621e+01 2.886842e+01 3.511444e+01 3.238493e+01 3.183639e+01 2.942750e+01 2.876755e+00 1.061096e+00 1.095974e+00 1.211064e+00 1.921515e+00 2.100791e+00 2.168743e+00 1.481152e+00 1.762330e+00 1.766825e+00 1.486636e+00 1.501454e+00 1.401863e+00 2.404332e-01 1.014402e-01 1.203606e-01 1.568271e-01 2.489281e-01 2.874531e-01 2.838208e-01 2.170724e-01 2.407873e-01 2.637376e-01 2.286485e-01 2.216703e-01 1.950593e-01 1.460408e-02
<GCONST> 9.206746e+01
<TRANSP> 5
 0.000000e+00 6.823722e-01 3.176278e-01 0.000000e+00 0.000000e+00
 0.000000e+00 9.155399e-01 8.446006e-02 0.000000e+00 0.000000e+00
 0.000000e+00 0.000000e+00 5.470731e-01 4.529269e-01 0.000000e+00
 0.000000e+00 0.000000e+00 0.000000e+00 5.590617e-01 4.409383e-01
 0.000000e+00 0.000000e+00 0.000000e+00 0.000000e+00 0.000000e+00
<ENDHMM>
~h "seven"
<BEGINHMM>
<NUMSTATES> 5
<STATE> 2
<MEAN> 39
 -6.524349e+00 -3.926751e+00 -5.520452e+00 -1.267856e+01 -6.648701e+00 -6.209640e+00 1.032925e+00 -7.802085e+00 -1.515896e+00 -4.770575e+00 -2.421683e+00 -5.323368e+00 1.670505e+01 4.222794e-01 -1.610831e-01 2.497145e-01 -1.189246e+00 -7.851728e-01 -2.119030e-01 9.795751e-01 -1.903590e-02 1.237429e-01 -2.197486e-01 -7.377753e-01 -5.864759e-01 6.187384e-01 -1.256786e-01 -1.599883e-01 -1.276705e-01 6.249554e-02 1.444095e-01 2.135063e-01 5.758465e-02 1.358152e-02 -1.414678e-01 -1.060275e-01 2.724696e-02 1.018672e-02 1.610490e-03
<VARIANCE> 39
 1.315058e+01 6.348525e+00 1.287698e+01 3.305581e+01 3.221177e+01 2.937916e+01 2.512170e+01 2.320909e+01 2.586456e+01 5.316882e+01 2.245359e+01 2.467239e+01 4.461886e+00 6.038616e-01 4.559250e-01 6.015793e-01 1.013492e+00 1.697041e+00 1.601479e+00 1.444483e+00 1.070050e+00 1.254137e+00 2.070234e+00 1.137512e+00 1.539685e+00 1.079372e-01 1.073617e-01 6.232663e-02 1.092522e-01 2.424115e-01 2.975037e-01 2.418512e-01 1.517504e-01 1.342303e-01 1.587499e-01 2.833665e-01 1.646666e-01 1.932947e-01 3.129370e-02
<GCONST> 8.417770e+01
<STATE> 3
<MEAN> 39
 -6.196994e+00 -8.336371e+00 -5.622051e+00 -1.588998e+01 -5.219823e+00 -3.206685e+00 5.368067e+00 -8.999293e+00 -3.239145e+00 -7.325575e+00 -4.146601e+00 -6.211400e+00 1.911846e+01 1.165344e-01 -2.587712e-01 1.051661e-01 5.311391e-01 1.638144e-01 -1.124977e-01 -5.270465e-02 3.020039e-01 -4.661031e-01 1.196158e-01 1.875971e-01 4.552139e-02 -6.982656e-02 6.800490e-02 1.871507e-01 1.128327e-01 2.742039e-01 4.100235e-02 -2.190119e-01 -3.070836e-01 7.689118e-02 4.559424e-02 5.442525e-02 2.014631e-01 1.161660e-02 -1.245024e-01
<VARIANCE> 39
 8.764506e+00 9.100442e+00 8.229346e+00 1.632377e+01 4.873923e+01 3.374416e+01 3.259636e+01 3.951200e+01 4.991278e+01 5.077189e+01 3.529357e+01 3.400131e+01 1.200692e+00 3.513697e-01 5.795031e-01 4.106117e-01 7.515637e-01 1.268066e+00 1.568120e+00 1.316057e+00 1.001505e+00 1.098237e+00 1.633668e+00 1.651413e+00 1.010663e+00 8.912934e-02 5.267771e-02 5.064566e-02 5.502973e-02 1.069286e-01 2.426533e-01 1.852200e-01 1.883562e-01 1.619840e-01 2.035726e-01 2.136852e-01 2.536269e-01 1.880648e-01 5.509703e-03
<GCONST> 7.847565e+01
<STATE> 4
<MEAN> 39
 -3.205694e+00 -3.855288e+00 -1.928877e+00 -9.460159e+00 -3.590392e+00 -8.115998e+00 -9.130924e-01 -8.372857e+00 -4.388423e+00 -6.845901e+00 -1.818685e+00 -7.185329e+00 1.713318e+01 1.222247e-02 2.429686e-01 1.280509e-01 2.404906e-01 3.536260e-01 8.870147e-02 -3.344302e-01 -2.439632e-01 1.226115e-01 -4.592716e-02 1.660626e-01 6.766846e-02 -1.353897e-01 -5.850882e-02 -7.282902e-02 -7.311066e-02 -9.473634e-02 -1.420501e-02 1.044297e-01 1.064673e-01 -1.873497e-02 2.473833e-02 1.716277e-02 -4.180809e-02 2.721690e-02 1.395721e-02
<VARIANCE> 39
 4.845351e+00 1.069603e+01 1.001072e+01 1.351735e+01 2.849720e+01 3.065884e+01 2.553543e+01 4.255211e+01 3.287517e+01 3.572005e+01 3.295344e+01 2.760814e+01 1.601990e+00 2.540618e-01 5.198237e-01 5.571200e-01 8.609493e-01 1.330061e+00 1.268381e+00 1.676666e+00 1.348534e+00 1.454561e+00 1.409003e+00 1.274663e+00 9.622045e-01 9.643973e-02 3.486358e-02 7.599658e-02 8.704544e-02 1.446847e-01 2.309720e-01 2.009018e-01 2.680229e-01 2.367960e-01 2.299834e-01 2.302149e-01 2.105471e-01 1.400169e-01 1.451012e-02
<GCONST> 7.898071e+01
<TRANSP> 5
 0.000000e+00 1.000000e+00 0.000000e+00 0.000000e+00 0.000000e+00
 0.000000e+00 7.603821e-01 2.396179e-01 0.000000e+00 0.000000e+00
 0.000000e+00 0.000000e+00 8.660055e-01 1.339945e-01 0.000000e+00
 0.000000e+00 0.000000e+00 0.000000e+00 9.338678e-01 6.613218e-02
 0.000000e+00 0.000000e+00 0.000000e+00 0.000000e+00 0.000000e+00
<ENDHMM>
~h "three"
<BEGINHMM>
<NUMSTATES> 5
<STATE> 2
<MEAN> 39
 -2.816184e+00 -7.118539e+00 -6.408284e-01 -8.069483e+00 -1.038918e+01 -1.181028e+01 -1.108080e+00 -8.425104e+00 -1.842715e+00 -4.967905e+00 2.754985e-01 -5.020414e+00 1.733153e+01 5.707229e-01 -2.296362e-01 9.650376e-01 -1.043253e-01 -1.784122e+00 -2.849964e-01 -1.078227e-01 -3.193277e-01 4.496489e-01 1.594563e-01 3.596145e-02 -1.771150e-01 3.961219e-01 -1.979706e-01 1.265635e-01 5.632193e-02 -3.570561e-01 1.558041e-01 3.985266e-01 -1.561335e-01 -3.388595e-02 1.145389e-01 -1.343789e-02 2.102659e-02 -1.489109e-02 -2.721955e-02
<VARIANCE> 39
 1.251187e+01 1.203142e+01 1.649237e+01 2.640137e+01 4.943624e+01 5.092792e+01 2.225698e+01 2.305604e+01 2.575530e+01 2.220101e+01 2.889281e+01 3.161098e+01 2.877720e+00 6.813411e-01 6.426398e-01 7.708543e-01 1.833833e+00 1.853243e+00 3.272648e+00 1.399800e+00 1.468201e+00 1.093389e+00 9.978797e-01 1.320568e+00 1.230265e+00 5.477072e-02 1.275906e-01 1.373057e-01 1.322324e-01 2.985424e-01 4.458922e-01 4.643816e-01 2.806183e-01 2.175588e-01 1.867628e-01 1.668876e-01 1.997747e-01 1.971768e-01 1.099112e-02
<GCONST> 8.791278e+01
<STATE> 3
<MEAN> 39
 -4.161904e+00 -5.233184e+00 5.737878e+00 -1.704498e+01 -1.489780e+01 -4.389759e+00 -6.788448e+00 -9.996443e+00 2.320822e+00 -5.358230e+00 1.136432e+00 -5.996397e+00 1.872930e+01 -8.890830e-01 1.640631e+00 1.422157e-01 -2.144553e+00 1.927774e+00 5.547215e-01 -1.759188e+00 7.763709e-01 -3.957913e-02 -2.695493e-01 1.576327e-01 -4.247969e-02 2.191397e-02 -3.962917e-02 2.670773e-01 -4.805606e-01 3.247185e-01 6.745752e-01 -6.491753e-01 1.925249e-01 2.121351e-01 -4.023173e-01 1.230935e-02 -4.292555e-02 6.116232e-02 -6.379547e-02
<VARIANCE> 39
 7.163917e+00 2.029714e+01 1.144610e+01 4.080086e+01 5.213742e+01 3.255098e+01 4.886731e+01 5.850217e+01 2.209024e+01 2.858589e+01 3.989776e+01 3.064680e+01 1.207539e+00 2.600080e-01 7.896599e-01 1.046574e+00 1.262625e+00 2.255178e+00 3.642069e+00 1.464173e+00 1.730596e+00 1.505216e+00 8.978809e-01 8.037505e-01 8.464504e-01 2.256936e-02 5.454274e-02 1.179540e-01 9.275229e-02 3.479344e-01 3.903306e-01 2.882953e-01 5.138281e-01 3.243079e-01 1.474884e-01 1.620306e-01 1.402753e-01 1.103926e-01 2.346388e-03
<GCONST> 8.338644e+01
<STATE> 4
<MEAN> 39
 -6.452560e+00 2.908402e+00 -1.356583e+00 -1.570363e+01 -1.500230e+00 -1.118981e+01 -5.507576e+00 -8.135265e+00 -3.353590e+00 -5.427586e+00 -4.131778e-01 -6.334841e+00 1.761913e+01 -7.730983e-04 -1.876372e-01 -6.230910e-01 8.302962e-01 5.253811e-01 -3.448883e-04 6.580855e-01 -1.919954e-01 -2.420734e-01 -1.108532e-03 -5.656332e-02 7.119624e-02 -2.225919e-01 3.499949e-02 -2.514303e-01 2.869459e-02 8.456002e-02 -2.231326e-01 1.903796e-01 9.399606e-02 -5.051556e-02 1.127596e-01 -1.574010e-03 2.837056e-02 2.216411e-02 -2.209747e-02
<VARIANCE> 39
 7.957006e+00 1.919791e+01 1.652021e+01 3.489618e+01 2.360802e+01 3.063321e+01 4.670053e+01 4.324615e+01 3.101876e+01 3.827676e+01 4.011890e+01 3.583221e+01 2.018649e+00 2.967103e-01 1.715834e+00 7.104746e-01 8.855389e-01 1.499777e+00 2.472161e+00 1.421510e+00 1.487895e+00 1.360167e+00 1.286048e+00 1.091742e+00 9.769436e-01 3.803997e-02 4.843649e-02 1.096181e-01 8.510480e-02 1.953757e-01 1.815397e-01 2.203066e-01 2.423931e-01 2.294833e-01 1.806190e-01 1.671800e-01 1.461775e-01 1.371542e-01 3.228654e-03
<GCONST> 8.199703e+01
<TRANSP> 5
 0.000000e+00 1.000000e+00 0.000000e+00 0.000000e+00 0.000000e+00
 0.000000e+00 8.393877e-01 1.606124e-01 0.000000e+00 0.000000e+00
 0.000000e+00 0.000000e+00 7.769433e-01 2.230566e-01 0.000000e+00
 0.000000e+00 0.000000e+00 0.000000e+00 9.171801e-01 8.281989e-02
 0.000000e+00 0.000000e+00 0.000000e+00 0.000000e+00 0.000000e+00
<ENDHMM>
~h "one"
<BEGINHMM>
<NUMSTATES> 5
<STATE> 2
<MEAN> 39
 -3.883758e-01 -2.928119e+00 -8.271653e+00 -1.392644e+01 -2.774603e+00 -5.945285e+00 -1.065744e+00 -8.447665e+00 -3.068981e+00 -6.693912e+00 -1.246568e+00 -6.789619e+00 1.768950e+01 3.929944e-01 -3.421416e-01 -1.108800e+00 1.287780e-01 5.657457e-01 3.756257e-01 -1.592435e-01 1.094209e-01 1.527968e-01 -1.932094e-01 -3.282045e-01 -3.695739e-01 2.652090e-01 -1.349787e-01 -1.996381e-01 -2.773434e-02 3.524982e-01 1.518503e-01 -6.100213e-02 -1.345038e-01 4.443476e-02 4.887317e-02 -4.701365e-02 -2.991570e-02 3.752542e-02 -2.246600e-02
<VARIANCE> 39
 6.998386e+00 6.904140e+00 2.341897e+01 1.892279e+01 2.415528e+01 2.374070e+01 1.856725e+01 1.930070e+01 2.514025e+01 2.382517e+01 2.978812e+01 2.796995e+01 2.007150e+00 3.766938e-01 7.328932e-01 7.631801e-01 1.735344e+00 1.469282e+00 1.172590e+00 1.247482e+00 9.611730e-01 1.060803e+00 9.372244e-01 1.005424e+00 9.791159e-01 4.843286e-02 4.578253e-02 5.556288e-02 1.474112e-01 2.223362e-01 1.889938e-01 2.456153e-01 1.992921e-01 1.728699e-01 1.808321e-01 1.733825e-01 1.893895e-01 1.685537e-01 5.361289e-03
<GCONST> 7.640378e+01
<STATE> 3
<MEAN> 39
 -1.260649e+00 -9.400303e+00 -1.340654e+01 -4.104209e+00 2.217884e+00 -7.554106e+00 -4.992262e+00 -5.568245e+00 -1.423884e+00 -1.046349e+01 -3.772368e+00 -7.031320e+00 1.862970e+01 -5.946071e-01 -8.207320e-01 7.720501e-01 1.563839e+00 -7.436818e-01 -9.620861e-01 5.185425e-01 6.331116e-01 -5.616411e-01 -7.571125e-01 2.536178e-01 4.267092e-01 -3.377790e-03 -5.092737e-02 2.148326e-01 4.308104e-01 -3.958475e-01 -4.655493e-01 1.278980e-01 4.135467e-01 -2.207444e-01 -2.481939e-01 1.987034e-01 2.187425e-01 -3.549825e-02 -3.111870e-02
<VARIANCE> 39
 5.473613e+00 1.064591e+01 1.594999e+01 3.175793e+01 1.984218e+01 2.844847e+01 2.871946e+01 3.484752e+01 4.333335e+01 3.870185e+01 2.955390e+01 3.295510e+01 1.473448e+00 1.336887e-01 3.689713e-01 8.661736e-01 1.231413e+00 1.501564e+00 9.893805e-01 2.038874e+00 1.373904e+00 1.673931e+00 1.141045e+00 1.468757e+00 1.010813e+00 8.459155e-03 2.224265e-02 4.980696e-02 9.146318e-02 1.965792e-01 1.657640e-01 3.007565e-01 1.958779e-01 3.170204e-01 2.368756e-01 2.605664e-01 1.912385e-01 2.276047e-01 9.399755e-04
<GCONST> 7.516832e+01
<STATE> 4
<MEAN> 39
 -3.895065e+00 -5.751535e+00 -2.466627e+00 -7.443468e+00 -3.576757e+00 -6.806705e+00 -1.702381e+00 -1.112577e+01 -5.625574e+00 -9.139494e+00 -2.202884e+00 -8.047790e+00 1.775816e+01 -1.012500e-01 5.557356e-01 5.173587e-01 -5.677422e-01 1.096841e-01 3.021157e-01 -1.344076e-01 -4.492207e-01 5.706993e-02 3.979918e-01 6.520597e-02 6.410580e-02 -1.722807e-01 1.379662e-02 -1.961591e-02 -1.737562e-01 -8.201854e-03 1.584249e-01 3.190963e-02 -9.228649e-02 8.237448e-02 1.230909e-01 -1.017980e-02 -2.825330e-02 5.136853e-02 -1.870247e-02
<VARIANCE> 39
 6.412640e+00 2.603516e+01 1.456891e+01 2.744946e+01 2.046467e+01 4.017523e+01 3.588082e+01 4.126252e+01 3.842534e+01 4.436866e+01 3.302622e+01 3.572703e+01 1.461312e+00 3.625368e-01 9.308684e-01 1.237893e+00 1.148453e+00 1.309362e+00 1.890657e+00 1.640284e+00 1.660563e+00 1.648707e+00 1.545110e+00 1.123245e+00 1.132952e+00 2.695458e-02 5.147525e-02 1.332988e-01 7.905106e-02 1.975496e-01 1.986887e-01 2.913009e-01 2.805974e-01 2.218465e-01 2.454503e-01 2.448421e-01 1.861978e-01 1.676032e-01 2.593637e-03
<GCONST> 8.342778e+01
<TRANSP> 5
 0.000000e+00 1.000000e+00 0.000000e+00 0.000000e+00 0.000000e+00
 0.000000e+00 8.668958e-01 1.331042e-01 0.000000e+00 0.000000e+00
 0.000000e+00 0.000000e+00 8.201221e-01 1.798778e-01 0.000000e+00
 0.000000e+00 0.000000e+00 0.000000e+00 9.194838e-01 8.051617e-02
 0.000000e+00 0.000000e+00 0.000000e+00 0.000000e+00 0.000000e+00
<ENDHMM>
~h "sil"
<BEGINHMM>
<NUMSTATES> 5
<STATE> 2
<MEAN> 39
 -6.811303e+00 -7.024268e+00 -5.514975e+00 -9.996682e+00 -1.015194e+00 -4.408416e+00 -3.320099e-01 -8.720041e+00 -2.708107e+00 -5.607908e+00 8.547985e-01 -4.097805e+00 1.466228e+01 -6.298746e-02 -3.320235e-02 -1.682577e-02 5.078233e-02 3.750638e-02 4.256048e-02 5.105595e-02 2.473253e-02 2.259754e-02 2.509654e-02 4.048392e-02 2.462184e-02 -1.750427e-02 -1.960036e-02 -1.713231e-02 -3.140426e-02 -1.853684e-02 -9.505500e-03 9.648559e-04 -9.010830e-04 2.929412e-02 7.200473e-03 -4.235721e-03 3.389455e-03 7.214941e-03 7.878563e-04
<VARIANCE> 39
 3.125419e+00 3.920853e+00 6.041821e+00 8.393825e+00 1.293839e+01 1.412298e+01 1.491894e+01 1.555231e+01 1.569064e+01 1.426356e+01 1.573731e+01 1.270123e+01 1.198373e+00 6.220030e-02 1.456003e-01 2.573483e-01 3.618295e-01 5.040997e-01 6.991532e-01 6.524125e-01 7.050515e-01 6.662238e-01 5.849365e-01 6.468076e-01 5.827562e-01 4.652981e-03 8.844855e-03 2.315122e-02 4.158537e-02 5.895901e-02 8.869841e-02 1.216061e-01 1.099927e-01 1.198363e-01 1.126172e-01 9.643655e-02 1.103185e-01 1.028603e-01 5.458546e-04
<GCONST> 4.359009e+01
<STATE> 3
~s "silst"
<STATE> 4
<MEAN> 39
 -7.450532e+00 -7.276343e+00 -6.209470e+00 -1.032104e+01 -1.004984e+00 -4.262642e+00 -3.890742e-01 -8.429902e+00 -2.596973e+00 -5.547385e+00 1.178589e+00 -4.012005e+00 1.438938e+01 4.976409e-02 6.486396e-02 1.432764e-02 -4.268663e-02 -3.348715e-02 -3.254475e-02 -5.330942e-02 -4.128477e-02 -3.995734e-02 -1.883019e-02 -6.025171e-02 -4.081632e-02 1.177553e-02 2.611192e-02 3.724367e-02 4.553291e-02 2.645836e-02 8.486817e-03 -3.735578e-03 -4.043832e-03 -2.151999e-02 -4.577340e-03 -2.200156e-05 -2.103729e-02 -1.886693e-02 1.021128e-02
<VARIANCE> 39
 3.186230e+00 3.757760e+00 6.082548e+00 8.480666e+00 1.217729e+01 1.351028e+01 1.473686e+01 1.632189e+01 1.726536e+01 1.421714e+01 1.510532e+01 1.339338e+01 8.628560e-01 7.186658e-02 1.515365e-01 2.751104e-01 3.962728e-01 4.771461e-01 6.029657e-01 6.186751e-01 7.338071e-01 7.221312e-01 5.731613e-01 6.879794e-01 5.897369e-01 3.165839e-03 1.465941e-02 2.816554e-02 4.784133e-02 7.087300e-02 8.483808e-02 1.139055e-01 1.062256e-01 1.355215e-01 1.289070e-01 9.502085e-02 1.150832e-01 1.069410e-01 1.181879e-03
<GCONST> 4.514342e+01
<TRANSP> 5
 0.000000e+00 1.000000e+00 0.000000e+00 0.000000e+00 0.000000e+00
 0.000000e+00 7.366387e-01 4.996266e-02 2.133986e-01 0.000000e+00
 0.000000e+00 0.000000e+00 8.058547e-01 1.941454e-01 0.000000e+00
 0.000000e+00 2.417816e-01 0.000000e+00 6.793721e-01 7.884618e-02
 0.000000e+00 0.000000e+00 0.000000e+00 0.000000e+00 0.000000e+00
<ENDHMM>
~h "six"
<BEGINHMM>
<NUMSTATES> 5
<STATE> 2
<MEAN> 39
 -9.131631e+00 -3.066012e+00 -7.655319e+00 -8.600248e+00 -4.934461e+00 -3.737516e+00 -1.926174e+00 -7.623199e+00 -3.384339e+00 -3.358465e+00 -8.600072e-01 -3.407282e+00 1.516705e+01 3.384610e-01 4.101859e-01 7.105237e-01 -9.276105e-01 -7.918446e-01 -7.965336e-01 6.844039e-02 3.331403e-02 1.826722e-01 4.106311e-01 -3.846097e-01 -2.986516e-01 3.955206e-01 6.632479e-02 3.494192e-02 2.035375e-01 -2.820762e-01 -1.365328e-01 -1.310443e-01 -2.919614e-03 2.801878e-02 6.471378e-02 -8.997636e-03 -4.670700e-02 -1.585587e-01 8.602169e-02
<VARIANCE> 39
 9.868571e+00 7.964598e+00 1.897385e+01 2.077162e+01 2.043538e+01 2.658335e+01 1.687941e+01 1.770347e+01 2.179547e+01 3.125997e+01 1.959351e+01 1.646554e+01 2.675685e+00 4.821461e-01 5.022967e-01 1.608673e+00 1.636378e+00 1.468798e+00 1.637112e+00 1.014673e+00 8.891433e-01 1.249998e+00 1.793801e+00 1.207891e+00 1.206084e+00 1.815214e-01 8.134627e-02 6.182357e-02 1.462898e-01 1.301220e-01 2.172848e-01 2.346573e-01 1.621498e-01 1.801280e-01 1.870521e-01 2.361144e-01 1.665536e-01 1.590072e-01 1.359226e-02
<GCONST> 8.028919e+01
<STATE> 3
<MEAN> 39
 -6.874723e+00 -9.610640e-01 -6.469226e-01 -2.075747e+01 -8.442868e+00 -8.998303e+00 -2.317716e+00 -6.209369e+00 2.897478e-01 -3.356171e+00 -3.255667e+00 -7.795928e+00 1.851534e+01 -1.608153e-02 -9.157554e-02 2.391548e-01 -2.763111e-01 4.451183e-01 3.355509e-01 -4.143286e-01 2.107706e-01 3.828436e-02 -2.397298e-01 2.826971e-01 2.758833e-02 -6.897050e-02 -2.932410e-02 -2.248740e-01 -2.831063e-01 5.718607e-01 3.432211e-01 2.557195e-01 5.371967e-02 -1.165699e-01 -1.590177e-01 -8.310962e-02 2.020303e-01 2.131714e-01 -1.885688e-01
<VARIANCE> 39
 6.798619e+00 1.000229e+01 1.650859e+01 2.110696e+01 5.987032e+01 3.140606e+01 3.663070e+01 2.469786e+01 3.470400e+01 5.901069e+01 3.502550e+01 4.062724e+01 1.238130e+00 3.211023e-01 5.689830e-01 9.042069e-01 2.975261e+00 2.168656e+00 1.725151e+00 1.730095e+00 1.344722e+00 1.902512e+00 2.107885e+00 1.839445e+00 1.946182e+00 2.557267e-01 6.733098e-02 7.012288e-02 1.742024e-01 2.134081e-01 3.247115e-01 3.332512e-01 4.047694e-01 2.283238e-01 3.068803e-01 3.586065e-01 2.724578e-01 2.687613e-01 1.095015e-02
<GCONST> 9.136149e+01
<STATE> 4
<MEAN> 39
 -6.836848e+00 -5.377249e+00 -4.190065e+00 -1.206593e+01 -1.877812e+00 -3.846701e+00 -1.850272e+00 -8.219248e+00 -1.762107e+00 -5.816618e+00 9.748103e-01 -4.320917e+00 1.508567e+01 -2.003293e-01 -7.372306e-01 -8.976380e-01 1.352692e+00 4.588701e-01 3.848330e-01 6.861583e-01 -4.032282e-01 -2.979535e-01 -9.155793e-02 1.710483e-01 2.613995e-01 -4.300694e-01 -7.452339e-02 9.733599e-02 9.448324e-02 -2.720417e-01 -2.721031e-01 -1.441905e-01 7.693674e-04 1.035072e-01 6.736155e-02 8.965105e-02 -1.457023e-01 -1.216651e-01 9.817648e-02
<VARIANCE> 39
 6.900271e+00 1.031615e+01 1.516035e+01 2.258841e+01 2.369950e+01 1.946294e+01 2.847821e+01 2.092725e+01 1.936149e+01 2.128905e+01 1.851443e+01 1.569828e+01 2.166241e+00 3.492918e-01 7.374659e-01 1.035635e+00 1.437623e+00 2.152213e+00 1.592248e+00 1.697359e+00 1.237277e+00 1.220416e+00 1.218147e+00 1.133857e+00 1.023326e+00 1.012468e-01 4.911627e-02 8.410656e-02 1.786787e-01 2.173889e-01 2.407587e-01 1.945785e-01 2.840815e-01 2.049879e-01 1.916778e-01 1.880702e-01 1.858698e-01 1.595339e-01 1.221928e-02
<GCONST> 8.015213e+01
<TRANSP> 5
 0.000000e+00 1.000000e+00 0.000000e+00 0.000000e+00 0.000000e+00
 0.000000e+00 7.953098e-01 2.046903e-01 0.000000e+00 0.000000e+00
 0.000000e+00 0.000000e+00 8.624759e-01 1.375241e-01 0.000000e+00
 0.000000e+00 0.000000e+00 0.000000e+00 8.149553e-01 1.850447e-01
 0.000000e+00 0.000000e+00 0.000000e+00 0.000000e+00 0.000000e+00
<ENDHMM>
~h "two"
<BEGINHMM>
<NUMSTATES> 5
<STATE> 2
<MEAN> 39
 -1.054749e+01 -3.469451e+00 -6.571274e+00 -1.045128e+01 -1.004046e+00 -3.844350e+00 -1.996999e+00 -7.737664e+00 -2.293966e+00 -5.483330e+00 1.135923e+00 -3.516405e+00 1.507740e+01 3.225317e-01 5.594373e-01 7.700468e-01 -5.032712e-01 -2.930406e-01 -2.970756e-01 -4.394509e-01 -1.529124e-01 4.143273e-02 -1.485870e-02 -1.878968e-01 -2.503911e-01 2.722563e-01 2.472062e-01 8.175069e-02 2.570031e-01 -9.733719e-02 -1.986868e-01 -2.148743e-01 -1.116195e-01 -1.147224e-01 -5.381037e-02 -1.297832e-02 -7.409194e-02 -1.378296e-01 8.928369e-02
<VARIANCE> 39
 1.017076e+01 8.710666e+00 1.350628e+01 1.169008e+01 1.791447e+01 2.104131e+01 1.873879e+01 2.066873e+01 2.126038e+01 2.280777e+01 2.321431e+01 1.873771e+01 1.183350e+00 1.486126e+00 5.993052e-01 1.597598e+00 8.460360e-01 1.351796e+00 1.282872e+00 9.629238e-01 1.190463e+00 1.230159e+00 1.251602e+00 1.780504e+00 1.079002e+00 9.162809e-02 1.383273e-01 1.173530e-01 1.410489e-01 1.191511e-01 2.313130e-01 1.879504e-01 1.766324e-01 2.159467e-01 2.211127e-01 1.973226e-01 3.234967e-01 1.606023e-01 7.950355e-03
<GCONST> 7.957655e+01
<STATE> 3
<MEAN> 39
 -4.664670e+00 1.497200e+00 1.955678e+00 -1.598871e+01 -7.242546e+00 -1.034145e+01 -7.012864e+00 -1.046566e+01 -2.508347e+00 -5.332378e+00 -1.385680e+00 -7.715799e+00 1.848861e+01 6.040393e-01 5.215047e-01 6.708345e-01 -5.121183e-01 -1.124587e+00 -1.050868e+00 -5.495028e-01 -2.616857e-01 -6.193399e-02 1.059665e-01 -2.051839e-01 -6.310768e-01 4.280741e-01 -2.406035e-01 -2.564667e-01 -4.281741e-01 3.280155e-01 2.939084e-01 2.628100e-01 2.616511e-01 1.420871e-01 -1.692380e-02 -3.237857e-03 1.692639e-01 2.115212e-01 -1.539885e-01
<VARIANCE> 39
 7.459062e+00 7.885631e+00 1.374413e+01 2.147632e+01 3.982726e+01 2.423761e+01 2.786219e+01 2.516537e+01 3.171084e+01 5.443271e+01 4.489047e+01 4.976255e+01 9.982791e-01 5.437276e-01 5.762058e-01 8.579246e-01 1.361276e+00 1.245638e+00 1.202402e+00 1.644454e+00 1.462909e+00 1.816123e+00 1.946396e+00 2.319636e+00 1.865051e+00 8.823435e-02 6.473574e-02 4.721287e-02 8.282844e-02 1.198755e-01 1.910962e-01 1.578273e-01 1.968325e-01 1.905384e-01 2.057312e-01 2.666848e-01 2.914913e-01 2.179858e-01 4.979412e-03
<GCONST> 8.245512e+01
<STATE> 4
<MEAN> 39
 -3.162247e+00 -5.311899e-01 -3.756034e-01 -1.236771e+01 -6.213133e+00 -1.083495e+01 -5.451310e+00 -9.966657e+00 -3.077682e+00 -5.429460e+00 2.568759e-02 -7.102074e+00 1.786183e+01 -4.126258e-02 -3.603742e-01 -3.536415e-01 4.739740e-01 4.642825e-01 3.587481e-01 3.406253e-01 9.206131e-02 -4.585383e-02 -1.248168e-02 1.245293e-01 2.637649e-01 -2.085559e-01 -7.456552e-02 -5.583434e-02 -4.257707e-02 -2.142624e-02 6.074364e-02 1.005571e-01 6.430027e-02 3.549629e-02 3.099828e-02 -2.884107e-03 -1.607977e-02 2.720615e-02 -3.318133e-02
<VARIANCE> 39
 6.099735e+00 8.334599e+00 1.212737e+01 2.978631e+01 3.297363e+01 2.512602e+01 3.165368e+01 3.160359e+01 3.865471e+01 4.118260e+01 4.936427e+01 3.894938e+01 1.871785e+00 3.363618e-01 2.703359e-01 4.588899e-01 6.641409e-01 9.510072e-01 1.182660e+00 1.140306e+00 1.202606e+00 1.104188e+00 1.152550e+00 1.204414e+00 1.099043e+00 4.347664e-02 3.089428e-02 3.300989e-02 5.521866e-02 9.017794e-02 1.176703e-01 1.482650e-01 1.451577e-01 1.695618e-01 1.667675e-01 1.701626e-01 1.706379e-01 1.545046e-01 3.494421e-03
<GCONST> 7.211950e+01
<TRANSP> 5
 0.000000e+00 1.000000e+00 0.000000e+00 0.000000e+00 0.000000e+00
 0.000000e+00 8.504249e-01 1.495752e-01 0.000000e+00 0.000000e+00
 0.000000e+00 0.000000e+00 7.564592e-01 2.435408e-01 0.000000e+00
 0.000000e+00 0.000000e+00 0.000000e+00 9.245768e-01 7.542320e-02
 0.000000e+00 0.000000e+00 0.000000e+00 0.000000e+00 0.000000e+00
<ENDHMM>
~h "nine"
<BEGINHMM>
<NUMSTATES> 5
<STATE> 2
<MEAN> 39
 -3.544452e+00 -1.918856e+00 -6.515023e-01 -9.575336e+00 -1.697546e+00 -7.584498e+00 -2.833693e+00 -1.075010e+01 -6.011846e+00 -7.922390e+00 -3.014943e+00 -8.176876e+00 1.711992e+01 4.937911e-03 -2.113428e-01 -4.199789e-02 1.590953e-01 -5.761353e-01 1.185857e-01 2.985338e-01 -1.561072e-01 -1.339063e-01 -1.503269e-01 -3.661222e-01 -2.775835e-01 2.620304e-01 -1.295395e-01 -3.096717e-01 -2.013833e-01 9.043945e-02 -1.179168e-01 1.375954e-01 1.907113e-01 1.261131e-02 8.474795e-02 -1.647398e-02 6.155614e-02 5.845239e-02 7.591439e-03
<VARIANCE> 39
 7.028258e+00 9.516941e+00 1.313647e+01 1.260284e+01 2.558680e+01 2.293508e+01 2.573481e+01 2.331006e+01 3.399780e+01 2.972327e+01 3.004395e+01 3.123153e+01 1.999117e+00 5.648319e-01 1.381591e+00 1.082600e+00 7.131815e-01 1.225241e+00 1.402650e+00 1.891981e+00 1.281024e+00 1.503417e+00 9.944820e-01 1.203056e+00 9.493740e-01 4.691911e-02 5.000887e-02 1.257736e-01 1.221028e-01 1.281957e-01 1.923544e-01 1.718169e-01 2.120304e-01 1.823489e-01 1.718066e-01 1.484823e-01 1.830223e-01 1.516672e-01 5.253119e-03
<GCONST> 7.822162e+01
<STATE> 3
<MEAN> 39
 -6.064878e+00 -1.065201e+01 -6.394040e+00 -3.761606e+00 -5.744197e+00 -6.216583e+00 1.713900e+00 -1.140810e+01 -5.290219e+00 -9.560599e+00 -1.866817e+00 -6.874220e+00 1.878803e+01 -1.842499e-01 -7.161473e-01 -2.135262e-01 6.520389e-01 -1.000937e-01 4.531197e-02 2.677820e-01 -7.699139e-02 -4.686465e-02 -3.877144e-02 2.240967e-01 1.987043e-02 5.622586e-02 4.582218e-02 2.098291e-01 1.715235e-01 -1.443751e-01 6.048015e-02 -3.528351e-02 -1.102960e-01 3.662341e-03 -1.458752e-03 6.752257e-02 -1.530155e-02 -2.658186e-02 -2.768817e-02
<VARIANCE> 39
 7.708652e+00 1.106031e+01 2.387898e+01 3.090270e+01 2.005496e+01 3.134800e+01 3.279095e+01 3.394320e+01 5.308064e+01 4.484409e+01 2.920376e+01 2.854985e+01 8.728768e-01 1.603007e-01 7.405915e-01 7.500969e-01 9.866328e-01 6.539243e-01 7.382960e-01 7.320323e-01 7.345853e-01 7.655942e-01 8.950816e-01 6.311098e-01 5.790861e-01 1.215548e-02 2.312950e-02 4.961586e-02 4.617029e-02 1.225862e-01 1.258330e-01 1.330549e-01 1.303083e-01 1.163498e-01 1.276962e-01 1.108986e-01 1.097423e-01 7.615721e-02 8.851866e-04
<GCONST> 6.468037e+01
<STATE> 4
<MEAN> 39
 -5.767892e+00 -6.061400e+00 -1.762610e+00 -8.078259e+00 -2.948786e+00 -4.205604e+00 -1.517735e+00 -1.092133e+01 -4.170501e+00 -8.150529e+00 -2.803538e+00 -7.442539e+00 1.792712e+01 4.215345e-02 5.061925e-01 1.458801e-01 -4.144813e-01 3.108992e-01 5.755672e-02 -2.851767e-01 1.026186e-01 1.266528e-01 5.731729e-02 1.568606e-02 1.335488e-01 -1.216599e-01 -3.971142e-03 -1.929775e-02 -6.189397e-02 1.621936e-02 2.927240e-02 -1.588374e-02 8.582618e-03 3.460544e-02 -5.065173e-03 -1.553177e-02 3.956783e-02 2.406343e-02 -1.546495e-02
<VARIANCE> 39
 9.441823e+00 3.126550e+01 1.104249e+01 4.149212e+01 2.974475e+01 3.084581e+01 3.716069e+01 3.133252e+01 4.510207e+01 3.643004e+01 3.059986e+01 3.664721e+01 1.231956e+00 2.981561e-01 8.355675e-01 5.096189e-01 1.380734e+00 9.664676e-01 1.240372e+00 1.049713e+00 9.695742e-01 1.276965e+00 9.409332e-01 9.367526e-01 8.969383e-01 1.733001e-02 3.792633e-02 8.419432e-02 6.159559e-02 1.453892e-01 1.299573e-01 1.687373e-01 1.487897e-01 1.448456e-01 1.760834e-01 1.422212e-01 1.283596e-01 1.261191e-01 1.160810e-03
<GCONST> 7.373203e+01
<TRANSP> 5
 0.000000e+00 1.000000e+00 0.000000e+00 0.000000e+00 0.000000e+00
 0.000000e+00 8.516751e-01 1.483249e-01 0.000000e+00 0.000000e+00
 0.000000e+00 0.000000e+00 8.841605e-01 1.158395e-01 0.000000e+00
 0.000000e+00 0.000000e+00 0.000000e+00 9.371193e-01 6.288069e-02
 0.000000e+00 0.000000e+00 0.000000e+00 0.000000e+00 0.000000e+00
<ENDHMM>
~h "five"
<BEGINHMM>
<NUMSTATES> 5
<STATE> 2
<MEAN> 39
 -4.081487e+00 -1.064957e+01 -9.864083e+00 -9.021514e+00 6.007211e-02 -8.022040e+00 -7.775962e-03 -4.559970e+00 -4.791450e+00 -8.079527e+00 -1.977860e+00 -4.958006e+00 1.767668e+01 5.572125e-01 -1.300758e+00 -9.514818e-01 7.654996e-01 5.993848e-01 -7.677028e-01 3.623096e-01 5.468154e-01 -8.896849e-01 -3.714040e-01 -4.735655e-01 -3.060549e-02 6.567199e-01 -2.099841e-01 -3.447745e-02 1.580004e-01 1.627229e-01 3.937185e-02 1.018512e-01 7.043634e-02 -2.275464e-01 -1.233726e-02 1.586573e-01 1.782183e-01 7.195958e-02 -6.139848e-02
<VARIANCE> 39
 1.164995e+01 1.646906e+01 2.302206e+01 1.261854e+01 1.752294e+01 2.044644e+01 2.450876e+01 5.328045e+01 2.979576e+01 2.470186e+01 2.424487e+01 1.907974e+01 4.619021e+00 6.327578e-01 5.730169e-01 9.776649e-01 9.430767e-01 7.630781e-01 9.348366e-01 1.068029e+00 2.066085e+00 1.559523e+00 1.634913e+00 1.242458e+00 1.070878e+00 8.666596e-02 1.140362e-01 1.168544e-01 1.845036e-01 1.067272e-01 1.301982e-01 1.518288e-01 1.507526e-01 3.380362e-01 2.782685e-01 1.849207e-01 1.887373e-01 1.379581e-01 3.222884e-02
<GCONST> 8.286749e+01
<STATE> 3
<MEAN> 39
 -5.122629e+00 -1.502676e+01 -1.197078e+01 -3.849584e+00 2.698112e+00 -1.054806e+01 1.434350e+00 -4.794527e+00 -8.954163e+00 -8.464860e+00 -7.439475e-01 -3.744495e+00 1.939464e+01 -2.976738e-01 -2.109095e-01 5.236617e-01 2.754817e-01 -2.042962e-01 1.982603e-01 2.989189e-01 -4.456838e-01 -2.535366e-01 4.960679e-01 4.477127e-01 -1.133123e-01 -6.367391e-03 8.069060e-03 1.466149e-01 1.275543e-01 -1.886608e-01 -1.445995e-01 1.280052e-01 -2.795644e-02 -2.960077e-02 9.924693e-02 6.231392e-02 -5.212355e-02 -8.352206e-02 -4.457829e-02
<VARIANCE> 39
 8.876448e+00 8.237761e+00 1.667692e+01 1.681890e+01 1.836903e+01 1.575987e+01 1.966542e+01 3.392070e+01 3.281753e+01 3.691836e+01 2.677571e+01 2.675194e+01 1.119956e+00 1.216639e-01 1.776394e-01 2.828829e-01 5.321665e-01 5.479489e-01 4.566803e-01 4.457274e-01 5.779825e-01 8.598716e-01 6.399698e-01 5.109679e-01 5.329378e-01 9.430314e-03 2.031013e-02 3.820560e-02 4.715605e-02 5.209608e-02 5.740795e-02 5.637527e-02 6.860352e-02 7.521653e-02 1.021801e-01 9.846045e-02 7.818756e-02 8.162944e-02 4.326603e-03
<GCONST> 5.326565e+01
<STATE> 4
<MEAN> 39
 -5.957331e+00 -1.278975e+01 -4.481490e+00 -8.458977e+00 -1.158903e+00 -5.120473e+00 2.829236e+00 -9.699330e+00 -4.785777e+00 -3.685054e+00 -1.265110e+00 -5.161188e+00 1.843052e+01 4.380692e-03 7.066362e-01 3.768992e-01 -6.658759e-01 -2.953407e-01 3.991364e-01 -1.979473e-01 -7.718706e-02 3.878568e-01 -6.510776e-02 -1.959005e-01 -1.156101e-02 -1.538623e-01 1.499347e-02 6.149742e-02 -6.022220e-02 1.678992e-02 4.022114e-02 -5.938132e-02 -4.666998e-02 6.032659e-02 3.305434e-02 -7.261670e-02 1.998615e-02 2.311920e-02 -2.295479e-02
<VARIANCE> 39
 8.291241e+00 2.722898e+01 1.177504e+01 4.979538e+01 2.590617e+01 2.764920e+01 2.068315e+01 3.327714e+01 5.495407e+01 3.270152e+01 2.735612e+01 2.527666e+01 1.654310e+00 1.591706e-01 5.161232e-01 4.105222e-01 1.666518e+00 9.341121e-01 1.026623e+00 6.857291e-01 9.869760e-01 9.833449e-01 1.043801e+00 9.004167e-01 6.851059e-01 2.981163e-02 2.511249e-02 6.722364e-02 4.566839e-02 1.842160e-01 1.041517e-01 1.396504e-01 1.097318e-01 1.319626e-01 1.429235e-01 1.309191e-01 1.363527e-01 1.030559e-01 2.138107e-03
<GCONST> 6.981505e+01
<TRANSP> 5
 0.000000e+00 1.000000e+00 0.000000e+00 0.000000e+00 0.000000e+00
 0.000000e+00 8.036053e-01 1.963947e-01 0.000000e+00 0.000000e+00
 0.000000e+00 0.000000e+00 8.551797e-01 1.448203e-01 0.000000e+00
 0.000000e+00 0.000000e+00 0.000000e+00 9.147488e-01 8.525120e-02
 0.000000e+00 0.000000e+00 0.000000e+00 0.000000e+00 0.000000e+00
<ENDHMM>
~h "four"
<BEGINHMM>
<NUMSTATES> 5
<STATE> 2
<MEAN> 39
 -2.320830e+00 -5.238376e+00 -8.828353e+00 -1.265074e+01 -2.387407e+00 -7.039917e+00 -3.333912e+00 -8.906981e+00 -1.336003e+00 -4.899684e+00 -3.946307e-01 -6.299134e+00 1.710082e+01 1.650639e+00 5.634548e-01 -1.257735e+00 -1.171592e+00 -3.341443e-01 -3.080691e-01 -5.676035e-01 -1.221019e-01 1.827660e-01 3.251898e-01 -3.154595e-01 -6.393329e-01 7.071556e-01 -6.904414e-02 -1.091139e-02 -3.693532e-02 -6.292322e-02 -2.766824e-03 1.407632e-01 1.250121e-01 3.914462e-02 -4.846303e-02 5.935732e-03 6.405509e-02 4.592166e-02 -2.130288e-02
<VARIANCE> 39
 2.161185e+01 9.284742e+00 1.819664e+01 1.763625e+01 1.452592e+01 1.612198e+01 1.717283e+01 1.563158e+01 1.858211e+01 2.013870e+01 3.327207e+01 2.930470e+01 3.445551e+00 4.108363e-01 4.598726e-01 5.390684e-01 7.675864e-01 8.995928e-01 9.280535e-01 8.083747e-01 9.324812e-01 1.079623e+00 1.311106e+00 1.815238e+00 1.672568e+00 4.291771e-02 1.802756e-01 6.876878e-02 1.549444e-01 1.364494e-01 1.032752e-01 1.584300e-01 1.568408e-01 1.458520e-01 1.616526e-01 1.767660e-01 2.276205e-01 2.263258e-01 2.554813e-02
<GCONST> 7.681531e+01
<STATE> 3
<MEAN> 39
 1.655942e+00 -2.860892e+00 -1.211474e+01 -1.779055e+01 -4.680377e+00 -5.719116e+00 -2.359818e+00 -8.941391e+00 -1.982450e+00 -3.872989e+00 1.227640e+00 -6.102204e+00 1.903678e+01 4.474562e-02 -2.676384e-01 -1.335090e-01 1.100578e-01 1.608928e-01 9.382799e-02 -1.616222e-01 1.458941e-01 3.385354e-01 7.345825e-02 -1.049756e-01 -1.103097e-01 2.905027e-02 -1.237265e-01 -1.832732e-01 1.110494e-01 2.619178e-01 8.949613e-02 -7.899208e-02 -6.423971e-02 1.115845e-01 1.222252e-01 -6.385120e-02 -1.213353e-01 -1.048592e-02 -4.972813e-02
<VARIANCE> 39
 3.747021e+00 8.585534e+00 8.742809e+00 1.214780e+01 2.378013e+01 1.587764e+01 1.657595e+01 1.572393e+01 2.223184e+01 2.459639e+01 3.446973e+01 3.680260e+01 9.972883e-01 1.078970e-01 5.391412e-01 4.227229e-01 6.879044e-01 8.896695e-01 6.338869e-01 9.454487e-01 8.079659e-01 1.197962e+00 1.011410e+00 1.110473e+00 1.026717e+00 1.954189e-02 3.853089e-02 3.730749e-02 9.273244e-02 7.733409e-02 1.194189e-01 1.175154e-01 1.188540e-01 1.274374e-01 1.597049e-01 1.842839e-01 1.787622e-01 1.705187e-01 5.882920e-03
<GCONST> 6.413305e+01
<STATE> 4
<MEAN> 39
 -5.977734e-01 -9.826538e+00 -7.828990e+00 -9.333130e+00 -4.322921e+00 -8.049391e+00 -2.710224e+00 -5.586236e+00 9.872968e-02 -7.002189e+00 -3.498467e+00 -7.499681e+00 1.822198e+01 -5.642703e-01 -6.673866e-02 8.708380e-01 6.102788e-01 -2.336178e-01 -1.540148e-02 4.856066e-01 -2.540407e-02 -4.046935e-01 -3.324402e-01 4.483914e-02 2.742650e-01 -2.354199e-01 -7.330455e-02 1.659062e-01 6.934401e-03 -1.420055e-01 1.621951e-02 1.287180e-01 8.062674e-02 -1.277964e-01 -1.366081e-01 5.271209e-02 1.474899e-01 6.369076e-02 -3.868286e-02
<VARIANCE> 39
 8.814879e+00 1.971966e+01 3.062639e+01 2.126799e+01 3.921972e+01 3.354397e+01 3.338410e+01 4.201377e+01 4.504807e+01 3.593028e+01 3.423487e+01 3.046229e+01 2.164331e+00 2.382406e-01 1.476477e+00 9.976183e-01 1.460919e+00 2.252541e+00 1.970254e+00 1.632917e+00 2.452208e+00 2.109392e+00 1.657651e+00 1.917204e+00 1.123577e+00 5.510581e-02 2.784571e-02 1.417700e-01 1.739909e-01 1.625966e-01 3.631569e-01 2.706743e-01 3.145786e-01 3.486736e-01 3.505134e-01 2.793153e-01 2.831260e-01 2.053563e-01 3.940090e-03
<GCONST> 8.984877e+01
<TRANSP> 5
 0.000000e+00 1.000000e+00 0.000000e+00 0.000000e+00 0.000000e+00
 0.000000e+00 7.691332e-01 2.308668e-01 0.000000e+00 0.000000e+00
 0.000000e+00 0.000000e+00 8.878826e-01 1.121174e-01 0.000000e+00
 0.000000e+00 0.000000e+00 0.000000e+00 9.027315e-01 9.726849e-02
 0.000000e+00 0.000000e+00 0.000000e+00 0.000000e+00 0.000000e+00
<ENDHMM>
~h "zero"
<BEGINHMM>
<NUMSTATES> 5
<STATE> 2
<MEAN> 39
 -6.327858e+00 1.619243e+00 -8.960971e-01 -1.516398e+01 -4.657152e+00 -9.955844e+00 -4.264380e+00 -8.489532e+00 -1.125099e+00 -3.714180e+00 5.582845e-02 -6.200529e+00 1.775501e+01 1.228632e-01 -4.169911e-03 7.345713e-01 -9.446357e-01 -7.913364e-01 -9.404388e-02 -3.291760e-01 1.562525e-01 3.267812e-01 2.440999e-02 5.601682e-03 -2.166059e-01 2.817664e-01 6.968722e-02 -3.303096e-01 -3.195343e-02 2.301241e-01 -1.257578e-01 2.937943e-01 1.338152e-01 2.185580e-02 8.744120e-03 -7.709292e-02 1.448014e-02 4.124961e-03 -5.263470e-02
<VARIANCE> 39
 7.251527e+00 1.321212e+01 1.790844e+01 3.549010e+01 3.818197e+01 3.297832e+01 3.170435e+01 3.622206e+01 3.623758e+01 3.293005e+01 3.446782e+01 5.150773e+01 2.376658e+00 3.848811e-01 1.565655e+00 8.788470e-01 1.350671e+00 1.555194e+00 2.606575e+00 1.297928e+00 1.565882e+00 1.452794e+00 1.310376e+00 1.170615e+00 1.419459e+00 7.910597e-02 5.975981e-02 1.168173e-01 1.377414e-01 2.538348e-01 1.832903e-01 3.002774e-01 2.385082e-01 2.397290e-01 2.384136e-01 1.896319e-01 1.778288e-01 2.436750e-01 9.654096e-03
<GCONST> 8.774378e+01
<STATE> 3
<MEAN> 39
 -3.065919e+00 -6.850558e+00 2.298192e+00 -1.341050e+01 -1.468201e+01 -5.693111e+00 -1.831150e+00 -8.384292e+00 1.017726e+00 -4.377741e+00 4.966307e-01 -6.223485e+00 1.858775e+01 6.224161e-01 -1.424400e+00 -4.231166e-01 1.278252e+00 -8.417177e-01 -1.437466e-01 1.204247e+00 2.386097e-01 -1.616728e-02 -1.898129e-01 -6.106604e-02 9.836359e-02 1.299983e-02 -6.679780e-02 1.404265e-01 -2.478068e-01 5.623758e-03 3.798352e-01 -2.464515e-01 1.507759e-02 1.625567e-01 -1.335841e-01 -4.866479e-03 -5.792226e-02 4.002845e-02 -6.724494e-03
<VARIANCE> 39
 6.801067e+00 2.057201e+01 1.158117e+01 4.439769e+01 6.032806e+01 5.443992e+01 3.314009e+01 3.877454e+01 2.059762e+01 1.999003e+01 2.417021e+01 3.676976e+01 1.315985e+00 2.741400e-01 4.205001e-01 6.281307e-01 1.332065e+00 1.819998e+00 2.470359e+00 9.665584e-01 1.628281e+00 1.120209e+00 7.331992e-01 7.898417e-01 9.072004e-01 1.157941e-02 3.043448e-02 4.767281e-02 7.979032e-02 2.619565e-01 2.346590e-01 2.909364e-01 2.388376e-01 1.879861e-01 1.488613e-01 1.134904e-01 1.327371e-01 1.290855e-01 1.884124e-03
<GCONST> 7.521747e+01
<STATE> 4
<MEAN> 39
 -1.570819e+00 -9.789476e+00 -5.825134e+00 -9.594310e+00 -7.307498e+00 -8.562166e+00 -2.056520e-01 -3.689173e+00 -4.851896e-01 -7.066494e+00 -1.329451e+00 -5.898718e+00 1.833866e+01 -1.255516e-01 3.039095e-01 -3.042446e-01 -1.763493e-03 8.223971e-01 1.210902e-01 -2.279999e-01 -5.936002e-02 -1.160549e-01 -6.838190e-02 5.465763e-03 3.149594e-02 -1.361259e-01 -6.625919e-02 6.307665e-02 8.304247e-02 -3.002643e-02 -9.546040e-03 8.402215e-02 -1.259143e-02 -1.056411e-01 -1.009629e-02 3.439396e-02 3.951839e-02 1.144643e-02 -2.697375e-02
<VARIANCE> 39
 6.497924e+00 2.220349e+01 2.002629e+01 2.271183e+01 4.943533e+01 4.640274e+01 4.066196e+01 3.522419e+01 4.812024e+01 3.711518e+01 2.550164e+01 3.182925e+01 1.678350e+00 2.553449e-01 5.679924e-01 8.337078e-01 7.137889e-01 1.086567e+00 1.707407e+00 1.369385e+00 1.850398e+00 1.747365e+00 1.589782e+00 1.136691e+00 1.012157e+00 4.293544e-02 2.838238e-02 5.578233e-02 7.961506e-02 9.235903e-02 1.398454e-01 2.217408e-01 2.020774e-01 2.039248e-01 2.355460e-01 2.089775e-01 1.575113e-01 1.445223e-01 2.434040e-03
<GCONST> 7.875474e+01
<TRANSP> 5
 0.000000e+00 1.000000e+00 0.000000e+00 0.000000e+00 0.000000e+00
 0.000000e+00 8.720735e-01 1.279265e-01 0.000000e+00 0.000000e+00
 0.000000e+00 0.000000e+00 8.420582e-01 1.579418e-01 0.000000e+00
 0.000000e+00 0.000000e+00 0.000000e+00 9.364631e-01 6.353690e-02
 0.000000e+00 0.000000e+00 0.000000e+00 0.000000e+00 0.000000e+00
<ENDHMM>
