~o
<STREAMINFO> 1 39
<VECSIZE> 39<NULLD><MFCC_E_D_A><DIAGC>
~s "silst"
<MEAN> 39
 -5.084930e+00 -3.744109e+00 -3.213881e+00 -8.846105e+00 -1.249975e+00 -5.755040e+00 -1.827607e+00 -9.464266e+00 -3.498846e+00 -6.421946e+00 -3.655069e-01 -5.634653e+00 1.585624e+01 -6.628178e-01 -4.422693e-01 -4.516098e-01 1.673697e-01 3.061659e-01 7.049637e-01 3.746233e-01 1.092333e-01 1.443710e-01 1.507814e-01 3.340891e-01 3.715379e-01 -3.628342e-01 -2.676217e-02 -6.951269e-02 -1.090831e-01 -1.270614e-01 -9.600727e-02 -7.243368e-02 5.657611e-04 7.264847e-02 3.781562e-02 9.276861e-03 -1.489797e-02 4.084433e-03 2.668783e-02
<VARIANCE> 39
 1.121926e+01 1.074390e+01 1.341203e+01 1.341629e+01 2.078810e+01 2.467867e+01 2.383096e+01 2.475419e+01 2.790426e+01 2.730785e+01 2.580699e+01 2.358722e+01 2.025056e+00 3.753619e-01 7.438545e-01 8.199598e-01 8.119268e-01 1.145334e+00 1.290142e+00 1.256362e+00 1.301067e+00 1.409189e+00 1.272505e+00 1.246153e+00 1.114635e+00 5.123413e-02 6.990158e-02 1.003954e-01 1.068356e-01 1.140688e-01 1.564096e-01 2.205723e-01 1.943879e-01 1.871539e-01 2.096731e-01 1.844495e-01 1.821553e-01 1.530941e-01 9.223272e-03
<GCONST> 7.761001e+01
~h "eight"
<BEGINHMM>
<NUMSTATES> 5
<STATE> 2
<MEAN> 39
 -8.238327e+00 -2.993054e+00 -5.885048e+00 -1.822465e+01 2.088948e-01 -4.906836e+00 8.331471e-01 -6.812052e+00 -1.625787e+00 -7.443434e+00 -1.711338e+00 -5.720795e+00 1.740471e+01 -1.692150e-01 1.034688e+00 -9.516028e-02 -1.073593e+00 -5.163105e-02 -5.840554e-01 9.181704e-02 4.702110e-01 3.853861e-01 -1.023632e-02 -1.829525e-01 -2.424197e-01 3.342386e-01 2.893809e-02 8.980095e-02 5.158658e-03 1.397512e-01 -6.261291e-02 -1.923291e-01 -8.332476e-02 -1.765791e-02 2.611974e-02 9.250427e-02 1.131035e-01 -7.564075e-04 -1.704699e-02
<VARIANCE> 39
 7.936414e+00 2.033973e+01 1.877480e+01 3.168735e+01 4.181344e+01 2.219894e+01 2.467649e+01 2.262917e+01 3.069598e+01 2.347663e+01 2.465757e+01 2.549895e+01 3.283247e+00 3.465615e-01 7.502306e-01 6.582918e-01 1.287195e+00 1.208669e+00 1.363252e+00 1.443189e+00 9.982379e-01 1.349948e+00 1.119495e+00 1.070820e+00 9.607652e-01 1.025840e-01 4.197972e-02 8.032334e-02 7.527491e-02 1.955992e-01 1.375049e-01 1.690796e-01 1.484593e-01 1.685827e-01 2.268915e-01 1.637550e-01 1.704207e-01 1.470769e-01 1.304653e-02
<GCONST> 7.935876e+01
<STATE> 3
<MEAN> 39
 -8.393445e+00 5.774010e+00 -5.517491e+00 -1.923512e+01 -2.893291e+00 -1.374911e+01 -1.643327e+00 -5.955181e+00 7.404495e-01 -4.029029e+00 7.563922e-01 -5.693757e+00 1.854622e+01 1.005145e-01 5.016119e-01 2.028179e-01 8.260282e-01 -1.082807e-02 -9.352710e-01 -6.093882e-01 -8.107543e-01 -3.596542e-01 3.256864e-01 4.638368e-01 2.251802e-01 -7.198767e-02 4.939206e-02 -2.809862e-01 2.291941e-02 1.892768e-01 8.656224e-02 2.719079e-01 2.083570e-02 -1.581889e-01 -1.938492e-01 -1.395108e-01 -7.110765e-02 3.682525e-02 -6.162333e-02
<VARIANCE> 39
 1.001377e+01 1.133584e+01 2.486506e+01 2.644464e+01 2.100061e+01 2.370150e+01 5.644212e+01 2.713507e+01 2.954949e+01 2.183761e+01 3.276158e+01 2.504290e+01 1.477472e+00 1.827494e-01 5.063422e-01 2.621008e-01 6.266661e-01 8.214441e-01 1.015878e+00 7.513475e-01 8.251918e-01 1.767400e+00 1.023204e+00 1.190665e+00 8.483511e-01 2.541756e-02 2.770490e-02 7.074928e-02 4.949658e-02 9.908660e-02 8.109254e-02 1.528981e-01 1.405120e-01 1.339821e-01 1.676670e-01 1.386506e-01 1.859067e-01 1.361668e-01 3.381619e-03
<GCONST> 6.905397e+01
<STATE> 4
<MEAN> 39
 -6.981554e+00 1.104326e+00 -4.081902e+00 -1.220735e+01 -1.201028e+00 -1.171107e+01 -4.076918e+00 -1.160259e+01 -4.451646e+00 -5.780781e+00 8.176102e-01 -4.547594e+00 1.651975e+01 2.175645e-01 -1.856355e+00 -8.221806e-04 8.872380e-01 2.206673e-01 1.605079e+00 3.212515e-01 -2.784111e-02 -3.265402e-01 -3.984879e-01 -1.448397e-01 9.630604e-02 -4.695457e-01 -7.034314e-02 -9.932824e-02 -9.851909e-02 -1.308866e-01 -4.619302e-02 1.589201e-01 1.923908e-01 2.723871e-01 2.063827e-01 6.472105e-02 2.227243e-02 -3.134632e-02 -6.301988e-03
<VARIANCE> 39
 6.046240e+00 3.357709e+01 1.484150e+01 1.932358e+01 1.613982e+01 3.819701e+01 3.280585e+01 2.459921e+01 3.940295e+01 2.738671e+01 2.588474e+01 2.414853e+01 2.805516e+00 3.513187e-01 7.434509e-01 6.182251e-01 1.035278e+00 6.514536e-01 1.243783e+00 1.758000e+00 1.480795e+00 2.022904e+00 1.219174e+00 1.375971e+00 1.140303e+00 3.561869e-02 4.193874e-02 2.590352e-01 6.975378e-02 1.185852e-01 9.763073e-02 3.269872e-01 1.809699e-01 1.962978e-01 2.994881e-01 1.795846e-01 1.978777e-01 1.935500e-01 1.056667e-02
<GCONST> 8.036151e+01
<TRANSP> 5
 0.000000e+00 1.000000e+00 0.000000e+00 0.000000e+00 0.000000e+00
 0.000000e+00 8.673503e-01 1.326497e-01 0.000000e+00 0.000000e+00
 0.000000e+00 0.000000e+00 8.557247e-01 1.442753e-01 0.000000e+00
 0.000000e+00 0.000000e+00 0.000000e+00 8.207585e-01 1.792415e-01
 0.000000e+00 0.000000e+00 0.000000e+00 0.000000e+00 0.000000e+00
<ENDHMM>
~h "oh"
<BEGINHMM>
<NUMSTATES> 5
<STATE> 2
<MEAN> 39
 -4.366658e+00 -1.037309e+01 -8.315285e+00 -8.587516e+00 -2.637066e+00 -7.653247e+00 3.574713e+00 -7.385230e+00 -5.236892e+00 -7.111718e+00 -2.438726e+00 -5.426448e+00 1.781782e+01 5.458016e-01 -2.064681e-01 -6.072410e-01 1.665529e-01 9.182743e-02 -6.957808e-01 1.447446e-01 7.352260e-01 -1.616249e-02 -4.301152e-01 -4.107319e-01 -1.516452e-01 3.518969e-01 1.014910e-02 1.036834e-01 2.065269e-03 -5.229515e-02 3.825492e-02 -1.085940e-02 -1.517494e-01 8.342154e-03 1.328724e-01 2.589093e-02 -9.915462e-03 -2.757582e-02 -2.143801e-02
<VARIANCE> 39
 8.669185e+00 1.233829e+01 1.667542e+01 1.820605e+01 2.296166e+01 2.453592e+01 3.069062e+01 6.477142e+01 3.832789e+01 3.399604e+01 2.704220e+01 3.143789e+01 3.005562e+00 2.970782e-01 5.784929e-01 6.306372e-01 6.406072e-01 6.854954e-01 9.313894e-01 1.329880e+00 1.790247e+00 1.557214e+00 1.262893e+00 1.250329e+00 1.052896e+00 9.572419e-02 3.985507e-02 6.290497e-02 7.492051e-02 7.987647e-02 9.173128e-02 1.301135e-01 1.558783e-01 2.154217e-01 1.873323e-01 1.965140e-01 1.841981e-01 1.403140e-01 1.334898e-02
<GCONST> 7.716561e+01
<STATE> 3
<MEAN> 39
 -5.718828e-01 -8.249153e+00 -1.317451e+01 -9.924455e+00 -7.031197e-01 -1.204553e+01 -7.936335e-01 -7.822821e-01 1.212179e-01 -8.237361e+00 -5.127349e+00 -6.597502e+00 1.903761e+01 2.234223e-01 4.044121e-01 -2.899530e-02 -3.467203e-01 -3.575614e-02 -5.078605e-03 -6.741394e-01 -2.430066e-01 6.663842e-01 6.021762e-01 -3.364637e-02 -3.510999e-01 -9.529349e-03 -4.125336e-02 2.448384e-02 1.010958e-01 -2.065599e-02 -5.712882e-02 9.295869e-02 1.125320e-02 -1.582935e-01 -8.083665e-02 9.200835e-02 1.209416e-01 1.107774e-02 -2.524220e-02
<VARIANCE> 39
 6.095010e+00 8.380551e+00 1.534327e+01 1.468814e+01 1.922134e+01 2.240901e+01 4.166982e+01 3.076819e+01 3.926090e+01 3.570502e+01 3.180192e+01 4.016931e+01 1.215119e+00 8.015574e-02 1.367481e-01 2.625934e-01 2.767591e-01 3.851712e-01 5.150891e-01 7.297711e-01 1.010623e+00 7.299621e-01 8.553761e-01 7.849385e-01 6.994180e-01 1.316845e-02 1.111143e-02 1.421498e-02 3.350159e-02 3.311240e-02 4.701148e-02 6.864824e-02 7.736651e-02 9.582736e-02 1.049829e-01 1.013413e-01 9.155356e-02 8.861547e-02 1.198314e-03
<GCONST> 5.210326e+01
<STATE> 4
<MEAN> 39
 1.791638e-01 -3.750822e+00 -9.939020e+00 -1.348619e+01 -3.316644e+00 -1.007929e+01 -4.951532e+00 -7.352628e+00 1.053096e+00 -2.361997e+00 -1.928536e-01 -7.011138e+00 1.844938e+01 -3.475907e-01 2.891240e-01 8.517473e-01 1.490806e-01 -2.198394e-01 3.717477e-01 2.086951e-01 -5.772411e-01 -5.861100e-01 -1.020590e-01 5.103238e-01 4.121201e-01 -2.304863e-01 -1.310002e-01 -1.054129e-01 5.218942e-02 1.419929e-01 1.058344e-01 8.436642e-02 1.856087e-01 8.517656e-02 -1.057191e-01 -1.825061e-01 -7.770150e-02 8.028065e-02 -4.425375e-02
<VARIANCE> 39
 6.299488e+00 7.049678e+00 1.858269e+01 1.556407e+01 1.890502e+01 2.848642e+01 3.124899e+01 2.745481e+01 3.056319e+01 3.708543e+01 3.966845e+01 3.645015e+01 1.764324e+00 2.384360e-01 3.540127e-01 4.246177e-01 5.882031e-01 6.848314e-01 8.684854e-01 1.174617e+00 1.223868e+00 1.192890e+00 1.308718e+00 1.200897e+00 1.026467e+00 3.043595e-02 2.293293e-02 3.291778e-02 6.542560e-02 6.521046e-02 9.781899e-02 1.568838e-01 1.652174e-01 1.870169e-01 2.024983e-01 1.902879e-01 1.711509e-01 1.628580e-01 2.731966e-03
<GCONST> 6.916615e+01
<TRANSP> 5
 0.000000e+00 1.000000e+00 0.000000e+00 0.000000e+00 0.000000e+00
 0.000000e+00 8.831032e-01 1.168968e-01 0.000000e+00 0.000000e+00
 0.000000e+00 0.000000e+00 8.920975e-01 1.079025e-01 0.000000e+00
 0.000000e+00 0.000000e+00 0.000000e+00 8.563793e-01 1.436207e-01
 0.000000e+00 0.000000e+00 0.000000e+00 0.000000e+00 0.000000e+00
<ENDHMM>
~h "sp"
<BEGINHMM>
<NUMSTATES> 5
<STATE> 2
~s "silst"
<STATE> 3
<MEAN> 39
 -7.708826e+00 -6.473080e+00 -6.100653e+00 -9.708842e+00 -1.335363e+00 -4.072029e+00 -6.364577e-01 -8.568457e+00 -2.837649e+00 -5.609395e+00 9.602748e-01 -4.089014e+00 1.480019e+01 -9.966476e-02 -1.777931e-02 -1.133441e-01 -5.401720e-03 -2.987780e-02 2.993218e-02 -6.794629e-03 3.502281e-02 2.776094e-03 2.046092e-02 3.510579e-02 4.019200e-02 -1.356058e-02 6.152364e-02 8.246770e-02 6.160140e-02 -1.143505e-02 -9.616970e-03 -5.702356e-02 -4.119144e-02 -1.852388e-02 -9.205597e-03 -1.625362e-02 -3.380984e-02 -3.257237e-02 4.433155e-02
<VARIANCE> 39
 5.200524e+00 5.810161e+00 8.377446e+00 1.000599e+01 1.421467e+01 1.533922e+01 1.546850e+01 1.657169e+01 1.760863e+01 1.635899e+01 1.593801e+01 1.372320e+01 1.090859e+00 1.560436e-01 2.338901e-01 3.573472e-01 4.283795e-01 5.671282e-01 6.773089e-01 6.516366e-01 7.187369e-01 7.407489e-01 6.608117e-01 6.508297e-01 5.695293e-01 7.390068e-03 3.307144e-02 5.305951e-02 7.091513e-02 9.037647e-02 1.138658e-01 1.431769e-01 1.320849e-01 1.439252e-01 1.466945e-01 1.252091e-01 1.241746e-01 1.145205e-01 4.107295e-03
<GCONST> 5.484645e+01
<STATE> 4
<MEAN> 39
 -8.548289e+00 -4.940081e+00 -6.262774e+00 -8.993928e+00 -2.031476e+00 -3.801547e+00 -1.069389e+00 -8.416107e+00 -2.905561e+00 -5.484803e+00 6.373945e-01 -4.050717e+00 1.505830e+01 2.813124e-01 1.765652e-01 9.971265e-02 -1.330414e-01 -1.938932e-01 -3.080816e-01 -8.140050e-02 7.423687e-02 -3.592588e-02 -5.248725e-02 -2.031732e-01 -8.321769e-02 2.204808e-01 2.163556e-01 3.990242e-03 6.052889e-02 -1.468327e-01 -1.315475e-01 -2.128341e-01 -6.204050e-03 1.887416e-02 6.970956e-03 -1.485571e-03 -1.015328e-01 -8.340106e-02 1.104885e-01
<VARIANCE> 39
 1.197326e+01 1.156653e+01 1.733323e+01 1.580600e+01 1.928233e+01 1.879805e+01 1.807047e+01 2.027004e+01 2.112586e+01 1.992934e+01 1.872081e+01 1.701914e+01 1.498371e+00 5.898148e-01 5.341213e-01 7.459373e-01 7.908096e-01 9.735206e-01 1.007398e+00 8.539222e-01 1.189041e+00 1.046556e+00 9.280862e-01 9.478325e-01 7.695594e-01 5.367355e-02 7.112636e-02 1.106615e-01 1.693951e-01 1.488614e-01 2.006885e-01 1.930406e-01 1.682949e-01 2.263150e-01 2.044498e-01 1.796174e-01 1.802988e-01 1.552921e-01 9.426024e-03
<GCONST> 7.468404e+01
<TRANSP> 5
 0.000000e+00 8.227029e-01 1.772971e-01 0.000000e+00 0.000000e+00
 0.000000e+00 7.939671e-01 2.060329e-01 0.000000e+00 0.000000e+00
 0.000000e+00 0.000000e+00 8.500779e-01 1.499221e-01 0.000000e+00
 0.000000e+00 0.000000e+00 0.000000e+00 5.807418e-01 4.192582e-01
 0.000000e+00 0.000000e+00 0.000000e+00 0.000000e+00 0.000000e+00
<ENDHMM>
~h "seven"
<BEGINHMM>
<NUMSTATES> 5
<STATE> 2
<MEAN> 39
 -7.426664e+00 -4.354479e+00 -5.873651e+00 -9.860849e+00 -3.757094e+00 -5.009891e+00 -5.109117e-01 -8.222027e+00 -2.351475e+00 -4.354642e+00 -4.463074e-01 -3.961883e+00 1.558133e+01 8.765820e-01 1.035216e-01 6.932684e-01 -1.407969e+00 -1.111782e+00 -8.345857e-01 9.598119e-01 -9.966628e-02 3.709160e-01 -1.051774e-03 -7.859903e-01 -6.938139e-01 6.924444e-01 4.655362e-03 -1.180381e-01 -7.604741e-02 -2.392212e-01 -1.562030e-01 9.793220e-02 2.441132e-01 6.164637e-02 -1.656832e-02 -1.428373e-01 -1.617373e-01 -1.429650e-01 1.248496e-01
<VARIANCE> 39
 1.020021e+01 6.290180e+00 1.230688e+01 1.267252e+01 2.045985e+01 2.239003e+01 1.827718e+01 1.896505e+01 1.810887e+01 2.686154e+01 1.807589e+01 1.643410e+01 2.466890e+00 4.612654e-01 4.458117e-01 6.463594e-01 9.595754e-01 1.282811e+00 1.641215e+00 1.355374e+00 1.244578e+00 1.254662e+00 2.363615e+00 1.106611e+00 1.216434e+00 7.043708e-02 8.340371e-02 5.442189e-02 9.816150e-02 1.267831e-01 2.251677e-01 2.098319e-01 1.572332e-01 1.521172e-01 1.602395e-01 1.972843e-01 1.400822e-01 1.868453e-01 1.241695e-02
<GCONST> 7.553400e+01
<STATE> 3
<MEAN> 39
 -5.784464e+00 -7.527637e+00 -5.391344e+00 -1.621995e+01 -6.122616e+00 -4.325756e+00 5.073681e+00 -8.665822e+00 -2.725473e+00 -7.122150e+00 -4.216009e+00 -6.596765e+00 1.905530e+01 1.267080e-01 -3.022802e-01 6.834654e-02 1.667898e-01 4.733285e-02 -3.100838e-02 1.818616e-01 2.627350e-01 -3.546322e-01 -3.810692e-02 3.434270e-03 -4.247653e-02 7.372835e-02 -1.742058e-02 1.055462e-01 4.092360e-02 3.172807e-01 1.416170e-01 -7.923023e-02 -2.840277e-01 4.959005e-02 -1.579293e-02 3.842571e-02 2.033361e-01 6.381802e-02 -1.365487e-01
<VARIANCE> 39
 9.445689e+00 1.174342e+01 8.948136e+00 1.780321e+01 4.839441e+01 3.839174e+01 3.164983e+01 3.896808e+01 4.884202e+01 5.840016e+01 3.338782e+01 3.293969e+01 1.182992e+00 3.914640e-01 5.713487e-01 4.497491e-01 1.287096e+00 1.488129e+00 1.582324e+00 1.623019e+00 1.042287e+00 1.264615e+00 1.718062e+00 1.743873e+00 1.224711e+00 1.718489e-01 8.102982e-02 8.468809e-02 8.799008e-02 1.112682e-01 2.650152e-01 2.628745e-01 1.735258e-01 1.627938e-01 2.087805e-01 2.424082e-01 2.329749e-01 1.902405e-01 5.533418e-03
<GCONST> 8.320425e+01
<STATE> 4
<MEAN> 39
 -3.257587e+00 -4.143904e+00 -2.038308e+00 -9.794297e+00 -3.963470e+00 -7.899442e+00 -4.615948e-01 -7.896958e+00 -3.871249e+00 -6.629202e+00 -1.623148e+00 -6.941030e+00 1.713488e+01 1.047463e-01 3.674791e-01 2.305112e-01 2.343948e-01 3.761274e-01 -3.271409e-02 -4.252955e-01 -3.489833e-01 3.219012e-02 -6.870538e-02 8.019406e-02 -1.510132e-02 -8.805951e-02 -3.982795e-02 -5.791830e-02 -5.452244e-02 -7.395241e-02 1.530455e-03 1.087553e-01 9.037766e-02 -4.296113e-02 -1.075394e-03 -7.626210e-04 -4.314441e-02 3.121584e-02 1.961175e-02
<VARIANCE> 39
 4.898093e+00 1.045536e+01 1.000001e+01 1.377112e+01 2.820750e+01 3.248805e+01 2.626030e+01 4.098777e+01 3.228559e+01 3.545821e+01 3.233976e+01 2.883546e+01 1.690492e+00 1.922283e-01 4.150373e-01 4.780289e-01 9.061111e-01 1.392263e+00 1.174100e+00 1.648121e+00 1.272455e+00 1.390035e+00 1.390040e+00 1.265092e+00 9.330741e-01 8.940909e-02 3.491400e-02 7.892342e-02 8.611261e-02 1.530612e-01 2.484834e-01 2.056926e-01 2.860414e-01 2.267960e-01 2.302812e-01 2.389959e-01 2.142741e-01 1.482369e-01 1.490697e-02
<GCONST> 7.853552e+01
<TRANSP> 5
 0.000000e+00 1.000000e+00 0.000000e+00 0.000000e+00 0.000000e+00
 0.000000e+00 7.210668e-01 2.789332e-01 0.000000e+00 0.000000e+00
 0.000000e+00 0.000000e+00 8.911504e-01 1.088496e-01 0.000000e+00
 0.000000e+00 0.000000e+00 0.000000e+00 9.308107e-01 6.918927e-02
 0.000000e+00 0.000000e+00 0.000000e+00 0.000000e+00 0.000000e+00
<ENDHMM>
~h "three"
<BEGINHMM>
<NUMSTATES> 5
<STATE> 2
<MEAN> 39
 -3.093357e+00 -6.931921e+00 -3.884444e-01 -8.981586e+00 -1.028502e+01 -1.089929e+01 -1.257682e+00 -8.742751e+00 -1.840082e+00 -5.122480e+00 -2.633700e-01 -5.329925e+00 1.737327e+01 4.933242e-01 -1.522377e-01 9.480725e-01 -2.456371e-01 -1.601825e+00 -1.273266e-01 -2.325740e-01 -2.376908e-01 4.000477e-01 1.012298e-01 -3.819152e-02 -2.416471e-01 3.722785e-01 -1.754074e-01 1.130701e-01 9.758637e-03 -2.907660e-01 2.022013e-01 3.101131e-01 -1.588958e-01 1.064825e-02 8.616309e-02 -1.575420e-02 4.828652e-02 8.824646e-03 -3.051019e-02
<VARIANCE> 39
 1.175483e+01 1.267659e+01 1.673219e+01 2.980111e+01 5.252621e+01 4.903341e+01 2.345486e+01 2.618881e+01 2.814013e+01 2.589462e+01 3.386316e+01 3.193858e+01 2.764623e+00 7.776099e-01 6.771324e-01 8.034154e-01 2.054870e+00 1.913086e+00 3.441571e+00 1.400926e+00 1.548342e+00 1.261530e+00 1.075687e+00 1.378618e+00 1.288741e+00 6.020478e-02 1.140886e-01 1.457019e-01 1.326666e-01 3.021391e-01 4.642037e-01 4.277464e-01 2.907709e-01 2.391580e-01 1.928697e-01 1.822223e-01 1.986796e-01 1.945308e-01 1.003967e-02
<GCONST> 8.955156e+01
<STATE> 3
<MEAN> 39
 -5.012713e+00 -3.711767e+00 5.607492e+00 -1.888060e+01 -1.255281e+01 -4.187429e+00 -8.595255e+00 -8.812158e+00 1.945405e+00 -5.753857e+00 1.126658e+00 -5.933103e+00 1.865549e+01 -8.467208e-01 1.783678e+00 -2.403208e-01 -1.742954e+00 2.338522e+00 -8.872442e-02 -1.484097e+00 9.095097e-01 -3.994336e-01 -2.314976e-01 1.277482e-01 2.032219e-02 -1.968667e-02 3.861118e-02 1.316052e-01 -4.652388e-01 5.040652e-01 4.126813e-01 -6.723028e-01 4.165585e-01 6.736988e-02 -3.757009e-01 7.231320e-02 -5.817592e-02 3.876003e-02 -5.489004e-02
<VARIANCE> 39
 7.815278e+00 2.361152e+01 1.145392e+01 3.267603e+01 5.986297e+01 2.843044e+01 4.243605e+01 6.345713e+01 2.587767e+01 2.796500e+01 3.827391e+01 2.952200e+01 1.287133e+00 2.542650e-01 6.139969e-01 1.035613e+00 1.763973e+00 1.428522e+00 3.663551e+00 1.997610e+00 1.394168e+00 1.420767e+00 1.070795e+00 7.298362e-01 7.991378e-01 2.094748e-02 5.285401e-02 1.576080e-01 9.188928e-02 2.517174e-01 5.022474e-01 2.345810e-01 4.008303e-01 3.756382e-01 1.637928e-01 1.496210e-01 1.327711e-01 1.099948e-01 2.264522e-03
<GCONST> 8.285192e+01
<STATE> 4
<MEAN> 39
 -6.751812e+00 4.081485e+00 -1.698679e+00 -1.639687e+01 -1.335183e+00 -1.254258e+01 -5.491860e+00 -8.119481e+00 -3.427712e+00 -4.970397e+00 -2.551754e-01 -6.249619e+00 1.787376e+01 1.434401e-01 -7.845202e-02 -5.684837e-01 9.672617e-01 4.286159e-01 -1.396161e-01 7.103527e-01 -3.703491e-01 -3.134451e-01 -1.956815e-02 -1.991398e-01 1.749126e-03 -1.789711e-01 6.566745e-02 -3.145835e-01 9.357703e-02 8.648646e-02 -2.324662e-01 3.090739e-01 4.020176e-02 -3.650799e-02 1.386955e-01 -3.281059e-02 2.168103e-02 1.231973e-02 -2.592813e-02
<VARIANCE> 39
 7.426029e+00 1.529352e+01 1.628609e+01 3.048205e+01 2.264567e+01 2.564058e+01 4.766779e+01 4.530527e+01 3.208680e+01 4.071129e+01 4.080085e+01 3.685177e+01 1.619030e+00 2.201482e-01 1.362234e+00 6.433415e-01 8.479329e-01 1.220550e+00 2.061153e+00 1.285797e+00 1.475913e+00 1.223649e+00 1.182217e+00 8.483459e-01 8.646969e-01 2.458284e-02 3.726180e-02 9.112630e-02 7.197350e-02 1.633022e-01 1.832727e-01 1.722212e-01 2.130326e-01 2.221831e-01 1.723056e-01 1.649531e-01 1.336420e-01 1.302682e-01 2.662175e-03
<GCONST> 7.756269e+01
<TRANSP> 5
 0.000000e+00 1.000000e+00 0.000000e+00 0.000000e+00 0.000000e+00
 0.000000e+00 8.774408e-01 1.225592e-01 0.000000e+00 0.000000e+00
 0.000000e+00 0.000000e+00 7.877224e-01 2.122776e-01 0.000000e+00
 0.000000e+00 0.000000e+00 0.000000e+00 8.909636e-01 1.090364e-01
 0.000000e+00 0.000000e+00 0.000000e+00 0.000000e+00 0.000000e+00
<ENDHMM>
~h "one"
<BEGINHMM>
<NUMSTATES> 5
<STATE> 2
<MEAN> 39
 -5.703009e-01 -3.777334e+00 -9.273387e+00 -1.281602e+01 -1.656849e+00 -5.564113e+00 -2.020890e+00 -8.864613e+00 -2.706219e+00 -6.730972e+00 -1.544968e+00 -7.287571e+00 1.774463e+01 2.782161e-01 -4.046150e-01 -8.717601e-01 4.565922e-01 4.869575e-01 3.920065e-02 -2.918615e-01 2.269493e-01 2.031601e-01 -3.067299e-01 -3.899910e-01 -2.719133e-01 2.375615e-01 -1.188067e-01 -1.461052e-01 5.391982e-02 2.645348e-01 7.775574e-03 -1.161338e-01 -1.488136e-02 9.376168e-02 -1.097093e-02 -9.034452e-02 1.100461e-02 8.282119e-02 -2.095190e-02
<VARIANCE> 39
 7.589404e+00 9.251054e+00 2.887274e+01 2.285341e+01 2.888218e+01 2.532592e+01 2.281152e+01 2.064192e+01 2.828152e+01 2.393746e+01 2.967326e+01 2.876318e+01 2.272939e+00 4.574387e-01 7.999456e-01 8.727624e-01 2.244902e+00 1.372430e+00 1.442823e+00 1.267514e+00 1.065915e+00 1.134401e+00 1.022083e+00 1.095248e+00 1.044808e+00 4.811534e-02 4.487916e-02 6.139236e-02 1.908046e-01 2.175056e-01 2.626477e-01 2.523415e-01 2.367188e-01 1.810083e-01 2.006601e-01 1.693367e-01 1.888772e-01 1.838976e-01 5.011969e-03
<GCONST> 8.018008e+01
<STATE> 3
<MEAN> 39
 -2.365408e+00 -1.071515e+01 -1.090259e+01 -1.689139e+00 -4.430981e-01 -9.494912e+00 -2.448081e+00 -4.206658e+00 -3.535349e+00 -1.172822e+01 -2.378561e+00 -6.055642e+00 1.853595e+01 -6.083370e-01 -3.739728e-01 1.339179e+00 5.729027e-01 -1.353447e+00 -3.282813e-01 1.195746e+00 -8.883315e-02 -9.246769e-01 -9.253025e-02 5.862810e-01 1.198697e-01 -4.915806e-02 2.356984e-02 3.139369e-01 2.518261e-01 -5.823248e-01 -1.343604e-01 3.766292e-01 9.212462e-02 -4.377196e-01 -2.702814e-04 3.805587e-01 4.411365e-02 -1.768507e-01 -2.978604e-02
<VARIANCE> 39
 6.138313e+00 9.607078e+00 1.865441e+01 2.375569e+01 2.700785e+01 1.740294e+01 3.766593e+01 3.138696e+01 4.646056e+01 3.755315e+01 3.383862e+01 3.321483e+01 1.544115e+00 1.544811e-01 5.159107e-01 6.043771e-01 1.831858e+00 7.393947e-01 1.711635e+00 1.007559e+00 2.247372e+00 1.165674e+00 1.864419e+00 1.028535e+00 1.293545e+00 8.477606e-03 2.364448e-02 5.254837e-02 1.008065e-01 1.224811e-01 2.852720e-01 1.528329e-01 3.759322e-01 1.781804e-01 3.358714e-01 2.003346e-01 2.674393e-01 1.680735e-01 8.553734e-04
<GCONST> 7.513000e+01
<STATE> 4
<MEAN> 39
 -4.105910e+00 -5.418004e+00 -1.637713e+00 -8.750782e+00 -4.067264e+00 -5.853426e+00 -1.670294e+00 -1.194638e+01 -4.645322e+00 -8.686903e+00 -2.577328e+00 -8.293819e+00 1.778438e+01 1.510922e-01 9.700479e-01 6.245691e-01 -7.283171e-01 4.268789e-01 -6.561355e-02 -6.300712e-01 -4.446547e-01 8.185668e-02 2.298174e-01 -1.766819e-01 5.027046e-02 -1.278668e-01 4.433832e-02 -6.856374e-02 -2.142977e-01 1.672143e-01 1.611647e-01 -6.866665e-02 -6.816483e-02 1.652918e-01 1.358608e-02 -1.165996e-01 1.009180e-02 7.499196e-02 -5.509103e-03
<VARIANCE> 39
 6.948165e+00 2.328978e+01 1.104523e+01 2.143943e+01 1.960542e+01 4.665387e+01 3.617075e+01 3.532479e+01 4.120687e+01 4.572828e+01 3.327169e+01 3.778119e+01 1.325649e+00 2.764997e-01 6.144656e-01 8.081717e-01 1.205806e+00 9.141662e-01 1.967344e+00 1.137601e+00 1.444452e+00 1.607570e+00 1.540990e+00 9.443323e-01 9.592574e-01 1.267471e-02 4.882595e-02 1.199866e-01 8.184934e-02 1.339784e-01 2.006892e-01 3.081667e-01 2.741716e-01 1.858040e-01 2.302028e-01 2.257554e-01 1.685676e-01 1.675390e-01 1.603232e-03
<GCONST> 7.851463e+01
<TRANSP> 5
 0.000000e+00 1.000000e+00 0.000000e+00 0.000000e+00 0.000000e+00
 0.000000e+00 8.983393e-01 1.016608e-01 0.000000e+00 0.000000e+00
 0.000000e+00 0.000000e+00 8.248683e-01 1.751318e-01 0.000000e+00
 0.000000e+00 0.000000e+00 0.000000e+00 8.842925e-01 1.157075e-01
 0.000000e+00 0.000000e+00 0.000000e+00 0.000000e+00 0.000000e+00
<ENDHMM>
~h "sil"
<BEGINHMM>
<NUMSTATES> 5
<STATE> 2
<MEAN> 39
 -6.785430e+00 -6.747793e+00 -5.115357e+00 -9.106041e+00 2.289080e-03 -3.362628e+00 1.842848e-01 -8.530766e+00 -2.604842e+00 -5.763377e+00 5.570214e-01 -4.310762e+00 1.461687e+01 -3.784278e-02 -2.596689e-03 -4.168638e-03 3.171588e-02 3.965609e-02 2.562227e-02 4.918672e-02 4.860504e-03 -1.794519e-02 5.842637e-03 1.471035e-02 1.150901e-02 -1.229259e-02 -2.571526e-02 -3.315551e-02 -7.306876e-02 -1.091570e-01 -1.211299e-01 -1.190310e-01 -6.255418e-02 -9.712495e-03 -2.325372e-02 1.055754e-02 3.800004e-02 3.094750e-02 1.932790e-03
<VARIANCE> 39
 3.628555e+00 4.354742e+00 6.027478e+00 7.599288e+00 1.190377e+01 1.363538e+01 1.466104e+01 1.634224e+01 1.578713e+01 1.373452e+01 1.579217e+01 1.313026e+01 1.165471e+00 7.865166e-02 1.591557e-01 2.712092e-01 3.725925e-01 4.937829e-01 6.565704e-01 6.815673e-01 7.144930e-01 6.943121e-01 5.757239e-01 6.359901e-01 5.640298e-01 5.030880e-03 1.098879e-02 2.412356e-02 4.051847e-02 5.008841e-02 7.017979e-02 1.010818e-01 1.066592e-01 1.306109e-01 1.118605e-01 9.215737e-02 1.050409e-01 9.907290e-02 6.369043e-04
<GCONST> 4.378730e+01
<STATE> 3
~s "silst"
<STATE> 4
<MEAN> 39
 -7.593484e+00 -7.338774e+00 -6.599464e+00 -1.116954e+01 -2.181675e+00 -5.406485e+00 -1.002910e+00 -8.650032e+00 -2.711717e+00 -5.404501e+00 1.454077e+00 -3.838355e+00 1.448366e+01 -3.381058e-03 7.351470e-03 -2.611168e-02 -2.660411e-02 -5.180125e-02 -1.930328e-02 -6.053432e-02 -7.768087e-03 -3.315128e-03 -6.156656e-03 -1.891299e-02 -1.838796e-02 -1.630116e-04 3.780482e-02 5.727459e-02 9.419317e-02 1.257049e-01 1.332736e-01 1.273783e-01 6.214885e-02 1.672209e-02 2.710421e-02 -1.736004e-02 -5.647252e-02 -4.091730e-02 8.509139e-03
<VARIANCE> 39
 3.523059e+00 4.147477e+00 6.413630e+00 7.833704e+00 1.125893e+01 1.254695e+01 1.496686e+01 1.592644e+01 1.764599e+01 1.532802e+01 1.513483e+01 1.337977e+01 9.991097e-01 7.683337e-02 1.680268e-01 2.876864e-01 4.165778e-01 5.054656e-01 6.758317e-01 5.946530e-01 7.409953e-01 7.097349e-01 6.068191e-01 6.996478e-01 6.116095e-01 3.240209e-03 1.427698e-02 2.889371e-02 4.229185e-02 5.698036e-02 7.268594e-02 1.081241e-01 1.039537e-01 1.278289e-01 1.328576e-01 1.059648e-01 1.175278e-01 1.098220e-01 1.080566e-03
<GCONST> 4.539036e+01
<TRANSP> 5
 0.000000e+00 1.000000e+00 0.000000e+00 0.000000e+00 0.000000e+00
 0.000000e+00 7.680948e-01 2.420869e-02 2.076964e-01 0.000000e+00
 0.000000e+00 0.000000e+00 8.279419e-01 1.720580e-01 0.000000e+00
 0.000000e+00 1.870325e-01 0.000000e+00 7.434750e-01 6.949247e-02
 0.000000e+00 0.000000e+00 0.000000e+00 0.000000e+00 0.000000e+00
<ENDHMM>
~h "six"
<BEGINHMM>
<NUMSTATES> 5
<STATE> 2
<MEAN> 39
 -8.685166e+00 -4.259045e+00 -6.993064e+00 -8.730941e+00 -3.095460e+00 -4.230672e+00 -1.958719e+00 -8.231862e+00 -3.553096e+00 -4.008755e+00 1.246657e-01 -3.143714e+00 1.495160e+01 6.792975e-01 6.785813e-01 1.201005e+00 -1.380330e+00 -1.156061e+00 -1.211252e+00 4.095605e-02 -1.336523e-01 4.202043e-01 3.495704e-01 -5.166207e-01 -4.721150e-01 6.294661e-01 6.715948e-02 1.149750e-01 2.270350e-01 -4.788538e-01 -2.794461e-01 -1.698192e-01 4.326387e-02 7.579287e-02 2.038581e-01 7.639525e-04 -1.366812e-01 -2.376783e-01 1.450847e-01
<VARIANCE> 39
 7.473286e+00 7.796317e+00 1.269812e+01 1.147731e+01 1.900117e+01 2.000362e+01 1.517540e+01 1.807801e+01 2.003326e+01 2.961212e+01 1.917528e+01 1.708669e+01 1.865770e+00 3.582972e-01 4.709631e-01 8.830340e-01 1.148411e+00 1.075045e+00 1.323408e+00 1.003199e+00 8.099372e-01 1.418323e+00 2.236204e+00 1.075118e+00 1.322439e+00 7.690232e-02 6.203255e-02 5.632151e-02 1.156977e-01 9.791208e-02 2.032370e-01 2.090631e-01 1.477596e-01 1.766401e-01 1.850841e-01 2.378895e-01 1.708585e-01 1.683174e-01 8.841752e-03
<GCONST> 7.405898e+01
<STATE> 3
<MEAN> 39
 -6.470743e+00 -1.099831e+00 -8.570032e-01 -2.012062e+01 -7.861012e+00 -8.735832e+00 -2.436680e+00 -6.380576e+00 2.463060e-01 -3.795037e+00 -2.524400e+00 -7.321671e+00 1.832890e+01 2.413897e-02 -8.674678e-02 2.210063e-01 -2.819300e-01 3.752157e-01 2.129296e-01 -2.749950e-01 1.720268e-01 3.751784e-02 -1.961551e-01 1.702159e-01 7.079147e-03 -4.770099e-02 -5.675955e-02 -2.052340e-01 -2.669439e-01 4.875756e-01 2.882037e-01 2.212390e-01 6.796017e-02 -9.106147e-02 -1.466699e-01 -5.878020e-02 1.515863e-01 1.659345e-01 -1.670505e-01
<VARIANCE> 39
 7.692079e+00 9.747431e+00 1.662876e+01 2.306306e+01 5.850389e+01 3.110688e+01 3.719383e+01 2.460385e+01 3.462904e+01 5.833904e+01 3.542871e+01 3.742933e+01 1.432458e+00 3.495993e-01 6.526522e-01 1.075620e+00 3.229552e+00 2.397543e+00 1.761053e+00 1.734441e+00 1.341313e+00 1.887784e+00 2.010821e+00 1.867483e+00 1.897271e+00 2.938339e-01 6.819761e-02 6.606911e-02 1.609176e-01 2.259286e-01 3.061660e-01 3.193480e-01 3.835762e-01 2.241336e-01 2.868495e-01 3.401679e-01 2.636145e-01 2.553114e-01 1.166333e-02
<GCONST> 9.188353e+01
<STATE> 4
<MEAN> 39
 -6.562984e+00 -6.248396e+00 -4.680545e+00 -1.081190e+01 -1.002040e+00 -3.979394e+00 -1.436151e+00 -8.754459e+00 -2.164855e+00 -5.868309e+00 1.164343e+00 -4.220321e+00 1.475304e+01 -2.336805e-01 -9.112412e-01 -1.005335e+00 1.462033e+00 4.138890e-01 4.087131e-01 9.077845e-01 -4.571172e-01 -2.819927e-01 -4.049143e-02 2.005791e-01 2.988802e-01 -4.645918e-01 -1.053093e-01 1.689071e-01 2.070796e-01 -4.381309e-01 -3.787739e-01 -1.608097e-01 -8.507717e-02 1.722336e-01 1.161370e-01 1.035401e-01 -1.796550e-01 -1.430216e-01 1.499710e-01
<VARIANCE> 39
 3.292585e+00 5.440682e+00 9.447651e+00 1.107168e+01 1.464302e+01 1.565154e+01 1.950641e+01 1.858615e+01 1.688210e+01 1.706617e+01 1.862059e+01 1.491483e+01 1.491664e+00 2.674312e-01 4.865161e-01 8.966677e-01 1.309223e+00 2.110321e+00 1.651651e+00 1.602866e+00 1.249596e+00 1.214311e+00 1.205052e+00 1.178020e+00 1.023253e+00 7.931712e-02 3.888694e-02 6.514648e-02 1.378336e-01 1.468713e-01 2.331588e-01 1.805138e-01 2.655316e-01 1.923237e-01 1.854376e-01 1.735673e-01 1.976755e-01 1.824894e-01 5.797170e-03
<GCONST> 7.239846e+01
<TRANSP> 5
 0.000000e+00 1.000000e+00 0.000000e+00 0.000000e+00 0.000000e+00
 0.000000e+00 7.187759e-01 2.812241e-01 0.000000e+00 0.000000e+00
 0.000000e+00 0.000000e+00 8.891536e-01 1.108464e-01 0.000000e+00
 0.000000e+00 0.000000e+00 0.000000e+00 7.504193e-01 2.495807e-01
 0.000000e+00 0.000000e+00 0.000000e+00 0.000000e+00 0.000000e+00
<ENDHMM>
~h "two"
<BEGINHMM>
<NUMSTATES> 5
<STATE> 2
<MEAN> 39
 -1.095466e+01 -3.271942e+00 -6.720088e+00 -1.062588e+01 -9.777105e-01 -3.867269e+00 -1.960571e+00 -7.507028e+00 -2.326184e+00 -5.679752e+00 1.128448e+00 -3.371145e+00 1.506363e+01 5.072597e-01 6.188118e-01 1.014918e+00 -5.889009e-01 -2.670104e-01 -3.652452e-01 -4.634109e-01 -2.131239e-01 7.200174e-02 -5.514368e-02 -2.283659e-01 -3.624861e-01 3.246812e-01 2.967805e-01 6.454558e-02 2.877572e-01 -1.312076e-01 -2.122713e-01 -2.433697e-01 -1.187211e-01 -1.272995e-01 -2.632745e-02 2.698895e-03 -7.923835e-02 -1.704171e-01 9.404147e-02
<VARIANCE> 39
 8.839502e+00 8.095503e+00 1.268482e+01 1.230823e+01 1.844342e+01 2.274365e+01 1.921511e+01 2.111708e+01 2.144554e+01 2.400252e+01 2.472650e+01 1.985365e+01 9.037337e-01 1.367568e+00 5.603037e-01 1.276501e+00 8.305852e-01 1.348850e+00 1.288026e+00 9.892619e-01 1.189701e+00 1.172279e+00 1.294346e+00 1.875916e+00 1.105510e+00 7.280732e-02 1.264958e-01 1.093413e-01 1.343360e-01 1.308404e-01 2.276557e-01 1.981057e-01 1.761333e-01 2.233710e-01 2.275542e-01 2.033350e-01 3.598508e-01 1.595464e-01 7.832584e-03
<GCONST> 7.897932e+01
<STATE> 3
<MEAN> 39
 -4.601789e+00 1.270044e+00 1.861074e+00 -1.552156e+01 -6.952143e+00 -9.943912e+00 -6.701369e+00 -1.043944e+01 -2.408022e+00 -5.176884e+00 -1.124760e+00 -7.307760e+00 1.840695e+01 6.635848e-01 5.435233e-01 7.424341e-01 -5.412087e-01 -1.162739e+00 -1.105665e+00 -5.668696e-01 -2.812434e-01 -6.590518e-02 1.260116e-01 -2.155894e-01 -6.237627e-01 4.513643e-01 -2.501235e-01 -2.350734e-01 -4.262325e-01 2.990221e-01 2.729618e-01 2.325704e-01 2.359013e-01 1.460918e-01 -1.898140e-02 -9.856449e-03 1.532953e-01 1.828872e-01 -1.451187e-01
<VARIANCE> 39
 7.462763e+00 8.105919e+00 1.363405e+01 2.232688e+01 3.964192e+01 2.561008e+01 2.821995e+01 2.453564e+01 3.158199e+01 5.527785e+01 4.393464e+01 4.852142e+01 1.036390e+00 5.676273e-01 6.280775e-01 9.858010e-01 1.463980e+00 1.293348e+00 1.206237e+00 1.681420e+00 1.515837e+00 1.844743e+00 1.989408e+00 2.390154e+00 1.875444e+00 8.955090e-02 6.150482e-02 5.347724e-02 8.131833e-02 1.250031e-01 2.044413e-01 1.804955e-01 2.040820e-01 1.909945e-01 2.121008e-01 2.734936e-01 2.892069e-01 2.222098e-01 6.517009e-03
<GCONST> 8.375431e+01
<STATE> 4
<MEAN> 39
 -3.234134e+00 -5.804614e-02 -4.450636e-02 -1.366092e+01 -7.121536e+00 -1.157320e+01 -5.645481e+00 -9.636599e+00 -2.711883e+00 -5.307681e+00 -1.563494e-01 -7.595791e+00 1.823938e+01 1.668134e-01 -2.231139e-01 -2.386241e-01 5.386992e-01 3.376352e-01 8.619467e-02 9.887844e-02 -5.489506e-02 -1.920087e-01 -8.659574e-02 7.752036e-02 1.593900e-01 -1.201282e-01 -4.354169e-02 -3.787524e-02 -2.656527e-02 2.437443e-02 9.546538e-02 1.092664e-01 5.182845e-02 5.153463e-03 2.027305e-02 1.282211e-03 -5.810113e-03 4.441459e-02 -3.517957e-02
<VARIANCE> 39
 5.896321e+00 7.956886e+00 1.253846e+01 2.982222e+01 3.400894e+01 2.156704e+01 3.315307e+01 3.370409e+01 3.984090e+01 4.292860e+01 5.471645e+01 4.155179e+01 1.360152e+00 1.337231e-01 1.529991e-01 3.768941e-01 6.208972e-01 9.140399e-01 8.562497e-01 8.807951e-01 1.029034e+00 9.053038e-01 9.875891e-01 1.045505e+00 9.311042e-01 1.452692e-02 2.161899e-02 2.514455e-02 5.072955e-02 8.852483e-02 1.057096e-01 1.240771e-01 1.291868e-01 1.603251e-01 1.487671e-01 1.526768e-01 1.592292e-01 1.458748e-01 2.343759e-03
<GCONST> 6.575444e+01
<TRANSP> 5
 0.000000e+00 1.000000e+00 0.000000e+00 0.000000e+00 0.000000e+00
 0.000000e+00 8.205594e-01 1.794405e-01 0.000000e+00 0.000000e+00
 0.000000e+00 0.000000e+00 7.671154e-01 2.328846e-01 0.000000e+00
 0.000000e+00 0.000000e+00 0.000000e+00 9.014096e-01 9.859040e-02
 0.000000e+00 0.000000e+00 0.000000e+00 0.000000e+00 0.000000e+00
<ENDHMM>
~h "nine"
<BEGINHMM>
<NUMSTATES> 5
<STATE> 2
<MEAN> 39
 -4.470572e+00 -4.322154e+00 -2.081520e+00 -8.923578e+00 -3.034495e+00 -6.192629e+00 -1.516338e+00 -1.117482e+01 -5.007539e+00 -8.077701e+00 -2.945490e+00 -7.809045e+00 1.756739e+01 -1.371616e-01 -6.728889e-01 -2.212880e-01 4.957734e-01 -4.928879e-01 1.729458e-01 3.880188e-01 -1.973263e-01 -3.952388e-02 -1.524712e-01 -1.781170e-01 -1.448801e-01 2.491287e-01 -3.834401e-02 -1.261517e-01 -7.479814e-02 1.145110e-01 1.829802e-02 -6.618811e-03 3.849355e-02 3.134091e-02 9.689720e-03 6.296024e-03 7.982235e-02 3.481736e-02 -1.052863e-02
<VARIANCE> 39
 8.941688e+00 2.037974e+01 1.533189e+01 1.683311e+01 2.862830e+01 2.886342e+01 3.201099e+01 2.750821e+01 4.719530e+01 3.538977e+01 3.016376e+01 3.277510e+01 2.306496e+00 5.318323e-01 1.578652e+00 1.144872e+00 1.117416e+00 1.137629e+00 1.424272e+00 1.645388e+00 1.277580e+00 1.528764e+00 1.154219e+00 1.245887e+00 1.038422e+00 3.757271e-02 6.493671e-02 1.814248e-01 1.346316e-01 1.401145e-01 2.019775e-01 2.218378e-01 2.431197e-01 1.863435e-01 1.997569e-01 1.612382e-01 1.739123e-01 1.449634e-01 4.944025e-03
<GCONST> 8.288988e+01
<STATE> 3
<MEAN> 39
 -6.290487e+00 -1.167322e+01 -4.987494e+00 -2.492637e+00 -5.655477e+00 -5.432125e+00 1.785296e+00 -1.126492e+01 -5.679198e+00 -9.068741e+00 -1.604574e+00 -7.685240e+00 1.862177e+01 -1.082473e-01 6.577319e-02 2.330341e-01 -2.053039e-01 -4.694612e-02 2.054288e-01 -7.331704e-02 -1.009547e-01 1.716364e-01 6.975027e-02 -3.996129e-02 3.039219e-02 -1.979615e-02 -3.004473e-03 1.878582e-01 7.743462e-02 -2.486385e-01 3.300808e-02 8.102856e-02 -1.011940e-01 -1.968630e-03 8.308702e-02 -5.367551e-03 -7.944573e-02 2.507325e-02 -1.439722e-02
<VARIANCE> 39
 7.197880e+00 8.451150e+00 2.463088e+01 3.136778e+01 1.880433e+01 3.042523e+01 3.088263e+01 3.410188e+01 4.310351e+01 4.184193e+01 2.805843e+01 3.031895e+01 1.011848e+00 8.114323e-02 3.211375e-01 4.020620e-01 1.031740e+00 4.633254e-01 6.109467e-01 5.231456e-01 4.995901e-01 6.119827e-01 6.482018e-01 6.582195e-01 5.175560e-01 4.580390e-03 1.054444e-02 2.931740e-02 3.925107e-02 5.256031e-02 6.927986e-02 6.525522e-02 7.262977e-02 7.666655e-02 7.949580e-02 8.554329e-02 7.633487e-02 7.776051e-02 3.924772e-04
<GCONST> 5.266505e+01
<STATE> 4
<MEAN> 39
 -6.220827e+00 -3.175920e+00 -1.625235e+00 -1.203726e+01 -1.904154e+00 -4.487774e+00 -3.312985e+00 -1.019652e+01 -2.791503e+00 -8.220803e+00 -3.088198e+00 -6.512387e+00 1.789960e+01 3.932079e-01 8.499457e-01 1.536372e-01 -3.102714e-01 5.441484e-01 -4.756510e-01 -4.741106e-01 3.277741e-01 -1.989962e-01 5.498088e-02 9.733698e-02 5.328984e-02 -1.226498e-01 4.375204e-02 -1.234948e-01 -3.713008e-02 2.356244e-01 -1.474204e-02 -7.324886e-02 1.046933e-01 -3.506607e-02 -1.090407e-01 2.567365e-02 7.954370e-02 -2.939446e-02 -1.025727e-02
<VARIANCE> 39
 1.144857e+01 2.011333e+01 1.220186e+01 2.402607e+01 3.583134e+01 3.414303e+01 3.367135e+01 2.992264e+01 4.905734e+01 3.961936e+01 3.857207e+01 4.244698e+01 1.076424e+00 4.063055e-01 9.272040e-01 5.742484e-01 1.873666e+00 1.354140e+00 1.383377e+00 1.360634e+00 1.284733e+00 1.675599e+00 1.184907e+00 1.059298e+00 1.024167e+00 9.885374e-03 5.701179e-02 9.915596e-02 8.652810e-02 1.494030e-01 1.942022e-01 2.404485e-01 1.805293e-01 1.979228e-01 2.315874e-01 1.955671e-01 1.707102e-01 1.415183e-01 1.007107e-03
<GCONST> 7.866412e+01
<TRANSP> 5
 0.000000e+00 1.000000e+00 0.000000e+00 0.000000e+00 0.000000e+00
 0.000000e+00 8.955168e-01 1.044833e-01 0.000000e+00 0.000000e+00
 0.000000e+00 0.000000e+00 9.109054e-01 8.909464e-02 0.000000e+00
 0.000000e+00 0.000000e+00 0.000000e+00 8.980653e-01 1.019348e-01
 0.000000e+00 0.000000e+00 0.000000e+00 0.000000e+00 0.000000e+00
<ENDHMM>
~h "five"
<BEGINHMM>
<NUMSTATES> 5
<STATE> 2
<MEAN> 39
 -4.181305e+00 -1.133908e+01 -1.006458e+01 -8.264262e+00 4.861633e-01 -8.130804e+00 3.468153e-01 -4.676857e+00 -5.245397e+00 -7.946252e+00 -1.816250e+00 -4.904526e+00 1.797377e+01 3.626131e-01 -1.175057e+00 -7.174687e-01 7.819757e-01 5.139111e-01 -6.411510e-01 3.320499e-01 4.004691e-01 -7.478606e-01 -2.215352e-01 -3.009067e-01 -5.359207e-03 5.644332e-01 -1.906768e-01 2.466730e-02 1.746887e-01 9.182932e-02 -1.332338e-02 1.041355e-01 3.003897e-02 -2.034517e-01 2.542012e-02 1.382952e-01 1.590644e-01 4.963263e-02 -7.391545e-02
<VARIANCE> 39
 1.086371e+01 1.966172e+01 2.370556e+01 1.674332e+01 1.899985e+01 2.061394e+01 2.526336e+01 5.151804e+01 3.220944e+01 2.802477e+01 2.497410e+01 1.990377e+01 4.372700e+00 7.731633e-01 5.613294e-01 1.171915e+00 9.071748e-01 7.891752e-01 9.864862e-01 9.741800e-01 2.247186e+00 1.725102e+00 1.724267e+00 1.363245e+00 1.026821e+00 1.227545e-01 9.467497e-02 1.335978e-01 1.781048e-01 1.234603e-01 1.362066e-01 1.447456e-01 1.544395e-01 3.008502e-01 2.737398e-01 1.933299e-01 1.760507e-01 1.403611e-01 2.822357e-02
<GCONST> 8.435474e+01
<STATE> 3
<MEAN> 39
 -5.809296e+00 -1.545253e+01 -8.556569e+00 -3.643597e+00 1.426141e+00 -9.175666e+00 2.534751e+00 -7.496451e+00 -7.217792e+00 -5.455776e+00 -4.664770e-01 -4.503200e+00 1.904695e+01 -1.661468e-01 8.364358e-02 4.906855e-01 -2.573445e-01 -2.713227e-01 4.342642e-01 6.886250e-02 -3.989204e-01 2.706244e-02 3.039492e-01 6.119017e-02 -8.456461e-02 -4.852384e-02 4.020492e-02 1.144330e-01 1.145509e-02 -1.967209e-01 -5.496485e-02 9.330218e-02 -2.901186e-02 2.467936e-02 5.654038e-02 -4.896837e-02 -7.772891e-02 -1.876110e-02 -1.499102e-02
<VARIANCE> 39
 9.174315e+00 9.379321e+00 2.484691e+01 2.081334e+01 1.875028e+01 2.311602e+01 1.751923e+01 3.905626e+01 4.700454e+01 4.450360e+01 2.689252e+01 2.552066e+01 1.356911e+00 8.788612e-02 1.530524e-01 2.696461e-01 6.339287e-01 4.959680e-01 5.513927e-01 4.976288e-01 4.932922e-01 6.132966e-01 5.706530e-01 5.685143e-01 4.732225e-01 5.857740e-03 1.174293e-02 2.421227e-02 3.031221e-02 4.809480e-02 5.121318e-02 5.160368e-02 5.703687e-02 6.415367e-02 8.527838e-02 8.423645e-02 6.651403e-02 7.042754e-02 9.080662e-04
<GCONST> 4.963747e+01
<STATE> 4
<MEAN> 39
 -5.753982e+00 -9.413782e+00 -3.943354e+00 -1.391111e+01 -3.278220e+00 -2.811010e+00 1.871391e+00 -8.424216e+00 -4.206937e+00 -5.238657e+00 -2.267323e+00 -5.519595e+00 1.830349e+01 2.172169e-01 1.207194e+00 3.704337e-01 -6.430078e-01 -3.928093e-01 -1.021744e-01 -3.097621e-01 2.570505e-01 5.543320e-01 -2.125080e-01 -7.257656e-02 -8.919834e-02 -2.458548e-01 -1.734349e-02 -2.140637e-02 -5.254750e-02 3.437874e-01 1.401050e-01 -1.806260e-01 -6.292216e-02 -9.922305e-03 -4.279670e-02 1.681257e-02 1.217480e-01 3.977777e-02 -4.836144e-02
<VARIANCE> 39
 7.868152e+00 2.308666e+01 1.220547e+01 3.192536e+01 4.212468e+01 1.955703e+01 2.462641e+01 3.666961e+01 5.314531e+01 2.795263e+01 2.708426e+01 3.009299e+01 1.835435e+00 2.145597e-01 4.981519e-01 5.735702e-01 2.636528e+00 1.470396e+00 1.621396e+00 9.743518e-01 1.330720e+00 1.638652e+00 1.337508e+00 1.268718e+00 9.160574e-01 4.132076e-02 4.301740e-02 9.682845e-02 7.577971e-02 2.404257e-01 2.362086e-01 2.298325e-01 1.662989e-01 2.294771e-01 2.226150e-01 1.790422e-01 2.066606e-01 1.646835e-01 4.442086e-03
<GCONST> 8.034801e+01
<TRANSP> 5
 0.000000e+00 1.000000e+00 0.000000e+00 0.000000e+00 0.000000e+00
 0.000000e+00 8.482124e-01 1.517876e-01 0.000000e+00 0.000000e+00
 0.000000e+00 0.000000e+00 9.124641e-01 8.753583e-02 0.000000e+00
 0.000000e+00 0.000000e+00 0.000000e+00 8.641439e-01 1.358561e-01
 0.000000e+00 0.000000e+00 0.000000e+00 0.000000e+00 0.000000e+00
<ENDHMM>
~h "four"
<BEGINHMM>
<NUMSTATES> 5
<STATE> 2
<MEAN> 39
 -6.753110e+00 -6.550043e+00 -5.530717e+00 -9.756757e+00 -1.577292e+00 -5.554465e+00 -1.214754e+00 -8.397396e+00 -2.003129e+00 -5.574924e+00 9.740734e-01 -4.271927e+00 1.535938e+01 1.569297e+00 5.365286e-01 -9.026701e-01 -8.577196e-01 -3.062157e-01 -5.345346e-01 -6.941549e-01 -1.920594e-01 1.942034e-01 2.014392e-01 -3.436750e-01 -4.870028e-01 6.435626e-01 3.503752e-01 1.256314e-01 -3.368661e-01 -3.172899e-01 -5.854670e-02 -7.172914e-03 -8.059607e-02 -1.786774e-02 2.309635e-03 5.408637e-02 -7.904859e-02 -1.321273e-01 1.431809e-01
<VARIANCE> 39
 7.587797e+00 5.408318e+00 5.414777e+00 7.827336e+00 1.003221e+01 1.244884e+01 1.451018e+01 1.363939e+01 1.606253e+01 1.350030e+01 1.608772e+01 1.222015e+01 1.726035e+00 5.139229e-01 4.336035e-01 6.024734e-01 7.387469e-01 7.129583e-01 9.067588e-01 7.513165e-01 8.221453e-01 1.016102e+00 1.086467e+00 1.523566e+00 1.226858e+00 5.793943e-02 6.771779e-02 5.344104e-02 6.066717e-02 8.255364e-02 1.013033e-01 1.526343e-01 1.211842e-01 1.517157e-01 1.399044e-01 1.608931e-01 1.994239e-01 1.871756e-01 7.147797e-03
<GCONST> 6.400056e+01
<STATE> 3
<MEAN> 39
 1.596350e+00 -3.480278e+00 -1.216640e+01 -1.704934e+01 -4.000692e+00 -6.177464e+00 -3.167139e+00 -8.953176e+00 -1.398807e+00 -3.856132e+00 4.293948e-01 -6.775814e+00 1.891418e+01 3.038622e-01 -1.866877e-01 -3.247642e-01 -3.705651e-02 7.408474e-02 -1.821641e-02 -2.192619e-01 1.749457e-01 3.532048e-01 9.302315e-02 -2.297025e-01 -2.202082e-01 1.428958e-01 -1.735059e-01 -1.542005e-01 1.499046e-01 2.361059e-01 3.833436e-02 -3.651744e-02 3.800878e-02 1.109169e-01 4.729515e-02 -8.560007e-02 -5.579619e-02 5.674715e-02 -6.754355e-02
<VARIANCE> 39
 4.139294e+00 1.026473e+01 9.600827e+00 1.373097e+01 2.439303e+01 1.715077e+01 1.857331e+01 1.714531e+01 2.362390e+01 2.482035e+01 3.809521e+01 3.756941e+01 1.087530e+00 5.223602e-01 7.271655e-01 6.852384e-01 1.213930e+00 9.698267e-01 7.718651e-01 9.086623e-01 9.567927e-01 1.309399e+00 1.175279e+00 1.338266e+00 1.242006e+00 9.289708e-02 4.948997e-02 4.573193e-02 9.588309e-02 8.015051e-02 1.358030e-01 1.434416e-01 1.560640e-01 1.411936e-01 1.814876e-01 1.920442e-01 1.991474e-01 1.869942e-01 7.207595e-03
<GCONST> 7.252058e+01
<STATE> 4
<MEAN> 39
 -2.650299e-01 -1.131176e+01 -7.981278e+00 -8.559678e+00 -5.376349e+00 -8.946809e+00 -2.202520e+00 -4.227959e+00 6.486684e-01 -7.567238e+00 -3.909113e+00 -7.360877e+00 1.854945e+01 -5.526969e-01 -3.303669e-02 1.188996e+00 5.181219e-01 -5.928614e-01 2.929818e-02 6.838474e-01 -1.586164e-01 -6.808028e-01 -3.920663e-01 1.341702e-01 2.573431e-01 -2.038241e-01 -8.727218e-02 3.022243e-01 8.471608e-04 -2.181106e-01 1.357543e-01 2.156380e-01 1.405129e-02 -2.461407e-01 -1.510392e-01 1.214457e-01 1.773403e-01 3.055226e-02 -5.096882e-02
<VARIANCE> 39
 6.989795e+00 1.430755e+01 2.848335e+01 1.840852e+01 4.718369e+01 3.736980e+01 3.525568e+01 3.888464e+01 4.503059e+01 3.449244e+01 3.468917e+01 3.194479e+01 1.578481e+00 2.192481e-01 1.522857e+00 6.625853e-01 1.663397e+00 2.088579e+00 2.163543e+00 1.565235e+00 2.597237e+00 1.820011e+00 1.726169e+00 1.796351e+00 1.076372e+00 4.092001e-02 2.919554e-02 9.471355e-02 1.878142e-01 1.660989e-01 4.426276e-01 3.013823e-01 3.550496e-01 3.381848e-01 3.791405e-01 2.796387e-01 3.072910e-01 2.166599e-01 3.209077e-03
<GCONST> 8.838922e+01
<TRANSP> 5
 0.000000e+00 1.000000e+00 0.000000e+00 0.000000e+00 0.000000e+00
 0.000000e+00 7.028518e-01 2.971483e-01 0.000000e+00 0.000000e+00
 0.000000e+00 0.000000e+00 9.182611e-01 8.173893e-02 0.000000e+00
 0.000000e+00 0.000000e+00 0.000000e+00 8.713286e-01 1.286714e-01
 0.000000e+00 0.000000e+00 0.000000e+00 0.000000e+00 0.000000e+00
<ENDHMM>
~h "zero"
<BEGINHMM>
<NUMSTATES> 5
<STATE> 2
<MEAN> 39
 -6.855816e+00 -1.901434e+00 -4.590588e+00 -7.677697e+00 -2.510747e+00 -4.665989e+00 -2.827865e+00 -8.904431e+00 -3.635854e+00 -4.172803e+00 1.352051e-01 -4.374277e+00 1.565049e+01 2.805132e-01 1.044928e+00 9.701862e-01 -1.153947e+00 -8.266970e-01 -1.403270e+00 -6.263204e-01 -6.005092e-01 3.206123e-01 3.345224e-01 -1.324959e-01 -2.388595e-01 4.901614e-01 3.819511e-02 9.730589e-02 1.847407e-01 -3.604140e-01 -1.737437e-01 -2.338129e-01 2.984454e-03 -2.420903e-02 1.691728e-01 1.615072e-03 3.096483e-02 -8.992022e-02 9.294567e-02
<VARIANCE> 39
 6.899126e+00 1.045612e+01 1.552918e+01 1.460814e+01 2.097355e+01 2.208509e+01 1.923906e+01 1.977011e+01 2.956082e+01 2.442970e+01 2.236781e+01 1.989692e+01 1.479733e+00 3.156225e-01 4.247673e-01 7.567339e-01 9.351066e-01 8.448815e-01 1.288812e+00 9.697990e-01 1.180369e+00 1.340532e+00 9.782508e-01 1.203538e+00 1.526944e+00 4.254388e-02 4.659006e-02 1.026945e-01 1.271582e-01 1.079590e-01 1.311550e-01 2.168961e-01 1.590117e-01 1.927215e-01 1.621533e-01 1.500971e-01 1.803339e-01 1.680650e-01 6.419205e-03
<GCONST> 7.318295e+01
<STATE> 3
<MEAN> 39
 -5.560969e+00 3.162098e-01 9.434621e-01 -1.693325e+01 -7.856253e+00 -9.191299e+00 -4.572500e+00 -8.445095e+00 1.725804e-01 -3.747169e+00 1.708836e-01 -6.829440e+00 1.840678e+01 3.373623e-01 -7.418093e-01 4.423228e-01 -1.720227e-01 -1.080045e+00 2.620542e-01 2.049337e-01 1.946980e-01 3.211310e-01 -7.709031e-02 4.330520e-02 -1.248456e-01 1.665443e-01 5.142684e-02 -2.690849e-01 -1.736268e-01 3.715107e-01 1.650347e-02 1.357598e-01 1.949087e-01 5.562971e-02 -8.654512e-02 -4.437679e-02 -1.243655e-02 7.144117e-02 -6.441683e-02
<VARIANCE> 39
 7.430720e+00 2.060636e+01 1.739058e+01 2.629401e+01 5.927187e+01 4.049232e+01 3.221450e+01 4.420524e+01 3.111633e+01 3.033695e+01 3.453102e+01 5.111596e+01 1.093845e+00 4.425108e-01 1.627930e+00 8.042270e-01 2.616367e+00 1.742003e+00 2.530539e+00 1.684902e+00 1.421209e+00 1.341248e+00 1.178592e+00 1.107650e+00 1.320971e+00 6.309891e-02 5.152746e-02 1.128762e-01 1.260483e-01 1.803193e-01 2.453671e-01 4.090328e-01 2.257416e-01 2.478931e-01 2.120963e-01 1.746992e-01 1.724543e-01 2.174445e-01 4.556580e-03
<GCONST> 8.705872e+01
<STATE> 4
<MEAN> 39
 -1.604511e+00 -1.051583e+01 -4.388185e+00 -9.815188e+00 -9.690886e+00 -8.037889e+00 5.609694e-01 -4.104050e+00 -1.752115e-01 -6.699178e+00 -1.003920e+00 -5.666129e+00 1.854287e+01 8.308009e-02 1.049265e-02 -5.501389e-01 1.635520e-01 6.665927e-01 -1.771152e-01 -1.635085e-02 2.076580e-01 -6.412748e-02 -1.488433e-01 -9.276712e-02 -7.504650e-03 -5.357396e-02 -5.977433e-02 1.432885e-01 6.300089e-02 -8.628760e-02 8.703120e-02 4.101307e-02 -9.768382e-02 -8.208004e-02 -2.050559e-02 3.428136e-02 2.046099e-02 -8.811984e-03 -1.774723e-02
<VARIANCE> 39
 6.465727e+00 1.773263e+01 2.653521e+01 2.680035e+01 6.269757e+01 5.438166e+01 3.558004e+01 3.643037e+01 4.419365e+01 3.496185e+01 2.490642e+01 3.292056e+01 1.494360e+00 2.247185e-01 8.379796e-01 6.300261e-01 1.038373e+00 1.227491e+00 1.670092e+00 1.529603e+00 1.766518e+00 1.573515e+00 1.377298e+00 1.023279e+00 9.266401e-01 1.575088e-02 2.390743e-02 3.498803e-02 7.642985e-02 1.110131e-01 1.911982e-01 2.326804e-01 1.870280e-01 1.959544e-01 2.165453e-01 1.822956e-01 1.466542e-01 1.334427e-01 1.765268e-03
<GCONST> 7.714857e+01
<TRANSP> 5
 0.000000e+00 1.000000e+00 0.000000e+00 0.000000e+00 0.000000e+00
 0.000000e+00 7.340856e-01 2.659144e-01 0.000000e+00 0.000000e+00
 0.000000e+00 0.000000e+00 8.922653e-01 1.077348e-01 0.000000e+00
 0.000000e+00 0.000000e+00 0.000000e+00 9.397594e-01 6.024067e-02
 0.000000e+00 0.000000e+00 0.000000e+00 0.000000e+00 0.000000e+00
<ENDHMM>
