~o
<STREAMINFO> 1 39
<VECSIZE> 39<NULLD><MFCC_E_D_A><DIAGC>
~s "silst"
<MEAN> 39
 -5.088606e+00 -3.746847e+00 -3.214417e+00 -8.843738e+00 -1.246574e+00 -5.749292e+00 -1.824981e+00 -9.463444e+00 -3.498583e+00 -6.420897e+00 -3.626843e-01 -5.632576e+00 1.585431e+01 -6.630622e-01 -4.428915e-01 -4.521530e-01 1.671148e-01 3.060312e-01 7.051810e-01 3.751043e-01 1.100646e-01 1.448850e-01 1.510518e-01 3.339567e-01 3.712784e-01 -3.628129e-01 -2.659908e-02 -6.919838e-02 -1.090308e-01 -1.272651e-01 -9.631125e-02 -7.294088e-02 2.973293e-04 7.250398e-02 3.781128e-02 9.294796e-03 -1.498325e-02 4.012206e-03 2.678660e-02
<VARIANCE> 39
 1.122069e+01 1.073453e+01 1.341936e+01 1.340584e+01 2.077125e+01 2.466328e+01 2.382117e+01 2.473509e+01 2.788803e+01 2.728213e+01 2.579173e+01 2.356450e+01 2.023235e+00 3.751000e-01 7.434050e-01 8.194383e-01 8.115759e-01 1.144952e+00 1.289909e+00 1.255756e+00 1.300623e+00 1.409047e+00 1.272088e+00 1.245838e+00 1.114416e+00 5.123102e-02 6.990134e-02 1.004805e-01 1.068430e-01 1.140063e-01 1.562906e-01 2.205286e-01 1.943534e-01 1.871387e-01 2.096527e-01 1.843673e-01 1.821294e-01 1.530655e-01 9.224138e-03
<GCONST> 7.759615e+01
~h "eight"
<BEGINHMM>
<NUMSTATES> 5
<STATE> 2
<MEAN> 39
 -8.238280e+00 -2.995786e+00 -5.884814e+00 -1.822339e+01 2.099872e-01 -4.905620e+00 8.327543e-01 -6.813624e+00 -1.626826e+00 -7.443687e+00 -1.711859e+00 -5.720151e+00 1.740445e+01 -1.693182e-01 1.034722e+00 -9.532401e-02 -1.074260e+00 -5.142520e-02 -5.834497e-01 9.214690e-02 4.703840e-01 3.853638e-01 -1.062500e-02 -1.833045e-01 -2.425275e-01 3.344091e-01 2.893499e-02 8.988624e-02 5.114067e-03 1.397113e-01 -6.265441e-02 -1.923294e-01 -8.331467e-02 -1.749121e-02 2.618545e-02 9.247576e-02 1.131397e-01 -8.116278e-04 -1.704645e-02
<VARIANCE> 39
 7.936293e+00 2.033526e+01 1.877489e+01 3.168478e+01 4.182187e+01 2.220059e+01 2.467520e+01 2.262974e+01 3.069239e+01 2.348490e+01 2.465463e+01 2.549885e+01 3.282992e+00 3.466571e-01 7.505275e-01 6.583530e-01 1.286862e+00 1.208691e+00 1.363092e+00 1.443188e+00 9.984467e-01 1.350443e+00 1.119349e+00 1.070365e+00 9.608684e-01 1.025726e-01 4.199468e-02 8.033427e-02 7.528391e-02 1.956080e-01 1.375362e-01 1.691542e-01 1.484981e-01 1.685819e-01 2.268824e-01 1.638178e-01 1.704201e-01 1.470951e-01 1.304962e-02
<GCONST> 7.936143e+01
<STATE> 3
<MEAN> 39
 -8.394319e+00 5.771280e+00 -5.518955e+00 -1.924225e+01 -2.893307e+00 -1.374243e+01 -1.638833e+00 -5.948524e+00 7.441221e-01 -4.029913e+00 7.559062e-01 -5.694210e+00 1.854679e+01 1.002059e-01 5.033575e-01 2.027405e-01 8.253270e-01 -1.144130e-02 -9.371290e-01 -6.096075e-01 -8.100288e-01 -3.584548e-01 3.269162e-01 4.645849e-01 2.249822e-01 -7.169560e-02 4.940463e-02 -2.806121e-01 2.301333e-02 1.895945e-01 8.654407e-02 2.712573e-01 2.058410e-02 -1.587349e-01 -1.939926e-01 -1.392984e-01 -7.097162e-02 3.690702e-02 -6.158742e-02
<VARIANCE> 39
 1.001501e+01 1.133483e+01 2.487275e+01 2.642447e+01 2.101089e+01 2.371784e+01 5.644072e+01 2.710778e+01 2.950887e+01 2.182252e+01 3.273940e+01 2.503194e+01 1.477177e+00 1.827200e-01 5.049871e-01 2.620971e-01 6.266297e-01 8.218845e-01 1.014807e+00 7.516114e-01 8.256760e-01 1.767897e+00 1.022530e+00 1.190527e+00 8.481390e-01 2.539473e-02 2.770395e-02 7.068489e-02 4.949634e-02 9.904435e-02 8.106340e-02 1.528194e-01 1.404467e-01 1.338113e-01 1.675407e-01 1.386387e-01 1.858913e-01 1.361221e-01 3.380404e-03
<GCONST> 6.904056e+01
<STATE> 4
<MEAN> 39
 -6.983822e+00 1.123207e+00 -4.081669e+00 -1.221445e+01 -1.204481e+00 -1.172896e+01 -4.082473e+00 -1.160430e+01 -4.449901e+00 -5.780646e+00 8.152980e-01 -4.550732e+00 1.652380e+01 2.183578e-01 -1.854795e+00 3.970391e-04 8.877818e-01 2.211175e-01 1.602805e+00 3.193191e-01 -3.079063e-02 -3.288147e-01 -3.992151e-01 -1.452730e-01 9.677024e-02 -4.692543e-01 -7.006934e-02 -1.009782e-01 -9.850930e-02 -1.304068e-01 -4.595192e-02 1.608134e-01 1.928530e-01 2.728155e-01 2.062451e-01 6.432226e-02 2.210220e-02 -3.138564e-02 -6.642058e-03
<VARIANCE> 39
 6.053576e+00 3.354686e+01 1.484864e+01 1.934063e+01 1.615387e+01 3.815471e+01 3.283518e+01 2.462580e+01 3.946593e+01 2.741220e+01 2.594352e+01 2.418550e+01 2.806177e+00 3.508665e-01 7.451282e-01 6.177327e-01 1.035532e+00 6.513156e-01 1.246103e+00 1.757691e+00 1.480974e+00 2.021541e+00 1.219085e+00 1.376163e+00 1.140584e+00 3.565641e-02 4.193164e-02 2.585837e-01 6.970774e-02 1.185444e-01 9.770380e-02 3.263040e-01 1.808411e-01 1.961558e-01 2.997601e-01 1.796653e-01 1.979036e-01 1.935271e-01 1.054046e-02
<GCONST> 8.036738e+01
<TRANSP> 5
 0.000000e+00 1.000000e+00 0.000000e+00 0.000000e+00 0.000000e+00
 0.000000e+00 8.672640e-01 1.327360e-01 0.000000e+00 0.000000e+00
 0.000000e+00 0.000000e+00 8.556463e-01 1.443537e-01 0.000000e+00
 0.000000e+00 0.000000e+00 0.000000e+00 8.207226e-01 1.792774e-01
 0.000000e+00 0.000000e+00 0.000000e+00 0.000000e+00 0.000000e+00
<ENDHMM>
~h "oh"
<BEGINHMM>
<NUMSTATES> 5
<STATE> 2
<MEAN> 39
 -4.364944e+00 -1.037374e+01 -8.314790e+00 -8.585818e+00 -2.637179e+00 -7.653838e+00 3.577350e+00 -7.385929e+00 -5.239039e+00 -7.111475e+00 -2.439719e+00 -5.426980e+00 1.781851e+01 5.457689e-01 -2.061584e-01 -6.071594e-01 1.665678e-01 9.194144e-02 -6.957783e-01 1.445222e-01 7.354483e-01 -1.600323e-02 -4.302231e-01 -4.105259e-01 -1.514880e-01 3.517176e-01 1.008851e-02 1.037192e-01 2.104676e-03 -5.233005e-02 3.830487e-02 -1.073594e-02 -1.518213e-01 8.288850e-03 1.329007e-01 2.591896e-02 -9.922382e-03 -2.758102e-02 -2.148097e-02
<VARIANCE> 39
 8.670388e+00 1.233476e+01 1.667842e+01 1.820464e+01 2.296425e+01 2.454028e+01 3.069400e+01 6.477273e+01 3.832495e+01 3.400686e+01 2.703965e+01 3.144370e+01 3.003983e+00 2.969742e-01 5.784652e-01 6.304564e-01 6.403873e-01 6.852677e-01 9.311777e-01 1.329978e+00 1.789731e+00 1.557022e+00 1.262475e+00 1.250464e+00 1.052630e+00 9.575948e-02 3.984283e-02 6.287470e-02 7.489956e-02 7.983300e-02 9.170441e-02 1.300632e-01 1.558522e-01 2.153906e-01 1.872647e-01 1.964833e-01 1.841853e-01 1.403069e-01 1.333996e-02
<GCONST> 7.715983e+01
<STATE> 3
<MEAN> 39
 -5.714601e-01 -8.247167e+00 -1.317561e+01 -9.926230e+00 -7.021148e-01 -1.204509e+01 -7.978161e-01 -7.823660e-01 1.248695e-01 -8.234779e+00 -5.127597e+00 -6.598351e+00 1.903725e+01 2.233090e-01 4.045015e-01 -2.865947e-02 -3.469130e-01 -3.591088e-02 -4.671084e-03 -6.741195e-01 -2.437888e-01 6.660236e-01 6.026658e-01 -3.318357e-02 -3.511804e-01 -9.572912e-03 -4.125188e-02 2.444482e-02 1.011114e-01 -2.063442e-02 -5.716655e-02 9.293570e-02 1.136552e-02 -1.582468e-01 -8.096487e-02 9.188252e-02 1.210109e-01 1.116519e-02 -2.523019e-02
<VARIANCE> 39
 6.095436e+00 8.381437e+00 1.533676e+01 1.468899e+01 1.921274e+01 2.241178e+01 4.166830e+01 3.075358e+01 3.925349e+01 3.570742e+01 3.180148e+01 4.016017e+01 1.215982e+00 8.016636e-02 1.367581e-01 2.627284e-01 2.767713e-01 3.852378e-01 5.150070e-01 7.296411e-01 1.010590e+00 7.301311e-01 8.551784e-01 7.853349e-01 6.994557e-01 1.316959e-02 1.111035e-02 1.421628e-02 3.351018e-02 3.312016e-02 4.700660e-02 6.865852e-02 7.738075e-02 9.580889e-02 1.049949e-01 1.013393e-01 9.153800e-02 8.861185e-02 1.198593e-03
<GCONST> 5.210447e+01
<STATE> 4
<MEAN> 39
 1.786756e-01 -3.749418e+00 -9.934003e+00 -1.348507e+01 -3.319165e+00 -1.007996e+01 -4.950193e+00 -7.353880e+00 1.048248e+00 -2.363287e+00 -1.890655e-01 -7.008857e+00 1.844912e+01 -3.482310e-01 2.886870e-01 8.520293e-01 1.499019e-01 -2.192398e-01 3.722409e-01 2.092242e-01 -5.767537e-01 -5.862994e-01 -1.028060e-01 5.097932e-01 4.125423e-01 -2.307457e-01 -1.310716e-01 -1.055293e-01 5.196600e-02 1.419432e-01 1.059961e-01 8.450161e-02 1.855745e-01 8.512241e-02 -1.054553e-01 -1.824005e-01 -7.781958e-02 8.014376e-02 -4.428441e-02
<VARIANCE> 39
 6.298169e+00 7.047459e+00 1.859383e+01 1.557076e+01 1.891456e+01 2.848401e+01 3.125538e+01 2.745324e+01 3.057798e+01 3.709786e+01 3.966391e+01 3.646592e+01 1.764315e+00 2.386682e-01 3.544604e-01 4.246719e-01 5.884008e-01 6.856540e-01 8.696879e-01 1.175144e+00 1.224543e+00 1.193684e+00 1.308276e+00 1.201045e+00 1.026518e+00 3.048888e-02 2.294857e-02 3.294687e-02 6.552429e-02 6.524413e-02 9.787232e-02 1.569630e-01 1.652989e-01 1.870837e-01 2.026193e-01 1.903967e-01 1.711767e-01 1.629785e-01 2.733713e-03
<GCONST> 6.918508e+01
<TRANSP> 5
 0.000000e+00 1.000000e+00 0.000000e+00 0.000000e+00 0.000000e+00
 0.000000e+00 8.831288e-01 1.168712e-01 0.000000e+00 0.000000e+00
 0.000000e+00 0.000000e+00 8.921189e-01 1.078811e-01 0.000000e+00
 0.000000e+00 0.000000e+00 0.000000e+00 8.563783e-01 1.436217e-01
 0.000000e+00 0.000000e+00 0.000000e+00 0.000000e+00 0.000000e+00
<ENDHMM>
~h "sp"
<BEGINHMM>
<NUMSTATES> 5
<STATE> 2
~s "silst"
<STATE> 3
<MEAN> 39
 -7.709052e+00 -6.472380e+00 -6.100843e+00 -9.708669e+00 -1.335758e+00 -4.072204e+00 -6.373334e-01 -8.568452e+00 -2.837879e+00 -5.609027e+00 9.601597e-01 -4.088626e+00 1.480017e+01 -9.955322e-02 -1.756035e-02 -1.131722e-01 -5.306398e-03 -2.987170e-02 2.985640e-02 -6.867103e-03 3.492013e-02 2.717882e-03 2.042645e-02 3.503450e-02 4.011477e-02 -1.349320e-02 6.152447e-02 8.240597e-02 6.159154e-02 -1.146889e-02 -9.610329e-03 -5.697511e-02 -4.109741e-02 -1.851099e-02 -9.173162e-03 -1.626473e-02 -3.382338e-02 -3.257990e-02 4.432071e-02
<VARIANCE> 39
 5.202317e+00 5.812612e+00 8.381035e+00 1.000736e+01 1.421548e+01 1.534021e+01 1.547263e+01 1.657254e+01 1.760839e+01 1.636263e+01 1.593931e+01 1.372528e+01 1.090812e+00 1.560362e-01 2.339003e-01 3.573034e-01 4.284163e-01 5.671790e-01 6.772714e-01 6.516677e-01 7.188124e-01 7.407073e-01 6.607583e-01 6.508988e-01 5.695330e-01 7.383005e-03 3.307344e-02 5.305393e-02 7.092425e-02 9.038949e-02 1.138870e-01 1.431500e-01 1.320835e-01 1.439210e-01 1.466726e-01 1.252083e-01 1.241915e-01 1.145232e-01 4.106888e-03
<GCONST> 5.484789e+01
<STATE> 4
<MEAN> 39
 -8.547938e+00 -4.941097e+00 -6.263389e+00 -8.992766e+00 -2.030970e+00 -3.800880e+00 -1.067847e+00 -8.414343e+00 -2.905277e+00 -5.485566e+00 6.358842e-01 -4.049574e+00 1.505816e+01 2.833920e-01 1.763446e-01 1.010523e-01 -1.345513e-01 -1.954906e-01 -3.103712e-01 -8.040287e-02 7.405677e-02 -3.548466e-02 -5.241526e-02 -2.035702e-01 -8.385499e-02 2.212692e-01 2.164540e-01 3.954091e-03 6.054798e-02 -1.471781e-01 -1.323668e-01 -2.130926e-01 -5.700657e-03 1.887910e-02 7.014562e-03 -1.406424e-03 -1.016413e-01 -8.363177e-02 1.107239e-01
<VARIANCE> 39
 1.196170e+01 1.155800e+01 1.733100e+01 1.580293e+01 1.927118e+01 1.878651e+01 1.805133e+01 2.026684e+01 2.114100e+01 1.992196e+01 1.871468e+01 1.701593e+01 1.498019e+00 5.902247e-01 5.341993e-01 7.468327e-01 7.914308e-01 9.749551e-01 1.009387e+00 8.545809e-01 1.189472e+00 1.046703e+00 9.291232e-01 9.477447e-01 7.701993e-01 5.378660e-02 7.108678e-02 1.106065e-01 1.693644e-01 1.490102e-01 2.008447e-01 1.931407e-01 1.685406e-01 2.264203e-01 2.045732e-01 1.797228e-01 1.802770e-01 1.554441e-01 9.426140e-03
<GCONST> 7.469576e+01
<TRANSP> 5
 0.000000e+00 8.230223e-01 1.769777e-01 0.000000e+00 0.000000e+00
 0.000000e+00 7.938104e-01 2.061896e-01 0.000000e+00 0.000000e+00
 0.000000e+00 0.000000e+00 8.501070e-01 1.498930e-01 0.000000e+00
 0.000000e+00 0.000000e+00 0.000000e+00 5.810901e-01 4.189100e-01
 0.000000e+00 0.000000e+00 0.000000e+00 0.000000e+00 0.000000e+00
<ENDHMM>
~h "seven"
<BEGINHMM>
<NUMSTATES> 5
<STATE> 2
<MEAN> 39
 -7.335452e+00 -4.325345e+00 -5.794880e+00 -9.967188e+00 -3.880157e+00 -5.134734e+00 -4.531502e-01 -8.226225e+00 -2.336055e+00 -4.325943e+00 -5.004663e-01 -4.002017e+00 1.563479e+01 8.753812e-01 9.452937e-02 6.870984e-01 -1.418386e+00 -1.120249e+00 -8.270352e-01 9.716602e-01 -9.135214e-02 3.702683e-01 -8.199579e-03 -7.932317e-01 -6.989478e-01 6.977729e-01 -4.202967e-03 -1.216062e-01 -8.449148e-02 -2.291805e-01 -1.433333e-01 1.093659e-01 2.382994e-01 6.055972e-02 -2.082078e-02 -1.461989e-01 -1.563668e-01 -1.375758e-01 1.204845e-01
<VARIANCE> 39
 1.046728e+01 6.311144e+00 1.235622e+01 1.301433e+01 2.120861e+01 2.324537e+01 1.856679e+01 1.910744e+01 1.806387e+01 2.746445e+01 1.829582e+01 1.662184e+01 2.565445e+00 4.631783e-01 4.545054e-01 6.498988e-01 9.616040e-01 1.287840e+00 1.646364e+00 1.368583e+00 1.254079e+00 1.272581e+00 2.367500e+00 1.115162e+00 1.230891e+00 6.919007e-02 8.467344e-02 5.458615e-02 9.960968e-02 1.298125e-01 2.296333e-01 2.119064e-01 1.576079e-01 1.510697e-01 1.599984e-01 1.976768e-01 1.403042e-01 1.872738e-01 1.307778e-02
<GCONST> 7.598309e+01
<STATE> 3
<MEAN> 39
 -5.802080e+00 -7.559174e+00 -5.411793e+00 -1.622797e+01 -6.089514e+00 -4.275234e+00 5.090651e+00 -8.672900e+00 -2.731948e+00 -7.148863e+00 -4.216775e+00 -6.600724e+00 1.906069e+01 1.225813e-01 -3.019297e-01 6.650376e-02 1.792479e-01 5.582304e-02 -2.805327e-02 1.735809e-01 2.621462e-01 -3.590671e-01 -3.587305e-02 9.588728e-03 -3.767154e-02 6.862857e-02 -1.485440e-02 1.079688e-01 4.414950e-02 3.175093e-01 1.392001e-01 -8.397386e-02 -2.854808e-01 5.039762e-02 -1.417798e-02 4.049497e-02 2.036915e-01 6.337529e-02 -1.367984e-01
<VARIANCE> 39
 9.412490e+00 1.162665e+01 8.896813e+00 1.784180e+01 4.850888e+01 3.808920e+01 3.165053e+01 3.903343e+01 4.902964e+01 5.828009e+01 3.349747e+01 3.299817e+01 1.178465e+00 3.879743e-01 5.698221e-01 4.481949e-01 1.264155e+00 1.475944e+00 1.580962e+00 1.610635e+00 1.039538e+00 1.256058e+00 1.716069e+00 1.738686e+00 1.216078e+00 1.686969e-01 8.048680e-02 8.401240e-02 8.641235e-02 1.116726e-01 2.652931e-01 2.604555e-01 1.737152e-01 1.629337e-01 2.089835e-01 2.418589e-01 2.340205e-01 1.904672e-01 5.541138e-03
<GCONST> 8.306762e+01
<STATE> 4
<MEAN> 39
 -3.257404e+00 -4.143602e+00 -2.036556e+00 -9.793482e+00 -3.966033e+00 -7.902241e+00 -4.625854e-01 -7.896293e+00 -3.872701e+00 -6.630366e+00 -1.625628e+00 -6.943172e+00 1.713471e+01 1.046666e-01 3.676161e-01 2.306022e-01 2.346558e-01 3.764980e-01 -3.257564e-02 -4.257393e-01 -3.490361e-01 3.240689e-02 -6.872284e-02 8.051851e-02 -1.489925e-02 -8.817855e-02 -3.992740e-02 -5.797114e-02 -5.458056e-02 -7.397281e-02 1.659000e-03 1.089069e-01 9.035900e-02 -4.302710e-02 -1.077578e-03 -7.690723e-04 -4.307780e-02 3.127940e-02 1.960442e-02
<VARIANCE> 39
 4.899800e+00 1.046148e+01 9.996172e+00 1.377044e+01 2.818932e+01 3.249026e+01 2.625898e+01 4.099496e+01 3.227856e+01 3.546935e+01 3.233624e+01 2.883079e+01 1.690391e+00 1.922614e-01 4.153849e-01 4.782818e-01 9.068016e-01 1.392001e+00 1.174524e+00 1.648602e+00 1.272814e+00 1.390623e+00 1.390512e+00 1.265369e+00 9.334154e-01 8.948607e-02 3.492544e-02 7.894868e-02 8.614006e-02 1.530756e-01 2.485233e-01 2.057552e-01 2.860236e-01 2.268747e-01 2.303142e-01 2.390482e-01 2.143081e-01 1.482665e-01 1.491172e-02
<GCONST> 7.854347e+01
<TRANSP> 5
 0.000000e+00 1.000000e+00 0.000000e+00 0.000000e+00 0.000000e+00
 0.000000e+00 7.234215e-01 2.765786e-01 0.000000e+00 0.000000e+00
 0.000000e+00 0.000000e+00 8.904536e-01 1.095464e-01 0.000000e+00
 0.000000e+00 0.000000e+00 0.000000e+00 9.308016e-01 6.919844e-02
 0.000000e+00 0.000000e+00 0.000000e+00 0.000000e+00 0.000000e+00
<ENDHMM>
~h "three"
<BEGINHMM>
<NUMSTATES> 5
<STATE> 2
<MEAN> 39
 -3.086952e+00 -6.936162e+00 -3.715163e-01 -8.984013e+00 -1.032137e+01 -1.089316e+01 -1.256640e+00 -8.755421e+00 -1.828283e+00 -5.114550e+00 -2.534505e-01 -5.329999e+00 1.737964e+01 4.892195e-01 -1.486818e-01 9.487626e-01 -2.530582e-01 -1.596689e+00 -1.193938e-01 -2.377331e-01 -2.374182e-01 4.017519e-01 1.011085e-01 -3.660393e-02 -2.414869e-01 3.715573e-01 -1.760030e-01 1.145026e-01 8.518022e-03 -2.913905e-01 2.060939e-01 3.091219e-01 -1.601911e-01 1.197039e-02 8.487365e-02 -1.622199e-02 4.780789e-02 8.862193e-03 -3.081243e-02
<VARIANCE> 39
 1.172377e+01 1.267719e+01 1.677067e+01 2.982436e+01 5.270599e+01 4.902544e+01 2.345100e+01 2.625128e+01 2.816466e+01 2.590737e+01 3.392403e+01 3.193162e+01 2.762233e+00 7.809217e-01 6.811270e-01 8.028055e-01 2.070330e+00 1.918468e+00 3.455546e+00 1.409175e+00 1.551012e+00 1.260699e+00 1.075014e+00 1.378287e+00 1.287646e+00 6.027548e-02 1.138371e-01 1.459692e-01 1.329594e-01 3.015659e-01 4.669434e-01 4.276133e-01 2.911026e-01 2.394662e-01 1.932473e-01 1.820813e-01 1.986331e-01 1.943537e-01 1.002611e-02
<GCONST> 8.959630e+01
<STATE> 3
<MEAN> 39
 -5.036118e+00 -3.661544e+00 5.591596e+00 -1.894089e+01 -1.245951e+01 -4.193385e+00 -8.642760e+00 -8.761870e+00 1.919950e+00 -5.768318e+00 1.111461e+00 -5.939302e+00 1.865256e+01 -8.447855e-01 1.786149e+00 -2.540224e-01 -1.726762e+00 2.347999e+00 -1.123832e-01 -1.469264e+00 9.102968e-01 -4.095899e-01 -2.294920e-01 1.251674e-01 2.091859e-02 -2.079148e-02 4.100032e-02 1.271711e-01 -4.635145e-01 5.094398e-01 4.025781e-01 -6.712099e-01 4.224032e-01 6.209274e-02 -3.729831e-01 7.389394e-02 -5.815510e-02 3.808810e-02 -5.451149e-02
<VARIANCE> 39
 7.802204e+00 2.367053e+01 1.152913e+01 3.231391e+01 6.001485e+01 2.842883e+01 4.220875e+01 6.373611e+01 2.600725e+01 2.799484e+01 3.822366e+01 2.956086e+01 1.288307e+00 2.540590e-01 6.121340e-01 1.031221e+00 1.775381e+00 1.406893e+00 3.650810e+00 2.018184e+00 1.383134e+00 1.413903e+00 1.076631e+00 7.275113e-01 7.968001e-01 2.072654e-02 5.247496e-02 1.576884e-01 9.239178e-02 2.479170e-01 5.022572e-01 2.348653e-01 3.956899e-01 3.769548e-01 1.650209e-01 1.493693e-01 1.327535e-01 1.100463e-01 2.246946e-03
<GCONST> 8.279605e+01
<STATE> 4
<MEAN> 39
 -6.748652e+00 4.088490e+00 -1.712415e+00 -1.637244e+01 -1.330588e+00 -1.255827e+01 -5.474630e+00 -8.136332e+00 -3.431480e+00 -4.969556e+00 -2.595544e-01 -6.250209e+00 1.787149e+01 1.454194e-01 -8.495653e-02 -5.653656e-01 9.696729e-01 4.225239e-01 -1.323002e-01 7.105538e-01 -3.721468e-01 -3.107689e-01 -2.091012e-02 -1.990740e-01 2.171124e-03 -1.793876e-01 6.498930e-02 -3.144547e-01 9.411044e-02 8.428086e-02 -2.312001e-01 3.102709e-01 3.837261e-02 -3.486568e-02 1.387196e-01 -3.315957e-02 2.213632e-02 1.252383e-02 -2.593365e-02
<VARIANCE> 39
 7.440189e+00 1.526382e+01 1.626134e+01 3.043811e+01 2.262353e+01 2.554173e+01 4.763285e+01 4.516557e+01 3.210999e+01 4.072699e+01 4.081995e+01 3.687395e+01 1.619397e+00 2.191508e-01 1.355454e+00 6.429051e-01 8.472309e-01 1.212057e+00 2.052301e+00 1.287513e+00 1.476788e+00 1.223608e+00 1.180984e+00 8.497357e-01 8.663930e-01 2.463239e-02 3.730586e-02 9.126695e-02 7.190367e-02 1.623795e-01 1.832839e-01 1.717817e-01 2.121652e-01 2.214920e-01 1.725498e-01 1.651627e-01 1.335848e-01 1.303332e-01 2.670349e-03
<GCONST> 7.752978e+01
<TRANSP> 5
 0.000000e+00 1.000000e+00 0.000000e+00 0.000000e+00 0.000000e+00
 0.000000e+00 8.776620e-01 1.223380e-01 0.000000e+00 0.000000e+00
 0.000000e+00 0.000000e+00 7.879896e-01 2.120104e-01 0.000000e+00
 0.000000e+00 0.000000e+00 0.000000e+00 8.907474e-01 1.092525e-01
 0.000000e+00 0.000000e+00 0.000000e+00 0.000000e+00 0.000000e+00
<ENDHMM>
~h "one"
<BEGINHMM>
<NUMSTATES> 5
<STATE> 2
<MEAN> 39
 -5.689520e-01 -3.776760e+00 -9.273962e+00 -1.281645e+01 -1.656956e+00 -5.564082e+00 -2.021028e+00 -8.864633e+00 -2.706286e+00 -6.731216e+00 -1.545304e+00 -7.287977e+00 1.774521e+01 2.781423e-01 -4.048169e-01 -8.720115e-01 4.566930e-01 4.870872e-01 3.932594e-02 -2.918340e-01 2.269844e-01 2.032453e-01 -3.067081e-01 -3.900145e-01 -2.719528e-01 2.375561e-01 -1.188894e-01 -1.461850e-01 5.393398e-02 2.646182e-01 7.811768e-03 -1.161329e-01 -1.488887e-02 9.379919e-02 -1.094661e-02 -9.033505e-02 1.100555e-02 8.286383e-02 -2.097866e-02
<VARIANCE> 39
 7.581236e+00 9.249766e+00 2.887453e+01 2.285520e+01 2.888535e+01 2.532806e+01 2.281283e+01 2.064430e+01 2.828296e+01 2.393937e+01 2.967531e+01 2.876597e+01 2.271535e+00 4.574593e-01 7.998866e-01 8.725601e-01 2.245149e+00 1.372530e+00 1.442849e+00 1.267667e+00 1.065933e+00 1.134342e+00 1.022048e+00 1.095248e+00 1.044865e+00 4.811925e-02 4.484980e-02 6.136411e-02 1.908255e-01 2.175066e-01 2.626806e-01 2.523722e-01 2.367288e-01 1.810111e-01 2.006637e-01 1.693359e-01 1.888880e-01 1.838949e-01 5.008908e-03
<GCONST> 8.017792e+01
<STATE> 3
<MEAN> 39
 -2.365471e+00 -1.071514e+01 -1.090248e+01 -1.689179e+00 -4.432424e-01 -9.494750e+00 -2.447921e+00 -4.206886e+00 -3.535404e+00 -1.172812e+01 -2.378591e+00 -6.055817e+00 1.853595e+01 -6.083357e-01 -3.739474e-01 1.339181e+00 5.728537e-01 -1.353425e+00 -3.282435e-01 1.195698e+00 -8.887306e-02 -9.246258e-01 -9.249964e-02 5.862454e-01 1.198540e-01 -4.915963e-02 2.357319e-02 3.139367e-01 2.518152e-01 -5.823210e-01 -1.343430e-01 3.766114e-01 9.210080e-02 -4.376980e-01 -2.595693e-04 3.805355e-01 4.410667e-02 -1.768340e-01 -2.978582e-02
<VARIANCE> 39
 6.138522e+00 9.607306e+00 1.865507e+01 2.375589e+01 2.700905e+01 1.740372e+01 3.766674e+01 3.138832e+01 4.646076e+01 3.755290e+01 3.383815e+01 3.321559e+01 1.544151e+00 1.544808e-01 5.159363e-01 6.043813e-01 1.831957e+00 7.393949e-01 1.711720e+00 1.007598e+00 2.247439e+00 1.165731e+00 1.864447e+00 1.028566e+00 1.293531e+00 8.477825e-03 2.364586e-02 5.254881e-02 1.008127e-01 1.224812e-01 2.852878e-01 1.528396e-01 3.759507e-01 1.781905e-01 3.358765e-01 2.003468e-01 2.674365e-01 1.680798e-01 8.553797e-04
<GCONST> 7.513109e+01
<STATE> 4
<MEAN> 39
 -4.105529e+00 -5.415931e+00 -1.636878e+00 -8.751803e+00 -4.065629e+00 -5.855350e+00 -1.671200e+00 -1.194579e+01 -4.646104e+00 -8.685511e+00 -2.576865e+00 -8.293690e+00 1.778426e+01 1.510070e-01 9.695075e-01 6.240674e-01 -7.277868e-01 4.267140e-01 -6.541258e-02 -6.297172e-01 -4.445003e-01 8.181489e-02 2.297638e-01 -1.766508e-01 5.022523e-02 -1.278701e-01 4.424536e-02 -6.865598e-02 -2.142877e-01 1.671916e-01 1.610339e-01 -6.846124e-02 -6.801888e-02 1.652412e-01 1.356916e-02 -1.165991e-01 1.012964e-02 7.499345e-02 -5.519891e-03
<VARIANCE> 39
 6.947158e+00 2.328820e+01 1.104508e+01 2.143349e+01 1.960853e+01 4.664679e+01 3.616512e+01 3.531986e+01 4.120584e+01 4.572940e+01 3.327550e+01 3.777666e+01 1.325478e+00 2.764547e-01 6.148569e-01 8.083897e-01 1.205911e+00 9.141082e-01 1.966888e+00 1.137697e+00 1.444139e+00 1.607387e+00 1.540607e+00 9.443022e-01 9.591314e-01 1.267368e-02 4.883083e-02 1.199649e-01 8.185680e-02 1.339375e-01 2.006739e-01 3.081725e-01 2.741315e-01 1.857805e-01 2.301686e-01 2.256974e-01 1.685897e-01 1.675436e-01 1.604337e-03
<GCONST> 7.851333e+01
<TRANSP> 5
 0.000000e+00 1.000000e+00 0.000000e+00 0.000000e+00 0.000000e+00
 0.000000e+00 8.983174e-01 1.016826e-01 0.000000e+00 0.000000e+00
 0.000000e+00 0.000000e+00 8.248764e-01 1.751236e-01 0.000000e+00
 0.000000e+00 0.000000e+00 0.000000e+00 8.843496e-01 1.156504e-01
 0.000000e+00 0.000000e+00 0.000000e+00 0.000000e+00 0.000000e+00
<ENDHMM>
~h "sil"
<BEGINHMM>
<NUMSTATES> 5
<STATE> 2
<MEAN> 39
 -6.783602e+00 -6.747863e+00 -5.113377e+00 -9.108152e+00 -5.096286e-03 -3.371999e+00 1.794316e-01 -8.535573e+00 -2.610310e+00 -5.764522e+00 5.588000e-01 -4.307111e+00 1.461662e+01 -3.782211e-02 -2.561635e-03 -3.651865e-03 3.235149e-02 4.034190e-02 2.610876e-02 4.886769e-02 4.430190e-03 -1.800414e-02 5.856304e-03 1.519607e-02 1.196869e-02 -1.229668e-02 -2.583071e-02 -3.333526e-02 -7.324727e-02 -1.089647e-01 -1.203164e-01 -1.180011e-01 -6.200400e-02 -9.010729e-03 -2.263113e-02 1.053336e-02 3.763962e-02 3.045445e-02 1.912911e-03
<VARIANCE> 39
 3.620595e+00 4.349010e+00 6.011082e+00 7.598650e+00 1.192148e+01 1.364212e+01 1.466349e+01 1.633246e+01 1.577006e+01 1.373705e+01 1.579088e+01 1.312173e+01 1.165713e+00 7.841130e-02 1.589030e-01 2.709154e-01 3.725249e-01 4.935657e-01 6.562557e-01 6.808801e-01 7.136860e-01 6.940714e-01 5.754665e-01 6.357601e-01 5.635785e-01 5.017890e-03 1.095874e-02 2.407544e-02 4.044550e-02 5.007678e-02 7.032341e-02 1.012635e-01 1.067314e-01 1.304851e-01 1.118166e-01 9.220939e-02 1.051020e-01 9.906980e-02 6.357197e-04
<GCONST> 4.376322e+01
<STATE> 3
~s "silst"
<STATE> 4
<MEAN> 39
 -7.597671e+00 -7.340122e+00 -6.606135e+00 -1.117222e+01 -2.179196e+00 -5.401517e+00 -1.000649e+00 -8.644753e+00 -2.705743e+00 -5.402447e+00 1.454162e+00 -3.840986e+00 1.448348e+01 -3.289851e-03 7.383142e-03 -2.669490e-02 -2.744203e-02 -5.273106e-02 -1.997167e-02 -6.052458e-02 -7.425945e-03 -3.270686e-03 -6.245196e-03 -1.956714e-02 -1.891576e-02 -1.048829e-04 3.811979e-02 5.771153e-02 9.484745e-02 1.260561e-01 1.329944e-01 1.268310e-01 6.186019e-02 1.600841e-02 2.652687e-02 -1.739219e-02 -5.630614e-02 -4.055745e-02 8.568808e-03
<VARIANCE> 39
 3.525395e+00 4.152090e+00 6.411360e+00 7.832446e+00 1.126180e+01 1.256708e+01 1.497267e+01 1.593855e+01 1.766777e+01 1.532895e+01 1.513588e+01 1.339331e+01 9.984529e-01 7.709319e-02 1.683308e-01 2.880042e-01 4.166541e-01 5.055792e-01 6.761537e-01 5.952182e-01 7.418505e-01 7.100183e-01 6.071495e-01 7.000360e-01 6.121510e-01 3.249758e-03 1.430215e-02 2.891289e-02 4.222539e-02 5.698090e-02 7.283737e-02 1.083675e-01 1.039818e-01 1.280133e-01 1.330117e-01 1.059532e-01 1.175451e-01 1.099134e-01 1.085011e-03
<GCONST> 4.542398e+01
<TRANSP> 5
 0.000000e+00 1.000000e+00 0.000000e+00 0.000000e+00 0.000000e+00
 0.000000e+00 7.687517e-01 2.421835e-02 2.070299e-01 0.000000e+00
 0.000000e+00 0.000000e+00 8.275794e-01 1.724205e-01 0.000000e+00
 0.000000e+00 1.872657e-01 0.000000e+00 7.430834e-01 6.965094e-02
 0.000000e+00 0.000000e+00 0.000000e+00 0.000000e+00 0.000000e+00
<ENDHMM>
~h "six"
<BEGINHMM>
<NUMSTATES> 5
<STATE> 2
<MEAN> 39
 -8.683925e+00 -4.258164e+00 -6.990983e+00 -8.732210e+00 -3.096750e+00 -4.232961e+00 -1.958968e+00 -8.232244e+00 -3.552788e+00 -4.007572e+00 1.244882e-01 -3.143909e+00 1.495228e+01 6.795400e-01 6.789109e-01 1.201475e+00 -1.381221e+00 -1.156761e+00 -1.211864e+00 4.102985e-02 -1.335224e-01 4.205800e-01 3.496240e-01 -5.168641e-01 -4.726362e-01 6.297812e-01 6.700015e-02 1.149072e-01 2.268482e-01 -4.788759e-01 -2.793473e-01 -1.695763e-01 4.329353e-02 7.589886e-02 2.039412e-01 6.480817e-04 -1.366934e-01 -2.378084e-01 1.450421e-01
<VARIANCE> 39
 7.476217e+00 7.797290e+00 1.270019e+01 1.147772e+01 1.900823e+01 2.001342e+01 1.517898e+01 1.807307e+01 2.003442e+01 2.962647e+01 1.917700e+01 1.708919e+01 1.866733e+00 3.582183e-01 4.709755e-01 8.829333e-01 1.147917e+00 1.075007e+00 1.323285e+00 1.003594e+00 8.100695e-01 1.418578e+00 2.236836e+00 1.075356e+00 1.322791e+00 7.681602e-02 6.203905e-02 5.631867e-02 1.156840e-01 9.793191e-02 2.032634e-01 2.091344e-01 1.477654e-01 1.766551e-01 1.850707e-01 2.379211e-01 1.708769e-01 1.683025e-01 8.850023e-03
<GCONST> 7.406308e+01
<STATE> 3
<MEAN> 39
 -6.470843e+00 -1.099822e+00 -8.569462e-01 -2.012108e+01 -7.860883e+00 -8.735637e+00 -2.436738e+00 -6.380424e+00 2.465018e-01 -3.795134e+00 -2.524472e+00 -7.321762e+00 1.832895e+01 2.410861e-02 -8.679985e-02 2.209366e-01 -2.818010e-01 3.753448e-01 2.130464e-01 -2.750145e-01 1.720236e-01 3.746939e-02 -1.961876e-01 1.702537e-01 7.154752e-03 -4.775517e-02 -5.675102e-02 -2.052415e-01 -2.669481e-01 4.876130e-01 2.882090e-01 2.212182e-01 6.796733e-02 -9.107231e-02 -1.466868e-01 -5.877715e-02 1.515944e-01 1.659529e-01 -1.670561e-01
<VARIANCE> 39
 7.692117e+00 9.747723e+00 1.662934e+01 2.305958e+01 5.850594e+01 3.110723e+01 3.719460e+01 2.460402e+01 3.462927e+01 5.833821e+01 3.542952e+01 3.743035e+01 1.432434e+00 3.495863e-01 6.526167e-01 1.075577e+00 3.229460e+00 2.397299e+00 1.760855e+00 1.734447e+00 1.341328e+00 1.887758e+00 2.010838e+00 1.867462e+00 1.897177e+00 2.938017e-01 6.819881e-02 6.606959e-02 1.609235e-01 2.259094e-01 3.061767e-01 3.193512e-01 3.835911e-01 2.241308e-01 2.868519e-01 3.401670e-01 2.636225e-01 2.553137e-01 1.166324e-02
<GCONST> 9.188315e+01
<STATE> 4
<MEAN> 39
 -6.563007e+00 -6.248583e+00 -4.680787e+00 -1.081211e+01 -1.002019e+00 -3.979013e+00 -1.435698e+00 -8.754106e+00 -2.164353e+00 -5.868227e+00 1.164263e+00 -4.220217e+00 1.475302e+01 -2.336283e-01 -9.111096e-01 -1.005340e+00 1.461937e+00 4.138560e-01 4.085099e-01 9.077297e-01 -4.571206e-01 -2.820342e-01 -4.057208e-02 2.005941e-01 2.988423e-01 -4.645553e-01 -1.053026e-01 1.689233e-01 2.071274e-01 -4.381293e-01 -3.787773e-01 -1.607984e-01 -8.513717e-02 1.722173e-01 1.161223e-01 1.035600e-01 -1.796155e-01 -1.430279e-01 1.499691e-01
<VARIANCE> 39
 3.292273e+00 5.440783e+00 9.446016e+00 1.107099e+01 1.464095e+01 1.564984e+01 1.950584e+01 1.858500e+01 1.688057e+01 1.706424e+01 1.862091e+01 1.491615e+01 1.491571e+00 2.673938e-01 4.866149e-01 8.965642e-01 1.309385e+00 2.110306e+00 1.651638e+00 1.602798e+00 1.249562e+00 1.214221e+00 1.204906e+00 1.177973e+00 1.023273e+00 7.932702e-02 3.888186e-02 6.514230e-02 1.378328e-01 1.468786e-01 2.331636e-01 1.805116e-01 2.655315e-01 1.923509e-01 1.854421e-01 1.735449e-01 1.976760e-01 1.825049e-01 5.796717e-03
<GCONST> 7.239739e+01
<TRANSP> 5
 0.000000e+00 1.000000e+00 0.000000e+00 0.000000e+00 0.000000e+00
 0.000000e+00 7.186266e-01 2.813734e-01 0.000000e+00 0.000000e+00
 0.000000e+00 0.000000e+00 8.891478e-01 1.108522e-01 0.000000e+00
 0.000000e+00 0.000000e+00 0.000000e+00 7.504275e-01 2.495725e-01
 0.000000e+00 0.000000e+00 0.000000e+00 0.000000e+00 0.000000e+00
<ENDHMM>
~h "two"
<BEGINHMM>
<NUMSTATES> 5
<STATE> 2
<MEAN> 39
 -1.095723e+01 -3.269387e+00 -6.722227e+00 -1.062464e+01 -9.781153e-01 -3.866436e+00 -1.961602e+00 -7.507628e+00 -2.326243e+00 -5.680355e+00 1.128364e+00 -3.371549e+00 1.506386e+01 5.069750e-01 6.186315e-01 1.014838e+00 -5.888525e-01 -2.664507e-01 -3.647830e-01 -4.634030e-01 -2.130690e-01 7.172386e-02 -5.536753e-02 -2.285815e-01 -3.622480e-01 3.245767e-01 2.969863e-01 6.424714e-02 2.879281e-01 -1.312891e-01 -2.120658e-01 -2.433508e-01 -1.186514e-01 -1.272221e-01 -2.633864e-02 2.748547e-03 -7.912403e-02 -1.703367e-01 9.398345e-02
<VARIANCE> 39
 8.835461e+00 8.091261e+00 1.268604e+01 1.231236e+01 1.844410e+01 2.274601e+01 1.921496e+01 2.112396e+01 2.144359e+01 2.400073e+01 2.472735e+01 1.985423e+01 9.031016e-01 1.367651e+00 5.604585e-01 1.276090e+00 8.303027e-01 1.349072e+00 1.288245e+00 9.891586e-01 1.189972e+00 1.171867e+00 1.294154e+00 1.875513e+00 1.105507e+00 7.280818e-02 1.264420e-01 1.093961e-01 1.343213e-01 1.308057e-01 2.277202e-01 1.980838e-01 1.761197e-01 2.234431e-01 2.275112e-01 2.033242e-01 3.598716e-01 1.595395e-01 7.837914e-03
<GCONST> 7.897839e+01
<STATE> 3
<MEAN> 39
 -4.601826e+00 1.269724e+00 1.860964e+00 -1.552089e+01 -6.951447e+00 -9.943298e+00 -6.701020e+00 -1.043952e+01 -2.408114e+00 -5.176673e+00 -1.124450e+00 -7.307088e+00 1.840679e+01 6.637276e-01 5.436624e-01 7.426704e-01 -5.413597e-01 -1.162907e+00 -1.105832e+00 -5.670096e-01 -2.813360e-01 -6.589685e-02 1.260080e-01 -2.156728e-01 -6.238978e-01 4.514408e-01 -2.501500e-01 -2.350355e-01 -4.262459e-01 2.989877e-01 2.728849e-01 2.325175e-01 2.358769e-01 1.461083e-01 -1.897474e-02 -9.837002e-03 1.532780e-01 1.828582e-01 -1.451032e-01
<VARIANCE> 39
 7.462751e+00 8.106060e+00 1.363384e+01 2.232756e+01 3.964314e+01 2.561131e+01 2.821869e+01 2.453434e+01 3.158125e+01 5.527678e+01 4.393134e+01 4.851734e+01 1.036566e+00 5.676787e-01 6.281117e-01 9.859247e-01 1.463992e+00 1.293279e+00 1.206071e+00 1.681366e+00 1.515866e+00 1.844860e+00 1.989533e+00 2.390456e+00 1.875302e+00 8.954066e-02 6.150047e-02 5.349518e-02 8.131404e-02 1.250132e-01 2.044871e-01 1.805251e-01 2.040811e-01 1.910030e-01 2.121139e-01 2.734953e-01 2.892013e-01 2.222035e-01 6.519948e-03
<GCONST> 8.375562e+01
<STATE> 4
<MEAN> 39
 -3.233570e+00 -5.753062e-02 -4.422959e-02 -1.366150e+01 -7.121885e+00 -1.157396e+01 -5.646012e+00 -9.636168e+00 -2.711334e+00 -5.308158e+00 -1.580639e-01 -7.597460e+00 1.823958e+01 1.668540e-01 -2.230994e-01 -2.386535e-01 5.386218e-01 3.372535e-01 8.602518e-02 9.880180e-02 -5.500304e-02 -1.923341e-01 -8.645776e-02 7.777538e-02 1.595207e-01 -1.201143e-01 -4.358304e-02 -3.793032e-02 -2.656065e-02 2.437418e-02 9.553906e-02 1.093578e-01 5.192419e-02 5.050811e-03 2.018681e-02 1.267294e-03 -5.765702e-03 4.453170e-02 -3.520926e-02
<VARIANCE> 39
 5.895903e+00 7.956478e+00 1.253947e+01 2.982036e+01 3.400568e+01 2.156783e+01 3.316040e+01 3.370533e+01 3.984588e+01 4.293627e+01 5.472644e+01 4.155911e+01 1.359861e+00 1.337050e-01 1.530489e-01 3.769176e-01 6.211261e-01 9.132162e-01 8.561973e-01 8.809462e-01 1.029127e+00 9.043386e-01 9.879882e-01 1.045924e+00 9.315599e-01 1.452670e-02 2.162930e-02 2.515700e-02 5.074660e-02 8.854733e-02 1.056860e-01 1.240919e-01 1.292926e-01 1.602353e-01 1.488004e-01 1.527096e-01 1.592814e-01 1.459080e-01 2.344282e-03
<GCONST> 6.575803e+01
<TRANSP> 5
 0.000000e+00 1.000000e+00 0.000000e+00 0.000000e+00 0.000000e+00
 0.000000e+00 8.205674e-01 1.794326e-01 0.000000e+00 0.000000e+00
 0.000000e+00 0.000000e+00 7.671069e-01 2.328931e-01 0.000000e+00
 0.000000e+00 0.000000e+00 0.000000e+00 9.014161e-01 9.858397e-02
 0.000000e+00 0.000000e+00 0.000000e+00 0.000000e+00 0.000000e+00
<ENDHMM>
~h "nine"
<BEGINHMM>
<NUMSTATES> 5
<STATE> 2
<MEAN> 39
 -4.469906e+00 -4.321565e+00 -2.080906e+00 -8.923497e+00 -3.035153e+00 -6.192643e+00 -1.516227e+00 -1.117485e+01 -5.008143e+00 -8.078501e+00 -2.946741e+00 -7.809573e+00 1.756796e+01 -1.372897e-01 -6.731288e-01 -2.215166e-01 4.957957e-01 -4.930921e-01 1.731224e-01 3.881326e-01 -1.973393e-01 -3.949092e-02 -1.524321e-01 -1.780566e-01 -1.448621e-01 2.491440e-01 -3.838397e-02 -1.262376e-01 -7.485627e-02 1.145502e-01 1.832585e-02 -6.617478e-03 3.853105e-02 3.136205e-02 9.746720e-03 6.332885e-03 7.991055e-02 3.484482e-02 -1.055430e-02
<VARIANCE> 39
 8.940574e+00 2.038055e+01 1.533155e+01 1.683501e+01 2.863046e+01 2.886853e+01 3.201429e+01 2.750875e+01 4.720547e+01 3.538967e+01 3.016332e+01 3.277612e+01 2.304934e+00 5.318605e-01 1.578698e+00 1.145010e+00 1.117498e+00 1.137610e+00 1.424468e+00 1.645558e+00 1.277688e+00 1.528883e+00 1.154333e+00 1.245940e+00 1.038490e+00 3.757518e-02 6.493104e-02 1.814191e-01 1.346298e-01 1.401155e-01 2.019976e-01 2.218631e-01 2.431380e-01 1.863353e-01 1.997627e-01 1.612389e-01 1.738875e-01 1.449610e-01 4.941185e-03
<GCONST> 8.289018e+01
<STATE> 3
<MEAN> 39
 -6.290566e+00 -1.167306e+01 -4.987266e+00 -2.493038e+00 -5.655557e+00 -5.431788e+00 1.785276e+00 -1.126510e+01 -5.679029e+00 -9.068594e+00 -1.604747e+00 -7.685183e+00 1.862176e+01 -1.082527e-01 6.583118e-02 2.330335e-01 -2.053813e-01 -4.690055e-02 2.054612e-01 -7.337220e-02 -1.009371e-01 1.716950e-01 6.971399e-02 -3.999153e-02 3.043631e-02 -1.979931e-02 -2.994843e-03 1.878696e-01 7.742062e-02 -2.486251e-01 3.303092e-02 8.099413e-02 -1.012078e-01 -1.942581e-03 8.307820e-02 -5.385147e-03 -7.942645e-02 2.507180e-02 -1.439779e-02
<VARIANCE> 39
 7.197956e+00 8.451441e+00 2.463050e+01 3.136901e+01 1.880456e+01 3.042554e+01 3.088251e+01 3.410215e+01 4.310460e+01 4.184170e+01 2.805862e+01 3.031912e+01 1.011870e+00 8.114880e-02 3.212550e-01 4.020863e-01 1.031948e+00 4.633686e-01 6.109864e-01 5.231906e-01 4.996113e-01 6.120603e-01 6.482452e-01 6.582701e-01 5.176327e-01 4.580935e-03 1.054555e-02 2.931904e-02 3.925500e-02 5.256474e-02 6.928663e-02 6.526732e-02 7.263265e-02 7.667577e-02 7.950120e-02 8.554791e-02 7.633969e-02 7.776321e-02 3.924951e-04
<GCONST> 5.266779e+01
<STATE> 4
<MEAN> 39
 -6.219074e+00 -3.174259e+00 -1.624642e+00 -1.203683e+01 -1.903440e+00 -4.490020e+00 -3.313768e+00 -1.019642e+01 -2.792457e+00 -8.219698e+00 -3.087966e+00 -6.512142e+00 1.789945e+01 3.931888e-01 8.494539e-01 1.535878e-01 -3.097309e-01 5.439091e-01 -4.755188e-01 -4.737423e-01 3.274440e-01 -1.991161e-01 5.493696e-02 9.749295e-02 5.330036e-02 -1.226696e-01 4.360187e-02 -1.235525e-01 -3.720504e-02 2.354944e-01 -1.477765e-02 -7.305153e-02 1.047246e-01 -3.502619e-02 -1.089260e-01 2.563796e-02 7.956342e-02 -2.933687e-02 -1.026829e-02
<VARIANCE> 39
 1.145213e+01 2.010709e+01 1.220158e+01 2.401980e+01 3.582359e+01 3.414813e+01 3.366225e+01 2.992071e+01 4.905689e+01 3.961974e+01 3.857119e+01 4.244826e+01 1.076298e+00 4.062218e-01 9.275013e-01 5.741652e-01 1.873550e+00 1.354166e+00 1.383232e+00 1.360790e+00 1.284852e+00 1.675379e+00 1.184711e+00 1.059363e+00 1.024052e+00 9.887194e-03 5.705373e-02 9.913605e-02 8.654370e-02 1.494437e-01 1.941824e-01 2.405197e-01 1.805330e-01 1.979202e-01 2.316186e-01 1.955611e-01 1.707170e-01 1.415314e-01 1.008633e-03
<GCONST> 7.866615e+01
<TRANSP> 5
 0.000000e+00 1.000000e+00 0.000000e+00 0.000000e+00 0.000000e+00
 0.000000e+00 8.954947e-01 1.045054e-01 0.000000e+00 0.000000e+00
 0.000000e+00 0.000000e+00 9.109145e-01 8.908553e-02 0.000000e+00
 0.000000e+00 0.000000e+00 0.000000e+00 8.981013e-01 1.018987e-01
 0.000000e+00 0.000000e+00 0.000000e+00 0.000000e+00 0.000000e+00
<ENDHMM>
~h "five"
<BEGINHMM>
<NUMSTATES> 5
<STATE> 2
<MEAN> 39
 -4.179232e+00 -1.134137e+01 -1.006647e+01 -8.263083e+00 4.869013e-01 -8.132596e+00 3.467134e-01 -4.674735e+00 -5.246488e+00 -7.947285e+00 -1.817900e+00 -4.905334e+00 1.797534e+01 3.623103e-01 -1.175236e+00 -7.173359e-01 7.823036e-01 5.140879e-01 -6.410570e-01 3.322461e-01 4.002329e-01 -7.479928e-01 -2.213386e-01 -3.006858e-01 -5.263700e-03 5.643899e-01 -1.908666e-01 2.484802e-02 1.748965e-01 9.175994e-02 -1.340243e-02 1.042442e-01 3.001116e-02 -2.036584e-01 2.553415e-02 1.383833e-01 1.592398e-01 4.969297e-02 -7.403368e-02
<VARIANCE> 39
 1.085832e+01 1.966003e+01 2.370781e+01 1.674579e+01 1.900213e+01 2.061220e+01 2.526674e+01 5.152567e+01 3.221381e+01 2.802787e+01 2.497536e+01 1.990481e+01 4.369547e+00 7.731431e-01 5.612516e-01 1.172159e+00 9.070262e-01 7.891782e-01 9.864485e-01 9.741142e-01 2.246593e+00 1.725259e+00 1.724519e+00 1.363427e+00 1.026869e+00 1.227597e-01 9.461039e-02 1.335677e-01 1.780469e-01 1.234613e-01 1.362203e-01 1.447428e-01 1.544398e-01 3.007968e-01 2.737564e-01 1.932940e-01 1.760031e-01 1.403598e-01 2.820536e-02
<GCONST> 8.435194e+01
<STATE> 3
<MEAN> 39
 -5.809411e+00 -1.545246e+01 -8.556277e+00 -3.643810e+00 1.425965e+00 -9.175303e+00 2.534804e+00 -7.496742e+00 -7.217827e+00 -5.455470e+00 -4.664123e-01 -4.503230e+00 1.904694e+01 -1.661279e-01 8.369963e-02 4.906838e-01 -2.574593e-01 -2.713436e-01 4.343282e-01 6.884925e-02 -3.989126e-01 2.709492e-02 3.039147e-01 6.114065e-02 -8.455858e-02 -4.852794e-02 4.020948e-02 1.144369e-01 1.144376e-02 -1.967201e-01 -5.496044e-02 9.328750e-02 -2.900744e-02 2.469637e-02 5.654276e-02 -4.898762e-02 -7.773665e-02 -1.875615e-02 -1.498905e-02
<VARIANCE> 39
 9.174264e+00 9.379594e+00 2.484612e+01 2.081406e+01 1.875036e+01 2.311762e+01 1.751858e+01 3.905664e+01 4.700791e+01 4.450288e+01 2.689172e+01 2.552027e+01 1.356918e+00 8.788616e-02 1.530737e-01 2.696547e-01 6.340096e-01 4.960005e-01 5.514405e-01 4.976463e-01 4.933073e-01 6.132753e-01 5.706992e-01 5.685378e-01 4.732454e-01 5.857612e-03 1.174302e-02 2.421193e-02 3.031124e-02 4.809546e-02 5.121088e-02 5.160543e-02 5.703568e-02 6.415792e-02 8.528727e-02 8.423899e-02 6.651346e-02 7.042499e-02 9.078502e-04
<GCONST> 4.963806e+01
<STATE> 4
<MEAN> 39
 -5.752875e+00 -9.410489e+00 -3.941758e+00 -1.391097e+01 -3.280411e+00 -2.813085e+00 1.870204e+00 -8.422952e+00 -4.205426e+00 -5.238800e+00 -2.266263e+00 -5.520187e+00 1.830241e+01 2.170274e-01 1.206875e+00 3.703561e-01 -6.420770e-01 -3.923810e-01 -1.025948e-01 -3.101342e-01 2.567652e-01 5.542941e-01 -2.123842e-01 -7.218884e-02 -8.905545e-02 -2.459428e-01 -1.744229e-02 -2.157566e-02 -5.267889e-02 3.437367e-01 1.402472e-01 -1.803489e-01 -6.279376e-02 -1.002494e-02 -4.287725e-02 1.678311e-02 1.216075e-01 3.982560e-02 -4.834912e-02
<VARIANCE> 39
 7.867704e+00 2.309130e+01 1.220947e+01 3.191703e+01 4.212074e+01 1.957148e+01 2.462902e+01 3.666292e+01 5.312543e+01 2.795824e+01 2.708206e+01 3.009117e+01 1.837026e+00 2.146097e-01 4.985859e-01 5.736955e-01 2.637143e+00 1.470776e+00 1.621044e+00 9.744049e-01 1.331103e+00 1.638547e+00 1.337526e+00 1.268728e+00 9.162179e-01 4.135378e-02 4.304171e-02 9.685002e-02 7.582647e-02 2.403186e-01 2.361788e-01 2.300055e-01 1.663309e-01 2.294411e-01 2.225758e-01 1.790784e-01 2.066410e-01 1.646879e-01 4.442768e-03
<GCONST> 8.035399e+01
<TRANSP> 5
 0.000000e+00 1.000000e+00 0.000000e+00 0.000000e+00 0.000000e+00
 0.000000e+00 8.481480e-01 1.518520e-01 0.000000e+00 0.000000e+00
 0.000000e+00 0.000000e+00 9.124670e-01 8.753302e-02 0.000000e+00
 0.000000e+00 0.000000e+00 0.000000e+00 8.642141e-01 1.357859e-01
 0.000000e+00 0.000000e+00 0.000000e+00 0.000000e+00 0.000000e+00
<ENDHMM>
~h "four"
<BEGINHMM>
<NUMSTATES> 5
<STATE> 2
<MEAN> 39
 -6.750647e+00 -6.548426e+00 -5.530811e+00 -9.757743e+00 -1.577992e+00 -5.555877e+00 -1.216079e+00 -8.398350e+00 -2.002970e+00 -5.575041e+00 9.729363e-01 -4.272706e+00 1.536016e+01 1.570064e+00 5.367952e-01 -9.033659e-01 -8.584255e-01 -3.063767e-01 -5.348303e-01 -6.944944e-01 -1.922849e-01 1.940607e-01 2.014240e-01 -3.439881e-01 -4.872741e-01 6.438671e-01 3.501742e-01 1.255173e-01 -3.368795e-01 -3.172278e-01 -5.847761e-02 -7.024904e-03 -8.045416e-02 -1.775935e-02 2.281961e-03 5.406138e-02 -7.900790e-02 -1.320953e-01 1.431119e-01
<VARIANCE> 39
 7.600000e+00 5.411027e+00 5.413105e+00 7.830558e+00 1.003354e+01 1.245256e+01 1.450966e+01 1.363815e+01 1.606223e+01 1.350099e+01 1.609170e+01 1.222042e+01 1.727105e+00 5.133393e-01 4.337637e-01 6.020437e-01 7.387933e-01 7.132610e-01 9.068028e-01 7.509506e-01 8.222539e-01 1.016685e+00 1.087031e+00 1.524035e+00 1.227457e+00 5.783962e-02 6.779076e-02 5.343838e-02 6.065234e-02 8.255895e-02 1.013022e-01 1.526054e-01 1.211974e-01 1.516418e-01 1.398966e-01 1.608806e-01 1.994305e-01 1.872018e-01 7.157465e-03
<GCONST> 6.400449e+01
<STATE> 3
<MEAN> 39
 1.596460e+00 -3.480293e+00 -1.216672e+01 -1.704959e+01 -4.000822e+00 -6.177300e+00 -3.167118e+00 -8.953111e+00 -1.398887e+00 -3.856062e+00 4.295732e-01 -6.775848e+00 1.891430e+01 3.037449e-01 -1.867425e-01 -3.246979e-01 -3.696636e-02 7.410800e-02 -1.814420e-02 -2.192196e-01 1.749561e-01 3.532381e-01 9.303082e-02 -2.296784e-01 -2.201726e-01 1.428507e-01 -1.735046e-01 -1.542054e-01 1.499160e-01 2.361271e-01 3.834964e-02 -3.653082e-02 3.799685e-02 1.109193e-01 4.730698e-02 -8.559052e-02 -5.580752e-02 5.674301e-02 -6.754494e-02
<VARIANCE> 39
 4.139238e+00 1.026525e+01 9.599489e+00 1.373079e+01 2.439407e+01 1.715055e+01 1.857318e+01 1.714553e+01 2.362427e+01 2.482029e+01 3.809560e+01 3.757016e+01 1.087383e+00 5.221615e-01 7.270837e-01 6.851732e-01 1.213718e+00 9.697918e-01 7.717759e-01 9.086435e-01 9.567303e-01 1.309271e+00 1.175224e+00 1.338197e+00 1.241915e+00 9.287023e-02 4.949307e-02 4.573293e-02 9.588266e-02 8.014699e-02 1.357990e-01 1.434422e-01 1.560619e-01 1.411964e-01 1.814866e-01 1.920429e-01 1.991489e-01 1.869972e-01 7.208018e-03
<GCONST> 7.251895e+01
<STATE> 4
<MEAN> 39
 -2.657402e-01 -1.131019e+01 -7.978559e+00 -8.561155e+00 -5.377066e+00 -8.945190e+00 -2.202064e+00 -4.231588e+00 6.466796e-01 -7.567090e+00 -3.909501e+00 -7.361864e+00 1.854913e+01 -5.527687e-01 -3.247014e-02 1.188578e+00 5.177665e-01 -5.920311e-01 2.944324e-02 6.832308e-01 -1.587612e-01 -6.805032e-01 -3.919801e-01 1.340681e-01 2.575352e-01 -2.039140e-01 -8.726196e-02 3.020197e-01 6.659073e-04 -2.178901e-01 1.358025e-01 2.154225e-01 1.403751e-02 -2.458198e-01 -1.509950e-01 1.212854e-01 1.773684e-01 3.065744e-02 -5.096840e-02
<VARIANCE> 39
 6.989592e+00 1.431324e+01 2.849568e+01 1.842004e+01 4.718031e+01 3.737687e+01 3.524872e+01 3.891442e+01 4.504245e+01 3.449754e+01 3.468363e+01 3.194216e+01 1.578326e+00 2.193481e-01 1.523453e+00 6.631340e-01 1.663562e+00 2.090563e+00 2.163283e+00 1.565832e+00 2.596868e+00 1.820149e+00 1.725878e+00 1.796207e+00 1.076573e+00 4.095608e-02 2.919974e-02 9.481686e-02 1.878916e-01 1.662567e-01 4.425570e-01 3.014421e-01 3.549940e-01 3.383520e-01 3.790930e-01 2.796670e-01 3.072349e-01 2.166511e-01 3.209500e-03
<GCONST> 8.839803e+01
<TRANSP> 5
 0.000000e+00 1.000000e+00 0.000000e+00 0.000000e+00 0.000000e+00
 0.000000e+00 7.027420e-01 2.972580e-01 0.000000e+00 0.000000e+00
 0.000000e+00 0.000000e+00 9.182550e-01 8.174509e-02 0.000000e+00
 0.000000e+00 0.000000e+00 0.000000e+00 8.713859e-01 1.286141e-01
 0.000000e+00 0.000000e+00 0.000000e+00 0.000000e+00 0.000000e+00
<ENDHMM>
~h "zero"
<BEGINHMM>
<NUMSTATES> 5
<STATE> 2
<MEAN> 39
 -6.854606e+00 -1.899201e+00 -4.588784e+00 -7.678597e+00 -2.511862e+00 -4.668379e+00 -2.829673e+00 -8.906140e+00 -3.636051e+00 -4.171525e+00 1.343444e-01 -4.374617e+00 1.565149e+01 2.806066e-01 1.045115e+00 9.705852e-01 -1.154539e+00 -8.269764e-01 -1.403851e+00 -6.262929e-01 -6.007783e-01 3.208337e-01 3.345722e-01 -1.323790e-01 -2.388002e-01 4.903262e-01 3.806501e-02 9.710592e-02 1.845602e-01 -3.603471e-01 -1.736712e-01 -2.335612e-01 3.114197e-03 -2.396302e-02 1.693021e-01 1.518625e-03 3.099987e-02 -8.993474e-02 9.288102e-02
<VARIANCE> 39
 6.897969e+00 1.045411e+01 1.552962e+01 1.461273e+01 2.097988e+01 2.209348e+01 1.923701e+01 1.977177e+01 2.956923e+01 2.443874e+01 2.237004e+01 1.990569e+01 1.479720e+00 3.156196e-01 4.248384e-01 7.567325e-01 9.351793e-01 8.451219e-01 1.288414e+00 9.700052e-01 1.180327e+00 1.340847e+00 9.783176e-01 1.203714e+00 1.527608e+00 4.252023e-02 4.659155e-02 1.027072e-01 1.271746e-01 1.079785e-01 1.311856e-01 2.169601e-01 1.590097e-01 1.926953e-01 1.620947e-01 1.501367e-01 1.803366e-01 1.680648e-01 6.422086e-03
<GCONST> 7.318667e+01
<STATE> 3
<MEAN> 39
 -5.561418e+00 3.170131e-01 9.435920e-01 -1.693427e+01 -7.856014e+00 -9.191668e+00 -4.572953e+00 -8.444883e+00 1.727646e-01 -3.747666e+00 1.709205e-01 -6.829955e+00 1.840692e+01 3.373537e-01 -7.419038e-01 4.423557e-01 -1.720161e-01 -1.080067e+00 2.622541e-01 2.048478e-01 1.947828e-01 3.211351e-01 -7.715742e-02 4.336066e-02 -1.248816e-01 1.665203e-01 5.146725e-02 -2.691473e-01 -1.736227e-01 3.716093e-01 1.644266e-02 1.357973e-01 1.949433e-01 5.559668e-02 -8.655880e-02 -4.436345e-02 -1.243987e-02 7.145732e-02 -6.442814e-02
<VARIANCE> 39
 7.430076e+00 2.060307e+01 1.739131e+01 2.628988e+01 5.927115e+01 4.049125e+01 3.221674e+01 4.420846e+01 3.111701e+01 3.033484e+01 3.453296e+01 5.111652e+01 1.093746e+00 4.425122e-01 1.627827e+00 8.040887e-01 2.616041e+00 1.742095e+00 2.530290e+00 1.684800e+00 1.421189e+00 1.341290e+00 1.178562e+00 1.107616e+00 1.320916e+00 6.308292e-02 5.152417e-02 1.128659e-01 1.260557e-01 1.802912e-01 2.453495e-01 4.090396e-01 2.257562e-01 2.479049e-01 2.121046e-01 1.746765e-01 1.724584e-01 2.174474e-01 4.556202e-03
<GCONST> 8.705728e+01
<STATE> 4
<MEAN> 39
 -1.604714e+00 -1.051351e+01 -4.388713e+00 -9.816692e+00 -9.687939e+00 -8.037325e+00 5.593259e-01 -4.106077e+00 -1.749586e-01 -6.699214e+00 -1.003774e+00 -5.666505e+00 1.854242e+01 8.301168e-02 1.074800e-02 -5.496563e-01 1.637000e-01 6.661587e-01 -1.770628e-01 -1.618272e-02 2.073546e-01 -6.439030e-02 -1.487633e-01 -9.266809e-02 -7.444966e-03 -5.363621e-02 -5.978518e-02 1.431874e-01 6.299242e-02 -8.618859e-02 8.705951e-02 4.102240e-02 -9.758694e-02 -8.203132e-02 -2.056367e-02 3.423485e-02 2.040816e-02 -8.783561e-03 -1.775473e-02
<VARIANCE> 39
 6.464993e+00 1.774172e+01 2.653304e+01 2.680278e+01 6.271205e+01 5.437696e+01 3.558112e+01 3.644135e+01 4.418931e+01 3.497027e+01 2.490707e+01 3.291828e+01 1.494677e+00 2.247562e-01 8.381487e-01 6.305209e-01 1.038378e+00 1.227769e+00 1.669840e+00 1.529606e+00 1.766627e+00 1.573403e+00 1.377177e+00 1.023330e+00 9.265472e-01 1.576540e-02 2.390976e-02 3.501680e-02 7.642929e-02 1.110396e-01 1.911826e-01 2.326928e-01 1.870201e-01 1.959430e-01 2.165307e-01 1.823139e-01 1.466803e-01 1.334452e-01 1.766512e-03
<GCONST> 7.715372e+01
<TRANSP> 5
 0.000000e+00 1.000000e+00 0.000000e+00 0.000000e+00 0.000000e+00
 0.000000e+00 7.340037e-01 2.659963e-01 0.000000e+00 0.000000e+00
 0.000000e+00 0.000000e+00 8.922415e-01 1.077585e-01 0.000000e+00
 0.000000e+00 0.000000e+00 0.000000e+00 9.397877e-01 6.021229e-02
 0.000000e+00 0.000000e+00 0.000000e+00 0.000000e+00 0.000000e+00
<ENDHMM>
