~o
<STREAMINFO> 1 39
<VECSIZE> 39<NULLD><MFCC_E_D_A><DIAGC>
~h "eight"
<BEGINHMM>
<NUMSTATES> 5
<STATE> 2
<MEAN> 39
 -7.524508e+00 -3.424390e+00 -5.693463e+00 -1.668218e+01 -6.473672e-01 -5.183011e+00 5.465125e-01 -6.746079e+00 -1.554363e+00 -6.763570e+00 -1.027669e+00 -5.331696e+00 1.714931e+01 -1.899784e-01 7.575684e-01 -8.185272e-02 -7.813630e-01 3.920804e-02 -4.147068e-01 5.492566e-02 2.967549e-01 3.011733e-01 4.564618e-02 -9.444313e-02 -9.566733e-02 2.139844e-01 3.509879e-02 8.251743e-02 1.093774e-02 8.968063e-02 -4.103297e-02 -1.680658e-01 -8.082700e-02 -2.288210e-02 2.703112e-02 6.061389e-02 5.859752e-02 -4.563428e-03 3.454639e-03
<VARIANCE> 39
 1.075556e+01 2.306161e+01 1.836052e+01 3.944759e+01 4.045744e+01 2.353942e+01 2.441887e+01 2.433727e+01 3.137263e+01 2.546920e+01 2.575863e+01 2.447226e+01 3.380857e+00 3.360929e-01 9.650631e-01 6.847007e-01 1.411215e+00 1.254007e+00 1.634356e+00 1.348119e+00 1.128136e+00 1.374327e+00 1.216756e+00 1.140149e+00 1.007728e+00 1.229665e-01 4.082717e-02 8.492219e-02 8.461776e-02 2.011235e-01 1.478546e-01 1.778238e-01 1.529619e-01 1.814221e-01 2.320934e-01 1.694983e-01 1.833479e-01 1.573063e-01 1.323939e-02
<GCONST> 8.183701e+01
<STATE> 3
<MEAN> 39
 -7.935159e+00 5.476221e+00 -4.908386e+00 -1.664655e+01 -2.357314e+00 -1.441992e+01 -3.035750e+00 -8.591511e+00 -1.333641e+00 -4.426722e+00 9.898977e-01 -5.286989e+00 1.807278e+01 2.038593e-01 -4.292185e-01 1.808204e-01 9.721522e-01 1.361802e-01 6.952736e-02 -3.419480e-01 -6.695080e-01 -5.149328e-01 -4.124754e-02 2.099850e-01 1.946279e-01 -2.363728e-01 1.020498e-02 -3.329140e-01 -3.044911e-02 6.391705e-02 4.254442e-02 3.533004e-01 1.234447e-01 5.590142e-02 -2.345451e-02 -9.195371e-02 -6.260327e-02 3.897822e-03 -6.257521e-02
<VARIANCE> 39
 9.284651e+00 1.350798e+01 2.250638e+01 3.248392e+01 1.967570e+01 2.420395e+01 5.254236e+01 3.437973e+01 4.415916e+01 2.637482e+01 3.191351e+01 2.703376e+01 1.959928e+00 2.642247e-01 1.895666e+00 4.088446e-01 7.646969e-01 7.867908e-01 2.502113e+00 1.307395e+00 1.116837e+00 1.804293e+00 1.195049e+00 1.398723e+00 1.008729e+00 6.758578e-02 3.641564e-02 9.030235e-02 5.905073e-02 1.265693e-01 9.250650e-02 1.744932e-01 1.630105e-01 2.078766e-01 2.768069e-01 1.690534e-01 1.958946e-01 1.643122e-01 4.024182e-03
<GCONST> 7.874332e+01
<STATE> 4
<MEAN> 39
 -7.116774e+00 -6.541090e+00 -5.514893e+00 -1.004293e+01 -1.215377e+00 -4.682448e+00 -8.409236e-01 -8.921476e+00 -3.019653e+00 -5.935839e+00 9.428639e-01 -4.004983e+00 1.468661e+01 -7.179990e-02 -3.660342e-01 -1.176293e-01 1.204196e-01 -4.112436e-02 3.696016e-01 1.855370e-01 1.810009e-01 1.167371e-01 8.800512e-03 1.649207e-02 9.387411e-03 -9.300274e-02 -5.684027e-03 1.757349e-01 1.040057e-02 -6.683949e-02 -1.211807e-02 -1.464316e-01 -4.599122e-02 -1.504116e-02 -6.333157e-03 2.179253e-02 -5.187098e-03 -1.391463e-02 4.871780e-02
<VARIANCE> 39
 4.560890e+00 6.159013e+00 8.314734e+00 9.574137e+00 1.262565e+01 1.589411e+01 1.697640e+01 1.696683e+01 1.732061e+01 1.627314e+01 1.523354e+01 1.399441e+01 1.034498e+00 2.099285e-01 8.405070e-01 4.288101e-01 5.955160e-01 4.862421e-01 1.170431e+00 9.931128e-01 8.546656e-01 9.812894e-01 7.909719e-01 7.432447e-01 7.057009e-01 4.874086e-02 3.459987e-02 9.647750e-02 7.128564e-02 1.091525e-01 9.177083e-02 1.887651e-01 1.756937e-01 1.504275e-01 1.623772e-01 1.354733e-01 1.324257e-01 1.272725e-01 4.818435e-03
<GCONST> 6.216193e+01
<TRANSP> 5
 0.000000e+00 1.000000e+00 0.000000e+00 0.000000e+00 0.000000e+00
 0.000000e+00 9.121984e-01 8.780167e-02 0.000000e+00 0.000000e+00
 0.000000e+00 0.000000e+00 8.976137e-01 1.023863e-01 0.000000e+00
 0.000000e+00 0.000000e+00 0.000000e+00 9.213890e-01 7.861102e-02
 0.000000e+00 0.000000e+00 0.000000e+00 0.000000e+00 0.000000e+00
<ENDHMM>
~h "oh"
<BEGINHMM>
<NUMSTATES> 5
<STATE> 2
<MEAN> 39
 -5.072901e+00 -9.817551e+00 -7.833392e+00 -8.759851e+00 -2.347719e+00 -7.078445e+00 2.847766e+00 -7.616865e+00 -4.773020e+00 -6.878160e+00 -1.687987e+00 -4.955319e+00 1.721408e+01 4.015629e-01 -2.821469e-01 -5.485510e-01 2.171535e-01 1.401620e-01 -4.945757e-01 2.322857e-01 5.781067e-01 -1.037464e-01 -3.932631e-01 -3.404457e-01 -6.349867e-02 2.903837e-01 6.013391e-02 8.892432e-02 -1.210206e-02 -5.544915e-02 1.547183e-02 -6.012370e-02 -1.276607e-01 1.861780e-02 1.092563e-01 1.495362e-03 -5.272206e-02 -5.050195e-02 1.424327e-02
<VARIANCE> 39
 8.382337e+00 1.228216e+01 1.538581e+01 1.591973e+01 2.185694e+01 2.340165e+01 2.846187e+01 5.757678e+01 3.748623e+01 3.054219e+01 2.663995e+01 2.711329e+01 3.812015e+00 4.045005e-01 5.595030e-01 6.603146e-01 6.405971e-01 7.460970e-01 1.180167e+00 1.235327e+00 1.815305e+00 1.533160e+00 1.309643e+00 1.311772e+00 1.082001e+00 1.254152e-01 4.813059e-02 7.023255e-02 8.521713e-02 8.555437e-02 1.118069e-01 1.482320e-01 1.609970e-01 2.226752e-01 2.095433e-01 1.953585e-01 2.000356e-01 1.548817e-01 1.713553e-02
<GCONST> 7.894444e+01
<STATE> 3
<MEAN> 39
 -4.965889e-01 -8.085540e+00 -1.303811e+01 -1.018381e+01 -8.909616e-01 -1.201037e+01 -8.892729e-01 -1.284819e+00 1.939480e-01 -7.884229e+00 -5.009693e+00 -6.855109e+00 1.903839e+01 2.239057e-01 4.083363e-01 -6.296874e-03 -3.375480e-01 -6.151163e-02 -1.964302e-02 -6.569701e-01 -2.515082e-01 6.164207e-01 5.838735e-01 3.179204e-02 -3.234839e-01 -1.058230e-02 -4.688048e-02 2.213224e-02 1.000648e-01 -1.013971e-02 -5.009495e-02 8.897667e-02 1.630427e-02 -1.447867e-01 -8.520490e-02 7.581743e-02 1.148443e-01 2.391997e-02 -2.662401e-02
<VARIANCE> 39
 6.028925e+00 9.347431e+00 1.555830e+01 1.589690e+01 1.975413e+01 2.333688e+01 4.428244e+01 3.314375e+01 4.055776e+01 3.755731e+01 3.123157e+01 3.914725e+01 1.183737e+00 8.543301e-02 1.427008e-01 2.976741e-01 2.936644e-01 3.913107e-01 5.535876e-01 7.245911e-01 1.116328e+00 7.998093e-01 8.947290e-01 8.656572e-01 6.944243e-01 1.391790e-02 1.175630e-02 1.537125e-02 3.537060e-02 3.572029e-02 4.852983e-02 7.178199e-02 8.156184e-02 1.012438e-01 1.109303e-01 1.075004e-01 9.628425e-02 9.289283e-02 1.245798e-03
<GCONST> 5.396382e+01
<STATE> 4
<MEAN> 39
 -7.418892e-01 -3.730212e+00 -8.383251e+00 -1.248791e+01 -3.622041e+00 -9.300076e+00 -4.000083e+00 -8.066710e+00 -2.980041e-01 -3.366300e+00 3.569993e-01 -6.248621e+00 1.795414e+01 -5.069113e-01 1.202927e-01 7.349982e-01 2.727223e-01 1.214665e-02 5.559343e-01 3.365086e-01 -4.405175e-01 -5.363604e-01 -1.885796e-01 3.968829e-01 4.349158e-01 -2.802342e-01 -1.126493e-01 -1.140007e-01 -2.908328e-02 7.595041e-02 9.950841e-02 8.985568e-02 1.345859e-01 9.031349e-02 -3.953272e-02 -1.066682e-01 -6.855793e-02 5.314909e-02 -3.464143e-02
<VARIANCE> 39
 9.361651e+00 7.810284e+00 2.079547e+01 1.825484e+01 1.941328e+01 2.692002e+01 3.110319e+01 2.683563e+01 3.199009e+01 4.008401e+01 3.906099e+01 3.790212e+01 2.412538e+00 3.826960e-01 4.593674e-01 5.507391e-01 6.217657e-01 8.842425e-01 1.264744e+00 1.251876e+00 1.298660e+00 1.305794e+00 1.263458e+00 1.279158e+00 1.245756e+00 5.453482e-02 3.299642e-02 4.469877e-02 8.896719e-02 8.728219e-02 1.096999e-01 1.661356e-01 1.871834e-01 1.997290e-01 2.127146e-01 2.068775e-01 1.755922e-01 1.748505e-01 4.195027e-03
<GCONST> 7.532753e+01
<TRANSP> 5
 0.000000e+00 1.000000e+00 0.000000e+00 0.000000e+00 0.000000e+00
 0.000000e+00 9.027604e-01 9.723952e-02 0.000000e+00 0.000000e+00
 0.000000e+00 0.000000e+00 9.042476e-01 9.575249e-02 0.000000e+00
 0.000000e+00 0.000000e+00 0.000000e+00 8.838441e-01 1.161559e-01
 0.000000e+00 0.000000e+00 0.000000e+00 0.000000e+00 0.000000e+00
<ENDHMM>
~h "seven"
<BEGINHMM>
<NUMSTATES> 5
<STATE> 2
<MEAN> 39
 -8.806659e+00 -4.769291e+00 -7.050041e+00 -8.596656e+00 -2.107405e+00 -3.131427e+00 -1.276504e+00 -8.136149e+00 -2.909431e+00 -5.214488e+00 6.799163e-01 -3.793392e+00 1.484347e+01 4.741356e-02 -4.084769e-02 -4.356965e-02 -3.257007e-01 -2.671293e-01 -1.353381e-01 2.667636e-01 1.513720e-02 1.375789e-01 -7.717463e-04 -2.047779e-01 -6.332638e-02 1.080897e-01 1.303994e-01 9.205292e-03 8.983146e-02 -1.476361e-01 -1.309365e-01 -1.120215e-01 8.733038e-02 -1.238460e-02 2.002466e-02 -2.644463e-02 -8.712211e-02 -9.269827e-02 9.199318e-02
<VARIANCE> 39
 8.339896e+00 1.013034e+01 1.380073e+01 1.310768e+01 1.612597e+01 1.581999e+01 1.759683e+01 1.745254e+01 1.826357e+01 1.723362e+01 1.706739e+01 1.463344e+01 9.047251e-01 7.144103e-01 4.608462e-01 8.613397e-01 9.991075e-01 9.701355e-01 1.283293e+00 9.959636e-01 8.575966e-01 1.029544e+00 1.155905e+00 9.210097e-01 9.517386e-01 1.512423e-01 5.368358e-02 6.783879e-02 9.750170e-02 1.360511e-01 1.662417e-01 1.770659e-01 1.648984e-01 1.456989e-01 1.700097e-01 1.546175e-01 1.450092e-01 1.504832e-01 8.093920e-03
<GCONST> 7.123415e+01
<STATE> 3
<MEAN> 39
 -5.558069e+00 -7.172779e+00 -5.193472e+00 -1.591173e+01 -6.355663e+00 -4.897018e+00 4.772483e+00 -8.474986e+00 -2.770171e+00 -6.761116e+00 -3.975041e+00 -6.626522e+00 1.896182e+01 1.894542e-01 -2.722606e-01 1.233824e-01 3.882973e-02 -6.137251e-02 -1.088023e-01 2.446543e-01 2.681850e-01 -2.807218e-01 -5.543112e-02 -6.964263e-02 -1.107259e-01 1.236357e-01 -4.178029e-02 7.839754e-02 1.111924e-02 2.926452e-01 1.553701e-01 -2.480811e-02 -2.548965e-01 3.867757e-02 -2.091132e-02 1.592010e-02 1.771697e-01 7.159729e-02 -1.270849e-01
<VARIANCE> 39
 9.614643e+00 1.303327e+01 9.436713e+00 1.827780e+01 4.580243e+01 3.937848e+01 3.187665e+01 3.950853e+01 4.652956e+01 5.849221e+01 3.255417e+01 3.130152e+01 1.240815e+00 4.410256e-01 5.954215e-01 4.993331e-01 1.548395e+00 1.671524e+00 1.672649e+00 1.827660e+00 1.089301e+00 1.392673e+00 1.776832e+00 1.809614e+00 1.326400e+00 2.114273e-01 8.204672e-02 9.001186e-02 9.646598e-02 1.114838e-01 2.523417e-01 2.721468e-01 1.781216e-01 1.666777e-01 2.018925e-01 2.407530e-01 2.262370e-01 1.834977e-01 6.062332e-03
<GCONST> 8.474816e+01
<STATE> 4
<MEAN> 39
 -3.244349e+00 -3.881833e+00 -1.891196e+00 -9.521928e+00 -3.365946e+00 -8.015657e+00 -1.088934e+00 -8.732985e+00 -4.324235e+00 -7.120038e+00 -1.906843e+00 -7.105234e+00 1.713246e+01 1.767926e-02 2.205631e-01 1.049584e-01 2.065497e-01 3.193763e-01 1.039581e-01 -2.925244e-01 -2.637319e-01 8.569238e-02 -1.439092e-02 1.277867e-01 4.227484e-02 -1.184141e-01 -5.595624e-02 -7.367346e-02 -7.384586e-02 -8.778097e-02 -2.233501e-02 9.372041e-02 1.106997e-01 -4.595041e-03 1.866088e-02 1.745052e-02 -3.220660e-02 2.023099e-02 1.415747e-02
<VARIANCE> 39
 4.974844e+00 1.019475e+01 9.926649e+00 1.395349e+01 2.822465e+01 3.043308e+01 2.586522e+01 4.089493e+01 3.293278e+01 3.570379e+01 3.328817e+01 2.974870e+01 1.533697e+00 2.533967e-01 5.250485e-01 5.539092e-01 8.538623e-01 1.339951e+00 1.253487e+00 1.628732e+00 1.363169e+00 1.438483e+00 1.411167e+00 1.273556e+00 9.896272e-01 9.358711e-02 3.738621e-02 7.812175e-02 8.698367e-02 1.507712e-01 2.341867e-01 2.027748e-01 2.726183e-01 2.366419e-01 2.360245e-01 2.409595e-01 2.174068e-01 1.500705e-01 1.437074e-02
<GCONST> 7.928006e+01
<TRANSP> 5
 0.000000e+00 1.000000e+00 0.000000e+00 0.000000e+00 0.000000e+00
 0.000000e+00 9.125734e-01 8.742658e-02 0.000000e+00 0.000000e+00
 0.000000e+00 0.000000e+00 9.003661e-01 9.963391e-02 0.000000e+00
 0.000000e+00 0.000000e+00 0.000000e+00 9.365587e-01 6.344123e-02
 0.000000e+00 0.000000e+00 0.000000e+00 0.000000e+00 0.000000e+00
<ENDHMM>
~h "three"
<BEGINHMM>
<NUMSTATES> 5
<STATE> 2
<MEAN> 39
 -7.753122e+00 -6.035288e+00 -4.949151e+00 -1.011979e+01 -8.177058e-01 -4.845857e+00 -5.888192e-01 -8.498262e+00 -2.602023e+00 -5.425553e+00 9.830360e-01 -3.779353e+00 1.488862e+01 1.181881e-01 -8.363333e-02 2.207225e-01 -4.798105e-02 -4.167433e-01 -2.858700e-01 -6.849336e-02 1.494222e-02 7.425340e-02 3.189620e-02 1.360965e-02 4.235572e-04 9.209132e-02 1.742224e-01 2.254319e-02 1.428305e-01 1.954572e-03 -2.577670e-01 -1.755570e-01 -7.574113e-02 -1.877764e-02 1.537802e-02 -9.217636e-03 -3.924690e-02 -7.054780e-02 8.471689e-02
<VARIANCE> 39
 5.400656e+00 6.329541e+00 9.779361e+00 1.060188e+01 1.435535e+01 1.431226e+01 1.606489e+01 1.761142e+01 1.951307e+01 1.776072e+01 1.686065e+01 1.459225e+01 1.170441e+00 7.019876e-01 5.235436e-01 8.963089e-01 7.510070e-01 1.499181e+00 1.312560e+00 9.016329e-01 1.036178e+00 9.999515e-01 9.323015e-01 9.825653e-01 9.153127e-01 1.193065e-01 5.916754e-02 9.076386e-02 9.846713e-02 1.380222e-01 2.011595e-01 1.855365e-01 1.564498e-01 2.030751e-01 1.781604e-01 1.662448e-01 1.641538e-01 1.611109e-01 4.958367e-03
<GCONST> 7.052018e+01
<STATE> 3
<MEAN> 39
 -2.518173e+00 -6.783480e+00 2.449336e+00 -1.140201e+01 -1.369857e+01 -9.363258e+00 -3.152639e+00 -9.428302e+00 -9.441059e-03 -5.130521e+00 1.270196e-01 -5.735050e+00 1.823541e+01 -6.863074e-02 4.227284e-01 6.951656e-01 -1.049856e+00 -3.996154e-01 3.060031e-01 -8.254088e-01 1.096578e-01 3.075996e-01 -2.807283e-02 6.153294e-02 -1.674185e-01 2.367469e-01 -2.156691e-01 2.146433e-01 -2.005235e-01 -1.428075e-01 5.230203e-01 4.711661e-02 -5.940875e-02 1.143421e-01 -1.140737e-01 -2.022868e-02 2.135043e-02 3.956046e-02 -6.774340e-02
<VARIANCE> 39
 6.507219e+00 1.457588e+01 2.008421e+01 4.937742e+01 4.245390e+01 6.100871e+01 3.522945e+01 3.826586e+01 3.064136e+01 2.820663e+01 3.707782e+01 3.334346e+01 1.447082e+00 9.619766e-01 1.476645e+00 9.228839e-01 2.725285e+00 4.895183e+00 3.382448e+00 2.206986e+00 1.969149e+00 1.296638e+00 1.095894e+00 1.152270e+00 1.164591e+00 6.899538e-02 6.798282e-02 1.290739e-01 1.773851e-01 3.907605e-01 3.806303e-01 6.812717e-01 3.772626e-01 2.755106e-01 2.400964e-01 1.746555e-01 1.705915e-01 1.637530e-01 3.908562e-03
<GCONST> 9.265449e+01
<STATE> 4
<MEAN> 39
 -6.590454e+00 3.298087e+00 -7.804635e-01 -1.672920e+01 -2.106684e+00 -1.135586e+01 -6.399065e+00 -7.962283e+00 -3.159532e+00 -5.505678e+00 -3.371437e-01 -6.525813e+00 1.789474e+01 -2.819229e-02 6.325854e-02 -6.391267e-01 7.253248e-01 7.234476e-01 -1.648284e-01 5.492828e-01 -8.269589e-02 -3.564267e-01 1.202258e-02 -7.059474e-02 5.074107e-02 -1.956455e-01 5.814136e-02 -2.881037e-01 2.512347e-03 1.697177e-01 -2.211396e-01 1.819779e-01 1.647714e-01 -6.733990e-02 9.742519e-02 8.239191e-03 2.041908e-02 2.496880e-02 -3.091987e-02
<VARIANCE> 39
 7.580675e+00 1.700882e+01 1.909952e+01 3.484747e+01 2.704666e+01 2.948673e+01 4.823263e+01 4.778393e+01 3.321802e+01 3.976856e+01 4.240097e+01 3.677526e+01 1.619919e+00 3.151275e-01 1.882867e+00 6.700197e-01 1.043692e+00 1.834831e+00 2.559826e+00 1.467104e+00 1.693736e+00 1.384681e+00 1.287910e+00 1.031998e+00 9.705068e-01 3.582560e-02 4.748421e-02 9.098936e-02 9.640111e-02 2.205371e-01 1.814777e-01 2.352760e-01 2.696280e-01 2.497797e-01 1.837018e-01 1.709950e-01 1.443278e-01 1.353069e-01 2.469557e-03
<GCONST> 8.276340e+01
<TRANSP> 5
 0.000000e+00 1.000000e+00 0.000000e+00 0.000000e+00 0.000000e+00
 0.000000e+00 9.016216e-01 9.837839e-02 0.000000e+00 0.000000e+00
 0.000000e+00 0.000000e+00 8.936691e-01 1.063309e-01 0.000000e+00
 0.000000e+00 0.000000e+00 0.000000e+00 9.153358e-01 8.466423e-02
 0.000000e+00 0.000000e+00 0.000000e+00 0.000000e+00 0.000000e+00
<ENDHMM>
~h "one"
<BEGINHMM>
<NUMSTATES> 5
<STATE> 2
<MEAN> 39
 -4.518549e-01 -3.402428e+00 -8.443651e+00 -1.270320e+01 -1.876030e+00 -5.987667e+00 -2.275364e+00 -8.868013e+00 -2.601935e+00 -6.645918e+00 -1.475276e+00 -7.365901e+00 1.769857e+01 2.104557e-01 -3.606630e-01 -7.772642e-01 3.865472e-01 4.274915e-01 9.445027e-02 -2.047814e-01 2.134102e-01 1.819978e-01 -2.418805e-01 -3.084488e-01 -2.085637e-01 1.797156e-01 -1.118945e-01 -1.460855e-01 2.925317e-02 2.153775e-01 1.230509e-02 -9.389339e-02 -2.965377e-03 1.044314e-01 5.172287e-03 -7.579300e-02 2.491400e-03 7.602078e-02 -1.570851e-02
<VARIANCE> 39
 5.495298e+00 8.373553e+00 3.132761e+01 2.276210e+01 2.856126e+01 2.622944e+01 2.260732e+01 2.060495e+01 2.743826e+01 2.315674e+01 3.019592e+01 3.007947e+01 2.038485e+00 4.330964e-01 7.311476e-01 9.485719e-01 2.139232e+00 1.344056e+00 1.365998e+00 1.271956e+00 1.039751e+00 1.139380e+00 9.681469e-01 1.110990e+00 9.685468e-01 5.947252e-02 3.949791e-02 5.501805e-02 1.856186e-01 2.318527e-01 2.499594e-01 2.470975e-01 2.299975e-01 1.749968e-01 1.963308e-01 1.583944e-01 1.854091e-01 1.750225e-01 4.528149e-03
<GCONST> 7.903996e+01
<STATE> 3
<MEAN> 39
 -2.465286e+00 -1.063735e+01 -1.057850e+01 -1.817410e+00 -8.200744e-01 -9.426196e+00 -2.030627e+00 -4.360423e+00 -3.708006e+00 -1.158788e+01 -2.280411e+00 -6.160406e+00 1.852693e+01 -5.923234e-01 -3.131609e-01 1.360696e+00 4.866949e-01 -1.327535e+00 -2.684956e-01 1.139984e+00 -1.564425e-01 -8.913889e-01 -1.481247e-02 5.521511e-01 9.292737e-02 -5.212716e-02 3.155862e-02 3.182424e-01 2.336711e-01 -5.691461e-01 -9.465135e-02 3.615526e-01 5.224911e-02 -4.227878e-01 2.289830e-02 3.597142e-01 2.883790e-02 -1.620386e-01 -2.971607e-02
<VARIANCE> 39
 6.426126e+00 9.765401e+00 1.981236e+01 2.419619e+01 2.886145e+01 1.776504e+01 3.884303e+01 3.255282e+01 4.659313e+01 3.887149e+01 3.430856e+01 3.411194e+01 1.525028e+00 1.633329e-01 5.915405e-01 6.368445e-01 1.980412e+00 7.717460e-01 1.823319e+00 1.053672e+00 2.307931e+00 1.240764e+00 1.946868e+00 1.064947e+00 1.293178e+00 8.978582e-03 2.596518e-02 5.244834e-02 1.077763e-01 1.227835e-01 3.162409e-01 1.590857e-01 4.062928e-01 1.859485e-01 3.426037e-01 2.133645e-01 2.683187e-01 1.720749e-01 8.706981e-04
<GCONST> 7.674011e+01
<STATE> 4
<MEAN> 39
 -3.841053e+00 -4.379944e+00 -1.380739e+00 -8.920156e+00 -3.196510e+00 -6.281964e+00 -2.462246e+00 -1.221222e+01 -5.214399e+00 -8.497405e+00 -2.664878e+00 -8.175254e+00 1.759462e+01 -3.706529e-03 5.639892e-01 2.622152e-01 -4.548371e-01 4.116672e-01 1.698572e-01 -3.735495e-01 -2.332647e-01 1.574902e-01 1.861046e-01 -2.804829e-02 1.649924e-01 -1.759975e-01 -2.108538e-02 -1.171311e-01 -2.145052e-01 1.096497e-01 8.702908e-02 -2.721313e-02 2.047356e-02 1.849857e-01 4.516328e-02 -7.362847e-02 3.749830e-02 8.075676e-02 -1.677391e-02
<VARIANCE> 39
 6.725620e+00 2.077506e+01 9.945972e+00 1.740411e+01 2.093848e+01 4.195438e+01 3.340897e+01 3.282887e+01 4.008374e+01 4.409813e+01 3.259622e+01 3.568633e+01 1.338016e+00 3.443226e-01 1.010748e+00 9.863210e-01 1.216687e+00 8.804812e-01 1.864961e+00 1.353833e+00 1.411767e+00 1.573487e+00 1.478391e+00 1.085030e+00 1.050109e+00 2.735193e-02 5.694145e-02 1.045688e-01 8.382007e-02 1.278458e-01 1.951380e-01 2.806699e-01 2.505183e-01 1.784417e-01 2.218262e-01 2.216867e-01 1.661860e-01 1.590827e-01 2.928905e-03
<GCONST> 7.987252e+01
<TRANSP> 5
 0.000000e+00 1.000000e+00 0.000000e+00 0.000000e+00 0.000000e+00
 0.000000e+00 9.095969e-01 9.040309e-02 0.000000e+00 0.000000e+00
 0.000000e+00 0.000000e+00 8.314310e-01 1.685691e-01 0.000000e+00
 0.000000e+00 0.000000e+00 0.000000e+00 9.086934e-01 9.130652e-02
 0.000000e+00 0.000000e+00 0.000000e+00 0.000000e+00 0.000000e+00
<ENDHMM>
~h "sil"
<BEGINHMM>
<NUMSTATES> 5
<STATE> 2
<MEAN> 39
 -5.629807e+00 -5.381907e+00 -3.959663e+00 -9.043959e+00 -2.191143e-01 -4.181816e+00 -1.412165e-01 -8.546669e+00 -2.497979e+00 -5.830859e+00 5.867156e-01 -4.487288e+00 1.512049e+01 -2.989975e-01 -2.486059e-01 -1.858104e-01 -5.064974e-02 6.949789e-02 1.348458e-01 8.168876e-02 -1.629177e-03 1.417914e-02 1.866186e-02 1.135539e-01 5.824903e-02 -1.518502e-01 2.367334e-02 -7.467170e-03 -3.844143e-02 -6.360248e-02 -7.384255e-02 -6.420795e-02 -4.218524e-02 -1.956391e-03 -3.817361e-03 -6.773235e-03 -1.694313e-02 -5.217449e-03 2.531571e-02
<VARIANCE> 39
 6.970953e+00 8.606628e+00 9.564649e+00 1.168458e+01 1.486916e+01 1.538752e+01 1.765913e+01 1.877579e+01 2.046470e+01 1.954492e+01 1.858340e+01 1.638706e+01 1.209506e+00 1.686645e-01 3.745879e-01 4.430615e-01 5.866088e-01 7.339590e-01 8.284915e-01 8.454927e-01 9.075881e-01 9.109145e-01 8.356434e-01 9.046711e-01 7.998122e-01 2.155240e-02 2.201124e-02 4.568531e-02 6.338204e-02 7.750010e-02 1.032728e-01 1.189163e-01 1.186154e-01 1.276595e-01 1.369548e-01 1.216490e-01 1.281462e-01 1.153788e-01 2.526361e-03
<GCONST> 5.922174e+01
<STATE> 3
<MEAN> 39
 -7.156938e+00 -7.236737e+00 -5.866397e+00 -1.018523e+01 -1.012350e+00 -4.339159e+00 -3.654412e-01 -8.603599e+00 -2.680014e+00 -5.571368e+00 1.005065e+00 -4.037416e+00 1.452098e+01 -3.583681e-03 4.974171e-03 -6.191278e-03 3.802462e-03 1.879980e-03 4.716281e-03 1.255275e-03 -9.876430e-03 -4.555709e-03 1.094680e-02 -2.633458e-04 2.492422e-03 -1.193025e-03 -2.369795e-04 4.887706e-03 2.877403e-03 5.286506e-03 1.316014e-03 2.870600e-03 5.488860e-04 5.853565e-03 2.717993e-03 -8.291514e-04 -4.062789e-03 -3.430582e-03 1.584913e-03
<VARIANCE> 39
 3.027162e+00 3.564776e+00 6.172700e+00 8.254439e+00 1.253747e+01 1.387374e+01 1.474216e+01 1.582844e+01 1.623778e+01 1.398251e+01 1.548318e+01 1.300187e+01 1.028431e+00 5.842888e-02 1.319093e-01 2.563349e-01 3.600298e-01 4.751972e-01 6.449596e-01 6.224140e-01 6.900981e-01 6.643437e-01 5.534223e-01 6.422843e-01 5.676934e-01 2.417413e-03 1.073365e-02 2.426560e-02 4.638889e-02 6.443682e-02 8.854954e-02 1.218526e-01 1.105601e-01 1.289113e-01 1.215520e-01 9.644379e-02 1.150023e-01 1.070998e-01 5.051082e-04
<GCONST> 4.276593e+01
<STATE> 4
<MEAN> 39
 -8.044086e+00 -6.369792e+00 -6.079079e+00 -1.016937e+01 -1.188528e+00 -4.700830e+00 -5.106803e-01 -8.720681e+00 -2.519548e+00 -5.941750e+00 9.985340e-01 -4.417068e+00 1.453678e+01 3.420843e-03 1.545888e-01 2.794006e-02 1.228010e-02 -7.638320e-02 -6.394076e-02 -6.565257e-02 4.921042e-02 -5.532345e-02 -8.986657e-02 -1.027055e-01 -6.833266e-02 4.892008e-02 4.561584e-02 5.645800e-02 2.690455e-02 -6.754804e-03 -2.038717e-03 -2.716609e-02 -1.659478e-02 -1.573677e-02 -1.398982e-02 -1.821158e-02 -3.889835e-02 -1.456843e-02 3.347784e-02
<VARIANCE> 39
 5.361470e+00 5.850737e+00 7.452260e+00 1.031439e+01 1.202343e+01 1.461866e+01 1.655217e+01 1.791408e+01 1.851075e+01 1.737200e+01 1.645254e+01 1.416315e+01 1.276580e+00 2.534423e-01 3.365513e-01 3.772646e-01 5.664126e-01 6.053295e-01 7.375315e-01 7.088122e-01 9.202774e-01 8.939180e-01 7.990541e-01 7.762700e-01 6.718917e-01 2.073161e-02 3.954331e-02 5.724556e-02 6.069197e-02 9.818396e-02 9.287823e-02 1.226494e-01 1.060888e-01 1.502720e-01 1.416596e-01 1.225173e-01 1.118092e-01 9.929937e-02 4.412953e-03
<GCONST> 5.788791e+01
<TRANSP> 5
 0.000000e+00 1.000000e+00 0.000000e+00 0.000000e+00 0.000000e+00
 0.000000e+00 7.692326e-01 2.307673e-01 0.000000e+00 0.000000e+00
 0.000000e+00 0.000000e+00 9.590833e-01 4.091669e-02 0.000000e+00
 0.000000e+00 0.000000e+00 0.000000e+00 7.109296e-01 2.890704e-01
 0.000000e+00 0.000000e+00 0.000000e+00 0.000000e+00 0.000000e+00
<ENDHMM>
~h "six"
<BEGINHMM>
<NUMSTATES> 5
<STATE> 2
<MEAN> 39
 -9.124296e+00 -4.836955e+00 -7.749952e+00 -8.266643e+00 -2.438862e+00 -2.834780e+00 -1.487294e+00 -7.798923e+00 -3.116511e+00 -4.969306e+00 3.618767e-01 -3.493927e+00 1.461232e+01 2.726816e-02 1.591611e-01 1.186007e-01 -3.531407e-01 -3.868252e-01 -2.528180e-01 -1.307312e-02 8.919870e-03 1.418954e-01 1.896523e-01 -1.204973e-01 9.510320e-03 1.277532e-01 1.224182e-01 8.574616e-02 1.920704e-01 -2.156924e-01 -1.443492e-01 -1.911083e-01 -1.348199e-02 -1.142824e-02 4.335956e-02 1.788215e-02 -7.846212e-02 -1.185643e-01 9.579272e-02
<VARIANCE> 39
 5.881865e+00 7.824510e+00 1.145772e+01 1.170150e+01 1.691561e+01 1.670050e+01 1.585942e+01 1.681436e+01 1.957147e+01 2.023767e+01 1.844875e+01 1.536608e+01 1.012899e+00 5.537650e-01 4.715948e-01 1.205765e+00 1.010500e+00 1.007773e+00 1.470712e+00 8.038287e-01 8.137786e-01 1.030871e+00 1.294178e+00 9.459662e-01 9.358541e-01 1.411681e-01 4.636094e-02 5.967519e-02 9.845413e-02 1.366897e-01 1.730452e-01 1.833200e-01 1.418884e-01 1.549593e-01 1.804593e-01 1.774093e-01 1.522814e-01 1.540166e-01 7.503501e-03
<GCONST> 7.075555e+01
<STATE> 3
<MEAN> 39
 -6.389795e+00 -1.255083e+00 -8.810623e-01 -1.937228e+01 -7.577194e+00 -8.493302e+00 -2.595068e+00 -6.569140e+00 3.325127e-02 -3.820272e+00 -2.226170e+00 -7.108534e+00 1.817332e+01 6.033794e-02 -1.004579e-01 1.973096e-01 -2.318164e-01 3.399068e-01 1.645809e-01 -1.732648e-01 1.224702e-01 4.917457e-02 -1.716381e-01 1.772012e-01 -6.580540e-03 -4.431780e-02 -7.081275e-02 -1.914884e-01 -2.624974e-01 4.212634e-01 2.477779e-01 2.067547e-01 8.841410e-02 -7.030383e-02 -1.214315e-01 -5.252292e-02 1.186421e-01 1.339912e-01 -1.487445e-01
<VARIANCE> 39
 7.367370e+00 9.635604e+00 1.569742e+01 2.776347e+01 5.692444e+01 3.167278e+01 3.629293e+01 2.495917e+01 3.438405e+01 5.661711e+01 3.469410e+01 3.674877e+01 1.645046e+00 3.757045e-01 7.674608e-01 1.271301e+00 3.640178e+00 2.695807e+00 1.950655e+00 1.896175e+00 1.366035e+00 1.928482e+00 2.033425e+00 1.879827e+00 2.011311e+00 3.396144e-01 6.646574e-02 6.525157e-02 1.520792e-01 2.585392e-01 3.130457e-01 3.120062e-01 3.695940e-01 2.303204e-01 2.922212e-01 3.375136e-01 2.687100e-01 2.614650e-01 1.433633e-02
<GCONST> 9.337854e+01
<STATE> 4
<MEAN> 39
 -8.222576e+00 -6.451437e+00 -6.277397e+00 -9.275586e+00 -2.415949e+00 -3.256265e+00 -9.182708e-01 -8.615621e+00 -2.795305e+00 -5.153827e+00 7.408640e-01 -4.248638e+00 1.464349e+01 -7.442093e-02 -1.118059e-01 -2.389867e-01 2.870731e-01 3.500389e-02 6.666860e-02 1.390726e-01 -4.188130e-02 -8.121232e-02 -2.482565e-03 7.366991e-03 3.130498e-02 -6.889590e-02 2.173766e-02 7.154397e-02 7.432608e-02 -1.248949e-01 -5.118621e-02 -6.603932e-02 -5.131260e-02 3.815501e-02 2.469875e-02 6.733498e-03 -2.995439e-02 -2.922692e-02 4.497612e-02
<VARIANCE> 39
 7.836416e+00 8.036993e+00 1.202000e+01 1.253898e+01 1.775486e+01 1.684576e+01 1.688482e+01 1.718213e+01 1.742179e+01 1.762551e+01 1.547862e+01 1.427369e+01 1.310075e+00 3.471872e-01 5.518976e-01 7.463487e-01 9.087921e-01 9.875039e-01 1.059264e+00 1.026785e+00 9.108863e-01 8.760948e-01 8.051552e-01 7.558448e-01 6.350758e-01 5.456995e-02 4.509162e-02 7.355048e-02 1.100383e-01 1.327708e-01 1.825923e-01 1.706939e-01 1.655957e-01 1.667242e-01 1.581871e-01 1.441437e-01 1.370197e-01 1.246724e-01 7.388068e-03
<GCONST> 6.779651e+01
<TRANSP> 5
 0.000000e+00 1.000000e+00 0.000000e+00 0.000000e+00 0.000000e+00
 0.000000e+00 9.049470e-01 9.505297e-02 0.000000e+00 0.000000e+00
 0.000000e+00 0.000000e+00 8.983329e-01 1.016671e-01 0.000000e+00
 0.000000e+00 0.000000e+00 0.000000e+00 9.437304e-01 5.626956e-02
 0.000000e+00 0.000000e+00 0.000000e+00 0.000000e+00 0.000000e+00
<ENDHMM>
~h "two"
<BEGINHMM>
<NUMSTATES> 5
<STATE> 2
<MEAN> 39
 -9.639460e+00 -4.513454e+00 -6.580812e+00 -9.863575e+00 -9.720242e-01 -4.070635e+00 -1.373327e+00 -8.179409e+00 -2.537177e+00 -5.722517e+00 1.014226e+00 -3.721739e+00 1.495428e+01 -3.757346e-02 2.631225e-01 2.263431e-01 -3.008504e-01 -8.030163e-02 -1.060738e-02 -1.952133e-01 2.047957e-02 1.192922e-01 3.787383e-02 -4.398766e-03 -2.839938e-02 9.348112e-02 1.950371e-01 9.726817e-02 2.115370e-01 -1.064877e-01 -1.587319e-01 -1.867059e-01 -1.174445e-01 -6.691165e-02 -2.516014e-02 -1.346731e-03 -7.481544e-02 -1.170512e-01 8.904233e-02
<VARIANCE> 39
 9.731853e+00 8.411790e+00 1.057091e+01 1.130264e+01 1.669824e+01 1.858900e+01 1.761615e+01 1.993474e+01 2.014989e+01 2.109542e+01 2.063004e+01 1.756306e+01 9.683385e-01 1.154735e+00 7.385756e-01 1.484540e+00 7.320572e-01 1.243837e+00 1.212113e+00 9.533194e-01 1.050649e+00 1.054667e+00 1.129706e+00 1.398362e+00 9.929636e-01 1.174452e-01 1.107609e-01 1.110896e-01 1.232423e-01 1.199818e-01 2.136412e-01 1.859786e-01 1.655728e-01 1.895574e-01 1.984004e-01 1.764047e-01 2.621568e-01 1.380715e-01 7.422620e-03
<GCONST> 7.620174e+01
<STATE> 3
<MEAN> 39
 -4.756936e+00 1.149312e+00 1.778222e+00 -1.527068e+01 -6.598799e+00 -9.672936e+00 -6.598319e+00 -1.044178e+01 -2.516044e+00 -5.320366e+00 -1.030022e+00 -7.239759e+00 1.830119e+01 7.193316e-01 5.999725e-01 8.360459e-01 -6.091827e-01 -1.201090e+00 -1.149999e+00 -6.212667e-01 -3.241042e-01 -7.638602e-02 1.074625e-01 -2.783281e-01 -6.924762e-01 4.804417e-01 -2.461649e-01 -2.219677e-01 -4.234534e-01 2.838054e-01 2.397674e-01 2.108259e-01 2.293674e-01 1.474365e-01 -1.436283e-02 5.921994e-03 1.442218e-01 1.761998e-01 -1.356780e-01
<VARIANCE> 39
 7.637062e+00 8.201192e+00 1.359601e+01 2.286915e+01 4.094164e+01 2.664877e+01 2.842992e+01 2.392866e+01 3.044521e+01 5.369542e+01 4.334024e+01 4.700740e+01 1.220942e+00 6.002340e-01 6.134176e-01 9.871277e-01 1.413980e+00 1.245545e+00 1.154157e+00 1.636980e+00 1.535894e+00 1.877870e+00 2.038625e+00 2.554876e+00 1.859355e+00 8.416732e-02 6.196159e-02 5.703242e-02 8.188547e-02 1.318224e-01 2.159625e-01 1.828540e-01 2.050733e-01 1.926451e-01 2.096130e-01 2.724443e-01 2.909150e-01 2.224138e-01 8.053184e-03
<GCONST> 8.427511e+01
<STATE> 4
<MEAN> 39
 -3.074162e+00 -2.498787e-01 -1.582318e-01 -1.281024e+01 -6.631917e+00 -1.135586e+01 -5.742201e+00 -1.003087e+01 -3.079258e+00 -5.508280e+00 -1.509898e-01 -7.402914e+00 1.806437e+01 2.855648e-02 -3.108935e-01 -3.225642e-01 4.777223e-01 4.160408e-01 2.897303e-01 2.823440e-01 6.164599e-02 -7.978652e-02 -2.571516e-03 1.468295e-01 2.523645e-01 -1.813473e-01 -7.879140e-02 -6.534886e-02 -4.715060e-02 -2.749462e-03 8.374347e-02 1.333978e-01 8.168647e-02 3.501750e-02 2.799277e-02 -2.890148e-03 -1.432122e-02 4.589054e-02 -4.147443e-02
<VARIANCE> 39
 6.126915e+00 7.980907e+00 1.202320e+01 3.019339e+01 3.252041e+01 2.281912e+01 3.197466e+01 3.246524e+01 4.006958e+01 4.282211e+01 5.143097e+01 4.045075e+01 1.492855e+00 2.866671e-01 2.399546e-01 4.425747e-01 6.655235e-01 9.312068e-01 1.150733e+00 1.105540e+00 1.194719e+00 1.057024e+00 1.124074e+00 1.145986e+00 1.082553e+00 3.967680e-02 3.091899e-02 3.306117e-02 5.466438e-02 9.506711e-02 1.114161e-01 1.450113e-01 1.389046e-01 1.749012e-01 1.699724e-01 1.672947e-01 1.672980e-01 1.557806e-01 3.008844e-03
<GCONST> 7.111197e+01
<TRANSP> 5
 0.000000e+00 1.000000e+00 0.000000e+00 0.000000e+00 0.000000e+00
 0.000000e+00 9.084734e-01 9.152661e-02 0.000000e+00 0.000000e+00
 0.000000e+00 0.000000e+00 7.698615e-01 2.301385e-01 0.000000e+00
 0.000000e+00 0.000000e+00 0.000000e+00 9.201581e-01 7.984191e-02
 0.000000e+00 0.000000e+00 0.000000e+00 0.000000e+00 0.000000e+00
<ENDHMM>
~h "nine"
<BEGINHMM>
<NUMSTATES> 5
<STATE> 2
<MEAN> 39
 -4.077372e+00 -3.898102e+00 -1.677294e+00 -8.971117e+00 -2.804549e+00 -6.378142e+00 -1.642690e+00 -1.116139e+01 -5.117416e+00 -8.042027e+00 -2.887744e+00 -7.734906e+00 1.762904e+01 -1.811369e-01 -6.858171e-01 -2.834706e-01 4.408321e-01 -4.285517e-01 2.355736e-01 4.030306e-01 -1.731174e-01 -1.880235e-02 -1.236260e-01 -8.593015e-02 -8.367347e-02 2.069361e-01 -5.922404e-02 -1.590382e-01 -1.030376e-01 1.132292e-01 -5.449824e-03 -1.171471e-03 5.204921e-02 4.893777e-02 3.952413e-02 9.370859e-03 7.326298e-02 3.877799e-02 -9.215881e-03
<VARIANCE> 39
 8.090967e+00 1.916355e+01 1.444468e+01 1.669306e+01 2.834811e+01 2.875766e+01 3.145686e+01 2.650786e+01 4.734482e+01 3.538861e+01 3.033110e+01 3.281588e+01 1.829788e+00 4.871482e-01 1.494074e+00 1.080506e+00 1.097184e+00 1.264100e+00 1.393854e+00 1.627404e+00 1.205147e+00 1.553556e+00 1.157378e+00 1.183351e+00 1.006635e+00 4.894940e-02 6.265700e-02 1.682063e-01 1.288513e-01 1.425378e-01 2.181628e-01 2.178735e-01 2.447279e-01 1.814142e-01 2.032978e-01 1.691327e-01 1.711295e-01 1.443613e-01 4.463046e-03
<GCONST> 8.221049e+01
<STATE> 3
<MEAN> 39
 -6.347529e+00 -1.160441e+01 -4.860501e+00 -2.734702e+00 -5.693746e+00 -5.250019e+00 1.736058e+00 -1.135922e+01 -5.539671e+00 -9.015326e+00 -1.699775e+00 -7.646740e+00 1.861514e+01 -1.102204e-01 9.686308e-02 2.307483e-01 -2.420509e-01 -2.305074e-02 2.140800e-01 -1.050684e-01 -8.696181e-02 1.959014e-01 5.474197e-02 -5.526883e-02 4.596818e-02 -2.113705e-02 2.517270e-03 1.935471e-01 6.929450e-02 -2.402580e-01 4.426340e-02 6.240204e-02 -1.060980e-01 1.121270e-02 7.537632e-02 -1.084923e-02 -6.778158e-02 2.441989e-02 -1.480030e-02
<VARIANCE> 39
 7.253247e+00 8.472347e+00 2.450035e+01 3.236942e+01 1.900658e+01 3.083619e+01 3.095137e+01 3.397369e+01 4.391691e+01 4.150166e+01 2.842898e+01 3.075455e+01 1.006125e+00 8.384623e-02 3.840308e-01 4.111278e-01 1.132716e+00 5.000391e-01 6.241732e-01 5.587725e-01 5.153658e-01 6.511055e-01 6.707080e-01 6.806701e-01 5.420510e-01 4.827255e-03 1.133343e-02 3.005362e-02 4.127569e-02 5.547953e-02 7.264993e-02 7.247017e-02 7.391040e-02 8.095094e-02 8.281098e-02 8.716511e-02 7.873303e-02 7.922969e-02 3.983412e-04
<GCONST> 5.405612e+01
<STATE> 4
<MEAN> 39
 -5.408882e+00 -2.488680e+00 -1.320181e+00 -1.141004e+01 -1.443027e+00 -5.341793e+00 -3.676806e+00 -1.048135e+01 -3.509057e+00 -8.117065e+00 -2.930889e+00 -6.527714e+00 1.769443e+01 2.317113e-01 5.105731e-01 -3.100510e-03 -1.016780e-01 4.411165e-01 -2.479169e-01 -2.011386e-01 2.756073e-01 -1.277919e-01 8.107264e-02 2.108415e-01 1.169428e-01 -1.723588e-01 -2.715387e-02 -1.583057e-01 -8.625466e-02 1.474506e-01 -3.839457e-02 -6.086347e-03 1.204314e-01 1.985594e-02 -5.447616e-02 4.231398e-02 7.832088e-02 -9.555304e-03 -2.022965e-02
<VARIANCE> 39
 1.166842e+01 1.632504e+01 1.132164e+01 2.321623e+01 3.171796e+01 3.320255e+01 3.064765e+01 2.993117e+01 4.733488e+01 3.817822e+01 3.626932e+01 3.985353e+01 1.211696e+00 5.065143e-01 1.171870e+00 6.359965e-01 1.643054e+00 1.303729e+00 1.550616e+00 1.528422e+00 1.269745e+00 1.658811e+00 1.184165e+00 1.105874e+00 1.068941e+00 2.538165e-02 7.071343e-02 8.681868e-02 9.031514e-02 1.779850e-01 1.819079e-01 2.449417e-01 1.820603e-01 2.039830e-01 2.436513e-01 1.943301e-01 1.735393e-01 1.451956e-01 2.221699e-03
<GCONST> 8.083669e+01
<TRANSP> 5
 0.000000e+00 1.000000e+00 0.000000e+00 0.000000e+00 0.000000e+00
 0.000000e+00 9.012489e-01 9.875111e-02 0.000000e+00 0.000000e+00
 0.000000e+00 0.000000e+00 9.153504e-01 8.464961e-02 0.000000e+00
 0.000000e+00 0.000000e+00 0.000000e+00 9.176042e-01 8.239578e-02
 0.000000e+00 0.000000e+00 0.000000e+00 0.000000e+00 0.000000e+00
<ENDHMM>
~h "five"
<BEGINHMM>
<NUMSTATES> 5
<STATE> 2
<MEAN> 39
 -6.145475e+00 -8.579080e+00 -7.592475e+00 -9.225083e+00 -4.230937e-01 -6.121373e+00 6.992745e-03 -6.825580e+00 -3.778328e+00 -6.490716e+00 -3.218350e-01 -4.546299e+00 1.643806e+01 1.118219e-01 -6.872572e-01 -4.786173e-01 3.255044e-01 2.195640e-01 -2.712463e-01 2.421170e-01 2.803267e-01 -3.435903e-01 -1.302824e-01 -1.266255e-01 1.665063e-02 2.473023e-01 -1.678228e-03 -5.657829e-03 5.737189e-02 4.689068e-02 -1.724685e-02 -3.237251e-02 -1.989833e-02 -4.940481e-02 -1.732497e-02 2.412445e-02 1.545098e-02 -1.459450e-02 2.062199e-02
<VARIANCE> 39
 1.125143e+01 1.815401e+01 1.972038e+01 1.332446e+01 1.797020e+01 2.025482e+01 1.944254e+01 3.697147e+01 2.612156e+01 2.326833e+01 2.203186e+01 1.616222e+01 4.948215e+00 7.423129e-01 6.843483e-01 8.868232e-01 8.866156e-01 8.226901e-01 1.096074e+00 9.428425e-01 1.701034e+00 1.496821e+00 1.271820e+00 1.231863e+00 8.357491e-01 2.129013e-01 1.004216e-01 1.065278e-01 1.570930e-01 1.148719e-01 1.338441e-01 1.695203e-01 1.473376e-01 2.760106e-01 2.348392e-01 1.802734e-01 1.906032e-01 1.286215e-01 2.516633e-02
<GCONST> 8.141019e+01
<STATE> 3
<MEAN> 39
 -5.829909e+00 -1.543207e+01 -8.489591e+00 -3.791516e+00 1.364192e+00 -9.061778e+00 2.480583e+00 -7.543463e+00 -7.266447e+00 -5.482926e+00 -5.596521e-01 -4.576602e+00 1.903887e+01 -1.610335e-01 9.881439e-02 4.891216e-01 -2.808357e-01 -2.718493e-01 4.465809e-01 6.804568e-02 -3.852469e-01 3.469825e-02 2.820526e-01 5.019210e-02 -7.338804e-02 -4.962933e-02 4.119493e-02 1.198997e-01 1.074265e-02 -1.944127e-01 -5.746721e-02 8.541030e-02 -2.819510e-02 2.903912e-02 6.260793e-02 -5.057395e-02 -7.345623e-02 -1.855383e-02 -1.597183e-02
<VARIANCE> 39
 9.235530e+00 9.516541e+00 2.487409e+01 2.134838e+01 1.890438e+01 2.361061e+01 1.802785e+01 4.020395e+01 4.783452e+01 4.513332e+01 2.691067e+01 2.542697e+01 1.368737e+00 9.077808e-02 1.726044e-01 2.727439e-01 6.954212e-01 5.202861e-01 5.777727e-01 5.082284e-01 5.121713e-01 6.401131e-01 6.122569e-01 5.999676e-01 4.835874e-01 5.997627e-03 1.192118e-02 2.521046e-02 3.123404e-02 4.833080e-02 5.224712e-02 5.349417e-02 5.804987e-02 6.689416e-02 9.045438e-02 8.805501e-02 6.807354e-02 7.103824e-02 9.688417e-04
<GCONST> 5.083700e+01
<STATE> 4
<MEAN> 39
 -5.452385e+00 -7.798106e+00 -3.664692e+00 -1.292928e+01 -3.057832e+00 -3.760893e+00 1.120389e+00 -8.346101e+00 -3.888015e+00 -5.631060e+00 -1.733996e+00 -5.652988e+00 1.761934e+01 6.894956e-02 9.293634e-01 2.307867e-01 -1.987788e-01 -1.315755e-01 -8.908866e-02 -2.932261e-01 7.891198e-02 3.928482e-01 -1.370586e-01 7.673433e-02 1.234353e-02 -2.762195e-01 -4.002897e-02 -7.254296e-02 -8.900540e-02 1.945816e-01 1.092591e-01 -8.829811e-02 -1.665081e-02 -4.512560e-03 -4.075325e-02 1.309508e-02 7.344712e-02 3.240385e-02 -1.782337e-02
<VARIANCE> 39
 7.533058e+00 2.308241e+01 1.185583e+01 2.986148e+01 3.748595e+01 2.150824e+01 2.415414e+01 3.057085e+01 4.223549e+01 2.629433e+01 2.688225e+01 2.787947e+01 2.629551e+00 3.400351e-01 7.374171e-01 6.409206e-01 2.733148e+00 1.682094e+00 1.393084e+00 9.393041e-01 1.417219e+00 1.594567e+00 1.266544e+00 1.316845e+00 1.013079e+00 6.819276e-02 5.715511e-02 1.022103e-01 9.524716e-02 3.009437e-01 2.342656e-01 2.509227e-01 1.675266e-01 2.084452e-01 2.011765e-01 1.717464e-01 2.163436e-01 1.726192e-01 9.082320e-03
<GCONST> 8.298360e+01
<TRANSP> 5
 0.000000e+00 1.000000e+00 0.000000e+00 0.000000e+00 0.000000e+00
 0.000000e+00 9.300370e-01 6.996303e-02 0.000000e+00 0.000000e+00
 0.000000e+00 0.000000e+00 9.152322e-01 8.476774e-02 0.000000e+00
 0.000000e+00 0.000000e+00 0.000000e+00 8.980071e-01 1.019929e-01
 0.000000e+00 0.000000e+00 0.000000e+00 0.000000e+00 0.000000e+00
<ENDHMM>
~h "four"
<BEGINHMM>
<NUMSTATES> 5
<STATE> 2
<MEAN> 39
 -7.667645e+00 -6.677818e+00 -5.470667e+00 -9.688784e+00 -1.112561e+00 -4.543464e+00 -5.189617e-01 -8.559962e+00 -2.271106e+00 -5.732469e+00 1.121450e+00 -4.080825e+00 1.494337e+01 3.138278e-01 1.474017e-02 -3.778484e-01 -2.939799e-01 -1.125270e-01 -9.206478e-02 -1.320341e-01 -8.574773e-03 1.231805e-01 1.055019e-01 -1.625719e-02 -4.077221e-02 1.258363e-01 2.438180e-01 9.813625e-02 -1.170303e-01 -1.288153e-01 -5.304047e-02 -1.112603e-01 -1.098015e-01 -1.808281e-02 -8.184050e-03 7.010089e-03 -7.390827e-02 -1.029503e-01 1.065353e-01
<VARIANCE> 39
 4.657543e+00 4.193462e+00 6.876449e+00 8.703994e+00 1.156783e+01 1.418997e+01 1.488086e+01 1.611063e+01 1.489998e+01 1.410068e+01 1.539700e+01 1.167678e+01 9.116762e-01 1.047061e+00 4.639066e-01 5.766315e-01 6.437212e-01 6.049662e-01 9.842615e-01 9.577644e-01 8.519927e-01 8.544610e-01 7.821192e-01 1.037504e+00 8.674408e-01 1.654553e-01 5.929464e-02 5.711769e-02 1.015154e-01 1.069118e-01 1.041825e-01 1.638908e-01 1.311687e-01 1.613803e-01 1.551096e-01 1.347690e-01 1.544516e-01 1.329650e-01 6.555387e-03
<GCONST> 6.410850e+01
<STATE> 3
<MEAN> 39
 1.545533e+00 -3.506102e+00 -1.204607e+01 -1.693924e+01 -4.004838e+00 -6.246478e+00 -3.255047e+00 -8.958969e+00 -1.451340e+00 -3.992061e+00 3.068142e-01 -6.856422e+00 1.889500e+01 3.433111e-01 -1.623340e-01 -3.558457e-01 -7.216660e-02 6.820387e-02 -2.290379e-02 -2.270729e-01 1.736757e-01 3.472265e-01 1.047988e-01 -2.364454e-01 -2.329487e-01 1.594966e-01 -1.728048e-01 -1.511355e-01 1.446063e-01 2.267960e-01 4.013054e-02 -2.949228e-02 4.305450e-02 1.087225e-01 4.690573e-02 -7.877270e-02 -5.253143e-02 5.703605e-02 -6.698043e-02
<VARIANCE> 39
 4.227992e+00 1.022239e+01 1.029052e+01 1.432923e+01 2.460279e+01 1.721144e+01 1.818638e+01 1.709351e+01 2.334687e+01 2.481168e+01 3.750475e+01 3.594288e+01 1.115821e+00 5.912087e-01 7.438695e-01 7.231909e-01 1.240832e+00 9.895777e-01 7.948655e-01 9.115138e-01 9.643031e-01 1.307603e+00 1.180659e+00 1.372139e+00 1.243437e+00 1.038321e-01 4.871630e-02 4.642783e-02 9.628282e-02 8.305285e-02 1.340592e-01 1.435017e-01 1.544319e-01 1.396359e-01 1.799938e-01 1.932645e-01 2.021902e-01 1.820075e-01 7.090560e-03
<GCONST> 7.298959e+01
<STATE> 4
<MEAN> 39
 -5.430066e-01 -1.072215e+01 -7.323009e+00 -8.565786e+00 -5.391725e+00 -8.704722e+00 -2.323933e+00 -4.895650e+00 1.830980e-01 -7.540146e+00 -3.910820e+00 -7.426193e+00 1.840884e+01 -6.129162e-01 7.466970e-02 1.055955e+00 4.896348e-01 -3.433380e-01 7.617258e-02 5.981568e-01 -1.811759e-01 -6.240109e-01 -3.440871e-01 1.658294e-01 3.014669e-01 -2.432790e-01 -9.001385e-02 2.380734e-01 -4.453861e-02 -1.996035e-01 1.165270e-01 1.960433e-01 3.099949e-02 -1.858864e-01 -1.287855e-01 1.032561e-01 1.745537e-01 4.439513e-02 -4.962602e-02
<VARIANCE> 39
 7.333475e+00 1.779968e+01 3.181581e+01 1.828327e+01 4.522168e+01 3.700921e+01 3.509665e+01 4.319490e+01 4.621235e+01 3.482863e+01 3.460010e+01 3.076918e+01 1.741661e+00 2.971773e-01 1.587484e+00 9.179333e-01 1.626271e+00 2.564562e+00 2.221731e+00 1.718488e+00 2.564749e+00 1.885275e+00 1.705940e+00 1.829037e+00 1.123809e+00 5.833022e-02 2.926764e-02 1.346420e-01 2.064868e-01 1.690577e-01 4.288290e-01 2.940581e-01 3.516523e-01 3.668496e-01 3.851880e-01 2.816685e-01 3.092493e-01 2.124623e-01 3.411688e-03
<GCONST> 9.085586e+01
<TRANSP> 5
 0.000000e+00 1.000000e+00 0.000000e+00 0.000000e+00 0.000000e+00
 0.000000e+00 9.011170e-01 9.888297e-02 0.000000e+00 0.000000e+00
 0.000000e+00 0.000000e+00 9.186856e-01 8.131444e-02 0.000000e+00
 0.000000e+00 0.000000e+00 0.000000e+00 8.810138e-01 1.189863e-01
 0.000000e+00 0.000000e+00 0.000000e+00 0.000000e+00 0.000000e+00
<ENDHMM>
~h "zero"
<BEGINHMM>
<NUMSTATES> 5
<STATE> 2
<MEAN> 39
 -6.758570e+00 -3.060423e+00 -4.886874e+00 -7.467035e+00 -1.265960e+00 -3.807417e+00 -1.414359e+00 -8.520200e+00 -3.457596e+00 -5.106279e+00 5.898638e-01 -4.556053e+00 1.523184e+01 -8.164402e-02 3.318557e-01 1.414817e-01 -3.043214e-01 -2.134837e-01 -2.739484e-01 -1.777578e-01 -1.205698e-01 1.233828e-01 2.201015e-01 -1.251143e-02 -2.198876e-04 1.061133e-01 6.808098e-02 1.069008e-01 1.513003e-01 -2.257124e-01 -1.459517e-01 -2.462737e-01 -6.498066e-02 -7.538860e-02 6.205275e-02 1.079949e-02 -2.260870e-02 -5.405466e-02 8.252759e-02
<VARIANCE> 39
 7.744448e+00 1.028993e+01 1.429284e+01 1.361107e+01 1.783516e+01 1.930201e+01 1.878100e+01 1.949901e+01 2.377222e+01 2.085735e+01 1.977710e+01 1.678376e+01 1.208797e+00 4.212028e-01 7.291309e-01 1.003873e+00 9.501256e-01 8.894041e-01 1.750923e+00 9.590368e-01 1.102244e+00 1.068059e+00 8.963144e-01 1.006129e+00 1.001757e+00 1.192674e-01 5.258008e-02 9.179285e-02 1.144134e-01 1.198306e-01 1.237975e-01 1.946306e-01 1.597971e-01 1.730683e-01 1.607289e-01 1.399904e-01 1.706493e-01 1.584652e-01 7.958693e-03
<GCONST> 7.320486e+01
<STATE> 3
<MEAN> 39
 -5.588493e+00 3.832070e-01 8.108121e-01 -1.662156e+01 -7.719635e+00 -9.216812e+00 -4.655337e+00 -8.629299e+00 -4.732516e-02 -3.801918e+00 1.259852e-01 -6.760184e+00 1.834475e+01 3.384042e-01 -6.262614e-01 4.870231e-01 -2.626386e-01 -1.101931e+00 1.286535e-01 1.570844e-01 1.534974e-01 3.340979e-01 -5.412448e-02 2.630780e-02 -1.547065e-01 1.946173e-01 4.497292e-02 -2.653318e-01 -1.694452e-01 3.427639e-01 1.032364e-02 1.394280e-01 1.905853e-01 7.259808e-02 -7.156263e-02 -4.761398e-02 -7.217199e-03 6.293044e-02 -6.156608e-02
<VARIANCE> 39
 7.285839e+00 1.924762e+01 1.718148e+01 2.745525e+01 5.856220e+01 3.944267e+01 3.188589e+01 4.335103e+01 3.244790e+01 3.000778e+01 3.378350e+01 4.992596e+01 1.156076e+00 4.296184e-01 1.774816e+00 8.566179e-01 2.668978e+00 1.664040e+00 2.653792e+00 1.729805e+00 1.476066e+00 1.339866e+00 1.175054e+00 1.140890e+00 1.379474e+00 7.309572e-02 5.100089e-02 1.109678e-01 1.222984e-01 1.858580e-01 2.379914e-01 3.921700e-01 2.243163e-01 2.433631e-01 2.198896e-01 1.773498e-01 1.723233e-01 2.130246e-01 4.551036e-03
<GCONST> 8.730046e+01
<STATE> 4
<MEAN> 39
 -1.648504e+00 -9.931478e+00 -4.556359e+00 -9.833185e+00 -9.196664e+00 -8.377171e+00 4.522540e-02 -4.369641e+00 -3.086727e-01 -6.665491e+00 -1.067714e+00 -5.912763e+00 1.846266e+01 -2.304003e-03 4.238055e-02 -4.247001e-01 2.109848e-01 6.917401e-01 -3.647495e-02 1.176161e-02 7.667462e-02 -1.452680e-01 -9.948479e-02 -4.245219e-02 5.546346e-02 -9.991281e-02 -8.144796e-02 1.025984e-01 5.185319e-02 -8.310299e-02 8.952055e-02 7.203689e-02 -5.904460e-02 -6.246396e-02 -2.352235e-02 2.522693e-02 2.539363e-02 8.663374e-03 -2.412131e-02
<VARIANCE> 39
 6.049128e+00 2.023301e+01 2.588680e+01 2.573639e+01 6.114423e+01 5.177613e+01 3.777411e+01 3.634888e+01 4.393166e+01 3.594081e+01 2.597964e+01 3.311692e+01 1.510090e+00 3.007788e-01 8.261207e-01 7.836998e-01 1.011466e+00 1.234439e+00 1.840794e+00 1.588215e+00 1.897695e+00 1.648048e+00 1.476798e+00 1.053557e+00 9.581084e-01 3.799023e-02 2.902628e-02 5.183895e-02 8.352964e-02 1.131031e-01 1.903611e-01 2.368913e-01 2.061383e-01 2.034333e-01 2.220070e-01 2.012061e-01 1.522855e-01 1.418948e-01 2.416428e-03
<GCONST> 8.033245e+01
<TRANSP> 5
 0.000000e+00 1.000000e+00 0.000000e+00 0.000000e+00 0.000000e+00
 0.000000e+00 8.903230e-01 1.096771e-01 0.000000e+00 0.000000e+00
 0.000000e+00 0.000000e+00 8.974162e-01 1.025839e-01 0.000000e+00
 0.000000e+00 0.000000e+00 0.000000e+00 9.447225e-01 5.527747e-02
 0.000000e+00 0.000000e+00 0.000000e+00 0.000000e+00 0.000000e+00
<ENDHMM>
