~o
<STREAMINFO> 1 39
<VECSIZE> 39<NULLD><MFCC_E_D_A><DIAGC>
~s "silst"
<MEAN> 39
 -5.091842e+00 -3.744987e+00 -3.210964e+00 -8.839158e+00 -1.246094e+00 -5.744948e+00 -1.822532e+00 -9.463300e+00 -3.498270e+00 -6.419680e+00 -3.613195e-01 -5.629596e+00 1.585426e+01 -6.625735e-01 -4.426890e-01 -4.519337e-01 1.672945e-01 3.060331e-01 7.049451e-01 3.752352e-01 1.105196e-01 1.448718e-01 1.511572e-01 3.334853e-01 3.706823e-01 -3.624916e-01 -2.659469e-02 -6.925495e-02 -1.091995e-01 -1.274480e-01 -9.654725e-02 -7.294897e-02 2.471251e-04 7.246397e-02 3.782956e-02 9.366411e-03 -1.493898e-02 4.015483e-03 2.671094e-02
<VARIANCE> 39
 1.126057e+01 1.072645e+01 1.344856e+01 1.340227e+01 2.077144e+01 2.466489e+01 2.381793e+01 2.471956e+01 2.788673e+01 2.726442e+01 2.577937e+01 2.356098e+01 2.020735e+00 3.756509e-01 7.428407e-01 8.201063e-01 8.112588e-01 1.144149e+00 1.289421e+00 1.254686e+00 1.299566e+00 1.408838e+00 1.271420e+00 1.245211e+00 1.113588e+00 5.130100e-02 6.990732e-02 1.004310e-01 1.069688e-01 1.139694e-01 1.561070e-01 2.204449e-01 1.942505e-01 1.870881e-01 2.096871e-01 1.843370e-01 1.820260e-01 1.529800e-01 9.216183e-03
<GCONST> 7.759155e+01
~h "eight"
<BEGINHMM>
<NUMSTATES> 5
<STATE> 2
<MEAN> 39
 -8.241276e+00 -2.982245e+00 -5.887485e+00 -1.824823e+01 2.126035e-01 -4.909466e+00 8.335100e-01 -6.808993e+00 -1.615696e+00 -7.446428e+00 -1.722356e+00 -5.726054e+00 1.741242e+01 -1.700626e-01 1.035820e+00 -9.771238e-02 -1.069983e+00 -4.851291e-02 -5.839670e-01 9.049539e-02 4.707263e-01 3.866462e-01 -1.022499e-02 -1.810543e-01 -2.424421e-01 3.335238e-01 2.918559e-02 8.913431e-02 5.409937e-03 1.421015e-01 -6.240262e-02 -1.926904e-01 -8.353388e-02 -1.794057e-02 2.511608e-02 9.291841e-02 1.143467e-01 -4.401959e-04 -1.757875e-02
<VARIANCE> 39
 7.952167e+00 2.037176e+01 1.881788e+01 3.160998e+01 4.190513e+01 2.222574e+01 2.476596e+01 2.267817e+01 3.070819e+01 2.350561e+01 2.467125e+01 2.553112e+01 3.270533e+00 3.456512e-01 7.508976e-01 6.516374e-01 1.282253e+00 1.202712e+00 1.361317e+00 1.446226e+00 9.964056e-01 1.349285e+00 1.118822e+00 1.072085e+00 9.613093e-01 1.024737e-01 4.200939e-02 8.021461e-02 7.528269e-02 1.946621e-01 1.374092e-01 1.691625e-01 1.486234e-01 1.685748e-01 2.269100e-01 1.637631e-01 1.702691e-01 1.470932e-01 1.300476e-02
<GCONST> 7.934031e+01
<STATE> 3
<MEAN> 39
 -8.394166e+00 5.774046e+00 -5.519041e+00 -1.924080e+01 -2.893186e+00 -1.374672e+01 -1.640583e+00 -5.948968e+00 7.437826e-01 -4.027797e+00 7.591806e-01 -5.692816e+00 1.854688e+01 1.003432e-01 5.032128e-01 2.028310e-01 8.261250e-01 -1.150535e-02 -9.371300e-01 -6.095029e-01 -8.108898e-01 -3.589638e-01 3.270484e-01 4.645235e-01 2.251309e-01 -7.178733e-02 4.937960e-02 -2.807117e-01 2.296753e-02 1.894362e-01 8.654530e-02 2.715169e-01 2.069812e-02 -1.587029e-01 -1.939273e-01 -1.395254e-01 -7.121453e-02 3.687852e-02 -6.157143e-02
<VARIANCE> 39
 1.001473e+01 1.132730e+01 2.487029e+01 2.641658e+01 2.100083e+01 2.369401e+01 5.645121e+01 2.709736e+01 2.949986e+01 2.182030e+01 3.272651e+01 2.503123e+01 1.477399e+00 1.826389e-01 5.045389e-01 2.621015e-01 6.259332e-01 8.219500e-01 1.014235e+00 7.509544e-01 8.249996e-01 1.768555e+00 1.022512e+00 1.190118e+00 8.481391e-01 2.535583e-02 2.770326e-02 7.067546e-02 4.946940e-02 9.900422e-02 8.105329e-02 1.527239e-01 1.404304e-01 1.337737e-01 1.674274e-01 1.386191e-01 1.858323e-01 1.361435e-01 3.379869e-03
<GCONST> 6.902759e+01
<STATE> 4
<MEAN> 39
 -6.984144e+00 1.126125e+00 -4.081291e+00 -1.221576e+01 -1.205196e+00 -1.173163e+01 -4.083552e+00 -1.160502e+01 -4.449790e+00 -5.780874e+00 8.150147e-01 -4.551589e+00 1.652435e+01 2.185233e-01 -1.854520e+00 5.409686e-04 8.880571e-01 2.211766e-01 1.602529e+00 3.190602e-01 -3.125836e-02 -3.290556e-01 -3.991832e-01 -1.453187e-01 9.664472e-02 -4.692042e-01 -7.003710e-02 -1.012362e-01 -9.852055e-02 -1.303292e-01 -4.588403e-02 1.610979e-01 1.928837e-01 2.728508e-01 2.061443e-01 6.424287e-02 2.203760e-02 -3.137663e-02 -6.698926e-03
<VARIANCE> 39
 6.054956e+00 3.354610e+01 1.485427e+01 1.934345e+01 1.615454e+01 3.815059e+01 3.283849e+01 2.463281e+01 3.948120e+01 2.741439e+01 2.595617e+01 2.419107e+01 2.806393e+00 3.506666e-01 7.455525e-01 6.176138e-01 1.035271e+00 6.513644e-01 1.246510e+00 1.757889e+00 1.481162e+00 2.021218e+00 1.219053e+00 1.376334e+00 1.140553e+00 3.566609e-02 4.192349e-02 2.585357e-01 6.971619e-02 1.185526e-01 9.773310e-02 3.262586e-01 1.808691e-01 1.961601e-01 2.998301e-01 1.796898e-01 1.979221e-01 1.934682e-01 1.053538e-02
<GCONST> 8.036990e+01
<TRANSP> 5
 0.000000e+00 1.000000e+00 0.000000e+00 0.000000e+00 0.000000e+00
 0.000000e+00 8.669587e-01 1.330413e-01 0.000000e+00 0.000000e+00
 0.000000e+00 0.000000e+00 8.554952e-01 1.445048e-01 0.000000e+00
 0.000000e+00 0.000000e+00 0.000000e+00 8.207062e-01 1.792938e-01
 0.000000e+00 0.000000e+00 0.000000e+00 0.000000e+00 0.000000e+00
<ENDHMM>
~h "oh"
<BEGINHMM>
<NUMSTATES> 5
<STATE> 2
<MEAN> 39
 -4.356606e+00 -1.037978e+01 -8.317223e+00 -8.578686e+00 -2.640219e+00 -7.661592e+00 3.591785e+00 -7.389577e+00 -5.251403e+00 -7.112471e+00 -2.449219e+00 -5.428684e+00 1.782552e+01 5.458319e-01 -2.048769e-01 -6.069840e-01 1.673760e-01 9.308069e-02 -6.953732e-01 1.431043e-01 7.355627e-01 -1.521445e-02 -4.297272e-01 -4.102407e-01 -1.504876e-01 3.509304e-01 9.714664e-03 1.040788e-01 2.562723e-03 -5.263791e-02 3.859837e-02 -9.985747e-03 -1.526033e-01 7.905804e-03 1.330448e-01 2.606164e-02 -9.456781e-03 -2.755771e-02 -2.189112e-02
<VARIANCE> 39
 8.676711e+00 1.232485e+01 1.668907e+01 1.818451e+01 2.298700e+01 2.455624e+01 3.070605e+01 6.484829e+01 3.835598e+01 3.406660e+01 2.704586e+01 3.149027e+01 2.991238e+00 2.965551e-01 5.782760e-01 6.297923e-01 6.391181e-01 6.835639e-01 9.313841e-01 1.330372e+00 1.785979e+00 1.555895e+00 1.259029e+00 1.250783e+00 1.050747e+00 9.584200e-02 3.981165e-02 6.275382e-02 7.487696e-02 7.956611e-02 9.154803e-02 1.298422e-01 1.556107e-01 2.152617e-01 1.868970e-01 1.964883e-01 1.843088e-01 1.401786e-01 1.329252e-02
<GCONST> 7.713185e+01
<STATE> 3
<MEAN> 39
 -5.706139e-01 -8.243947e+00 -1.317844e+01 -9.928930e+00 -6.992760e-01 -1.204500e+01 -8.052235e-01 -7.802259e-01 1.315322e-01 -8.231573e+00 -5.128339e+00 -6.598856e+00 1.903678e+01 2.231142e-01 4.045997e-01 -2.817550e-02 -3.472655e-01 -3.607064e-02 -3.886567e-03 -6.740763e-01 -2.451650e-01 6.656641e-01 6.036424e-01 -3.263332e-02 -3.514220e-01 -9.639255e-03 -4.123804e-02 2.437600e-02 1.011489e-01 -2.061303e-02 -5.725975e-02 9.288710e-02 1.156862e-02 -1.581925e-01 -8.117191e-02 9.171069e-02 1.211577e-01 1.124500e-02 -2.520698e-02
<VARIANCE> 39
 6.095786e+00 8.379788e+00 1.532412e+01 1.468797e+01 1.919446e+01 2.241444e+01 4.165000e+01 3.071804e+01 3.923305e+01 3.570343e+01 3.180367e+01 4.014595e+01 1.217180e+00 8.017081e-02 1.367550e-01 2.628283e-01 2.767017e-01 3.853644e-01 5.146883e-01 7.294455e-01 1.009930e+00 7.301847e-01 8.545461e-01 7.856449e-01 6.994889e-01 1.317036e-02 1.110729e-02 1.421398e-02 3.351926e-02 3.312444e-02 4.698982e-02 6.866006e-02 7.738172e-02 9.574496e-02 1.049968e-01 1.013133e-01 9.149002e-02 8.857781e-02 1.198251e-03
<GCONST> 5.209734e+01
<STATE> 4
<MEAN> 39
 1.787647e-01 -3.748459e+00 -9.930988e+00 -1.348490e+01 -3.320768e+00 -1.008082e+01 -4.949465e+00 -7.353454e+00 1.044838e+00 -2.363676e+00 -1.856046e-01 -7.006967e+00 1.844921e+01 -3.487118e-01 2.883784e-01 8.523541e-01 1.504650e-01 -2.190908e-01 3.723644e-01 2.097439e-01 -5.763596e-01 -5.866557e-01 -1.035836e-01 5.093135e-01 4.129709e-01 -2.309183e-01 -1.311379e-01 -1.055862e-01 5.186080e-02 1.419389e-01 1.060807e-01 8.461210e-02 1.855319e-01 8.498246e-02 -1.053086e-01 -1.823434e-01 -7.798181e-02 8.006299e-02 -4.431170e-02
<VARIANCE> 39
 6.295566e+00 7.044512e+00 1.859813e+01 1.557192e+01 1.892501e+01 2.848144e+01 3.126485e+01 2.746266e+01 3.058688e+01 3.711079e+01 3.966271e+01 3.647763e+01 1.764322e+00 2.388406e-01 3.547699e-01 4.247817e-01 5.883995e-01 6.863474e-01 8.703787e-01 1.176337e+00 1.224888e+00 1.195042e+00 1.307917e+00 1.200983e+00 1.026486e+00 3.052347e-02 2.296125e-02 3.297167e-02 6.559304e-02 6.527868e-02 9.791771e-02 1.570437e-01 1.653731e-01 1.872412e-01 2.027084e-01 1.905648e-01 1.711956e-01 1.630655e-01 2.734577e-03
<GCONST> 6.920088e+01
<TRANSP> 5
 0.000000e+00 1.000000e+00 0.000000e+00 0.000000e+00 0.000000e+00
 0.000000e+00 8.829938e-01 1.170062e-01 0.000000e+00 0.000000e+00
 0.000000e+00 0.000000e+00 8.920912e-01 1.079088e-01 0.000000e+00
 0.000000e+00 0.000000e+00 0.000000e+00 8.563246e-01 1.436755e-01
 0.000000e+00 0.000000e+00 0.000000e+00 0.000000e+00 0.000000e+00
<ENDHMM>
~h "sp"
<BEGINHMM>
<NUMSTATES> 5
<STATE> 2
~s "silst"
<STATE> 3
<MEAN> 39
 -7.713375e+00 -6.457104e+00 -6.093609e+00 -9.706996e+00 -1.348507e+00 -4.070621e+00 -6.480041e-01 -8.572425e+00 -2.840848e+00 -5.609194e+00 9.536130e-01 -4.079562e+00 1.479955e+01 -9.869799e-02 -1.578955e-02 -1.106031e-01 -3.277597e-03 -2.914017e-02 3.016038e-02 -7.388644e-03 3.429099e-02 2.332201e-03 1.970325e-02 3.457385e-02 3.964751e-02 -1.304252e-02 6.179206e-02 8.150355e-02 6.162856e-02 -1.181375e-02 -9.556176e-03 -5.704205e-02 -4.033816e-02 -1.850554e-02 -9.033523e-03 -1.640863e-02 -3.397145e-02 -3.270886e-02 4.423689e-02
<VARIANCE> 39
 5.256932e+00 5.860170e+00 8.474929e+00 1.007233e+01 1.426365e+01 1.536551e+01 1.551275e+01 1.663034e+01 1.761766e+01 1.639707e+01 1.598508e+01 1.376316e+01 1.088002e+00 1.581402e-01 2.359146e-01 3.603233e-01 4.315420e-01 5.693877e-01 6.787960e-01 6.527524e-01 7.216070e-01 7.422705e-01 6.600934e-01 6.553361e-01 5.701326e-01 7.474137e-03 3.327805e-02 5.334463e-02 7.147828e-02 9.091249e-02 1.143994e-01 1.431862e-01 1.321344e-01 1.439748e-01 1.469180e-01 1.251965e-01 1.252217e-01 1.147405e-01 4.120898e-03
<GCONST> 5.501722e+01
<STATE> 4
<MEAN> 39
 -8.555200e+00 -4.961609e+00 -6.315856e+00 -8.972991e+00 -2.008961e+00 -3.782759e+00 -1.037610e+00 -8.382724e+00 -2.917099e+00 -5.486802e+00 6.535136e-01 -4.053321e+00 1.505709e+01 3.229590e-01 1.779775e-01 1.259462e-01 -1.797946e-01 -2.305040e-01 -3.536963e-01 -5.477786e-02 7.105970e-02 -2.342716e-02 -4.746764e-02 -2.202749e-01 -9.539764e-02 2.409666e-01 2.195425e-01 4.195580e-03 6.034848e-02 -1.590034e-01 -1.457324e-01 -2.177479e-01 3.447182e-03 2.082265e-02 1.140953e-02 -1.930576e-04 -1.089994e-01 -8.826174e-02 1.164403e-01
<VARIANCE> 39
 1.172099e+01 1.146175e+01 1.717015e+01 1.559340e+01 1.905350e+01 1.865977e+01 1.794658e+01 2.005602e+01 2.122102e+01 1.978565e+01 1.866823e+01 1.693673e+01 1.496609e+00 5.995029e-01 5.375949e-01 7.713954e-01 8.266712e-01 9.969835e-01 1.043489e+00 8.817781e-01 1.205356e+00 1.057850e+00 9.752543e-01 9.459342e-01 7.813314e-01 5.730296e-02 7.000677e-02 1.101280e-01 1.685439e-01 1.504546e-01 2.027208e-01 1.928695e-01 1.734832e-01 2.269097e-01 2.069447e-01 1.824160e-01 1.790254e-01 1.582161e-01 9.293244e-03
<GCONST> 7.497864e+01
<TRANSP> 5
 0.000000e+00 8.229671e-01 1.770329e-01 0.000000e+00 0.000000e+00
 0.000000e+00 7.940179e-01 2.059821e-01 0.000000e+00 0.000000e+00
 0.000000e+00 0.000000e+00 8.517278e-01 1.482721e-01 0.000000e+00
 0.000000e+00 0.000000e+00 0.000000e+00 5.823452e-01 4.176548e-01
 0.000000e+00 0.000000e+00 0.000000e+00 0.000000e+00 0.000000e+00
<ENDHMM>
~h "seven"
<BEGINHMM>
<NUMSTATES> 5
<STATE> 2
<MEAN> 39
 -5.947448e+00 -4.140049e+00 -4.965633e+00 -1.275218e+01 -6.514629e+00 -6.919030e+00 1.342627e+00 -8.105888e+00 -1.749267e+00 -4.409347e+00 -2.339188e+00 -5.534894e+00 1.684344e+01 6.473103e-01 -1.453047e-01 4.001265e-01 -1.443709e+00 -1.021239e+00 -4.405468e-01 1.140048e+00 3.408536e-03 1.873923e-01 -2.494544e-01 -8.909455e-01 -7.351053e-01 7.277532e-01 -1.643004e-01 -1.795401e-01 -1.901563e-01 4.007754e-02 1.551604e-01 3.041257e-01 6.470597e-02 3.939942e-02 -1.240873e-01 -1.631221e-01 8.276274e-03 2.056302e-02 4.198045e-03
<VARIANCE> 39
 1.134246e+01 6.137196e+00 1.092012e+01 2.661759e+01 3.318841e+01 2.928959e+01 2.770407e+01 2.362365e+01 2.536893e+01 5.022526e+01 2.543188e+01 2.486084e+01 3.966318e+00 5.623881e-01 5.157999e-01 7.335671e-01 8.873521e-01 1.538509e+00 1.831358e+00 1.394127e+00 1.281318e+00 1.503422e+00 2.245779e+00 1.174781e+00 1.460356e+00 5.318300e-02 9.167324e-02 5.649326e-02 9.380867e-02 2.081122e-01 3.102786e-01 2.217786e-01 1.795530e-01 1.440312e-01 1.527948e-01 2.423017e-01 1.729822e-01 2.097211e-01 2.905083e-02
<GCONST> 8.302216e+01
<STATE> 3
<MEAN> 39
 -6.151237e+00 -8.302503e+00 -5.693050e+00 -1.599277e+01 -4.993454e+00 -3.040517e+00 5.232684e+00 -8.948397e+00 -3.063621e+00 -7.635283e+00 -3.940816e+00 -6.187195e+00 1.911872e+01 1.022689e-01 -2.568380e-01 9.635818e-02 5.134918e-01 2.088733e-01 -8.665111e-02 -7.404339e-02 2.983162e-01 -4.129222e-01 1.008613e-01 2.147991e-01 8.868725e-02 -6.862187e-02 6.569465e-02 1.855260e-01 1.219683e-01 2.852288e-01 3.068014e-02 -2.318613e-01 -3.011310e-01 7.005844e-02 3.942300e-02 7.944301e-02 1.901772e-01 8.745268e-03 -1.263598e-01
<VARIANCE> 39
 9.147871e+00 9.519011e+00 8.356235e+00 1.692570e+01 4.776957e+01 3.235273e+01 3.202258e+01 4.005731e+01 5.078568e+01 5.012226e+01 3.504916e+01 3.372358e+01 1.229298e+00 3.670192e-01 5.818197e-01 4.237651e-01 7.248093e-01 1.249572e+00 1.600779e+00 1.288276e+00 9.864544e-01 1.143252e+00 1.647990e+00 1.596463e+00 9.937595e-01 8.547739e-02 5.398794e-02 5.618788e-02 5.414054e-02 1.119744e-01 2.310862e-01 1.692539e-01 1.858225e-01 1.649966e-01 2.080905e-01 2.115243e-01 2.526040e-01 1.871210e-01 5.403752e-03
<GCONST> 7.853761e+01
<STATE> 4
<MEAN> 39
 -3.262380e+00 -4.145055e+00 -2.027924e+00 -9.782483e+00 -4.011938e+00 -7.965675e+00 -4.763460e-01 -7.852417e+00 -3.902307e+00 -6.622224e+00 -1.642787e+00 -6.998664e+00 1.714061e+01 1.031977e-01 3.716967e-01 2.334829e-01 2.372852e-01 3.847141e-01 -3.177339e-02 -4.332895e-01 -3.534208e-01 3.722515e-02 -7.361547e-02 8.299042e-02 -1.376262e-02 -8.979874e-02 -4.073715e-02 -5.874042e-02 -5.500111e-02 -7.438710e-02 4.303125e-03 1.130144e-01 9.084785e-02 -4.699297e-02 -1.731236e-03 -1.576456e-03 -4.406859e-02 3.451093e-02 1.970959e-02
<VARIANCE> 39
 4.950354e+00 1.053711e+01 1.003398e+01 1.377176e+01 2.826204e+01 3.234417e+01 2.626190e+01 4.114689e+01 3.190849e+01 3.572590e+01 3.238745e+01 2.851826e+01 1.709953e+00 1.935090e-01 4.196082e-01 4.821899e-01 9.221033e-01 1.398882e+00 1.176820e+00 1.666475e+00 1.273891e+00 1.402384e+00 1.393960e+00 1.273014e+00 9.389217e-01 9.119117e-02 3.525702e-02 7.942812e-02 8.696739e-02 1.535345e-01 2.505720e-01 2.063894e-01 2.866101e-01 2.281307e-01 2.305786e-01 2.404037e-01 2.151444e-01 1.485533e-01 1.503045e-02
<GCONST> 7.873363e+01
<TRANSP> 5
 0.000000e+00 1.000000e+00 0.000000e+00 0.000000e+00 0.000000e+00
 0.000000e+00 7.846900e-01 2.153101e-01 0.000000e+00 0.000000e+00
 0.000000e+00 0.000000e+00 8.672371e-01 1.327630e-01 0.000000e+00
 0.000000e+00 0.000000e+00 0.000000e+00 9.304423e-01 6.955763e-02
 0.000000e+00 0.000000e+00 0.000000e+00 0.000000e+00 0.000000e+00
<ENDHMM>
~h "three"
<BEGINHMM>
<NUMSTATES> 5
<STATE> 2
<MEAN> 39
 -3.060626e+00 -6.947876e+00 -3.316696e-01 -8.980165e+00 -1.041743e+01 -1.090671e+01 -1.257274e+00 -8.776028e+00 -1.804595e+00 -5.099609e+00 -2.388455e-01 -5.333636e+00 1.739853e+01 4.798506e-01 -1.430614e-01 9.491609e-01 -2.662611e-01 -1.585968e+00 -1.019337e-01 -2.457339e-01 -2.376573e-01 4.046177e-01 1.023949e-01 -3.293325e-02 -2.406181e-01 3.697787e-01 -1.784336e-01 1.179069e-01 5.803869e-03 -2.939323e-01 2.155111e-01 3.093525e-01 -1.630744e-01 1.410281e-02 8.244451e-02 -1.724743e-02 4.687609e-02 8.742616e-03 -3.183482e-02
<VARIANCE> 39
 1.163429e+01 1.270215e+01 1.685330e+01 2.994129e+01 5.278931e+01 4.901719e+01 2.346578e+01 2.638374e+01 2.825873e+01 2.595845e+01 3.408919e+01 3.196117e+01 2.744439e+00 7.854511e-01 6.889970e-01 8.026168e-01 2.099838e+00 1.929917e+00 3.475516e+00 1.425491e+00 1.556248e+00 1.258811e+00 1.074265e+00 1.377270e+00 1.282913e+00 6.035431e-02 1.133077e-01 1.466025e-01 1.335653e-01 3.006042e-01 4.705506e-01 4.271824e-01 2.918367e-01 2.401135e-01 1.939014e-01 1.818851e-01 1.986239e-01 1.939871e-01 9.973404e-03
<GCONST> 8.967165e+01
<STATE> 3
<MEAN> 39
 -5.066761e+00 -3.596901e+00 5.577533e+00 -1.902674e+01 -1.234323e+01 -4.193821e+00 -8.711075e+00 -8.696184e+00 1.891290e+00 -5.791090e+00 1.087243e+00 -5.949924e+00 1.864939e+01 -8.428962e-01 1.790211e+00 -2.722641e-01 -1.706835e+00 2.363119e+00 -1.427827e-01 -1.451831e+00 9.126571e-01 -4.237228e-01 -2.277683e-01 1.209486e-01 2.215862e-02 -2.249247e-02 4.437568e-02 1.212838e-01 -4.618818e-01 5.174323e-01 3.893816e-01 -6.708512e-01 4.307319e-01 5.518177e-02 -3.699555e-01 7.596279e-02 -5.771506e-02 3.757387e-02 -5.398022e-02
<VARIANCE> 39
 7.784968e+00 2.370867e+01 1.161716e+01 3.170378e+01 6.010382e+01 2.841821e+01 4.190828e+01 6.406637e+01 2.613823e+01 2.804139e+01 3.816906e+01 2.963183e+01 1.291605e+00 2.535473e-01 6.091808e-01 1.021390e+00 1.785525e+00 1.376344e+00 3.625508e+00 2.039433e+00 1.367437e+00 1.404149e+00 1.083183e+00 7.234321e-01 7.940522e-01 2.034185e-02 5.172786e-02 1.573335e-01 9.286183e-02 2.421307e-01 4.998280e-01 2.352176e-01 3.887289e-01 3.778316e-01 1.663317e-01 1.491488e-01 1.327658e-01 1.102095e-01 2.211701e-03
<GCONST> 8.266238e+01
<STATE> 4
<MEAN> 39
 -6.746325e+00 4.095544e+00 -1.724618e+00 -1.634958e+01 -1.327592e+00 -1.257221e+01 -5.458147e+00 -8.155973e+00 -3.432587e+00 -4.967928e+00 -2.623391e-01 -6.249833e+00 1.786926e+01 1.474486e-01 -9.135213e-02 -5.622953e-01 9.715021e-01 4.160852e-01 -1.250508e-01 7.106443e-01 -3.731149e-01 -3.077565e-01 -2.213079e-02 -1.987694e-01 2.233003e-03 -1.796940e-01 6.441618e-02 -3.144190e-01 9.464460e-02 8.203482e-02 -2.300397e-01 3.113055e-01 3.654934e-02 -3.297854e-02 1.385272e-01 -3.356376e-02 2.241631e-02 1.248552e-02 -2.590596e-02
<VARIANCE> 39
 7.449588e+00 1.523197e+01 1.623812e+01 3.038361e+01 2.260498e+01 2.545597e+01 4.758183e+01 4.504194e+01 3.215133e+01 4.072670e+01 4.082821e+01 3.688480e+01 1.619507e+00 2.180461e-01 1.348296e+00 6.420964e-01 8.473534e-01 1.204311e+00 2.042892e+00 1.289020e+00 1.480148e+00 1.224023e+00 1.179005e+00 8.511623e-01 8.681279e-01 2.469334e-02 3.732444e-02 9.138032e-02 7.181983e-02 1.614071e-01 1.831706e-01 1.714536e-01 2.112714e-01 2.211670e-01 1.729481e-01 1.652861e-01 1.335461e-01 1.304472e-01 2.679348e-03
<GCONST> 7.749870e+01
<TRANSP> 5
 0.000000e+00 1.000000e+00 0.000000e+00 0.000000e+00 0.000000e+00
 0.000000e+00 8.775068e-01 1.224932e-01 0.000000e+00 0.000000e+00
 0.000000e+00 0.000000e+00 7.876378e-01 2.123623e-01 0.000000e+00
 0.000000e+00 0.000000e+00 0.000000e+00 8.905249e-01 1.094751e-01
 0.000000e+00 0.000000e+00 0.000000e+00 0.000000e+00 0.000000e+00
<ENDHMM>
~h "one"
<BEGINHMM>
<NUMSTATES> 5
<STATE> 2
<MEAN> 39
 -5.628917e-01 -3.775293e+00 -9.279330e+00 -1.282003e+01 -1.657839e+00 -5.563828e+00 -2.020709e+00 -8.864933e+00 -2.706187e+00 -6.731821e+00 -1.547974e+00 -7.292440e+00 1.774814e+01 2.774473e-01 -4.060077e-01 -8.731206e-01 4.578676e-01 4.880296e-01 4.016119e-02 -2.916999e-01 2.272561e-01 2.039549e-01 -3.066431e-01 -3.899480e-01 -2.720696e-01 2.373979e-01 -1.192679e-01 -1.465306e-01 5.414535e-02 2.651566e-01 7.970331e-03 -1.161510e-01 -1.506402e-02 9.391411e-02 -1.090443e-02 -9.036674e-02 1.112933e-02 8.314683e-02 -2.110574e-02
<VARIANCE> 39
 7.549001e+00 9.248852e+00 2.886822e+01 2.285583e+01 2.890675e+01 2.533918e+01 2.282077e+01 2.065969e+01 2.828512e+01 2.395444e+01 2.968334e+01 2.876484e+01 2.265709e+00 4.572211e-01 7.993646e-01 8.716059e-01 2.245306e+00 1.372492e+00 1.442281e+00 1.268216e+00 1.066016e+00 1.133745e+00 1.021436e+00 1.095167e+00 1.045071e+00 4.810122e-02 4.472870e-02 6.124986e-02 1.908826e-01 2.174400e-01 2.628573e-01 2.525463e-01 2.367726e-01 1.810541e-01 2.006682e-01 1.693320e-01 1.889270e-01 1.838521e-01 4.995562e-03
<GCONST> 8.016502e+01
<STATE> 3
<MEAN> 39
 -2.365845e+00 -1.071513e+01 -1.090177e+01 -1.689100e+00 -4.441114e-01 -9.494473e+00 -2.446864e+00 -4.207384e+00 -3.535983e+00 -1.172773e+01 -2.378228e+00 -6.056017e+00 1.853593e+01 -6.083213e-01 -3.737979e-01 1.339269e+00 5.725464e-01 -1.353420e+00 -3.280312e-01 1.195648e+00 -8.911890e-02 -9.245136e-01 -9.229219e-02 5.861754e-01 1.197450e-01 -4.917317e-02 2.359612e-02 3.139463e-01 2.517590e-01 -5.823239e-01 -1.342376e-01 3.765845e-01 9.197184e-02 -4.376508e-01 -1.755392e-04 3.804784e-01 4.404680e-02 -1.767904e-01 -2.978540e-02
<VARIANCE> 39
 6.139100e+00 9.608631e+00 1.865714e+01 2.375503e+01 2.701238e+01 1.740499e+01 3.767009e+01 3.139109e+01 4.646125e+01 3.755389e+01 3.383754e+01 3.321781e+01 1.544303e+00 1.544824e-01 5.159962e-01 6.043569e-01 1.832166e+00 7.393091e-01 1.712019e+00 1.007507e+00 2.247591e+00 1.165840e+00 1.864565e+00 1.028611e+00 1.293541e+00 8.478348e-03 2.364914e-02 5.254934e-02 1.008276e-01 1.224742e-01 2.853305e-01 1.528484e-01 3.760167e-01 1.782108e-01 3.358980e-01 2.003739e-01 2.674325e-01 1.681010e-01 8.554444e-04
<GCONST> 7.513358e+01
<STATE> 4
<MEAN> 39
 -4.105479e+00 -5.415735e+00 -1.636945e+00 -8.752110e+00 -4.065397e+00 -5.854878e+00 -1.672259e+00 -1.194671e+01 -4.644725e+00 -8.685410e+00 -2.578286e+00 -8.293433e+00 1.778409e+01 1.509578e-01 9.697582e-01 6.243145e-01 -7.279168e-01 4.268854e-01 -6.558704e-02 -6.301581e-01 -4.443531e-01 8.180378e-02 2.297811e-01 -1.765282e-01 5.032327e-02 -1.278900e-01 4.425903e-02 -6.866924e-02 -2.142998e-01 1.672607e-01 1.610322e-01 -6.854950e-02 -6.796431e-02 1.652305e-01 1.346042e-02 -1.166124e-01 1.020240e-02 7.498101e-02 -5.519147e-03
<VARIANCE> 39
 6.947805e+00 2.328953e+01 1.104255e+01 2.143015e+01 1.961146e+01 4.665304e+01 3.616187e+01 3.531998e+01 4.120785e+01 4.574145e+01 3.327489e+01 3.778008e+01 1.325376e+00 2.764972e-01 6.146525e-01 8.077219e-01 1.205896e+00 9.141449e-01 1.967099e+00 1.136940e+00 1.444174e+00 1.607767e+00 1.540763e+00 9.443271e-01 9.592649e-01 1.267521e-02 4.883389e-02 1.199657e-01 8.183629e-02 1.339129e-01 2.006855e-01 3.082222e-01 2.740739e-01 1.858175e-01 2.302060e-01 2.257302e-01 1.685956e-01 1.675598e-01 1.603957e-03
<GCONST> 7.851272e+01
<TRANSP> 5
 0.000000e+00 1.000000e+00 0.000000e+00 0.000000e+00 0.000000e+00
 0.000000e+00 8.982027e-01 1.017972e-01 0.000000e+00 0.000000e+00
 0.000000e+00 0.000000e+00 8.248966e-01 1.751035e-01 0.000000e+00
 0.000000e+00 0.000000e+00 0.000000e+00 8.843204e-01 1.156796e-01
 0.000000e+00 0.000000e+00 0.000000e+00 0.000000e+00 0.000000e+00
<ENDHMM>
~h "sil"
<BEGINHMM>
<NUMSTATES> 5
<STATE> 2
<MEAN> 39
 -6.781181e+00 -6.748363e+00 -5.112340e+00 -9.115597e+00 -1.967475e-02 -3.388262e+00 1.733655e-01 -8.540046e+00 -2.616994e+00 -5.767429e+00 5.599893e-01 -4.302171e+00 1.461607e+01 -3.770884e-02 -2.229209e-03 -2.700812e-03 3.353570e-02 4.134293e-02 2.658452e-02 4.813761e-02 3.788698e-03 -1.786115e-02 5.903617e-03 1.590469e-02 1.261815e-02 -1.227677e-02 -2.596502e-02 -3.359243e-02 -7.332953e-02 -1.082984e-01 -1.187105e-01 -1.161573e-01 -6.129574e-02 -8.151649e-03 -2.173232e-02 1.057687e-02 3.717413e-02 2.977769e-02 1.892904e-03
<VARIANCE> 39
 3.605392e+00 4.339227e+00 5.984520e+00 7.599150e+00 1.195424e+01 1.365302e+01 1.465772e+01 1.631783e+01 1.574552e+01 1.373676e+01 1.578613e+01 1.310690e+01 1.166209e+00 7.800381e-02 1.585279e-01 2.704244e-01 3.723810e-01 4.933010e-01 6.557614e-01 6.797770e-01 7.122082e-01 6.933775e-01 5.747752e-01 6.352031e-01 5.629095e-01 4.991222e-03 1.089126e-02 2.399113e-02 4.031900e-02 5.010343e-02 7.057429e-02 1.015712e-01 1.068061e-01 1.302485e-01 1.117280e-01 9.221720e-02 1.051603e-01 9.906809e-02 6.325784e-04
<GCONST> 4.371577e+01
<STATE> 3
~s "silst"
<STATE> 4
<MEAN> 39
 -7.606123e+00 -7.340754e+00 -6.616223e+00 -1.117224e+01 -2.175217e+00 -5.394748e+00 -1.001863e+00 -8.638370e+00 -2.697895e+00 -5.396720e+00 1.455680e+00 -3.844448e+00 1.448352e+01 -3.233140e-03 7.217764e-03 -2.773828e-02 -2.926699e-02 -5.403420e-02 -2.059512e-02 -6.055728e-02 -7.499205e-03 -3.219662e-03 -6.339919e-03 -2.070145e-02 -1.954544e-02 1.691137e-05 3.892424e-02 5.856861e-02 9.595359e-02 1.262170e-01 1.321370e-01 1.258365e-01 6.195928e-02 1.510487e-02 2.581809e-02 -1.754059e-02 -5.647685e-02 -4.032437e-02 8.848906e-03
<VARIANCE> 39
 3.531327e+00 4.164810e+00 6.418078e+00 7.856814e+00 1.126602e+01 1.259531e+01 1.498604e+01 1.597073e+01 1.771144e+01 1.533565e+01 1.513330e+01 1.341343e+01 9.973901e-01 7.758781e-02 1.688065e-01 2.884663e-01 4.169025e-01 5.055880e-01 6.764561e-01 5.960451e-01 7.436656e-01 7.105934e-01 6.078356e-01 7.008079e-01 6.129180e-01 3.277336e-03 1.442848e-02 2.897456e-02 4.219288e-02 5.726787e-02 7.339023e-02 1.088174e-01 1.041147e-01 1.284155e-01 1.333046e-01 1.060869e-01 1.175775e-01 1.100067e-01 1.120383e-03
<GCONST> 4.553799e+01
<TRANSP> 5
 0.000000e+00 1.000000e+00 0.000000e+00 0.000000e+00 0.000000e+00
 0.000000e+00 7.701331e-01 2.418899e-02 2.056779e-01 0.000000e+00
 0.000000e+00 0.000000e+00 8.270193e-01 1.729808e-01 0.000000e+00
 0.000000e+00 1.877814e-01 0.000000e+00 7.422772e-01 6.994140e-02
 0.000000e+00 0.000000e+00 0.000000e+00 0.000000e+00 0.000000e+00
<ENDHMM>
~h "six"
<BEGINHMM>
<NUMSTATES> 5
<STATE> 2
<MEAN> 39
 -8.669340e+00 -4.251659e+00 -6.967051e+00 -8.745283e+00 -3.108143e+00 -4.257840e+00 -1.959695e+00 -8.231612e+00 -3.550170e+00 -3.994283e+00 1.208047e-01 -3.143997e+00 1.495907e+01 6.808838e-01 6.825317e-01 1.205578e+00 -1.389402e+00 -1.164170e+00 -1.216919e+00 4.198811e-02 -1.323989e-01 4.249958e-01 3.496153e-01 -5.205304e-01 -4.781041e-01 6.329403e-01 6.493452e-02 1.143463e-01 2.245541e-01 -4.788797e-01 -2.776572e-01 -1.667645e-01 4.363184e-02 7.675011e-02 2.048414e-01 -1.060315e-03 -1.367919e-01 -2.390243e-01 1.444509e-01
<VARIANCE> 39
 7.503407e+00 7.807757e+00 1.269182e+01 1.148117e+01 1.907859e+01 2.008598e+01 1.520853e+01 1.802457e+01 2.006402e+01 2.978542e+01 1.917136e+01 1.709809e+01 1.878531e+00 3.586573e-01 4.708355e-01 8.836098e-01 1.147276e+00 1.075896e+00 1.325072e+00 1.007540e+00 8.115392e-01 1.421172e+00 2.243192e+00 1.077360e+00 1.327380e+00 7.625549e-02 6.200323e-02 5.627371e-02 1.151905e-01 9.814348e-02 2.032868e-01 2.093054e-01 1.476204e-01 1.770135e-01 1.848247e-01 2.379650e-01 1.709289e-01 1.682993e-01 8.932120e-03
<GCONST> 7.410617e+01
<STATE> 3
<MEAN> 39
 -6.471697e+00 -1.099715e+00 -8.565086e-01 -2.012510e+01 -7.859778e+00 -8.734061e+00 -2.437165e+00 -6.379091e+00 2.482842e-01 -3.796031e+00 -2.525117e+00 -7.322543e+00 1.832947e+01 2.386051e-02 -8.723048e-02 2.203642e-01 -2.807438e-01 3.764370e-01 2.140188e-01 -2.752060e-01 1.720159e-01 3.707124e-02 -1.964515e-01 1.706045e-01 7.793885e-03 -4.820559e-02 -5.667394e-02 -2.053070e-01 -2.669835e-01 4.879421e-01 2.882650e-01 2.210564e-01 6.801853e-02 -9.117411e-02 -1.468364e-01 -5.875216e-02 1.516721e-01 1.661178e-01 -1.671086e-01
<VARIANCE> 39
 7.692675e+00 9.750401e+00 1.663479e+01 2.303046e+01 5.852451e+01 3.111066e+01 3.720073e+01 2.460573e+01 3.463168e+01 5.833152e+01 3.543657e+01 3.744010e+01 1.432163e+00 3.494942e-01 6.523259e-01 1.075193e+00 3.228559e+00 2.395159e+00 1.759153e+00 1.734499e+00 1.341445e+00 1.887607e+00 2.010978e+00 1.867315e+00 1.896377e+00 2.935243e-01 6.820934e-02 6.607629e-02 1.609784e-01 2.257513e-01 3.062720e-01 3.193815e-01 3.837153e-01 2.241129e-01 2.868774e-01 3.401662e-01 2.636951e-01 2.553332e-01 1.166200e-02
<GCONST> 9.187975e+01
<STATE> 4
<MEAN> 39
 -6.563050e+00 -6.249864e+00 -4.681238e+00 -1.081153e+01 -1.002265e+00 -3.977207e+00 -1.434482e+00 -8.752432e+00 -2.164012e+00 -5.868465e+00 1.163052e+00 -4.220747e+00 1.475282e+01 -2.338791e-01 -9.106379e-01 -1.005123e+00 1.461542e+00 4.133183e-01 4.083080e-01 9.073440e-01 -4.569016e-01 -2.820720e-01 -4.059426e-02 2.005108e-01 2.985768e-01 -4.643646e-01 -1.053817e-01 1.691163e-01 2.072792e-01 -4.381478e-01 -3.787161e-01 -1.607193e-01 -8.539250e-02 1.720513e-01 1.162083e-01 1.035685e-01 -1.793463e-01 -1.430173e-01 1.499778e-01
<VARIANCE> 39
 3.291210e+00 5.444703e+00 9.443480e+00 1.106832e+01 1.463475e+01 1.564623e+01 1.950323e+01 1.857750e+01 1.687734e+01 1.705723e+01 1.861691e+01 1.491686e+01 1.491003e+00 2.675643e-01 4.870642e-01 8.966686e-01 1.309864e+00 2.110500e+00 1.651414e+00 1.602877e+00 1.249487e+00 1.214288e+00 1.204695e+00 1.177805e+00 1.023239e+00 7.940336e-02 3.887444e-02 6.518842e-02 1.378519e-01 1.468632e-01 2.331887e-01 1.805380e-01 2.655747e-01 1.924409e-01 1.855180e-01 1.735201e-01 1.977265e-01 1.825164e-01 5.795088e-03
<GCONST> 7.239935e+01
<TRANSP> 5
 0.000000e+00 1.000000e+00 0.000000e+00 0.000000e+00 0.000000e+00
 0.000000e+00 7.165632e-01 2.834368e-01 0.000000e+00 0.000000e+00
 0.000000e+00 0.000000e+00 8.890961e-01 1.109038e-01 0.000000e+00
 0.000000e+00 0.000000e+00 0.000000e+00 7.504992e-01 2.495009e-01
 0.000000e+00 0.000000e+00 0.000000e+00 0.000000e+00 0.000000e+00
<ENDHMM>
~h "two"
<BEGINHMM>
<NUMSTATES> 5
<STATE> 2
<MEAN> 39
 -1.097829e+01 -3.256223e+00 -6.755518e+00 -1.061175e+01 -9.952790e-01 -3.867517e+00 -1.969691e+00 -7.520669e+00 -2.330242e+00 -5.688690e+00 1.128955e+00 -3.366777e+00 1.506305e+01 4.926259e-01 6.197012e-01 1.002224e+00 -5.831654e-01 -2.613683e-01 -3.564667e-01 -4.638422e-01 -2.096460e-01 7.071649e-02 -5.640042e-02 -2.314876e-01 -3.565430e-01 3.217939e-01 2.978474e-01 6.077698e-02 2.895756e-01 -1.308020e-01 -2.064777e-01 -2.398480e-01 -1.169536e-01 -1.256158e-01 -2.614108e-02 3.290087e-03 -7.761169e-02 -1.691481e-01 9.252192e-02
<VARIANCE> 39
 8.817635e+00 8.094339e+00 1.271171e+01 1.233897e+01 1.842850e+01 2.274514e+01 1.917541e+01 2.121062e+01 2.134515e+01 2.392701e+01 2.468723e+01 1.982975e+01 9.005592e-01 1.376731e+00 5.615454e-01 1.284443e+00 8.292392e-01 1.351171e+00 1.287563e+00 9.860069e-01 1.192150e+00 1.167249e+00 1.288586e+00 1.866777e+00 1.103151e+00 7.273760e-02 1.259067e-01 1.097522e-01 1.340777e-01 1.300639e-01 2.285282e-01 1.984158e-01 1.755191e-01 2.238805e-01 2.264283e-01 2.024434e-01 3.589804e-01 1.592375e-01 7.904412e-03
<GCONST> 7.895640e+01
<STATE> 3
<MEAN> 39
 -4.602719e+00 1.268072e+00 1.859708e+00 -1.551792e+01 -6.946450e+00 -9.939947e+00 -6.698841e+00 -1.043871e+01 -2.409262e+00 -5.176547e+00 -1.123569e+00 -7.306165e+00 1.840581e+01 6.644158e-01 5.440544e-01 7.437288e-01 -5.417509e-01 -1.163124e+00 -1.106226e+00 -5.673303e-01 -2.814557e-01 -6.578517e-02 1.261231e-01 -2.157268e-01 -6.243028e-01 4.516610e-01 -2.501417e-01 -2.348077e-01 -4.261906e-01 2.988859e-01 2.723747e-01 2.321597e-01 2.357248e-01 1.460145e-01 -1.893532e-02 -9.669065e-03 1.532060e-01 1.828517e-01 -1.449933e-01
<VARIANCE> 39
 7.464609e+00 8.105776e+00 1.363412e+01 2.233288e+01 3.967005e+01 2.562498e+01 2.822000e+01 2.453374e+01 3.157980e+01 5.527726e+01 4.392572e+01 4.849566e+01 1.037776e+00 5.681044e-01 6.280699e-01 9.870705e-01 1.463829e+00 1.293178e+00 1.205620e+00 1.681066e+00 1.516310e+00 1.845735e+00 1.989694e+00 2.392337e+00 1.874645e+00 8.951253e-02 6.149174e-02 5.358417e-02 8.130039e-02 1.250467e-01 2.048213e-01 1.807400e-01 2.041379e-01 1.910746e-01 2.122266e-01 2.736190e-01 2.891313e-01 2.221740e-01 6.537273e-03
<GCONST> 8.376832e+01
<STATE> 4
<MEAN> 39
 -3.233385e+00 -5.647864e-02 -4.280921e-02 -1.366452e+01 -7.123380e+00 -1.157489e+01 -5.645558e+00 -9.635068e+00 -2.709742e+00 -5.307423e+00 -1.590649e-01 -7.599066e+00 1.824020e+01 1.669944e-01 -2.230657e-01 -2.385034e-01 5.385154e-01 3.366512e-01 8.566485e-02 9.841645e-02 -5.501890e-02 -1.930479e-01 -8.645199e-02 7.789811e-02 1.596097e-01 -1.200270e-01 -4.356508e-02 -3.797277e-02 -2.657321e-02 2.444760e-02 9.568010e-02 1.093845e-01 5.184467e-02 4.837966e-03 1.999532e-02 1.215622e-03 -5.767430e-03 4.460701e-02 -3.522992e-02
<VARIANCE> 39
 5.894871e+00 7.954999e+00 1.254097e+01 2.980820e+01 3.400717e+01 2.156345e+01 3.316373e+01 3.371063e+01 3.985122e+01 4.293877e+01 5.473498e+01 4.156551e+01 1.359189e+00 1.336042e-01 1.530608e-01 3.770882e-01 6.212773e-01 9.122139e-01 8.557469e-01 8.811953e-01 1.028937e+00 9.030355e-01 9.881853e-01 1.046281e+00 9.318038e-01 1.451147e-02 2.163315e-02 2.516206e-02 5.075945e-02 8.856601e-02 1.056481e-01 1.240868e-01 1.292989e-01 1.600748e-01 1.488278e-01 1.527017e-01 1.593301e-01 1.459225e-01 2.343932e-03
<GCONST> 6.575418e+01
<TRANSP> 5
 0.000000e+00 1.000000e+00 0.000000e+00 0.000000e+00 0.000000e+00
 0.000000e+00 8.218205e-01 1.781795e-01 0.000000e+00 0.000000e+00
 0.000000e+00 0.000000e+00 7.672097e-01 2.327903e-01 0.000000e+00
 0.000000e+00 0.000000e+00 0.000000e+00 9.013878e-01 9.861226e-02
 0.000000e+00 0.000000e+00 0.000000e+00 0.000000e+00 0.000000e+00
<ENDHMM>
~h "nine"
<BEGINHMM>
<NUMSTATES> 5
<STATE> 2
<MEAN> 39
 -4.467248e+00 -4.319695e+00 -2.079547e+00 -8.923659e+00 -3.038534e+00 -6.193540e+00 -1.514678e+00 -1.117636e+01 -5.007959e+00 -8.083747e+00 -2.952591e+00 -7.812396e+00 1.757087e+01 -1.376601e-01 -6.737648e-01 -2.221680e-01 4.960149e-01 -4.936002e-01 1.737253e-01 3.885268e-01 -1.974378e-01 -3.855287e-02 -1.525907e-01 -1.776896e-01 -1.451498e-01 2.492034e-01 -3.855513e-02 -1.265031e-01 -7.505770e-02 1.148421e-01 1.853021e-02 -6.520478e-03 3.844997e-02 3.160682e-02 9.960207e-03 6.590566e-03 8.045944e-02 3.497783e-02 -1.068476e-02
<VARIANCE> 39
 8.938611e+00 2.039343e+01 1.532249e+01 1.684896e+01 2.863601e+01 2.890358e+01 3.201657e+01 2.751238e+01 4.724611e+01 3.538649e+01 3.016070e+01 3.279247e+01 2.298113e+00 5.320027e-01 1.579679e+00 1.145023e+00 1.118070e+00 1.137519e+00 1.424656e+00 1.646176e+00 1.277970e+00 1.529269e+00 1.154847e+00 1.246272e+00 1.038437e+00 3.757202e-02 6.490014e-02 1.814954e-01 1.345574e-01 1.402054e-01 2.019854e-01 2.220375e-01 2.430577e-01 1.863196e-01 1.998073e-01 1.611544e-01 1.736480e-01 1.449282e-01 4.927129e-03
<GCONST> 8.288914e+01
<STATE> 3
<MEAN> 39
 -6.290628e+00 -1.167305e+01 -4.987242e+00 -2.493103e+00 -5.655589e+00 -5.431855e+00 1.785349e+00 -1.126507e+01 -5.679102e+00 -9.068492e+00 -1.604709e+00 -7.685261e+00 1.862180e+01 -1.082615e-01 6.587780e-02 2.330308e-01 -2.054412e-01 -4.686641e-02 2.054894e-01 -7.341027e-02 -1.009140e-01 1.717090e-01 6.967714e-02 -3.999628e-02 3.045158e-02 -1.980185e-02 -2.995184e-03 1.878718e-01 7.741660e-02 -2.486259e-01 3.303767e-02 8.099152e-02 -1.012166e-01 -1.936542e-03 8.308179e-02 -5.384601e-03 -7.943323e-02 2.508068e-02 -1.439791e-02
<VARIANCE> 39
 7.198054e+00 8.451674e+00 2.463096e+01 3.137000e+01 1.880509e+01 3.042504e+01 3.088303e+01 3.410271e+01 4.310166e+01 4.184320e+01 2.805870e+01 3.031941e+01 1.011837e+00 8.114818e-02 3.212575e-01 4.021009e-01 1.031961e+00 4.633709e-01 6.109910e-01 5.232023e-01 4.996269e-01 6.120964e-01 6.482115e-01 6.582938e-01 5.175956e-01 4.581169e-03 1.054570e-02 2.932015e-02 3.925623e-02 5.256585e-02 6.928992e-02 6.526978e-02 7.263467e-02 7.667974e-02 7.950180e-02 8.555072e-02 7.634071e-02 7.776228e-02 3.925246e-04
<GCONST> 5.266837e+01
<STATE> 4
<MEAN> 39
 -6.219519e+00 -3.174259e+00 -1.625097e+00 -1.203734e+01 -1.903200e+00 -4.490004e+00 -3.314580e+00 -1.019664e+01 -2.792480e+00 -8.219887e+00 -3.088776e+00 -6.512180e+00 1.789963e+01 3.932231e-01 8.495113e-01 1.535856e-01 -3.098911e-01 5.438142e-01 -4.755597e-01 -4.737530e-01 3.274957e-01 -1.990854e-01 5.485164e-02 9.745073e-02 5.330013e-02 -1.226673e-01 4.360917e-02 -1.235580e-01 -3.715781e-02 2.355445e-01 -1.482212e-02 -7.311973e-02 1.047542e-01 -3.502984e-02 -1.089536e-01 2.567396e-02 7.964521e-02 -2.934675e-02 -1.026912e-02
<VARIANCE> 39
 1.145156e+01 2.010830e+01 1.219912e+01 2.402111e+01 3.582451e+01 3.415267e+01 3.366434e+01 2.992174e+01 4.906367e+01 3.962456e+01 3.857209e+01 4.244357e+01 1.076039e+00 4.062635e-01 9.276440e-01 5.741573e-01 1.873408e+00 1.354271e+00 1.383321e+00 1.361001e+00 1.284919e+00 1.675456e+00 1.184632e+00 1.059454e+00 1.024087e+00 9.886482e-03 5.705915e-02 9.915350e-02 8.653418e-02 1.494353e-01 1.942034e-01 2.405443e-01 1.805544e-01 1.979354e-01 2.316450e-01 1.955461e-01 1.707221e-01 1.415406e-01 1.008757e-03
<GCONST> 7.866750e+01
<TRANSP> 5
 0.000000e+00 1.000000e+00 0.000000e+00 0.000000e+00 0.000000e+00
 0.000000e+00 8.953916e-01 1.046084e-01 0.000000e+00 0.000000e+00
 0.000000e+00 0.000000e+00 9.109151e-01 8.908485e-02 0.000000e+00
 0.000000e+00 0.000000e+00 0.000000e+00 8.980845e-01 1.019155e-01
 0.000000e+00 0.000000e+00 0.000000e+00 0.000000e+00 0.000000e+00
<ENDHMM>
~h "five"
<BEGINHMM>
<NUMSTATES> 5
<STATE> 2
<MEAN> 39
 -4.151386e+00 -1.137404e+01 -1.009539e+01 -8.248116e+00 4.991939e-01 -8.159956e+00 3.460347e-01 -4.644226e+00 -5.265173e+00 -7.960260e+00 -1.837926e+00 -4.912482e+00 1.799653e+01 3.570181e-01 -1.176704e+00 -7.142376e-01 7.864920e-01 5.164516e-01 -6.384509e-01 3.348269e-01 3.955688e-01 -7.500161e-01 -2.176075e-01 -2.964848e-01 -2.788933e-03 5.630158e-01 -1.931596e-01 2.774231e-02 1.781484e-01 9.072880e-02 -1.452079e-02 1.060020e-01 2.971127e-02 -2.064650e-01 2.767489e-02 1.398853e-01 1.615279e-01 5.044556e-02 -7.565845e-02
<VARIANCE> 39
 1.079465e+01 1.962709e+01 2.371984e+01 1.677743e+01 1.903368e+01 2.056221e+01 2.531232e+01 5.162891e+01 3.227192e+01 2.808066e+01 2.500111e+01 1.994712e+01 4.328481e+00 7.722598e-01 5.613394e-01 1.174885e+00 9.056231e-01 7.891276e-01 9.854618e-01 9.722648e-01 2.233783e+00 1.726202e+00 1.726296e+00 1.364342e+00 1.026908e+00 1.229651e-01 9.402609e-02 1.329374e-01 1.769797e-01 1.234509e-01 1.363367e-01 1.445591e-01 1.543814e-01 3.000557e-01 2.738886e-01 1.925349e-01 1.754417e-01 1.403911e-01 2.796737e-02
<GCONST> 8.430710e+01
<STATE> 3
<MEAN> 39
 -5.810046e+00 -1.545240e+01 -8.554675e+00 -3.643591e+00 1.425221e+00 -9.174576e+00 2.535711e+00 -7.497789e+00 -7.217334e+00 -5.453388e+00 -4.650840e-01 -4.502786e+00 1.904673e+01 -1.660058e-01 8.389445e-02 4.906439e-01 -2.578982e-01 -2.713860e-01 4.344958e-01 6.874909e-02 -3.989407e-01 2.721078e-02 3.039307e-01 6.091283e-02 -8.461550e-02 -4.854900e-02 4.022643e-02 1.143861e-01 1.136921e-02 -1.966854e-01 -5.488553e-02 9.325727e-02 -2.896420e-02 2.472462e-02 5.647160e-02 -4.905684e-02 -7.783137e-02 -1.871913e-02 -1.496281e-02
<VARIANCE> 39
 9.173417e+00 9.380298e+00 2.483932e+01 2.081502e+01 1.874901e+01 2.312374e+01 1.751114e+01 3.904828e+01 4.701490e+01 4.449461e+01 2.688481e+01 2.551835e+01 1.356870e+00 8.784271e-02 1.530087e-01 2.696424e-01 6.336798e-01 4.957879e-01 5.513732e-01 4.976346e-01 4.931230e-01 6.128956e-01 5.704674e-01 5.682938e-01 4.732371e-01 5.854555e-03 1.174033e-02 2.419740e-02 3.029341e-02 4.807540e-02 5.118356e-02 5.160122e-02 5.701280e-02 6.415094e-02 8.525510e-02 8.421620e-02 6.646755e-02 7.039506e-02 9.054823e-04
<GCONST> 4.962521e+01
<STATE> 4
<MEAN> 39
 -5.752429e+00 -9.409431e+00 -3.940741e+00 -1.391117e+01 -3.282220e+00 -2.813728e+00 1.869875e+00 -8.421951e+00 -4.204442e+00 -5.238136e+00 -2.265219e+00 -5.520787e+00 1.830188e+01 2.169452e-01 1.206602e+00 3.702661e-01 -6.415989e-01 -3.921629e-01 -1.029579e-01 -3.103395e-01 2.565512e-01 5.543451e-01 -2.122285e-01 -7.186853e-02 -8.891511e-02 -2.459663e-01 -1.748163e-02 -2.160690e-02 -5.276782e-02 3.436860e-01 1.403282e-01 -1.802157e-01 -6.275916e-02 -1.010466e-02 -4.296547e-02 1.669560e-02 1.215063e-01 3.989722e-02 -4.834289e-02
<VARIANCE> 39
 7.867367e+00 2.309053e+01 1.221428e+01 3.191105e+01 4.211874e+01 1.957924e+01 2.462993e+01 3.666063e+01 5.311974e+01 2.795868e+01 2.708323e+01 3.009062e+01 1.837738e+00 2.146170e-01 4.989429e-01 5.738519e-01 2.637260e+00 1.471005e+00 1.621095e+00 9.744635e-01 1.331398e+00 1.638373e+00 1.337575e+00 1.268754e+00 9.162448e-01 4.137004e-02 4.305446e-02 9.683699e-02 7.586921e-02 2.402531e-01 2.361676e-01 2.301069e-01 1.663265e-01 2.294233e-01 2.225764e-01 1.790912e-01 2.066254e-01 1.646603e-01 4.442479e-03
<GCONST> 8.035717e+01
<TRANSP> 5
 0.000000e+00 1.000000e+00 0.000000e+00 0.000000e+00 0.000000e+00
 0.000000e+00 8.472299e-01 1.527701e-01 0.000000e+00 0.000000e+00
 0.000000e+00 0.000000e+00 9.124377e-01 8.756231e-02 0.000000e+00
 0.000000e+00 0.000000e+00 0.000000e+00 8.642492e-01 1.357509e-01
 0.000000e+00 0.000000e+00 0.000000e+00 0.000000e+00 0.000000e+00
<ENDHMM>
~h "four"
<BEGINHMM>
<NUMSTATES> 5
<STATE> 2
<MEAN> 39
 -6.732950e+00 -6.537162e+00 -5.533048e+00 -9.764913e+00 -1.582776e+00 -5.567308e+00 -1.224687e+00 -8.405310e+00 -1.999536e+00 -5.577369e+00 9.638800e-01 -4.277195e+00 1.536652e+01 1.575811e+00 5.387287e-01 -9.096902e-01 -8.640108e-01 -3.073136e-01 -5.365239e-01 -6.972607e-01 -1.940758e-01 1.932380e-01 2.021526e-01 -3.460018e-01 -4.896162e-01 6.462253e-01 3.485764e-01 1.245945e-01 -3.368829e-01 -3.165499e-01 -5.768724e-02 -5.464771e-03 -7.935087e-02 -1.704473e-02 1.921194e-03 5.397239e-02 -7.866420e-02 -1.318074e-01 1.425349e-01
<VARIANCE> 39
 7.678998e+00 5.431713e+00 5.406815e+00 7.841140e+00 1.004255e+01 1.247076e+01 1.449776e+01 1.362807e+01 1.605062e+01 1.350035e+01 1.612862e+01 1.223252e+01 1.735127e+00 5.102818e-01 4.351311e-01 5.981044e-01 7.389800e-01 7.156638e-01 9.082963e-01 7.487724e-01 8.227878e-01 1.020840e+00 1.091359e+00 1.528863e+00 1.232545e+00 5.722791e-02 6.826416e-02 5.338435e-02 6.055202e-02 8.253056e-02 1.012641e-01 1.522408e-01 1.211989e-01 1.509270e-01 1.397590e-01 1.607420e-01 1.994747e-01 1.874200e-01 7.217943e-03
<GCONST> 6.402956e+01
<STATE> 3
<MEAN> 39
 1.597052e+00 -3.480650e+00 -1.216893e+01 -1.705093e+01 -4.001023e+00 -6.176120e+00 -3.167032e+00 -8.952841e+00 -1.398669e+00 -3.855320e+00 4.302270e-01 -6.776505e+00 1.891492e+01 3.030218e-01 -1.871939e-01 -3.242698e-01 -3.626624e-02 7.431044e-02 -1.778990e-02 -2.189793e-01 1.751865e-01 3.535365e-01 9.303032e-02 -2.295855e-01 -2.199212e-01 1.425742e-01 -1.735023e-01 -1.542320e-01 1.500208e-01 2.362591e-01 3.837857e-02 -3.663605e-02 3.794711e-02 1.109544e-01 4.733811e-02 -8.560349e-02 -5.586056e-02 5.675508e-02 -6.755397e-02
<VARIANCE> 39
 4.139034e+00 1.026806e+01 9.590461e+00 1.372974e+01 2.440111e+01 1.714949e+01 1.857572e+01 1.714799e+01 2.362860e+01 2.482314e+01 3.810186e+01 3.757575e+01 1.086670e+00 5.209750e-01 7.266943e-01 6.847671e-01 1.212732e+00 9.696037e-01 7.713855e-01 9.085619e-01 9.565739e-01 1.308617e+00 1.174937e+00 1.337872e+00 1.241409e+00 9.270959e-02 4.950865e-02 4.574041e-02 9.588344e-02 8.012256e-02 1.358160e-01 1.434525e-01 1.560861e-01 1.412282e-01 1.815077e-01 1.920676e-01 1.991581e-01 1.870348e-01 7.210480e-03
<GCONST> 7.251193e+01
<STATE> 4
<MEAN> 39
 -2.650852e-01 -1.131051e+01 -7.978182e+00 -8.562068e+00 -5.377163e+00 -8.944603e+00 -2.202271e+00 -4.233257e+00 6.468662e-01 -7.567141e+00 -3.910622e+00 -7.362625e+00 1.854927e+01 -5.527465e-01 -3.247527e-02 1.188400e+00 5.178730e-01 -5.920389e-01 2.914242e-02 6.830230e-01 -1.586109e-01 -6.805554e-01 -3.921987e-01 1.339100e-01 2.577664e-01 -2.039268e-01 -8.727752e-02 3.019838e-01 6.713553e-04 -2.178148e-01 1.357485e-01 2.153075e-01 1.411451e-02 -2.457006e-01 -1.511614e-01 1.212389e-01 1.774870e-01 3.068235e-02 -5.097579e-02
<VARIANCE> 39
 6.984167e+00 1.431404e+01 2.849932e+01 1.842890e+01 4.718602e+01 3.738781e+01 3.524767e+01 3.893917e+01 4.504743e+01 3.449903e+01 3.467869e+01 3.193644e+01 1.577637e+00 2.193967e-01 1.523677e+00 6.633387e-01 1.663226e+00 2.091196e+00 2.162764e+00 1.566358e+00 2.596953e+00 1.820010e+00 1.725741e+00 1.796350e+00 1.076734e+00 4.096949e-02 2.919839e-02 9.483588e-02 1.879153e-01 1.663579e-01 4.425894e-01 3.015371e-01 3.549879e-01 3.384692e-01 3.789517e-01 2.795784e-01 3.071953e-01 2.166533e-01 3.209644e-03
<GCONST> 8.840046e+01
<TRANSP> 5
 0.000000e+00 1.000000e+00 0.000000e+00 0.000000e+00 0.000000e+00
 0.000000e+00 7.013859e-01 2.986141e-01 0.000000e+00 0.000000e+00
 0.000000e+00 0.000000e+00 9.182215e-01 8.177853e-02 0.000000e+00
 0.000000e+00 0.000000e+00 0.000000e+00 8.713833e-01 1.286167e-01
 0.000000e+00 0.000000e+00 0.000000e+00 0.000000e+00 0.000000e+00
<ENDHMM>
~h "zero"
<BEGINHMM>
<NUMSTATES> 5
<STATE> 2
<MEAN> 39
 -6.843686e+00 -1.873005e+00 -4.571723e+00 -7.688048e+00 -2.526133e+00 -4.696138e+00 -2.848340e+00 -8.922754e+00 -3.639996e+00 -4.158535e+00 1.224663e-01 -4.379983e+00 1.566149e+01 2.804843e-01 1.046589e+00 9.735100e-01 -1.159702e+00 -8.295314e-01 -1.408729e+00 -6.265699e-01 -6.030957e-01 3.230422e-01 3.352699e-01 -1.316362e-01 -2.385076e-01 4.916707e-01 3.659502e-02 9.476607e-02 1.827763e-01 -3.591243e-01 -1.726072e-01 -2.304776e-01 4.322638e-03 -2.191700e-02 1.698786e-01 4.126819e-04 3.151826e-02 -8.992793e-02 9.207416e-02
<VARIANCE> 39
 6.893475e+00 1.043350e+01 1.554601e+01 1.467016e+01 2.104498e+01 2.217791e+01 1.921598e+01 1.978841e+01 2.965791e+01 2.452564e+01 2.237949e+01 1.999428e+01 1.480873e+00 3.159561e-01 4.260549e-01 7.588765e-01 9.369516e-01 8.480188e-01 1.287840e+00 9.716168e-01 1.180887e+00 1.344168e+00 9.783131e-01 1.204758e+00 1.533298e+00 4.246330e-02 4.658720e-02 1.027605e-01 1.272892e-01 1.082105e-01 1.313772e-01 2.174982e-01 1.590198e-01 1.926607e-01 1.621421e-01 1.505589e-01 1.802813e-01 1.678704e-01 6.440119e-03
<GCONST> 7.323908e+01
<STATE> 3
<MEAN> 39
 -5.561453e+00 3.144563e-01 9.463958e-01 -1.693964e+01 -7.860324e+00 -9.188521e+00 -4.572542e+00 -8.442085e+00 1.754533e-01 -3.750135e+00 1.718012e-01 -6.831947e+00 1.840812e+01 3.374946e-01 -7.438200e-01 4.413809e-01 -1.697684e-01 -1.080008e+00 2.641187e-01 2.056961e-01 1.952414e-01 3.204293e-01 -7.778883e-02 4.345320e-02 -1.247092e-01 1.660162e-01 5.164330e-02 -2.691000e-01 -1.736825e-01 3.719420e-01 1.651892e-02 1.354243e-01 1.950641e-01 5.536557e-02 -8.679254e-02 -4.416751e-02 -1.257992e-02 7.162206e-02 -6.443942e-02
<VARIANCE> 39
 7.432386e+00 2.063197e+01 1.739168e+01 2.627301e+01 5.930553e+01 4.052549e+01 3.223217e+01 4.422098e+01 3.110783e+01 3.031955e+01 3.454004e+01 5.111496e+01 1.092890e+00 4.425080e-01 1.625301e+00 8.033926e-01 2.615377e+00 1.742441e+00 2.527586e+00 1.685354e+00 1.421478e+00 1.341154e+00 1.177946e+00 1.107259e+00 1.320065e+00 6.289677e-02 5.148969e-02 1.129491e-01 1.260781e-01 1.802357e-01 2.454837e-01 4.093269e-01 2.257684e-01 2.479158e-01 2.120493e-01 1.745575e-01 1.724287e-01 2.174359e-01 4.558309e-03
<GCONST> 8.705217e+01
<STATE> 4
<MEAN> 39
 -1.604601e+00 -1.051320e+01 -4.389792e+00 -9.816320e+00 -9.685682e+00 -8.037689e+00 5.590180e-01 -4.106531e+00 -1.752754e-01 -6.699953e+00 -1.003973e+00 -5.666454e+00 1.854222e+01 8.292898e-02 1.108561e-02 -5.494851e-01 1.635060e-01 6.662468e-01 -1.770925e-01 -1.634951e-02 2.073693e-01 -6.449157e-02 -1.487707e-01 -9.260418e-02 -7.469621e-03 -5.366069e-02 -5.978101e-02 1.431443e-01 6.304827e-02 -8.617739e-02 8.699887e-02 4.111097e-02 -9.757397e-02 -8.205729e-02 -2.055897e-02 3.421758e-02 2.039931e-02 -8.793979e-03 -1.775911e-02
<VARIANCE> 39
 6.464127e+00 1.774395e+01 2.652744e+01 2.679823e+01 6.271988e+01 5.437275e+01 3.558333e+01 3.644809e+01 4.418974e+01 3.497738e+01 2.490745e+01 3.291693e+01 1.494896e+00 2.247022e-01 8.379821e-01 6.307179e-01 1.037947e+00 1.227433e+00 1.669738e+00 1.529280e+00 1.766523e+00 1.573488e+00 1.377142e+00 1.023343e+00 9.264815e-01 1.577095e-02 2.391132e-02 3.502722e-02 7.641225e-02 1.110534e-01 1.911467e-01 2.326589e-01 1.870207e-01 1.959325e-01 2.165143e-01 1.823296e-01 1.466966e-01 1.334325e-01 1.767097e-03
<GCONST> 7.715337e+01
<TRANSP> 5
 0.000000e+00 1.000000e+00 0.000000e+00 0.000000e+00 0.000000e+00
 0.000000e+00 7.330436e-01 2.669564e-01 0.000000e+00 0.000000e+00
 0.000000e+00 0.000000e+00 8.921592e-01 1.078408e-01 0.000000e+00
 0.000000e+00 0.000000e+00 0.000000e+00 9.397885e-01 6.021152e-02
 0.000000e+00 0.000000e+00 0.000000e+00 0.000000e+00 0.000000e+00
<ENDHMM>
