~o
<STREAMINFO> 1 39
<VECSIZE> 39<NULLD><MFCC_E_D_A><DIAGC>
~h "eight"
<BEGINHMM>
<NUMSTATES> 5
<STATE> 2
<MEAN> 39
 -7.524283e+00 -3.425343e+00 -5.693408e+00 -1.668138e+01 -6.472367e-01 -5.182488e+00 5.464640e-01 -6.746592e+00 -1.554704e+00 -6.763786e+00 -1.027589e+00 -5.331596e+00 1.714914e+01 -1.900148e-01 7.575337e-01 -8.186582e-02 -7.814626e-01 3.923456e-02 -4.145991e-01 5.497666e-02 2.967954e-01 3.011580e-01 4.555111e-02 -9.449028e-02 -9.567216e-02 2.139848e-01 3.509448e-02 8.254261e-02 1.092780e-02 8.963877e-02 -4.103935e-02 -1.680761e-01 -8.082502e-02 -2.284596e-02 2.705237e-02 6.061753e-02 5.858278e-02 -4.578822e-03 3.465148e-03
<VARIANCE> 39
 1.075574e+01 2.305872e+01 1.835808e+01 3.944755e+01 4.045800e+01 2.353737e+01 2.441545e+01 2.433801e+01 3.137281e+01 2.547042e+01 2.575897e+01 2.447296e+01 3.380887e+00 3.360932e-01 9.651034e-01 6.847348e-01 1.411192e+00 1.254017e+00 1.634328e+00 1.348151e+00 1.128201e+00 1.374376e+00 1.216732e+00 1.140056e+00 1.007753e+00 1.229778e-01 4.082842e-02 8.491902e-02 8.461762e-02 2.011340e-01 1.478585e-01 1.778288e-01 1.529704e-01 1.814238e-01 2.320958e-01 1.695061e-01 1.833561e-01 1.573077e-01 1.323964e-02
<GCONST> 8.183720e+01
<STATE> 3
<MEAN> 39
 -7.935256e+00 5.476011e+00 -4.908582e+00 -1.664720e+01 -2.357279e+00 -1.441943e+01 -3.035274e+00 -8.590870e+00 -1.333314e+00 -4.426866e+00 9.894903e-01 -5.287195e+00 1.807282e+01 2.038433e-01 -4.290381e-01 1.808118e-01 9.720606e-01 1.361420e-01 6.935993e-02 -3.419766e-01 -6.694610e-01 -5.148445e-01 -4.114351e-02 2.100288e-01 1.945981e-01 -2.363328e-01 1.021200e-02 -3.328953e-01 -3.043438e-02 6.395637e-02 4.254453e-02 3.532563e-01 1.234203e-01 5.586208e-02 -2.347177e-02 -9.194189e-02 -6.257640e-02 3.915261e-03 -6.257639e-02
<VARIANCE> 39
 9.284485e+00 1.350727e+01 2.250848e+01 3.248502e+01 1.967639e+01 2.420508e+01 5.254522e+01 3.438098e+01 4.415753e+01 2.637321e+01 3.191337e+01 2.703320e+01 1.959825e+00 2.642212e-01 1.895687e+00 4.088312e-01 7.647193e-01 7.868102e-01 2.502146e+00 1.307336e+00 1.116780e+00 1.804257e+00 1.195103e+00 1.398755e+00 1.008697e+00 6.759272e-02 3.641387e-02 9.029890e-02 5.905501e-02 1.265758e-01 9.250840e-02 1.745019e-01 1.630078e-01 2.078771e-01 2.767956e-01 1.690453e-01 1.958883e-01 1.643078e-01 4.024224e-03
<GCONST> 7.874337e+01
<STATE> 4
<MEAN> 39
 -7.116768e+00 -6.541069e+00 -5.514880e+00 -1.004293e+01 -1.215375e+00 -4.682477e+00 -8.409389e-01 -8.921489e+00 -3.019660e+00 -5.935845e+00 9.428717e-01 -4.004978e+00 1.468662e+01 -7.179803e-02 -3.660471e-01 -1.176298e-01 1.204238e-01 -4.112493e-02 3.696095e-01 1.855414e-01 1.810012e-01 1.167377e-01 8.797586e-03 1.649089e-02 9.387910e-03 -9.300559e-02 -5.685180e-03 1.757349e-01 1.040005e-02 -6.684005e-02 -1.211831e-02 -1.464315e-01 -4.599059e-02 -1.503960e-02 -6.331685e-03 2.179357e-02 -5.186238e-03 -1.391509e-02 4.871766e-02
<VARIANCE> 39
 4.560893e+00 6.159140e+00 8.314758e+00 9.574128e+00 1.262567e+01 1.589433e+01 1.697651e+01 1.696683e+01 1.732071e+01 1.627314e+01 1.523353e+01 1.399440e+01 1.034501e+00 2.099294e-01 8.405232e-01 4.288097e-01 5.955232e-01 4.862401e-01 1.170445e+00 9.931195e-01 8.546666e-01 9.812958e-01 7.909757e-01 7.432475e-01 7.057061e-01 4.874189e-02 3.460028e-02 9.647742e-02 7.128513e-02 1.091524e-01 9.177049e-02 1.887647e-01 1.756935e-01 1.504275e-01 1.623780e-01 1.354730e-01 1.324254e-01 1.272723e-01 4.818408e-03
<GCONST> 6.216208e+01
<TRANSP> 5
 0.000000e+00 1.000000e+00 0.000000e+00 0.000000e+00 0.000000e+00
 0.000000e+00 9.121930e-01 8.780696e-02 0.000000e+00 0.000000e+00
 0.000000e+00 0.000000e+00 8.976257e-01 1.023743e-01 0.000000e+00
 0.000000e+00 0.000000e+00 0.000000e+00 9.213890e-01 7.861096e-02
 0.000000e+00 0.000000e+00 0.000000e+00 0.000000e+00 0.000000e+00
<ENDHMM>
~h "oh"
<BEGINHMM>
<NUMSTATES> 5
<STATE> 2
<MEAN> 39
 -5.072905e+00 -9.817539e+00 -7.833380e+00 -8.759859e+00 -2.347719e+00 -7.078437e+00 2.847756e+00 -7.616872e+00 -4.773006e+00 -6.878155e+00 -1.687976e+00 -4.955316e+00 1.721408e+01 4.015591e-01 -2.821490e-01 -5.485501e-01 2.171543e-01 1.401626e-01 -4.945698e-01 2.322902e-01 5.781045e-01 -1.037482e-01 -3.932613e-01 -3.404426e-01 -6.349562e-02 2.903817e-01 6.013412e-02 8.892399e-02 -1.210253e-02 -5.544877e-02 1.547177e-02 -6.012448e-02 -1.276604e-01 1.861832e-02 1.092553e-01 1.494858e-03 -5.272235e-02 -5.050197e-02 1.424367e-02
<VARIANCE> 39
 8.382313e+00 1.228219e+01 1.538583e+01 1.591971e+01 2.185690e+01 2.340163e+01 2.846190e+01 5.757661e+01 3.748624e+01 3.054213e+01 2.663987e+01 2.711325e+01 3.812016e+00 4.045044e-01 5.595052e-01 6.603168e-01 6.405978e-01 7.460980e-01 1.180175e+00 1.235327e+00 1.815302e+00 1.533160e+00 1.309645e+00 1.311777e+00 1.082004e+00 1.254165e-01 4.813060e-02 7.023268e-02 8.521727e-02 8.555454e-02 1.118070e-01 1.482320e-01 1.609972e-01 2.226751e-01 2.095436e-01 1.953585e-01 2.000353e-01 1.548820e-01 1.713555e-02
<GCONST> 7.894449e+01
<STATE> 3
<MEAN> 39
 -4.965977e-01 -8.085558e+00 -1.303811e+01 -1.018379e+01 -8.909642e-01 -1.201037e+01 -8.892418e-01 -1.284800e+00 1.939210e-01 -7.884267e+00 -5.009705e+00 -6.855100e+00 1.903839e+01 2.239069e-01 4.083354e-01 -6.300648e-03 -3.375472e-01 -6.150957e-02 -1.964677e-02 -6.569719e-01 -2.515020e-01 6.164262e-01 5.838709e-01 3.178620e-02 -3.234856e-01 -1.058169e-02 -4.688029e-02 2.213269e-02 1.000645e-01 -1.014039e-02 -5.009497e-02 8.897684e-02 1.630301e-02 -1.447876e-01 -8.520366e-02 7.581932e-02 1.148444e-01 2.391863e-02 -2.662398e-02
<VARIANCE> 39
 6.028928e+00 9.347397e+00 1.555831e+01 1.589686e+01 1.975418e+01 2.333682e+01 4.428234e+01 3.314376e+01 4.055780e+01 3.755703e+01 3.123153e+01 3.914728e+01 1.183734e+00 8.543301e-02 1.427005e-01 2.976722e-01 2.936641e-01 3.913101e-01 5.535882e-01 7.245917e-01 1.116325e+00 7.998050e-01 8.947307e-01 8.656516e-01 6.944235e-01 1.391791e-02 1.175630e-02 1.537127e-02 3.537052e-02 3.572028e-02 4.852975e-02 7.178195e-02 8.156151e-02 1.012436e-01 1.109302e-01 1.074998e-01 9.628417e-02 9.289263e-02 1.245800e-03
<GCONST> 5.396380e+01
<STATE> 4
<MEAN> 39
 -7.418268e-01 -3.730197e+00 -8.383321e+00 -1.248795e+01 -3.622054e+00 -9.300137e+00 -4.000148e+00 -8.066677e+00 -2.979515e-01 -3.366253e+00 3.569757e-01 -6.248665e+00 1.795417e+01 -5.069032e-01 1.203013e-01 7.349999e-01 2.727182e-01 1.213693e-02 5.559254e-01 3.365029e-01 -4.405229e-01 -5.363587e-01 -1.885742e-01 3.968883e-01 4.349118e-01 -2.802321e-01 -1.126519e-01 -1.140013e-01 -2.907930e-02 7.595412e-02 9.950953e-02 8.985788e-02 1.345914e-01 9.031348e-02 -3.953767e-02 -1.066720e-01 -6.855609e-02 5.315318e-02 -3.464281e-02
<VARIANCE> 39
 9.361508e+00 7.810191e+00 2.079552e+01 1.825481e+01 1.941331e+01 2.692004e+01 3.110312e+01 2.683561e+01 3.199025e+01 4.008416e+01 3.906116e+01 3.790238e+01 2.412505e+00 3.826954e-01 4.593659e-01 5.507365e-01 6.217660e-01 8.842407e-01 1.264739e+00 1.251874e+00 1.298649e+00 1.305791e+00 1.263463e+00 1.279159e+00 1.245754e+00 5.453468e-02 3.299585e-02 4.469843e-02 8.896663e-02 8.728121e-02 1.096993e-01 1.661355e-01 1.871802e-01 1.997286e-01 2.127135e-01 2.068775e-01 1.755925e-01 1.748504e-01 4.194885e-03
<GCONST> 7.532737e+01
<TRANSP> 5
 0.000000e+00 1.000000e+00 0.000000e+00 0.000000e+00 0.000000e+00
 0.000000e+00 9.027607e-01 9.723929e-02 0.000000e+00 0.000000e+00
 0.000000e+00 0.000000e+00 9.042471e-01 9.575286e-02 0.000000e+00
 0.000000e+00 0.000000e+00 0.000000e+00 8.838431e-01 1.161569e-01
 0.000000e+00 0.000000e+00 0.000000e+00 0.000000e+00 0.000000e+00
<ENDHMM>
~h "seven"
<BEGINHMM>
<NUMSTATES> 5
<STATE> 2
<MEAN> 39
 -8.806634e+00 -4.769282e+00 -7.050020e+00 -8.596655e+00 -2.107395e+00 -3.131444e+00 -1.276508e+00 -8.136147e+00 -2.909429e+00 -5.214481e+00 6.799257e-01 -3.793394e+00 1.484347e+01 4.741103e-02 -4.084797e-02 -4.356899e-02 -3.256982e-01 -2.671276e-01 -1.353348e-01 2.667651e-01 1.513751e-02 1.375780e-01 -7.736397e-04 -2.047789e-01 -6.332407e-02 1.080880e-01 1.303977e-01 9.204617e-03 8.983035e-02 -1.476356e-01 -1.309363e-01 -1.120198e-01 8.732995e-02 -1.238432e-02 2.002495e-02 -2.644498e-02 -8.712235e-02 -9.269775e-02 9.199272e-02
<VARIANCE> 39
 8.339993e+00 1.013035e+01 1.380078e+01 1.310765e+01 1.612601e+01 1.582007e+01 1.759687e+01 1.745255e+01 1.826359e+01 1.723363e+01 1.706742e+01 1.463344e+01 9.047270e-01 7.144129e-01 4.608476e-01 8.613426e-01 9.991093e-01 9.701378e-01 1.283293e+00 9.959624e-01 8.575956e-01 1.029544e+00 1.155908e+00 9.210112e-01 9.517396e-01 1.512427e-01 5.368421e-02 6.783885e-02 9.750184e-02 1.360510e-01 1.662413e-01 1.770663e-01 1.648983e-01 1.456986e-01 1.700096e-01 1.546174e-01 1.450091e-01 1.504833e-01 8.093950e-03
<GCONST> 7.123420e+01
<STATE> 3
<MEAN> 39
 -5.558074e+00 -7.172778e+00 -5.193472e+00 -1.591174e+01 -6.355660e+00 -4.897010e+00 4.772486e+00 -8.475006e+00 -2.770161e+00 -6.761119e+00 -3.975049e+00 -6.626519e+00 1.896182e+01 1.894533e-01 -2.722629e-01 1.233812e-01 3.882832e-02 -6.137361e-02 -1.088005e-01 2.446584e-01 2.681850e-01 -2.807247e-01 -5.543024e-02 -6.964464e-02 -1.107267e-01 1.236367e-01 -4.178001e-02 7.839750e-02 1.111913e-02 2.926458e-01 1.553700e-01 -2.480868e-02 -2.548968e-01 3.867877e-02 -2.091174e-02 1.592025e-02 1.771703e-01 7.159717e-02 -1.270850e-01
<VARIANCE> 39
 9.614648e+00 1.303329e+01 9.436710e+00 1.827780e+01 4.580248e+01 3.937848e+01 3.187668e+01 3.950837e+01 4.652962e+01 5.849232e+01 3.255421e+01 3.130153e+01 1.240814e+00 4.410260e-01 5.954201e-01 4.993330e-01 1.548395e+00 1.671524e+00 1.672650e+00 1.827652e+00 1.089302e+00 1.392668e+00 1.776832e+00 1.809613e+00 1.326400e+00 2.114269e-01 8.204692e-02 9.001201e-02 9.646610e-02 1.114839e-01 2.523420e-01 2.721471e-01 1.781217e-01 1.666770e-01 2.018927e-01 2.407534e-01 2.262372e-01 1.834979e-01 6.062320e-03
<GCONST> 8.474818e+01
<STATE> 4
<MEAN> 39
 -3.244347e+00 -3.881841e+00 -1.891206e+00 -9.521950e+00 -3.365981e+00 -8.015693e+00 -1.088916e+00 -8.732976e+00 -4.324255e+00 -7.120050e+00 -1.906870e+00 -7.105265e+00 1.713248e+01 1.768440e-02 2.205671e-01 1.049616e-01 2.065501e-01 3.193772e-01 1.039536e-01 -2.925314e-01 -2.637348e-01 8.569282e-02 -1.439382e-02 1.277886e-01 4.227556e-02 -1.184134e-01 -5.595605e-02 -7.367298e-02 -7.384474e-02 -8.778012e-02 -2.233379e-02 9.372175e-02 1.106989e-01 -4.596525e-03 1.866143e-02 1.745086e-02 -3.220640e-02 2.023118e-02 1.415731e-02
<VARIANCE> 39
 4.974837e+00 1.019478e+01 9.926715e+00 1.395348e+01 2.822468e+01 3.043304e+01 2.586526e+01 4.089533e+01 3.293281e+01 3.570393e+01 3.328817e+01 2.974879e+01 1.533692e+00 2.533938e-01 5.250467e-01 5.539057e-01 8.538658e-01 1.339955e+00 1.253489e+00 1.628735e+00 1.363170e+00 1.438484e+00 1.411170e+00 1.273562e+00 9.896281e-01 9.358761e-02 3.738628e-02 7.812204e-02 8.698361e-02 1.507715e-01 2.341875e-01 2.027749e-01 2.726195e-01 2.366430e-01 2.360252e-01 2.409606e-01 2.174075e-01 1.500706e-01 1.437085e-02
<GCONST> 7.928013e+01
<TRANSP> 5
 0.000000e+00 1.000000e+00 0.000000e+00 0.000000e+00 0.000000e+00
 0.000000e+00 9.125739e-01 8.742611e-02 0.000000e+00 0.000000e+00
 0.000000e+00 0.000000e+00 9.003658e-01 9.963416e-02 0.000000e+00
 0.000000e+00 0.000000e+00 0.000000e+00 9.365582e-01 6.344174e-02
 0.000000e+00 0.000000e+00 0.000000e+00 0.000000e+00 0.000000e+00
<ENDHMM>
~h "three"
<BEGINHMM>
<NUMSTATES> 5
<STATE> 2
<MEAN> 39
 -7.753088e+00 -6.035269e+00 -4.949139e+00 -1.011977e+01 -8.176921e-01 -4.845856e+00 -5.887994e-01 -8.498262e+00 -2.602040e+00 -5.425551e+00 9.830305e-01 -3.779378e+00 1.488863e+01 1.181826e-01 -8.363558e-02 2.207192e-01 -4.797761e-02 -4.167407e-01 -2.858678e-01 -6.849135e-02 1.494131e-02 7.425306e-02 3.189595e-02 1.361353e-02 4.303535e-04 9.208748e-02 1.742201e-01 2.254062e-02 1.428291e-01 1.951894e-03 -2.577674e-01 -1.755564e-01 -7.574127e-02 -1.877710e-02 1.537887e-02 -9.218251e-03 -3.924764e-02 -7.054577e-02 8.471638e-02
<VARIANCE> 39
 5.400838e+00 6.329592e+00 9.779352e+00 1.060192e+01 1.435539e+01 1.431226e+01 1.606514e+01 1.761143e+01 1.951326e+01 1.776077e+01 1.686061e+01 1.459230e+01 1.170453e+00 7.019919e-01 5.235447e-01 8.963117e-01 7.510094e-01 1.499185e+00 1.312560e+00 9.016348e-01 1.036180e+00 9.999570e-01 9.323076e-01 9.825647e-01 9.153196e-01 1.193089e-01 5.916806e-02 9.076435e-02 9.846707e-02 1.380229e-01 2.011592e-01 1.855363e-01 1.564496e-01 2.030750e-01 1.781607e-01 1.662450e-01 1.641535e-01 1.611113e-01 4.958381e-03
<GCONST> 7.052032e+01
<STATE> 3
<MEAN> 39
 -2.518142e+00 -6.783533e+00 2.449303e+00 -1.140189e+01 -1.369864e+01 -9.363321e+00 -3.152550e+00 -9.428348e+00 -9.453014e-03 -5.130506e+00 1.270099e-01 -5.735048e+00 1.823541e+01 -6.862488e-02 4.227118e-01 6.951821e-01 -1.049856e+00 -3.996520e-01 3.060245e-01 -8.254077e-01 1.096455e-01 3.076150e-01 -2.807264e-02 6.153182e-02 -1.674218e-01 2.367499e-01 -2.156728e-01 2.146460e-01 -2.005203e-01 -1.428188e-01 5.230267e-01 4.712561e-02 -5.941904e-02 1.143469e-01 -1.140716e-01 -2.023132e-02 2.135169e-02 3.956060e-02 -6.774371e-02
<VARIANCE> 39
 6.507157e+00 1.457571e+01 2.008427e+01 4.937654e+01 4.245374e+01 6.100887e+01 3.522887e+01 3.826542e+01 3.064141e+01 2.820661e+01 3.707790e+01 3.334344e+01 1.447084e+00 9.619793e-01 1.476629e+00 9.228659e-01 2.725311e+00 4.895097e+00 3.382433e+00 2.206998e+00 1.969152e+00 1.296622e+00 1.095892e+00 1.152278e+00 1.164599e+00 6.899495e-02 6.798219e-02 1.290743e-01 1.773857e-01 3.907532e-01 3.806304e-01 6.812706e-01 3.772556e-01 2.755094e-01 2.400974e-01 1.746557e-01 1.705918e-01 1.637535e-01 3.908582e-03
<GCONST> 9.265439e+01
<STATE> 4
<MEAN> 39
 -6.590543e+00 3.298158e+00 -7.803233e-01 -1.672945e+01 -2.106738e+00 -1.135583e+01 -6.399209e+00 -7.962166e+00 -3.159446e+00 -5.505671e+00 -3.370792e-01 -6.525787e+00 1.789479e+01 -2.820103e-02 6.329862e-02 -6.391507e-01 7.253066e-01 7.234815e-01 -1.648728e-01 5.492634e-01 -8.268533e-02 -3.564567e-01 1.203006e-02 -7.059457e-02 5.073527e-02 -1.956446e-01 5.814762e-02 -2.881108e-01 2.509077e-03 1.697335e-01 -2.211498e-01 1.819729e-01 1.647806e-01 -6.734817e-02 9.742353e-02 8.240614e-03 2.041649e-02 2.496874e-02 -3.092077e-02
<VARIANCE> 39
 7.580494e+00 1.700894e+01 1.909986e+01 3.484710e+01 2.704748e+01 2.948776e+01 4.823332e+01 4.778463e+01 3.321842e+01 3.976912e+01 4.240152e+01 3.677534e+01 1.619887e+00 3.151335e-01 1.882914e+00 6.700035e-01 1.043728e+00 1.834884e+00 2.559857e+00 1.467136e+00 1.693768e+00 1.384672e+00 1.287921e+00 1.031997e+00 9.705023e-01 3.582554e-02 4.748384e-02 9.098808e-02 9.640360e-02 2.205416e-01 1.814736e-01 2.352864e-01 2.696356e-01 2.497837e-01 1.837019e-01 1.709958e-01 1.443272e-01 1.353047e-01 2.469561e-03
<GCONST> 8.276373e+01
<TRANSP> 5
 0.000000e+00 1.000000e+00 0.000000e+00 0.000000e+00 0.000000e+00
 0.000000e+00 9.016223e-01 9.837772e-02 0.000000e+00 0.000000e+00
 0.000000e+00 0.000000e+00 8.936678e-01 1.063322e-01 0.000000e+00
 0.000000e+00 0.000000e+00 0.000000e+00 9.153337e-01 8.466624e-02
 0.000000e+00 0.000000e+00 0.000000e+00 0.000000e+00 0.000000e+00
<ENDHMM>
~h "one"
<BEGINHMM>
<NUMSTATES> 5
<STATE> 2
<MEAN> 39
 -4.518724e-01 -3.402762e+00 -8.443933e+00 -1.270267e+01 -1.875631e+00 -5.987655e+00 -2.275704e+00 -8.867915e+00 -2.601664e+00 -6.646002e+00 -1.475398e+00 -7.365993e+00 1.769859e+01 2.104033e-01 -3.606911e-01 -7.771925e-01 3.866564e-01 4.274707e-01 9.436185e-02 -2.048113e-01 2.134617e-01 1.819871e-01 -2.419234e-01 -3.084256e-01 -2.085088e-01 1.797000e-01 -1.118923e-01 -1.460618e-01 2.928621e-02 2.153401e-01 1.225500e-02 -9.389263e-02 -2.921786e-03 1.044307e-01 5.145419e-03 -7.578824e-02 2.513904e-03 7.602539e-02 -1.570856e-02
<VARIANCE> 39
 5.495411e+00 8.375194e+00 3.133008e+01 2.276499e+01 2.856281e+01 2.622855e+01 2.260908e+01 2.060508e+01 2.743969e+01 2.315646e+01 3.019641e+01 3.007911e+01 2.038579e+00 4.331108e-01 7.311471e-01 9.486045e-01 2.139367e+00 1.343976e+00 1.366094e+00 1.271951e+00 1.039803e+00 1.139391e+00 9.681895e-01 1.111001e+00 9.685572e-01 5.947195e-02 3.949687e-02 5.502369e-02 1.856307e-01 2.318589e-01 2.499842e-01 2.470855e-01 2.300202e-01 1.749952e-01 1.963435e-01 1.583907e-01 1.854130e-01 1.750188e-01 4.527919e-03
<GCONST> 7.904114e+01
<STATE> 3
<MEAN> 39
 -2.465519e+00 -1.063754e+01 -1.057807e+01 -1.816933e+00 -8.205333e-01 -9.426699e+00 -2.030199e+00 -4.359958e+00 -3.708443e+00 -1.158846e+01 -2.280303e+00 -6.160008e+00 1.852691e+01 -5.923271e-01 -3.130931e-01 1.360803e+00 4.865258e-01 -1.327697e+00 -2.683918e-01 1.140191e+00 -1.565507e-01 -8.915307e-01 -1.471732e-02 5.522535e-01 9.288910e-02 -5.213527e-02 3.157304e-02 3.182560e-01 2.336380e-01 -5.691873e-01 -9.459092e-02 3.616217e-01 5.219322e-02 -4.228576e-01 2.293536e-02 3.597778e-01 2.881140e-02 -1.620870e-01 -2.971561e-02
<VARIANCE> 39
 6.425611e+00 9.764868e+00 1.981030e+01 2.419559e+01 2.885890e+01 1.776326e+01 3.884049e+01 3.255225e+01 4.659218e+01 3.887008e+01 3.430856e+01 3.411109e+01 1.525045e+00 1.633403e-01 5.914772e-01 6.367511e-01 1.980070e+00 7.715809e-01 1.823217e+00 1.053324e+00 2.307835e+00 1.240636e+00 1.946859e+00 1.064873e+00 1.293225e+00 8.977661e-03 2.596267e-02 5.244814e-02 1.077573e-01 1.227775e-01 3.162057e-01 1.590571e-01 4.062666e-01 1.859167e-01 3.425933e-01 2.133349e-01 2.683234e-01 1.720588e-01 8.707176e-04
<GCONST> 7.673718e+01
<STATE> 4
<MEAN> 39
 -3.841162e+00 -4.380147e+00 -1.380839e+00 -8.920097e+00 -3.196686e+00 -6.281979e+00 -2.462194e+00 -1.221239e+01 -5.214572e+00 -8.497502e+00 -2.664956e+00 -8.175439e+00 1.759469e+01 -3.698305e-03 5.640291e-01 2.622601e-01 -4.548901e-01 4.116573e-01 1.698863e-01 -3.735651e-01 -2.333140e-01 1.575157e-01 1.861170e-01 -2.806749e-02 1.649849e-01 -1.759984e-01 -2.107887e-02 -1.171231e-01 -2.145128e-01 1.096539e-01 8.704468e-02 -2.722123e-02 2.045843e-02 1.849946e-01 4.516982e-02 -7.363550e-02 3.749565e-02 8.076137e-02 -1.677482e-02
<VARIANCE> 39
 6.725618e+00 2.077641e+01 9.946210e+00 1.740456e+01 2.093878e+01 4.195557e+01 3.341056e+01 3.282923e+01 4.008428e+01 4.409924e+01 3.259620e+01 3.568703e+01 1.337952e+00 3.443288e-01 1.010751e+00 9.863623e-01 1.216702e+00 8.805098e-01 1.865029e+00 1.353856e+00 1.411833e+00 1.573524e+00 1.478430e+00 1.085052e+00 1.050128e+00 2.735215e-02 5.694353e-02 1.045744e-01 8.382122e-02 1.278462e-01 1.951435e-01 2.806742e-01 2.505331e-01 1.784442e-01 2.218355e-01 2.216919e-01 1.661898e-01 1.590874e-01 2.928942e-03
<GCONST> 7.987343e+01
<TRANSP> 5
 0.000000e+00 1.000000e+00 0.000000e+00 0.000000e+00 0.000000e+00
 0.000000e+00 9.096040e-01 9.039607e-02 0.000000e+00 0.000000e+00
 0.000000e+00 0.000000e+00 8.314091e-01 1.685909e-01 0.000000e+00
 0.000000e+00 0.000000e+00 0.000000e+00 9.086891e-01 9.131085e-02
 0.000000e+00 0.000000e+00 0.000000e+00 0.000000e+00 0.000000e+00
<ENDHMM>
~h "sil"
<BEGINHMM>
<NUMSTATES> 5
<STATE> 2
<MEAN> 39
 -5.629660e+00 -5.381877e+00 -3.959650e+00 -9.043989e+00 -2.191762e-01 -4.181936e+00 -1.412835e-01 -8.546719e+00 -2.498059e+00 -5.830954e+00 5.865914e-01 -4.487354e+00 1.512056e+01 -2.989973e-01 -2.485885e-01 -1.857930e-01 -5.062864e-02 6.953087e-02 1.348600e-01 8.168915e-02 -1.641220e-03 1.418108e-02 1.866411e-02 1.135562e-01 5.824648e-02 -1.518549e-01 2.366706e-02 -7.472030e-03 -3.844211e-02 -6.360430e-02 -7.384097e-02 -6.420094e-02 -4.217839e-02 -1.950068e-03 -3.812126e-03 -6.770428e-03 -1.693876e-02 -5.217417e-03 2.531380e-02
<VARIANCE> 39
 6.971133e+00 8.607407e+00 9.564852e+00 1.168486e+01 1.486948e+01 1.538808e+01 1.765942e+01 1.877689e+01 2.046497e+01 1.954515e+01 1.858391e+01 1.638747e+01 1.209571e+00 1.686658e-01 3.746049e-01 4.430719e-01 5.866185e-01 7.339872e-01 8.284980e-01 8.455006e-01 9.076064e-01 9.109277e-01 8.356487e-01 9.046686e-01 7.998167e-01 2.155275e-02 2.201148e-02 4.568580e-02 6.338251e-02 7.749979e-02 1.032742e-01 1.189166e-01 1.186156e-01 1.276624e-01 1.369566e-01 1.216476e-01 1.281471e-01 1.153789e-01 2.526399e-03
<GCONST> 5.922244e+01
<STATE> 3
<MEAN> 39
 -7.156939e+00 -7.236735e+00 -5.866395e+00 -1.018523e+01 -1.012348e+00 -4.339155e+00 -3.654400e-01 -8.603598e+00 -2.680012e+00 -5.571366e+00 1.005066e+00 -4.037417e+00 1.452098e+01 -3.584170e-03 4.973558e-03 -6.192294e-03 3.801657e-03 1.879352e-03 4.715883e-03 1.254941e-03 -9.876044e-03 -4.555691e-03 1.094672e-02 -2.631967e-04 2.492653e-03 -1.193105e-03 -2.367896e-04 4.887857e-03 2.877432e-03 5.286435e-03 1.315798e-03 2.870299e-03 5.486318e-04 5.853336e-03 2.717712e-03 -8.293475e-04 -4.062813e-03 -3.430456e-03 1.584994e-03
<VARIANCE> 39
 3.027166e+00 3.564782e+00 6.172706e+00 8.254441e+00 1.253747e+01 1.387374e+01 1.474216e+01 1.582846e+01 1.623779e+01 1.398252e+01 1.548319e+01 1.300188e+01 1.028432e+00 5.842906e-02 1.319095e-01 2.563354e-01 3.600304e-01 4.751975e-01 6.449600e-01 6.224143e-01 6.900987e-01 6.643435e-01 5.534235e-01 6.422850e-01 5.676934e-01 2.417421e-03 1.073369e-02 2.426565e-02 4.638901e-02 6.443691e-02 8.854954e-02 1.218526e-01 1.105602e-01 1.289115e-01 1.215520e-01 9.644402e-02 1.150024e-01 1.070999e-01 5.051137e-04
<GCONST> 4.276595e+01
<STATE> 4
<MEAN> 39
 -8.044104e+00 -6.369831e+00 -6.079105e+00 -1.016941e+01 -1.188542e+00 -4.700860e+00 -5.106601e-01 -8.720682e+00 -2.519547e+00 -5.941772e+00 9.985309e-01 -4.417082e+00 1.453677e+01 3.423027e-03 1.545879e-01 2.794304e-02 1.227927e-02 -7.638136e-02 -6.394006e-02 -6.564935e-02 4.920994e-02 -5.532604e-02 -8.987567e-02 -1.027082e-01 -6.833696e-02 4.891998e-02 4.561784e-02 5.645881e-02 2.690573e-02 -6.751664e-03 -2.036378e-03 -2.716370e-02 -1.659558e-02 -1.573689e-02 -1.398943e-02 -1.821246e-02 -3.889864e-02 -1.456893e-02 3.347781e-02
<VARIANCE> 39
 5.361455e+00 5.850655e+00 7.452227e+00 1.031435e+01 1.202343e+01 1.461873e+01 1.655216e+01 1.791414e+01 1.851074e+01 1.737204e+01 1.645255e+01 1.416317e+01 1.276582e+00 2.534418e-01 3.365525e-01 3.772628e-01 5.664121e-01 6.053324e-01 7.375290e-01 7.088116e-01 9.202826e-01 8.939192e-01 7.990496e-01 7.762727e-01 6.718946e-01 2.073160e-02 3.954314e-02 5.724535e-02 6.069201e-02 9.818354e-02 9.287863e-02 1.226492e-01 1.060879e-01 1.502723e-01 1.416595e-01 1.225172e-01 1.118092e-01 9.929981e-02 4.412929e-03
<GCONST> 5.788788e+01
<TRANSP> 5
 0.000000e+00 1.000000e+00 0.000000e+00 0.000000e+00 0.000000e+00
 0.000000e+00 7.692407e-01 2.307593e-01 0.000000e+00 0.000000e+00
 0.000000e+00 0.000000e+00 9.590834e-01 4.091655e-02 0.000000e+00
 0.000000e+00 0.000000e+00 0.000000e+00 7.109249e-01 2.890751e-01
 0.000000e+00 0.000000e+00 0.000000e+00 0.000000e+00 0.000000e+00
<ENDHMM>
~h "six"
<BEGINHMM>
<NUMSTATES> 5
<STATE> 2
<MEAN> 39
 -9.124294e+00 -4.836953e+00 -7.749949e+00 -8.266640e+00 -2.438858e+00 -2.834772e+00 -1.487293e+00 -7.798927e+00 -3.116516e+00 -4.969311e+00 3.618704e-01 -3.493939e+00 1.461232e+01 2.726813e-02 1.591594e-01 1.186000e-01 -3.531421e-01 -3.868240e-01 -2.528205e-01 -1.307426e-02 8.920074e-03 1.418943e-01 1.896524e-01 -1.204981e-01 9.512507e-03 1.277529e-01 1.224180e-01 8.574617e-02 1.920704e-01 -2.156928e-01 -1.443492e-01 -1.911086e-01 -1.348157e-02 -1.142849e-02 4.335982e-02 1.788284e-02 -7.846195e-02 -1.185634e-01 9.579260e-02
<VARIANCE> 39
 5.881858e+00 7.824515e+00 1.145772e+01 1.170149e+01 1.691563e+01 1.670040e+01 1.585943e+01 1.681437e+01 1.957148e+01 2.023767e+01 1.844873e+01 1.536605e+01 1.012899e+00 5.537628e-01 4.715972e-01 1.205765e+00 1.010494e+00 1.007774e+00 1.470691e+00 8.038249e-01 8.137799e-01 1.030869e+00 1.294180e+00 9.459653e-01 9.358560e-01 1.411680e-01 4.636098e-02 5.967520e-02 9.845401e-02 1.366895e-01 1.730452e-01 1.833199e-01 1.418880e-01 1.549592e-01 1.804593e-01 1.774093e-01 1.522814e-01 1.540164e-01 7.503507e-03
<GCONST> 7.075551e+01
<STATE> 3
<MEAN> 39
 -6.389795e+00 -1.255084e+00 -8.810620e-01 -1.937228e+01 -7.577193e+00 -8.493302e+00 -2.595068e+00 -6.569140e+00 3.325133e-02 -3.820272e+00 -2.226169e+00 -7.108535e+00 1.817332e+01 6.033788e-02 -1.004580e-01 1.973094e-01 -2.318162e-01 3.399071e-01 1.645809e-01 -1.732649e-01 1.224701e-01 4.917456e-02 -1.716383e-01 1.772009e-01 -6.580621e-03 -4.431786e-02 -7.081278e-02 -1.914884e-01 -2.624974e-01 4.212634e-01 2.477779e-01 2.067547e-01 8.841413e-02 -7.030385e-02 -1.214316e-01 -5.252284e-02 1.186420e-01 1.339913e-01 -1.487445e-01
<VARIANCE> 39
 7.367368e+00 9.635597e+00 1.569742e+01 2.776347e+01 5.692444e+01 3.167277e+01 3.629293e+01 2.495916e+01 3.438404e+01 5.661712e+01 3.469410e+01 3.674877e+01 1.645047e+00 3.757045e-01 7.674609e-01 1.271301e+00 3.640178e+00 2.695807e+00 1.950656e+00 1.896175e+00 1.366034e+00 1.928482e+00 2.033425e+00 1.879827e+00 2.011311e+00 3.396144e-01 6.646573e-02 6.525157e-02 1.520792e-01 2.585391e-01 3.130457e-01 3.120062e-01 3.695939e-01 2.303204e-01 2.922211e-01 3.375136e-01 2.687100e-01 2.614650e-01 1.433633e-02
<GCONST> 9.337854e+01
<STATE> 4
<MEAN> 39
 -8.222577e+00 -6.451437e+00 -6.277396e+00 -9.275581e+00 -2.415954e+00 -3.256266e+00 -9.182789e-01 -8.615625e+00 -2.795307e+00 -5.153826e+00 7.408612e-01 -4.248633e+00 1.464349e+01 -7.442135e-02 -1.118078e-01 -2.389876e-01 2.870742e-01 3.500255e-02 6.666956e-02 1.390736e-01 -4.188121e-02 -8.121279e-02 -2.483466e-03 7.366260e-03 3.130442e-02 -6.889638e-02 2.173762e-02 7.154377e-02 7.432580e-02 -1.248944e-01 -5.118557e-02 -6.603891e-02 -5.131241e-02 3.815515e-02 2.469891e-02 6.733206e-03 -2.995415e-02 -2.922734e-02 4.497598e-02
<VARIANCE> 39
 7.836406e+00 8.036993e+00 1.202001e+01 1.253897e+01 1.775489e+01 1.684576e+01 1.688476e+01 1.718215e+01 1.742179e+01 1.762553e+01 1.547863e+01 1.427367e+01 1.310076e+00 3.471872e-01 5.518962e-01 7.463474e-01 9.087878e-01 9.875022e-01 1.059264e+00 1.026785e+00 9.108872e-01 8.760953e-01 8.051553e-01 7.558444e-01 6.350737e-01 5.456965e-02 4.509159e-02 7.355036e-02 1.100384e-01 1.327705e-01 1.825923e-01 1.706939e-01 1.655958e-01 1.667244e-01 1.581869e-01 1.441438e-01 1.370198e-01 1.246721e-01 7.388054e-03
<GCONST> 6.779649e+01
<TRANSP> 5
 0.000000e+00 1.000000e+00 0.000000e+00 0.000000e+00 0.000000e+00
 0.000000e+00 9.049472e-01 9.505281e-02 0.000000e+00 0.000000e+00
 0.000000e+00 0.000000e+00 8.983329e-01 1.016671e-01 0.000000e+00
 0.000000e+00 0.000000e+00 0.000000e+00 9.437303e-01 5.626970e-02
 0.000000e+00 0.000000e+00 0.000000e+00 0.000000e+00 0.000000e+00
<ENDHMM>
~h "two"
<BEGINHMM>
<NUMSTATES> 5
<STATE> 2
<MEAN> 39
 -9.639393e+00 -4.513422e+00 -6.580746e+00 -9.863553e+00 -9.720631e-01 -4.070680e+00 -1.373340e+00 -8.179420e+00 -2.537157e+00 -5.722521e+00 1.014194e+00 -3.721764e+00 1.495430e+01 -3.758308e-02 2.631145e-01 2.263382e-01 -3.008483e-01 -8.029325e-02 -1.059367e-02 -1.952111e-01 2.048006e-02 1.192920e-01 3.786919e-02 -4.395285e-03 -2.839644e-02 9.347403e-02 1.950332e-01 9.726195e-02 2.115314e-01 -1.064896e-01 -1.587310e-01 -1.867037e-01 -1.174418e-01 -6.690882e-02 -2.515941e-02 -1.346551e-03 -7.481480e-02 -1.170506e-01 8.904160e-02
<VARIANCE> 39
 9.732203e+00 8.411852e+00 1.057131e+01 1.130263e+01 1.669857e+01 1.858911e+01 1.761610e+01 1.993474e+01 2.015003e+01 2.109538e+01 2.063020e+01 1.756304e+01 9.683638e-01 1.154741e+00 7.385857e-01 1.484537e+00 7.320570e-01 1.243840e+00 1.212134e+00 9.533145e-01 1.050649e+00 1.054675e+00 1.129716e+00 1.398411e+00 9.929909e-01 1.174508e-01 1.107614e-01 1.110950e-01 1.232444e-01 1.199816e-01 2.136394e-01 1.859784e-01 1.655748e-01 1.895574e-01 1.984023e-01 1.764037e-01 2.621553e-01 1.380707e-01 7.422636e-03
<GCONST> 7.620210e+01
<STATE> 3
<MEAN> 39
 -4.756927e+00 1.149319e+00 1.778225e+00 -1.527068e+01 -6.598805e+00 -9.672950e+00 -6.598327e+00 -1.044179e+01 -2.516045e+00 -5.320362e+00 -1.030022e+00 -7.239760e+00 1.830119e+01 7.193315e-01 5.999749e-01 8.360478e-01 -6.091864e-01 -1.201094e+00 -1.150002e+00 -6.212705e-01 -3.241046e-01 -7.638571e-02 1.074630e-01 -2.783292e-01 -6.924760e-01 4.804428e-01 -2.461662e-01 -2.219687e-01 -4.234545e-01 2.838059e-01 2.397683e-01 2.108272e-01 2.293688e-01 1.474370e-01 -1.436227e-02 5.922019e-03 1.442221e-01 1.762002e-01 -1.356785e-01
<VARIANCE> 39
 7.637056e+00 8.201179e+00 1.359603e+01 2.286914e+01 4.094153e+01 2.664877e+01 2.842987e+01 2.392865e+01 3.044523e+01 5.369547e+01 4.334024e+01 4.700751e+01 1.220935e+00 6.002333e-01 6.134157e-01 9.871259e-01 1.413978e+00 1.245543e+00 1.154155e+00 1.636979e+00 1.535897e+00 1.877874e+00 2.038628e+00 2.554881e+00 1.859358e+00 8.416668e-02 6.196138e-02 5.703237e-02 8.188545e-02 1.318224e-01 2.159619e-01 1.828539e-01 2.050726e-01 1.926454e-01 2.096131e-01 2.724444e-01 2.909153e-01 2.224142e-01 8.053116e-03
<GCONST> 8.427509e+01
<STATE> 4
<MEAN> 39
 -3.074160e+00 -2.498533e-01 -1.582118e-01 -1.281028e+01 -6.631956e+00 -1.135589e+01 -5.742237e+00 -1.003087e+01 -3.079259e+00 -5.508290e+00 -1.510143e-01 -7.402938e+00 1.806439e+01 2.856348e-02 -3.108905e-01 -3.225634e-01 4.777229e-01 4.160345e-01 2.897216e-01 2.823401e-01 6.164479e-02 -7.978720e-02 -2.571133e-03 1.468311e-01 2.523628e-01 -1.813453e-01 -7.879083e-02 -6.534901e-02 -4.715147e-02 -2.747311e-03 8.374602e-02 1.333990e-01 8.168738e-02 3.501740e-02 2.799220e-02 -2.889590e-03 -1.431979e-02 4.589141e-02 -4.147505e-02
<VARIANCE> 39
 6.126965e+00 7.980885e+00 1.202322e+01 3.019342e+01 3.252040e+01 2.281904e+01 3.197464e+01 3.246529e+01 4.006974e+01 4.282228e+01 5.143116e+01 4.045084e+01 1.492827e+00 2.866633e-01 2.399530e-01 4.425737e-01 6.655245e-01 9.312071e-01 1.150724e+00 1.105538e+00 1.194716e+00 1.057023e+00 1.124072e+00 1.145986e+00 1.082552e+00 3.967655e-02 3.091888e-02 3.306121e-02 5.466451e-02 9.506737e-02 1.114157e-01 1.450113e-01 1.389046e-01 1.749011e-01 1.699728e-01 1.672946e-01 1.672981e-01 1.557807e-01 3.008826e-03
<GCONST> 7.111192e+01
<TRANSP> 5
 0.000000e+00 1.000000e+00 0.000000e+00 0.000000e+00 0.000000e+00
 0.000000e+00 9.084743e-01 9.152564e-02 0.000000e+00 0.000000e+00
 0.000000e+00 0.000000e+00 7.698599e-01 2.301401e-01 0.000000e+00
 0.000000e+00 0.000000e+00 0.000000e+00 9.201576e-01 7.984247e-02
 0.000000e+00 0.000000e+00 0.000000e+00 0.000000e+00 0.000000e+00
<ENDHMM>
~h "nine"
<BEGINHMM>
<NUMSTATES> 5
<STATE> 2
<MEAN> 39
 -4.077336e+00 -3.898054e+00 -1.677269e+00 -8.971150e+00 -2.804500e+00 -6.378200e+00 -1.642718e+00 -1.116135e+01 -5.117404e+00 -8.041983e+00 -2.887749e+00 -7.734886e+00 1.762904e+01 -1.811332e-01 -6.858055e-01 -2.834652e-01 4.408277e-01 -4.285443e-01 2.355709e-01 4.030294e-01 -1.731192e-01 -1.880354e-02 -1.236201e-01 -8.592776e-02 -8.366930e-02 2.069318e-01 -5.922482e-02 -1.590376e-01 -1.030371e-01 1.132275e-01 -5.452894e-03 -1.169511e-03 5.204884e-02 4.893656e-02 3.952451e-02 9.370415e-03 7.326275e-02 3.877693e-02 -9.215312e-03
<VARIANCE> 39
 8.090959e+00 1.916345e+01 1.444466e+01 1.669297e+01 2.834809e+01 2.875757e+01 3.145671e+01 2.650793e+01 4.734475e+01 3.538876e+01 3.033125e+01 3.281607e+01 1.829775e+00 4.871436e-01 1.494064e+00 1.080496e+00 1.097173e+00 1.264091e+00 1.393840e+00 1.627392e+00 1.205142e+00 1.553542e+00 1.157375e+00 1.183342e+00 1.006629e+00 4.894989e-02 6.265634e-02 1.682047e-01 1.288504e-01 1.425368e-01 2.181610e-01 2.178720e-01 2.447261e-01 1.814130e-01 2.032967e-01 1.691317e-01 1.711287e-01 1.443607e-01 4.463017e-03
<GCONST> 8.221028e+01
<STATE> 3
<MEAN> 39
 -6.347527e+00 -1.160442e+01 -4.860509e+00 -2.734693e+00 -5.693743e+00 -5.250023e+00 1.736060e+00 -1.135922e+01 -5.539677e+00 -9.015327e+00 -1.699771e+00 -7.646741e+00 1.861514e+01 -1.102202e-01 9.686098e-02 2.307478e-01 -2.420480e-01 -2.305168e-02 2.140792e-01 -1.050667e-01 -8.696243e-02 1.959003e-01 5.474248e-02 -5.526786e-02 4.596754e-02 -2.113691e-02 2.517140e-03 1.935469e-01 6.929497e-02 -2.402584e-01 4.426301e-02 6.240274e-02 -1.060978e-01 1.121214e-02 7.537666e-02 -1.084905e-02 -6.778210e-02 2.441988e-02 -1.480030e-02
<VARIANCE> 39
 7.253242e+00 8.472352e+00 2.450037e+01 3.236938e+01 1.900659e+01 3.083622e+01 3.095137e+01 3.397374e+01 4.391690e+01 4.150165e+01 2.842896e+01 3.075455e+01 1.006126e+00 8.384611e-02 3.840286e-01 4.111280e-01 1.132713e+00 5.000373e-01 6.241732e-01 5.587703e-01 5.153654e-01 6.511042e-01 6.707072e-01 6.806697e-01 5.420508e-01 4.827254e-03 1.133341e-02 3.005361e-02 4.127561e-02 5.547941e-02 7.264975e-02 7.246991e-02 7.391034e-02 8.095079e-02 8.281083e-02 8.716507e-02 7.873293e-02 7.922968e-02 3.983417e-04
<GCONST> 5.405606e+01
<STATE> 4
<MEAN> 39
 -5.408932e+00 -2.488681e+00 -1.320185e+00 -1.141011e+01 -1.443072e+00 -5.341782e+00 -3.676826e+00 -1.048140e+01 -3.509038e+00 -8.117112e+00 -2.930939e+00 -6.527736e+00 1.769446e+01 2.317148e-01 5.105889e-01 -3.093715e-03 -1.016911e-01 4.411190e-01 -2.479244e-01 -2.011417e-01 2.756151e-01 -1.277938e-01 8.107445e-02 2.108435e-01 1.169408e-01 -1.723585e-01 -2.715129e-02 -1.583066e-01 -8.625396e-02 1.474561e-01 -3.839183e-02 -6.089916e-03 1.204324e-01 1.985698e-02 -5.447858e-02 4.231449e-02 7.832266e-02 -9.554892e-03 -2.023005e-02
<VARIANCE> 39
 1.166846e+01 1.632525e+01 1.132169e+01 2.321632e+01 3.171836e+01 3.320285e+01 3.064786e+01 2.993110e+01 4.733525e+01 3.817846e+01 3.626936e+01 3.985381e+01 1.211665e+00 5.065151e-01 1.171871e+00 6.359944e-01 1.643072e+00 1.303739e+00 1.550626e+00 1.528430e+00 1.269754e+00 1.658817e+00 1.184172e+00 1.105879e+00 1.068939e+00 2.538143e-02 7.071376e-02 8.681935e-02 9.031523e-02 1.779845e-01 1.819094e-01 2.449432e-01 1.820610e-01 2.039849e-01 2.436525e-01 1.943310e-01 1.735393e-01 1.451956e-01 2.221680e-03
<GCONST> 8.083679e+01
<TRANSP> 5
 0.000000e+00 1.000000e+00 0.000000e+00 0.000000e+00 0.000000e+00
 0.000000e+00 9.012505e-01 9.874949e-02 0.000000e+00 0.000000e+00
 0.000000e+00 0.000000e+00 9.153502e-01 8.464979e-02 0.000000e+00
 0.000000e+00 0.000000e+00 0.000000e+00 9.176030e-01 8.239701e-02
 0.000000e+00 0.000000e+00 0.000000e+00 0.000000e+00 0.000000e+00
<ENDHMM>
~h "five"
<BEGINHMM>
<NUMSTATES> 5
<STATE> 2
<MEAN> 39
 -6.145329e+00 -8.579068e+00 -7.592477e+00 -9.225053e+00 -4.230697e-01 -6.121449e+00 6.973228e-03 -6.825442e+00 -3.778229e+00 -6.490670e+00 -3.219262e-01 -4.546301e+00 1.643808e+01 1.118019e-01 -6.872190e-01 -4.785962e-01 3.255057e-01 2.195617e-01 -2.712173e-01 2.421203e-01 2.802791e-01 -3.435884e-01 -1.302738e-01 -1.266212e-01 1.666713e-02 2.472835e-01 -1.686345e-03 -5.660393e-03 5.737627e-02 4.688870e-02 -1.725512e-02 -3.236588e-02 -1.989624e-02 -4.940951e-02 -1.732828e-02 2.411683e-02 1.546097e-02 -1.459365e-02 2.061907e-02
<VARIANCE> 39
 1.125209e+01 1.815389e+01 1.972016e+01 1.332431e+01 1.796997e+01 2.025477e+01 1.944235e+01 3.697218e+01 2.612185e+01 2.326822e+01 2.203218e+01 1.616224e+01 4.948147e+00 7.423177e-01 6.844109e-01 8.868342e-01 8.866027e-01 8.226793e-01 1.096095e+00 9.428306e-01 1.701108e+00 1.496831e+00 1.271828e+00 1.231868e+00 8.357598e-01 2.129103e-01 1.004223e-01 1.065272e-01 1.570923e-01 1.148710e-01 1.338448e-01 1.695191e-01 1.473375e-01 2.760086e-01 2.348386e-01 1.802752e-01 1.906086e-01 1.286201e-01 2.516608e-02
<GCONST> 8.141041e+01
<STATE> 3
<MEAN> 39
 -5.829910e+00 -1.543208e+01 -8.489590e+00 -3.791506e+00 1.364195e+00 -9.061786e+00 2.480585e+00 -7.543466e+00 -7.266443e+00 -5.482922e+00 -5.596463e-01 -4.576600e+00 1.903887e+01 -1.610333e-01 9.881346e-02 4.891213e-01 -2.808352e-01 -2.718480e-01 4.465801e-01 6.804509e-02 -3.852472e-01 3.469804e-02 2.820534e-01 5.019197e-02 -7.338839e-02 -4.962923e-02 4.119493e-02 1.198993e-01 1.074241e-02 -1.944130e-01 -5.746683e-02 8.541061e-02 -2.819499e-02 2.903894e-02 6.260731e-02 -5.057405e-02 -7.345662e-02 -1.855369e-02 -1.597171e-02
<VARIANCE> 39
 9.235524e+00 9.516528e+00 2.487406e+01 2.134834e+01 1.890436e+01 2.361059e+01 1.802781e+01 4.020390e+01 4.783455e+01 4.513334e+01 2.691067e+01 2.542699e+01 1.368736e+00 9.077766e-02 1.726032e-01 2.727433e-01 6.954173e-01 5.202836e-01 5.777708e-01 5.082273e-01 5.121694e-01 6.401102e-01 6.122541e-01 5.999660e-01 4.835863e-01 5.997593e-03 1.192116e-02 2.521036e-02 3.123392e-02 4.833081e-02 5.224704e-02 5.349396e-02 5.804969e-02 6.689404e-02 9.045397e-02 8.805477e-02 6.807334e-02 7.103815e-02 9.688328e-04
<GCONST> 5.083691e+01
<STATE> 4
<MEAN> 39
 -5.452398e+00 -7.798176e+00 -3.664718e+00 -1.292933e+01 -3.057848e+00 -3.760874e+00 1.120410e+00 -8.346091e+00 -3.888034e+00 -5.631060e+00 -1.734025e+00 -5.653004e+00 1.761937e+01 6.895975e-02 9.293793e-01 2.307956e-01 -1.987859e-01 -1.315900e-01 -8.908968e-02 -2.932278e-01 7.891096e-02 3.928487e-01 -1.370573e-01 7.672936e-02 1.233782e-02 -2.762189e-01 -4.002679e-02 -7.254129e-02 -8.900379e-02 1.945935e-01 1.092601e-01 -8.830103e-02 -1.665483e-02 -4.515693e-03 -4.075449e-02 1.309679e-02 7.345050e-02 3.240515e-02 -1.782500e-02
<VARIANCE> 39
 7.533121e+00 2.308248e+01 1.185585e+01 2.986156e+01 3.748620e+01 2.150837e+01 2.415422e+01 3.057119e+01 4.223586e+01 2.629445e+01 2.688216e+01 2.787956e+01 2.629523e+00 3.400322e-01 7.374058e-01 6.409180e-01 2.733145e+00 1.682089e+00 1.393088e+00 9.393052e-01 1.417221e+00 1.594573e+00 1.266553e+00 1.316848e+00 1.013081e+00 6.819288e-02 5.715523e-02 1.022108e-01 9.524722e-02 3.009332e-01 2.342666e-01 2.509231e-01 1.675268e-01 2.084453e-01 2.011773e-01 1.717467e-01 2.163433e-01 1.726194e-01 9.082147e-03
<GCONST> 8.298359e+01
<TRANSP> 5
 0.000000e+00 1.000000e+00 0.000000e+00 0.000000e+00 0.000000e+00
 0.000000e+00 9.300388e-01 6.996121e-02 0.000000e+00 0.000000e+00
 0.000000e+00 0.000000e+00 9.152320e-01 8.476804e-02 0.000000e+00
 0.000000e+00 0.000000e+00 0.000000e+00 8.980057e-01 1.019944e-01
 0.000000e+00 0.000000e+00 0.000000e+00 0.000000e+00 0.000000e+00
<ENDHMM>
~h "four"
<BEGINHMM>
<NUMSTATES> 5
<STATE> 2
<MEAN> 39
 -7.667618e+00 -6.677809e+00 -5.470645e+00 -9.688791e+00 -1.112552e+00 -4.543474e+00 -5.189713e-01 -8.559961e+00 -2.271118e+00 -5.732476e+00 1.121442e+00 -4.080833e+00 1.494338e+01 3.138345e-01 1.474829e-02 -3.778504e-01 -2.939826e-01 -1.125258e-01 -9.205914e-02 -1.320312e-01 -8.570381e-03 1.231803e-01 1.055096e-01 -1.625238e-02 -4.077206e-02 1.258383e-01 2.438173e-01 9.813496e-02 -1.170316e-01 -1.288144e-01 -5.303999e-02 -1.112583e-01 -1.097990e-01 -1.808122e-02 -8.184114e-03 7.009619e-03 -7.390770e-02 -1.029497e-01 1.065350e-01
<VARIANCE> 39
 4.657686e+00 4.193456e+00 6.876487e+00 8.704020e+00 1.156782e+01 1.418994e+01 1.488088e+01 1.611070e+01 1.489992e+01 1.410063e+01 1.539703e+01 1.167686e+01 9.116801e-01 1.047065e+00 4.639214e-01 5.766309e-01 6.437175e-01 6.049653e-01 9.842685e-01 9.577664e-01 8.519979e-01 8.544634e-01 7.821137e-01 1.037501e+00 8.674522e-01 1.654567e-01 5.929437e-02 5.711770e-02 1.015155e-01 1.069119e-01 1.041820e-01 1.638894e-01 1.311689e-01 1.613807e-01 1.551102e-01 1.347689e-01 1.544513e-01 1.329648e-01 6.555357e-03
<GCONST> 6.410859e+01
<STATE> 3
<MEAN> 39
 1.545541e+00 -3.506076e+00 -1.204608e+01 -1.693926e+01 -4.004876e+00 -6.246486e+00 -3.255047e+00 -8.958974e+00 -1.451340e+00 -3.992062e+00 3.068340e-01 -6.856421e+00 1.889500e+01 3.433107e-01 -1.623348e-01 -3.558472e-01 -7.216981e-02 6.820390e-02 -2.290292e-02 -2.270717e-01 1.736727e-01 3.472253e-01 1.047985e-01 -2.364448e-01 -2.329478e-01 1.594964e-01 -1.728060e-01 -1.511376e-01 1.446060e-01 2.267971e-01 4.013319e-02 -2.949187e-02 4.305383e-02 1.087217e-01 4.690708e-02 -7.877227e-02 -5.253180e-02 5.703614e-02 -6.698085e-02
<VARIANCE> 39
 4.227964e+00 1.022244e+01 1.029038e+01 1.432917e+01 2.460276e+01 1.721145e+01 1.818636e+01 1.709348e+01 2.334693e+01 2.481169e+01 3.750478e+01 3.594285e+01 1.115802e+00 5.912060e-01 7.438604e-01 7.231893e-01 1.240829e+00 9.895771e-01 7.948633e-01 9.115140e-01 9.642971e-01 1.307602e+00 1.180656e+00 1.372135e+00 1.243436e+00 1.038316e-01 4.871599e-02 4.642905e-02 9.628288e-02 8.305276e-02 1.340593e-01 1.435020e-01 1.544317e-01 1.396359e-01 1.799934e-01 1.932644e-01 2.021902e-01 1.820074e-01 7.090527e-03
<GCONST> 7.298953e+01
<STATE> 4
<MEAN> 39
 -5.429553e-01 -1.072219e+01 -7.323103e+00 -8.565812e+00 -5.391743e+00 -8.704760e+00 -2.323942e+00 -4.895545e+00 1.831905e-01 -7.540126e+00 -3.910866e+00 -7.426213e+00 1.840887e+01 -6.129131e-01 7.465326e-02 1.055964e+00 4.896500e-01 -3.433478e-01 7.616398e-02 5.981653e-01 -1.811753e-01 -6.240187e-01 -3.440978e-01 1.658259e-01 3.014704e-01 -2.432769e-01 -9.001604e-02 2.380772e-01 -4.453253e-02 -1.996030e-01 1.165280e-01 1.960446e-01 3.099983e-02 -1.858940e-01 -1.287920e-01 1.032561e-01 1.745547e-01 4.439798e-02 -4.962701e-02
<VARIANCE> 39
 7.333436e+00 1.779961e+01 3.181580e+01 1.828338e+01 4.522197e+01 3.700932e+01 3.509685e+01 4.319420e+01 4.621211e+01 3.482877e+01 3.460001e+01 3.076932e+01 1.741634e+00 2.971716e-01 1.587487e+00 9.179307e-01 1.626266e+00 2.564564e+00 2.221740e+00 1.718491e+00 2.564768e+00 1.885271e+00 1.705946e+00 1.829048e+00 1.123808e+00 5.832927e-02 2.926796e-02 1.346432e-01 2.064868e-01 1.690596e-01 4.288340e-01 2.940585e-01 3.516552e-01 3.668478e-01 3.851872e-01 2.816705e-01 3.092501e-01 2.124641e-01 3.411661e-03
<GCONST> 9.085587e+01
<TRANSP> 5
 0.000000e+00 1.000000e+00 0.000000e+00 0.000000e+00 0.000000e+00
 0.000000e+00 9.011175e-01 9.888245e-02 0.000000e+00 0.000000e+00
 0.000000e+00 0.000000e+00 9.186854e-01 8.131466e-02 0.000000e+00
 0.000000e+00 0.000000e+00 0.000000e+00 8.810123e-01 1.189877e-01
 0.000000e+00 0.000000e+00 0.000000e+00 0.000000e+00 0.000000e+00
<ENDHMM>
~h "zero"
<BEGINHMM>
<NUMSTATES> 5
<STATE> 2
<MEAN> 39
 -6.758242e+00 -3.060515e+00 -4.886809e+00 -7.466891e+00 -1.265815e+00 -3.807526e+00 -1.414142e+00 -8.520029e+00 -3.457392e+00 -5.106221e+00 5.900826e-01 -4.556112e+00 1.523185e+01 -8.169492e-02 3.317891e-01 1.413880e-01 -3.041522e-01 -2.133472e-01 -2.737918e-01 -1.777370e-01 -1.205200e-01 1.233222e-01 2.201291e-01 -1.254288e-02 -1.866401e-04 1.060535e-01 6.806587e-02 1.068927e-01 1.512895e-01 -2.257011e-01 -1.459366e-01 -2.462571e-01 -6.497265e-02 -7.538833e-02 6.202861e-02 1.080036e-02 -2.262451e-02 -5.403548e-02 8.252201e-02
<VARIANCE> 39
 7.745412e+00 1.028881e+01 1.429250e+01 1.360949e+01 1.783357e+01 1.930344e+01 1.877977e+01 1.949858e+01 2.377106e+01 2.085633e+01 1.977668e+01 1.678334e+01 1.208752e+00 4.211730e-01 7.290881e-01 1.003700e+00 9.500380e-01 8.893839e-01 1.750837e+00 9.589607e-01 1.102092e+00 1.068047e+00 8.963262e-01 1.006101e+00 1.001647e+00 1.192563e-01 5.258038e-02 9.179053e-02 1.144099e-01 1.198333e-01 1.237966e-01 1.946399e-01 1.597984e-01 1.730622e-01 1.607251e-01 1.399868e-01 1.706415e-01 1.584607e-01 7.959065e-03
<GCONST> 7.320346e+01
<STATE> 3
<MEAN> 39
 -5.591674e+00 3.934457e-01 8.082788e-01 -1.662380e+01 -7.709371e+00 -9.223618e+00 -4.659281e+00 -8.628991e+00 -4.951175e-02 -3.802409e+00 1.258905e-01 -6.759923e+00 1.834431e+01 3.380011e-01 -6.250442e-01 4.884856e-01 -2.651883e-01 -1.102022e+00 1.289587e-01 1.551958e-01 1.537921e-01 3.347931e-01 -5.401851e-02 2.659441e-02 -1.552127e-01 1.948767e-01 4.517485e-02 -2.659503e-01 -1.692430e-01 3.432316e-01 9.553318e-03 1.401740e-01 1.907769e-01 7.239076e-02 -7.133132e-02 -4.765201e-02 -7.091149e-03 6.283329e-02 -6.163617e-02
<VARIANCE> 39
 7.282070e+00 1.917402e+01 1.718638e+01 2.744275e+01 5.848881e+01 3.937801e+01 3.188964e+01 4.336040e+01 3.246003e+01 3.001619e+01 3.379465e+01 4.994589e+01 1.156387e+00 4.295290e-01 1.775699e+00 8.557065e-01 2.665371e+00 1.664578e+00 2.654067e+00 1.727806e+00 1.475557e+00 1.340050e+00 1.175638e+00 1.141412e+00 1.379888e+00 7.313459e-02 5.099318e-02 1.107573e-01 1.223709e-01 1.857697e-01 2.376200e-01 3.919162e-01 2.244332e-01 2.434413e-01 2.199977e-01 1.773774e-01 1.724052e-01 2.131321e-01 4.551002e-03
<GCONST> 8.729203e+01
<STATE> 4
<MEAN> 39
 -1.649379e+00 -9.930353e+00 -4.551332e+00 -9.836430e+00 -9.201858e+00 -8.374103e+00 4.425016e-02 -4.372461e+00 -3.073131e-01 -6.663246e+00 -1.066803e+00 -5.913366e+00 1.846294e+01 -1.818824e-03 4.127210e-02 -4.249041e-01 2.120114e-01 6.905850e-01 -3.663903e-02 1.287349e-02 7.660756e-02 -1.452984e-01 -9.952799e-02 -4.256808e-02 5.558676e-02 -9.982347e-02 -8.146993e-02 1.027067e-01 5.159891e-02 -8.308603e-02 8.989251e-02 7.167269e-02 -5.899372e-02 -6.227170e-02 -2.366859e-02 2.520156e-02 2.529939e-02 8.741844e-03 -2.410691e-02
<VARIANCE> 39
 6.049098e+00 2.022844e+01 2.591265e+01 2.575872e+01 6.116455e+01 5.179874e+01 3.776401e+01 3.635994e+01 4.391957e+01 3.594072e+01 2.597991e+01 3.311881e+01 1.509460e+00 3.011337e-01 8.274705e-01 7.834388e-01 1.013477e+00 1.236493e+00 1.841265e+00 1.589766e+00 1.897708e+00 1.647560e+00 1.476271e+00 1.053291e+00 9.581078e-01 3.797520e-02 2.902771e-02 5.182648e-02 8.359778e-02 1.131001e-01 1.905340e-01 2.370870e-01 2.060778e-01 2.034567e-01 2.219629e-01 2.011866e-01 1.522567e-01 1.418974e-01 2.415792e-03
<GCONST> 8.034174e+01
<TRANSP> 5
 0.000000e+00 1.000000e+00 0.000000e+00 0.000000e+00 0.000000e+00
 0.000000e+00 8.903287e-01 1.096713e-01 0.000000e+00 0.000000e+00
 0.000000e+00 0.000000e+00 8.972931e-01 1.027069e-01 0.000000e+00
 0.000000e+00 0.000000e+00 0.000000e+00 9.447544e-01 5.524559e-02
 0.000000e+00 0.000000e+00 0.000000e+00 0.000000e+00 0.000000e+00
<ENDHMM>
