~o
<STREAMINFO> 1 39
<VECSIZE> 39<NULLD><MFCC_E_D_A><DIAGC>
~h "eight"
<BEGINHMM>
<NUMSTATES> 5
<STATE> 2
<MEAN> 39
 -7.524361e+00 -3.425023e+00 -5.693423e+00 -1.668165e+01 -6.472789e-01 -5.182658e+00 5.464762e-01 -6.746422e+00 -1.554586e+00 -6.763711e+00 -1.027616e+00 -5.331629e+00 1.714919e+01 -1.900024e-01 7.575457e-01 -8.186185e-02 -7.814301e-01 3.922597e-02 -4.146357e-01 5.495965e-02 2.967829e-01 3.011637e-01 4.558222e-02 -9.447496e-02 -9.567066e-02 2.139853e-01 3.509595e-02 8.253434e-02 1.093099e-02 8.965287e-02 -4.103738e-02 -1.680729e-01 -8.082538e-02 -2.285798e-02 2.704500e-02 6.061631e-02 5.858774e-02 -4.573770e-03 3.461609e-03
<VARIANCE> 39
 1.075568e+01 2.305964e+01 1.835891e+01 3.944751e+01 4.045778e+01 2.353806e+01 2.441655e+01 2.433776e+01 3.137271e+01 2.547003e+01 2.575887e+01 2.447269e+01 3.380880e+00 3.360929e-01 9.650899e-01 6.847232e-01 1.411201e+00 1.254015e+00 1.634336e+00 1.348139e+00 1.128178e+00 1.374360e+00 1.216738e+00 1.140087e+00 1.007745e+00 1.229738e-01 4.082805e-02 8.492017e-02 8.461777e-02 2.011302e-01 1.478569e-01 1.778271e-01 1.529676e-01 1.814231e-01 2.320945e-01 1.695036e-01 1.833534e-01 1.573071e-01 1.323957e-02
<GCONST> 8.183712e+01
<STATE> 3
<MEAN> 39
 -7.935225e+00 5.476082e+00 -4.908518e+00 -1.664699e+01 -2.357290e+00 -1.441959e+01 -3.035428e+00 -8.591081e+00 -1.333421e+00 -4.426817e+00 9.896251e-01 -5.287127e+00 1.807281e+01 2.038487e-01 -4.290973e-01 1.808147e-01 9.720913e-01 1.361546e-01 6.941479e-02 -3.419676e-01 -6.694769e-01 -5.148736e-01 -4.117773e-02 2.100143e-01 1.946080e-01 -2.363460e-01 1.020973e-02 -3.329017e-01 -3.043922e-02 6.394338e-02 4.254453e-02 3.532711e-01 1.234283e-01 5.587500e-02 -2.346614e-02 -9.194585e-02 -6.258540e-02 3.909520e-03 -6.257603e-02
<VARIANCE> 39
 9.284538e+00 1.350749e+01 2.250778e+01 3.248466e+01 1.967616e+01 2.420468e+01 5.254428e+01 3.438056e+01 4.415802e+01 2.637374e+01 3.191339e+01 2.703336e+01 1.959857e+00 2.642222e-01 1.895678e+00 4.088356e-01 7.647112e-01 7.868042e-01 2.502131e+00 1.307354e+00 1.116797e+00 1.804269e+00 1.195084e+00 1.398745e+00 1.008708e+00 6.759037e-02 3.641444e-02 9.029990e-02 5.905358e-02 1.265735e-01 9.250768e-02 1.744988e-01 1.630087e-01 2.078769e-01 2.767991e-01 1.690480e-01 1.958905e-01 1.643092e-01 4.024206e-03
<GCONST> 7.874335e+01
<STATE> 4
<MEAN> 39
 -7.116770e+00 -6.541073e+00 -5.514884e+00 -1.004293e+01 -1.215375e+00 -4.682469e+00 -8.409353e-01 -8.921485e+00 -3.019658e+00 -5.935843e+00 9.428684e-01 -4.004980e+00 1.468662e+01 -7.179856e-02 -3.660431e-01 -1.176295e-01 1.204226e-01 -4.112457e-02 3.696071e-01 1.855401e-01 1.810011e-01 1.167375e-01 8.798664e-03 1.649115e-02 9.387739e-03 -9.300470e-02 -5.684836e-03 1.757348e-01 1.040016e-02 -6.683992e-02 -1.211826e-02 -1.464314e-01 -4.599072e-02 -1.504009e-02 -6.332105e-03 2.179322e-02 -5.186449e-03 -1.391492e-02 4.871770e-02
<VARIANCE> 39
 4.560893e+00 6.159108e+00 8.314754e+00 9.574130e+00 1.262567e+01 1.589426e+01 1.697647e+01 1.696684e+01 1.732068e+01 1.627313e+01 1.523354e+01 1.399440e+01 1.034501e+00 2.099291e-01 8.405191e-01 4.288100e-01 5.955212e-01 4.862412e-01 1.170440e+00 9.931176e-01 8.546670e-01 9.812938e-01 7.909747e-01 7.432467e-01 7.057045e-01 4.874164e-02 3.460017e-02 9.647745e-02 7.128531e-02 1.091525e-01 9.177057e-02 1.887648e-01 1.756935e-01 1.504277e-01 1.623777e-01 1.354731e-01 1.324255e-01 1.272723e-01 4.818416e-03
<GCONST> 6.216202e+01
<TRANSP> 5
 0.000000e+00 1.000000e+00 0.000000e+00 0.000000e+00 0.000000e+00
 0.000000e+00 9.121947e-01 8.780532e-02 0.000000e+00 0.000000e+00
 0.000000e+00 0.000000e+00 8.976218e-01 1.023783e-01 0.000000e+00
 0.000000e+00 0.000000e+00 0.000000e+00 9.213890e-01 7.861093e-02
 0.000000e+00 0.000000e+00 0.000000e+00 0.000000e+00 0.000000e+00
<ENDHMM>
~h "oh"
<BEGINHMM>
<NUMSTATES> 5
<STATE> 2
<MEAN> 39
 -5.072904e+00 -9.817543e+00 -7.833384e+00 -8.759857e+00 -2.347719e+00 -7.078440e+00 2.847759e+00 -7.616871e+00 -4.773011e+00 -6.878157e+00 -1.687979e+00 -4.955317e+00 1.721408e+01 4.015604e-01 -2.821484e-01 -5.485505e-01 2.171541e-01 1.401623e-01 -4.945718e-01 2.322889e-01 5.781053e-01 -1.037476e-01 -3.932619e-01 -3.404436e-01 -6.349666e-02 2.903824e-01 6.013405e-02 8.892410e-02 -1.210237e-02 -5.544888e-02 1.547180e-02 -6.012421e-02 -1.276605e-01 1.861816e-02 1.092556e-01 1.495016e-03 -5.272224e-02 -5.050196e-02 1.424354e-02
<VARIANCE> 39
 8.382320e+00 1.228218e+01 1.538581e+01 1.591972e+01 2.185692e+01 2.340164e+01 2.846190e+01 5.757669e+01 3.748621e+01 3.054216e+01 2.663989e+01 2.711327e+01 3.812016e+00 4.045030e-01 5.595045e-01 6.603159e-01 6.405975e-01 7.460977e-01 1.180172e+00 1.235328e+00 1.815303e+00 1.533160e+00 1.309644e+00 1.311776e+00 1.082003e+00 1.254160e-01 4.813058e-02 7.023266e-02 8.521727e-02 8.555447e-02 1.118069e-01 1.482320e-01 1.609971e-01 2.226751e-01 2.095435e-01 1.953586e-01 2.000354e-01 1.548819e-01 1.713554e-02
<GCONST> 7.894447e+01
<STATE> 3
<MEAN> 39
 -4.965947e-01 -8.085551e+00 -1.303811e+01 -1.018379e+01 -8.909632e-01 -1.201037e+01 -8.892541e-01 -1.284809e+00 1.939314e-01 -7.884252e+00 -5.009700e+00 -6.855103e+00 1.903839e+01 2.239065e-01 4.083357e-01 -6.299179e-03 -3.375475e-01 -6.151040e-02 -1.964534e-02 -6.569712e-01 -2.515045e-01 6.164240e-01 5.838718e-01 3.178839e-02 -3.234849e-01 -1.058194e-02 -4.688036e-02 2.213251e-02 1.000646e-01 -1.014013e-02 -5.009494e-02 8.897677e-02 1.630349e-02 -1.447872e-01 -8.520415e-02 7.581855e-02 1.148444e-01 2.391921e-02 -2.662400e-02
<VARIANCE> 39
 6.028926e+00 9.347409e+00 1.555830e+01 1.589688e+01 1.975415e+01 2.333684e+01 4.428238e+01 3.314375e+01 4.055778e+01 3.755711e+01 3.123155e+01 3.914727e+01 1.183736e+00 8.543306e-02 1.427005e-01 2.976731e-01 2.936641e-01 3.913105e-01 5.535882e-01 7.245917e-01 1.116327e+00 7.998062e-01 8.947302e-01 8.656536e-01 6.944237e-01 1.391790e-02 1.175630e-02 1.537125e-02 3.537056e-02 3.572029e-02 4.852976e-02 7.178195e-02 8.156168e-02 1.012437e-01 1.109303e-01 1.075001e-01 9.628420e-02 9.289276e-02 1.245800e-03
<GCONST> 5.396381e+01
<STATE> 4
<MEAN> 39
 -7.418504e-01 -3.730202e+00 -8.383294e+00 -1.248794e+01 -3.622050e+00 -9.300113e+00 -4.000124e+00 -8.066690e+00 -2.979726e-01 -3.366271e+00 3.569847e-01 -6.248648e+00 1.795416e+01 -5.069063e-01 1.202980e-01 7.349991e-01 2.727197e-01 1.214059e-02 5.559287e-01 3.365050e-01 -4.405206e-01 -5.363591e-01 -1.885764e-01 3.968862e-01 4.349134e-01 -2.802328e-01 -1.126509e-01 -1.140011e-01 -2.908091e-02 7.595265e-02 9.950914e-02 8.985710e-02 1.345893e-01 9.031345e-02 -3.953571e-02 -1.066706e-01 -6.855673e-02 5.315159e-02 -3.464227e-02
<VARIANCE> 39
 9.361562e+00 7.810232e+00 2.079550e+01 1.825483e+01 1.941329e+01 2.692003e+01 3.110314e+01 2.683562e+01 3.199018e+01 4.008411e+01 3.906112e+01 3.790229e+01 2.412515e+00 3.826958e-01 4.593664e-01 5.507380e-01 6.217661e-01 8.842417e-01 1.264741e+00 1.251875e+00 1.298653e+00 1.305793e+00 1.263463e+00 1.279159e+00 1.245755e+00 5.453477e-02 3.299609e-02 4.469857e-02 8.896682e-02 8.728158e-02 1.096995e-01 1.661355e-01 1.871815e-01 1.997288e-01 2.127138e-01 2.068777e-01 1.755925e-01 1.748504e-01 4.194940e-03
<GCONST> 7.532745e+01
<TRANSP> 5
 0.000000e+00 1.000000e+00 0.000000e+00 0.000000e+00 0.000000e+00
 0.000000e+00 9.027606e-01 9.723936e-02 0.000000e+00 0.000000e+00
 0.000000e+00 0.000000e+00 9.042473e-01 9.575269e-02 0.000000e+00
 0.000000e+00 0.000000e+00 0.000000e+00 8.838435e-01 1.161565e-01
 0.000000e+00 0.000000e+00 0.000000e+00 0.000000e+00 0.000000e+00
<ENDHMM>
~h "seven"
<BEGINHMM>
<NUMSTATES> 5
<STATE> 2
<MEAN> 39
 -8.806643e+00 -4.769285e+00 -7.050027e+00 -8.596655e+00 -2.107398e+00 -3.131438e+00 -1.276507e+00 -8.136147e+00 -2.909430e+00 -5.214484e+00 6.799225e-01 -3.793393e+00 1.484347e+01 4.741200e-02 -4.084789e-02 -4.356917e-02 -3.256991e-01 -2.671283e-01 -1.353359e-01 2.667646e-01 1.513739e-02 1.375783e-01 -7.728384e-04 -2.047786e-01 -6.332490e-02 1.080887e-01 1.303983e-01 9.204876e-03 8.983076e-02 -1.476358e-01 -1.309364e-01 -1.120203e-01 8.733007e-02 -1.238443e-02 2.002490e-02 -2.644490e-02 -8.712226e-02 -9.269794e-02 9.199288e-02
<VARIANCE> 39
 8.339959e+00 1.013035e+01 1.380076e+01 1.310766e+01 1.612600e+01 1.582003e+01 1.759685e+01 1.745254e+01 1.826358e+01 1.723363e+01 1.706740e+01 1.463344e+01 9.047261e-01 7.144120e-01 4.608470e-01 8.613415e-01 9.991083e-01 9.701369e-01 1.283293e+00 9.959630e-01 8.575959e-01 1.029544e+00 1.155906e+00 9.210106e-01 9.517394e-01 1.512425e-01 5.368400e-02 6.783883e-02 9.750178e-02 1.360509e-01 1.662414e-01 1.770662e-01 1.648983e-01 1.456987e-01 1.700096e-01 1.546174e-01 1.450091e-01 1.504832e-01 8.093942e-03
<GCONST> 7.123418e+01
<STATE> 3
<MEAN> 39
 -5.558073e+00 -7.172778e+00 -5.193472e+00 -1.591174e+01 -6.355662e+00 -4.897014e+00 4.772486e+00 -8.474999e+00 -2.770164e+00 -6.761118e+00 -3.975046e+00 -6.626520e+00 1.896182e+01 1.894536e-01 -2.722622e-01 1.233816e-01 3.882876e-02 -6.137326e-02 -1.088010e-01 2.446571e-01 2.681850e-01 -2.807238e-01 -5.543049e-02 -6.964395e-02 -1.107265e-01 1.236364e-01 -4.178008e-02 7.839750e-02 1.111917e-02 2.926456e-01 1.553700e-01 -2.480849e-02 -2.548967e-01 3.867838e-02 -2.091162e-02 1.592021e-02 1.771701e-01 7.159723e-02 -1.270849e-01
<VARIANCE> 39
 9.614643e+00 1.303328e+01 9.436709e+00 1.827780e+01 4.580245e+01 3.937848e+01 3.187666e+01 3.950843e+01 4.652960e+01 5.849228e+01 3.255420e+01 3.130152e+01 1.240814e+00 4.410258e-01 5.954205e-01 4.993330e-01 1.548395e+00 1.671524e+00 1.672649e+00 1.827654e+00 1.089302e+00 1.392670e+00 1.776832e+00 1.809613e+00 1.326400e+00 2.114270e-01 8.204684e-02 9.001194e-02 9.646606e-02 1.114838e-01 2.523419e-01 2.721470e-01 1.781217e-01 1.666772e-01 2.018926e-01 2.407532e-01 2.262371e-01 1.834978e-01 6.062325e-03
<GCONST> 8.474818e+01
<STATE> 4
<MEAN> 39
 -3.244348e+00 -3.881838e+00 -1.891204e+00 -9.521942e+00 -3.365967e+00 -8.015677e+00 -1.088922e+00 -8.732981e+00 -4.324246e+00 -7.120045e+00 -1.906860e+00 -7.105255e+00 1.713247e+01 1.768254e-02 2.205656e-01 1.049603e-01 2.065498e-01 3.193767e-01 1.039552e-01 -2.925286e-01 -2.637335e-01 8.569269e-02 -1.439267e-02 1.277880e-01 4.227518e-02 -1.184137e-01 -5.595611e-02 -7.367318e-02 -7.384516e-02 -8.778039e-02 -2.233425e-02 9.372119e-02 1.106991e-01 -4.595954e-03 1.866129e-02 1.745074e-02 -3.220644e-02 2.023113e-02 1.415738e-02
<VARIANCE> 39
 4.974840e+00 1.019477e+01 9.926704e+00 1.395348e+01 2.822469e+01 3.043306e+01 2.586526e+01 4.089517e+01 3.293279e+01 3.570389e+01 3.328819e+01 2.974875e+01 1.533694e+00 2.533948e-01 5.250477e-01 5.539072e-01 8.538649e-01 1.339953e+00 1.253489e+00 1.628736e+00 1.363170e+00 1.438484e+00 1.411169e+00 1.273559e+00 9.896281e-01 9.358746e-02 3.738625e-02 7.812193e-02 8.698361e-02 1.507714e-01 2.341872e-01 2.027749e-01 2.726189e-01 2.366425e-01 2.360250e-01 2.409601e-01 2.174072e-01 1.500706e-01 1.437081e-02
<GCONST> 7.928008e+01
<TRANSP> 5
 0.000000e+00 1.000000e+00 0.000000e+00 0.000000e+00 0.000000e+00
 0.000000e+00 9.125738e-01 8.742628e-02 0.000000e+00 0.000000e+00
 0.000000e+00 0.000000e+00 9.003659e-01 9.963406e-02 0.000000e+00
 0.000000e+00 0.000000e+00 0.000000e+00 9.365585e-01 6.344154e-02
 0.000000e+00 0.000000e+00 0.000000e+00 0.000000e+00 0.000000e+00
<ENDHMM>
~h "three"
<BEGINHMM>
<NUMSTATES> 5
<STATE> 2
<MEAN> 39
 -7.753101e+00 -6.035277e+00 -4.949144e+00 -1.011978e+01 -8.176964e-01 -4.845855e+00 -5.888066e-01 -8.498262e+00 -2.602034e+00 -5.425552e+00 9.830325e-01 -3.779369e+00 1.488863e+01 1.181844e-01 -8.363467e-02 2.207204e-01 -4.797918e-02 -4.167414e-01 -2.858684e-01 -6.849208e-02 1.494177e-02 7.425322e-02 3.189605e-02 1.361220e-02 4.278522e-04 9.208884e-02 1.742210e-01 2.254166e-02 1.428297e-01 1.952976e-03 -2.577672e-01 -1.755566e-01 -7.574122e-02 -1.877733e-02 1.537860e-02 -9.218000e-03 -3.924730e-02 -7.054659e-02 8.471659e-02
<VARIANCE> 39
 5.400766e+00 6.329576e+00 9.779352e+00 1.060190e+01 1.435538e+01 1.431225e+01 1.606505e+01 1.761142e+01 1.951319e+01 1.776076e+01 1.686062e+01 1.459228e+01 1.170448e+00 7.019901e-01 5.235444e-01 8.963107e-01 7.510079e-01 1.499183e+00 1.312559e+00 9.016342e-01 1.036179e+00 9.999543e-01 9.323059e-01 9.825652e-01 9.153168e-01 1.193080e-01 5.916787e-02 9.076416e-02 9.846707e-02 1.380227e-01 2.011593e-01 1.855364e-01 1.564497e-01 2.030751e-01 1.781605e-01 1.662449e-01 1.641537e-01 1.611111e-01 4.958375e-03
<GCONST> 7.052027e+01
<STATE> 3
<MEAN> 39
 -2.518151e+00 -6.783516e+00 2.449312e+00 -1.140192e+01 -1.369862e+01 -9.363301e+00 -3.152575e+00 -9.428333e+00 -9.449939e-03 -5.130511e+00 1.270127e-01 -5.735048e+00 1.823541e+01 -6.862613e-02 4.227164e-01 6.951773e-01 -1.049856e+00 -3.996417e-01 3.060175e-01 -8.254079e-01 1.096489e-01 3.076105e-01 -2.807258e-02 6.153203e-02 -1.674208e-01 2.367491e-01 -2.156717e-01 2.146451e-01 -2.005212e-01 -1.428155e-01 5.230246e-01 4.712288e-02 -5.941598e-02 1.143454e-01 -1.140723e-01 -2.023049e-02 2.135125e-02 3.956057e-02 -6.774359e-02
<VARIANCE> 39
 6.507176e+00 1.457575e+01 2.008426e+01 4.937677e+01 4.245380e+01 6.100879e+01 3.522902e+01 3.826552e+01 3.064140e+01 2.820660e+01 3.707784e+01 3.334344e+01 1.447085e+00 9.619786e-01 1.476632e+00 9.228711e-01 2.725304e+00 4.895120e+00 3.382440e+00 2.206994e+00 1.969151e+00 1.296626e+00 1.095893e+00 1.152275e+00 1.164597e+00 6.899510e-02 6.798237e-02 1.290742e-01 1.773855e-01 3.907554e-01 3.806300e-01 6.812714e-01 3.772578e-01 2.755095e-01 2.400969e-01 1.746556e-01 1.705918e-01 1.637533e-01 3.908578e-03
<GCONST> 9.265442e+01
<STATE> 4
<MEAN> 39
 -6.590512e+00 3.298131e+00 -7.803692e-01 -1.672937e+01 -2.106722e+00 -1.135583e+01 -6.399161e+00 -7.962204e+00 -3.159474e+00 -5.505674e+00 -3.371014e-01 -6.525795e+00 1.789477e+01 -2.819842e-02 6.328557e-02 -6.391423e-01 7.253119e-01 7.234709e-01 -1.648578e-01 5.492692e-01 -8.268827e-02 -3.564468e-01 1.202726e-02 -7.059446e-02 5.073726e-02 -1.956448e-01 5.814550e-02 -2.881083e-01 2.509968e-03 1.697284e-01 -2.211462e-01 1.819741e-01 1.647778e-01 -6.734541e-02 9.742389e-02 8.240250e-03 2.041732e-02 2.496877e-02 -3.092047e-02
<VARIANCE> 39
 7.580550e+00 1.700890e+01 1.909976e+01 3.484727e+01 2.704724e+01 2.948744e+01 4.823309e+01 4.778439e+01 3.321832e+01 3.976893e+01 4.240136e+01 3.677530e+01 1.619900e+00 3.151315e-01 1.882899e+00 6.700097e-01 1.043717e+00 1.834869e+00 2.559847e+00 1.467125e+00 1.693757e+00 1.384674e+00 1.287918e+00 1.031998e+00 9.705036e-01 3.582557e-02 4.748402e-02 9.098857e-02 9.640287e-02 2.205400e-01 1.814749e-01 2.352831e-01 2.696330e-01 2.497825e-01 1.837021e-01 1.709955e-01 1.443273e-01 1.353055e-01 2.469559e-03
<GCONST> 8.276363e+01
<TRANSP> 5
 0.000000e+00 1.000000e+00 0.000000e+00 0.000000e+00 0.000000e+00
 0.000000e+00 9.016221e-01 9.837797e-02 0.000000e+00 0.000000e+00
 0.000000e+00 0.000000e+00 8.936683e-01 1.063317e-01 0.000000e+00
 0.000000e+00 0.000000e+00 0.000000e+00 9.153345e-01 8.466554e-02
 0.000000e+00 0.000000e+00 0.000000e+00 0.000000e+00 0.000000e+00
<ENDHMM>
~h "one"
<BEGINHMM>
<NUMSTATES> 5
<STATE> 2
<MEAN> 39
 -4.518617e-01 -3.402680e+00 -8.443881e+00 -1.270281e+01 -1.875727e+00 -5.987653e+00 -2.275624e+00 -8.867936e+00 -2.601735e+00 -6.645978e+00 -1.475373e+00 -7.365975e+00 1.769859e+01 2.104162e-01 -3.606867e-01 -7.772115e-01 3.866326e-01 4.274761e-01 9.438246e-02 -2.048037e-01 2.134507e-01 1.819911e-01 -2.419139e-01 -3.084330e-01 -2.085223e-01 1.797044e-01 -1.118934e-01 -1.460679e-01 2.927867e-02 2.153504e-01 1.226741e-02 -9.389355e-02 -2.931989e-03 1.044309e-01 5.151764e-03 -7.579035e-02 2.508402e-03 7.602477e-02 -1.570874e-02
<VARIANCE> 39
 5.495352e+00 8.374808e+00 3.132950e+01 2.276428e+01 2.856251e+01 2.622881e+01 2.260871e+01 2.060506e+01 2.743931e+01 2.315660e+01 3.019629e+01 3.007923e+01 2.038548e+00 4.331079e-01 7.311476e-01 9.485972e-01 2.139336e+00 1.343998e+00 1.366071e+00 1.271954e+00 1.039792e+00 1.139386e+00 9.681796e-01 1.110997e+00 9.685551e-01 5.947196e-02 3.949705e-02 5.502229e-02 1.856282e-01 2.318572e-01 2.499790e-01 2.470889e-01 2.300152e-01 1.749957e-01 1.963401e-01 1.583921e-01 1.854121e-01 1.750201e-01 4.527970e-03
<GCONST> 7.904086e+01
<STATE> 3
<MEAN> 39
 -2.465466e+00 -1.063749e+01 -1.057816e+01 -1.817049e+00 -8.204354e-01 -9.426576e+00 -2.030284e+00 -4.360075e+00 -3.708343e+00 -1.158832e+01 -2.280322e+00 -6.160105e+00 1.852692e+01 -5.923256e-01 -3.131073e-01 1.360779e+00 4.865619e-01 -1.327657e+00 -2.684145e-01 1.140141e+00 -1.565285e-01 -8.914950e-01 -1.473710e-02 5.522277e-01 9.289713e-02 -5.213346e-02 3.156981e-02 3.182532e-01 2.336451e-01 -5.691771e-01 -9.460411e-02 3.616047e-01 5.220481e-02 -4.228403e-01 2.292763e-02 3.597621e-01 2.881689e-02 -1.620750e-01 -2.971573e-02
<VARIANCE> 39
 6.425749e+00 9.764999e+00 1.981080e+01 2.419573e+01 2.885956e+01 1.776370e+01 3.884117e+01 3.255243e+01 4.659240e+01 3.887049e+01 3.430854e+01 3.411132e+01 1.525040e+00 1.633386e-01 5.914951e-01 6.367737e-01 1.980158e+00 7.716219e-01 1.823246e+00 1.053406e+00 2.307861e+00 1.240670e+00 1.946865e+00 1.064892e+00 1.293216e+00 8.977897e-03 2.596339e-02 5.244822e-02 1.077621e-01 1.227790e-01 3.162149e-01 1.590640e-01 4.062738e-01 1.859245e-01 3.425961e-01 2.133427e-01 2.683222e-01 1.720627e-01 8.707137e-04
<GCONST> 7.673793e+01
<STATE> 4
<MEAN> 39
 -3.841126e+00 -4.380081e+00 -1.380808e+00 -8.920116e+00 -3.196628e+00 -6.281971e+00 -2.462210e+00 -1.221233e+01 -5.214514e+00 -8.497467e+00 -2.664928e+00 -8.175377e+00 1.759467e+01 -3.701247e-03 5.640160e-01 2.622451e-01 -4.548725e-01 4.116608e-01 1.698768e-01 -3.735604e-01 -2.332983e-01 1.575074e-01 1.861127e-01 -2.806149e-02 1.649871e-01 -1.759982e-01 -2.108110e-02 -1.171259e-01 -2.145103e-01 1.096526e-01 8.703944e-02 -2.721857e-02 2.046350e-02 1.849918e-01 4.516780e-02 -7.363352e-02 3.749642e-02 8.076004e-02 -1.677452e-02
<VARIANCE> 39
 6.725616e+00 2.077598e+01 9.946121e+00 1.740439e+01 2.093869e+01 4.195519e+01 3.341002e+01 3.282909e+01 4.008410e+01 4.409888e+01 3.259620e+01 3.568682e+01 1.337975e+00 3.443270e-01 1.010748e+00 9.863473e-01 1.216697e+00 8.805009e-01 1.865007e+00 1.353849e+00 1.411812e+00 1.573513e+00 1.478417e+00 1.085044e+00 1.050122e+00 2.735207e-02 5.694289e-02 1.045724e-01 8.382092e-02 1.278460e-01 1.951417e-01 2.806728e-01 2.505282e-01 1.784434e-01 2.218326e-01 2.216901e-01 1.661885e-01 1.590859e-01 2.928930e-03
<GCONST> 7.987312e+01
<TRANSP> 5
 0.000000e+00 1.000000e+00 0.000000e+00 0.000000e+00 0.000000e+00
 0.000000e+00 9.096020e-01 9.039797e-02 0.000000e+00 0.000000e+00
 0.000000e+00 0.000000e+00 8.314146e-01 1.685854e-01 0.000000e+00
 0.000000e+00 0.000000e+00 0.000000e+00 9.086906e-01 9.130944e-02
 0.000000e+00 0.000000e+00 0.000000e+00 0.000000e+00 0.000000e+00
<ENDHMM>
~h "sil"
<BEGINHMM>
<NUMSTATES> 5
<STATE> 2
<MEAN> 39
 -5.629710e+00 -5.381886e+00 -3.959652e+00 -9.043979e+00 -2.191529e-01 -4.181893e+00 -1.412609e-01 -8.546703e+00 -2.498032e+00 -5.830921e+00 5.866344e-01 -4.487331e+00 1.512054e+01 -2.989974e-01 -2.485953e-01 -1.857995e-01 -5.063612e-02 6.951908e-02 1.348552e-01 8.168925e-02 -1.636633e-03 1.418056e-02 1.866316e-02 1.135553e-01 5.824729e-02 -1.518532e-01 2.366928e-02 -7.470332e-03 -3.844192e-02 -6.360365e-02 -7.384153e-02 -6.420349e-02 -4.218072e-02 -1.952248e-03 -3.813970e-03 -6.771389e-03 -1.694033e-02 -5.217475e-03 2.531448e-02
<VARIANCE> 39
 6.971066e+00 8.607129e+00 9.564754e+00 1.168475e+01 1.486935e+01 1.538788e+01 1.765928e+01 1.877648e+01 2.046486e+01 1.954504e+01 1.858372e+01 1.638730e+01 1.209547e+00 1.686652e-01 3.745984e-01 4.430675e-01 5.866142e-01 7.339757e-01 8.284950e-01 8.454961e-01 9.075984e-01 9.109218e-01 8.356450e-01 9.046682e-01 7.998137e-01 2.155261e-02 2.201134e-02 4.568543e-02 6.338220e-02 7.749983e-02 1.032737e-01 1.189163e-01 1.186154e-01 1.276609e-01 1.369556e-01 1.216479e-01 1.281466e-01 1.153787e-01 2.526382e-03
<GCONST> 5.922213e+01
<STATE> 3
<MEAN> 39
 -7.156939e+00 -7.236735e+00 -5.866395e+00 -1.018523e+01 -1.012348e+00 -4.339156e+00 -3.654404e-01 -8.603598e+00 -2.680012e+00 -5.571366e+00 1.005066e+00 -4.037416e+00 1.452098e+01 -3.584020e-03 4.973778e-03 -6.191922e-03 3.801937e-03 1.879554e-03 4.715988e-03 1.255034e-03 -9.876178e-03 -4.555691e-03 1.094672e-02 -2.632670e-04 2.492574e-03 -1.193080e-03 -2.368496e-04 4.887811e-03 2.877427e-03 5.286461e-03 1.315881e-03 2.870416e-03 5.487120e-04 5.853410e-03 2.717799e-03 -8.292804e-04 -4.062799e-03 -3.430492e-03 1.584968e-03
<VARIANCE> 39
 3.027165e+00 3.564781e+00 6.172702e+00 8.254441e+00 1.253747e+01 1.387374e+01 1.474216e+01 1.582846e+01 1.623779e+01 1.398251e+01 1.548319e+01 1.300188e+01 1.028432e+00 5.842903e-02 1.319094e-01 2.563352e-01 3.600303e-01 4.751976e-01 6.449603e-01 6.224144e-01 6.900986e-01 6.643434e-01 5.534230e-01 6.422851e-01 5.676934e-01 2.417418e-03 1.073368e-02 2.426563e-02 4.638896e-02 6.443689e-02 8.854952e-02 1.218526e-01 1.105601e-01 1.289114e-01 1.215520e-01 9.644397e-02 1.150024e-01 1.070999e-01 5.051118e-04
<GCONST> 4.276595e+01
<STATE> 4
<MEAN> 39
 -8.044097e+00 -6.369817e+00 -6.079096e+00 -1.016940e+01 -1.188537e+00 -4.700850e+00 -5.106673e-01 -8.720682e+00 -2.519548e+00 -5.941764e+00 9.985313e-01 -4.417078e+00 1.453677e+01 3.422439e-03 1.545882e-01 2.794192e-02 1.227963e-02 -7.638212e-02 -6.394031e-02 -6.565056e-02 4.921000e-02 -5.532528e-02 -8.987250e-02 -1.027073e-01 -6.833547e-02 4.892003e-02 4.561710e-02 5.645845e-02 2.690526e-02 -6.752774e-03 -2.037268e-03 -2.716455e-02 -1.659530e-02 -1.573684e-02 -1.398956e-02 -1.821213e-02 -3.889849e-02 -1.456871e-02 3.347779e-02
<VARIANCE> 39
 5.361465e+00 5.850693e+00 7.452247e+00 1.031438e+01 1.202343e+01 1.461871e+01 1.655217e+01 1.791413e+01 1.851075e+01 1.737202e+01 1.645256e+01 1.416317e+01 1.276582e+00 2.534421e-01 3.365522e-01 3.772635e-01 5.664125e-01 6.053316e-01 7.375300e-01 7.088122e-01 9.202808e-01 8.939191e-01 7.990518e-01 7.762719e-01 6.718942e-01 2.073162e-02 3.954322e-02 5.724547e-02 6.069209e-02 9.818372e-02 9.287846e-02 1.226493e-01 1.060882e-01 1.502722e-01 1.416597e-01 1.225172e-01 1.118092e-01 9.929964e-02 4.412940e-03
<GCONST> 5.788792e+01
<TRANSP> 5
 0.000000e+00 1.000000e+00 0.000000e+00 0.000000e+00 0.000000e+00
 0.000000e+00 7.692379e-01 2.307621e-01 0.000000e+00 0.000000e+00
 0.000000e+00 0.000000e+00 9.590834e-01 4.091662e-02 0.000000e+00
 0.000000e+00 0.000000e+00 0.000000e+00 7.109265e-01 2.890735e-01
 0.000000e+00 0.000000e+00 0.000000e+00 0.000000e+00 0.000000e+00
<ENDHMM>
~h "six"
<BEGINHMM>
<NUMSTATES> 5
<STATE> 2
<MEAN> 39
 -9.124295e+00 -4.836954e+00 -7.749950e+00 -8.266640e+00 -2.438859e+00 -2.834774e+00 -1.487293e+00 -7.798925e+00 -3.116514e+00 -4.969310e+00 3.618726e-01 -3.493935e+00 1.461232e+01 2.726812e-02 1.591600e-01 1.186003e-01 -3.531417e-01 -3.868245e-01 -2.528196e-01 -1.307379e-02 8.919967e-03 1.418947e-01 1.896523e-01 -1.204978e-01 9.511755e-03 1.277530e-01 1.224181e-01 8.574619e-02 1.920704e-01 -2.156926e-01 -1.443492e-01 -1.911085e-01 -1.348173e-02 -1.142843e-02 4.335972e-02 1.788261e-02 -7.846201e-02 -1.185637e-01 9.579264e-02
<VARIANCE> 39
 5.881858e+00 7.824511e+00 1.145771e+01 1.170149e+01 1.691562e+01 1.670042e+01 1.585942e+01 1.681436e+01 1.957147e+01 2.023767e+01 1.844873e+01 1.536605e+01 1.012899e+00 5.537633e-01 4.715962e-01 1.205764e+00 1.010496e+00 1.007774e+00 1.470698e+00 8.038263e-01 8.137791e-01 1.030870e+00 1.294179e+00 9.459656e-01 9.358549e-01 1.411680e-01 4.636096e-02 5.967518e-02 9.845404e-02 1.366895e-01 1.730451e-01 1.833199e-01 1.418882e-01 1.549591e-01 1.804592e-01 1.774092e-01 1.522813e-01 1.540164e-01 7.503500e-03
<GCONST> 7.075552e+01
<STATE> 3
<MEAN> 39
 -6.389795e+00 -1.255083e+00 -8.810623e-01 -1.937228e+01 -7.577194e+00 -8.493302e+00 -2.595069e+00 -6.569140e+00 3.325143e-02 -3.820271e+00 -2.226169e+00 -7.108534e+00 1.817332e+01 6.033789e-02 -1.004580e-01 1.973095e-01 -2.318164e-01 3.399070e-01 1.645809e-01 -1.732649e-01 1.224701e-01 4.917458e-02 -1.716382e-01 1.772010e-01 -6.580658e-03 -4.431782e-02 -7.081277e-02 -1.914884e-01 -2.624974e-01 4.212634e-01 2.477779e-01 2.067547e-01 8.841413e-02 -7.030383e-02 -1.214316e-01 -5.252288e-02 1.186420e-01 1.339913e-01 -1.487445e-01
<VARIANCE> 39
 7.367370e+00 9.635602e+00 1.569742e+01 2.776347e+01 5.692444e+01 3.167277e+01 3.629293e+01 2.495916e+01 3.438405e+01 5.661712e+01 3.469410e+01 3.674877e+01 1.645046e+00 3.757045e-01 7.674608e-01 1.271301e+00 3.640178e+00 2.695807e+00 1.950656e+00 1.896175e+00 1.366034e+00 1.928482e+00 2.033425e+00 1.879827e+00 2.011311e+00 3.396144e-01 6.646574e-02 6.525157e-02 1.520792e-01 2.585392e-01 3.130457e-01 3.120063e-01 3.695939e-01 2.303204e-01 2.922211e-01 3.375136e-01 2.687100e-01 2.614650e-01 1.433633e-02
<GCONST> 9.337854e+01
<STATE> 4
<MEAN> 39
 -8.222576e+00 -6.451437e+00 -6.277396e+00 -9.275584e+00 -2.415952e+00 -3.256265e+00 -9.182757e-01 -8.615623e+00 -2.795306e+00 -5.153827e+00 7.408621e-01 -4.248635e+00 1.464349e+01 -7.442117e-02 -1.118070e-01 -2.389872e-01 2.870739e-01 3.500311e-02 6.666916e-02 1.390731e-01 -4.188124e-02 -8.121262e-02 -2.483056e-03 7.366534e-03 3.130477e-02 -6.889622e-02 2.173762e-02 7.154383e-02 7.432586e-02 -1.248945e-01 -5.118574e-02 -6.603906e-02 -5.131250e-02 3.815512e-02 2.469883e-02 6.733345e-03 -2.995424e-02 -2.922722e-02 4.497602e-02
<VARIANCE> 39
 7.836411e+00 8.036992e+00 1.202001e+01 1.253897e+01 1.775488e+01 1.684576e+01 1.688479e+01 1.718214e+01 1.742179e+01 1.762553e+01 1.547863e+01 1.427368e+01 1.310076e+00 3.471871e-01 5.518966e-01 7.463478e-01 9.087892e-01 9.875030e-01 1.059264e+00 1.026785e+00 9.108869e-01 8.760953e-01 8.051552e-01 7.558448e-01 6.350746e-01 5.456975e-02 4.509159e-02 7.355037e-02 1.100383e-01 1.327705e-01 1.825923e-01 1.706939e-01 1.655957e-01 1.667243e-01 1.581870e-01 1.441438e-01 1.370198e-01 1.246722e-01 7.388055e-03
<GCONST> 6.779652e+01
<TRANSP> 5
 0.000000e+00 1.000000e+00 0.000000e+00 0.000000e+00 0.000000e+00
 0.000000e+00 9.049472e-01 9.505285e-02 0.000000e+00 0.000000e+00
 0.000000e+00 0.000000e+00 8.983328e-01 1.016672e-01 0.000000e+00
 0.000000e+00 0.000000e+00 0.000000e+00 9.437304e-01 5.626960e-02
 0.000000e+00 0.000000e+00 0.000000e+00 0.000000e+00 0.000000e+00
<ENDHMM>
~h "two"
<BEGINHMM>
<NUMSTATES> 5
<STATE> 2
<MEAN> 39
 -9.639419e+00 -4.513435e+00 -6.580771e+00 -9.863562e+00 -9.720487e-01 -4.070662e+00 -1.373335e+00 -8.179417e+00 -2.537165e+00 -5.722520e+00 1.014206e+00 -3.721755e+00 1.495429e+01 -3.757962e-02 2.631176e-01 2.263400e-01 -3.008491e-01 -8.029655e-02 -1.059884e-02 -1.952119e-01 2.047997e-02 1.192920e-01 3.787082e-02 -4.396520e-03 -2.839741e-02 9.347674e-02 1.950347e-01 9.726434e-02 2.115336e-01 -1.064888e-01 -1.587313e-01 -1.867045e-01 -1.174428e-01 -6.690987e-02 -2.515966e-02 -1.346621e-03 -7.481510e-02 -1.170509e-01 8.904187e-02
<VARIANCE> 39
 9.732075e+00 8.411827e+00 1.057117e+01 1.130264e+01 1.669845e+01 1.858907e+01 1.761613e+01 1.993475e+01 2.014998e+01 2.109540e+01 2.063015e+01 1.756305e+01 9.683551e-01 1.154740e+00 7.385821e-01 1.484538e+00 7.320574e-01 1.243839e+00 1.212126e+00 9.533166e-01 1.050649e+00 1.054673e+00 1.129712e+00 1.398393e+00 9.929807e-01 1.174487e-01 1.107612e-01 1.110930e-01 1.232436e-01 1.199817e-01 2.136402e-01 1.859785e-01 1.655741e-01 1.895574e-01 1.984016e-01 1.764041e-01 2.621559e-01 1.380711e-01 7.422636e-03
<GCONST> 7.620200e+01
<STATE> 3
<MEAN> 39
 -4.756931e+00 1.149316e+00 1.778224e+00 -1.527068e+01 -6.598802e+00 -9.672945e+00 -6.598323e+00 -1.044178e+01 -2.516044e+00 -5.320364e+00 -1.030022e+00 -7.239760e+00 1.830119e+01 7.193316e-01 5.999740e-01 8.360472e-01 -6.091850e-01 -1.201092e+00 -1.150001e+00 -6.212690e-01 -3.241044e-01 -7.638569e-02 1.074629e-01 -2.783288e-01 -6.924760e-01 4.804424e-01 -2.461657e-01 -2.219683e-01 -4.234540e-01 2.838057e-01 2.397679e-01 2.108267e-01 2.293682e-01 1.474368e-01 -1.436251e-02 5.922057e-03 1.442220e-01 1.762000e-01 -1.356783e-01
<VARIANCE> 39
 7.637063e+00 8.201186e+00 1.359602e+01 2.286916e+01 4.094160e+01 2.664879e+01 2.842989e+01 2.392867e+01 3.044522e+01 5.369547e+01 4.334025e+01 4.700747e+01 1.220938e+00 6.002339e-01 6.134165e-01 9.871272e-01 1.413979e+00 1.245545e+00 1.154157e+00 1.636980e+00 1.535896e+00 1.877873e+00 2.038627e+00 2.554880e+00 1.859358e+00 8.416697e-02 6.196149e-02 5.703238e-02 8.188551e-02 1.318224e-01 2.159622e-01 1.828539e-01 2.050730e-01 1.926454e-01 2.096131e-01 2.724444e-01 2.909152e-01 2.224141e-01 8.053148e-03
<GCONST> 8.427510e+01
<STATE> 4
<MEAN> 39
 -3.074160e+00 -2.498625e-01 -1.582194e-01 -1.281026e+01 -6.631942e+00 -1.135587e+01 -5.742223e+00 -1.003087e+01 -3.079259e+00 -5.508287e+00 -1.510053e-01 -7.402929e+00 1.806438e+01 2.856094e-02 -3.108916e-01 -3.225637e-01 4.777226e-01 4.160369e-01 2.897249e-01 2.823416e-01 6.164527e-02 -7.978696e-02 -2.571363e-03 1.468305e-01 2.523634e-01 -1.813460e-01 -7.879101e-02 -6.534897e-02 -4.715117e-02 -2.748075e-03 8.374513e-02 1.333985e-01 8.168700e-02 3.501739e-02 2.799244e-02 -2.889775e-03 -1.432037e-02 4.589104e-02 -4.147482e-02
<VARIANCE> 39
 6.126946e+00 7.980889e+00 1.202320e+01 3.019339e+01 3.252039e+01 2.281905e+01 3.197463e+01 3.246526e+01 4.006966e+01 4.282219e+01 5.143108e+01 4.045079e+01 1.492836e+00 2.866648e-01 2.399534e-01 4.425740e-01 6.655244e-01 9.312071e-01 1.150726e+00 1.105539e+00 1.194717e+00 1.057024e+00 1.124072e+00 1.145986e+00 1.082552e+00 3.967661e-02 3.091890e-02 3.306118e-02 5.466446e-02 9.506729e-02 1.114157e-01 1.450114e-01 1.389045e-01 1.749011e-01 1.699727e-01 1.672946e-01 1.672980e-01 1.557807e-01 3.008832e-03
<GCONST> 7.111194e+01
<TRANSP> 5
 0.000000e+00 1.000000e+00 0.000000e+00 0.000000e+00 0.000000e+00
 0.000000e+00 9.084740e-01 9.152598e-02 0.000000e+00 0.000000e+00
 0.000000e+00 0.000000e+00 7.698604e-01 2.301395e-01 0.000000e+00
 0.000000e+00 0.000000e+00 0.000000e+00 9.201578e-01 7.984223e-02
 0.000000e+00 0.000000e+00 0.000000e+00 0.000000e+00 0.000000e+00
<ENDHMM>
~h "nine"
<BEGINHMM>
<NUMSTATES> 5
<STATE> 2
<MEAN> 39
 -4.077348e+00 -3.898069e+00 -1.677278e+00 -8.971140e+00 -2.804516e+00 -6.378181e+00 -1.642708e+00 -1.116136e+01 -5.117410e+00 -8.041998e+00 -2.887750e+00 -7.734893e+00 1.762904e+01 -1.811346e-01 -6.858099e-01 -2.834673e-01 4.408294e-01 -4.285470e-01 2.355719e-01 4.030302e-01 -1.731185e-01 -1.880306e-02 -1.236221e-01 -8.592840e-02 -8.367047e-02 2.069332e-01 -5.922460e-02 -1.590378e-01 -1.030372e-01 1.132282e-01 -5.451825e-03 -1.170083e-03 5.204897e-02 4.893689e-02 3.952440e-02 9.370578e-03 7.326291e-02 3.877731e-02 -9.215537e-03
<VARIANCE> 39
 8.090957e+00 1.916348e+01 1.444466e+01 1.669300e+01 2.834809e+01 2.875761e+01 3.145675e+01 2.650790e+01 4.734479e+01 3.538869e+01 3.033119e+01 3.281600e+01 1.829778e+00 4.871450e-01 1.494067e+00 1.080499e+00 1.097177e+00 1.264092e+00 1.393843e+00 1.627396e+00 1.205143e+00 1.553546e+00 1.157376e+00 1.183345e+00 1.006630e+00 4.894966e-02 6.265655e-02 1.682052e-01 1.288507e-01 1.425371e-01 2.181616e-01 2.178724e-01 2.447266e-01 1.814134e-01 2.032969e-01 1.691319e-01 1.711289e-01 1.443609e-01 4.463023e-03
<GCONST> 8.221035e+01
<STATE> 3
<MEAN> 39
 -6.347527e+00 -1.160442e+01 -4.860507e+00 -2.734695e+00 -5.693744e+00 -5.250022e+00 1.736059e+00 -1.135922e+01 -5.539676e+00 -9.015327e+00 -1.699772e+00 -7.646741e+00 1.861514e+01 -1.102203e-01 9.686162e-02 2.307479e-01 -2.420489e-01 -2.305143e-02 2.140794e-01 -1.050672e-01 -8.696227e-02 1.959006e-01 5.474236e-02 -5.526810e-02 4.596772e-02 -2.113695e-02 2.517164e-03 1.935469e-01 6.929485e-02 -2.402583e-01 4.426309e-02 6.240257e-02 -1.060979e-01 1.121228e-02 7.537657e-02 -1.084911e-02 -6.778198e-02 2.441989e-02 -1.480030e-02
<VARIANCE> 39
 7.253243e+00 8.472353e+00 2.450037e+01 3.236941e+01 1.900659e+01 3.083621e+01 3.095137e+01 3.397374e+01 4.391692e+01 4.150165e+01 2.842897e+01 3.075455e+01 1.006125e+00 8.384617e-02 3.840292e-01 4.111279e-01 1.132714e+00 5.000378e-01 6.241731e-01 5.587710e-01 5.153654e-01 6.511046e-01 6.707072e-01 6.806698e-01 5.420508e-01 4.827257e-03 1.133341e-02 3.005360e-02 4.127561e-02 5.547946e-02 7.264981e-02 7.246997e-02 7.391036e-02 8.095080e-02 8.281087e-02 8.716507e-02 7.873295e-02 7.922971e-02 3.983416e-04
<GCONST> 5.405608e+01
<STATE> 4
<MEAN> 39
 -5.408915e+00 -2.488681e+00 -1.320184e+00 -1.141008e+01 -1.443059e+00 -5.341785e+00 -3.676819e+00 -1.048138e+01 -3.509044e+00 -8.117096e+00 -2.930922e+00 -6.527728e+00 1.769445e+01 2.317136e-01 5.105836e-01 -3.095811e-03 -1.016870e-01 4.411180e-01 -2.479219e-01 -2.011406e-01 2.756123e-01 -1.277931e-01 8.107390e-02 2.108429e-01 1.169414e-01 -1.723586e-01 -2.715213e-02 -1.583063e-01 -8.625419e-02 1.474542e-01 -3.839263e-02 -6.088783e-03 1.204320e-01 1.985669e-02 -5.447777e-02 4.231424e-02 7.832205e-02 -9.554982e-03 -2.022992e-02
<VARIANCE> 39
 1.166845e+01 1.632518e+01 1.132167e+01 2.321630e+01 3.171820e+01 3.320274e+01 3.064778e+01 2.993110e+01 4.733511e+01 3.817838e+01 3.626935e+01 3.985373e+01 1.211676e+00 5.065147e-01 1.171869e+00 6.359953e-01 1.643066e+00 1.303736e+00 1.550621e+00 1.528426e+00 1.269751e+00 1.658814e+00 1.184169e+00 1.105877e+00 1.068939e+00 2.538151e-02 7.071361e-02 8.681913e-02 9.031520e-02 1.779847e-01 1.819088e-01 2.449426e-01 1.820607e-01 2.039842e-01 2.436521e-01 1.943306e-01 1.735393e-01 1.451955e-01 2.221686e-03
<GCONST> 8.083677e+01
<TRANSP> 5
 0.000000e+00 1.000000e+00 0.000000e+00 0.000000e+00 0.000000e+00
 0.000000e+00 9.012499e-01 9.875001e-02 0.000000e+00 0.000000e+00
 0.000000e+00 0.000000e+00 9.153503e-01 8.464970e-02 0.000000e+00
 0.000000e+00 0.000000e+00 0.000000e+00 9.176034e-01 8.239662e-02
 0.000000e+00 0.000000e+00 0.000000e+00 0.000000e+00 0.000000e+00
<ENDHMM>
~h "five"
<BEGINHMM>
<NUMSTATES> 5
<STATE> 2
<MEAN> 39
 -6.145384e+00 -8.579072e+00 -7.592475e+00 -9.225064e+00 -4.230788e-01 -6.121420e+00 6.980405e-03 -6.825497e+00 -3.778266e+00 -6.490687e+00 -3.218917e-01 -4.546300e+00 1.643807e+01 1.118094e-01 -6.872336e-01 -4.786043e-01 3.255051e-01 2.195626e-01 -2.712282e-01 2.421193e-01 2.802972e-01 -3.435889e-01 -1.302770e-01 -1.266229e-01 1.666093e-02 2.472906e-01 -1.683283e-03 -5.659448e-03 5.737459e-02 4.688944e-02 -1.725198e-02 -3.236842e-02 -1.989703e-02 -4.940771e-02 -1.732702e-02 2.411970e-02 1.545719e-02 -1.459397e-02 2.062019e-02
<VARIANCE> 39
 1.125184e+01 1.815395e+01 1.972025e+01 1.332438e+01 1.797006e+01 2.025481e+01 1.944242e+01 3.697193e+01 2.612173e+01 2.326825e+01 2.203207e+01 1.616224e+01 4.948175e+00 7.423161e-01 6.843876e-01 8.868299e-01 8.866075e-01 8.226836e-01 1.096088e+00 9.428350e-01 1.701078e+00 1.496827e+00 1.271826e+00 1.231866e+00 8.357558e-01 2.129067e-01 1.004221e-01 1.065274e-01 1.570927e-01 1.148714e-01 1.338446e-01 1.695195e-01 1.473377e-01 2.760096e-01 2.348387e-01 1.802746e-01 1.906066e-01 1.286206e-01 2.516619e-02
<GCONST> 8.141034e+01
<STATE> 3
<MEAN> 39
 -5.829909e+00 -1.543208e+01 -8.489591e+00 -3.791509e+00 1.364194e+00 -9.061783e+00 2.480584e+00 -7.543464e+00 -7.266444e+00 -5.482924e+00 -5.596489e-01 -4.576601e+00 1.903887e+01 -1.610334e-01 9.881377e-02 4.891214e-01 -2.808354e-01 -2.718484e-01 4.465804e-01 6.804532e-02 -3.852471e-01 3.469809e-02 2.820531e-01 5.019207e-02 -7.338825e-02 -4.962927e-02 4.119493e-02 1.198994e-01 1.074252e-02 -1.944129e-01 -5.746701e-02 8.541050e-02 -2.819503e-02 2.903903e-02 6.260757e-02 -5.057400e-02 -7.345647e-02 -1.855373e-02 -1.597176e-02
<VARIANCE> 39
 9.235525e+00 9.516529e+00 2.487407e+01 2.134836e+01 1.890437e+01 2.361060e+01 1.802782e+01 4.020392e+01 4.783455e+01 4.513331e+01 2.691068e+01 2.542698e+01 1.368737e+00 9.077788e-02 1.726037e-01 2.727435e-01 6.954191e-01 5.202847e-01 5.777716e-01 5.082278e-01 5.121703e-01 6.401114e-01 6.122553e-01 5.999666e-01 4.835866e-01 5.997607e-03 1.192117e-02 2.521041e-02 3.123398e-02 4.833080e-02 5.224708e-02 5.349404e-02 5.804977e-02 6.689411e-02 9.045411e-02 8.805489e-02 6.807339e-02 7.103819e-02 9.688368e-04
<GCONST> 5.083693e+01
<STATE> 4
<MEAN> 39
 -5.452393e+00 -7.798147e+00 -3.664708e+00 -1.292931e+01 -3.057841e+00 -3.760881e+00 1.120401e+00 -8.346093e+00 -3.888026e+00 -5.631060e+00 -1.734012e+00 -5.652998e+00 1.761936e+01 6.895632e-02 9.293733e-01 2.307920e-01 -1.987833e-01 -1.315847e-01 -8.908933e-02 -2.932271e-01 7.891089e-02 3.928484e-01 -1.370577e-01 7.673101e-02 1.233982e-02 -2.762189e-01 -4.002750e-02 -7.254198e-02 -8.900448e-02 1.945889e-01 1.092597e-01 -8.829994e-02 -1.665342e-02 -4.514460e-03 -4.075399e-02 1.309618e-02 7.344914e-02 3.240471e-02 -1.782433e-02
<VARIANCE> 39
 7.533099e+00 2.308245e+01 1.185584e+01 2.986154e+01 3.748609e+01 2.150831e+01 2.415418e+01 3.057104e+01 4.223568e+01 2.629441e+01 2.688219e+01 2.787953e+01 2.629532e+00 3.400333e-01 7.374099e-01 6.409197e-01 2.733145e+00 1.682090e+00 1.393086e+00 9.393051e-01 1.417220e+00 1.594571e+00 1.266550e+00 1.316848e+00 1.013080e+00 6.819300e-02 5.715518e-02 1.022106e-01 9.524724e-02 3.009370e-01 2.342661e-01 2.509228e-01 1.675266e-01 2.084453e-01 2.011769e-01 1.717466e-01 2.163434e-01 1.726194e-01 9.082224e-03
<GCONST> 8.298360e+01
<TRANSP> 5
 0.000000e+00 1.000000e+00 0.000000e+00 0.000000e+00 0.000000e+00
 0.000000e+00 9.300381e-01 6.996190e-02 0.000000e+00 0.000000e+00
 0.000000e+00 0.000000e+00 9.152320e-01 8.476792e-02 0.000000e+00
 0.000000e+00 0.000000e+00 0.000000e+00 8.980061e-01 1.019938e-01
 0.000000e+00 0.000000e+00 0.000000e+00 0.000000e+00 0.000000e+00
<ENDHMM>
~h "four"
<BEGINHMM>
<NUMSTATES> 5
<STATE> 2
<MEAN> 39
 -7.667625e+00 -6.677811e+00 -5.470653e+00 -9.688788e+00 -1.112555e+00 -4.543470e+00 -5.189682e-01 -8.559961e+00 -2.271113e+00 -5.732472e+00 1.121444e+00 -4.080830e+00 1.494338e+01 3.138326e-01 1.474565e-02 -3.778499e-01 -2.939817e-01 -1.125263e-01 -9.206122e-02 -1.320323e-01 -8.571744e-03 1.231805e-01 1.055070e-01 -1.625407e-02 -4.077234e-02 1.258377e-01 2.438175e-01 9.813536e-02 -1.170312e-01 -1.288147e-01 -5.304017e-02 -1.112589e-01 -1.097998e-01 -1.808177e-02 -8.184190e-03 7.009723e-03 -7.390784e-02 -1.029499e-01 1.065351e-01
<VARIANCE> 39
 4.657640e+00 4.193460e+00 6.876472e+00 8.704010e+00 1.156782e+01 1.418995e+01 1.488087e+01 1.611067e+01 1.489993e+01 1.410065e+01 1.539702e+01 1.167683e+01 9.116799e-01 1.047064e+00 4.639169e-01 5.766310e-01 6.437184e-01 6.049656e-01 9.842661e-01 9.577645e-01 8.519961e-01 8.544626e-01 7.821155e-01 1.037502e+00 8.674481e-01 1.654562e-01 5.929444e-02 5.711767e-02 1.015155e-01 1.069118e-01 1.041822e-01 1.638899e-01 1.311687e-01 1.613806e-01 1.551099e-01 1.347689e-01 1.544513e-01 1.329648e-01 6.555368e-03
<GCONST> 6.410854e+01
<STATE> 3
<MEAN> 39
 1.545539e+00 -3.506084e+00 -1.204608e+01 -1.693925e+01 -4.004865e+00 -6.246483e+00 -3.255047e+00 -8.958973e+00 -1.451340e+00 -3.992062e+00 3.068288e-01 -6.856421e+00 1.889500e+01 3.433107e-01 -1.623344e-01 -3.558466e-01 -7.216892e-02 6.820381e-02 -2.290306e-02 -2.270720e-01 1.736735e-01 3.472256e-01 1.047987e-01 -2.364449e-01 -2.329480e-01 1.594964e-01 -1.728056e-01 -1.511370e-01 1.446061e-01 2.267968e-01 4.013246e-02 -2.949201e-02 4.305397e-02 1.087219e-01 4.690675e-02 -7.877238e-02 -5.253175e-02 5.703607e-02 -6.698072e-02
<VARIANCE> 39
 4.227972e+00 1.022243e+01 1.029043e+01 1.432919e+01 2.460277e+01 1.721145e+01 1.818636e+01 1.709349e+01 2.334692e+01 2.481169e+01 3.750477e+01 3.594286e+01 1.115808e+00 5.912066e-01 7.438634e-01 7.231898e-01 1.240830e+00 9.895775e-01 7.948638e-01 9.115140e-01 9.642985e-01 1.307602e+00 1.180657e+00 1.372136e+00 1.243437e+00 1.038317e-01 4.871611e-02 4.642867e-02 9.628282e-02 8.305278e-02 1.340593e-01 1.435019e-01 1.544317e-01 1.396359e-01 1.799935e-01 1.932645e-01 2.021902e-01 1.820074e-01 7.090538e-03
<GCONST> 7.298956e+01
<STATE> 4
<MEAN> 39
 -5.429732e-01 -1.072218e+01 -7.323071e+00 -8.565804e+00 -5.391735e+00 -8.704746e+00 -2.323939e+00 -4.895586e+00 1.831572e-01 -7.540131e+00 -3.910850e+00 -7.426206e+00 1.840886e+01 -6.129142e-01 7.465888e-02 1.055960e+00 4.896450e-01 -3.433436e-01 7.616723e-02 5.981618e-01 -1.811751e-01 -6.240155e-01 -3.440943e-01 1.658268e-01 3.014691e-01 -2.432777e-01 -9.001528e-02 2.380756e-01 -4.453460e-02 -1.996030e-01 1.165275e-01 1.960440e-01 3.099976e-02 -1.858910e-01 -1.287896e-01 1.032559e-01 1.745542e-01 4.439712e-02 -4.962665e-02
<VARIANCE> 39
 7.333442e+00 1.779965e+01 3.181579e+01 1.828334e+01 4.522183e+01 3.700928e+01 3.509678e+01 4.319447e+01 4.621217e+01 3.482872e+01 3.460002e+01 3.076928e+01 1.741643e+00 2.971734e-01 1.587486e+00 9.179330e-01 1.626267e+00 2.564561e+00 2.221736e+00 1.718489e+00 2.564761e+00 1.885272e+00 1.705944e+00 1.829044e+00 1.123809e+00 5.832955e-02 2.926788e-02 1.346429e-01 2.064870e-01 1.690590e-01 4.288322e-01 2.940584e-01 3.516542e-01 3.668485e-01 3.851876e-01 2.816697e-01 3.092499e-01 2.124634e-01 3.411670e-03
<GCONST> 9.085587e+01
<TRANSP> 5
 0.000000e+00 1.000000e+00 0.000000e+00 0.000000e+00 0.000000e+00
 0.000000e+00 9.011174e-01 9.888257e-02 0.000000e+00 0.000000e+00
 0.000000e+00 0.000000e+00 9.186854e-01 8.131465e-02 0.000000e+00
 0.000000e+00 0.000000e+00 0.000000e+00 8.810129e-01 1.189871e-01
 0.000000e+00 0.000000e+00 0.000000e+00 0.000000e+00 0.000000e+00
<ENDHMM>
~h "zero"
<BEGINHMM>
<NUMSTATES> 5
<STATE> 2
<MEAN> 39
 -6.758361e+00 -3.060483e+00 -4.886831e+00 -7.466944e+00 -1.265867e+00 -3.807482e+00 -1.414221e+00 -8.520093e+00 -3.457467e+00 -5.106239e+00 5.900038e-01 -4.556089e+00 1.523184e+01 -8.167610e-02 3.318132e-01 1.414226e-01 -3.042141e-01 -2.133976e-01 -2.738501e-01 -1.777446e-01 -1.205382e-01 1.233442e-01 2.201189e-01 -1.253089e-02 -1.988427e-04 1.060756e-01 6.807134e-02 1.068956e-01 1.512935e-01 -2.257051e-01 -1.459423e-01 -2.462632e-01 -6.497557e-02 -7.538842e-02 6.203748e-02 1.079985e-02 -2.261869e-02 -5.404251e-02 8.252404e-02
<VARIANCE> 39
 7.745060e+00 1.028921e+01 1.429263e+01 1.361007e+01 1.783413e+01 1.930286e+01 1.878021e+01 1.949874e+01 2.377148e+01 2.085671e+01 1.977682e+01 1.678350e+01 1.208768e+00 4.211839e-01 7.291048e-01 1.003764e+00 9.500715e-01 8.893920e-01 1.750867e+00 9.589883e-01 1.102148e+00 1.068052e+00 8.963226e-01 1.006111e+00 1.001688e+00 1.192602e-01 5.258031e-02 9.179111e-02 1.144111e-01 1.198324e-01 1.237967e-01 1.946366e-01 1.597979e-01 1.730644e-01 1.607264e-01 1.399881e-01 1.706444e-01 1.584624e-01 7.958924e-03
<GCONST> 7.320394e+01
<STATE> 3
<MEAN> 39
 -5.590486e+00 3.896368e-01 8.092309e-01 -1.662295e+01 -7.713222e+00 -9.221070e+00 -4.657815e+00 -8.629125e+00 -4.868334e-02 -3.802250e+00 1.259500e-01 -6.760004e+00 1.834447e+01 3.381552e-01 -6.254991e-01 4.879394e-01 -2.642296e-01 -1.101994e+00 1.288356e-01 1.559053e-01 1.536823e-01 3.345355e-01 -5.405776e-02 2.648935e-02 -1.550250e-01 1.947794e-01 4.510030e-02 -2.657197e-01 -1.693188e-01 3.430575e-01 9.840093e-03 1.398940e-01 1.907058e-01 7.247040e-02 -7.141884e-02 -4.763595e-02 -7.138595e-03 6.286855e-02 -6.160998e-02
<VARIANCE> 39
 7.283475e+00 1.920128e+01 1.718460e+01 2.744740e+01 5.851659e+01 3.940216e+01 3.188823e+01 4.335698e+01 3.245555e+01 3.001287e+01 3.379036e+01 4.993850e+01 1.156274e+00 4.295594e-01 1.775372e+00 8.560480e-01 2.666727e+00 1.664362e+00 2.653957e+00 1.728563e+00 1.475746e+00 1.339982e+00 1.175414e+00 1.141216e+00 1.379730e+00 7.312015e-02 5.099542e-02 1.108356e-01 1.223442e-01 1.858011e-01 2.377575e-01 3.920116e-01 2.243892e-01 2.434119e-01 2.199577e-01 1.773658e-01 1.723747e-01 2.130914e-01 4.551014e-03
<GCONST> 8.729514e+01
<STATE> 4
<MEAN> 39
 -1.649053e+00 -9.930777e+00 -4.553208e+00 -9.835223e+00 -9.199915e+00 -8.375257e+00 4.461993e-02 -4.371394e+00 -3.078293e-01 -6.664069e+00 -1.067153e+00 -5.913147e+00 1.846284e+01 -2.001939e-03 4.168530e-02 -4.248273e-01 2.116255e-01 6.910187e-01 -3.657297e-02 1.245666e-02 7.663208e-02 -1.452882e-01 -9.951151e-02 -4.252646e-02 5.554179e-02 -9.985667e-02 -8.146223e-02 1.026665e-01 5.169393e-02 -8.309276e-02 8.975419e-02 7.180943e-02 -5.901314e-02 -6.234481e-02 -2.361321e-02 2.521013e-02 2.533475e-02 8.713061e-03 -2.411230e-02
<VARIANCE> 39
 6.049108e+00 2.023013e+01 2.590301e+01 2.575051e+01 6.115685e+01 5.179038e+01 3.776778e+01 3.635562e+01 4.392416e+01 3.594093e+01 2.597985e+01 3.311814e+01 1.509694e+00 3.010023e-01 8.269676e-01 7.835374e-01 1.012726e+00 1.235726e+00 1.841098e+00 1.589181e+00 1.897705e+00 1.647741e+00 1.476470e+00 1.053393e+00 9.581106e-01 3.798103e-02 2.902749e-02 5.183126e-02 8.357231e-02 1.131019e-01 1.904706e-01 2.370143e-01 2.061008e-01 2.034479e-01 2.219794e-01 2.011947e-01 1.522677e-01 1.418970e-01 2.416030e-03
<GCONST> 8.033833e+01
<TRANSP> 5
 0.000000e+00 1.000000e+00 0.000000e+00 0.000000e+00 0.000000e+00
 0.000000e+00 8.903267e-01 1.096733e-01 0.000000e+00 0.000000e+00
 0.000000e+00 0.000000e+00 8.973391e-01 1.026609e-01 0.000000e+00
 0.000000e+00 0.000000e+00 0.000000e+00 9.447424e-01 5.525754e-02
 0.000000e+00 0.000000e+00 0.000000e+00 0.000000e+00 0.000000e+00
<ENDHMM>
