~o
<STREAMINFO> 1 39
<VECSIZE> 39<NULLD><MFCC_E_D_A><DIAGC>
~s "silst"
<MEAN> 39
 -5.105541e+00 -3.746286e+00 -3.208168e+00 -8.852197e+00 -1.255150e+00 -5.729038e+00 -1.831862e+00 -9.460614e+00 -3.476868e+00 -6.414652e+00 -3.605569e-01 -5.629160e+00 1.585334e+01 -6.602383e-01 -4.357600e-01 -4.503691e-01 1.700080e-01 3.042976e-01 7.030138e-01 3.731558e-01 1.091563e-01 1.424380e-01 1.502917e-01 3.301961e-01 3.685158e-01 -3.606755e-01 -2.609326e-02 -7.000741e-02 -1.098024e-01 -1.262055e-01 -9.581730e-02 -7.232871e-02 1.156909e-03 7.235351e-02 3.651845e-02 8.619159e-03 -1.462744e-02 4.393584e-03 2.620608e-02
<VARIANCE> 39
 1.141181e+01 1.075883e+01 1.355408e+01 1.355921e+01 2.081869e+01 2.470494e+01 2.384387e+01 2.471243e+01 2.801145e+01 2.726887e+01 2.578552e+01 2.359423e+01 2.022344e+00 3.763108e-01 7.465876e-01 8.217715e-01 8.129081e-01 1.143728e+00 1.286172e+00 1.255372e+00 1.298336e+00 1.408896e+00 1.269365e+00 1.243865e+00 1.111714e+00 5.179520e-02 6.990774e-02 9.998788e-02 1.070220e-01 1.142636e-01 1.560442e-01 2.199275e-01 1.942543e-01 1.873083e-01 2.099959e-01 1.842766e-01 1.816897e-01 1.527722e-01 9.198612e-03
<GCONST> 7.764503e+01
~h "eight"
<BEGINHMM>
<NUMSTATES> 5
<STATE> 2
<MEAN> 39
 -8.248827e+00 -2.945943e+00 -5.890174e+00 -1.830222e+01 2.072083e-01 -4.921466e+00 8.312379e-01 -6.796157e+00 -1.587230e+00 -7.453259e+00 -1.738814e+00 -5.735981e+00 1.742824e+01 -1.720328e-01 1.037549e+00 -1.021358e-01 -1.058988e+00 -4.135014e-02 -5.862119e-01 8.511953e-02 4.705865e-01 3.882346e-01 -9.568224e-03 -1.741963e-01 -2.416595e-01 3.309063e-01 2.993281e-02 8.726794e-02 6.169752e-03 1.469689e-01 -6.115974e-02 -1.932000e-01 -8.382713e-02 -1.912493e-02 2.241462e-02 9.385797e-02 1.168368e-01 2.039117e-04 -1.860538e-02
<VARIANCE> 39
 7.984430e+00 2.047349e+01 1.890779e+01 3.149979e+01 4.207301e+01 2.227903e+01 2.497184e+01 2.281487e+01 3.077324e+01 2.350961e+01 2.472353e+01 2.559975e+01 3.252506e+00 3.425799e-01 7.505712e-01 6.373336e-01 1.273058e+00 1.185445e+00 1.358305e+00 1.453621e+00 9.923653e-01 1.347166e+00 1.118298e+00 1.077799e+00 9.602262e-01 1.022147e-01 4.192734e-02 7.989991e-02 7.522533e-02 1.929567e-01 1.371104e-01 1.689333e-01 1.489622e-01 1.686189e-01 2.270831e-01 1.636869e-01 1.696929e-01 1.470677e-01 1.291959e-02
<GCONST> 7.929182e+01
<STATE> 3
<MEAN> 39
 -8.391268e+00 5.788130e+00 -5.518214e+00 -1.922116e+01 -2.890508e+00 -1.377424e+01 -1.652276e+00 -5.963634e+00 7.337990e-01 -4.018697e+00 7.709118e-01 -5.688862e+00 1.854607e+01 1.015610e-01 4.993154e-01 2.031989e-01 8.302186e-01 -1.075809e-02 -9.335181e-01 -6.083843e-01 -8.151798e-01 -3.628197e-01 3.253509e-01 4.625711e-01 2.259319e-01 -7.267077e-02 4.924393e-02 -2.817668e-01 2.270015e-02 1.882419e-01 8.654112e-02 2.736198e-01 2.146773e-02 -1.575563e-01 -1.932898e-01 -1.407173e-01 -7.234029e-02 3.665682e-02 -6.158267e-02
<VARIANCE> 39
 1.001224e+01 1.130619e+01 2.484787e+01 2.642267e+01 2.094792e+01 2.357625e+01 5.649976e+01 2.711130e+01 2.954399e+01 2.184092e+01 3.272464e+01 2.505543e+01 1.478663e+00 1.824199e-01 5.055454e-01 2.621259e-01 6.235481e-01 8.215883e-01 1.014485e+00 7.479748e-01 8.216544e-01 1.769874e+00 1.023716e+00 1.188809e+00 8.486456e-01 2.525799e-02 2.770484e-02 7.076309e-02 4.937051e-02 9.890094e-02 8.106603e-02 1.525498e-01 1.405181e-01 1.339758e-01 1.672410e-01 1.385653e-01 1.856830e-01 1.362820e-01 3.379923e-03
<GCONST> 6.900739e+01
<STATE> 4
<MEAN> 39
 -6.979907e+00 1.096342e+00 -4.080750e+00 -1.220396e+01 -1.200313e+00 -1.170359e+01 -4.073794e+00 -1.160340e+01 -4.452847e+00 -5.783161e+00 8.173701e-01 -4.548863e+00 1.651729e+01 2.172547e-01 -1.856403e+00 -1.453386e-03 8.869433e-01 2.203006e-01 1.605396e+00 3.217272e-01 -2.686233e-02 -3.254963e-01 -3.977312e-01 -1.440586e-01 9.596609e-02 -4.695501e-01 -7.049151e-02 -9.858900e-02 -9.860615e-02 -1.310426e-01 -4.613950e-02 1.581558e-01 1.919458e-01 2.721902e-01 2.061501e-01 6.492459e-02 2.223389e-02 -3.124876e-02 -6.157637e-03
<VARIANCE> 39
 6.043141e+00 3.359027e+01 1.484653e+01 1.932054e+01 1.612959e+01 3.821515e+01 3.278749e+01 2.460330e+01 3.939902e+01 2.736894e+01 2.588300e+01 2.413510e+01 2.807975e+00 3.511308e-01 7.436882e-01 6.184314e-01 1.034802e+00 6.516250e-01 1.243883e+00 1.758563e+00 1.480917e+00 2.023071e+00 1.219392e+00 1.376409e+00 1.140339e+00 3.563399e-02 4.191848e-02 2.592598e-01 6.981383e-02 1.186700e-01 9.767916e-02 3.273765e-01 1.812290e-01 1.963416e-01 2.995090e-01 1.795181e-01 1.978050e-01 1.933866e-01 1.057713e-02
<GCONST> 8.036676e+01
<TRANSP> 5
 0.000000e+00 1.000000e+00 0.000000e+00 0.000000e+00 0.000000e+00
 0.000000e+00 8.666759e-01 1.333241e-01 0.000000e+00 0.000000e+00
 0.000000e+00 0.000000e+00 8.551456e-01 1.448543e-01 0.000000e+00
 0.000000e+00 0.000000e+00 0.000000e+00 8.208596e-01 1.791404e-01
 0.000000e+00 0.000000e+00 0.000000e+00 0.000000e+00 0.000000e+00
<ENDHMM>
~h "oh"
<BEGINHMM>
<NUMSTATES> 5
<STATE> 2
<MEAN> 39
 -4.340964e+00 -1.039073e+01 -8.321647e+00 -8.565434e+00 -2.648355e+00 -7.672802e+00 3.622462e+00 -7.395895e+00 -5.280233e+00 -7.115133e+00 -2.464795e+00 -5.437311e+00 1.783824e+01 5.449739e-01 -2.017919e-01 -6.055039e-01 1.690475e-01 9.516480e-02 -6.935144e-01 1.397060e-01 7.358161e-01 -1.339676e-02 -4.296446e-01 -4.086781e-01 -1.479043e-01 3.486434e-01 8.980302e-03 1.045437e-01 3.857288e-03 -5.318097e-02 3.920490e-02 -8.939270e-03 -1.540600e-01 7.139836e-03 1.331968e-01 2.660634e-02 -8.646327e-03 -2.714234e-02 -2.258899e-02
<VARIANCE> 39
 8.695257e+00 1.227864e+01 1.668703e+01 1.813019e+01 2.301781e+01 2.459446e+01 3.070512e+01 6.494447e+01 3.841478e+01 3.415827e+01 2.703773e+01 3.157037e+01 2.971359e+00 2.951814e-01 5.764714e-01 6.276577e-01 6.353003e-01 6.810657e-01 9.319946e-01 1.328763e+00 1.775259e+00 1.550871e+00 1.254148e+00 1.250051e+00 1.043393e+00 9.605269e-02 3.973030e-02 6.250625e-02 7.470071e-02 7.904563e-02 9.132776e-02 1.294191e-01 1.552343e-01 2.150820e-01 1.861264e-01 1.963300e-01 1.842859e-01 1.399983e-01 1.320306e-02
<GCONST> 7.705439e+01
<STATE> 3
<MEAN> 39
 -5.688323e-01 -8.237453e+00 -1.318649e+01 -9.933944e+00 -6.911200e-01 -1.204641e+01 -8.222426e-01 -7.718685e-01 1.470647e-01 -8.227077e+00 -5.131065e+00 -6.598004e+00 1.903599e+01 2.227141e-01 4.047578e-01 -2.722314e-02 -3.481374e-01 -3.627499e-02 -1.970690e-03 -6.740333e-01 -2.482999e-01 6.652980e-01 6.060063e-01 -3.182895e-02 -3.521251e-01 -9.769198e-03 -4.120206e-02 2.423774e-02 1.012568e-01 -2.060531e-02 -5.750437e-02 9.280965e-02 1.204943e-02 -1.581640e-01 -8.163714e-02 9.144284e-02 1.215402e-01 1.126453e-02 -2.515935e-02
<VARIANCE> 39
 6.096499e+00 8.372716e+00 1.529116e+01 1.468402e+01 1.914684e+01 2.241765e+01 4.158104e+01 3.062256e+01 3.917226e+01 3.568769e+01 3.181271e+01 4.011630e+01 1.219394e+00 8.019033e-02 1.367364e-01 2.629167e-01 2.764266e-01 3.856767e-01 5.136889e-01 7.291078e-01 1.007606e+00 7.301543e-01 8.527714e-01 7.859733e-01 6.995176e-01 1.317416e-02 1.110010e-02 1.420398e-02 3.353714e-02 3.312865e-02 4.694811e-02 6.865168e-02 7.735685e-02 9.558768e-02 1.049815e-01 1.012383e-01 9.137214e-02 8.846206e-02 1.196826e-03
<GCONST> 5.207231e+01
<STATE> 4
<MEAN> 39
 1.797832e-01 -3.747163e+00 -9.929502e+00 -1.348632e+01 -3.321244e+00 -1.008143e+01 -4.948247e+00 -7.351715e+00 1.042631e+00 -2.362129e+00 -1.812634e-01 -7.006048e+00 1.844966e+01 -3.488539e-01 2.883646e-01 8.527157e-01 1.506275e-01 -2.193675e-01 3.718767e-01 2.101405e-01 -5.764848e-01 -5.870335e-01 -1.044558e-01 5.086768e-01 4.135210e-01 -2.309345e-01 -1.311708e-01 -1.056297e-01 5.188485e-02 1.420804e-01 1.060588e-01 8.458629e-02 1.853966e-01 8.486386e-02 -1.052025e-01 -1.824438e-01 -7.829825e-02 8.003294e-02 -4.433066e-02
<VARIANCE> 39
 6.290512e+00 7.036891e+00 1.859624e+01 1.555652e+01 1.893970e+01 2.848106e+01 3.128669e+01 2.747277e+01 3.058977e+01 3.711891e+01 3.964702e+01 3.649337e+01 1.765126e+00 2.388017e-01 3.546761e-01 4.247266e-01 5.877771e-01 6.866204e-01 8.702933e-01 1.177368e+00 1.224096e+00 1.196284e+00 1.307578e+00 1.200800e+00 1.026159e+00 3.050588e-02 2.296696e-02 3.297573e-02 6.561988e-02 6.524043e-02 9.789084e-02 1.571053e-01 1.654199e-01 1.874286e-01 2.028203e-01 1.907209e-01 1.711766e-01 1.631479e-01 2.734327e-03
<GCONST> 6.920246e+01
<TRANSP> 5
 0.000000e+00 1.000000e+00 0.000000e+00 0.000000e+00 0.000000e+00
 0.000000e+00 8.829124e-01 1.170876e-01 0.000000e+00 0.000000e+00
 0.000000e+00 0.000000e+00 8.919454e-01 1.080545e-01 0.000000e+00
 0.000000e+00 0.000000e+00 0.000000e+00 8.561592e-01 1.438408e-01
 0.000000e+00 0.000000e+00 0.000000e+00 0.000000e+00 0.000000e+00
<ENDHMM>
~h "sp"
<BEGINHMM>
<NUMSTATES> 5
<STATE> 2
~s "silst"
<STATE> 3
<MEAN> 39
 -7.770133e+00 -6.402660e+00 -6.116898e+00 -9.663062e+00 -1.392146e+00 -4.040994e+00 -6.793177e-01 -8.571688e+00 -2.834334e+00 -5.599658e+00 9.400137e-01 -4.055398e+00 1.480112e+01 -9.458490e-02 -1.432990e-02 -1.062802e-01 7.647737e-04 -2.408894e-02 2.739153e-02 -7.401359e-03 3.309880e-02 9.685826e-04 1.692821e-02 3.112835e-02 3.866871e-02 -1.225650e-02 6.343016e-02 7.866923e-02 6.195055e-02 -1.430489e-02 -9.395037e-03 -5.917017e-02 -3.824969e-02 -1.928427e-02 -8.727825e-03 -1.533217e-02 -3.377356e-02 -3.316527e-02 4.396363e-02
<VARIANCE> 39
 5.446503e+00 6.077621e+00 8.779249e+00 1.033275e+01 1.445187e+01 1.556653e+01 1.561360e+01 1.667156e+01 1.759898e+01 1.645436e+01 1.601839e+01 1.380792e+01 1.091683e+00 1.616624e-01 2.428138e-01 3.667362e-01 4.381375e-01 5.695821e-01 6.829279e-01 6.550283e-01 7.252638e-01 7.448645e-01 6.595773e-01 6.562862e-01 5.706465e-01 7.590179e-03 3.390248e-02 5.457859e-02 7.295249e-02 9.166072e-02 1.144282e-01 1.431351e-01 1.326013e-01 1.442359e-01 1.472241e-01 1.255323e-01 1.260000e-01 1.146887e-01 4.133891e-03
<GCONST> 5.540412e+01
<STATE> 4
<MEAN> 39
 -8.346178e+00 -5.088235e+00 -6.189631e+00 -9.065124e+00 -1.832799e+00 -3.857368e+00 -8.988379e-01 -8.373530e+00 -2.972828e+00 -5.505248e+00 6.700221e-01 -4.126451e+00 1.507529e+01 3.990219e-01 1.702069e-01 1.623915e-01 -2.527539e-01 -3.002934e-01 -4.311424e-01 -3.026577e-02 7.785092e-02 -1.206668e-02 -4.630897e-02 -2.444218e-01 -1.286529e-01 2.802245e-01 2.226597e-01 9.827538e-03 5.022344e-02 -1.660159e-01 -1.755799e-01 -2.278589e-01 3.506765e-03 2.783822e-02 1.570034e-02 -2.629669e-03 -1.222747e-01 -9.558657e-02 1.282313e-01
<VARIANCE> 39
 1.147435e+01 1.104380e+01 1.656616e+01 1.489522e+01 1.866276e+01 1.815900e+01 1.787316e+01 1.992521e+01 2.137446e+01 1.983036e+01 1.883325e+01 1.704995e+01 1.506327e+00 6.059256e-01 5.390918e-01 8.083798e-01 8.697630e-01 1.066555e+00 1.079800e+00 9.252535e-01 1.273697e+00 1.086961e+00 1.031057e+00 9.816818e-01 8.255493e-01 6.186666e-02 6.965130e-02 1.108671e-01 1.682630e-01 1.549203e-01 2.070929e-01 1.961072e-01 1.775455e-01 2.309445e-01 2.115585e-01 1.873424e-01 1.808908e-01 1.644418e-01 8.475494e-03
<GCONST> 7.549252e+01
<TRANSP> 5
 0.000000e+00 8.247426e-01 1.752574e-01 0.000000e+00 0.000000e+00
 0.000000e+00 7.947505e-01 2.052495e-01 0.000000e+00 0.000000e+00
 0.000000e+00 0.000000e+00 8.555614e-01 1.444386e-01 0.000000e+00
 0.000000e+00 0.000000e+00 0.000000e+00 5.557973e-01 4.442027e-01
 0.000000e+00 0.000000e+00 0.000000e+00 0.000000e+00 0.000000e+00
<ENDHMM>
~h "seven"
<BEGINHMM>
<NUMSTATES> 5
<STATE> 2
<MEAN> 39
 -5.689795e+00 -4.300560e+00 -4.877157e+00 -1.376013e+01 -7.063492e+00 -6.951639e+00 2.055184e+00 -7.981531e+00 -1.550336e+00 -5.001406e+00 -2.933715e+00 -6.181540e+00 1.730978e+01 4.692382e-01 -2.706088e-01 2.360763e-01 -1.316196e+00 -7.843966e-01 -1.643767e-01 1.084952e+00 1.404056e-02 1.054608e-01 -3.701067e-01 -8.003676e-01 -6.512973e-01 6.859887e-01 -1.888872e-01 -1.787336e-01 -1.919792e-01 1.467987e-01 2.468727e-01 3.190792e-01 -1.206412e-02 2.404932e-02 -1.483859e-01 -1.179971e-01 8.939532e-02 8.184468e-02 -3.766261e-02
<VARIANCE> 39
 1.060468e+01 6.388527e+00 1.009209e+01 2.899650e+01 3.431156e+01 3.013374e+01 2.942244e+01 2.581275e+01 2.878757e+01 6.082021e+01 2.719621e+01 2.718345e+01 4.027411e+00 6.523479e-01 5.467054e-01 7.619472e-01 9.098960e-01 1.818866e+00 1.941129e+00 1.365539e+00 1.215201e+00 1.512911e+00 2.097041e+00 1.226870e+00 1.538935e+00 6.595755e-02 8.452093e-02 5.859526e-02 8.707868e-02 2.306290e-01 2.893026e-01 2.081875e-01 1.946725e-01 1.476541e-01 1.632239e-01 2.911874e-01 1.958132e-01 2.148008e-01 3.021577e-02
<GCONST> 8.476527e+01
<STATE> 3
<MEAN> 39
 -6.254099e+00 -8.558873e+00 -5.684966e+00 -1.584447e+01 -4.515319e+00 -2.668805e+00 5.219536e+00 -9.280574e+00 -3.238302e+00 -7.550995e+00 -3.806482e+00 -5.832012e+00 1.910212e+01 1.537536e-01 -2.108890e-01 1.526821e-01 6.106701e-01 1.583343e-01 -2.027850e-01 -1.288942e-01 3.344566e-01 -4.546283e-01 2.220468e-01 2.476903e-01 1.066950e-01 -1.105328e-01 1.010835e-01 2.165555e-01 1.424426e-01 2.523026e-01 -3.586629e-02 -2.966755e-01 -2.920598e-01 9.731331e-02 6.470265e-02 6.735951e-02 1.671628e-01 -3.413836e-02 -1.163871e-01
<VARIANCE> 39
 9.139896e+00 9.171950e+00 8.134157e+00 1.568185e+01 4.677353e+01 3.066487e+01 3.269610e+01 3.886554e+01 5.062502e+01 4.535388e+01 3.519357e+01 3.272858e+01 1.259735e+00 3.434612e-01 5.509689e-01 3.787814e-01 6.106008e-01 1.219076e+00 1.497298e+00 1.182608e+00 9.844943e-01 1.059811e+00 1.581206e+00 1.621324e+00 9.398441e-01 5.950949e-02 4.365734e-02 4.226363e-02 4.617223e-02 9.892765e-02 2.043268e-01 1.360675e-01 1.916254e-01 1.516042e-01 1.974413e-01 1.846188e-01 2.490986e-01 1.694854e-01 4.741416e-03
<GCONST> 7.549682e+01
<STATE> 4
<MEAN> 39
 -3.270208e+00 -4.200099e+00 -2.076402e+00 -9.810289e+00 -4.103053e+00 -7.989478e+00 -4.188079e-01 -7.769773e+00 -3.934507e+00 -6.627389e+00 -1.666784e+00 -7.037572e+00 1.716500e+01 1.052631e-01 3.780689e-01 2.386010e-01 2.477308e-01 3.925919e-01 -4.156073e-02 -4.500028e-01 -3.504037e-01 4.878415e-02 -8.101868e-02 9.243108e-02 -1.220849e-02 -9.371257e-02 -4.223717e-02 -5.509218e-02 -5.196636e-02 -7.294217e-02 1.016330e-02 1.155128e-01 8.660436e-02 -5.363548e-02 5.054721e-04 -1.602219e-03 -4.362133e-02 3.817293e-02 1.841314e-02
<VARIANCE> 39
 4.983606e+00 1.071260e+01 1.036244e+01 1.384300e+01 2.864713e+01 3.240998e+01 2.648906e+01 4.166730e+01 3.197590e+01 3.590846e+01 3.236399e+01 2.850756e+01 1.753449e+00 1.950461e-01 4.218995e-01 4.848783e-01 9.372061e-01 1.403598e+00 1.188753e+00 1.688667e+00 1.275717e+00 1.425494e+00 1.408929e+00 1.286835e+00 9.408160e-01 9.300209e-02 3.570335e-02 8.107143e-02 8.892210e-02 1.531217e-01 2.527948e-01 2.064889e-01 2.871188e-01 2.312264e-01 2.306926e-01 2.414625e-01 2.152972e-01 1.505366e-01 1.529096e-02
<GCONST> 7.909819e+01
<TRANSP> 5
 0.000000e+00 1.000000e+00 0.000000e+00 0.000000e+00 0.000000e+00
 0.000000e+00 8.010257e-01 1.989743e-01 0.000000e+00 0.000000e+00
 0.000000e+00 0.000000e+00 8.507438e-01 1.492563e-01 0.000000e+00
 0.000000e+00 0.000000e+00 0.000000e+00 9.307300e-01 6.927005e-02
 0.000000e+00 0.000000e+00 0.000000e+00 0.000000e+00 0.000000e+00
<ENDHMM>
~h "three"
<BEGINHMM>
<NUMSTATES> 5
<STATE> 2
<MEAN> 39
 -2.994682e+00 -6.999408e+00 -1.528725e-01 -9.010707e+00 -1.077605e+01 -1.087702e+01 -1.296655e+00 -8.892323e+00 -1.706508e+00 -5.053439e+00 -1.711295e-01 -5.332665e+00 1.745766e+01 4.388874e-01 -1.081513e-01 9.541460e-01 -3.364427e-01 -1.528378e+00 -3.447088e-02 -2.928877e-01 -2.314934e-01 4.191191e-01 1.011261e-01 -2.128256e-02 -2.376509e-01 3.630220e-01 -1.856961e-01 1.330747e-01 -8.339422e-03 -2.992865e-01 2.537914e-01 2.993103e-01 -1.707119e-01 2.782275e-02 7.067916e-02 -2.090335e-02 4.274640e-02 8.720776e-03 -3.509681e-02
<VARIANCE> 39
 1.131704e+01 1.278319e+01 1.750553e+01 3.026194e+01 5.379550e+01 4.896796e+01 2.367773e+01 2.714851e+01 2.850710e+01 2.612258e+01 3.452140e+01 3.184274e+01 2.700757e+00 8.157715e-01 7.395580e-01 8.004067e-01 2.254445e+00 1.994721e+00 3.560622e+00 1.514211e+00 1.581249e+00 1.253746e+00 1.076151e+00 1.374818e+00 1.266294e+00 6.039513e-02 1.112009e-01 1.502547e-01 1.395789e-01 2.961004e-01 4.930696e-01 4.293689e-01 2.950697e-01 2.460751e-01 1.961088e-01 1.810775e-01 1.974993e-01 1.914112e-01 9.825274e-03
<GCONST> 9.015144e+01
<STATE> 3
<MEAN> 39
 -5.221255e+00 -3.254924e+00 5.499222e+00 -1.944677e+01 -1.176893e+01 -4.192739e+00 -9.011038e+00 -8.363782e+00 1.797013e+00 -5.887217e+00 1.012845e+00 -5.995265e+00 1.864203e+01 -8.339287e-01 1.808727e+00 -3.677108e-01 -1.603403e+00 2.439948e+00 -2.854868e-01 -1.366220e+00 9.253997e-01 -4.973154e-01 -2.178370e-01 1.060539e-01 2.996188e-02 -3.291466e-02 6.275085e-02 8.971533e-02 -4.522219e-01 5.577583e-01 3.227313e-01 -6.682093e-01 4.691381e-01 1.854226e-02 -3.581930e-01 8.575509e-02 -5.704242e-02 3.556460e-02 -5.131535e-02
<VARIANCE> 39
 7.704775e+00 2.363033e+01 1.189467e+01 2.874865e+01 5.986524e+01 2.842276e+01 4.079101e+01 6.527338e+01 2.658317e+01 2.828451e+01 3.811660e+01 3.015671e+01 1.302000e+00 2.447652e-01 5.937738e-01 9.446711e-01 1.799828e+00 1.236185e+00 3.488165e+00 2.122813e+00 1.296121e+00 1.335421e+00 1.105898e+00 6.914251e-01 7.792678e-01 1.761628e-02 4.704357e-02 1.522108e-01 9.207764e-02 2.134455e-01 4.771810e-01 2.414960e-01 3.563683e-01 3.763045e-01 1.731024e-01 1.466980e-01 1.330250e-01 1.110262e-01 2.029079e-03
<GCONST> 8.165707e+01
<STATE> 4
<MEAN> 39
 -6.739597e+00 4.123940e+00 -1.780748e+00 -1.625844e+01 -1.306769e+00 -1.262769e+01 -5.387828e+00 -8.224144e+00 -3.445491e+00 -4.953846e+00 -2.789256e-01 -6.256319e+00 1.786001e+01 1.561167e-01 -1.170574e-01 -5.498129e-01 9.798955e-01 3.912846e-01 -9.682265e-02 7.124595e-01 -3.785689e-01 -2.964008e-01 -2.698996e-02 -1.986099e-01 2.892747e-03 -1.811217e-01 6.223375e-02 -3.141770e-01 9.736492e-02 7.275610e-02 -2.255569e-01 3.155392e-01 2.865070e-02 -2.592145e-02 1.381535e-01 -3.539210e-02 2.374737e-02 1.253432e-02 -2.582940e-02
<VARIANCE> 39
 7.484167e+00 1.511906e+01 1.610069e+01 3.015122e+01 2.248298e+01 2.517228e+01 4.738660e+01 4.440969e+01 3.229636e+01 4.068594e+01 4.086486e+01 3.692789e+01 1.619889e+00 2.132943e-01 1.316258e+00 6.372583e-01 8.463960e-01 1.172089e+00 2.000051e+00 1.293045e+00 1.489185e+00 1.224929e+00 1.170415e+00 8.557141e-01 8.739966e-01 2.485223e-02 3.736311e-02 9.182205e-02 7.143755e-02 1.568273e-01 1.821553e-01 1.705348e-01 2.076873e-01 2.189443e-01 1.741878e-01 1.658770e-01 1.335018e-01 1.307811e-01 2.711153e-03
<GCONST> 7.732700e+01
<TRANSP> 5
 0.000000e+00 1.000000e+00 0.000000e+00 0.000000e+00 0.000000e+00
 0.000000e+00 8.788186e-01 1.211815e-01 0.000000e+00 0.000000e+00
 0.000000e+00 0.000000e+00 7.840003e-01 2.159997e-01 0.000000e+00
 0.000000e+00 0.000000e+00 0.000000e+00 8.893508e-01 1.106493e-01
 0.000000e+00 0.000000e+00 0.000000e+00 0.000000e+00 0.000000e+00
<ENDHMM>
~h "one"
<BEGINHMM>
<NUMSTATES> 5
<STATE> 2
<MEAN> 39
 -5.554597e-01 -3.776039e+00 -9.292559e+00 -1.282689e+01 -1.660399e+00 -5.562757e+00 -2.021303e+00 -8.864341e+00 -2.704587e+00 -6.731714e+00 -1.552198e+00 -7.301026e+00 1.775225e+01 2.762139e-01 -4.080105e-01 -8.744813e-01 4.609983e-01 4.902959e-01 4.155936e-02 -2.920606e-01 2.275435e-01 2.053564e-01 -3.066272e-01 -3.895760e-01 -2.717094e-01 2.371595e-01 -1.198275e-01 -1.468981e-01 5.488074e-02 2.661117e-01 8.118702e-03 -1.161904e-01 -1.528270e-02 9.404308e-02 -1.106724e-02 -9.054231e-02 1.140011e-02 8.365534e-02 -2.130780e-02
<VARIANCE> 39
 7.519599e+00 9.258444e+00 2.884765e+01 2.286317e+01 2.894546e+01 2.535921e+01 2.284427e+01 2.067328e+01 2.829015e+01 2.398638e+01 2.968972e+01 2.872977e+01 2.260606e+00 4.570734e-01 7.990049e-01 8.711549e-01 2.245458e+00 1.371444e+00 1.441785e+00 1.269310e+00 1.066877e+00 1.132933e+00 1.021078e+00 1.095415e+00 1.045409e+00 4.806018e-02 4.462754e-02 6.116740e-02 1.909309e-01 2.173876e-01 2.633306e-01 2.529247e-01 2.370268e-01 1.811963e-01 2.007795e-01 1.693500e-01 1.889374e-01 1.836730e-01 4.982377e-03
<GCONST> 8.016046e+01
<STATE> 3
<MEAN> 39
 -2.365213e+00 -1.071528e+01 -1.090321e+01 -1.688268e+00 -4.417993e-01 -9.496179e+00 -2.448428e+00 -4.204107e+00 -3.534370e+00 -1.173038e+01 -2.378252e+00 -6.053416e+00 1.853577e+01 -6.083314e-01 -3.740847e-01 1.339319e+00 5.731158e-01 -1.353851e+00 -3.286838e-01 1.196473e+00 -8.851975e-02 -9.252718e-01 -9.270068e-02 5.867440e-01 1.200314e-01 -4.916223e-02 2.354889e-02 3.139335e-01 2.518584e-01 -5.824277e-01 -1.345029e-01 3.767952e-01 9.225045e-02 -4.379416e-01 -3.597141e-04 3.808590e-01 4.416340e-02 -1.770587e-01 -2.978426e-02
<VARIANCE> 39
 6.135663e+00 9.604737e+00 1.864906e+01 2.375355e+01 2.699410e+01 1.739902e+01 3.765502e+01 3.137084e+01 4.645827e+01 3.754699e+01 3.383686e+01 3.320527e+01 1.544422e+00 1.544855e-01 5.156134e-01 6.040725e-01 1.830232e+00 7.391301e-01 1.710742e+00 1.006682e+00 2.246656e+00 1.164997e+00 1.864153e+00 1.028206e+00 1.293692e+00 8.475288e-03 2.362695e-02 5.254698e-02 1.007687e-01 1.224608e-01 2.850801e-01 1.527877e-01 3.757424e-01 1.780821e-01 3.357984e-01 2.001904e-01 2.674392e-01 1.680013e-01 8.552255e-04
<GCONST> 7.511697e+01
<STATE> 4
<MEAN> 39
 -4.107001e+00 -5.426115e+00 -1.643125e+00 -8.744503e+00 -4.072129e+00 -5.846912e+00 -1.670304e+00 -1.195232e+01 -4.641944e+00 -8.693883e+00 -2.585304e+00 -8.295576e+00 1.778481e+01 1.507814e-01 9.725445e-01 6.275611e-01 -7.306831e-01 4.275117e-01 -6.609070e-02 -6.325038e-01 -4.452893e-01 8.221622e-02 2.307062e-01 -1.759996e-01 5.075201e-02 -1.279792e-01 4.463938e-02 -6.818141e-02 -2.143345e-01 1.671142e-01 1.618508e-01 -6.938605e-02 -6.878715e-02 1.652904e-01 1.374384e-02 -1.166017e-01 1.015239e-02 7.508420e-02 -5.521765e-03
<VARIANCE> 39
 6.952345e+00 2.331142e+01 1.104276e+01 2.146736e+01 1.960670e+01 4.669252e+01 3.619239e+01 3.534649e+01 4.122254e+01 4.575723e+01 3.326736e+01 3.781149e+01 1.326193e+00 2.770224e-01 6.121280e-01 8.054309e-01 1.205615e+00 9.150501e-01 1.970153e+00 1.134455e+00 1.445946e+00 1.609722e+00 1.543387e+00 9.448979e-01 9.601089e-01 1.268638e-02 4.885542e-02 1.201382e-01 8.171313e-02 1.342344e-01 2.007640e-01 3.084112e-01 2.742509e-01 1.859740e-01 2.306020e-01 2.260510e-01 1.686891e-01 1.676795e-01 1.600655e-03
<GCONST> 7.852939e+01
<TRANSP> 5
 0.000000e+00 1.000000e+00 0.000000e+00 0.000000e+00 0.000000e+00
 0.000000e+00 8.979714e-01 1.020286e-01 0.000000e+00 0.000000e+00
 0.000000e+00 0.000000e+00 8.247732e-01 1.752268e-01 0.000000e+00
 0.000000e+00 0.000000e+00 0.000000e+00 8.840596e-01 1.159404e-01
 0.000000e+00 0.000000e+00 0.000000e+00 0.000000e+00 0.000000e+00
<ENDHMM>
~h "sil"
<BEGINHMM>
<NUMSTATES> 5
<STATE> 2
<MEAN> 39
 -6.776702e+00 -6.751006e+00 -5.111037e+00 -9.127387e+00 -4.082420e-02 -3.413583e+00 1.633686e-01 -8.548191e+00 -2.627546e+00 -5.771945e+00 5.621626e-01 -4.293658e+00 1.461545e+01 -3.741878e-02 -1.871780e-03 -1.232963e-03 3.497357e-02 4.261783e-02 2.748437e-02 4.720876e-02 2.601366e-03 -1.784243e-02 5.995119e-03 1.718983e-02 1.378094e-02 -1.222585e-02 -2.616446e-02 -3.386754e-02 -7.337213e-02 -1.072176e-01 -1.163745e-01 -1.134054e-01 -6.009865e-02 -6.722701e-03 -2.041588e-02 1.074114e-02 3.650055e-02 2.865324e-02 1.851338e-03
<VARIANCE> 39
 3.578316e+00 4.319264e+00 5.937673e+00 7.597786e+00 1.200251e+01 1.366997e+01 1.465050e+01 1.628683e+01 1.570159e+01 1.373427e+01 1.577572e+01 1.308105e+01 1.166730e+00 7.727309e-02 1.578599e-01 2.695024e-01 3.719049e-01 4.926692e-01 6.549225e-01 6.778706e-01 7.100931e-01 6.923072e-01 5.737954e-01 6.345071e-01 5.618817e-01 4.944953e-03 1.079043e-02 2.384643e-02 4.011318e-02 5.010799e-02 7.097375e-02 1.019981e-01 1.069209e-01 1.298469e-01 1.115799e-01 9.225978e-02 1.052877e-01 9.911416e-02 6.275531e-04
<GCONST> 4.363142e+01
<STATE> 3
~s "silst"
<STATE> 4
<MEAN> 39
 -7.618395e+00 -7.343596e+00 -6.632766e+00 -1.117638e+01 -2.169543e+00 -5.383860e+00 -1.001199e+00 -8.628741e+00 -2.685780e+00 -5.388911e+00 1.460238e+00 -3.849121e+00 1.448270e+01 -3.035759e-03 6.967300e-03 -2.934446e-02 -3.164992e-02 -5.606844e-02 -2.212700e-02 -6.061313e-02 -6.795677e-03 -3.299320e-03 -6.578110e-03 -2.244226e-02 -2.088330e-02 1.404212e-04 3.991648e-02 5.977277e-02 9.758179e-02 1.269744e-01 1.314984e-01 1.245501e-01 6.163856e-02 1.362403e-02 2.461038e-02 -1.785810e-02 -5.650014e-02 -3.976567e-02 9.071887e-03
<VARIANCE> 39
 3.540573e+00 4.180138e+00 6.420545e+00 7.871361e+00 1.127372e+01 1.264297e+01 1.500473e+01 1.600989e+01 1.777045e+01 1.534628e+01 1.513316e+01 1.344747e+01 9.951571e-01 7.828192e-02 1.695731e-01 2.895026e-01 4.172998e-01 5.060676e-01 6.774133e-01 5.972139e-01 7.458614e-01 7.117104e-01 6.090955e-01 7.021540e-01 6.142125e-01 3.312771e-03 1.455515e-02 2.907012e-02 4.214255e-02 5.747148e-02 7.379869e-02 1.095243e-01 1.041722e-01 1.289562e-01 1.337792e-01 1.061699e-01 1.176153e-01 1.101415e-01 1.142174e-03
<GCONST> 4.565895e+01
<TRANSP> 5
 0.000000e+00 1.000000e+00 0.000000e+00 0.000000e+00 0.000000e+00
 0.000000e+00 7.723206e-01 2.421947e-02 2.034600e-01 0.000000e+00
 0.000000e+00 0.000000e+00 8.265771e-01 1.734229e-01 0.000000e+00
 0.000000e+00 1.885905e-01 0.000000e+00 7.409149e-01 7.049450e-02
 0.000000e+00 0.000000e+00 0.000000e+00 0.000000e+00 0.000000e+00
<ENDHMM>
~h "six"
<BEGINHMM>
<NUMSTATES> 5
<STATE> 2
<MEAN> 39
 -8.645312e+00 -4.229228e+00 -6.935126e+00 -8.765220e+00 -3.149668e+00 -4.307460e+00 -1.965885e+00 -8.226411e+00 -3.545457e+00 -3.968327e+00 1.150686e-01 -3.144055e+00 1.497207e+01 6.818758e-01 6.864079e-01 1.213521e+00 -1.401987e+00 -1.175177e+00 -1.225975e+00 4.575136e-02 -1.295038e-01 4.314680e-01 3.509056e-01 -5.251834e-01 -4.877473e-01 6.376932e-01 6.158933e-02 1.123788e-01 2.216561e-01 -4.783688e-01 -2.732551e-01 -1.619866e-01 4.473917e-02 7.757401e-02 2.055599e-01 -4.243893e-03 -1.361891e-01 -2.402696e-01 1.431955e-01
<VARIANCE> 39
 7.562877e+00 7.824500e+00 1.278403e+01 1.151649e+01 1.925935e+01 2.028871e+01 1.525063e+01 1.791146e+01 2.011432e+01 3.015278e+01 1.911884e+01 1.706298e+01 1.904855e+00 3.593886e-01 4.725428e-01 8.851580e-01 1.150110e+00 1.082386e+00 1.328214e+00 1.013845e+00 8.121843e-01 1.426219e+00 2.252459e+00 1.083559e+00 1.334893e+00 7.575587e-02 6.210454e-02 5.616530e-02 1.156297e-01 9.858846e-02 2.023237e-01 2.102910e-01 1.472792e-01 1.777334e-01 1.846931e-01 2.380865e-01 1.709142e-01 1.683137e-01 9.102703e-03
<GCONST> 7.423257e+01
<STATE> 3
<MEAN> 39
 -6.473237e+00 -1.101011e+00 -8.546361e-01 -2.013404e+01 -7.854278e+00 -8.726803e+00 -2.441694e+00 -6.375358e+00 2.526015e-01 -3.799469e+00 -2.524376e+00 -7.323401e+00 1.832959e+01 2.335785e-02 -8.880708e-02 2.180826e-01 -2.764812e-01 3.799152e-01 2.168003e-01 -2.752051e-01 1.713190e-01 3.551505e-02 -1.975664e-01 1.720161e-01 9.943587e-03 -4.976997e-02 -5.653639e-02 -2.054069e-01 -2.671185e-01 4.885390e-01 2.881403e-01 2.203705e-01 6.850075e-02 -9.147306e-02 -1.471599e-01 -5.860827e-02 1.516547e-01 1.664190e-01 -1.671264e-01
<VARIANCE> 39
 7.691843e+00 9.758410e+00 1.664472e+01 2.294889e+01 5.857031e+01 3.113047e+01 3.721768e+01 2.461636e+01 3.463843e+01 5.828600e+01 3.545068e+01 3.745916e+01 1.433570e+00 3.492682e-01 6.518291e-01 1.075285e+00 3.229249e+00 2.390379e+00 1.754619e+00 1.734670e+00 1.342755e+00 1.887018e+00 2.011068e+00 1.866516e+00 1.894060e+00 2.929090e-01 6.821731e-02 6.608743e-02 1.610642e-01 2.253378e-01 3.065310e-01 3.194841e-01 3.841705e-01 2.240757e-01 2.869686e-01 3.401054e-01 2.639234e-01 2.553671e-01 1.167631e-02
<GCONST> 9.187605e+01
<STATE> 4
<MEAN> 39
 -6.575714e+00 -6.280649e+00 -4.711530e+00 -1.080476e+01 -9.992581e-01 -3.978776e+00 -1.418472e+00 -8.744316e+00 -2.177951e+00 -5.856454e+00 1.167990e+00 -4.219059e+00 1.473701e+01 -2.394938e-01 -9.017724e-01 -9.857088e-01 1.440188e+00 3.969692e-01 4.110377e-01 8.962253e-01 -4.422920e-01 -2.639737e-01 -4.064735e-02 1.854688e-01 2.922234e-01 -4.563720e-01 -1.051416e-01 1.717832e-01 2.117032e-01 -4.356739e-01 -3.756668e-01 -1.568966e-01 -9.083834e-02 1.695852e-01 1.167193e-01 1.013022e-01 -1.771224e-01 -1.428483e-01 1.505210e-01
<VARIANCE> 39
 3.283642e+00 5.462819e+00 9.399733e+00 1.091986e+01 1.447734e+01 1.552748e+01 1.928649e+01 1.844713e+01 1.675114e+01 1.692498e+01 1.852174e+01 1.486148e+01 1.491405e+00 2.674139e-01 4.888436e-01 9.199932e-01 1.330056e+00 2.103111e+00 1.637709e+00 1.601177e+00 1.258316e+00 1.237115e+00 1.209657e+00 1.191489e+00 1.016921e+00 8.314645e-02 3.860383e-02 6.561740e-02 1.379288e-01 1.476984e-01 2.321855e-01 1.816746e-01 2.641618e-01 1.936200e-01 1.842814e-01 1.725708e-01 1.975404e-01 1.818273e-01 5.789120e-03
<GCONST> 7.242470e+01
<TRANSP> 5
 0.000000e+00 1.000000e+00 0.000000e+00 0.000000e+00 0.000000e+00
 0.000000e+00 7.134891e-01 2.865109e-01 0.000000e+00 0.000000e+00
 0.000000e+00 0.000000e+00 8.890278e-01 1.109722e-01 0.000000e+00
 0.000000e+00 0.000000e+00 0.000000e+00 7.534829e-01 2.465171e-01
 0.000000e+00 0.000000e+00 0.000000e+00 0.000000e+00 0.000000e+00
<ENDHMM>
~h "two"
<BEGINHMM>
<NUMSTATES> 5
<STATE> 2
<MEAN> 39
 -1.105896e+01 -3.204876e+00 -6.947983e+00 -1.048191e+01 -1.149940e+00 -3.870478e+00 -2.000336e+00 -7.570812e+00 -2.358178e+00 -5.692931e+00 1.138607e+00 -3.318971e+00 1.506803e+01 4.181744e-01 6.214114e-01 9.188931e-01 -5.431101e-01 -2.432744e-01 -3.155283e-01 -4.614012e-01 -1.898883e-01 5.837292e-02 -4.528578e-02 -2.360895e-01 -3.165997e-01 3.065335e-01 3.008677e-01 4.214952e-02 2.987213e-01 -1.359439e-01 -1.742956e-01 -2.212268e-01 -1.053530e-01 -1.192391e-01 -2.555732e-02 3.987540e-03 -7.481568e-02 -1.612388e-01 8.626247e-02
<VARIANCE> 39
 8.570449e+00 8.199662e+00 1.281152e+01 1.262637e+01 1.852667e+01 2.275113e+01 1.897641e+01 2.150211e+01 2.070794e+01 2.336588e+01 2.428843e+01 1.962820e+01 9.061809e-01 1.407660e+00 5.634699e-01 1.352692e+00 8.369828e-01 1.337271e+00 1.286145e+00 9.650728e-01 1.184685e+00 1.143693e+00 1.276018e+00 1.810911e+00 1.089117e+00 7.137705e-02 1.226920e-01 1.132742e-01 1.315707e-01 1.280941e-01 2.360195e-01 2.027725e-01 1.735826e-01 2.228410e-01 2.200259e-01 1.976341e-01 3.515494e-01 1.586459e-01 8.092334e-03
<GCONST> 7.881745e+01
<STATE> 3
<MEAN> 39
 -4.611176e+00 1.251062e+00 1.846812e+00 -1.548905e+01 -6.899817e+00 -9.912701e+00 -6.676592e+00 -1.043755e+01 -2.418402e+00 -5.181807e+00 -1.119805e+00 -7.299494e+00 1.839536e+01 6.705638e-01 5.480497e-01 7.524795e-01 -5.463700e-01 -1.164648e+00 -1.109431e+00 -5.702471e-01 -2.819616e-01 -6.612090e-02 1.258255e-01 -2.181635e-01 -6.286912e-01 4.537817e-01 -2.499087e-01 -2.326365e-01 -4.254991e-01 2.972594e-01 2.680343e-01 2.292500e-01 2.342262e-01 1.458246e-01 -1.839165e-02 -7.953765e-03 1.526116e-01 1.824648e-01 -1.439334e-01
<VARIANCE> 39
 7.476643e+00 8.113422e+00 1.364992e+01 2.239252e+01 3.990663e+01 2.573868e+01 2.824453e+01 2.450485e+01 3.156062e+01 5.522622e+01 4.386009e+01 4.827689e+01 1.052631e+00 5.716583e-01 6.280836e-01 9.946417e-01 1.463295e+00 1.292582e+00 1.200909e+00 1.678255e+00 1.519145e+00 1.853175e+00 1.991257e+00 2.409909e+00 1.870641e+00 8.926941e-02 6.137111e-02 5.435371e-02 8.133100e-02 1.257556e-01 2.072399e-01 1.821936e-01 2.046003e-01 1.915136e-01 2.132613e-01 2.744828e-01 2.884191e-01 2.220287e-01 6.702575e-03
<GCONST> 8.388055e+01
<STATE> 4
<MEAN> 39
 -3.234583e+00 -5.354635e-02 -3.962087e-02 -1.367245e+01 -7.126673e+00 -1.157548e+01 -5.643808e+00 -9.633786e+00 -2.706933e+00 -5.305488e+00 -1.591292e-01 -7.601049e+00 1.824173e+01 1.672077e-01 -2.229587e-01 -2.382239e-01 5.382380e-01 3.355629e-01 8.505730e-02 9.794087e-02 -5.466580e-02 -1.938116e-01 -8.661310e-02 7.804398e-02 1.596409e-01 -1.197802e-01 -4.348478e-02 -3.809517e-02 -2.673927e-02 2.481390e-02 9.604321e-02 1.094583e-01 5.156987e-02 4.476564e-03 1.976776e-02 1.134393e-03 -5.877161e-03 4.473501e-02 -3.530260e-02
<VARIANCE> 39
 5.893798e+00 7.953576e+00 1.254029e+01 2.978208e+01 3.402179e+01 2.155698e+01 3.315466e+01 3.372243e+01 3.985436e+01 4.294114e+01 5.474250e+01 4.158390e+01 1.357755e+00 1.334198e-01 1.530326e-01 3.771588e-01 6.212509e-01 9.109522e-01 8.546628e-01 8.810672e-01 1.028144e+00 9.013572e-01 9.880119e-01 1.046207e+00 9.320434e-01 1.448902e-02 2.163769e-02 2.517528e-02 5.077049e-02 8.864194e-02 1.056277e-01 1.240691e-01 1.290922e-01 1.598385e-01 1.487998e-01 1.526716e-01 1.593605e-01 1.459765e-01 2.349678e-03
<GCONST> 6.574540e+01
<TRANSP> 5
 0.000000e+00 1.000000e+00 0.000000e+00 0.000000e+00 0.000000e+00
 0.000000e+00 8.293827e-01 1.706173e-01 0.000000e+00 0.000000e+00
 0.000000e+00 0.000000e+00 7.682289e-01 2.317711e-01 0.000000e+00
 0.000000e+00 0.000000e+00 0.000000e+00 9.013573e-01 9.864273e-02
 0.000000e+00 0.000000e+00 0.000000e+00 0.000000e+00 0.000000e+00
<ENDHMM>
~h "nine"
<BEGINHMM>
<NUMSTATES> 5
<STATE> 2
<MEAN> 39
 -4.465983e+00 -4.320379e+00 -2.080634e+00 -8.922330e+00 -3.046495e+00 -6.193838e+00 -1.510421e+00 -1.117725e+01 -5.008514e+00 -8.089077e+00 -2.962926e+00 -7.816016e+00 1.757491e+01 -1.387166e-01 -6.754946e-01 -2.244287e-01 4.968391e-01 -4.943612e-01 1.758209e-01 3.890024e-01 -1.974350e-01 -3.714927e-02 -1.531719e-01 -1.767557e-01 -1.448357e-01 2.490859e-01 -3.841560e-02 -1.266396e-01 -7.497791e-02 1.151906e-01 1.932560e-02 -6.471945e-03 3.799851e-02 3.174500e-02 1.034503e-02 6.542314e-03 8.139616e-02 3.547274e-02 -1.085532e-02
<VARIANCE> 39
 8.935106e+00 2.042140e+01 1.531251e+01 1.687121e+01 2.864962e+01 2.896631e+01 3.202354e+01 2.752885e+01 4.735158e+01 3.539082e+01 3.014900e+01 3.279167e+01 2.290849e+00 5.318670e-01 1.580662e+00 1.145354e+00 1.118427e+00 1.136998e+00 1.424376e+00 1.646099e+00 1.278341e+00 1.529284e+00 1.155212e+00 1.246707e+00 1.038727e+00 3.756092e-02 6.480231e-02 1.816273e-01 1.344574e-01 1.402594e-01 2.017354e-01 2.222323e-01 2.429091e-01 1.863258e-01 1.999003e-01 1.610416e-01 1.731936e-01 1.448061e-01 4.912667e-03
<GCONST> 8.288551e+01
<STATE> 3
<MEAN> 39
 -6.290398e+00 -1.167318e+01 -4.987745e+00 -2.492265e+00 -5.655518e+00 -5.432686e+00 1.785500e+00 -1.126431e+01 -5.680375e+00 -9.068751e+00 -1.604477e+00 -7.685360e+00 1.862177e+01 -1.082368e-01 6.587561e-02 2.330498e-01 -2.054574e-01 -4.689708e-02 2.055231e-01 -7.338512e-02 -1.009610e-01 1.717026e-01 6.963757e-02 -3.993930e-02 3.049380e-02 -1.980982e-02 -3.027828e-03 1.878334e-01 7.745124e-02 -2.486416e-01 3.299460e-02 8.107147e-02 -1.011925e-01 -1.997747e-03 8.312719e-02 -5.356083e-03 -7.949787e-02 2.509631e-02 -1.439298e-02
<VARIANCE> 39
 7.198327e+00 8.452216e+00 2.463235e+01 3.136842e+01 1.880422e+01 3.042206e+01 3.088318e+01 3.410232e+01 4.309869e+01 4.184491e+01 2.805885e+01 3.031839e+01 1.011917e+00 8.114444e-02 3.209701e-01 4.020202e-01 1.031399e+00 4.632104e-01 6.108158e-01 5.230483e-01 4.995323e-01 6.119570e-01 6.480247e-01 6.581960e-01 5.176044e-01 4.579403e-03 1.054084e-02 2.931302e-02 3.925319e-02 5.255991e-02 6.927525e-02 6.523868e-02 7.262455e-02 7.665830e-02 7.948522e-02 8.554266e-02 7.632460e-02 7.775383e-02 3.923970e-04
<GCONST> 5.266157e+01
<STATE> 4
<MEAN> 39
 -6.224109e+00 -3.177504e+00 -1.627618e+00 -1.203902e+01 -1.903549e+00 -4.485907e+00 -3.314644e+00 -1.019720e+01 -2.791894e+00 -8.222863e+00 -3.091500e+00 -6.512821e+00 1.790032e+01 3.932959e-01 8.505367e-01 1.536628e-01 -3.114411e-01 5.440729e-01 -4.759489e-01 -4.746144e-01 3.282817e-01 -1.986630e-01 5.457731e-02 9.701293e-02 5.326876e-02 -1.226141e-01 4.391112e-02 -1.234439e-01 -3.687256e-02 2.358762e-01 -1.493028e-02 -7.367607e-02 1.047315e-01 -3.513038e-02 -1.091813e-01 2.587370e-02 7.979550e-02 -2.948748e-02 -1.024381e-02
<VARIANCE> 39
 1.144174e+01 2.012400e+01 1.219220e+01 2.403750e+01 3.584278e+01 3.415765e+01 3.368983e+01 2.992796e+01 4.908249e+01 3.963517e+01 3.857552e+01 4.242676e+01 1.075739e+00 4.065346e-01 9.274247e-01 5.742198e-01 1.873094e+00 1.354391e+00 1.383800e+00 1.361009e+00 1.284738e+00 1.676069e+00 1.184698e+00 1.059609e+00 1.024288e+00 9.878787e-03 5.698502e-02 9.923833e-02 8.646011e-02 1.493554e-01 1.943244e-01 2.404689e-01 1.805938e-01 1.979727e-01 2.316937e-01 1.955124e-01 1.707331e-01 1.415434e-01 1.005980e-03
<GCONST> 7.866611e+01
<TRANSP> 5
 0.000000e+00 1.000000e+00 0.000000e+00 0.000000e+00 0.000000e+00
 0.000000e+00 8.952594e-01 1.047406e-01 0.000000e+00 0.000000e+00
 0.000000e+00 0.000000e+00 9.108928e-01 8.910720e-02 0.000000e+00
 0.000000e+00 0.000000e+00 0.000000e+00 8.979757e-01 1.020243e-01
 0.000000e+00 0.000000e+00 0.000000e+00 0.000000e+00 0.000000e+00
<ENDHMM>
~h "five"
<BEGINHMM>
<NUMSTATES> 5
<STATE> 2
<MEAN> 39
 -4.090720e+00 -1.145977e+01 -1.017179e+01 -8.207765e+00 5.340552e-01 -8.230737e+00 3.430583e-01 -4.571198e+00 -5.312209e+00 -7.990369e+00 -1.886060e+00 -4.925704e+00 1.804644e+01 3.435685e-01 -1.177839e+00 -7.032583e-01 7.957628e-01 5.209408e-01 -6.299985e-01 3.403541e-01 3.817679e-01 -7.515094e-01 -2.064048e-01 -2.829881e-01 4.212302e-03 5.579346e-01 -1.970949e-01 3.517929e-02 1.861849e-01 8.682042e-02 -1.744111e-02 1.107121e-01 2.944934e-02 -2.122791e-01 3.408339e-02 1.432841e-01 1.666103e-01 5.182891e-02 -7.937054e-02
<VARIANCE> 39
 1.067329e+01 1.952292e+01 2.369746e+01 1.688008e+01 1.912109e+01 2.038573e+01 2.544327e+01 5.184164e+01 3.248674e+01 2.824970e+01 2.503953e+01 2.010634e+01 4.237022e+00 7.722778e-01 5.627025e-01 1.181295e+00 9.019206e-01 7.906063e-01 9.824498e-01 9.671245e-01 2.189822e+00 1.728597e+00 1.727823e+00 1.361581e+00 1.026465e+00 1.237599e-01 9.342805e-02 1.312142e-01 1.739119e-01 1.232002e-01 1.365572e-01 1.434146e-01 1.540856e-01 2.979923e-01 2.735216e-01 1.909656e-01 1.740863e-01 1.405832e-01 2.741931e-02
<GCONST> 8.419553e+01
<STATE> 3
<MEAN> 39
 -5.812023e+00 -1.545200e+01 -8.549130e+00 -3.641869e+00 1.423044e+00 -9.172846e+00 2.539349e+00 -7.500687e+00 -7.214834e+00 -5.445188e+00 -4.595741e-01 -4.500148e+00 1.904587e+01 -1.654890e-01 8.453875e-02 4.903987e-01 -2.593936e-01 -2.714631e-01 4.349685e-01 6.838353e-02 -3.990473e-01 2.747064e-02 3.040345e-01 6.011474e-02 -8.483022e-02 -4.862785e-02 4.026546e-02 1.140902e-01 1.109566e-02 -1.964796e-01 -5.456416e-02 9.318518e-02 -2.874946e-02 2.475355e-02 5.612386e-02 -4.925785e-02 -7.818670e-02 -1.858339e-02 -1.484042e-02
<VARIANCE> 39
 9.169337e+00 9.381927e+00 2.481636e+01 2.081620e+01 1.874529e+01 2.314511e+01 1.747941e+01 3.901193e+01 4.702553e+01 4.446052e+01 2.685609e+01 2.550804e+01 1.356703e+00 8.761182e-02 1.526021e-01 2.694992e-01 6.315860e-01 4.945887e-01 5.507244e-01 4.975303e-01 4.919999e-01 6.111419e-01 5.691043e-01 5.671205e-01 4.730719e-01 5.839760e-03 1.172362e-02 2.412112e-02 3.021581e-02 4.795391e-02 5.107606e-02 5.157794e-02 5.690522e-02 6.410311e-02 8.502596e-02 8.407990e-02 6.626368e-02 7.025097e-02 8.943612e-04
<GCONST> 4.955784e+01
<STATE> 4
<MEAN> 39
 -5.755319e+00 -9.419580e+00 -3.945495e+00 -1.390774e+01 -3.278018e+00 -2.811461e+00 1.873554e+00 -8.423638e+00 -4.211720e+00 -5.239118e+00 -2.266602e+00 -5.520513e+00 1.830487e+01 2.172721e-01 1.207467e+00 3.705517e-01 -6.441138e-01 -3.929861e-01 -1.018454e-01 -3.095352e-01 2.567813e-01 5.549105e-01 -2.124158e-01 -7.293386e-02 -8.882774e-02 -2.457928e-01 -1.725793e-02 -2.111542e-02 -5.248863e-02 3.435207e-01 1.400108e-01 -1.806750e-01 -6.308750e-02 -9.808185e-03 -4.273482e-02 1.671448e-02 1.216689e-01 3.983192e-02 -4.834819e-02
<VARIANCE> 39
 7.870565e+00 2.308361e+01 1.220627e+01 3.194464e+01 4.212313e+01 1.955864e+01 2.462591e+01 3.669357e+01 5.316970e+01 2.795445e+01 2.710010e+01 3.010509e+01 1.833707e+00 2.146041e-01 4.977237e-01 5.736362e-01 2.634898e+00 1.471051e+00 1.622236e+00 9.744815e-01 1.331662e+00 1.638130e+00 1.337810e+00 1.268440e+00 9.161544e-01 4.131291e-02 4.302073e-02 9.678527e-02 7.578330e-02 2.405639e-01 2.362583e-01 2.298122e-01 1.662312e-01 2.295501e-01 2.227140e-01 1.789617e-01 2.066729e-01 1.646247e-01 4.442658e-03
<GCONST> 8.035050e+01
<TRANSP> 5
 0.000000e+00 1.000000e+00 0.000000e+00 0.000000e+00 0.000000e+00
 0.000000e+00 8.452528e-01 1.547471e-01 0.000000e+00 0.000000e+00
 0.000000e+00 0.000000e+00 9.122812e-01 8.771882e-02 0.000000e+00
 0.000000e+00 0.000000e+00 0.000000e+00 8.640914e-01 1.359086e-01
 0.000000e+00 0.000000e+00 0.000000e+00 0.000000e+00 0.000000e+00
<ENDHMM>
~h "four"
<BEGINHMM>
<NUMSTATES> 5
<STATE> 2
<MEAN> 39
 -6.667190e+00 -6.499195e+00 -5.548378e+00 -9.792747e+00 -1.602220e+00 -5.604182e+00 -1.256405e+00 -8.424538e+00 -1.988479e+00 -5.577499e+00 9.372301e-01 -4.291566e+00 1.538914e+01 1.589203e+00 5.439919e-01 -9.248477e-01 -8.794268e-01 -3.097821e-01 -5.406407e-01 -7.034091e-01 -1.977044e-01 1.895789e-01 2.035750e-01 -3.506839e-01 -4.965611e-01 6.519167e-01 3.428744e-01 1.215880e-01 -3.357134e-01 -3.141791e-01 -5.566384e-02 -1.078970e-03 -7.562265e-02 -1.505480e-02 1.162018e-03 5.337922e-02 -7.739035e-02 -1.300782e-01 1.404913e-01
<VARIANCE> 39
 8.002151e+00 5.523023e+00 5.394106e+00 7.906506e+00 1.005687e+01 1.254126e+01 1.447030e+01 1.358166e+01 1.598830e+01 1.350572e+01 1.628367e+01 1.233012e+01 1.765526e+00 5.057278e-01 4.389028e-01 5.926716e-01 7.419266e-01 7.225367e-01 9.129075e-01 7.456756e-01 8.240019e-01 1.034744e+00 1.105163e+00 1.543691e+00 1.248014e+00 5.610011e-02 7.001203e-02 5.325349e-02 6.045632e-02 8.240045e-02 1.010021e-01 1.509696e-01 1.212762e-01 1.491891e-01 1.393974e-01 1.603928e-01 1.993354e-01 1.877222e-01 7.439849e-03
<GCONST> 6.418549e+01
<STATE> 3
<MEAN> 39
 1.599681e+00 -3.482948e+00 -1.217913e+01 -1.705628e+01 -4.000792e+00 -6.170837e+00 -3.166703e+00 -8.951547e+00 -1.396673e+00 -3.852005e+00 4.324721e-01 -6.779570e+00 1.891764e+01 2.996938e-01 -1.893238e-01 -3.221563e-01 -3.284602e-02 7.521188e-02 -1.623748e-02 -2.178370e-01 1.764375e-01 3.549075e-01 9.289694e-02 -2.291845e-01 -2.185057e-01 1.412894e-01 -1.734889e-01 -1.543106e-01 1.505497e-01 2.368424e-01 3.838612e-02 -3.710143e-02 3.776797e-02 1.111088e-01 4.740042e-02 -8.576331e-02 -5.608647e-02 5.684860e-02 -6.759331e-02
<VARIANCE> 39
 4.138645e+00 1.028366e+01 9.549607e+00 1.372685e+01 2.443487e+01 1.714465e+01 1.859107e+01 1.716221e+01 2.365032e+01 2.483716e+01 3.813202e+01 3.759975e+01 1.083818e+00 5.157309e-01 7.252408e-01 6.828637e-01 1.208662e+00 9.686500e-01 7.696776e-01 9.081631e-01 9.562714e-01 1.306198e+00 1.173596e+00 1.336252e+00 1.238765e+00 9.197467e-02 4.957158e-02 4.578028e-02 9.588092e-02 8.000095e-02 1.359586e-01 1.435118e-01 1.562384e-01 1.413787e-01 1.816508e-01 1.922245e-01 1.992303e-01 1.872349e-01 7.220804e-03
<GCONST> 7.248396e+01
<STATE> 4
<MEAN> 39
 -2.617153e-01 -1.131672e+01 -7.984964e+00 -8.556399e+00 -5.377310e+00 -8.951296e+00 -2.203234e+00 -4.224407e+00 6.529744e-01 -7.568435e+00 -3.912830e+00 -7.361392e+00 1.855071e+01 -5.526813e-01 -3.427317e-02 1.189788e+00 5.190545e-01 -5.949187e-01 2.804558e-02 6.848565e-01 -1.579456e-01 -6.821983e-01 -3.929431e-01 1.342491e-01 2.577915e-01 -2.037087e-01 -8.735203e-02 3.026613e-01 1.185356e-03 -2.185937e-01 1.355818e-01 2.159597e-01 1.416320e-02 -2.466325e-01 -1.515451e-01 1.217358e-01 1.777595e-01 3.039380e-02 -5.098911e-02
<VARIANCE> 39
 6.969511e+00 1.429803e+01 2.846242e+01 1.839741e+01 4.721713e+01 3.737909e+01 3.526262e+01 3.890341e+01 4.503078e+01 3.447945e+01 3.467934e+01 3.192600e+01 1.575849e+00 2.192669e-01 1.521881e+00 6.617608e-01 1.662922e+00 2.086903e+00 2.162699e+00 1.565613e+00 2.598155e+00 1.819114e+00 1.726474e+00 1.797091e+00 1.076524e+00 4.089622e-02 2.917784e-02 9.457743e-02 1.877521e-01 1.659427e-01 4.429152e-01 3.014666e-01 3.552157e-01 3.382223e-01 3.789488e-01 2.792944e-01 3.072844e-01 2.166896e-01 3.208537e-03
<GCONST> 8.837641e+01
<TRANSP> 5
 0.000000e+00 1.000000e+00 0.000000e+00 0.000000e+00 0.000000e+00
 0.000000e+00 6.991144e-01 3.008856e-01 0.000000e+00 0.000000e+00
 0.000000e+00 0.000000e+00 9.180877e-01 8.191223e-02 0.000000e+00
 0.000000e+00 0.000000e+00 0.000000e+00 8.711458e-01 1.288542e-01
 0.000000e+00 0.000000e+00 0.000000e+00 0.000000e+00 0.000000e+00
<ENDHMM>
~h "zero"
<BEGINHMM>
<NUMSTATES> 5
<STATE> 2
<MEAN> 39
 -6.830606e+00 -1.768944e+00 -4.559320e+00 -7.661500e+00 -2.634457e+00 -4.811768e+00 -2.883179e+00 -8.938262e+00 -3.682418e+00 -4.102907e+00 9.066259e-02 -4.384708e+00 1.567949e+01 2.789598e-01 1.043471e+00 9.710202e-01 -1.155485e+00 -8.331251e-01 -1.408242e+00 -6.214380e-01 -6.054367e-01 3.225565e-01 3.385059e-01 -1.285486e-01 -2.386692e-01 4.910409e-01 3.143116e-02 8.641141e-02 1.772183e-01 -3.542461e-01 -1.680395e-01 -2.193277e-01 6.855614e-03 -1.668514e-02 1.694494e-01 -6.805862e-04 3.192969e-02 -8.850355e-02 8.898208e-02
<VARIANCE> 39
 6.887920e+00 1.045136e+01 1.565677e+01 1.502371e+01 2.143616e+01 2.265504e+01 1.904033e+01 1.982042e+01 2.990254e+01 2.465776e+01 2.227120e+01 2.010115e+01 1.482632e+00 3.189568e-01 4.333867e-01 7.747021e-01 9.633250e-01 8.491479e-01 1.296239e+00 9.715613e-01 1.175587e+00 1.344614e+00 9.732979e-01 1.198881e+00 1.530407e+00 4.348847e-02 4.733811e-02 1.025257e-01 1.298966e-01 1.086114e-01 1.310131e-01 2.201874e-01 1.575417e-01 1.928049e-01 1.616611e-01 1.508378e-01 1.785847e-01 1.657288e-01 6.570818e-03
<GCONST> 7.344404e+01
<STATE> 3
<MEAN> 39
 -5.559469e+00 3.000198e-01 9.571140e-01 -1.695742e+01 -7.877783e+00 -9.172812e+00 -4.568853e+00 -8.432407e+00 1.858676e-01 -3.758700e+00 1.751398e-01 -6.837584e+00 1.841237e+01 3.379669e-01 -7.507542e-01 4.372374e-01 -1.607804e-01 -1.079657e+00 2.705508e-01 2.093086e-01 1.967470e-01 3.174909e-01 -8.017524e-02 4.346290e-02 -1.238417e-01 1.641326e-01 5.214841e-02 -2.685894e-01 -1.739460e-01 3.728443e-01 1.710887e-02 1.336388e-01 1.953730e-01 5.469681e-02 -8.770626e-02 -4.338283e-02 -1.311313e-02 7.217913e-02 -6.442689e-02
<VARIANCE> 39
 7.442601e+00 2.076390e+01 1.738875e+01 2.621264e+01 5.945386e+01 4.067141e+01 3.227995e+01 4.425674e+01 3.106299e+01 3.026915e+01 3.455561e+01 5.110790e+01 1.089955e+00 4.424744e-01 1.616328e+00 8.009385e-01 2.613953e+00 1.743386e+00 2.517726e+00 1.688032e+00 1.422636e+00 1.340297e+00 1.175440e+00 1.105801e+00 1.317635e+00 6.222534e-02 5.135863e-02 1.133413e-01 1.261137e-01 1.800970e-01 2.460860e-01 4.104091e-01 2.257822e-01 2.479161e-01 2.118156e-01 1.741577e-01 1.722638e-01 2.173755e-01 4.567652e-03
<GCONST> 8.703648e+01
<STATE> 4
<MEAN> 39
 -1.602748e+00 -1.052164e+01 -4.392013e+00 -9.806797e+00 -9.691050e+00 -8.044153e+00 5.652024e-01 -4.098261e+00 -1.789300e-01 -6.702046e+00 -1.005573e+00 -5.664306e+00 1.854355e+01 8.283222e-02 1.131894e-02 -5.507946e-01 1.619768e-01 6.686386e-01 -1.772621e-01 -1.795856e-02 2.085698e-01 -6.363461e-02 -1.491321e-01 -9.283150e-02 -7.842054e-03 -5.350006e-02 -5.974499e-02 1.433932e-01 6.328988e-02 -8.662526e-02 8.666870e-02 4.158213e-02 -9.797288e-02 -8.240051e-02 -2.024179e-02 3.438428e-02 2.066413e-02 -8.967865e-03 -1.774884e-02
<VARIANCE> 39
 6.462481e+00 1.771790e+01 2.651480e+01 2.675752e+01 6.265798e+01 5.436935e+01 3.558578e+01 3.641243e+01 4.420977e+01 3.496191e+01 2.491084e+01 3.292865e+01 1.494095e+00 2.243083e-01 8.364780e-01 6.296509e-01 1.036154e+00 1.224810e+00 1.670551e+00 1.527953e+00 1.765951e+00 1.574305e+00 1.377753e+00 1.023275e+00 9.267794e-01 1.573793e-02 2.390545e-02 3.494934e-02 7.635525e-02 1.109644e-01 1.910782e-01 2.324910e-01 1.870722e-01 1.959452e-01 2.165158e-01 1.823228e-01 1.466515e-01 1.334239e-01 1.765247e-03
<GCONST> 7.713077e+01
<TRANSP> 5
 0.000000e+00 1.000000e+00 0.000000e+00 0.000000e+00 0.000000e+00
 0.000000e+00 7.344351e-01 2.655649e-01 0.000000e+00 0.000000e+00
 0.000000e+00 0.000000e+00 8.919427e-01 1.080573e-01 0.000000e+00
 0.000000e+00 0.000000e+00 0.000000e+00 9.396663e-01 6.033373e-02
 0.000000e+00 0.000000e+00 0.000000e+00 0.000000e+00 0.000000e+00
<ENDHMM>
