~o
<STREAMINFO> 1 39
<VECSIZE> 39<NULLD><MFCC_E_D_A><DIAGC>
~s "silst"
<MEAN> 39
 -7.406857e+00 -6.040424e+00 -5.276386e+00 -9.289783e+00 -9.551910e-01 -3.972900e+00 -3.448818e-01 -8.563634e+00 -2.648362e+00 -5.756337e+00 8.234319e-01 -4.345743e+00 1.477186e+01 -2.068110e-01 -1.416454e-01 -2.081998e-01 -5.241045e-02 -5.459912e-02 6.044947e-02 1.725830e-02 9.068821e-02 3.618233e-02 2.910005e-02 7.549559e-02 8.179402e-02 -6.669686e-02 4.495884e-02 3.785630e-02 4.665207e-03 -4.351923e-02 -2.924706e-02 -6.571210e-02 -5.318166e-02 -2.669683e-02 -1.650327e-02 -4.891191e-03 -1.228932e-02 -5.732493e-03 2.778877e-02
<VARIANCE> 39
 6.306278e+00 6.523310e+00 1.012633e+01 1.026502e+01 1.494080e+01 1.522199e+01 1.615721e+01 1.702312e+01 1.855171e+01 1.736580e+01 1.643331e+01 1.453217e+01 9.507741e-01 2.090687e-01 3.239757e-01 4.121637e-01 4.857680e-01 6.122773e-01 7.539358e-01 7.191702e-01 7.476804e-01 7.990489e-01 7.476417e-01 7.363568e-01 6.662623e-01 2.161565e-02 2.960536e-02 5.261031e-02 6.823014e-02 8.507890e-02 1.109630e-01 1.417629e-01 1.291380e-01 1.418584e-01 1.452955e-01 1.284091e-01 1.288691e-01 1.161488e-01 2.945225e-03
<GCONST> 5.774986e+01
~h "eight"
<BEGINHMM>
<NUMSTATES> 5
<STATE> 2
<MEAN> 39
 -8.278586e+00 -2.838393e+00 -5.880167e+00 -1.847320e+01 1.578432e-01 -4.958789e+00 7.585827e-01 -6.789087e+00 -1.569341e+00 -7.542138e+00 -1.827234e+00 -5.807991e+00 1.749037e+01 -1.732807e-01 1.032533e+00 -1.014386e-01 -1.013536e+00 -2.738345e-02 -6.084217e-01 6.918778e-02 4.800195e-01 3.893088e-01 4.583027e-03 -1.241537e-01 -2.345821e-01 3.141351e-01 3.471040e-02 8.271566e-02 4.819153e-03 1.606719e-01 -5.938016e-02 -1.990390e-01 -8.008040e-02 -2.601443e-02 1.625497e-02 9.880982e-02 1.188753e-01 1.416092e-04 -2.201557e-02
<VARIANCE> 39
 8.015442e+00 2.099943e+01 1.921149e+01 3.110825e+01 4.264797e+01 2.244591e+01 2.532610e+01 2.389023e+01 3.081532e+01 2.300676e+01 2.503297e+01 2.572996e+01 3.148465e+00 3.356923e-01 7.338014e-01 6.206425e-01 1.264265e+00 1.168738e+00 1.352874e+00 1.448422e+00 9.741572e-01 1.308546e+00 1.108075e+00 1.095913e+00 9.377217e-01 1.029913e-01 4.093733e-02 7.761821e-02 7.555926e-02 1.892291e-01 1.358318e-01 1.672704e-01 1.480795e-01 1.699802e-01 2.237047e-01 1.588790e-01 1.693301e-01 1.453588e-01 1.242146e-02
<GCONST> 7.903289e+01
<STATE> 3
<MEAN> 39
 -8.334394e+00 5.882071e+00 -5.450022e+00 -1.889009e+01 -2.904033e+00 -1.396064e+01 -1.862365e+00 -6.225749e+00 6.024144e-01 -3.957175e+00 9.246916e-01 -5.587430e+00 1.850431e+01 1.186528e-01 4.124477e-01 2.030276e-01 8.593194e-01 1.273828e-02 -8.348998e-01 -5.965633e-01 -8.405492e-01 -4.170646e-01 2.592598e-01 4.181717e-01 2.257674e-01 -8.761151e-02 4.915938e-02 -3.002076e-01 1.967247e-02 1.768869e-01 8.759315e-02 2.988765e-01 3.328194e-02 -1.356729e-01 -1.856192e-01 -1.494002e-01 -8.411071e-02 3.200835e-02 -6.349548e-02
<VARIANCE> 39
 9.976833e+00 1.148125e+01 2.451710e+01 2.783978e+01 2.029083e+01 2.376695e+01 5.630903e+01 2.770823e+01 3.099013e+01 2.219336e+01 3.278727e+01 2.527441e+01 1.508310e+00 1.865825e-01 5.821230e-01 2.710856e-01 6.228846e-01 8.046824e-01 1.083255e+00 7.421134e-01 8.026353e-01 1.729176e+00 1.071191e+00 1.200186e+00 8.656135e-01 2.742000e-02 2.822824e-02 7.527250e-02 4.991290e-02 1.005507e-01 8.121743e-02 1.597428e-01 1.424024e-01 1.416716e-01 1.746643e-01 1.406931e-01 1.839955e-01 1.393009e-01 3.467018e-03
<GCONST> 6.981205e+01
<STATE> 4
<MEAN> 39
 -6.815852e+00 2.358845e-01 -4.026049e+00 -1.169793e+01 -9.996745e-01 -1.079371e+01 -3.809944e+00 -1.157493e+01 -4.616116e+00 -5.904704e+00 7.184695e-01 -4.550910e+00 1.630409e+01 1.568759e-01 -1.900071e+00 -8.793464e-02 8.309957e-01 1.893396e-01 1.660912e+00 4.356635e-01 1.022322e-01 -1.975551e-01 -3.214365e-01 -8.852341e-02 1.120170e-01 -4.824052e-01 -8.928560e-02 -1.713791e-02 -1.039919e-01 -1.663103e-01 -6.456520e-02 6.262042e-02 1.560033e-01 2.517187e-01 2.039629e-01 8.502064e-02 3.722677e-02 -2.520865e-02 1.049371e-02
<VARIANCE> 39
 5.700911e+00 3.271664e+01 1.388634e+01 1.849944e+01 1.580125e+01 3.945829e+01 3.110648e+01 2.438580e+01 3.611224e+01 2.647958e+01 2.452924e+01 2.294966e+01 2.755659e+00 3.731596e-01 6.854474e-01 6.910607e-01 1.051091e+00 6.656395e-01 1.191833e+00 1.816066e+00 1.457084e+00 2.108282e+00 1.253877e+00 1.380319e+00 1.147618e+00 3.341908e-02 4.096411e-02 2.624560e-01 6.959214e-02 1.215862e-01 9.924459e-02 3.446432e-01 2.044990e-01 2.017178e-01 2.897438e-01 1.762131e-01 1.964722e-01 1.913349e-01 1.123295e-02
<GCONST> 8.020974e+01
<TRANSP> 5
 0.000000e+00 1.000000e+00 0.000000e+00 0.000000e+00 0.000000e+00
 0.000000e+00 8.687642e-01 1.312358e-01 0.000000e+00 0.000000e+00
 0.000000e+00 0.000000e+00 8.603849e-01 1.396151e-01 0.000000e+00
 0.000000e+00 0.000000e+00 0.000000e+00 8.251029e-01 1.748970e-01
 0.000000e+00 0.000000e+00 0.000000e+00 0.000000e+00 0.000000e+00
<ENDHMM>
~h "oh"
<BEGINHMM>
<NUMSTATES> 5
<STATE> 2
<MEAN> 39
 -4.277514e+00 -1.047505e+01 -8.460977e+00 -8.484059e+00 -2.589523e+00 -7.788154e+00 3.715877e+00 -7.250861e+00 -5.291338e+00 -7.163382e+00 -2.482218e+00 -5.429686e+00 1.788713e+01 5.377154e-01 -1.779910e-01 -6.004203e-01 1.525539e-01 9.045813e-02 -6.935142e-01 1.027502e-01 7.294115e-01 9.122438e-03 -4.347263e-01 -3.995402e-01 -1.601218e-01 3.394656e-01 7.291765e-03 1.068603e-01 1.035984e-02 -5.683192e-02 3.512584e-02 1.191971e-03 -1.577005e-01 -1.740612e-03 1.387725e-01 3.514933e-02 -1.155622e-02 -2.822702e-02 -2.545006e-02
<VARIANCE> 39
 8.874702e+00 1.202644e+01 1.646083e+01 1.812806e+01 2.315055e+01 2.460641e+01 3.090553e+01 6.562905e+01 3.913148e+01 3.461057e+01 2.663407e+01 3.184049e+01 2.959026e+00 2.915151e-01 5.628934e-01 6.079022e-01 6.129657e-01 6.594333e-01 8.969294e-01 1.334095e+00 1.737906e+00 1.507908e+00 1.238161e+00 1.239608e+00 1.004779e+00 9.571549e-02 4.003700e-02 6.176239e-02 7.286607e-02 7.766367e-02 8.888192e-02 1.242528e-01 1.548038e-01 2.156480e-01 1.811971e-01 1.951359e-01 1.821984e-01 1.376689e-01 1.302351e-02
<GCONST> 7.661235e+01
<STATE> 3
<MEAN> 39
 -4.603066e-01 -7.947467e+00 -1.323176e+01 -1.026939e+01 -6.790745e-01 -1.207356e+01 -1.210576e+00 -1.031160e+00 5.378124e-01 -7.804124e+00 -5.064100e+00 -6.793556e+00 1.902918e+01 2.106462e-01 4.083955e-01 1.796642e-02 -3.529130e-01 -6.716784e-02 3.174057e-02 -6.543915e-01 -3.243342e-01 6.094112e-01 6.425564e-01 4.448292e-02 -3.314978e-01 -1.590320e-02 -4.461646e-02 1.916414e-02 1.036315e-01 -1.020907e-02 -5.568717e-02 8.695774e-02 2.507547e-02 -1.458853e-01 -9.723765e-02 7.101755e-02 1.205778e-01 2.281987e-02 -2.509891e-02
<VARIANCE> 39
 6.095290e+00 9.040811e+00 1.492860e+01 1.568972e+01 1.872046e+01 2.318668e+01 4.224180e+01 3.095956e+01 3.857204e+01 3.700657e+01 3.161735e+01 3.898160e+01 1.243364e+00 8.260573e-02 1.418686e-01 2.832317e-01 2.891785e-01 3.947205e-01 5.129558e-01 7.187621e-01 1.027678e+00 7.662820e-01 8.454701e-01 8.547435e-01 6.981466e-01 1.278335e-02 1.135253e-02 1.453547e-02 3.431686e-02 3.524808e-02 4.736376e-02 7.004072e-02 8.060314e-02 9.713317e-02 1.068104e-01 1.032014e-01 9.231885e-02 8.833414e-02 1.170273e-03
<GCONST> 5.277869e+01
<STATE> 4
<MEAN> 39
 -4.076572e-01 -3.501946e+00 -8.404333e+00 -1.264258e+01 -3.676836e+00 -9.619941e+00 -4.422788e+00 -7.988315e+00 -1.544415e-01 -3.230539e+00 5.394447e-02 -6.655609e+00 1.812642e+01 -5.395964e-01 1.370710e-01 7.996064e-01 2.867426e-01 8.514932e-03 5.748219e-01 3.634007e-01 -4.648759e-01 -5.642073e-01 -1.959292e-01 4.172600e-01 4.764594e-01 -3.022342e-01 -1.271390e-01 -1.303754e-01 -2.904714e-02 9.011107e-02 1.071184e-01 9.277315e-02 1.570491e-01 1.027746e-01 -4.969166e-02 -1.239704e-01 -7.437341e-02 5.223653e-02 -3.993144e-02
<VARIANCE> 39
 7.550144e+00 7.041798e+00 2.187479e+01 1.777460e+01 1.919732e+01 2.667926e+01 3.071575e+01 2.771148e+01 3.214775e+01 4.107246e+01 3.907718e+01 3.633485e+01 2.004333e+00 3.275383e-01 4.482393e-01 4.949326e-01 6.055594e-01 9.051142e-01 1.195697e+00 1.257872e+00 1.303634e+00 1.273215e+00 1.264415e+00 1.311784e+00 1.157213e+00 4.423083e-02 2.799956e-02 4.132927e-02 8.958317e-02 8.601869e-02 1.090443e-01 1.671299e-01 1.783077e-01 2.028330e-01 2.167621e-01 2.086288e-01 1.769225e-01 1.685575e-01 3.602441e-03
<GCONST> 7.377670e+01
<TRANSP> 5
 0.000000e+00 1.000000e+00 0.000000e+00 0.000000e+00 0.000000e+00
 0.000000e+00 8.820617e-01 1.179383e-01 0.000000e+00 0.000000e+00
 0.000000e+00 0.000000e+00 8.978293e-01 1.021707e-01 0.000000e+00
 0.000000e+00 0.000000e+00 0.000000e+00 8.740816e-01 1.259184e-01
 0.000000e+00 0.000000e+00 0.000000e+00 0.000000e+00 0.000000e+00
<ENDHMM>
~h "sp"
<BEGINHMM>
<NUMSTATES> 5
<STATE> 2
~s "silst"
<STATE> 3
<MEAN> 39
 -8.337969e+00 -4.906410e+00 -6.249416e+00 -8.831267e+00 -1.975092e+00 -3.792291e+00 -1.245515e+00 -8.253267e+00 -2.869148e+00 -5.346733e+00 5.807452e-01 -4.107301e+00 1.496827e+01 -3.579552e-01 -1.391857e-01 -3.212058e-01 3.017429e-02 8.926594e-02 2.713608e-01 1.414709e-01 9.107798e-02 2.100741e-02 5.031270e-02 5.857552e-02 1.510202e-01 -1.139607e-01 1.598923e-01 7.656099e-02 9.763094e-02 -1.025059e-01 -1.024476e-01 -1.990946e-01 -6.784631e-02 -2.920668e-02 -2.263818e-03 -1.849001e-02 -6.547009e-02 -7.144494e-02 9.718430e-02
<VARIANCE> 39
 1.043472e+01 1.090503e+01 1.495778e+01 1.443914e+01 1.835097e+01 1.925465e+01 1.803121e+01 1.972813e+01 2.033730e+01 1.943349e+01 1.820055e+01 1.558072e+01 1.360050e+00 5.517521e-01 5.964211e-01 7.900133e-01 6.605275e-01 9.132166e-01 1.128616e+00 9.270288e-01 1.055950e+00 1.131242e+00 9.913442e-01 9.441467e-01 7.832203e-01 7.237495e-02 7.050907e-02 1.074652e-01 1.344527e-01 1.349765e-01 1.698082e-01 1.899932e-01 1.759368e-01 2.007007e-01 1.964686e-01 1.741796e-01 1.608104e-01 1.307000e-01 6.954423e-03
<GCONST> 7.302180e+01
<STATE> 4
<MEAN> 39
 -7.402811e+00 -5.524130e+00 -5.382467e+00 -9.490536e+00 -1.200005e+00 -4.469247e+00 -9.453434e-01 -8.690505e+00 -3.015735e+00 -5.647734e+00 8.345703e-01 -4.155825e+00 1.523366e+01 7.644305e-01 3.057089e-01 1.992036e-01 -5.990344e-01 -5.254425e-01 -7.782501e-01 -1.506958e-01 -8.107902e-03 6.030915e-02 -2.248550e-02 -3.622980e-01 -2.970447e-01 4.567655e-01 2.014063e-01 3.930671e-02 -3.657473e-02 -2.188139e-01 -2.157892e-01 -1.967181e-01 4.185305e-03 5.897540e-02 3.852335e-02 -6.640108e-03 -1.380098e-01 -1.226121e-01 1.474594e-01
<VARIANCE> 39
 7.703215e+00 8.612864e+00 1.143231e+01 1.194831e+01 1.492812e+01 1.525055e+01 1.736633e+01 1.838258e+01 2.109746e+01 1.898288e+01 1.936409e+01 1.754940e+01 1.538269e+00 6.289635e-01 6.739042e-01 1.130496e+00 1.018866e+00 1.150834e+00 1.188648e+00 1.129337e+00 1.462044e+00 1.245791e+00 1.235729e+00 1.149455e+00 1.061972e+00 6.404758e-02 6.777871e-02 1.024708e-01 1.623889e-01 1.594971e-01 1.889229e-01 1.895968e-01 1.717203e-01 2.093940e-01 2.007027e-01 1.819522e-01 1.928493e-01 1.902387e-01 5.704582e-03
<GCONST> 7.515557e+01
<TRANSP> 5
 0.000000e+00 4.299498e-01 5.700502e-01 0.000000e+00 0.000000e+00
 0.000000e+00 9.251039e-01 7.489611e-02 0.000000e+00 0.000000e+00
 0.000000e+00 0.000000e+00 7.620823e-01 2.379177e-01 0.000000e+00
 0.000000e+00 0.000000e+00 0.000000e+00 5.094964e-01 4.905036e-01
 0.000000e+00 0.000000e+00 0.000000e+00 0.000000e+00 0.000000e+00
<ENDHMM>
~h "seven"
<BEGINHMM>
<NUMSTATES> 5
<STATE> 2
<MEAN> 39
 -5.638449e+00 -4.257586e+00 -4.947690e+00 -1.408714e+01 -7.641810e+00 -6.993197e+00 2.320420e+00 -7.875134e+00 -1.550128e+00 -5.193585e+00 -3.270791e+00 -6.542132e+00 1.748493e+01 3.541412e-01 -2.925418e-01 1.402822e-01 -1.203949e+00 -6.714994e-01 -2.495563e-02 1.022695e+00 2.055628e-02 6.292728e-02 -4.081109e-01 -7.281773e-01 -5.999616e-01 6.530250e-01 -1.917316e-01 -1.727824e-01 -1.844167e-01 1.847658e-01 2.850495e-01 3.129469e-01 -4.164451e-02 1.651090e-02 -1.546969e-01 -9.985322e-02 1.254497e-01 1.120525e-01 -5.545565e-02
<VARIANCE> 39
 1.166470e+01 7.473623e+00 1.104325e+01 2.996549e+01 3.263443e+01 3.150688e+01 2.997930e+01 2.654336e+01 2.980533e+01 6.491022e+01 2.685406e+01 2.727459e+01 4.054237e+00 6.701737e-01 5.828276e-01 7.077056e-01 1.005681e+00 1.853270e+00 1.853076e+00 1.373314e+00 1.177635e+00 1.487654e+00 1.944149e+00 1.230507e+00 1.559708e+00 7.880044e-02 8.839051e-02 6.480175e-02 9.088777e-02 2.313323e-01 2.747245e-01 2.187917e-01 1.939956e-01 1.465800e-01 1.657493e-01 3.154679e-01 1.967514e-01 2.051528e-01 2.991262e-02
<GCONST> 8.566677e+01
<STATE> 3
<MEAN> 39
 -6.156574e+00 -8.623822e+00 -5.704364e+00 -1.565821e+01 -4.656476e+00 -2.921670e+00 5.214234e+00 -8.923926e+00 -3.423855e+00 -7.425194e+00 -3.701145e+00 -5.905685e+00 1.909543e+01 1.824798e-01 -1.549358e-01 1.892130e-01 6.545814e-01 1.686051e-01 -2.680470e-01 -2.251664e-01 3.415304e-01 -3.859990e-01 2.029358e-01 3.000321e-01 1.176124e-01 -1.332946e-01 9.715078e-02 2.253164e-01 1.480023e-01 2.392169e-01 -3.125810e-02 -2.840688e-01 -2.900082e-01 7.069231e-02 7.811040e-02 5.668824e-02 1.518562e-01 -3.037616e-02 -1.140115e-01
<VARIANCE> 39
 9.222890e+00 8.982968e+00 8.478526e+00 1.597377e+01 4.688376e+01 3.261666e+01 3.206304e+01 4.225724e+01 5.055989e+01 4.372937e+01 3.477755e+01 3.270436e+01 1.235839e+00 3.295054e-01 5.728602e-01 3.817646e-01 6.256484e-01 1.213094e+00 1.473630e+00 1.335883e+00 9.780180e-01 1.210491e+00 1.632689e+00 1.647801e+00 9.420075e-01 5.931666e-02 4.408589e-02 4.139679e-02 4.893153e-02 9.549771e-02 2.046097e-01 1.424096e-01 1.872532e-01 1.694054e-01 1.958985e-01 1.763607e-01 2.449486e-01 1.694354e-01 4.666246e-03
<GCONST> 7.596788e+01
<STATE> 4
<MEAN> 39
 -3.176616e+00 -3.748296e+00 -1.805762e+00 -9.512410e+00 -3.484609e+00 -7.883073e+00 -9.093757e-01 -8.535995e+00 -4.153259e+00 -6.841979e+00 -1.793656e+00 -6.983316e+00 1.710883e+01 1.962779e-02 2.479542e-01 1.318451e-01 2.302454e-01 3.552901e-01 9.271693e-02 -3.169435e-01 -2.722797e-01 7.895776e-02 -3.557085e-02 1.324857e-01 4.433222e-02 -1.221137e-01 -5.608694e-02 -7.473192e-02 -7.258198e-02 -8.320241e-02 -1.285275e-02 1.012481e-01 1.071759e-01 -8.516734e-03 2.022382e-02 1.610028e-02 -3.425099e-02 2.578233e-02 1.251308e-02
<VARIANCE> 39
 4.936057e+00 1.056172e+01 9.805508e+00 1.395392e+01 2.766393e+01 3.122464e+01 2.597445e+01 4.034716e+01 3.305224e+01 3.547184e+01 3.322945e+01 2.879221e+01 1.560855e+00 2.391962e-01 5.050740e-01 5.368831e-01 8.696913e-01 1.309598e+00 1.254459e+00 1.626150e+00 1.296813e+00 1.396943e+00 1.380659e+00 1.265380e+00 9.832626e-01 9.387280e-02 3.598572e-02 7.605107e-02 8.689258e-02 1.467328e-01 2.312670e-01 2.037127e-01 2.728617e-01 2.259278e-01 2.302802e-01 2.347872e-01 2.141207e-01 1.475706e-01 1.418579e-02
<GCONST> 7.878578e+01
<TRANSP> 5
 0.000000e+00 1.000000e+00 0.000000e+00 0.000000e+00 0.000000e+00
 0.000000e+00 7.960230e-01 2.039771e-01 0.000000e+00 0.000000e+00
 0.000000e+00 0.000000e+00 8.526150e-01 1.473850e-01 0.000000e+00
 0.000000e+00 0.000000e+00 0.000000e+00 9.380553e-01 6.194470e-02
 0.000000e+00 0.000000e+00 0.000000e+00 0.000000e+00 0.000000e+00
<ENDHMM>
~h "three"
<BEGINHMM>
<NUMSTATES> 5
<STATE> 2
<MEAN> 39
 -2.877614e+00 -7.021431e+00 -2.475504e-01 -8.855424e+00 -1.066880e+01 -1.115409e+01 -1.170821e+00 -8.741009e+00 -1.745828e+00 -5.024096e+00 -1.896018e-01 -5.329675e+00 1.745694e+01 4.768859e-01 -1.493642e-01 9.419442e-01 -2.511785e-01 -1.596607e+00 -8.578686e-02 -2.225769e-01 -2.542681e-01 4.185919e-01 1.142124e-01 -2.598249e-02 -2.373586e-01 3.684355e-01 -1.906658e-01 1.240058e-01 2.609087e-03 -3.064748e-01 2.278054e-01 3.308179e-01 -1.729393e-01 1.162147e-02 8.211154e-02 -2.553771e-02 4.197089e-02 4.339706e-03 -3.467019e-02
<VARIANCE> 39
 1.104730e+01 1.275609e+01 1.664149e+01 2.975956e+01 5.101385e+01 4.929553e+01 2.287673e+01 2.655734e+01 2.762101e+01 2.588131e+01 3.340335e+01 3.211473e+01 2.624939e+00 7.694176e-01 6.810657e-01 8.083840e-01 2.069747e+00 1.910978e+00 3.458053e+00 1.406102e+00 1.561336e+00 1.237942e+00 1.082805e+00 1.348467e+00 1.259775e+00 5.966114e-02 1.124538e-01 1.444280e-01 1.320437e-01 2.986436e-01 4.585868e-01 4.271091e-01 2.913856e-01 2.403564e-01 1.923430e-01 1.815317e-01 1.979186e-01 1.896610e-01 9.846560e-03
<GCONST> 8.923172e+01
<STATE> 3
<MEAN> 39
 -5.010222e+00 -3.668454e+00 5.637601e+00 -1.885665e+01 -1.260031e+01 -4.209927e+00 -8.613544e+00 -8.842834e+00 2.057113e+00 -5.688549e+00 1.262878e+00 -5.892346e+00 1.866283e+01 -8.457880e-01 1.783442e+00 -2.398576e-01 -1.749406e+00 2.334640e+00 -7.866512e-02 -1.495699e+00 9.137135e-01 -4.054627e-01 -2.369256e-01 1.171848e-01 8.342170e-03 -1.906700e-02 3.977555e-02 1.274789e-01 -4.636444e-01 5.076507e-01 4.124298e-01 -6.706351e-01 4.202889e-01 6.744309e-02 -3.781088e-01 7.146801e-02 -6.040497e-02 4.028732e-02 -5.550804e-02
<VARIANCE> 39
 7.840138e+00 2.402504e+01 1.134798e+01 3.292944e+01 6.007814e+01 2.868781e+01 4.289592e+01 6.399654e+01 2.415954e+01 2.768410e+01 3.668341e+01 2.954257e+01 1.285740e+00 2.566694e-01 6.226227e-01 1.052281e+00 1.769258e+00 1.457895e+00 3.687433e+00 1.989252e+00 1.396566e+00 1.440532e+00 1.071977e+00 7.551919e-01 7.940753e-01 2.140181e-02 5.340241e-02 1.605424e-01 9.349849e-02 2.536564e-01 5.090748e-01 2.377113e-01 4.036693e-01 3.783880e-01 1.626681e-01 1.496602e-01 1.323845e-01 1.098463e-01 2.308815e-03
<GCONST> 8.301533e+01
<STATE> 4
<MEAN> 39
 -6.343226e+00 3.371992e+00 -1.722211e+00 -1.539885e+01 -1.335793e+00 -1.188241e+01 -5.205832e+00 -8.535429e+00 -3.588721e+00 -5.409949e+00 -6.346284e-01 -6.450262e+00 1.767145e+01 8.216251e-02 -2.862387e-01 -5.383806e-01 9.097903e-01 3.978114e-01 1.032992e-01 6.973137e-01 -2.540349e-01 -1.829714e-01 -6.034441e-03 -6.733447e-02 5.404917e-02 -2.163795e-01 2.074851e-02 -2.671812e-01 4.860434e-02 4.075873e-02 -1.977960e-01 2.512934e-01 4.993265e-02 -6.961147e-03 1.311411e-01 -1.022625e-02 4.246119e-02 2.660428e-02 -2.613445e-02
<VARIANCE> 39
 7.829171e+00 1.673674e+01 1.536563e+01 3.282148e+01 2.251155e+01 2.697841e+01 4.462297e+01 4.281126e+01 3.184345e+01 4.063861e+01 4.127893e+01 3.716517e+01 1.721533e+00 2.601021e-01 1.469553e+00 6.666231e-01 8.553620e-01 1.192469e+00 2.239912e+00 1.376550e+00 1.512442e+00 1.348033e+00 1.261008e+00 1.066989e+00 9.785222e-01 3.599412e-02 4.557628e-02 9.935433e-02 8.167232e-02 1.640264e-01 1.850925e-01 1.894070e-01 1.995707e-01 2.179845e-01 1.772598e-01 1.727733e-01 1.467271e-01 1.381509e-01 2.774766e-03
<GCONST> 7.975848e+01
<TRANSP> 5
 0.000000e+00 1.000000e+00 0.000000e+00 0.000000e+00 0.000000e+00
 0.000000e+00 8.711824e-01 1.288176e-01 0.000000e+00 0.000000e+00
 0.000000e+00 0.000000e+00 7.870976e-01 2.129025e-01 0.000000e+00
 0.000000e+00 0.000000e+00 0.000000e+00 9.089448e-01 9.105521e-02
 0.000000e+00 0.000000e+00 0.000000e+00 0.000000e+00 0.000000e+00
<ENDHMM>
~h "one"
<BEGINHMM>
<NUMSTATES> 5
<STATE> 2
<MEAN> 39
 -6.790890e-01 -3.063002e+00 -8.048759e+00 -1.370858e+01 -2.774219e+00 -6.017241e+00 -1.137156e+00 -8.693049e+00 -3.172204e+00 -6.727047e+00 -1.106093e+00 -6.752069e+00 1.756168e+01 4.323500e-01 -2.526235e-01 -1.033539e+00 7.350541e-02 4.861429e-01 3.125213e-01 -1.549517e-01 8.252393e-02 1.537972e-01 -1.775333e-01 -3.294395e-01 -3.671910e-01 2.786442e-01 -1.153377e-01 -1.893543e-01 -4.758469e-02 3.159183e-01 1.436517e-01 -5.456748e-02 -1.206311e-01 4.824166e-02 5.315894e-02 -5.555826e-02 -3.464150e-02 2.669626e-02 -1.795740e-02
<VARIANCE> 39
 8.313807e+00 6.973870e+00 2.324425e+01 1.959542e+01 2.388866e+01 2.488469e+01 1.850983e+01 2.007426e+01 2.501277e+01 2.391790e+01 2.846162e+01 2.731777e+01 2.270155e+00 3.836254e-01 7.517885e-01 8.281640e-01 1.682529e+00 1.516633e+00 1.211231e+00 1.243668e+00 9.828343e-01 1.070715e+00 9.578429e-01 1.051412e+00 1.021898e+00 4.503227e-02 5.027198e-02 5.876171e-02 1.480294e-01 2.290660e-01 1.868943e-01 2.508352e-01 1.950587e-01 1.720627e-01 1.786175e-01 1.718474e-01 1.863611e-01 1.685282e-01 5.831949e-03
<GCONST> 7.717596e+01
<STATE> 3
<MEAN> 39
 -1.296191e+00 -9.418004e+00 -1.326363e+01 -4.001400e+00 2.094323e+00 -7.738491e+00 -4.951289e+00 -5.394824e+00 -1.427624e+00 -1.055011e+01 -3.756705e+00 -6.921761e+00 1.859604e+01 -5.822052e-01 -8.068427e-01 7.874107e-01 1.522590e+00 -7.701851e-01 -9.552557e-01 5.622385e-01 6.414257e-01 -6.006327e-01 -7.352327e-01 2.742487e-01 4.264820e-01 -5.253237e-03 -4.985646e-02 2.141749e-01 4.223979e-01 -3.945366e-01 -4.507641e-01 1.411309e-01 4.069318e-01 -2.362358e-01 -2.509905e-01 2.152344e-01 2.198075e-01 -4.678844e-02 -3.105626e-02
<VARIANCE> 39
 5.549771e+00 1.038206e+01 1.613966e+01 3.113815e+01 2.021659e+01 2.720870e+01 2.828797e+01 3.474353e+01 4.304777e+01 3.935615e+01 2.926928e+01 3.313993e+01 1.498287e+00 1.320711e-01 3.933185e-01 8.560955e-01 1.280333e+00 1.432218e+00 9.663118e-01 1.983023e+00 1.328377e+00 1.647393e+00 1.162572e+00 1.459914e+00 9.890749e-01 8.879837e-03 2.311282e-02 4.903729e-02 9.357484e-02 1.899218e-01 1.749694e-01 2.847239e-01 1.955867e-01 3.100986e-01 2.324835e-01 2.637438e-01 1.878806e-01 2.280965e-01 9.788254e-04
<GCONST> 7.510329e+01
<STATE> 4
<MEAN> 39
 -3.825059e+00 -5.608974e+00 -2.279291e+00 -7.651915e+00 -3.653738e+00 -6.868917e+00 -1.706100e+00 -1.128648e+01 -5.663082e+00 -8.956063e+00 -2.243479e+00 -8.124546e+00 1.779544e+01 -6.481728e-02 5.870050e-01 5.352799e-01 -5.621191e-01 1.378858e-01 2.821115e-01 -1.718790e-01 -4.595058e-01 5.666357e-02 3.778091e-01 3.481822e-02 4.957053e-02 -1.631125e-01 8.691132e-03 -3.321321e-02 -1.854442e-01 1.009961e-02 1.586954e-01 3.460819e-02 -8.358623e-02 1.010410e-01 1.177740e-01 -2.719019e-02 -2.399080e-02 5.913920e-02 -1.947750e-02
<VARIANCE> 39
 6.584768e+00 2.615831e+01 1.423543e+01 2.709661e+01 2.027973e+01 4.009225e+01 3.572970e+01 3.953342e+01 3.909402e+01 4.448798e+01 3.342140e+01 3.583388e+01 1.382988e+00 3.448704e-01 8.918923e-01 1.176294e+00 1.155472e+00 1.302470e+00 1.893718e+00 1.574270e+00 1.627924e+00 1.602123e+00 1.522138e+00 1.091274e+00 1.119838e+00 2.395363e-02 5.395219e-02 1.367420e-01 8.286683e-02 1.967454e-01 1.984237e-01 2.917688e-01 2.831024e-01 2.170346e-01 2.506919e-01 2.400188e-01 1.879017e-01 1.652734e-01 2.625094e-03
<GCONST> 8.305116e+01
<TRANSP> 5
 0.000000e+00 1.000000e+00 0.000000e+00 0.000000e+00 0.000000e+00
 0.000000e+00 8.766275e-01 1.233725e-01 0.000000e+00 0.000000e+00
 0.000000e+00 0.000000e+00 8.243554e-01 1.756447e-01 0.000000e+00
 0.000000e+00 0.000000e+00 0.000000e+00 9.203675e-01 7.963246e-02
 0.000000e+00 0.000000e+00 0.000000e+00 0.000000e+00 0.000000e+00
<ENDHMM>
~h "sil"
<BEGINHMM>
<NUMSTATES> 5
<STATE> 2
<MEAN> 39
 -6.708693e+00 -6.825922e+00 -5.042775e+00 -9.251252e+00 -3.720536e-01 -3.854175e+00 -1.826218e-01 -8.933872e+00 -2.859683e+00 -5.694232e+00 8.025382e-01 -4.113378e+00 1.457905e+01 -4.216421e-02 -1.789280e-03 1.063554e-02 6.803863e-02 8.089828e-02 6.031223e-02 6.294872e-02 5.669681e-03 -1.800762e-03 1.639015e-02 2.207406e-02 1.937179e-02 -1.386828e-02 -3.166375e-02 -4.357783e-02 -8.398668e-02 -9.739385e-02 -7.991309e-02 -6.476452e-02 -2.487946e-02 4.129040e-02 1.141603e-02 -2.691360e-04 6.813433e-03 7.483284e-03 1.302495e-03
<VARIANCE> 39
 2.963698e+00 3.528429e+00 5.108390e+00 7.286532e+00 1.238021e+01 1.344906e+01 1.452687e+01 1.542447e+01 1.494852e+01 1.376368e+01 1.600763e+01 1.239193e+01 1.114487e+00 6.756803e-02 1.453114e-01 2.552541e-01 3.588706e-01 4.877824e-01 6.401518e-01 6.526824e-01 6.962938e-01 6.807635e-01 5.727170e-01 6.380564e-01 5.507654e-01 4.952565e-03 9.106677e-03 2.061818e-02 3.555117e-02 4.841622e-02 8.014201e-02 1.102360e-01 1.076153e-01 1.234519e-01 1.084177e-01 9.376221e-02 1.095130e-01 9.880427e-02 5.889331e-04
<GCONST> 4.208412e+01
<STATE> 3
~s "silst"
<STATE> 4
<MEAN> 39
 -7.616211e+00 -7.580523e+00 -6.909276e+00 -1.136490e+01 -1.812093e+00 -5.015566e+00 -6.423928e-01 -8.226354e+00 -2.467192e+00 -5.443473e+00 1.293258e+00 -3.945589e+00 1.448499e+01 2.896829e-02 3.025062e-02 -4.446358e-03 -5.250985e-02 -7.647263e-02 -4.389859e-02 -6.877019e-02 -3.089061e-02 -1.685581e-02 -5.590349e-04 -3.386100e-02 -3.551409e-02 7.894253e-03 4.421081e-02 7.485384e-02 1.233447e-01 1.368699e-01 1.019431e-01 8.485730e-02 3.266431e-02 -3.188320e-02 -4.473896e-03 -4.373022e-03 -3.162638e-02 -2.474547e-02 9.080650e-03
<VARIANCE> 39
 3.262599e+00 3.878686e+00 5.749088e+00 7.466592e+00 1.158130e+01 1.359930e+01 1.503079e+01 1.619477e+01 1.802665e+01 1.474342e+01 1.478863e+01 1.404434e+01 9.945679e-01 6.478288e-02 1.561640e-01 2.725469e-01 4.004770e-01 4.851023e-01 6.733691e-01 6.128820e-01 7.480702e-01 7.037696e-01 5.762925e-01 7.032361e-01 6.231371e-01 2.732199e-03 1.268132e-02 2.573333e-02 3.699006e-02 5.664805e-02 7.677047e-02 1.175808e-01 1.062679e-01 1.272155e-01 1.352167e-01 9.751948e-02 1.139085e-01 1.125713e-01 1.099023e-03
<GCONST> 4.439946e+01
<TRANSP> 5
 0.000000e+00 1.000000e+00 0.000000e+00 0.000000e+00 0.000000e+00
 0.000000e+00 7.751654e-01 5.310762e-02 1.717270e-01 0.000000e+00
 0.000000e+00 0.000000e+00 8.043827e-01 1.956172e-01 0.000000e+00
 0.000000e+00 2.022355e-01 0.000000e+00 7.159589e-01 8.180557e-02
 0.000000e+00 0.000000e+00 0.000000e+00 0.000000e+00 0.000000e+00
<ENDHMM>
~h "six"
<BEGINHMM>
<NUMSTATES> 5
<STATE> 2
<MEAN> 39
 -8.340165e+00 -4.091947e+00 -6.515246e+00 -9.073182e+00 -3.466243e+00 -4.724380e+00 -1.951453e+00 -8.350048e+00 -3.480534e+00 -3.806685e+00 -6.327552e-02 -3.162633e+00 1.512133e+01 7.011797e-01 7.006264e-01 1.284721e+00 -1.527174e+00 -1.277431e+00 -1.305278e+00 9.178009e-02 -1.134600e-01 4.741950e-01 3.711891e-01 -5.740309e-01 -5.656652e-01 6.818865e-01 2.859802e-02 1.058004e-01 1.910782e-01 -4.711655e-01 -2.548210e-01 -1.192639e-01 3.656733e-02 9.624429e-02 1.995400e-01 -1.988359e-02 -1.311347e-01 -2.495329e-01 1.346821e-01
<VARIANCE> 39
 7.740023e+00 7.771220e+00 1.250374e+01 1.115212e+01 2.035275e+01 2.165579e+01 1.559882e+01 1.729632e+01 2.077302e+01 3.293069e+01 1.899851e+01 1.704803e+01 2.167557e+00 3.378005e-01 4.799359e-01 8.547277e-01 1.118946e+00 1.152930e+00 1.343402e+00 1.046922e+00 8.240400e-01 1.467497e+00 2.378685e+00 1.159369e+00 1.387683e+00 6.808151e-02 6.294670e-02 5.581005e-02 1.161014e-01 9.710684e-02 1.959568e-01 2.102102e-01 1.495819e-01 1.789767e-01 1.835235e-01 2.462716e-01 1.713359e-01 1.647054e-01 1.015485e-02
<GCONST> 7.474365e+01
<STATE> 3
<MEAN> 39
 -6.456455e+00 -1.047511e+00 -9.501584e-01 -2.011789e+01 -7.754541e+00 -8.692795e+00 -2.342390e+00 -6.337540e+00 2.725006e-01 -3.806914e+00 -2.493836e+00 -7.314167e+00 1.831800e+01 1.492145e-02 -1.010342e-01 2.059205e-01 -2.578044e-01 4.039138e-01 2.289392e-01 -2.751706e-01 1.618922e-01 3.487255e-02 -2.043037e-01 1.890136e-01 2.459177e-02 -6.053451e-02 -5.455992e-02 -2.059006e-01 -2.633460e-01 4.897784e-01 2.868715e-01 2.163348e-01 6.673028e-02 -9.205668e-02 -1.487209e-01 -5.895013e-02 1.491463e-01 1.673682e-01 -1.665072e-01
<VARIANCE> 39
 7.772854e+00 9.913272e+00 1.739697e+01 2.296041e+01 5.879908e+01 3.095114e+01 3.802652e+01 2.456460e+01 3.459954e+01 5.747571e+01 3.541956e+01 3.730994e+01 1.452816e+00 3.488151e-01 6.447999e-01 1.059573e+00 3.184363e+00 2.300131e+00 1.715149e+00 1.731930e+00 1.348894e+00 1.882421e+00 1.984035e+00 1.845308e+00 1.860559e+00 2.840741e-01 6.758963e-02 6.627396e-02 1.623661e-01 2.236388e-01 3.059806e-01 3.202866e-01 3.826904e-01 2.251037e-01 2.867795e-01 3.371810e-01 2.646817e-01 2.534687e-01 1.177128e-02
<GCONST> 9.177254e+01
<STATE> 4
<MEAN> 39
 -6.580143e+00 -6.260600e+00 -4.675387e+00 -1.080024e+01 -9.575823e-01 -3.956684e+00 -1.367565e+00 -8.799615e+00 -2.155927e+00 -5.842638e+00 1.144572e+00 -4.229092e+00 1.476011e+01 -2.158898e-01 -9.303000e-01 -9.817861e-01 1.467183e+00 4.230322e-01 4.284140e-01 9.050400e-01 -4.483110e-01 -2.875663e-01 -5.811291e-02 1.881906e-01 2.933387e-01 -4.676027e-01 -1.012509e-01 1.679006e-01 2.028955e-01 -4.380757e-01 -3.733720e-01 -1.676032e-01 -8.163085e-02 1.801576e-01 1.179442e-01 1.056516e-01 -1.821490e-01 -1.427703e-01 1.495361e-01
<VARIANCE> 39
 3.308326e+00 5.255297e+00 9.554306e+00 1.113517e+01 1.481677e+01 1.633536e+01 2.000873e+01 1.855992e+01 1.690468e+01 1.719151e+01 1.860507e+01 1.495041e+01 1.472962e+00 2.487394e-01 4.831667e-01 9.153627e-01 1.296761e+00 2.094098e+00 1.698792e+00 1.601544e+00 1.260689e+00 1.211715e+00 1.209049e+00 1.191637e+00 1.014572e+00 7.718495e-02 3.874666e-02 6.302897e-02 1.378693e-01 1.468588e-01 2.335371e-01 1.886382e-01 2.652288e-01 1.880363e-01 1.854119e-01 1.736414e-01 2.006074e-01 1.827517e-01 5.668965e-03
<GCONST> 7.237825e+01
<TRANSP> 5
 0.000000e+00 1.000000e+00 0.000000e+00 0.000000e+00 0.000000e+00
 0.000000e+00 6.815781e-01 3.184218e-01 0.000000e+00 0.000000e+00
 0.000000e+00 0.000000e+00 8.892475e-01 1.107525e-01 0.000000e+00
 0.000000e+00 0.000000e+00 0.000000e+00 7.509139e-01 2.490862e-01
 0.000000e+00 0.000000e+00 0.000000e+00 0.000000e+00 0.000000e+00
<ENDHMM>
~h "two"
<BEGINHMM>
<NUMSTATES> 5
<STATE> 2
<MEAN> 39
 -1.109784e+01 -2.991699e+00 -6.706026e+00 -1.069976e+01 -1.102747e+00 -3.928515e+00 -2.141306e+00 -7.481516e+00 -2.212967e+00 -5.563913e+00 1.144461e+00 -3.415262e+00 1.514372e+01 5.013418e-01 6.464688e-01 1.021150e+00 -5.992360e-01 -3.057576e-01 -3.766182e-01 -4.972436e-01 -1.906845e-01 2.581873e-02 -4.952002e-02 -2.526836e-01 -3.765851e-01 3.319518e-01 2.936236e-01 4.295028e-02 2.806863e-01 -1.156512e-01 -1.857879e-01 -2.204330e-01 -1.030606e-01 -1.238002e-01 -3.731337e-02 3.255553e-04 -7.206298e-02 -1.525533e-01 8.622728e-02
<VARIANCE> 39
 9.579515e+00 7.845686e+00 1.333846e+01 1.234669e+01 1.899711e+01 2.334173e+01 1.971809e+01 2.147353e+01 2.144790e+01 2.439759e+01 2.513098e+01 1.966268e+01 9.514787e-01 1.453176e+00 5.820623e-01 1.363183e+00 8.505910e-01 1.401166e+00 1.337022e+00 9.914985e-01 1.201026e+00 1.207738e+00 1.322901e+00 1.962245e+00 1.090554e+00 7.581635e-02 1.354503e-01 1.149809e-01 1.396965e-01 1.222705e-01 2.397152e-01 2.042629e-01 1.812471e-01 2.266208e-01 2.305881e-01 2.017446e-01 3.679840e-01 1.618650e-01 8.153208e-03
<GCONST> 7.995089e+01
<STATE> 3
<MEAN> 39
 -4.636345e+00 1.340367e+00 1.937870e+00 -1.559957e+01 -7.055911e+00 -9.994143e+00 -6.844485e+00 -1.050800e+01 -2.481478e+00 -5.223372e+00 -1.152417e+00 -7.350925e+00 1.842706e+01 6.614149e-01 5.418276e-01 7.428443e-01 -5.402949e-01 -1.164563e+00 -1.106274e+00 -5.708614e-01 -2.927658e-01 -7.563455e-02 1.170669e-01 -2.225833e-01 -6.435399e-01 4.500797e-01 -2.488940e-01 -2.396125e-01 -4.309262e-01 3.063903e-01 2.779795e-01 2.378233e-01 2.455500e-01 1.490992e-01 -1.754226e-02 -6.513488e-03 1.558348e-01 1.891167e-01 -1.467589e-01
<VARIANCE> 39
 7.477424e+00 7.997315e+00 1.360293e+01 2.213744e+01 3.982197e+01 2.526994e+01 2.817006e+01 2.446977e+01 3.152477e+01 5.454192e+01 4.398779e+01 4.866385e+01 1.038641e+00 5.650767e-01 6.146973e-01 9.660981e-01 1.425769e+00 1.260783e+00 1.178861e+00 1.680006e+00 1.505262e+00 1.852629e+00 1.989599e+00 2.375854e+00 1.845774e+00 8.905753e-02 6.271654e-02 5.188918e-02 8.001959e-02 1.230601e-01 2.021449e-01 1.753762e-01 2.016581e-01 1.892689e-01 2.102444e-01 2.708162e-01 2.905258e-01 2.201982e-01 6.226228e-03
<GCONST> 8.338538e+01
<STATE> 4
<MEAN> 39
 -3.099681e+00 -3.924225e-01 -2.933715e-01 -1.266590e+01 -6.512880e+00 -1.127437e+01 -5.581204e+00 -9.896129e+00 -3.014390e+00 -5.454625e+00 -3.783342e-02 -7.296762e+00 1.798984e+01 9.698637e-03 -3.202933e-01 -3.203886e-01 4.861757e-01 4.445912e-01 3.149177e-01 2.956772e-01 5.808471e-02 -7.466080e-02 -1.788128e-02 1.202467e-01 2.411057e-01 -1.899408e-01 -7.667127e-02 -6.129469e-02 -4.130039e-02 -1.055161e-02 7.806364e-02 1.265265e-01 7.610753e-02 3.290749e-02 3.084121e-02 3.385491e-03 -1.473016e-02 4.050979e-02 -3.861133e-02
<VARIANCE> 39
 6.013184e+00 8.155061e+00 1.215125e+01 2.993387e+01 3.221952e+01 2.312927e+01 3.183627e+01 3.285136e+01 3.928527e+01 4.172726e+01 5.060237e+01 3.997269e+01 1.626506e+00 2.825433e-01 2.350436e-01 4.391923e-01 6.539758e-01 9.458464e-01 1.149142e+00 1.117425e+00 1.168989e+00 1.064050e+00 1.127485e+00 1.175523e+00 1.083342e+00 3.892118e-02 2.957841e-02 3.210320e-02 5.486995e-02 9.274952e-02 1.108549e-01 1.425963e-01 1.414055e-01 1.725907e-01 1.674479e-01 1.681285e-01 1.729190e-01 1.574415e-01 3.025252e-03
<GCONST> 7.102696e+01
<TRANSP> 5
 0.000000e+00 1.000000e+00 0.000000e+00 0.000000e+00 0.000000e+00
 0.000000e+00 8.005717e-01 1.994283e-01 0.000000e+00 0.000000e+00
 0.000000e+00 0.000000e+00 7.629607e-01 2.370392e-01 0.000000e+00
 0.000000e+00 0.000000e+00 0.000000e+00 9.214414e-01 7.855862e-02
 0.000000e+00 0.000000e+00 0.000000e+00 0.000000e+00 0.000000e+00
<ENDHMM>
~h "nine"
<BEGINHMM>
<NUMSTATES> 5
<STATE> 2
<MEAN> 39
 -4.336728e+00 -4.104035e+00 -2.014337e+00 -8.990009e+00 -3.026482e+00 -6.299187e+00 -1.560670e+00 -1.119402e+01 -5.074556e+00 -8.235967e+00 -3.060169e+00 -7.946491e+00 1.755853e+01 -1.408909e-01 -6.462689e-01 -2.245006e-01 4.721067e-01 -4.847133e-01 1.864568e-01 3.833363e-01 -2.190141e-01 -4.579170e-02 -1.564584e-01 -1.841112e-01 -1.474754e-01 2.443224e-01 -4.465303e-02 -1.390898e-01 -7.293141e-02 1.185573e-01 1.168019e-02 -1.731144e-04 4.200140e-02 3.115588e-02 1.516819e-02 7.502412e-03 8.003543e-02 4.143467e-02 -9.968342e-03
<VARIANCE> 39
 8.871021e+00 1.943910e+01 1.485127e+01 1.641023e+01 2.864076e+01 2.888945e+01 3.173652e+01 2.748582e+01 4.629180e+01 3.502775e+01 3.074028e+01 3.265489e+01 2.267184e+00 5.309280e-01 1.588779e+00 1.139048e+00 1.074415e+00 1.137121e+00 1.424224e+00 1.636173e+00 1.279000e+00 1.532689e+00 1.148069e+00 1.231006e+00 1.018513e+00 3.842790e-02 6.404641e-02 1.775486e-01 1.344551e-01 1.373231e-01 2.128592e-01 2.204815e-01 2.459975e-01 1.863634e-01 2.026558e-01 1.632980e-01 1.732838e-01 1.441814e-01 4.939329e-03
<GCONST> 8.270002e+01
<STATE> 3
<MEAN> 39
 -6.352787e+00 -1.156442e+01 -4.803783e+00 -2.813443e+00 -5.710305e+00 -5.206192e+00 1.726999e+00 -1.137448e+01 -5.503822e+00 -8.960612e+00 -1.724996e+00 -7.642272e+00 1.860807e+01 -1.108682e-01 1.058304e-01 2.298904e-01 -2.528520e-01 -1.599692e-02 2.174414e-01 -1.158937e-01 -7.973169e-02 2.014630e-01 4.935851e-02 -5.973949e-02 5.004881e-02 -2.203108e-02 3.944259e-03 1.952161e-01 6.667243e-02 -2.365162e-01 4.780161e-02 5.561276e-02 -1.082833e-01 1.558606e-02 7.258030e-02 -1.294393e-02 -6.386266e-02 2.351824e-02 -1.482313e-02
<VARIANCE> 39
 7.311966e+00 8.582914e+00 2.445015e+01 3.252981e+01 1.899607e+01 3.076955e+01 3.102139e+01 3.391595e+01 4.409297e+01 4.175476e+01 2.862790e+01 3.082019e+01 1.011092e+00 8.470141e-02 4.056183e-01 4.131705e-01 1.165623e+00 5.109897e-01 6.288512e-01 5.744761e-01 5.207334e-01 6.624369e-01 6.766043e-01 6.857086e-01 5.483551e-01 4.950366e-03 1.154946e-02 3.040779e-02 4.189057e-02 5.661181e-02 7.364360e-02 7.520812e-02 7.476193e-02 8.253226e-02 8.400152e-02 8.787878e-02 8.028390e-02 7.972068e-02 4.061160e-04
<GCONST> 5.455227e+01
<STATE> 4
<MEAN> 39
 -5.317083e+00 -2.369086e+00 -1.345727e+00 -1.126992e+01 -1.205167e+00 -5.364433e+00 -3.593338e+00 -1.030595e+01 -3.427681e+00 -8.045663e+00 -2.746982e+00 -6.467745e+00 1.764575e+01 2.269872e-01 4.694886e-01 -1.629182e-02 -6.012936e-02 4.373952e-01 -2.514949e-01 -1.916377e-01 2.663921e-01 -1.412029e-01 7.521155e-02 2.265800e-01 1.043427e-01 -1.770627e-01 -2.883309e-02 -1.616283e-01 -8.510243e-02 1.383210e-01 -4.265942e-02 1.593506e-03 1.221842e-01 8.228580e-03 -5.277250e-02 4.393547e-02 7.039828e-02 -5.235030e-03 -1.927858e-02
<VARIANCE> 39
 1.177643e+01 1.547038e+01 1.128768e+01 2.317504e+01 3.103610e+01 3.237121e+01 2.985396e+01 2.969905e+01 4.641347e+01 3.798800e+01 3.669707e+01 4.023538e+01 1.226769e+00 5.069807e-01 1.190581e+00 6.372695e-01 1.605394e+00 1.284765e+00 1.529192e+00 1.505885e+00 1.272418e+00 1.650143e+00 1.194001e+00 1.127673e+00 1.081222e+00 2.601160e-02 6.998826e-02 8.471926e-02 9.049494e-02 1.787022e-01 1.767918e-01 2.418125e-01 1.806899e-01 2.006467e-01 2.421569e-01 1.947180e-01 1.776956e-01 1.489750e-01 2.380495e-03
<GCONST> 8.074798e+01
<TRANSP> 5
 0.000000e+00 1.000000e+00 0.000000e+00 0.000000e+00 0.000000e+00
 0.000000e+00 8.964213e-01 1.035787e-01 0.000000e+00 0.000000e+00
 0.000000e+00 0.000000e+00 9.168715e-01 8.312851e-02 0.000000e+00
 0.000000e+00 0.000000e+00 0.000000e+00 9.190846e-01 8.091541e-02
 0.000000e+00 0.000000e+00 0.000000e+00 0.000000e+00 0.000000e+00
<ENDHMM>
~h "five"
<BEGINHMM>
<NUMSTATES> 5
<STATE> 2
<MEAN> 39
 -3.976475e+00 -1.164989e+01 -1.036183e+01 -8.122234e+00 6.248603e-01 -8.369518e+00 3.536664e-01 -4.457869e+00 -5.449497e+00 -8.082756e+00 -2.015923e+00 -4.946165e+00 1.813476e+01 3.090348e-01 -1.175689e+00 -6.745956e-01 8.164521e-01 5.315545e-01 -6.080765e-01 3.480422e-01 3.431346e-01 -7.540216e-01 -1.772978e-01 -2.532498e-01 1.822973e-02 5.437127e-01 -2.024660e-01 5.002782e-02 2.037843e-01 7.958313e-02 -2.386493e-02 1.202344e-01 2.677047e-02 -2.219147e-01 5.073019e-02 1.527138e-01 1.762059e-01 5.203089e-02 -8.653122e-02
<VARIANCE> 39
 1.051541e+01 1.921100e+01 2.351151e+01 1.715457e+01 1.927497e+01 2.016502e+01 2.577812e+01 5.279758e+01 3.288919e+01 2.865623e+01 2.489668e+01 2.043507e+01 4.138570e+00 7.623877e-01 5.685276e-01 1.191860e+00 8.908108e-01 7.876741e-01 9.755356e-01 9.535656e-01 2.091264e+00 1.732180e+00 1.708666e+00 1.349085e+00 1.022049e+00 1.245318e-01 9.440000e-02 1.287718e-01 1.676550e-01 1.234988e-01 1.366980e-01 1.402409e-01 1.535561e-01 2.989537e-01 2.699176e-01 1.875611e-01 1.729156e-01 1.410836e-01 2.665209e-02
<GCONST> 8.399433e+01
<STATE> 3
<MEAN> 39
 -5.830505e+00 -1.542840e+01 -8.498540e+00 -3.708981e+00 1.382065e+00 -9.086098e+00 2.554073e+00 -7.550135e+00 -7.232624e+00 -5.390316e+00 -4.523766e-01 -4.512135e+00 1.904041e+01 -1.604869e-01 9.613101e-02 4.900734e-01 -2.789475e-01 -2.773134e-01 4.451085e-01 6.814531e-02 -3.922725e-01 3.514252e-02 2.939230e-01 4.939247e-02 -8.318283e-02 -4.946123e-02 4.105168e-02 1.155184e-01 9.554814e-03 -1.951001e-01 -5.466734e-02 8.898002e-02 -2.873567e-02 2.808571e-02 5.762748e-02 -5.240398e-02 -7.839531e-02 -1.774674e-02 -1.478312e-02
<VARIANCE> 39
 9.153913e+00 9.448360e+00 2.466028e+01 2.104724e+01 1.881052e+01 2.354000e+01 1.741832e+01 3.919987e+01 4.764478e+01 4.432024e+01 2.667771e+01 2.544836e+01 1.364587e+00 8.856992e-02 1.585948e-01 2.706600e-01 6.491458e-01 5.014343e-01 5.608293e-01 5.004254e-01 4.980055e-01 6.110157e-01 5.839023e-01 5.767615e-01 4.760692e-01 5.851426e-03 1.173785e-02 2.416898e-02 3.005342e-02 4.787928e-02 5.083304e-02 5.253412e-02 5.713159e-02 6.506519e-02 8.688562e-02 8.452681e-02 6.627833e-02 7.004171e-02 8.790190e-04
<GCONST> 4.981353e+01
<STATE> 4
<MEAN> 39
 -5.428918e+00 -8.310594e+00 -3.572341e+00 -1.347485e+01 -3.424704e+00 -3.601874e+00 1.308800e+00 -8.267307e+00 -4.009210e+00 -5.370131e+00 -2.003640e+00 -5.723616e+00 1.797775e+01 9.680177e-02 1.064052e+00 2.998369e-01 -2.970643e-01 -1.629767e-01 -8.194939e-02 -3.288862e-01 1.167775e-01 4.783371e-01 -1.543269e-01 4.366536e-02 4.363425e-03 -2.990265e-01 -6.089718e-02 -8.108794e-02 -9.705342e-02 2.769727e-01 1.548805e-01 -8.999962e-02 -1.686789e-02 -1.030725e-02 -4.994567e-02 7.416118e-03 9.669006e-02 5.256968e-02 -4.008327e-02
<VARIANCE> 39
 7.837903e+00 2.510930e+01 1.199355e+01 3.012679e+01 3.890741e+01 2.277537e+01 2.528094e+01 3.349291e+01 4.644431e+01 2.710008e+01 2.731369e+01 2.943922e+01 2.173304e+00 3.073307e-01 6.387248e-01 6.076747e-01 2.936432e+00 1.772344e+00 1.543679e+00 9.797332e-01 1.472489e+00 1.641111e+00 1.322759e+00 1.363506e+00 1.029039e+00 5.559864e-02 5.105739e-02 1.043031e-01 8.819700e-02 2.520430e-01 2.244227e-01 2.639439e-01 1.700217e-01 2.181823e-01 2.093210e-01 1.743215e-01 2.115993e-01 1.681420e-01 5.308819e-03
<GCONST> 8.248206e+01
<TRANSP> 5
 0.000000e+00 1.000000e+00 0.000000e+00 0.000000e+00 0.000000e+00
 0.000000e+00 8.403865e-01 1.596135e-01 0.000000e+00 0.000000e+00
 0.000000e+00 0.000000e+00 9.132804e-01 8.671958e-02 0.000000e+00
 0.000000e+00 0.000000e+00 0.000000e+00 8.856835e-01 1.143165e-01
 0.000000e+00 0.000000e+00 0.000000e+00 0.000000e+00 0.000000e+00
<ENDHMM>
~h "four"
<BEGINHMM>
<NUMSTATES> 5
<STATE> 2
<MEAN> 39
 -7.769120e-01 -4.624426e+00 -1.016016e+01 -1.392967e+01 -2.753431e+00 -7.217945e+00 -3.636608e+00 -8.899768e+00 -1.311596e+00 -4.617966e+00 -8.188902e-01 -7.028648e+00 1.780181e+01 1.353983e+00 4.865014e-01 -1.096840e+00 -1.088111e+00 -3.106738e-01 -1.422515e-01 -3.310575e-01 -8.626419e-02 9.099387e-02 2.885484e-01 -1.695868e-01 -4.638636e-01 5.909877e-01 -2.054952e-01 -7.217176e-02 1.046108e-01 7.118880e-02 2.535267e-02 1.355549e-01 1.442088e-01 4.753971e-02 -5.111557e-02 -3.699322e-02 9.270245e-02 1.187361e-01 -7.855012e-02
<VARIANCE> 39
 1.834530e+01 1.061993e+01 1.882902e+01 1.932531e+01 1.819652e+01 1.663607e+01 1.714386e+01 1.660086e+01 2.149533e+01 2.406805e+01 3.755191e+01 3.464199e+01 3.046983e+00 5.733824e-01 4.531177e-01 5.975144e-01 7.498117e-01 9.040110e-01 9.508330e-01 9.417919e-01 9.341042e-01 1.038164e+00 1.290413e+00 1.722669e+00 1.612782e+00 7.626626e-02 1.637827e-01 7.513015e-02 1.677068e-01 1.568354e-01 1.239708e-01 1.550161e-01 1.609025e-01 1.455452e-01 1.800011e-01 1.976276e-01 2.292646e-01 2.379590e-01 2.361218e-02
<GCONST> 7.932153e+01
<STATE> 3
<MEAN> 39
 1.611639e+00 -3.467741e+00 -1.222397e+01 -1.734030e+01 -4.203255e+00 -5.653714e+00 -2.779665e+00 -8.792514e+00 -1.309718e+00 -3.791805e+00 8.508520e-01 -6.425683e+00 1.900093e+01 -5.559291e-02 -4.661900e-01 -2.289044e-03 4.220831e-01 2.276450e-01 -3.818822e-02 -2.400667e-01 3.127806e-01 4.735351e-01 -4.044935e-02 -3.030782e-01 -1.069846e-01 -1.080072e-02 -7.786003e-02 -1.540784e-01 1.080127e-01 2.293890e-01 1.685259e-02 -1.167145e-01 -2.084137e-02 1.218195e-01 7.068816e-02 -9.529060e-02 -1.259395e-01 4.504994e-03 -2.997348e-02
<VARIANCE> 39
 3.845289e+00 1.067296e+01 8.705661e+00 1.380431e+01 2.582073e+01 1.605229e+01 1.912769e+01 1.750931e+01 2.447130e+01 2.492248e+01 3.597899e+01 3.599201e+01 1.098315e+00 6.399981e-02 6.123265e-01 3.967031e-01 7.759603e-01 8.646570e-01 7.627255e-01 9.061933e-01 9.894710e-01 1.363911e+00 1.133138e+00 1.253306e+00 1.046352e+00 1.205027e-02 1.900252e-02 3.646032e-02 8.595504e-02 7.240830e-02 1.463856e-01 1.186008e-01 1.470916e-01 1.350802e-01 1.833084e-01 1.881654e-01 1.738245e-01 1.633663e-01 2.922908e-03
<GCONST> 6.394988e+01
<STATE> 4
<MEAN> 39
 -8.797258e-01 -1.050279e+01 -6.734809e+00 -8.628508e+00 -5.515609e+00 -8.410203e+00 -2.042979e+00 -5.276312e+00 -3.084611e-01 -7.627880e+00 -3.602455e+00 -7.223837e+00 1.823955e+01 -6.337669e-01 1.736686e-01 1.011657e+00 4.099929e-01 -2.803134e-01 1.397071e-01 5.671777e-01 -2.700776e-01 -6.173470e-01 -2.673974e-01 2.160286e-01 2.978394e-01 -2.622497e-01 -7.663926e-02 2.207570e-01 -7.327642e-02 -1.851857e-01 1.391037e-01 1.749063e-01 1.232280e-02 -1.626851e-01 -9.303027e-02 1.092102e-01 1.592436e-01 3.396076e-02 -4.476575e-02
<VARIANCE> 39
 8.469852e+00 1.862256e+01 3.032114e+01 1.980786e+01 4.348520e+01 3.939364e+01 3.438699e+01 4.437307e+01 4.753681e+01 3.450319e+01 3.375090e+01 3.000979e+01 1.962813e+00 2.705776e-01 1.511639e+00 9.702774e-01 1.612548e+00 2.632851e+00 2.204684e+00 1.738138e+00 2.400535e+00 1.814932e+00 1.672753e+00 1.722538e+00 1.142432e+00 5.411208e-02 3.187494e-02 1.403366e-01 1.944443e-01 1.779613e-01 4.025023e-01 3.052051e-01 3.364242e-01 3.656552e-01 3.758089e-01 2.724032e-01 3.008694e-01 2.069884e-01 3.823074e-03
<GCONST> 9.093365e+01
<TRANSP> 5
 0.000000e+00 1.000000e+00 0.000000e+00 0.000000e+00 0.000000e+00
 0.000000e+00 7.949452e-01 2.050548e-01 0.000000e+00 0.000000e+00
 0.000000e+00 0.000000e+00 8.916679e-01 1.083321e-01 0.000000e+00
 0.000000e+00 0.000000e+00 0.000000e+00 8.874241e-01 1.125759e-01
 0.000000e+00 0.000000e+00 0.000000e+00 0.000000e+00 0.000000e+00
<ENDHMM>
~h "zero"
<BEGINHMM>
<NUMSTATES> 5
<STATE> 2
<MEAN> 39
 -6.065832e+00 1.087790e+00 -6.567343e-01 -1.510473e+01 -5.089283e+00 -9.437889e+00 -4.437564e+00 -8.403080e+00 -1.027282e+00 -3.783533e+00 1.403385e-01 -6.132050e+00 1.775899e+01 1.993598e-01 -1.056164e-01 7.074932e-01 -7.955308e-01 -8.853552e-01 -8.900697e-02 -2.253305e-01 9.382811e-02 3.626736e-01 3.017918e-02 8.836632e-03 -1.962005e-01 2.716709e-01 5.519299e-02 -2.856326e-01 -5.834978e-02 2.303579e-01 -1.012990e-01 2.217740e-01 1.508206e-01 1.956706e-02 6.784156e-03 -6.120084e-02 1.357757e-02 1.488193e-02 -4.607785e-02
<VARIANCE> 39
 7.460754e+00 1.389118e+01 1.861434e+01 3.635429e+01 4.083410e+01 3.418580e+01 3.140229e+01 3.787654e+01 3.469199e+01 3.207458e+01 3.317117e+01 4.823358e+01 2.324073e+00 4.050318e-01 1.741364e+00 8.437241e-01 1.654071e+00 1.596429e+00 2.807762e+00 1.356980e+00 1.488031e+00 1.408860e+00 1.259117e+00 1.200287e+00 1.436569e+00 8.225740e-02 5.924037e-02 1.162912e-01 1.377487e-01 2.601466e-01 1.917170e-01 3.252080e-01 2.363686e-01 2.403292e-01 2.290691e-01 1.875643e-01 1.815245e-01 2.317700e-01 9.109792e-03
<GCONST> 8.823679e+01
<STATE> 3
<MEAN> 39
 -2.287654e+00 -9.181438e+00 7.689773e-01 -1.140467e+01 -1.477438e+01 -6.210835e+00 3.684338e-01 -7.233091e+00 1.917439e-01 -4.599164e+00 9.856848e-02 -5.971578e+00 1.858600e+01 3.826159e-01 -1.052628e+00 -6.480766e-01 9.095467e-01 -7.516392e-02 -2.232416e-01 8.639183e-01 4.790169e-01 -1.649812e-01 -2.807556e-01 -1.418933e-01 1.395400e-01 1.371504e-02 -8.643900e-02 1.872965e-01 -1.440195e-01 -1.164837e-01 3.487860e-01 -1.236398e-01 -1.159932e-01 1.083816e-01 -5.959123e-02 -3.244372e-02 -4.358036e-02 1.812628e-02 -4.387938e-03
<VARIANCE> 39
 6.532253e+00 2.014221e+01 1.357606e+01 4.115561e+01 5.211517e+01 6.536624e+01 2.836425e+01 3.248531e+01 2.324449e+01 1.930564e+01 2.380444e+01 3.593137e+01 1.342854e+00 3.240320e-01 4.968464e-01 4.966464e-01 1.377149e+00 2.020733e+00 2.026642e+00 1.142681e+00 1.637579e+00 1.240557e+00 8.160710e-01 7.896453e-01 7.688274e-01 9.025236e-03 2.506474e-02 3.201702e-02 8.249463e-02 1.812710e-01 1.894856e-01 3.122926e-01 1.927737e-01 1.689721e-01 1.641488e-01 1.140737e-01 1.110796e-01 1.182053e-01 1.321306e-03
<GCONST> 7.310831e+01
<STATE> 4
<MEAN> 39
 -1.541889e+00 -9.211671e+00 -6.906142e+00 -9.839803e+00 -5.684537e+00 -8.880748e+00 -9.582451e-01 -3.606864e+00 -3.546226e-01 -7.638393e+00 -1.522545e+00 -6.064132e+00 1.826168e+01 -1.611670e-01 5.286574e-01 -1.536462e-01 -2.292976e-02 7.757233e-01 1.496901e-01 -3.108044e-01 -2.737179e-01 -9.292558e-02 1.898943e-02 5.570606e-02 -2.328350e-03 -1.754959e-01 -6.555375e-02 2.345422e-02 9.924386e-02 1.646199e-02 -5.073046e-02 9.258247e-02 4.175137e-02 -1.116903e-01 -2.819469e-02 5.573414e-02 4.660730e-02 1.723475e-02 -3.291880e-02
<VARIANCE> 39
 6.412751e+00 2.318847e+01 1.733041e+01 2.050282e+01 4.029047e+01 3.803313e+01 4.288285e+01 3.951256e+01 5.359258e+01 3.972355e+01 2.622451e+01 3.119442e+01 1.760458e+00 2.612908e-01 4.357821e-01 8.776867e-01 7.221362e-01 1.170501e+00 1.636197e+00 1.468055e+00 1.754702e+00 1.795707e+00 1.697060e+00 1.174332e+00 1.089315e+00 4.252793e-02 2.914936e-02 5.828122e-02 8.560774e-02 8.165811e-02 1.330804e-01 1.973493e-01 2.005704e-01 2.169450e-01 2.535738e-01 2.264531e-01 1.755747e-01 1.536834e-01 2.655632e-03
<GCONST> 7.891174e+01
<TRANSP> 5
 0.000000e+00 1.000000e+00 0.000000e+00 0.000000e+00 0.000000e+00
 0.000000e+00 8.945407e-01 1.054592e-01 0.000000e+00 0.000000e+00
 0.000000e+00 0.000000e+00 8.832203e-01 1.167798e-01 0.000000e+00
 0.000000e+00 0.000000e+00 0.000000e+00 9.228739e-01 7.712614e-02
 0.000000e+00 0.000000e+00 0.000000e+00 0.000000e+00 0.000000e+00
<ENDHMM>
