~o
<STREAMINFO> 1 39
<VECSIZE> 39<NULLD><MFCC_E_D_A><DIAGC>
~h "eight"
<BEGINHMM>
<NUMSTATES> 5
<STATE> 2
<MEAN> 39
 -7.524264e+00 -3.425420e+00 -5.693406e+00 -1.668131e+01 -6.472288e-01 -5.182449e+00 5.464632e-01 -6.746631e+00 -1.554733e+00 -6.763805e+00 -1.027583e+00 -5.331587e+00 1.714912e+01 -1.900177e-01 7.575307e-01 -8.186667e-02 -7.814704e-01 3.923662e-02 -4.145902e-01 5.498065e-02 2.967982e-01 3.011563e-01 4.554388e-02 -9.449387e-02 -9.567254e-02 2.139847e-01 3.509409e-02 8.254454e-02 1.092712e-02 8.963531e-02 -4.103983e-02 -1.680766e-01 -8.082496e-02 -2.284299e-02 2.705432e-02 6.061785e-02 5.858152e-02 -4.580018e-03 3.466009e-03
<VARIANCE> 39
 1.075575e+01 2.305849e+01 1.835790e+01 3.944749e+01 4.045804e+01 2.353724e+01 2.441519e+01 2.433803e+01 3.137285e+01 2.547055e+01 2.575897e+01 2.447302e+01 3.380893e+00 3.360932e-01 9.651060e-01 6.847377e-01 1.411191e+00 1.254017e+00 1.634325e+00 1.348153e+00 1.128206e+00 1.374380e+00 1.216730e+00 1.140046e+00 1.007756e+00 1.229787e-01 4.082858e-02 8.491892e-02 8.461760e-02 2.011350e-01 1.478589e-01 1.778292e-01 1.529713e-01 1.814237e-01 2.320959e-01 1.695068e-01 1.833567e-01 1.573078e-01 1.323967e-02
<GCONST> 8.183722e+01
<STATE> 3
<MEAN> 39
 -7.935264e+00 5.475995e+00 -4.908598e+00 -1.664725e+01 -2.357277e+00 -1.441939e+01 -3.035235e+00 -8.590818e+00 -1.333288e+00 -4.426877e+00 9.894590e-01 -5.287211e+00 1.807283e+01 2.038420e-01 -4.290236e-01 1.808111e-01 9.720535e-01 1.361390e-01 6.934648e-02 -3.419793e-01 -6.694572e-01 -5.148376e-01 -4.113528e-02 2.100325e-01 1.945958e-01 -2.363296e-01 1.021254e-02 -3.328938e-01 -3.043320e-02 6.395954e-02 4.254459e-02 3.532528e-01 1.234184e-01 5.585892e-02 -2.347325e-02 -9.194096e-02 -6.257433e-02 3.916625e-03 -6.257648e-02
<VARIANCE> 39
 9.284471e+00 1.350722e+01 2.250865e+01 3.248512e+01 1.967646e+01 2.420517e+01 5.254543e+01 3.438111e+01 4.415743e+01 2.637309e+01 3.191334e+01 2.703315e+01 1.959819e+00 2.642209e-01 1.895687e+00 4.088299e-01 7.647215e-01 7.868119e-01 2.502148e+00 1.307331e+00 1.116775e+00 1.804254e+00 1.195107e+00 1.398758e+00 1.008695e+00 6.759322e-02 3.641372e-02 9.029867e-02 5.905529e-02 1.265763e-01 9.250852e-02 1.745028e-01 1.630076e-01 2.078774e-01 2.767947e-01 1.690446e-01 1.958875e-01 1.643074e-01 4.024227e-03
<GCONST> 7.874340e+01
<STATE> 4
<MEAN> 39
 -7.116767e+00 -6.541067e+00 -5.514879e+00 -1.004293e+01 -1.215375e+00 -4.682479e+00 -8.409404e-01 -8.921489e+00 -3.019660e+00 -5.935845e+00 9.428725e-01 -4.004977e+00 1.468662e+01 -7.179788e-02 -3.660483e-01 -1.176298e-01 1.204241e-01 -4.112492e-02 3.696101e-01 1.855419e-01 1.810012e-01 1.167377e-01 8.797247e-03 1.649083e-02 9.388007e-03 -9.300584e-02 -5.685273e-03 1.757349e-01 1.039996e-02 -6.684013e-02 -1.211832e-02 -1.464314e-01 -4.599052e-02 -1.503950e-02 -6.331536e-03 2.179365e-02 -5.186132e-03 -1.391511e-02 4.871765e-02
<VARIANCE> 39
 4.560892e+00 6.159151e+00 8.314757e+00 9.574125e+00 1.262566e+01 1.589434e+01 1.697651e+01 1.696682e+01 1.732072e+01 1.627313e+01 1.523352e+01 1.399439e+01 1.034501e+00 2.099294e-01 8.405242e-01 4.288092e-01 5.955232e-01 4.862397e-01 1.170446e+00 9.931197e-01 8.546663e-01 9.812965e-01 7.909755e-01 7.432475e-01 7.057064e-01 4.874193e-02 3.460031e-02 9.647737e-02 7.128507e-02 1.091523e-01 9.177046e-02 1.887646e-01 1.756934e-01 1.504275e-01 1.623780e-01 1.354729e-01 1.324254e-01 1.272723e-01 4.818405e-03
<GCONST> 6.216208e+01
<TRANSP> 5
 0.000000e+00 1.000000e+00 0.000000e+00 0.000000e+00 0.000000e+00
 0.000000e+00 9.121926e-01 8.780739e-02 0.000000e+00 0.000000e+00
 0.000000e+00 0.000000e+00 8.976266e-01 1.023733e-01 0.000000e+00
 0.000000e+00 0.000000e+00 0.000000e+00 9.213891e-01 7.861090e-02
 0.000000e+00 0.000000e+00 0.000000e+00 0.000000e+00 0.000000e+00
<ENDHMM>
~h "oh"
<BEGINHMM>
<NUMSTATES> 5
<STATE> 2
<MEAN> 39
 -5.072906e+00 -9.817537e+00 -7.833378e+00 -8.759860e+00 -2.347719e+00 -7.078436e+00 2.847755e+00 -7.616873e+00 -4.773005e+00 -6.878155e+00 -1.687974e+00 -4.955315e+00 1.721407e+01 4.015588e-01 -2.821493e-01 -5.485501e-01 2.171544e-01 1.401626e-01 -4.945693e-01 2.322907e-01 5.781041e-01 -1.037485e-01 -3.932611e-01 -3.404424e-01 -6.349524e-02 2.903816e-01 6.013418e-02 8.892393e-02 -1.210262e-02 -5.544875e-02 1.547174e-02 -6.012461e-02 -1.276604e-01 1.861847e-02 1.092552e-01 1.494786e-03 -5.272237e-02 -5.050195e-02 1.424374e-02
<VARIANCE> 39
 8.382306e+00 1.228219e+01 1.538583e+01 1.591971e+01 2.185689e+01 2.340162e+01 2.846189e+01 5.757658e+01 3.748621e+01 3.054211e+01 2.663985e+01 2.711324e+01 3.812013e+00 4.045046e-01 5.595050e-01 6.603167e-01 6.405977e-01 7.460980e-01 1.180176e+00 1.235327e+00 1.815302e+00 1.533159e+00 1.309644e+00 1.311777e+00 1.082004e+00 1.254166e-01 4.813059e-02 7.023267e-02 8.521730e-02 8.555456e-02 1.118070e-01 1.482320e-01 1.609972e-01 2.226749e-01 2.095436e-01 1.953586e-01 2.000353e-01 1.548820e-01 1.713554e-02
<GCONST> 7.894449e+01
<STATE> 3
<MEAN> 39
 -4.965990e-01 -8.085561e+00 -1.303811e+01 -1.018378e+01 -8.909646e-01 -1.201037e+01 -8.892394e-01 -1.284798e+00 1.939167e-01 -7.884271e+00 -5.009706e+00 -6.855098e+00 1.903839e+01 2.239071e-01 4.083353e-01 -6.301178e-03 -3.375471e-01 -6.150933e-02 -1.964730e-02 -6.569722e-01 -2.515012e-01 6.164269e-01 5.838705e-01 3.178548e-02 -3.234859e-01 -1.058159e-02 -4.688026e-02 2.213275e-02 1.000644e-01 -1.014049e-02 -5.009495e-02 8.897685e-02 1.630282e-02 -1.447877e-01 -8.520348e-02 7.581957e-02 1.148444e-01 2.391843e-02 -2.662398e-02
<VARIANCE> 39
 6.028924e+00 9.347392e+00 1.555831e+01 1.589685e+01 1.975418e+01 2.333681e+01 4.428231e+01 3.314377e+01 4.055782e+01 3.755699e+01 3.123152e+01 3.914726e+01 1.183734e+00 8.543303e-02 1.427004e-01 2.976719e-01 2.936640e-01 3.913099e-01 5.535880e-01 7.245920e-01 1.116325e+00 7.998049e-01 8.947308e-01 8.656508e-01 6.944233e-01 1.391791e-02 1.175630e-02 1.537127e-02 3.537053e-02 3.572029e-02 4.852976e-02 7.178193e-02 8.156148e-02 1.012436e-01 1.109301e-01 1.074998e-01 9.628420e-02 9.289259e-02 1.245801e-03
<GCONST> 5.396380e+01
<STATE> 4
<MEAN> 39
 -7.418215e-01 -3.730196e+00 -8.383327e+00 -1.248796e+01 -3.622055e+00 -9.300141e+00 -4.000153e+00 -8.066674e+00 -2.979461e-01 -3.366248e+00 3.569727e-01 -6.248669e+00 1.795417e+01 -5.069024e-01 1.203021e-01 7.350000e-01 2.727178e-01 1.213601e-02 5.559247e-01 3.365022e-01 -4.405234e-01 -5.363584e-01 -1.885735e-01 3.968888e-01 4.349114e-01 -2.802318e-01 -1.126521e-01 -1.140013e-01 -2.907890e-02 7.595443e-02 9.950957e-02 8.985805e-02 1.345918e-01 9.031341e-02 -3.953816e-02 -1.066724e-01 -6.855587e-02 5.315356e-02 -3.464292e-02
<VARIANCE> 39
 9.361499e+00 7.810188e+00 2.079553e+01 1.825480e+01 1.941331e+01 2.692005e+01 3.110313e+01 2.683560e+01 3.199028e+01 4.008420e+01 3.906119e+01 3.790240e+01 2.412503e+00 3.826954e-01 4.593658e-01 5.507362e-01 6.217665e-01 8.842407e-01 1.264739e+00 1.251874e+00 1.298649e+00 1.305791e+00 1.263465e+00 1.279160e+00 1.245754e+00 5.453467e-02 3.299583e-02 4.469839e-02 8.896657e-02 8.728112e-02 1.096993e-01 1.661356e-01 1.871799e-01 1.997286e-01 2.127136e-01 2.068777e-01 1.755926e-01 1.748503e-01 4.194870e-03
<GCONST> 7.532736e+01
<TRANSP> 5
 0.000000e+00 1.000000e+00 0.000000e+00 0.000000e+00 0.000000e+00
 0.000000e+00 9.027607e-01 9.723926e-02 0.000000e+00 0.000000e+00
 0.000000e+00 0.000000e+00 9.042471e-01 9.575286e-02 0.000000e+00
 0.000000e+00 0.000000e+00 0.000000e+00 8.838430e-01 1.161570e-01
 0.000000e+00 0.000000e+00 0.000000e+00 0.000000e+00 0.000000e+00
<ENDHMM>
~h "seven"
<BEGINHMM>
<NUMSTATES> 5
<STATE> 2
<MEAN> 39
 -8.806632e+00 -4.769282e+00 -7.050018e+00 -8.596655e+00 -2.107394e+00 -3.131446e+00 -1.276509e+00 -8.136147e+00 -2.909429e+00 -5.214480e+00 6.799264e-01 -3.793395e+00 1.484347e+01 4.741071e-02 -4.084795e-02 -4.356903e-02 -3.256981e-01 -2.671274e-01 -1.353345e-01 2.667652e-01 1.513754e-02 1.375779e-01 -7.736543e-04 -2.047790e-01 -6.332381e-02 1.080879e-01 1.303976e-01 9.204570e-03 8.983025e-02 -1.476355e-01 -1.309363e-01 -1.120196e-01 8.732996e-02 -1.238425e-02 2.002495e-02 -2.644498e-02 -8.712240e-02 -9.269768e-02 9.199269e-02
<VARIANCE> 39
 8.340003e+00 1.013035e+01 1.380078e+01 1.310765e+01 1.612601e+01 1.582008e+01 1.759687e+01 1.745255e+01 1.826360e+01 1.723364e+01 1.706742e+01 1.463345e+01 9.047275e-01 7.144135e-01 4.608479e-01 8.613429e-01 9.991094e-01 9.701382e-01 1.283294e+00 9.959629e-01 8.575958e-01 1.029544e+00 1.155908e+00 9.210115e-01 9.517401e-01 1.512429e-01 5.368427e-02 6.783887e-02 9.750190e-02 1.360510e-01 1.662413e-01 1.770663e-01 1.648983e-01 1.456986e-01 1.700096e-01 1.546174e-01 1.450091e-01 1.504834e-01 8.093955e-03
<GCONST> 7.123422e+01
<STATE> 3
<MEAN> 39
 -5.558074e+00 -7.172778e+00 -5.193472e+00 -1.591174e+01 -6.355660e+00 -4.897010e+00 4.772487e+00 -8.475008e+00 -2.770161e+00 -6.761118e+00 -3.975049e+00 -6.626519e+00 1.896182e+01 1.894533e-01 -2.722631e-01 1.233812e-01 3.882818e-02 -6.137370e-02 -1.088003e-01 2.446587e-01 2.681849e-01 -2.807249e-01 -5.543019e-02 -6.964476e-02 -1.107269e-01 1.236367e-01 -4.178000e-02 7.839749e-02 1.111913e-02 2.926458e-01 1.553700e-01 -2.480872e-02 -2.548968e-01 3.867884e-02 -2.091176e-02 1.592024e-02 1.771703e-01 7.159719e-02 -1.270850e-01
<VARIANCE> 39
 9.614647e+00 1.303329e+01 9.436709e+00 1.827779e+01 4.580249e+01 3.937847e+01 3.187668e+01 3.950835e+01 4.652962e+01 5.849231e+01 3.255420e+01 3.130153e+01 1.240814e+00 4.410260e-01 5.954199e-01 4.993328e-01 1.548395e+00 1.671524e+00 1.672650e+00 1.827651e+00 1.089302e+00 1.392668e+00 1.776832e+00 1.809613e+00 1.326400e+00 2.114269e-01 8.204690e-02 9.001201e-02 9.646609e-02 1.114838e-01 2.523420e-01 2.721471e-01 1.781217e-01 1.666770e-01 2.018927e-01 2.407534e-01 2.262372e-01 1.834979e-01 6.062320e-03
<GCONST> 8.474818e+01
<STATE> 4
<MEAN> 39
 -3.244347e+00 -3.881842e+00 -1.891207e+00 -9.521951e+00 -3.365984e+00 -8.015695e+00 -1.088915e+00 -8.732974e+00 -4.324257e+00 -7.120051e+00 -1.906873e+00 -7.105268e+00 1.713248e+01 1.768491e-02 2.205674e-01 1.049619e-01 2.065501e-01 3.193773e-01 1.039532e-01 -2.925319e-01 -2.637350e-01 8.569283e-02 -1.439408e-02 1.277887e-01 4.227566e-02 -1.184134e-01 -5.595603e-02 -7.367295e-02 -7.384464e-02 -8.778010e-02 -2.233367e-02 9.372188e-02 1.106988e-01 -4.596692e-03 1.866146e-02 1.745084e-02 -3.220637e-02 2.023122e-02 1.415731e-02
<VARIANCE> 39
 4.974839e+00 1.019479e+01 9.926715e+00 1.395348e+01 2.822467e+01 3.043303e+01 2.586527e+01 4.089535e+01 3.293281e+01 3.570394e+01 3.328817e+01 2.974879e+01 1.533692e+00 2.533936e-01 5.250461e-01 5.539055e-01 8.538660e-01 1.339954e+00 1.253490e+00 1.628736e+00 1.363171e+00 1.438484e+00 1.411171e+00 1.273562e+00 9.896289e-01 9.358766e-02 3.738629e-02 7.812205e-02 8.698360e-02 1.507715e-01 2.341876e-01 2.027750e-01 2.726196e-01 2.366431e-01 2.360253e-01 2.409608e-01 2.174076e-01 1.500706e-01 1.437086e-02
<GCONST> 7.928013e+01
<TRANSP> 5
 0.000000e+00 1.000000e+00 0.000000e+00 0.000000e+00 0.000000e+00
 0.000000e+00 9.125739e-01 8.742611e-02 0.000000e+00 0.000000e+00
 0.000000e+00 0.000000e+00 9.003658e-01 9.963419e-02 0.000000e+00
 0.000000e+00 0.000000e+00 0.000000e+00 9.365582e-01 6.344181e-02
 0.000000e+00 0.000000e+00 0.000000e+00 0.000000e+00 0.000000e+00
<ENDHMM>
~h "three"
<BEGINHMM>
<NUMSTATES> 5
<STATE> 2
<MEAN> 39
 -7.753084e+00 -6.035267e+00 -4.949138e+00 -1.011977e+01 -8.176910e-01 -4.845856e+00 -5.887975e-01 -8.498262e+00 -2.602042e+00 -5.425551e+00 9.830300e-01 -3.779381e+00 1.488863e+01 1.181821e-01 -8.363581e-02 2.207189e-01 -4.797716e-02 -4.167405e-01 -2.858677e-01 -6.849127e-02 1.494121e-02 7.425300e-02 3.189596e-02 1.361402e-02 4.310319e-04 9.208709e-02 1.742198e-01 2.254033e-02 1.428290e-01 1.951640e-03 -2.577674e-01 -1.755563e-01 -7.574127e-02 -1.877706e-02 1.537898e-02 -9.218338e-03 -3.924773e-02 -7.054554e-02 8.471633e-02
<VARIANCE> 39
 5.400856e+00 6.329593e+00 9.779343e+00 1.060192e+01 1.435538e+01 1.431226e+01 1.606516e+01 1.761144e+01 1.951328e+01 1.776078e+01 1.686059e+01 1.459230e+01 1.170454e+00 7.019918e-01 5.235446e-01 8.963117e-01 7.510095e-01 1.499185e+00 1.312560e+00 9.016346e-01 1.036180e+00 9.999574e-01 9.323080e-01 9.825643e-01 9.153200e-01 1.193091e-01 5.916813e-02 9.076446e-02 9.846702e-02 1.380230e-01 2.011591e-01 1.855363e-01 1.564496e-01 2.030750e-01 1.781607e-01 1.662449e-01 1.641534e-01 1.611113e-01 4.958383e-03
<GCONST> 7.052035e+01
<STATE> 3
<MEAN> 39
 -2.518138e+00 -6.783537e+00 2.449301e+00 -1.140187e+01 -1.369864e+01 -9.363327e+00 -3.152542e+00 -9.428352e+00 -9.454375e-03 -5.130505e+00 1.270095e-01 -5.735048e+00 1.823541e+01 -6.862444e-02 4.227104e-01 6.951836e-01 -1.049856e+00 -3.996551e-01 3.060265e-01 -8.254076e-01 1.096446e-01 3.076164e-01 -2.807259e-02 6.153172e-02 -1.674222e-01 2.367502e-01 -2.156731e-01 2.146462e-01 -2.005200e-01 -1.428198e-01 5.230273e-01 4.712643e-02 -5.941990e-02 1.143473e-01 -1.140715e-01 -2.023151e-02 2.135179e-02 3.956062e-02 -6.774374e-02
<VARIANCE> 39
 6.507154e+00 1.457569e+01 2.008426e+01 4.937644e+01 4.245373e+01 6.100887e+01 3.522884e+01 3.826537e+01 3.064141e+01 2.820661e+01 3.707790e+01 3.334344e+01 1.447084e+00 9.619794e-01 1.476628e+00 9.228640e-01 2.725313e+00 4.895093e+00 3.382432e+00 2.206999e+00 1.969152e+00 1.296620e+00 1.095892e+00 1.152278e+00 1.164600e+00 6.899492e-02 6.798213e-02 1.290743e-01 1.773857e-01 3.907526e-01 3.806305e-01 6.812704e-01 3.772553e-01 2.755094e-01 2.400974e-01 1.746557e-01 1.705918e-01 1.637535e-01 3.908583e-03
<GCONST> 9.265439e+01
<STATE> 4
<MEAN> 39
 -6.590549e+00 3.298162e+00 -7.803116e-01 -1.672947e+01 -2.106742e+00 -1.135582e+01 -6.399219e+00 -7.962158e+00 -3.159439e+00 -5.505671e+00 -3.370746e-01 -6.525785e+00 1.789479e+01 -2.820172e-02 6.330174e-02 -6.391526e-01 7.253050e-01 7.234840e-01 -1.648762e-01 5.492618e-01 -8.268435e-02 -3.564593e-01 1.203052e-02 -7.059463e-02 5.073482e-02 -1.956445e-01 5.814806e-02 -2.881112e-01 2.508783e-03 1.697347e-01 -2.211505e-01 1.819724e-01 1.647814e-01 -6.734883e-02 9.742335e-02 8.240712e-03 2.041629e-02 2.496873e-02 -3.092084e-02
<VARIANCE> 39
 7.580478e+00 1.700896e+01 1.909988e+01 3.484711e+01 2.704755e+01 2.948784e+01 4.823338e+01 4.778465e+01 3.321845e+01 3.976917e+01 4.240155e+01 3.677535e+01 1.619885e+00 3.151340e-01 1.882918e+00 6.700028e-01 1.043731e+00 1.834888e+00 2.559860e+00 1.467141e+00 1.693770e+00 1.384672e+00 1.287923e+00 1.031998e+00 9.705020e-01 3.582552e-02 4.748386e-02 9.098800e-02 9.640378e-02 2.205420e-01 1.814733e-01 2.352871e-01 2.696365e-01 2.497841e-01 1.837020e-01 1.709958e-01 1.443271e-01 1.353046e-01 2.469562e-03
<GCONST> 8.276375e+01
<TRANSP> 5
 0.000000e+00 1.000000e+00 0.000000e+00 0.000000e+00 0.000000e+00
 0.000000e+00 9.016223e-01 9.837769e-02 0.000000e+00 0.000000e+00
 0.000000e+00 0.000000e+00 8.936677e-01 1.063323e-01 0.000000e+00
 0.000000e+00 0.000000e+00 0.000000e+00 9.153336e-01 8.466635e-02
 0.000000e+00 0.000000e+00 0.000000e+00 0.000000e+00 0.000000e+00
<ENDHMM>
~h "one"
<BEGINHMM>
<NUMSTATES> 5
<STATE> 2
<MEAN> 39
 -4.518756e-01 -3.402775e+00 -8.443940e+00 -1.270265e+01 -1.875617e+00 -5.987657e+00 -2.275714e+00 -8.867912e+00 -2.601652e+00 -6.646008e+00 -1.475402e+00 -7.365995e+00 1.769859e+01 2.104012e-01 -3.606913e-01 -7.771893e-01 3.866597e-01 4.274700e-01 9.435891e-02 -2.048129e-01 2.134631e-01 1.819861e-01 -2.419247e-01 -3.084243e-01 -2.085067e-01 1.796993e-01 -1.118921e-01 -1.460608e-01 2.928737e-02 2.153382e-01 1.225299e-02 -9.389234e-02 -2.920339e-03 1.044307e-01 5.144475e-03 -7.578760e-02 2.514822e-03 7.602540e-02 -1.570849e-02
<VARIANCE> 39
 5.495432e+00 8.375263e+00 3.133015e+01 2.276511e+01 2.856287e+01 2.622852e+01 2.260915e+01 2.060509e+01 2.743979e+01 2.315642e+01 3.019645e+01 3.007908e+01 2.038586e+00 4.331117e-01 7.311468e-01 9.486060e-01 2.139370e+00 1.343972e+00 1.366098e+00 1.271950e+00 1.039805e+00 1.139392e+00 9.681917e-01 1.111004e+00 9.685568e-01 5.947198e-02 3.949686e-02 5.502399e-02 1.856312e-01 2.318591e-01 2.499852e-01 2.470850e-01 2.300209e-01 1.749951e-01 1.963440e-01 1.583904e-01 1.854133e-01 1.750187e-01 4.527915e-03
<GCONST> 7.904120e+01
<STATE> 3
<MEAN> 39
 -2.465526e+00 -1.063754e+01 -1.057807e+01 -1.816912e+00 -8.205442e-01 -9.426720e+00 -2.030194e+00 -4.359937e+00 -3.708456e+00 -1.158849e+01 -2.280304e+00 -6.159993e+00 1.852691e+01 -5.923276e-01 -3.130918e-01 1.360806e+00 4.865221e-01 -1.327703e+00 -2.683893e-01 1.140199e+00 -1.565525e-01 -8.915370e-01 -1.471543e-02 5.522583e-01 9.288824e-02 -5.213550e-02 3.157346e-02 3.182563e-01 2.336373e-01 -5.691890e-01 -9.458942e-02 3.616245e-01 5.219219e-02 -4.228606e-01 2.293599e-02 3.597806e-01 2.881090e-02 -1.620891e-01 -2.971559e-02
<VARIANCE> 39
 6.425591e+00 9.764845e+00 1.981021e+01 2.419558e+01 2.885881e+01 1.776320e+01 3.884042e+01 3.255225e+01 4.659215e+01 3.887003e+01 3.430858e+01 3.411107e+01 1.525047e+00 1.633406e-01 5.914738e-01 6.367484e-01 1.980056e+00 7.715747e-01 1.823211e+00 1.053313e+00 2.307832e+00 1.240630e+00 1.946860e+00 1.064871e+00 1.293226e+00 8.977622e-03 2.596254e-02 5.244817e-02 1.077565e-01 1.227774e-01 3.162041e-01 1.590562e-01 4.062654e-01 1.859158e-01 3.425930e-01 2.133335e-01 2.683238e-01 1.720580e-01 8.707183e-04
<GCONST> 7.673708e+01
<STATE> 4
<MEAN> 39
 -3.841172e+00 -4.380166e+00 -1.380847e+00 -8.920092e+00 -3.196701e+00 -6.281981e+00 -2.462190e+00 -1.221240e+01 -5.214590e+00 -8.497513e+00 -2.664966e+00 -8.175456e+00 1.759470e+01 -3.697456e-03 5.640328e-01 2.622643e-01 -4.548952e-01 4.116563e-01 1.698889e-01 -3.735665e-01 -2.333183e-01 1.575181e-01 1.861180e-01 -2.806920e-02 1.649845e-01 -1.759985e-01 -2.107823e-02 -1.171222e-01 -2.145136e-01 1.096542e-01 8.704620e-02 -2.722194e-02 2.045703e-02 1.849953e-01 4.517041e-02 -7.363593e-02 3.749550e-02 8.076166e-02 -1.677491e-02
<VARIANCE> 39
 6.725614e+00 2.077652e+01 9.946232e+00 1.740461e+01 2.093878e+01 4.195567e+01 3.341071e+01 3.282927e+01 4.008431e+01 4.409931e+01 3.259618e+01 3.568707e+01 1.337945e+00 3.443293e-01 1.010750e+00 9.863663e-01 1.216703e+00 8.805125e-01 1.865035e+00 1.353859e+00 1.411838e+00 1.573526e+00 1.478434e+00 1.085054e+00 1.050131e+00 2.735216e-02 5.694372e-02 1.045748e-01 8.382128e-02 1.278463e-01 1.951441e-01 2.806744e-01 2.505343e-01 1.784445e-01 2.218362e-01 2.216923e-01 1.661900e-01 1.590877e-01 2.928946e-03
<GCONST> 7.987349e+01
<TRANSP> 5
 0.000000e+00 1.000000e+00 0.000000e+00 0.000000e+00 0.000000e+00
 0.000000e+00 9.096042e-01 9.039579e-02 0.000000e+00 0.000000e+00
 0.000000e+00 0.000000e+00 8.314081e-01 1.685920e-01 0.000000e+00
 0.000000e+00 0.000000e+00 0.000000e+00 9.086888e-01 9.131118e-02
 0.000000e+00 0.000000e+00 0.000000e+00 0.000000e+00 0.000000e+00
<ENDHMM>
~h "sil"
<BEGINHMM>
<NUMSTATES> 5
<STATE> 2
<MEAN> 39
 -5.629645e+00 -5.381876e+00 -3.959649e+00 -9.043990e+00 -2.191809e-01 -4.181946e+00 -1.412884e-01 -8.546722e+00 -2.498066e+00 -5.830963e+00 5.865799e-01 -4.487360e+00 1.512057e+01 -2.989976e-01 -2.485867e-01 -1.857914e-01 -5.062690e-02 6.953421e-02 1.348613e-01 8.168909e-02 -1.642505e-03 1.418124e-02 1.866451e-02 1.135565e-01 5.824610e-02 -1.518554e-01 2.366649e-02 -7.472538e-03 -3.844216e-02 -6.360446e-02 -7.384097e-02 -6.420031e-02 -4.217777e-02 -1.949504e-03 -3.811655e-03 -6.770186e-03 -1.693836e-02 -5.217413e-03 2.531363e-02
<VARIANCE> 39
 6.971154e+00 8.607471e+00 9.564870e+00 1.168487e+01 1.486950e+01 1.538813e+01 1.765944e+01 1.877698e+01 2.046498e+01 1.954518e+01 1.858394e+01 1.638749e+01 1.209576e+00 1.686660e-01 3.746067e-01 4.430735e-01 5.866188e-01 7.339892e-01 8.284981e-01 8.455008e-01 9.076086e-01 9.109287e-01 8.356494e-01 9.046682e-01 7.998170e-01 2.155278e-02 2.201150e-02 4.568581e-02 6.338254e-02 7.749976e-02 1.032744e-01 1.189166e-01 1.186157e-01 1.276626e-01 1.369566e-01 1.216474e-01 1.281471e-01 1.153789e-01 2.526400e-03
<GCONST> 5.922251e+01
<STATE> 3
<MEAN> 39
 -7.156939e+00 -7.236734e+00 -5.866395e+00 -1.018523e+01 -1.012348e+00 -4.339154e+00 -3.654399e-01 -8.603598e+00 -2.680012e+00 -5.571365e+00 1.005066e+00 -4.037417e+00 1.452098e+01 -3.584253e-03 4.973506e-03 -6.192428e-03 3.801552e-03 1.879224e-03 4.715818e-03 1.254850e-03 -9.876002e-03 -4.555726e-03 1.094668e-02 -2.631791e-04 2.492700e-03 -1.193112e-03 -2.367692e-04 4.887871e-03 2.877435e-03 5.286427e-03 1.315781e-03 2.870265e-03 5.485986e-04 5.853312e-03 2.717679e-03 -8.293783e-04 -4.062812e-03 -3.430436e-03 1.585004e-03
<VARIANCE> 39
 3.027166e+00 3.564784e+00 6.172709e+00 8.254443e+00 1.253747e+01 1.387374e+01 1.474216e+01 1.582846e+01 1.623780e+01 1.398252e+01 1.548318e+01 1.300188e+01 1.028432e+00 5.842910e-02 1.319095e-01 2.563354e-01 3.600306e-01 4.751975e-01 6.449598e-01 6.224144e-01 6.900988e-01 6.643435e-01 5.534238e-01 6.422849e-01 5.676934e-01 2.417422e-03 1.073370e-02 2.426565e-02 4.638903e-02 6.443693e-02 8.854956e-02 1.218526e-01 1.105601e-01 1.289115e-01 1.215520e-01 9.644406e-02 1.150024e-01 1.070999e-01 5.051140e-04
<GCONST> 4.276596e+01
<STATE> 4
<MEAN> 39
 -8.044106e+00 -6.369838e+00 -6.079108e+00 -1.016942e+01 -1.188542e+00 -4.700865e+00 -5.106573e-01 -8.720682e+00 -2.519547e+00 -5.941776e+00 9.985303e-01 -4.417084e+00 1.453677e+01 3.423521e-03 1.545878e-01 2.794368e-02 1.227908e-02 -7.638080e-02 -6.393988e-02 -6.564870e-02 4.921002e-02 -5.532631e-02 -8.987714e-02 -1.027087e-01 -6.833758e-02 4.892005e-02 4.561815e-02 5.645904e-02 2.690587e-02 -6.751369e-03 -2.036132e-03 -2.716345e-02 -1.659564e-02 -1.573687e-02 -1.398932e-02 -1.821253e-02 -3.889869e-02 -1.456905e-02 3.347787e-02
<VARIANCE> 39
 5.361446e+00 5.850632e+00 7.452213e+00 1.031433e+01 1.202340e+01 1.461871e+01 1.655215e+01 1.791414e+01 1.851073e+01 1.737202e+01 1.645254e+01 1.416317e+01 1.276581e+00 2.534416e-01 3.365526e-01 3.772618e-01 5.664117e-01 6.053319e-01 7.375279e-01 7.088112e-01 9.202834e-01 8.939186e-01 7.990483e-01 7.762723e-01 6.718941e-01 2.073161e-02 3.954313e-02 5.724535e-02 6.069190e-02 9.818343e-02 9.287848e-02 1.226490e-01 1.060878e-01 1.502722e-01 1.416594e-01 1.225171e-01 1.118090e-01 9.929986e-02 4.412929e-03
<GCONST> 5.788785e+01
<TRANSP> 5
 0.000000e+00 1.000000e+00 0.000000e+00 0.000000e+00 0.000000e+00
 0.000000e+00 7.692415e-01 2.307585e-01 0.000000e+00 0.000000e+00
 0.000000e+00 0.000000e+00 9.590835e-01 4.091651e-02 0.000000e+00
 0.000000e+00 0.000000e+00 0.000000e+00 7.109238e-01 2.890762e-01
 0.000000e+00 0.000000e+00 0.000000e+00 0.000000e+00 0.000000e+00
<ENDHMM>
~h "six"
<BEGINHMM>
<NUMSTATES> 5
<STATE> 2
<MEAN> 39
 -9.124295e+00 -4.836953e+00 -7.749949e+00 -8.266639e+00 -2.438857e+00 -2.834771e+00 -1.487292e+00 -7.798928e+00 -3.116517e+00 -4.969312e+00 3.618698e-01 -3.493940e+00 1.461232e+01 2.726808e-02 1.591593e-01 1.185999e-01 -3.531422e-01 -3.868239e-01 -2.528208e-01 -1.307443e-02 8.920103e-03 1.418942e-01 1.896524e-01 -1.204982e-01 9.512733e-03 1.277529e-01 1.224180e-01 8.574617e-02 1.920704e-01 -2.156928e-01 -1.443492e-01 -1.911087e-01 -1.348155e-02 -1.142853e-02 4.335985e-02 1.788295e-02 -7.846194e-02 -1.185634e-01 9.579258e-02
<VARIANCE> 39
 5.881857e+00 7.824515e+00 1.145772e+01 1.170149e+01 1.691563e+01 1.670038e+01 1.585943e+01 1.681437e+01 1.957148e+01 2.023767e+01 1.844874e+01 1.536605e+01 1.012899e+00 5.537624e-01 4.715973e-01 1.205764e+00 1.010493e+00 1.007775e+00 1.470689e+00 8.038245e-01 8.137798e-01 1.030869e+00 1.294180e+00 9.459650e-01 9.358562e-01 1.411680e-01 4.636099e-02 5.967520e-02 9.845398e-02 1.366895e-01 1.730452e-01 1.833199e-01 1.418880e-01 1.549592e-01 1.804593e-01 1.774092e-01 1.522814e-01 1.540163e-01 7.503506e-03
<GCONST> 7.075550e+01
<STATE> 3
<MEAN> 39
 -6.389795e+00 -1.255084e+00 -8.810622e-01 -1.937228e+01 -7.577194e+00 -8.493301e+00 -2.595069e+00 -6.569140e+00 3.325135e-02 -3.820273e+00 -2.226168e+00 -7.108534e+00 1.817332e+01 6.033787e-02 -1.004580e-01 1.973093e-01 -2.318161e-01 3.399071e-01 1.645808e-01 -1.732648e-01 1.224701e-01 4.917458e-02 -1.716383e-01 1.772009e-01 -6.580624e-03 -4.431789e-02 -7.081279e-02 -1.914884e-01 -2.624973e-01 4.212634e-01 2.477779e-01 2.067547e-01 8.841414e-02 -7.030386e-02 -1.214316e-01 -5.252283e-02 1.186420e-01 1.339913e-01 -1.487445e-01
<VARIANCE> 39
 7.367367e+00 9.635596e+00 1.569742e+01 2.776347e+01 5.692443e+01 3.167277e+01 3.629292e+01 2.495915e+01 3.438404e+01 5.661712e+01 3.469410e+01 3.674877e+01 1.645047e+00 3.757044e-01 7.674609e-01 1.271302e+00 3.640179e+00 2.695807e+00 1.950655e+00 1.896175e+00 1.366034e+00 1.928482e+00 2.033426e+00 1.879827e+00 2.011310e+00 3.396144e-01 6.646573e-02 6.525156e-02 1.520792e-01 2.585391e-01 3.130457e-01 3.120063e-01 3.695939e-01 2.303203e-01 2.922210e-01 3.375136e-01 2.687100e-01 2.614650e-01 1.433633e-02
<GCONST> 9.337854e+01
<STATE> 4
<MEAN> 39
 -8.222577e+00 -6.451437e+00 -6.277396e+00 -9.275580e+00 -2.415955e+00 -3.256267e+00 -9.182795e-01 -8.615625e+00 -2.795307e+00 -5.153826e+00 7.408612e-01 -4.248632e+00 1.464348e+01 -7.442141e-02 -1.118079e-01 -2.389876e-01 2.870741e-01 3.500237e-02 6.666954e-02 1.390737e-01 -4.188104e-02 -8.121280e-02 -2.483465e-03 7.366194e-03 3.130436e-02 -6.889638e-02 2.173761e-02 7.154374e-02 7.432573e-02 -1.248944e-01 -5.118548e-02 -6.603880e-02 -5.131238e-02 3.815519e-02 2.469895e-02 6.733167e-03 -2.995415e-02 -2.922745e-02 4.497596e-02
<VARIANCE> 39
 7.836407e+00 8.036997e+00 1.202001e+01 1.253897e+01 1.775489e+01 1.684576e+01 1.688475e+01 1.718216e+01 1.742178e+01 1.762553e+01 1.547863e+01 1.427367e+01 1.310076e+00 3.471871e-01 5.518959e-01 7.463472e-01 9.087877e-01 9.875020e-01 1.059264e+00 1.026785e+00 9.108871e-01 8.760952e-01 8.051553e-01 7.558443e-01 6.350734e-01 5.456960e-02 4.509159e-02 7.355034e-02 1.100384e-01 1.327705e-01 1.825923e-01 1.706938e-01 1.655957e-01 1.667245e-01 1.581869e-01 1.441438e-01 1.370198e-01 1.246720e-01 7.388051e-03
<GCONST> 6.779649e+01
<TRANSP> 5
 0.000000e+00 1.000000e+00 0.000000e+00 0.000000e+00 0.000000e+00
 0.000000e+00 9.049472e-01 9.505282e-02 0.000000e+00 0.000000e+00
 0.000000e+00 0.000000e+00 8.983328e-01 1.016671e-01 0.000000e+00
 0.000000e+00 0.000000e+00 0.000000e+00 9.437304e-01 5.626967e-02
 0.000000e+00 0.000000e+00 0.000000e+00 0.000000e+00 0.000000e+00
<ENDHMM>
~h "two"
<BEGINHMM>
<NUMSTATES> 5
<STATE> 2
<MEAN> 39
 -9.639385e+00 -4.513420e+00 -6.580739e+00 -9.863551e+00 -9.720679e-01 -4.070685e+00 -1.373341e+00 -8.179421e+00 -2.537155e+00 -5.722522e+00 1.014191e+00 -3.721766e+00 1.495430e+01 -3.758436e-02 2.631138e-01 2.263375e-01 -3.008479e-01 -8.029235e-02 -1.059216e-02 -1.952109e-01 2.048012e-02 1.192919e-01 3.786876e-02 -4.394927e-03 -2.839613e-02 9.347325e-02 1.950328e-01 9.726127e-02 2.115308e-01 -1.064898e-01 -1.587307e-01 -1.867034e-01 -1.174415e-01 -6.690851e-02 -2.515930e-02 -1.346588e-03 -7.481474e-02 -1.170505e-01 8.904150e-02
<VARIANCE> 39
 9.732249e+00 8.411862e+00 1.057136e+01 1.130263e+01 1.669860e+01 1.858913e+01 1.761610e+01 1.993474e+01 2.015005e+01 2.109536e+01 2.063021e+01 1.756303e+01 9.683660e-01 1.154742e+00 7.385863e-01 1.484535e+00 7.320567e-01 1.243841e+00 1.212136e+00 9.533136e-01 1.050648e+00 1.054676e+00 1.129717e+00 1.398417e+00 9.929935e-01 1.174515e-01 1.107615e-01 1.110955e-01 1.232446e-01 1.199815e-01 2.136392e-01 1.859785e-01 1.655749e-01 1.895574e-01 1.984025e-01 1.764035e-01 2.621551e-01 1.380706e-01 7.422636e-03
<GCONST> 7.620215e+01
<STATE> 3
<MEAN> 39
 -4.756927e+00 1.149319e+00 1.778226e+00 -1.527068e+01 -6.598805e+00 -9.672951e+00 -6.598327e+00 -1.044179e+01 -2.516045e+00 -5.320361e+00 -1.030022e+00 -7.239760e+00 1.830119e+01 7.193316e-01 5.999750e-01 8.360479e-01 -6.091866e-01 -1.201094e+00 -1.150002e+00 -6.212710e-01 -3.241047e-01 -7.638557e-02 1.074630e-01 -2.783293e-01 -6.924759e-01 4.804429e-01 -2.461663e-01 -2.219688e-01 -4.234546e-01 2.838059e-01 2.397684e-01 2.108273e-01 2.293689e-01 1.474370e-01 -1.436223e-02 5.922032e-03 1.442221e-01 1.762002e-01 -1.356786e-01
<VARIANCE> 39
 7.637055e+00 8.201179e+00 1.359603e+01 2.286913e+01 4.094154e+01 2.664878e+01 2.842987e+01 2.392865e+01 3.044523e+01 5.369548e+01 4.334023e+01 4.700752e+01 1.220934e+00 6.002333e-01 6.134157e-01 9.871255e-01 1.413978e+00 1.245543e+00 1.154155e+00 1.636979e+00 1.535898e+00 1.877874e+00 2.038628e+00 2.554882e+00 1.859359e+00 8.416661e-02 6.196137e-02 5.703236e-02 8.188546e-02 1.318223e-01 2.159619e-01 1.828539e-01 2.050726e-01 1.926455e-01 2.096131e-01 2.724445e-01 2.909153e-01 2.224142e-01 8.053108e-03
<GCONST> 8.427509e+01
<STATE> 4
<MEAN> 39
 -3.074160e+00 -2.498512e-01 -1.582097e-01 -1.281028e+01 -6.631960e+00 -1.135589e+01 -5.742240e+00 -1.003087e+01 -3.079259e+00 -5.508291e+00 -1.510164e-01 -7.402940e+00 1.806439e+01 2.856413e-02 -3.108902e-01 -3.225634e-01 4.777231e-01 4.160341e-01 2.897207e-01 2.823398e-01 6.164465e-02 -7.978731e-02 -2.571195e-03 1.468312e-01 2.523626e-01 -1.813451e-01 -7.879078e-02 -6.534901e-02 -4.715154e-02 -2.747093e-03 8.374625e-02 1.333991e-01 8.168747e-02 3.501740e-02 2.799214e-02 -2.889537e-03 -1.431966e-02 4.589148e-02 -4.147512e-02
<VARIANCE> 39
 6.126966e+00 7.980875e+00 1.202322e+01 3.019343e+01 3.252040e+01 2.281901e+01 3.197463e+01 3.246531e+01 4.006975e+01 4.282230e+01 5.143118e+01 4.045085e+01 1.492823e+00 2.866628e-01 2.399527e-01 4.425734e-01 6.655244e-01 9.312068e-01 1.150723e+00 1.105538e+00 1.194716e+00 1.057023e+00 1.124071e+00 1.145986e+00 1.082552e+00 3.967651e-02 3.091886e-02 3.306121e-02 5.466450e-02 9.506738e-02 1.114157e-01 1.450114e-01 1.389046e-01 1.749010e-01 1.699729e-01 1.672947e-01 1.672981e-01 1.557807e-01 3.008824e-03
<GCONST> 7.111190e+01
<TRANSP> 5
 0.000000e+00 1.000000e+00 0.000000e+00 0.000000e+00 0.000000e+00
 0.000000e+00 9.084745e-01 9.152550e-02 0.000000e+00 0.000000e+00
 0.000000e+00 0.000000e+00 7.698597e-01 2.301403e-01 0.000000e+00
 0.000000e+00 0.000000e+00 0.000000e+00 9.201575e-01 7.984253e-02
 0.000000e+00 0.000000e+00 0.000000e+00 0.000000e+00 0.000000e+00
<ENDHMM>
~h "nine"
<BEGINHMM>
<NUMSTATES> 5
<STATE> 2
<MEAN> 39
 -4.077333e+00 -3.898050e+00 -1.677268e+00 -8.971153e+00 -2.804496e+00 -6.378205e+00 -1.642719e+00 -1.116134e+01 -5.117403e+00 -8.041979e+00 -2.887750e+00 -7.734884e+00 1.762904e+01 -1.811330e-01 -6.858045e-01 -2.834647e-01 4.408274e-01 -4.285437e-01 2.355708e-01 4.030293e-01 -1.731194e-01 -1.880371e-02 -1.236196e-01 -8.592746e-02 -8.366889e-02 2.069315e-01 -5.922486e-02 -1.590376e-01 -1.030370e-01 1.132274e-01 -5.453088e-03 -1.169384e-03 5.204880e-02 4.893649e-02 3.952454e-02 9.370350e-03 7.326276e-02 3.877687e-02 -9.215264e-03
<VARIANCE> 39
 8.090962e+00 1.916344e+01 1.444467e+01 1.669298e+01 2.834812e+01 2.875758e+01 3.145671e+01 2.650793e+01 4.734476e+01 3.538879e+01 3.033127e+01 3.281610e+01 1.829774e+00 4.871433e-01 1.494064e+00 1.080496e+00 1.097172e+00 1.264091e+00 1.393839e+00 1.627393e+00 1.205141e+00 1.553542e+00 1.157375e+00 1.183342e+00 1.006629e+00 4.894997e-02 6.265631e-02 1.682047e-01 1.288505e-01 1.425367e-01 2.181610e-01 2.178719e-01 2.447260e-01 1.814130e-01 2.032966e-01 1.691317e-01 1.711287e-01 1.443607e-01 4.463015e-03
<GCONST> 8.221030e+01
<STATE> 3
<MEAN> 39
 -6.347527e+00 -1.160442e+01 -4.860510e+00 -2.734690e+00 -5.693743e+00 -5.250024e+00 1.736059e+00 -1.135922e+01 -5.539678e+00 -9.015328e+00 -1.699770e+00 -7.646741e+00 1.861514e+01 -1.102202e-01 9.686069e-02 2.307477e-01 -2.420476e-01 -2.305182e-02 2.140791e-01 -1.050664e-01 -8.696252e-02 1.959001e-01 5.474260e-02 -5.526771e-02 4.596745e-02 -2.113689e-02 2.517109e-03 1.935469e-01 6.929501e-02 -2.402585e-01 4.426290e-02 6.240285e-02 -1.060978e-01 1.121206e-02 7.537670e-02 -1.084900e-02 -6.778218e-02 2.441987e-02 -1.480030e-02
<VARIANCE> 39
 7.253240e+00 8.472350e+00 2.450036e+01 3.236936e+01 1.900658e+01 3.083622e+01 3.095137e+01 3.397373e+01 4.391689e+01 4.150163e+01 2.842895e+01 3.075454e+01 1.006126e+00 8.384609e-02 3.840281e-01 4.111280e-01 1.132712e+00 5.000370e-01 6.241730e-01 5.587700e-01 5.153652e-01 6.511035e-01 6.707069e-01 6.806694e-01 5.420507e-01 4.827253e-03 1.133340e-02 3.005360e-02 4.127556e-02 5.547937e-02 7.264968e-02 7.246985e-02 7.391030e-02 8.095075e-02 8.281079e-02 8.716505e-02 7.873287e-02 7.922964e-02 3.983416e-04
<GCONST> 5.405603e+01
<STATE> 4
<MEAN> 39
 -5.408935e+00 -2.488683e+00 -1.320185e+00 -1.141011e+01 -1.443076e+00 -5.341780e+00 -3.676826e+00 -1.048140e+01 -3.509036e+00 -8.117114e+00 -2.930941e+00 -6.527737e+00 1.769446e+01 2.317150e-01 5.105898e-01 -3.093243e-03 -1.016921e-01 4.411192e-01 -2.479246e-01 -2.011420e-01 2.756157e-01 -1.277937e-01 8.107446e-02 2.108434e-01 1.169408e-01 -1.723584e-01 -2.715112e-02 -1.583065e-01 -8.625395e-02 1.474564e-01 -3.839160e-02 -6.090248e-03 1.204324e-01 1.985700e-02 -5.447877e-02 4.231446e-02 7.832278e-02 -9.554897e-03 -2.023005e-02
<VARIANCE> 39
 1.166846e+01 1.632527e+01 1.132170e+01 2.321636e+01 3.171840e+01 3.320288e+01 3.064789e+01 2.993113e+01 4.733529e+01 3.817848e+01 3.626937e+01 3.985384e+01 1.211664e+00 5.065153e-01 1.171872e+00 6.359946e-01 1.643074e+00 1.303741e+00 1.550628e+00 1.528431e+00 1.269756e+00 1.658818e+00 1.184173e+00 1.105880e+00 1.068940e+00 2.538144e-02 7.071382e-02 8.681946e-02 9.031530e-02 1.779846e-01 1.819096e-01 2.449435e-01 1.820611e-01 2.039851e-01 2.436526e-01 1.943311e-01 1.735394e-01 1.451956e-01 2.221679e-03
<GCONST> 8.083681e+01
<TRANSP> 5
 0.000000e+00 1.000000e+00 0.000000e+00 0.000000e+00 0.000000e+00
 0.000000e+00 9.012507e-01 9.874934e-02 0.000000e+00 0.000000e+00
 0.000000e+00 0.000000e+00 9.153502e-01 8.464979e-02 0.000000e+00
 0.000000e+00 0.000000e+00 0.000000e+00 9.176030e-01 8.239704e-02
 0.000000e+00 0.000000e+00 0.000000e+00 0.000000e+00 0.000000e+00
<ENDHMM>
~h "five"
<BEGINHMM>
<NUMSTATES> 5
<STATE> 2
<MEAN> 39
 -6.145313e+00 -8.579067e+00 -7.592478e+00 -9.225049e+00 -4.230673e-01 -6.121458e+00 6.971481e-03 -6.825426e+00 -3.778218e+00 -6.490664e+00 -3.219362e-01 -4.546301e+00 1.643808e+01 1.117997e-01 -6.872147e-01 -4.785938e-01 3.255059e-01 2.195615e-01 -2.712143e-01 2.421205e-01 2.802739e-01 -3.435882e-01 -1.302729e-01 -1.266208e-01 1.666884e-02 2.472816e-01 -1.687221e-03 -5.660655e-03 5.737676e-02 4.688849e-02 -1.725603e-02 -3.236513e-02 -1.989602e-02 -4.941009e-02 -1.732863e-02 2.411603e-02 1.546204e-02 -1.459356e-02 2.061876e-02
<VARIANCE> 39
 1.125216e+01 1.815388e+01 1.972014e+01 1.332430e+01 1.796996e+01 2.025478e+01 1.944232e+01 3.697221e+01 2.612187e+01 2.326820e+01 2.203220e+01 1.616224e+01 4.948141e+00 7.423180e-01 6.844185e-01 8.868356e-01 8.866018e-01 8.226782e-01 1.096097e+00 9.428293e-01 1.701116e+00 1.496832e+00 1.271830e+00 1.231869e+00 8.357612e-01 2.129111e-01 1.004225e-01 1.065272e-01 1.570923e-01 1.148709e-01 1.338450e-01 1.695190e-01 1.473376e-01 2.760084e-01 2.348386e-01 1.802754e-01 1.906095e-01 1.286199e-01 2.516607e-02
<GCONST> 8.141045e+01
<STATE> 3
<MEAN> 39
 -5.829910e+00 -1.543208e+01 -8.489590e+00 -3.791504e+00 1.364195e+00 -9.061787e+00 2.480586e+00 -7.543465e+00 -7.266443e+00 -5.482923e+00 -5.596458e-01 -4.576599e+00 1.903887e+01 -1.610333e-01 9.881331e-02 4.891212e-01 -2.808351e-01 -2.718479e-01 4.465798e-01 6.804502e-02 -3.852472e-01 3.469799e-02 2.820534e-01 5.019199e-02 -7.338848e-02 -4.962922e-02 4.119493e-02 1.198992e-01 1.074240e-02 -1.944130e-01 -5.746679e-02 8.541065e-02 -2.819498e-02 2.903891e-02 6.260724e-02 -5.057401e-02 -7.345666e-02 -1.855369e-02 -1.597169e-02
<VARIANCE> 39
 9.235522e+00 9.516525e+00 2.487406e+01 2.134833e+01 1.890436e+01 2.361060e+01 1.802780e+01 4.020390e+01 4.783454e+01 4.513334e+01 2.691066e+01 2.542698e+01 1.368737e+00 9.077764e-02 1.726030e-01 2.727431e-01 6.954166e-01 5.202833e-01 5.777702e-01 5.082272e-01 5.121693e-01 6.401096e-01 6.122537e-01 5.999657e-01 4.835860e-01 5.997591e-03 1.192115e-02 2.521034e-02 3.123390e-02 4.833080e-02 5.224702e-02 5.349393e-02 5.804966e-02 6.689402e-02 9.045392e-02 8.805472e-02 6.807332e-02 7.103815e-02 9.688314e-04
<GCONST> 5.083690e+01
<STATE> 4
<MEAN> 39
 -5.452400e+00 -7.798186e+00 -3.664721e+00 -1.292934e+01 -3.057851e+00 -3.760871e+00 1.120413e+00 -8.346091e+00 -3.888036e+00 -5.631060e+00 -1.734030e+00 -5.653006e+00 1.761938e+01 6.896073e-02 9.293813e-01 2.307970e-01 -1.987870e-01 -1.315918e-01 -8.908972e-02 -2.932280e-01 7.891092e-02 3.928491e-01 -1.370573e-01 7.672872e-02 1.233738e-02 -2.762189e-01 -4.002658e-02 -7.254098e-02 -8.900353e-02 1.945948e-01 1.092603e-01 -8.830139e-02 -1.665526e-02 -4.516072e-03 -4.075462e-02 1.309690e-02 7.345093e-02 3.240531e-02 -1.782521e-02
<VARIANCE> 39
 7.533128e+00 2.308249e+01 1.185585e+01 2.986159e+01 3.748623e+01 2.150839e+01 2.415422e+01 3.057124e+01 4.223593e+01 2.629447e+01 2.688214e+01 2.787959e+01 2.629520e+00 3.400318e-01 7.374044e-01 6.409172e-01 2.733147e+00 1.682088e+00 1.393089e+00 9.393057e-01 1.417222e+00 1.594575e+00 1.266554e+00 1.316849e+00 1.013080e+00 6.819279e-02 5.715523e-02 1.022109e-01 9.524722e-02 3.009321e-01 2.342667e-01 2.509232e-01 1.675268e-01 2.084453e-01 2.011775e-01 1.717467e-01 2.163431e-01 1.726193e-01 9.082132e-03
<GCONST> 8.298359e+01
<TRANSP> 5
 0.000000e+00 1.000000e+00 0.000000e+00 0.000000e+00 0.000000e+00
 0.000000e+00 9.300390e-01 6.996103e-02 0.000000e+00 0.000000e+00
 0.000000e+00 0.000000e+00 9.152319e-01 8.476806e-02 0.000000e+00
 0.000000e+00 0.000000e+00 0.000000e+00 8.980054e-01 1.019946e-01
 0.000000e+00 0.000000e+00 0.000000e+00 0.000000e+00 0.000000e+00
<ENDHMM>
~h "four"
<BEGINHMM>
<NUMSTATES> 5
<STATE> 2
<MEAN> 39
 -7.667615e+00 -6.677808e+00 -5.470643e+00 -9.688792e+00 -1.112551e+00 -4.543475e+00 -5.189723e-01 -8.559962e+00 -2.271120e+00 -5.732477e+00 1.121441e+00 -4.080834e+00 1.494338e+01 3.138351e-01 1.474900e-02 -3.778505e-01 -2.939828e-01 -1.125256e-01 -9.205859e-02 -1.320308e-01 -8.570048e-03 1.231803e-01 1.055103e-01 -1.625188e-02 -4.077200e-02 1.258384e-01 2.438173e-01 9.813487e-02 -1.170317e-01 -1.288144e-01 -5.303994e-02 -1.112581e-01 -1.097987e-01 -1.808108e-02 -8.184129e-03 7.009563e-03 -7.390762e-02 -1.029496e-01 1.065350e-01
<VARIANCE> 39
 4.657696e+00 4.193452e+00 6.876489e+00 8.704023e+00 1.156782e+01 1.418993e+01 1.488089e+01 1.611070e+01 1.489992e+01 1.410062e+01 1.539703e+01 1.167687e+01 9.116805e-01 1.047065e+00 4.639226e-01 5.766308e-01 6.437172e-01 6.049652e-01 9.842691e-01 9.577661e-01 8.519983e-01 8.544640e-01 7.821132e-01 1.037501e+00 8.674535e-01 1.654568e-01 5.929433e-02 5.711767e-02 1.015155e-01 1.069119e-01 1.041820e-01 1.638892e-01 1.311689e-01 1.613807e-01 1.551103e-01 1.347689e-01 1.544513e-01 1.329648e-01 6.555354e-03
<GCONST> 6.410859e+01
<STATE> 3
<MEAN> 39
 1.545542e+00 -3.506073e+00 -1.204608e+01 -1.693926e+01 -4.004879e+00 -6.246487e+00 -3.255047e+00 -8.958975e+00 -1.451340e+00 -3.992063e+00 3.068353e-01 -6.856421e+00 1.889500e+01 3.433107e-01 -1.623348e-01 -3.558474e-01 -7.217008e-02 6.820393e-02 -2.290284e-02 -2.270717e-01 1.736724e-01 3.472252e-01 1.047986e-01 -2.364448e-01 -2.329478e-01 1.594964e-01 -1.728061e-01 -1.511377e-01 1.446060e-01 2.267972e-01 4.013339e-02 -2.949185e-02 4.305377e-02 1.087216e-01 4.690720e-02 -7.877223e-02 -5.253185e-02 5.703614e-02 -6.698088e-02
<VARIANCE> 39
 4.227960e+00 1.022245e+01 1.029037e+01 1.432917e+01 2.460275e+01 1.721146e+01 1.818636e+01 1.709348e+01 2.334694e+01 2.481169e+01 3.750478e+01 3.594286e+01 1.115801e+00 5.912059e-01 7.438598e-01 7.231894e-01 1.240829e+00 9.895769e-01 7.948631e-01 9.115142e-01 9.642964e-01 1.307602e+00 1.180656e+00 1.372134e+00 1.243437e+00 1.038316e-01 4.871600e-02 4.642914e-02 9.628291e-02 8.305278e-02 1.340594e-01 1.435020e-01 1.544317e-01 1.396360e-01 1.799932e-01 1.932645e-01 2.021902e-01 1.820074e-01 7.090523e-03
<GCONST> 7.298953e+01
<STATE> 4
<MEAN> 39
 -5.429505e-01 -1.072220e+01 -7.323111e+00 -8.565814e+00 -5.391744e+00 -8.704763e+00 -2.323943e+00 -4.895535e+00 1.832010e-01 -7.540124e+00 -3.910870e+00 -7.426215e+00 1.840887e+01 -6.129128e-01 7.465170e-02 1.055965e+00 4.896515e-01 -3.433488e-01 7.616313e-02 5.981661e-01 -1.811752e-01 -6.240195e-01 -3.440988e-01 1.658256e-01 3.014707e-01 -2.432767e-01 -9.001623e-02 2.380776e-01 -4.453197e-02 -1.996031e-01 1.165281e-01 1.960448e-01 3.099986e-02 -1.858948e-01 -1.287925e-01 1.032561e-01 1.745548e-01 4.439823e-02 -4.962711e-02
<VARIANCE> 39
 7.333427e+00 1.779959e+01 3.181578e+01 1.828338e+01 4.522200e+01 3.700930e+01 3.509685e+01 4.319412e+01 4.621209e+01 3.482878e+01 3.460001e+01 3.076933e+01 1.741631e+00 2.971710e-01 1.587486e+00 9.179296e-01 1.626264e+00 2.564564e+00 2.221740e+00 1.718491e+00 2.564769e+00 1.885271e+00 1.705947e+00 1.829049e+00 1.123808e+00 5.832916e-02 2.926797e-02 1.346432e-01 2.064869e-01 1.690597e-01 4.288343e-01 2.940586e-01 3.516554e-01 3.668476e-01 3.851871e-01 2.816705e-01 3.092500e-01 2.124643e-01 3.411656e-03
<GCONST> 9.085587e+01
<TRANSP> 5
 0.000000e+00 1.000000e+00 0.000000e+00 0.000000e+00 0.000000e+00
 0.000000e+00 9.011176e-01 9.888238e-02 0.000000e+00 0.000000e+00
 0.000000e+00 0.000000e+00 9.186853e-01 8.131469e-02 0.000000e+00
 0.000000e+00 0.000000e+00 0.000000e+00 8.810122e-01 1.189878e-01
 0.000000e+00 0.000000e+00 0.000000e+00 0.000000e+00 0.000000e+00
<ENDHMM>
~h "zero"
<BEGINHMM>
<NUMSTATES> 5
<STATE> 2
<MEAN> 39
 -6.758206e+00 -3.060524e+00 -4.886800e+00 -7.466876e+00 -1.265800e+00 -3.807539e+00 -1.414119e+00 -8.520011e+00 -3.457369e+00 -5.106214e+00 5.901057e-01 -4.556117e+00 1.523185e+01 -8.170020e-02 3.317821e-01 1.413777e-01 -3.041333e-01 -2.133324e-01 -2.737745e-01 -1.777350e-01 -1.205144e-01 1.233157e-01 2.201325e-01 -1.254621e-02 -1.830624e-04 1.060470e-01 6.806412e-02 1.068916e-01 1.512881e-01 -2.256997e-01 -1.459349e-01 -2.462550e-01 -6.497172e-02 -7.538822e-02 6.202590e-02 1.080048e-02 -2.262622e-02 -5.403333e-02 8.252133e-02
<VARIANCE> 39
 7.745512e+00 1.028869e+01 1.429247e+01 1.360930e+01 1.783342e+01 1.930359e+01 1.877961e+01 1.949852e+01 2.377092e+01 2.085621e+01 1.977663e+01 1.678330e+01 1.208747e+00 4.211702e-01 7.290829e-01 1.003682e+00 9.500284e-01 8.893819e-01 1.750829e+00 9.589532e-01 1.102075e+00 1.068045e+00 8.963269e-01 1.006098e+00 1.001635e+00 1.192550e-01 5.258032e-02 9.179030e-02 1.144094e-01 1.198335e-01 1.237966e-01 1.946411e-01 1.597986e-01 1.730615e-01 1.607248e-01 1.399864e-01 1.706406e-01 1.584601e-01 7.959108e-03
<GCONST> 7.320327e+01
<STATE> 3
<MEAN> 39
 -5.592015e+00 3.945366e-01 8.080050e-01 -1.662404e+01 -7.708267e+00 -9.224350e+00 -4.659700e+00 -8.628950e+00 -4.975153e-02 -3.802449e+00 1.258685e-01 -6.759901e+00 1.834426e+01 3.379562e-01 -6.249135e-01 4.886425e-01 -2.654650e-01 -1.102029e+00 1.289959e-01 1.549912e-01 1.538234e-01 3.348666e-01 -5.400727e-02 2.662423e-02 -1.552664e-01 1.949047e-01 4.519607e-02 -2.660165e-01 -1.692212e-01 3.432815e-01 9.471106e-03 1.402547e-01 1.907972e-01 7.236741e-02 -7.130598e-02 -4.765693e-02 -7.077432e-03 6.282332e-02 -6.164369e-02
<VARIANCE> 39
 7.281660e+00 1.916619e+01 1.718688e+01 2.744134e+01 5.848067e+01 3.937103e+01 3.189004e+01 4.336129e+01 3.246129e+01 3.001714e+01 3.379588e+01 4.994804e+01 1.156419e+00 4.295198e-01 1.775789e+00 8.556067e-01 2.664975e+00 1.664640e+00 2.654095e+00 1.727583e+00 1.475499e+00 1.340069e+00 1.175702e+00 1.141466e+00 1.379932e+00 7.313862e-02 5.099262e-02 1.107348e-01 1.223783e-01 1.857613e-01 2.375802e-01 3.918880e-01 2.244456e-01 2.434493e-01 2.200090e-01 1.773808e-01 1.724136e-01 2.131435e-01 4.550995e-03
<GCONST> 8.729111e+01
<STATE> 4
<MEAN> 39
 -1.649473e+00 -9.930230e+00 -4.550792e+00 -9.836775e+00 -9.202409e+00 -8.373770e+00 4.414134e-02 -4.372774e+00 -3.071650e-01 -6.663015e+00 -1.066701e+00 -5.913427e+00 1.846297e+01 -1.766056e-03 4.115382e-02 -4.249260e-01 2.121227e-01 6.904598e-01 -3.665874e-02 1.299350e-02 7.660034e-02 -1.453013e-01 -9.953295e-02 -4.257957e-02 5.559948e-02 -9.981403e-02 -8.147202e-02 1.027182e-01 5.157155e-02 -8.308399e-02 8.993202e-02 7.163323e-02 -5.898802e-02 -6.225028e-02 -2.368464e-02 2.519925e-02 2.528919e-02 8.750040e-03 -2.410535e-02
<VARIANCE> 39
 6.049096e+00 2.022798e+01 2.591546e+01 2.576110e+01 6.116703e+01 5.180122e+01 3.776300e+01 3.636139e+01 4.391834e+01 3.594069e+01 2.597994e+01 3.311901e+01 1.509393e+00 3.011721e-01 8.276145e-01 7.834125e-01 1.013695e+00 1.236714e+00 1.841313e+00 1.589937e+00 1.897711e+00 1.647509e+00 1.476215e+00 1.053263e+00 9.581065e-01 3.797364e-02 2.902774e-02 5.182519e-02 8.360527e-02 1.130995e-01 1.905521e-01 2.371080e-01 2.060717e-01 2.034595e-01 2.219585e-01 2.011840e-01 1.522542e-01 1.418976e-01 2.415728e-03
<GCONST> 8.034275e+01
<TRANSP> 5
 0.000000e+00 1.000000e+00 0.000000e+00 0.000000e+00 0.000000e+00
 0.000000e+00 8.903294e-01 1.096706e-01 0.000000e+00 0.000000e+00
 0.000000e+00 0.000000e+00 8.972800e-01 1.027200e-01 0.000000e+00
 0.000000e+00 0.000000e+00 0.000000e+00 9.447578e-01 5.524216e-02
 0.000000e+00 0.000000e+00 0.000000e+00 0.000000e+00 0.000000e+00
<ENDHMM>
