~o
<STREAMINFO> 1 39
<VECSIZE> 39<NULLD><MFCC_E_D_A><DIAGC>
~s "silst"
<MEAN> 39
 -5.074483e+00 -3.725629e+00 -3.213862e+00 -8.849822e+00 -1.268846e+00 -5.776997e+00 -1.840098e+00 -9.465514e+00 -3.496153e+00 -6.427636e+00 -3.780656e-01 -5.641465e+00 1.586243e+01 -6.624327e-01 -4.387007e-01 -4.502396e-01 1.671321e-01 3.065132e-01 7.023000e-01 3.724630e-01 1.047981e-01 1.428767e-01 1.488292e-01 3.344347e-01 3.723696e-01 -3.624745e-01 -2.673685e-02 -7.159261e-02 -1.087126e-01 -1.263335e-01 -9.459367e-02 -6.983923e-02 1.363701e-03 7.316779e-02 3.742361e-02 9.177488e-03 -1.477782e-02 4.035524e-03 2.625875e-02
<VARIANCE> 39
 1.124168e+01 1.082074e+01 1.338888e+01 1.345106e+01 2.085373e+01 2.475156e+01 2.385905e+01 2.485230e+01 2.797694e+01 2.740315e+01 2.588265e+01 2.370243e+01 2.030208e+00 3.764701e-01 7.409342e-01 8.218340e-01 8.128142e-01 1.147607e+00 1.289163e+00 1.256799e+00 1.301828e+00 1.409410e+00 1.276995e+00 1.249033e+00 1.116155e+00 5.128185e-02 6.998035e-02 9.938439e-02 1.068401e-01 1.141213e-01 1.573443e-01 2.200796e-01 1.941618e-01 1.873670e-01 2.098981e-01 1.850311e-01 1.823298e-01 1.530711e-01 9.203883e-03
<GCONST> 7.765860e+01
~h "eight"
<BEGINHMM>
<NUMSTATES> 5
<STATE> 2
<MEAN> 39
 -8.236951e+00 -2.924008e+00 -5.898270e+00 -1.826601e+01 1.946960e-01 -4.937770e+00 8.502695e-01 -6.776309e+00 -1.605411e+00 -7.443972e+00 -1.716859e+00 -5.747973e+00 1.741784e+01 -1.672164e-01 1.034410e+00 -9.263445e-02 -1.057076e+00 -5.600312e-02 -5.987284e-01 8.579224e-02 4.657581e-01 3.874910e-01 3.076266e-04 -1.750934e-01 -2.395940e-01 3.298019e-01 2.904856e-02 8.771382e-02 6.550544e-03 1.417535e-01 -6.209280e-02 -1.925184e-01 -8.442010e-02 -2.178822e-02 2.480384e-02 9.356076e-02 1.133797e-01 8.420182e-04 -1.741210e-02
<VARIANCE> 39
 7.954633e+00 2.043853e+01 1.879164e+01 3.165163e+01 4.169034e+01 2.217112e+01 2.473499e+01 2.260237e+01 3.073572e+01 2.332261e+01 2.474465e+01 2.558665e+01 3.270596e+00 3.435279e-01 7.437991e-01 6.537881e-01 1.293595e+00 1.206149e+00 1.367007e+00 1.442168e+00 9.932554e-01 1.341377e+00 1.123244e+00 1.080650e+00 9.592265e-01 1.029431e-01 4.164189e-02 7.989646e-02 7.500335e-02 1.944992e-01 1.365990e-01 1.674132e-01 1.477711e-01 1.684769e-01 2.266282e-01 1.623735e-01 1.705582e-01 1.467180e-01 1.291116e-02
<GCONST> 7.927795e+01
<STATE> 3
<MEAN> 39
 -8.378845e+00 5.846846e+00 -5.476210e+00 -1.908775e+01 -2.904372e+00 -1.390452e+01 -1.748935e+00 -6.090024e+00 6.931207e-01 -3.985052e+00 8.043594e-01 -5.655818e+00 1.853270e+01 1.091609e-01 4.587606e-01 2.053623e-01 8.427205e-01 2.923541e-03 -8.870113e-01 -6.058863e-01 -8.251614e-01 -3.879515e-01 2.937713e-01 4.446469e-01 2.256657e-01 -7.915317e-02 4.968773e-02 -2.917063e-01 2.124607e-02 1.839195e-01 8.820282e-02 2.885705e-01 2.704080e-02 -1.464325e-01 -1.927907e-01 -1.450797e-01 -7.565731e-02 3.530077e-02 -6.290089e-02
<VARIANCE> 39
 9.975169e+00 1.138758e+01 2.478341e+01 2.689718e+01 2.069882e+01 2.344477e+01 5.648925e+01 2.758466e+01 3.035456e+01 2.205572e+01 3.282940e+01 2.512148e+01 1.486614e+00 1.855445e-01 5.466285e-01 2.644351e-01 6.293703e-01 8.111684e-01 1.049972e+00 7.484195e-01 8.150910e-01 1.749719e+00 1.045482e+00 1.197905e+00 8.576996e-01 2.667109e-02 2.788248e-02 7.294923e-02 4.981029e-02 1.003068e-01 8.159226e-02 1.558962e-01 1.422336e-01 1.381193e-01 1.715159e-01 1.396580e-01 1.852184e-01 1.375522e-01 3.429594e-03
<GCONST> 6.946832e+01
<STATE> 4
<MEAN> 39
 -6.925349e+00 7.412859e-01 -4.073406e+00 -1.205268e+01 -1.122282e+00 -1.138309e+01 -3.985388e+00 -1.162757e+01 -4.532979e+00 -5.817031e+00 8.032782e-01 -4.534484e+00 1.644042e+01 1.993781e-01 -1.884836e+00 -2.176148e-02 8.662404e-01 2.122176e-01 1.644314e+00 3.538389e-01 2.652823e-02 -2.890416e-01 -3.783120e-01 -1.274511e-01 1.010512e-01 -4.744321e-01 -7.668937e-02 -6.835726e-02 -1.019245e-01 -1.407549e-01 -5.251098e-02 1.235077e-01 1.861526e-01 2.691143e-01 2.134446e-01 7.510121e-02 2.808895e-02 -3.192319e-02 -2.934566e-04
<VARIANCE> 39
 5.925944e+00 3.342733e+01 1.454163e+01 1.872469e+01 1.593885e+01 3.840302e+01 3.217055e+01 2.428133e+01 3.796580e+01 2.695156e+01 2.519578e+01 2.370263e+01 2.777813e+00 3.599043e-01 7.153912e-01 6.277999e-01 1.039907e+00 6.543951e-01 1.210022e+00 1.768822e+00 1.476950e+00 2.048226e+00 1.216006e+00 1.380525e+00 1.139899e+00 3.507140e-02 4.185313e-02 2.607601e-01 6.989463e-02 1.174945e-01 9.625614e-02 3.312327e-01 1.832337e-01 1.976658e-01 2.918346e-01 1.755560e-01 1.972267e-01 1.936906e-01 1.076725e-02
<GCONST> 8.010309e+01
<TRANSP> 5
 0.000000e+00 1.000000e+00 0.000000e+00 0.000000e+00 0.000000e+00
 0.000000e+00 8.689271e-01 1.310730e-01 0.000000e+00 0.000000e+00
 0.000000e+00 0.000000e+00 8.576636e-01 1.423365e-01 0.000000e+00
 0.000000e+00 0.000000e+00 0.000000e+00 8.198153e-01 1.801847e-01
 0.000000e+00 0.000000e+00 0.000000e+00 0.000000e+00 0.000000e+00
<ENDHMM>
~h "oh"
<BEGINHMM>
<NUMSTATES> 5
<STATE> 2
<MEAN> 39
 -4.365862e+00 -1.037346e+01 -8.318666e+00 -8.588509e+00 -2.635815e+00 -7.655413e+00 3.573099e+00 -7.380835e+00 -5.229156e+00 -7.117414e+00 -2.438866e+00 -5.428441e+00 1.781664e+01 5.455741e-01 -2.058557e-01 -6.068735e-01 1.657828e-01 9.107645e-02 -6.970440e-01 1.439114e-01 7.351148e-01 -1.481129e-02 -4.300443e-01 -4.105766e-01 -1.520261e-01 3.520231e-01 1.023330e-02 1.034262e-01 1.770094e-03 -5.216824e-02 3.773453e-02 -1.079180e-02 -1.513969e-01 7.992513e-03 1.327218e-01 2.624359e-02 -1.029647e-02 -2.765969e-02 -2.132806e-02
<VARIANCE> 39
 8.683562e+00 1.233349e+01 1.664853e+01 1.820258e+01 2.295072e+01 2.453947e+01 3.069972e+01 6.474601e+01 3.829478e+01 3.399556e+01 2.705080e+01 3.146649e+01 3.011891e+00 2.972081e-01 5.784691e-01 6.303617e-01 6.405657e-01 6.850873e-01 9.295830e-01 1.330923e+00 1.789818e+00 1.557389e+00 1.263104e+00 1.249729e+00 1.052712e+00 9.561618e-02 3.986458e-02 6.295984e-02 7.485580e-02 7.992262e-02 9.161191e-02 1.300789e-01 1.558591e-01 2.154077e-01 1.872715e-01 1.965532e-01 1.840947e-01 1.402977e-01 1.336055e-02
<GCONST> 7.716259e+01
<STATE> 3
<MEAN> 39
 -5.714929e-01 -8.245419e+00 -1.317971e+01 -9.927645e+00 -6.986018e-01 -1.204712e+01 -8.060187e-01 -7.787466e-01 1.313845e-01 -8.233884e+00 -5.130882e+00 -6.596895e+00 1.903721e+01 2.231892e-01 4.045976e-01 -2.825477e-02 -3.473681e-01 -3.594840e-02 -3.717099e-03 -6.740680e-01 -2.452529e-01 6.657129e-01 6.039144e-01 -3.277948e-02 -3.515050e-01 -9.623548e-03 -4.125566e-02 2.443524e-02 1.011903e-01 -2.070276e-02 -5.726188e-02 9.299617e-02 1.166755e-02 -1.582420e-01 -8.121567e-02 9.179076e-02 1.213033e-01 1.108862e-02 -2.523403e-02
<VARIANCE> 39
 6.097068e+00 8.381054e+00 1.532296e+01 1.468987e+01 1.918802e+01 2.241352e+01 4.162973e+01 3.072800e+01 3.922643e+01 3.571675e+01 3.181431e+01 4.015160e+01 1.216032e+00 8.023038e-02 1.368003e-01 2.628263e-01 2.767470e-01 3.853834e-01 5.148107e-01 7.293756e-01 1.009630e+00 7.302960e-01 8.542130e-01 7.858362e-01 6.995218e-01 1.318081e-02 1.111396e-02 1.421646e-02 3.353346e-02 3.314894e-02 4.701459e-02 6.867915e-02 7.742550e-02 9.579112e-02 1.050357e-01 1.013237e-01 9.154881e-02 8.855377e-02 1.199584e-03
<GCONST> 5.210468e+01
<STATE> 4
<MEAN> 39
 1.812890e-01 -3.748647e+00 -9.939750e+00 -1.349082e+01 -3.318716e+00 -1.007679e+01 -4.950152e+00 -7.358426e+00 1.051825e+00 -2.357163e+00 -1.863834e-01 -7.009357e+00 1.844993e+01 -3.474803e-01 2.891183e-01 8.520812e-01 1.496050e-01 -2.203513e-01 3.709082e-01 2.097485e-01 -5.761445e-01 -5.865601e-01 -1.034333e-01 5.101929e-01 4.129674e-01 -2.303844e-01 -1.310760e-01 -1.053947e-01 5.245352e-02 1.423466e-01 1.061206e-01 8.416244e-02 1.855247e-01 8.556256e-02 -1.056275e-01 -1.826926e-01 -7.813463e-02 8.015852e-02 -4.428097e-02
<VARIANCE> 39
 6.296145e+00 7.048890e+00 1.855632e+01 1.555389e+01 1.890114e+01 2.848851e+01 3.125738e+01 2.745761e+01 3.055399e+01 3.705870e+01 3.961264e+01 3.644734e+01 1.763623e+00 2.381245e-01 3.536223e-01 4.245152e-01 5.875095e-01 6.846436e-01 8.673717e-01 1.174197e+00 1.223419e+00 1.193028e+00 1.307323e+00 1.200868e+00 1.025385e+00 3.037111e-02 2.290834e-02 3.290803e-02 6.522314e-02 6.514245e-02 9.775770e-02 1.568711e-01 1.651196e-01 1.870461e-01 2.024367e-01 1.903499e-01 1.709922e-01 1.628307e-01 2.726675e-03
<GCONST> 6.914085e+01
<TRANSP> 5
 0.000000e+00 1.000000e+00 0.000000e+00 0.000000e+00 0.000000e+00
 0.000000e+00 8.832008e-01 1.167992e-01 0.000000e+00 0.000000e+00
 0.000000e+00 0.000000e+00 8.920758e-01 1.079242e-01 0.000000e+00
 0.000000e+00 0.000000e+00 0.000000e+00 8.561360e-01 1.438639e-01
 0.000000e+00 0.000000e+00 0.000000e+00 0.000000e+00 0.000000e+00
<ENDHMM>
~h "sp"
<BEGINHMM>
<NUMSTATES> 5
<STATE> 2
~s "silst"
<STATE> 3
<MEAN> 39
 -7.707414e+00 -6.475705e+00 -6.099562e+00 -9.709708e+00 -1.333787e+00 -4.071801e+00 -6.334963e-01 -8.568918e+00 -2.837407e+00 -5.610820e+00 9.600036e-01 -4.090319e+00 1.480034e+01 -9.982979e-02 -1.836107e-02 -1.136669e-01 -5.671630e-03 -2.986871e-02 3.005240e-02 -6.666370e-03 3.526825e-02 2.911458e-03 2.057659e-02 3.533905e-02 4.040505e-02 -1.372034e-02 6.143416e-02 8.264785e-02 6.159264e-02 -1.132335e-02 -9.629798e-03 -5.714034e-02 -4.147189e-02 -1.852453e-02 -9.255020e-03 -1.621981e-02 -3.371997e-02 -3.252952e-02 4.433990e-02
<VARIANCE> 39
 5.193996e+00 5.802492e+00 8.364456e+00 1.000020e+01 1.421330e+01 1.533522e+01 1.545822e+01 1.657084e+01 1.761020e+01 1.634624e+01 1.593392e+01 1.371929e+01 1.091004e+00 1.559882e-01 2.337283e-01 3.573009e-01 4.282806e-01 5.670344e-01 6.773586e-01 6.514761e-01 7.186239e-01 7.408768e-01 6.608289e-01 6.505768e-01 5.695760e-01 7.400469e-03 3.304296e-02 5.306494e-02 7.086968e-02 9.032192e-02 1.138211e-01 1.432552e-01 1.320934e-01 1.439164e-01 1.467469e-01 1.251954e-01 1.241076e-01 1.145233e-01 4.107373e-03
<GCONST> 5.483686e+01
<STATE> 4
<MEAN> 39
 -8.556039e+00 -4.934655e+00 -6.272054e+00 -8.993509e+00 -2.033791e+00 -3.797909e+00 -1.075647e+00 -8.417214e+00 -2.905435e+00 -5.480059e+00 6.405377e-01 -4.049243e+00 1.505683e+01 2.742532e-01 1.790216e-01 9.654496e-02 -1.316914e-01 -1.870463e-01 -3.012612e-01 -8.238032e-02 7.405385e-02 -3.632447e-02 -5.234598e-02 -2.022012e-01 -8.128307e-02 2.181827e-01 2.163071e-01 4.536319e-03 6.103833e-02 -1.469112e-01 -1.290692e-01 -2.120591e-01 -6.974035e-03 1.869276e-02 6.949757e-03 -1.839385e-03 -1.014000e-01 -8.318704e-02 1.100001e-01
<VARIANCE> 39
 1.198474e+01 1.157736e+01 1.732582e+01 1.581693e+01 1.930939e+01 1.879942e+01 1.810457e+01 2.027157e+01 2.111577e+01 1.994038e+01 1.873264e+01 1.701456e+01 1.497866e+00 5.878021e-01 5.332046e-01 7.411333e-01 7.904977e-01 9.654009e-01 9.998248e-01 8.521662e-01 1.185313e+00 1.044555e+00 9.253107e-01 9.462788e-01 7.663971e-01 5.323141e-02 7.114274e-02 1.106599e-01 1.693185e-01 1.481895e-01 2.000168e-01 1.924137e-01 1.678663e-01 2.258340e-01 2.041615e-01 1.792979e-01 1.803657e-01 1.549179e-01 9.434890e-03
<GCONST> 7.461735e+01
<TRANSP> 5
 0.000000e+00 8.178887e-01 1.821113e-01 0.000000e+00 0.000000e+00
 0.000000e+00 7.948394e-01 2.051605e-01 0.000000e+00 0.000000e+00
 0.000000e+00 0.000000e+00 8.499409e-01 1.500591e-01 0.000000e+00
 0.000000e+00 0.000000e+00 0.000000e+00 5.804496e-01 4.195504e-01
 0.000000e+00 0.000000e+00 0.000000e+00 0.000000e+00 0.000000e+00
<ENDHMM>
~h "seven"
<BEGINHMM>
<NUMSTATES> 5
<STATE> 2
<MEAN> 39
 -7.536508e+00 -4.385488e+00 -5.966949e+00 -9.732806e+00 -3.645282e+00 -4.895120e+00 -5.464395e-01 -8.198884e+00 -2.382526e+00 -4.346333e+00 -4.105524e-01 -3.911361e+00 1.552677e+01 8.771630e-01 1.092184e-01 7.015347e-01 -1.392017e+00 -1.105983e+00 -8.499627e-01 9.520301e-01 -1.035115e-01 3.648067e-01 1.207612e-02 -7.814818e-01 -6.895902e-01 6.849762e-01 1.460743e-02 -1.131190e-01 -6.695667e-02 -2.496462e-01 -1.708705e-01 8.612231e-02 2.500429e-01 6.197986e-02 -1.278770e-02 -1.410631e-01 -1.668516e-01 -1.499840e-01 1.294046e-01
<VARIANCE> 39
 9.885900e+00 6.278775e+00 1.235999e+01 1.229677e+01 1.993426e+01 2.185361e+01 1.814580e+01 1.881813e+01 1.814844e+01 2.622921e+01 1.790399e+01 1.621889e+01 2.378459e+00 4.598840e-01 4.397034e-01 6.444586e-01 9.569080e-01 1.281531e+00 1.628572e+00 1.345659e+00 1.229912e+00 1.234125e+00 2.351797e+00 1.093864e+00 1.201035e+00 7.215195e-02 8.248156e-02 5.430097e-02 9.811092e-02 1.239172e-01 2.198731e-01 2.104419e-01 1.568950e-01 1.537000e-01 1.612044e-01 1.971157e-01 1.398475e-01 1.857946e-01 1.176028e-02
<GCONST> 7.515092e+01
<STATE> 3
<MEAN> 39
 -5.764818e+00 -7.493512e+00 -5.371536e+00 -1.621385e+01 -6.148094e+00 -4.366475e+00 5.046320e+00 -8.666385e+00 -2.713148e+00 -7.110382e+00 -4.208622e+00 -6.593547e+00 1.904812e+01 1.307674e-01 -3.016579e-01 6.946217e-02 1.531591e-01 4.068531e-02 -3.151233e-02 1.882763e-01 2.618401e-01 -3.482046e-01 -4.177687e-02 -1.003733e-03 -4.628729e-02 7.906882e-02 -1.985664e-02 1.027786e-01 3.809449e-02 3.168603e-01 1.441188e-01 -7.518984e-02 -2.824855e-01 4.904793e-02 -1.726508e-02 3.725148e-02 2.028205e-01 6.457986e-02 -1.362046e-01
<VARIANCE> 39
 9.483395e+00 1.187906e+01 8.980470e+00 1.775610e+01 4.819662e+01 3.851904e+01 3.169364e+01 3.888298e+01 4.866686e+01 5.842888e+01 3.329611e+01 3.288296e+01 1.189979e+00 3.947061e-01 5.725667e-01 4.496105e-01 1.313163e+00 1.493826e+00 1.582118e+00 1.628261e+00 1.047286e+00 1.275710e+00 1.721502e+00 1.747310e+00 1.231610e+00 1.751639e-01 8.142022e-02 8.549774e-02 8.903979e-02 1.108601e-01 2.647997e-01 2.642620e-01 1.734022e-01 1.625107e-01 2.083287e-01 2.425544e-01 2.319738e-01 1.900842e-01 5.535027e-03
<GCONST> 8.331473e+01
<STATE> 4
<MEAN> 39
 -3.257636e+00 -4.146231e+00 -2.041792e+00 -9.796282e+00 -3.964822e+00 -7.899003e+00 -4.594751e-01 -7.893854e+00 -3.870959e+00 -6.627762e+00 -1.620482e+00 -6.939730e+00 1.713541e+01 1.049483e-01 3.677501e-01 2.305781e-01 2.342170e-01 3.761082e-01 -3.321291e-02 -4.253653e-01 -3.491070e-01 3.187503e-02 -6.892595e-02 7.996727e-02 -1.566882e-02 -8.789451e-02 -3.972556e-02 -5.776192e-02 -5.437358e-02 -7.386518e-02 1.603889e-03 1.087037e-01 9.043463e-02 -4.311182e-02 -1.075510e-03 -7.009042e-04 -4.327974e-02 3.120322e-02 1.963359e-02
<VARIANCE> 39
 4.897477e+00 1.044625e+01 1.000549e+01 1.376851e+01 2.822052e+01 3.247908e+01 2.626449e+01 4.098930e+01 3.228391e+01 3.544318e+01 3.234542e+01 2.883851e+01 1.690822e+00 1.922422e-01 4.145107e-01 4.778843e-01 9.055234e-01 1.392798e+00 1.173680e+00 1.648176e+00 1.272137e+00 1.389926e+00 1.389425e+00 1.264934e+00 9.330033e-01 8.936298e-02 3.490062e-02 7.891395e-02 8.611690e-02 1.530813e-01 2.484485e-01 2.056246e-01 2.861627e-01 2.267662e-01 2.302336e-01 2.389297e-01 2.142600e-01 1.482290e-01 1.490706e-02
<GCONST> 7.853062e+01
<TRANSP> 5
 0.000000e+00 1.000000e+00 0.000000e+00 0.000000e+00 0.000000e+00
 0.000000e+00 7.196341e-01 2.803659e-01 0.000000e+00 0.000000e+00
 0.000000e+00 0.000000e+00 8.918506e-01 1.081494e-01 0.000000e+00
 0.000000e+00 0.000000e+00 0.000000e+00 9.307862e-01 6.921379e-02
 0.000000e+00 0.000000e+00 0.000000e+00 0.000000e+00 0.000000e+00
<ENDHMM>
~h "three"
<BEGINHMM>
<NUMSTATES> 5
<STATE> 2
<MEAN> 39
 -3.138290e+00 -6.896701e+00 -5.012495e-01 -8.947398e+00 -1.005306e+01 -1.093031e+01 -1.298552e+00 -8.679132e+00 -1.905543e+00 -5.176726e+00 -3.161161e-01 -5.326890e+00 1.732896e+01 5.235692e-01 -1.763116e-01 9.458185e-01 -1.978130e-01 -1.636442e+00 -1.802558e-01 -2.068108e-01 -2.345089e-01 3.861862e-01 1.011197e-01 -4.649692e-02 -2.383979e-01 3.780205e-01 -1.718627e-01 1.038170e-01 1.744083e-02 -2.880098e-01 1.795134e-01 3.153813e-01 -1.491437e-01 2.077349e-03 9.191807e-02 -1.152960e-02 5.058757e-02 8.510049e-03 -2.877124e-02
<VARIANCE> 39
 1.196258e+01 1.263042e+01 1.641299e+01 2.973543e+01 5.137631e+01 4.902434e+01 2.329620e+01 2.577148e+01 2.812145e+01 2.585497e+01 3.329156e+01 3.171797e+01 2.759027e+00 7.489751e-01 6.528558e-01 8.067093e-01 1.963437e+00 1.880396e+00 3.359358e+00 1.374272e+00 1.539419e+00 1.259977e+00 1.084015e+00 1.379101e+00 1.290645e+00 5.933436e-02 1.160170e-01 1.445422e-01 1.311639e-01 3.063250e-01 4.538255e-01 4.302284e-01 2.878840e-01 2.371150e-01 1.923308e-01 1.830164e-01 1.978183e-01 1.951444e-01 1.016876e-02
<GCONST> 8.927139e+01
<STATE> 3
<MEAN> 39
 -4.779392e+00 -4.184324e+00 5.746221e+00 -1.839378e+01 -1.334612e+01 -4.100889e+00 -8.132657e+00 -9.175950e+00 2.174134e+00 -5.637496e+00 1.242399e+00 -5.868086e+00 1.868793e+01 -8.691937e-01 1.760596e+00 -1.230232e-01 -1.894590e+00 2.251658e+00 1.152225e-01 -1.611403e+00 8.968769e-01 -3.006231e-01 -2.484530e-01 1.422059e-01 2.436680e-04 -1.015710e-02 1.694442e-02 1.726957e-01 -4.795874e-01 4.602459e-01 4.968778e-01 -6.836447e-01 3.616274e-01 1.174269e-01 -3.947305e-01 5.634466e-02 -5.927772e-02 4.438547e-02 -5.741130e-02
<VARIANCE> 39
 7.681747e+00 2.270677e+01 1.102801e+01 3.446225e+01 5.757621e+01 2.902747e+01 4.522868e+01 6.196230e+01 2.406676e+01 2.785356e+01 3.865088e+01 2.976085e+01 1.293789e+00 2.560041e-01 6.329585e-01 1.030555e+00 1.584657e+00 1.592745e+00 3.625818e+00 1.757376e+00 1.479970e+00 1.456519e+00 1.022291e+00 7.456737e-01 8.280041e-01 2.158196e-02 5.362481e-02 1.488840e-01 8.912284e-02 2.738795e-01 4.717755e-01 2.368751e-01 4.358818e-01 3.558392e-01 1.523538e-01 1.526072e-01 1.364586e-01 1.112515e-01 2.326170e-03
<GCONST> 8.280075e+01
<STATE> 4
<MEAN> 39
 -6.793191e+00 4.008249e+00 -1.537769e+00 -1.664713e+01 -1.397288e+00 -1.238927e+01 -5.690520e+00 -7.984671e+00 -3.391955e+00 -4.998280e+00 -2.195913e-01 -6.256795e+00 1.789699e+01 1.226545e-01 -1.166717e-02 -6.003732e-01 9.470053e-01 4.996401e-01 -2.092463e-01 7.085293e-01 -3.463700e-01 -3.440048e-01 -7.769764e-03 -1.981331e-01 2.279337e-03 -1.761218e-01 7.291648e-02 -3.164774e-01 8.611900e-02 1.101677e-01 -2.455313e-01 2.951072e-01 6.248879e-02 -5.327664e-02 1.367817e-01 -2.796908e-02 1.877880e-02 1.139959e-02 -2.614218e-02
<VARIANCE> 39
 7.334768e+00 1.562958e+01 1.669071e+01 3.087270e+01 2.288042e+01 2.642094e+01 4.805498e+01 4.609663e+01 3.216089e+01 4.047804e+01 4.082211e+01 3.657873e+01 1.612190e+00 2.310853e-01 1.436288e+00 6.487613e-01 8.507232e-01 1.338680e+00 2.158505e+00 1.277207e+00 1.486218e+00 1.237831e+00 1.187668e+00 8.362445e-01 8.485928e-01 2.429994e-02 3.735651e-02 9.071577e-02 7.375669e-02 1.745059e-01 1.817727e-01 1.783485e-01 2.270789e-01 2.310941e-01 1.720851e-01 1.632829e-01 1.328452e-01 1.293241e-01 2.602135e-03
<GCONST> 7.805492e+01
<TRANSP> 5
 0.000000e+00 1.000000e+00 0.000000e+00 0.000000e+00 0.000000e+00
 0.000000e+00 8.757631e-01 1.242369e-01 0.000000e+00 0.000000e+00
 0.000000e+00 0.000000e+00 7.814278e-01 2.185722e-01 0.000000e+00
 0.000000e+00 0.000000e+00 0.000000e+00 8.931855e-01 1.068145e-01
 0.000000e+00 0.000000e+00 0.000000e+00 0.000000e+00 0.000000e+00
<ENDHMM>
~h "one"
<BEGINHMM>
<NUMSTATES> 5
<STATE> 2
<MEAN> 39
 -5.765002e-01 -3.781502e+00 -9.272276e+00 -1.281253e+01 -1.655049e+00 -5.564629e+00 -2.021677e+00 -8.864295e+00 -2.705254e+00 -6.730165e+00 -1.544380e+00 -7.286704e+00 1.774203e+01 2.783646e-01 -4.038969e-01 -8.702950e-01 4.566687e-01 4.862302e-01 3.829655e-02 -2.919832e-01 2.270668e-01 2.026897e-01 -3.070711e-01 -3.898724e-01 -2.714927e-01 2.375614e-01 -1.184281e-01 -1.456814e-01 5.398282e-02 2.640546e-01 7.436919e-03 -1.160910e-01 -1.463478e-02 9.357273e-02 -1.120208e-02 -9.036592e-02 1.111520e-02 8.266824e-02 -2.083600e-02
<VARIANCE> 39
 7.626256e+00 9.263940e+00 2.886835e+01 2.285387e+01 2.887256e+01 2.531684e+01 2.281645e+01 2.063404e+01 2.827619e+01 2.393125e+01 2.966777e+01 2.874749e+01 2.279386e+00 4.574757e-01 8.002602e-01 8.739815e-01 2.244424e+00 1.371898e+00 1.442926e+00 1.266860e+00 1.066125e+00 1.134630e+00 1.022389e+00 1.095316e+00 1.044673e+00 4.809482e-02 4.501434e-02 6.153062e-02 1.907585e-01 2.175072e-01 2.625965e-01 2.521757e-01 2.367632e-01 1.809908e-01 2.007013e-01 1.693573e-01 1.888790e-01 1.838863e-01 5.025241e-03
<GCONST> 8.019517e+01
<STATE> 3
<MEAN> 39
 -2.374474e+00 -1.071686e+01 -1.088382e+01 -1.685745e+00 -4.666289e-01 -9.491526e+00 -2.423826e+00 -4.220845e+00 -3.554062e+00 -1.171885e+01 -2.370370e+00 -6.063161e+00 1.853638e+01 -6.081086e-01 -3.702504e-01 1.341193e+00 5.650746e-01 -1.353039e+00 -3.217787e-01 1.193556e+00 -9.543394e-02 -9.216982e-01 -8.727870e-02 5.842617e-01 1.169128e-01 -4.945000e-02 2.420522e-02 3.142796e-01 2.503697e-01 -5.822612e-01 -1.314380e-01 3.761734e-01 8.886292e-02 -4.365955e-01 2.051811e-03 3.790642e-01 4.254526e-02 -1.758194e-01 -2.978161e-02
<VARIANCE> 39
 6.155869e+00 9.620679e+00 1.869409e+01 2.372901e+01 2.710340e+01 1.740868e+01 3.777081e+01 3.149030e+01 4.646626e+01 3.757633e+01 3.385733e+01 3.328027e+01 1.544603e+00 1.545723e-01 5.179271e-01 6.047238e-01 1.840043e+00 7.381132e-01 1.719437e+00 1.006930e+00 2.252066e+00 1.169315e+00 1.867649e+00 1.029742e+00 1.293691e+00 8.492048e-03 2.374364e-02 5.255813e-02 1.010169e-01 1.223841e-01 2.866516e-01 1.529082e-01 3.778136e-01 1.785501e-01 3.364358e-01 2.010672e-01 2.674646e-01 1.685191e-01 8.570493e-04
<GCONST> 7.519851e+01
<STATE> 4
<MEAN> 39
 -4.103656e+00 -5.399404e+00 -1.624050e+00 -8.771401e+00 -4.055772e+00 -5.854587e+00 -1.681921e+00 -1.194774e+01 -4.639881e+00 -8.679889e+00 -2.574863e+00 -8.289502e+00 1.778192e+01 1.526277e-01 9.682371e-01 6.194726e-01 -7.246531e-01 4.294786e-01 -6.812257e-02 -6.301727e-01 -4.408667e-01 8.158857e-02 2.267938e-01 -1.771778e-01 5.146578e-02 -1.277847e-01 4.379032e-02 -6.980007e-02 -2.143759e-01 1.687266e-01 1.595078e-01 -6.859960e-02 -6.611904e-02 1.657032e-01 1.212285e-02 -1.165358e-01 1.087761e-02 7.463294e-02 -5.436578e-03
<VARIANCE> 39
 6.944924e+00 2.322022e+01 1.100980e+01 2.130474e+01 1.960369e+01 4.666021e+01 3.608554e+01 3.526842e+01 4.119138e+01 4.573926e+01 3.324205e+01 3.772747e+01 1.322689e+00 2.752478e-01 6.174960e-01 8.075822e-01 1.206275e+00 9.098208e-01 1.962272e+00 1.138641e+00 1.440946e+00 1.606206e+00 1.537486e+00 9.432526e-01 9.582089e-01 1.266902e-02 4.877933e-02 1.195449e-01 8.199809e-02 1.328480e-01 2.003817e-01 3.081113e-01 2.731082e-01 1.856417e-01 2.293422e-01 2.255957e-01 1.681559e-01 1.673177e-01 1.602434e-03
<GCONST> 7.845195e+01
<TRANSP> 5
 0.000000e+00 1.000000e+00 0.000000e+00 0.000000e+00 0.000000e+00
 0.000000e+00 8.984596e-01 1.015404e-01 0.000000e+00 0.000000e+00
 0.000000e+00 0.000000e+00 8.253794e-01 1.746206e-01 0.000000e+00
 0.000000e+00 0.000000e+00 0.000000e+00 8.842790e-01 1.157211e-01
 0.000000e+00 0.000000e+00 0.000000e+00 0.000000e+00 0.000000e+00
<ENDHMM>
~h "sil"
<BEGINHMM>
<NUMSTATES> 5
<STATE> 2
<MEAN> 39
 -6.790395e+00 -6.743203e+00 -5.115081e+00 -9.086246e+00 3.182161e-02 -3.333735e+00 1.899135e-01 -8.527873e+00 -2.595271e+00 -5.753581e+00 5.615265e-01 -4.315520e+00 1.461781e+01 -3.861920e-02 -3.090841e-03 -6.073969e-03 3.020414e-02 3.853871e-02 2.494471e-02 5.015474e-02 5.708575e-03 -1.780973e-02 6.179370e-03 1.318890e-02 9.879378e-03 -1.244961e-02 -2.554711e-02 -3.297053e-02 -7.324846e-02 -1.109475e-01 -1.243124e-01 -1.223640e-01 -6.346141e-02 -1.069159e-02 -2.447057e-02 9.963360e-03 3.805761e-02 3.167219e-02 1.972885e-03
<VARIANCE> 39
 3.662591e+00 4.380240e+00 6.080788e+00 7.595448e+00 1.184840e+01 1.362966e+01 1.468629e+01 1.637830e+01 1.582453e+01 1.374229e+01 1.582150e+01 1.314337e+01 1.164838e+00 7.965671e-02 1.600503e-01 2.726529e-01 3.735859e-01 4.946603e-01 6.578551e-01 6.837564e-01 7.170328e-01 6.956346e-01 5.771843e-01 6.371153e-01 5.642750e-01 5.096953e-03 1.109790e-02 2.428321e-02 4.075734e-02 5.001980e-02 6.964216e-02 1.005882e-01 1.066040e-01 1.310836e-01 1.120306e-01 9.219249e-02 1.050834e-01 9.890589e-02 6.422080e-04
<GCONST> 4.389171e+01
<STATE> 3
~s "silst"
<STATE> 4
<MEAN> 39
 -7.577129e+00 -7.335897e+00 -6.577988e+00 -1.116427e+01 -2.183772e+00 -5.410091e+00 -9.928482e-01 -8.652083e+00 -2.721146e+00 -5.418916e+00 1.438375e+00 -3.839754e+00 1.448471e+01 -3.143436e-03 7.608012e-03 -2.382710e-02 -2.409564e-02 -4.965543e-02 -1.787426e-02 -5.979129e-02 -8.318431e-03 -3.463429e-03 -6.119453e-03 -1.672227e-02 -1.633214e-02 -2.526111e-04 3.667270e-02 5.582225e-02 9.207794e-02 1.246220e-01 1.333802e-01 1.278498e-01 6.145971e-02 1.743970e-02 2.783686e-02 -1.645343e-02 -5.530843e-02 -4.077262e-02 8.303666e-03
<VARIANCE> 39
 3.506403e+00 4.125206e+00 6.409117e+00 7.807924e+00 1.125157e+01 1.249731e+01 1.494362e+01 1.588470e+01 1.758716e+01 1.530183e+01 1.512990e+01 1.335402e+01 1.001320e+00 7.575487e-02 1.667914e-01 2.860174e-01 4.154929e-01 5.048233e-01 6.744400e-01 5.934129e-01 7.381383e-01 7.079138e-01 6.047771e-01 6.975558e-01 6.109746e-01 3.196929e-03 1.414346e-02 2.876582e-02 4.234074e-02 5.675215e-02 7.226267e-02 1.074867e-01 1.040201e-01 1.272253e-01 1.323529e-01 1.057201e-01 1.173996e-01 1.098254e-01 1.060289e-03
<GCONST> 4.524104e+01
<TRANSP> 5
 0.000000e+00 1.000000e+00 0.000000e+00 0.000000e+00 0.000000e+00
 0.000000e+00 7.648156e-01 2.423534e-02 2.109491e-01 0.000000e+00
 0.000000e+00 0.000000e+00 8.291970e-01 1.708029e-01 0.000000e+00
 0.000000e+00 1.854713e-01 0.000000e+00 7.458738e-01 6.865493e-02
 0.000000e+00 0.000000e+00 0.000000e+00 0.000000e+00 0.000000e+00
<ENDHMM>
~h "six"
<BEGINHMM>
<NUMSTATES> 5
<STATE> 2
<MEAN> 39
 -8.690331e+00 -4.263271e+00 -7.001136e+00 -8.725632e+00 -3.088891e+00 -4.221213e+00 -1.957581e+00 -8.229984e+00 -3.554700e+00 -4.013913e+00 1.254661e-01 -3.142207e+00 1.494855e+01 6.782344e-01 6.773354e-01 1.199009e+00 -1.376430e+00 -1.153141e+00 -1.208489e+00 4.062732e-02 -1.342514e-01 4.186993e-01 3.491992e-01 -5.157356e-01 -4.700092e-01 6.281793e-01 6.777827e-02 1.152768e-01 2.277304e-01 -4.787778e-01 -2.797860e-01 -1.707783e-01 4.317361e-02 7.534868e-02 2.035877e-01 1.174632e-03 -1.366718e-01 -2.371273e-01 1.452596e-01
<VARIANCE> 39
 7.459195e+00 7.790892e+00 1.268378e+01 1.147457e+01 1.896765e+01 1.995384e+01 1.515927e+01 1.809596e+01 2.002992e+01 2.955005e+01 1.916630e+01 1.707500e+01 1.861824e+00 3.587209e-01 4.708437e-01 8.836862e-01 1.151358e+00 1.075431e+00 1.324503e+00 1.001519e+00 8.094501e-01 1.417236e+00 2.233883e+00 1.074182e+00 1.320869e+00 7.728123e-02 6.199051e-02 5.632882e-02 1.156969e-01 9.782661e-02 2.031010e-01 2.086371e-01 1.477269e-01 1.765736e-01 1.851085e-01 2.377281e-01 1.707809e-01 1.684035e-01 8.804834e-03
<GCONST> 7.403994e+01
<STATE> 3
<MEAN> 39
 -6.470234e+00 -1.099906e+00 -8.572672e-01 -2.011828e+01 -7.861599e+00 -8.736728e+00 -2.436469e+00 -6.381307e+00 2.453087e-01 -3.794573e+00 -2.523964e+00 -7.321209e+00 1.832859e+01 2.429150e-02 -8.650640e-02 2.213269e-01 -2.825072e-01 3.745984e-01 2.123767e-01 -2.748861e-01 1.720208e-01 3.773530e-02 -1.960038e-01 1.700451e-01 6.725432e-03 -4.744960e-02 -5.680370e-02 -2.051954e-01 -2.669239e-01 4.873857e-01 2.881682e-01 2.213352e-01 6.793340e-02 -9.100913e-02 -1.465843e-01 -5.879387e-02 1.515409e-01 1.658411e-01 -1.670198e-01
<VARIANCE> 39
 7.691787e+00 9.745939e+00 1.662565e+01 2.308009e+01 5.849363e+01 3.110507e+01 3.718997e+01 2.460287e+01 3.462755e+01 5.834200e+01 3.542466e+01 3.742372e+01 1.432642e+00 3.496635e-01 6.528248e-01 1.075847e+00 3.230069e+00 2.398744e+00 1.762036e+00 1.734406e+00 1.341251e+00 1.887875e+00 2.010716e+00 1.867539e+00 1.897706e+00 2.939907e-01 6.819101e-02 6.606586e-02 1.608849e-01 2.260189e-01 3.061123e-01 3.193317e-01 3.835034e-01 2.241438e-01 2.868350e-01 3.401674e-01 2.635718e-01 2.553002e-01 1.166411e-02
<GCONST> 9.188549e+01
<STATE> 4
<MEAN> 39
 -6.563059e+00 -6.247948e+00 -4.680126e+00 -1.081113e+01 -1.001507e+00 -3.979899e+00 -1.437452e+00 -8.755436e+00 -2.166859e+00 -5.868334e+00 1.164338e+00 -4.221227e+00 1.475318e+01 -2.339666e-01 -9.116605e-01 -1.005137e+00 1.462079e+00 4.136373e-01 4.094025e-01 9.076653e-01 -4.569013e-01 -2.817446e-01 -4.000229e-02 2.006285e-01 2.989470e-01 -4.646550e-01 -1.053164e-01 1.689400e-01 2.069488e-01 -4.381166e-01 -3.787330e-01 -1.609135e-01 -8.488906e-02 1.722240e-01 1.161903e-01 1.034334e-01 -1.797178e-01 -1.429852e-01 1.499885e-01
<VARIANCE> 39
 3.293989e+00 5.439471e+00 9.453495e+00 1.107139e+01 1.464854e+01 1.565823e+01 1.950515e+01 1.858664e+01 1.688880e+01 1.707124e+01 1.861718e+01 1.491236e+01 1.491642e+00 2.675653e-01 4.861408e-01 8.970677e-01 1.308731e+00 2.110412e+00 1.651541e+00 1.603246e+00 1.249689e+00 1.214597e+00 1.205611e+00 1.178186e+00 1.023023e+00 7.928736e-02 3.889718e-02 6.517275e-02 1.378263e-01 1.468273e-01 2.331302e-01 1.805481e-01 2.654930e-01 1.922167e-01 1.854065e-01 1.736243e-01 1.976853e-01 1.824363e-01 5.797611e-03
<GCONST> 7.240033e+01
<TRANSP> 5
 0.000000e+00 1.000000e+00 0.000000e+00 0.000000e+00 0.000000e+00
 0.000000e+00 7.192897e-01 2.807103e-01 0.000000e+00 0.000000e+00
 0.000000e+00 0.000000e+00 8.891836e-01 1.108164e-01 0.000000e+00
 0.000000e+00 0.000000e+00 0.000000e+00 7.504437e-01 2.495563e-01
 0.000000e+00 0.000000e+00 0.000000e+00 0.000000e+00 0.000000e+00
<ENDHMM>
~h "two"
<BEGINHMM>
<NUMSTATES> 5
<STATE> 2
<MEAN> 39
 -1.094148e+01 -3.283363e+00 -6.707894e+00 -1.063259e+01 -9.763033e-01 -3.872734e+00 -1.956924e+00 -7.505540e+00 -2.326816e+00 -5.677274e+00 1.128186e+00 -3.370501e+00 1.506322e+01 5.089521e-01 6.198651e-01 1.015716e+00 -5.893520e-01 -2.701779e-01 -3.678539e-01 -4.642553e-01 -2.136016e-01 7.291878e-02 -5.401904e-02 -2.275030e-01 -3.637396e-01 3.253863e-01 2.956362e-01 6.601974e-02 2.867879e-01 -1.306712e-01 -2.133099e-01 -2.433606e-01 -1.190472e-01 -1.275680e-01 -2.617789e-02 2.562162e-03 -7.975449e-02 -1.706205e-01 9.428252e-02
<VARIANCE> 39
 8.869678e+00 8.113853e+00 1.268688e+01 1.228999e+01 1.844479e+01 2.274365e+01 1.921286e+01 2.109130e+01 2.145953e+01 2.401957e+01 2.472461e+01 1.984949e+01 9.074314e-01 1.367943e+00 5.597177e-01 1.279188e+00 8.323081e-01 1.348392e+00 1.287486e+00 9.900553e-01 1.188814e+00 1.174936e+00 1.295846e+00 1.879130e+00 1.105947e+00 7.282708e-02 1.268895e-01 1.090778e-01 1.344718e-01 1.310299e-01 2.274184e-01 1.982918e-01 1.762167e-01 2.231463e-01 2.278355e-01 2.034762e-01 3.598496e-01 1.596135e-01 7.808718e-03
<GCONST> 7.899786e+01
<STATE> 3
<MEAN> 39
 -4.601218e+00 1.272448e+00 1.862591e+00 -1.552563e+01 -6.956925e+00 -9.947585e+00 -6.704058e+00 -1.043958e+01 -2.407150e+00 -5.177166e+00 -1.125849e+00 -7.310336e+00 1.840806e+01 6.628683e-01 5.429078e-01 7.412626e-01 -5.405470e-01 -1.162339e+00 -1.105057e+00 -5.664217e-01 -2.810044e-01 -6.598051e-02 1.259769e-01 -2.153628e-01 -6.232036e-01 4.510545e-01 -2.500794e-01 -2.353680e-01 -4.262975e-01 2.992394e-01 2.734782e-01 2.329367e-01 2.361116e-01 1.460856e-01 -1.905489e-02 -1.002248e-02 1.533933e-01 1.829946e-01 -1.452426e-01
<VARIANCE> 39
 7.462491e+00 8.103641e+00 1.363382e+01 2.232016e+01 3.962658e+01 2.560011e+01 2.822130e+01 2.454065e+01 3.158563e+01 5.528170e+01 4.395100e+01 4.854748e+01 1.035235e+00 5.673086e-01 6.279149e-01 9.847262e-01 1.463683e+00 1.293424e+00 1.206920e+00 1.681760e+00 1.515707e+00 1.844084e+00 1.989064e+00 2.388531e+00 1.876255e+00 8.957816e-02 6.152329e-02 5.336181e-02 8.131935e-02 1.249376e-01 2.041308e-01 1.802981e-01 2.040340e-01 1.909354e-01 2.120170e-01 2.734178e-01 2.892947e-01 2.222602e-01 6.497581e-03
<GCONST> 8.374268e+01
<STATE> 4
<MEAN> 39
 -3.234819e+00 -5.939633e-02 -4.500885e-02 -1.365961e+01 -7.121115e+00 -1.157267e+01 -5.645716e+00 -9.637716e+00 -2.713528e+00 -5.307122e+00 -1.530123e-01 -7.592403e+00 1.823895e+01 1.667923e-01 -2.231135e-01 -2.385453e-01 5.388968e-01 3.383855e-01 8.662008e-02 9.898836e-02 -5.479227e-02 -1.916074e-01 -8.694157e-02 7.690233e-02 1.589376e-01 -1.201370e-01 -4.346194e-02 -3.773278e-02 -2.654035e-02 2.434460e-02 9.533834e-02 1.091533e-01 5.169776e-02 5.316706e-03 2.050586e-02 1.374901e-03 -5.853002e-03 4.419765e-02 -3.512000e-02
<VARIANCE> 39
 5.896080e+00 7.957831e+00 1.253600e+01 2.982993e+01 3.400936e+01 2.156440e+01 3.314885e+01 3.370313e+01 3.982914e+01 4.291505e+01 5.468660e+01 4.152624e+01 1.360970e+00 1.337738e-01 1.528825e-01 3.769336e-01 6.204981e-01 9.155844e-01 8.565184e-01 8.806118e-01 1.028759e+00 9.067608e-01 9.866636e-01 1.044334e+00 9.299429e-01 1.451906e-02 2.159166e-02 2.511096e-02 5.070636e-02 8.848857e-02 1.057282e-01 1.240666e-01 1.290318e-01 1.604494e-01 1.486618e-01 1.526511e-01 1.591248e-01 1.457813e-01 2.340878e-03
<GCONST> 6.574429e+01
<TRANSP> 5
 0.000000e+00 1.000000e+00 0.000000e+00 0.000000e+00 0.000000e+00
 0.000000e+00 8.204159e-01 1.795841e-01 0.000000e+00 0.000000e+00
 0.000000e+00 0.000000e+00 7.670235e-01 2.329765e-01 0.000000e+00
 0.000000e+00 0.000000e+00 0.000000e+00 9.013912e-01 9.860879e-02
 0.000000e+00 0.000000e+00 0.000000e+00 0.000000e+00 0.000000e+00
<ENDHMM>
~h "nine"
<BEGINHMM>
<NUMSTATES> 5
<STATE> 2
<MEAN> 39
 -4.472510e+00 -4.322740e+00 -2.082931e+00 -8.924824e+00 -3.030102e+00 -6.193538e+00 -1.516981e+00 -1.117444e+01 -5.003816e+00 -8.073451e+00 -2.938999e+00 -7.806067e+00 1.756455e+01 -1.366134e-01 -6.716993e-01 -2.202012e-01 4.954181e-01 -4.921553e-01 1.724219e-01 3.875784e-01 -1.975285e-01 -3.946329e-02 -1.528201e-01 -1.785452e-01 -1.450683e-01 2.490894e-01 -3.824949e-02 -1.259049e-01 -7.462630e-02 1.143879e-01 1.808665e-02 -6.516038e-03 3.837696e-02 3.130127e-02 9.455401e-03 6.154612e-03 7.939271e-02 3.467757e-02 -1.039492e-02
<VARIANCE> 39
 8.947186e+00 2.036793e+01 1.532916e+01 1.681919e+01 2.861422e+01 2.884978e+01 3.199460e+01 2.750497e+01 4.714882e+01 3.540008e+01 3.016224e+01 3.278094e+01 2.313079e+00 5.318435e-01 1.578474e+00 1.144154e+00 1.116924e+00 1.137587e+00 1.423579e+00 1.644648e+00 1.277165e+00 1.528293e+00 1.153574e+00 1.245486e+00 1.038010e+00 3.755957e-02 6.497247e-02 1.814306e-01 1.346186e-01 1.401123e-01 2.019149e-01 2.217921e-01 2.430153e-01 1.863624e-01 1.997303e-01 1.612638e-01 1.740159e-01 1.449879e-01 4.957684e-03
<GCONST> 8.288840e+01
<STATE> 3
<MEAN> 39
 -6.290768e+00 -1.167302e+01 -4.986958e+00 -2.493504e+00 -5.655747e+00 -5.431449e+00 1.785396e+00 -1.126569e+01 -5.678353e+00 -9.068241e+00 -1.604970e+00 -7.685194e+00 1.862183e+01 -1.082905e-01 6.592862e-02 2.330577e-01 -2.055032e-01 -4.686948e-02 2.055312e-01 -7.343152e-02 -1.009161e-01 1.717520e-01 6.973099e-02 -4.007858e-02 3.045864e-02 -1.980104e-02 -2.978621e-03 1.879057e-01 7.738303e-02 -2.486279e-01 3.308379e-02 8.094963e-02 -1.012439e-01 -1.887633e-03 8.306385e-02 -5.418325e-03 -7.937997e-02 2.508643e-02 -1.440130e-02
<VARIANCE> 39
 7.197924e+00 8.451201e+00 2.462961e+01 3.136902e+01 1.880577e+01 3.042654e+01 3.088324e+01 3.410292e+01 4.310298e+01 4.184146e+01 2.805896e+01 3.031989e+01 1.011753e+00 8.115361e-02 3.214951e-01 4.021437e-01 1.032438e+00 4.634731e-01 6.111643e-01 5.232942e-01 4.996847e-01 6.122322e-01 6.483645e-01 6.583614e-01 5.175932e-01 4.582259e-03 1.054845e-02 2.932800e-02 3.926210e-02 5.256905e-02 6.930523e-02 6.529006e-02 7.264845e-02 7.669874e-02 7.951748e-02 8.556087e-02 7.635505e-02 7.776778e-02 3.925603e-04
<GCONST> 5.267360e+01
<STATE> 4
<MEAN> 39
 -6.223613e+00 -3.176867e+00 -1.625257e+00 -1.204053e+01 -1.903488e+00 -4.484055e+00 -3.313321e+00 -1.019447e+01 -2.789916e+00 -8.223907e+00 -3.088387e+00 -6.512399e+00 1.789942e+01 3.934969e-01 8.507910e-01 1.535499e-01 -3.105271e-01 5.448952e-01 -4.765316e-01 -4.747694e-01 3.286687e-01 -1.994415e-01 5.536437e-02 9.755161e-02 5.310308e-02 -1.226337e-01 4.405371e-02 -1.235344e-01 -3.696478e-02 2.360602e-01 -1.481914e-02 -7.356669e-02 1.048168e-01 -3.533713e-02 -1.093203e-01 2.586321e-02 7.940021e-02 -2.956968e-02 -1.022862e-02
<VARIANCE> 39
 1.144272e+01 2.010783e+01 1.220748e+01 2.402419e+01 3.584193e+01 3.412606e+01 3.367804e+01 2.992224e+01 4.905682e+01 3.961329e+01 3.857357e+01 4.244655e+01 1.076908e+00 4.063723e-01 9.266807e-01 5.744452e-01 1.873903e+00 1.354180e+00 1.383087e+00 1.360430e+00 1.284499e+00 1.675772e+00 1.185508e+00 1.058931e+00 1.024451e+00 9.885258e-03 5.694526e-02 9.913158e-02 8.652488e-02 1.492749e-01 1.942276e-01 2.403304e-01 1.804830e-01 1.978925e-01 2.315042e-01 1.956095e-01 1.707345e-01 1.414921e-01 1.004315e-03
<GCONST> 7.865804e+01
<TRANSP> 5
 0.000000e+00 1.000000e+00 0.000000e+00 0.000000e+00 0.000000e+00
 0.000000e+00 8.956109e-01 1.043891e-01 0.000000e+00 0.000000e+00
 0.000000e+00 0.000000e+00 9.109294e-01 8.907059e-02 0.000000e+00
 0.000000e+00 0.000000e+00 0.000000e+00 8.979627e-01 1.020373e-01
 0.000000e+00 0.000000e+00 0.000000e+00 0.000000e+00 0.000000e+00
<ENDHMM>
~h "five"
<BEGINHMM>
<NUMSTATES> 5
<STATE> 2
<MEAN> 39
 -4.192144e+00 -1.132583e+01 -1.005401e+01 -8.271412e+00 4.818577e-01 -8.120441e+00 3.472355e-01 -4.687640e+00 -5.239199e+00 -7.940329e+00 -1.806561e+00 -4.899819e+00 1.796518e+01 3.644293e-01 -1.174245e+00 -7.184398e-01 7.802054e-01 5.130831e-01 -6.417670e-01 3.309917e-01 4.020297e-01 -7.472929e-01 -2.226157e-01 -3.022294e-01 -5.843476e-03 5.647780e-01 -1.897140e-01 2.363485e-02 1.735441e-01 9.224385e-02 -1.286338e-02 1.035369e-01 3.019533e-02 -2.023694e-01 2.478440e-02 1.378432e-01 1.580655e-01 4.934485e-02 -7.327624e-02
<VARIANCE> 39
 1.089163e+01 1.966802e+01 2.369531e+01 1.672509e+01 1.898592e+01 2.062581e+01 2.524162e+01 5.147351e+01 3.218281e+01 2.800448e+01 2.496677e+01 1.989608e+01 4.389044e+00 7.732512e-01 5.616986e-01 1.170473e+00 9.079400e-01 7.889763e-01 9.865639e-01 9.745826e-01 2.250788e+00 1.724230e+00 1.722865e+00 1.362135e+00 1.026629e+00 1.226810e-01 9.501019e-02 1.337633e-01 1.784771e-01 1.234263e-01 1.361267e-01 1.447806e-01 1.544473e-01 3.011790e-01 2.736580e-01 1.935292e-01 1.763756e-01 1.403769e-01 2.832550e-02
<GCONST> 8.436870e+01
<STATE> 3
<MEAN> 39
 -5.809186e+00 -1.545255e+01 -8.556443e+00 -3.644466e+00 1.426051e+00 -9.174812e+00 2.533973e+00 -7.496926e+00 -7.218190e+00 -5.456638e+00 -4.676887e-01 -4.504091e+00 1.904704e+01 -1.662130e-01 8.371325e-02 4.907484e-01 -2.574588e-01 -2.713528e-01 4.344534e-01 6.884863e-02 -3.989053e-01 2.716959e-02 3.038252e-01 6.119601e-02 -8.447701e-02 -4.851973e-02 4.020873e-02 1.145281e-01 1.146184e-02 -1.967850e-01 -5.501451e-02 9.327237e-02 -2.905181e-02 2.473300e-02 5.662647e-02 -4.900774e-02 -7.766533e-02 -1.876012e-02 -1.501354e-02
<VARIANCE> 39
 9.175154e+00 9.379611e+00 2.485105e+01 2.081402e+01 1.875176e+01 2.311541e+01 1.752434e+01 3.906744e+01 4.701364e+01 4.450894e+01 2.689823e+01 2.552141e+01 1.357040e+00 8.793986e-02 1.532371e-01 2.697334e-01 6.348510e-01 4.964318e-01 5.517722e-01 4.978069e-01 4.935892e-01 6.136490e-01 5.711229e-01 5.688847e-01 4.733747e-01 5.860919e-03 1.174759e-02 2.423233e-02 3.033099e-02 4.813181e-02 5.123432e-02 5.161052e-02 5.706038e-02 6.417997e-02 8.537439e-02 8.428148e-02 6.657004e-02 7.044988e-02 9.100884e-04
<GCONST> 4.965722e+01
<STATE> 4
<MEAN> 39
 -5.754043e+00 -9.412118e+00 -3.943289e+00 -1.391708e+01 -3.275091e+00 -2.806729e+00 1.872079e+00 -8.425935e+00 -4.204343e+00 -5.240643e+00 -2.271326e+00 -5.517541e+00 1.830325e+01 2.175825e-01 1.207561e+00 3.702699e-01 -6.431449e-01 -3.933973e-01 -1.026138e-01 -3.095301e-01 2.581267e-01 5.539162e-01 -2.128489e-01 -7.265340e-02 -9.005201e-02 -2.458071e-01 -1.730013e-02 -2.151199e-02 -5.239640e-02 3.444005e-01 1.399320e-01 -1.811211e-01 -6.305413e-02 -9.989620e-03 -4.277571e-02 1.720995e-02 1.221782e-01 3.968266e-02 -4.840501e-02
<VARIANCE> 39
 7.864980e+00 2.307207e+01 1.220022e+01 3.190229e+01 4.213503e+01 1.952968e+01 2.461979e+01 3.664761e+01 5.312789e+01 2.793506e+01 2.707498e+01 3.009451e+01 1.835505e+00 2.144264e-01 4.979737e-01 5.732881e-01 2.636568e+00 1.468991e+00 1.620640e+00 9.741378e-01 1.329084e+00 1.639464e+00 1.337279e+00 1.268945e+00 9.159330e-01 4.127065e-02 4.297726e-02 9.682681e-02 7.572203e-02 2.403609e-01 2.362438e-01 2.295866e-01 1.663162e-01 2.294319e-01 2.225191e-01 1.790388e-01 2.066682e-01 1.647759e-01 4.440843e-03
<GCONST> 8.033432e+01
<TRANSP> 5
 0.000000e+00 1.000000e+00 0.000000e+00 0.000000e+00 0.000000e+00
 0.000000e+00 8.485296e-01 1.514703e-01 0.000000e+00 0.000000e+00
 0.000000e+00 0.000000e+00 9.125128e-01 8.748718e-02 0.000000e+00
 0.000000e+00 0.000000e+00 0.000000e+00 8.640430e-01 1.359570e-01
 0.000000e+00 0.000000e+00 0.000000e+00 0.000000e+00 0.000000e+00
<ENDHMM>
~h "four"
<BEGINHMM>
<NUMSTATES> 5
<STATE> 2
<MEAN> 39
 -6.766089e+00 -6.557888e+00 -5.529175e+00 -9.751425e+00 -1.573790e+00 -5.547305e+00 -1.208070e+00 -8.392577e+00 -2.004047e+00 -5.574261e+00 9.788834e-01 -4.269264e+00 1.535510e+01 1.565744e+00 5.351585e-01 -8.994142e-01 -8.542156e-01 -3.054223e-01 -5.333187e-01 -6.929168e-01 -1.910296e-01 1.950046e-01 2.014416e-01 -3.422796e-01 -4.857182e-01 6.421540e-01 3.514142e-01 1.261643e-01 -3.369312e-01 -3.175854e-01 -5.880186e-02 -7.867704e-03 -8.132458e-02 -1.834238e-02 2.472005e-03 5.423088e-02 -7.919408e-02 -1.322590e-01 1.435385e-01
<VARIANCE> 39
 7.521135e+00 5.392224e+00 5.421427e+00 7.809023e+00 1.002699e+01 1.243143e+01 1.451457e+01 1.364710e+01 1.606551e+01 1.349798e+01 1.606695e+01 1.221122e+01 1.720199e+00 5.164711e-01 4.328758e-01 6.043650e-01 7.385629e-01 7.115551e-01 9.063874e-01 7.523411e-01 8.216075e-01 1.012949e+00 1.083762e+00 1.521500e+00 1.224024e+00 5.839257e-02 6.732715e-02 5.345819e-02 6.070000e-02 8.252978e-02 1.012935e-01 1.527697e-01 1.211326e-01 1.520521e-01 1.399575e-01 1.609498e-01 1.993896e-01 1.871112e-01 7.095746e-03
<GCONST> 6.397445e+01
<STATE> 3
<MEAN> 39
 1.595818e+00 -3.479921e+00 -1.216441e+01 -1.704813e+01 -4.000269e+00 -6.178569e+00 -3.167010e+00 -8.953543e+00 -1.399073e+00 -3.856935e+00 4.287657e-01 -6.775183e+00 1.891358e+01 3.045622e-01 -1.862192e-01 -3.251953e-01 -3.775568e-02 7.389259e-02 -1.851165e-02 -2.194693e-01 1.747112e-01 3.529190e-01 9.309493e-02 -2.297302e-01 -2.204231e-01 1.431607e-01 -1.735099e-01 -1.541758e-01 1.498049e-01 2.359804e-01 3.830599e-02 -3.641264e-02 3.803558e-02 1.108834e-01 4.728352e-02 -8.558716e-02 -5.575018e-02 5.672357e-02 -6.753532e-02
<VARIANCE> 39
 4.139405e+00 1.026189e+01 9.608471e+00 1.373185e+01 2.438795e+01 1.715142e+01 1.857040e+01 1.714281e+01 2.361825e+01 2.481739e+01 3.808949e+01 3.756246e+01 1.088226e+00 5.235027e-01 7.275276e-01 6.855839e-01 1.214852e+00 9.700124e-01 7.722408e-01 9.087529e-01 9.569034e-01 1.309939e+00 1.175377e+00 1.338489e+00 1.242451e+00 9.305140e-02 4.947511e-02 4.572403e-02 9.587882e-02 8.017538e-02 1.357787e-01 1.434329e-01 1.560337e-01 1.411637e-01 1.814663e-01 1.920175e-01 1.991331e-01 1.869553e-01 7.205271e-03
<GCONST> 7.252649e+01
<STATE> 4
<MEAN> 39
 -2.639512e-01 -1.131392e+01 -7.986537e+00 -8.556710e+00 -5.375775e+00 -8.950650e+00 -2.202761e+00 -4.218418e+00 6.551755e-01 -7.565110e+00 -3.906684e+00 -7.357385e+00 1.855015e+01 -5.526736e-01 -3.370868e-02 1.189716e+00 5.193346e-01 -5.937561e-01 2.894200e-02 6.850163e-01 -1.585378e-01 -6.811645e-01 -3.917916e-01 1.344004e-01 2.569253e-01 -2.037589e-01 -8.735830e-02 3.025465e-01 1.112375e-03 -2.184274e-01 1.357395e-01 2.161070e-01 1.415776e-02 -2.467573e-01 -1.511357e-01 1.216590e-01 1.772420e-01 3.037535e-02 -5.098970e-02
<VARIANCE> 39
 6.993299e+00 1.430021e+01 2.846679e+01 1.838617e+01 4.718554e+01 3.734608e+01 3.528277e+01 3.878437e+01 4.496772e+01 3.449294e+01 3.471109e+01 3.195186e+01 1.579001e+00 2.191081e-01 1.522849e+00 6.618647e-01 1.661956e+00 2.086258e+00 2.164072e+00 1.564082e+00 2.598233e+00 1.820549e+00 1.727161e+00 1.796899e+00 1.076191e+00 4.087388e-02 2.918624e-02 9.457172e-02 1.877742e-01 1.658516e-01 4.428055e-01 3.012258e-01 3.551777e-01 3.378616e-01 3.792816e-01 2.797142e-01 3.074725e-01 2.167175e-01 3.207897e-03
<GCONST> 8.837778e+01
<TRANSP> 5
 0.000000e+00 1.000000e+00 0.000000e+00 0.000000e+00 0.000000e+00
 0.000000e+00 7.032329e-01 2.967671e-01 0.000000e+00 0.000000e+00
 0.000000e+00 0.000000e+00 9.182907e-01 8.170933e-02 0.000000e+00
 0.000000e+00 0.000000e+00 0.000000e+00 8.712267e-01 1.287733e-01
 0.000000e+00 0.000000e+00 0.000000e+00 0.000000e+00 0.000000e+00
<ENDHMM>
~h "zero"
<BEGINHMM>
<NUMSTATES> 5
<STATE> 2
<MEAN> 39
 -6.854882e+00 -1.901393e+00 -4.588112e+00 -7.683200e+00 -2.512258e+00 -4.672611e+00 -2.826123e+00 -8.905300e+00 -3.632467e+00 -4.170847e+00 1.363160e-01 -4.374743e+00 1.565120e+01 2.801226e-01 1.044361e+00 9.694524e-01 -1.154034e+00 -8.266655e-01 -1.402537e+00 -6.258276e-01 -5.995352e-01 3.214315e-01 3.344953e-01 -1.326010e-01 -2.390564e-01 4.900164e-01 3.812687e-02 9.716408e-02 1.844674e-01 -3.598527e-01 -1.735059e-01 -2.331685e-01 2.746748e-03 -2.415535e-02 1.687029e-01 1.429085e-03 3.097948e-02 -8.992251e-02 9.283041e-02
<VARIANCE> 39
 6.903687e+00 1.046822e+01 1.552800e+01 1.461289e+01 2.098971e+01 2.212337e+01 1.924451e+01 1.977779e+01 2.955177e+01 2.444240e+01 2.236519e+01 1.992662e+01 1.483381e+00 3.159018e-01 4.257639e-01 7.579454e-01 9.358210e-01 8.453164e-01 1.290135e+00 9.696802e-01 1.180170e+00 1.340110e+00 9.787968e-01 1.203161e+00 1.526495e+00 4.263785e-02 4.662278e-02 1.027571e-01 1.271733e-01 1.080457e-01 1.311997e-01 2.171690e-01 1.590391e-01 1.928881e-01 1.624642e-01 1.502392e-01 1.803169e-01 1.680679e-01 6.432561e-03
<GCONST> 7.321065e+01
<STATE> 3
<MEAN> 39
 -5.552715e+00 2.916988e-01 9.491146e-01 -1.692551e+01 -7.877117e+00 -9.174826e+00 -4.562628e+00 -8.444562e+00 1.762104e-01 -3.745433e+00 1.718554e-01 -6.825769e+00 1.840752e+01 3.381543e-01 -7.448609e-01 4.387969e-01 -1.657738e-01 -1.079574e+00 2.617460e-01 2.092119e-01 1.940880e-01 3.193635e-01 -7.736991e-02 4.248603e-02 -1.235835e-01 1.657985e-01 5.106070e-02 -2.676166e-01 -1.739776e-01 3.703602e-01 1.811916e-02 1.338988e-01 1.944767e-01 5.591477e-02 -8.696813e-02 -4.409626e-02 -1.272920e-02 7.160912e-02 -6.422294e-02
<VARIANCE> 39
 7.445578e+00 2.076855e+01 1.737886e+01 2.634324e+01 5.943285e+01 4.061152e+01 3.220753e+01 4.417936e+01 3.108396e+01 3.032475e+01 3.450931e+01 5.109322e+01 1.093507e+00 4.426450e-01 1.624268e+00 8.060074e-01 2.623163e+00 1.740910e+00 2.529319e+00 1.689360e+00 1.422764e+00 1.340229e+00 1.177233e+00 1.107120e+00 1.319911e+00 6.295248e-02 5.150674e-02 1.133546e-01 1.259492e-01 1.806582e-01 2.462613e-01 4.096866e-01 2.254814e-01 2.476947e-01 2.118176e-01 1.747628e-01 1.722893e-01 2.173099e-01 4.565689e-03
<GCONST> 8.707942e+01
<STATE> 4
<MEAN> 39
 -1.601886e+00 -1.052607e+01 -4.398502e+00 -9.805839e+00 -9.688888e+00 -8.045338e+00 5.681316e-01 -4.091858e+00 -1.781538e-01 -6.705684e+00 -1.006803e+00 -5.665656e+00 1.854381e+01 8.241899e-02 1.236330e-02 -5.510853e-01 1.608779e-01 6.702352e-01 -1.771834e-01 -1.929864e-02 2.087098e-01 -6.339546e-02 -1.489195e-01 -9.272899e-02 -8.099048e-03 -5.354795e-02 -5.972389e-02 1.433938e-01 6.362148e-02 -8.652275e-02 8.617598e-02 4.178000e-02 -9.810683e-02 -8.263735e-02 -2.008338e-02 3.441119e-02 2.075487e-02 -9.033775e-03 -1.776248e-02
<VARIANCE> 39
 6.467431e+00 1.770358e+01 2.649282e+01 2.675961e+01 6.263027e+01 5.437035e+01 3.559608e+01 3.637647e+01 4.423748e+01 3.493167e+01 2.489850e+01 3.290994e+01 1.494694e+00 2.238849e-01 8.350112e-01 6.291592e-01 1.033562e+00 1.222408e+00 1.669574e+00 1.526114e+00 1.766256e+00 1.574938e+00 1.378698e+00 1.023270e+00 9.265674e-01 1.571997e-02 2.389561e-02 3.492500e-02 7.624117e-02 1.109612e-01 1.908058e-01 2.322499e-01 1.871445e-01 1.959203e-01 2.166865e-01 1.822071e-01 1.466374e-01 1.333498e-01 1.760593e-03
<GCONST> 7.710915e+01
<TRANSP> 5
 0.000000e+00 1.000000e+00 0.000000e+00 0.000000e+00 0.000000e+00
 0.000000e+00 7.346635e-01 2.653365e-01 0.000000e+00 0.000000e+00
 0.000000e+00 0.000000e+00 8.925476e-01 1.074524e-01 0.000000e+00
 0.000000e+00 0.000000e+00 0.000000e+00 9.396051e-01 6.039496e-02
 0.000000e+00 0.000000e+00 0.000000e+00 0.000000e+00 0.000000e+00
<ENDHMM>
