~o
<STREAMINFO> 1 39
<VECSIZE> 39<NULLD><MFCC_E_D_A><DIAGC>
~h "eight"
<BEGINHMM>
<NUMSTATES> 5
<STATE> 2
<MEAN> 39
 -7.524261e+00 -3.425436e+00 -5.693405e+00 -1.668130e+01 -6.472268e-01 -5.182441e+00 5.464635e-01 -6.746639e+00 -1.554739e+00 -6.763809e+00 -1.027581e+00 -5.331585e+00 1.714912e+01 -1.900184e-01 7.575300e-01 -8.186676e-02 -7.814719e-01 3.923691e-02 -4.145884e-01 5.498158e-02 2.967988e-01 3.011560e-01 4.554253e-02 -9.449469e-02 -9.567255e-02 2.139846e-01 3.509401e-02 8.254500e-02 1.092699e-02 8.963455e-02 -4.103993e-02 -1.680768e-01 -8.082500e-02 -2.284240e-02 2.705478e-02 6.061793e-02 5.858123e-02 -4.580296e-03 3.466198e-03
<VARIANCE> 39
 1.075575e+01 2.305842e+01 1.835785e+01 3.944751e+01 4.045804e+01 2.353719e+01 2.441513e+01 2.433803e+01 3.137288e+01 2.547057e+01 2.575898e+01 2.447304e+01 3.380896e+00 3.360933e-01 9.651068e-01 6.847384e-01 1.411190e+00 1.254018e+00 1.634325e+00 1.348154e+00 1.128208e+00 1.374381e+00 1.216730e+00 1.140044e+00 1.007757e+00 1.229789e-01 4.082857e-02 8.491889e-02 8.461755e-02 2.011351e-01 1.478589e-01 1.778293e-01 1.529713e-01 1.814238e-01 2.320957e-01 1.695069e-01 1.833569e-01 1.573078e-01 1.323968e-02
<GCONST> 8.183723e+01
<STATE> 3
<MEAN> 39
 -7.935266e+00 5.475991e+00 -4.908601e+00 -1.664726e+01 -2.357277e+00 -1.441938e+01 -3.035229e+00 -8.590808e+00 -1.333283e+00 -4.426879e+00 9.894518e-01 -5.287215e+00 1.807283e+01 2.038417e-01 -4.290208e-01 1.808110e-01 9.720519e-01 1.361386e-01 6.934376e-02 -3.419796e-01 -6.694564e-01 -5.148360e-01 -4.113362e-02 2.100333e-01 1.945953e-01 -2.363290e-01 1.021263e-02 -3.328936e-01 -3.043301e-02 6.396019e-02 4.254458e-02 3.532521e-01 1.234179e-01 5.585829e-02 -2.347355e-02 -9.194072e-02 -6.257387e-02 3.916942e-03 -6.257650e-02
<VARIANCE> 39
 9.284467e+00 1.350721e+01 2.250869e+01 3.248515e+01 1.967647e+01 2.420520e+01 5.254549e+01 3.438115e+01 4.415741e+01 2.637307e+01 3.191335e+01 2.703315e+01 1.959818e+00 2.642210e-01 1.895688e+00 4.088299e-01 7.647219e-01 7.868126e-01 2.502150e+00 1.307331e+00 1.116774e+00 1.804254e+00 1.195109e+00 1.398759e+00 1.008694e+00 6.759340e-02 3.641371e-02 9.029866e-02 5.905540e-02 1.265764e-01 9.250858e-02 1.745031e-01 1.630075e-01 2.078774e-01 2.767946e-01 1.690445e-01 1.958875e-01 1.643073e-01 4.024228e-03
<GCONST> 7.874342e+01
<STATE> 4
<MEAN> 39
 -7.116767e+00 -6.541067e+00 -5.514878e+00 -1.004293e+01 -1.215375e+00 -4.682479e+00 -8.409404e-01 -8.921489e+00 -3.019660e+00 -5.935845e+00 9.428726e-01 -4.004977e+00 1.468662e+01 -7.179786e-02 -3.660485e-01 -1.176298e-01 1.204241e-01 -4.112495e-02 3.696101e-01 1.855420e-01 1.810012e-01 1.167377e-01 8.797172e-03 1.649084e-02 9.387977e-03 -9.300587e-02 -5.685276e-03 1.757349e-01 1.039992e-02 -6.684013e-02 -1.211832e-02 -1.464314e-01 -4.599052e-02 -1.503950e-02 -6.331554e-03 2.179364e-02 -5.186094e-03 -1.391513e-02 4.871764e-02
<VARIANCE> 39
 4.560893e+00 6.159151e+00 8.314755e+00 9.574124e+00 1.262566e+01 1.589434e+01 1.697651e+01 1.696682e+01 1.732071e+01 1.627313e+01 1.523352e+01 1.399439e+01 1.034501e+00 2.099294e-01 8.405239e-01 4.288091e-01 5.955232e-01 4.862396e-01 1.170446e+00 9.931195e-01 8.546662e-01 9.812962e-01 7.909752e-01 7.432474e-01 7.057064e-01 4.874191e-02 3.460031e-02 9.647735e-02 7.128502e-02 1.091523e-01 9.177043e-02 1.887645e-01 1.756933e-01 1.504274e-01 1.623780e-01 1.354729e-01 1.324253e-01 1.272722e-01 4.818403e-03
<GCONST> 6.216207e+01
<TRANSP> 5
 0.000000e+00 1.000000e+00 0.000000e+00 0.000000e+00 0.000000e+00
 0.000000e+00 9.121925e-01 8.780748e-02 0.000000e+00 0.000000e+00
 0.000000e+00 0.000000e+00 8.976269e-01 1.023731e-01 0.000000e+00
 0.000000e+00 0.000000e+00 0.000000e+00 9.213891e-01 7.861090e-02
 0.000000e+00 0.000000e+00 0.000000e+00 0.000000e+00 0.000000e+00
<ENDHMM>
~h "oh"
<BEGINHMM>
<NUMSTATES> 5
<STATE> 2
<MEAN> 39
 -5.072906e+00 -9.817537e+00 -7.833377e+00 -8.759861e+00 -2.347719e+00 -7.078436e+00 2.847755e+00 -7.616874e+00 -4.773005e+00 -6.878155e+00 -1.687974e+00 -4.955315e+00 1.721407e+01 4.015587e-01 -2.821493e-01 -5.485501e-01 2.171545e-01 1.401627e-01 -4.945691e-01 2.322908e-01 5.781040e-01 -1.037485e-01 -3.932610e-01 -3.404423e-01 -6.349516e-02 2.903815e-01 6.013419e-02 8.892392e-02 -1.210263e-02 -5.544873e-02 1.547174e-02 -6.012463e-02 -1.276604e-01 1.861851e-02 1.092551e-01 1.494755e-03 -5.272239e-02 -5.050195e-02 1.424375e-02
<VARIANCE> 39
 8.382306e+00 1.228220e+01 1.538582e+01 1.591971e+01 2.185689e+01 2.340161e+01 2.846190e+01 5.757657e+01 3.748621e+01 3.054211e+01 2.663985e+01 2.711323e+01 3.812014e+00 4.045046e-01 5.595051e-01 6.603167e-01 6.405978e-01 7.460980e-01 1.180176e+00 1.235327e+00 1.815302e+00 1.533160e+00 1.309645e+00 1.311777e+00 1.082004e+00 1.254167e-01 4.813060e-02 7.023267e-02 8.521730e-02 8.555458e-02 1.118070e-01 1.482320e-01 1.609972e-01 2.226749e-01 2.095436e-01 1.953586e-01 2.000353e-01 1.548820e-01 1.713554e-02
<GCONST> 7.894449e+01
<STATE> 3
<MEAN> 39
 -4.965993e-01 -8.085561e+00 -1.303811e+01 -1.018378e+01 -8.909649e-01 -1.201037e+01 -8.892387e-01 -1.284799e+00 1.939160e-01 -7.884272e+00 -5.009706e+00 -6.855098e+00 1.903839e+01 2.239071e-01 4.083353e-01 -6.301237e-03 -3.375471e-01 -6.150931e-02 -1.964740e-02 -6.569722e-01 -2.515010e-01 6.164271e-01 5.838705e-01 3.178540e-02 -3.234859e-01 -1.058157e-02 -4.688026e-02 2.213276e-02 1.000644e-01 -1.014050e-02 -5.009495e-02 8.897686e-02 1.630281e-02 -1.447877e-01 -8.520346e-02 7.581960e-02 1.148444e-01 2.391842e-02 -2.662398e-02
<VARIANCE> 39
 6.028923e+00 9.347389e+00 1.555831e+01 1.589685e+01 1.975418e+01 2.333681e+01 4.428231e+01 3.314377e+01 4.055781e+01 3.755699e+01 3.123152e+01 3.914726e+01 1.183734e+00 8.543302e-02 1.427004e-01 2.976719e-01 2.936640e-01 3.913098e-01 5.535881e-01 7.245917e-01 1.116325e+00 7.998049e-01 8.947309e-01 8.656507e-01 6.944234e-01 1.391791e-02 1.175630e-02 1.537127e-02 3.537053e-02 3.572029e-02 4.852975e-02 7.178193e-02 8.156148e-02 1.012436e-01 1.109302e-01 1.074998e-01 9.628419e-02 9.289259e-02 1.245801e-03
<GCONST> 5.396379e+01
<STATE> 4
<MEAN> 39
 -7.418205e-01 -3.730196e+00 -8.383328e+00 -1.248796e+01 -3.622055e+00 -9.300142e+00 -4.000154e+00 -8.066673e+00 -2.979451e-01 -3.366247e+00 3.569724e-01 -6.248670e+00 1.795417e+01 -5.069023e-01 1.203022e-01 7.350000e-01 2.727177e-01 1.213583e-02 5.559245e-01 3.365022e-01 -4.405235e-01 -5.363584e-01 -1.885734e-01 3.968889e-01 4.349113e-01 -2.802318e-01 -1.126521e-01 -1.140013e-01 -2.907883e-02 7.595450e-02 9.950957e-02 8.985806e-02 1.345920e-01 9.031341e-02 -3.953826e-02 -1.066724e-01 -6.855585e-02 5.315360e-02 -3.464295e-02
<VARIANCE> 39
 9.361499e+00 7.810186e+00 2.079553e+01 1.825480e+01 1.941331e+01 2.692006e+01 3.110313e+01 2.683559e+01 3.199027e+01 4.008419e+01 3.906120e+01 3.790241e+01 2.412502e+00 3.826953e-01 4.593658e-01 5.507362e-01 6.217666e-01 8.842409e-01 1.264739e+00 1.251874e+00 1.298649e+00 1.305791e+00 1.263465e+00 1.279160e+00 1.245754e+00 5.453466e-02 3.299582e-02 4.469839e-02 8.896654e-02 8.728112e-02 1.096993e-01 1.661356e-01 1.871799e-01 1.997285e-01 2.127136e-01 2.068777e-01 1.755926e-01 1.748503e-01 4.194866e-03
<GCONST> 7.532736e+01
<TRANSP> 5
 0.000000e+00 1.000000e+00 0.000000e+00 0.000000e+00 0.000000e+00
 0.000000e+00 9.027607e-01 9.723924e-02 0.000000e+00 0.000000e+00
 0.000000e+00 0.000000e+00 9.042472e-01 9.575284e-02 0.000000e+00
 0.000000e+00 0.000000e+00 0.000000e+00 8.838431e-01 1.161569e-01
 0.000000e+00 0.000000e+00 0.000000e+00 0.000000e+00 0.000000e+00
<ENDHMM>
~h "seven"
<BEGINHMM>
<NUMSTATES> 5
<STATE> 2
<MEAN> 39
 -8.806632e+00 -4.769281e+00 -7.050018e+00 -8.596655e+00 -2.107395e+00 -3.131446e+00 -1.276509e+00 -8.136147e+00 -2.909429e+00 -5.214480e+00 6.799263e-01 -3.793395e+00 1.484347e+01 4.741067e-02 -4.084793e-02 -4.356908e-02 -3.256980e-01 -2.671274e-01 -1.353344e-01 2.667652e-01 1.513758e-02 1.375779e-01 -7.736131e-04 -2.047790e-01 -6.332379e-02 1.080879e-01 1.303976e-01 9.204554e-03 8.983026e-02 -1.476355e-01 -1.309363e-01 -1.120196e-01 8.732995e-02 -1.238424e-02 2.002496e-02 -2.644499e-02 -8.712240e-02 -9.269767e-02 9.199269e-02
<VARIANCE> 39
 8.340005e+00 1.013035e+01 1.380078e+01 1.310765e+01 1.612601e+01 1.582008e+01 1.759687e+01 1.745255e+01 1.826360e+01 1.723364e+01 1.706742e+01 1.463345e+01 9.047276e-01 7.144135e-01 4.608481e-01 8.613431e-01 9.991094e-01 9.701383e-01 1.283294e+00 9.959629e-01 8.575958e-01 1.029544e+00 1.155908e+00 9.210115e-01 9.517402e-01 1.512429e-01 5.368427e-02 6.783888e-02 9.750192e-02 1.360510e-01 1.662413e-01 1.770663e-01 1.648983e-01 1.456986e-01 1.700096e-01 1.546174e-01 1.450091e-01 1.504834e-01 8.093956e-03
<GCONST> 7.123422e+01
<STATE> 3
<MEAN> 39
 -5.558074e+00 -7.172778e+00 -5.193472e+00 -1.591174e+01 -6.355660e+00 -4.897010e+00 4.772486e+00 -8.475008e+00 -2.770161e+00 -6.761119e+00 -3.975049e+00 -6.626519e+00 1.896182e+01 1.894533e-01 -2.722630e-01 1.233812e-01 3.882830e-02 -6.137369e-02 -1.088004e-01 2.446585e-01 2.681849e-01 -2.807249e-01 -5.543019e-02 -6.964476e-02 -1.107269e-01 1.236367e-01 -4.177999e-02 7.839750e-02 1.111913e-02 2.926458e-01 1.553700e-01 -2.480872e-02 -2.548968e-01 3.867882e-02 -2.091175e-02 1.592023e-02 1.771703e-01 7.159718e-02 -1.270850e-01
<VARIANCE> 39
 9.614648e+00 1.303328e+01 9.436708e+00 1.827780e+01 4.580249e+01 3.937847e+01 3.187668e+01 3.950836e+01 4.652962e+01 5.849231e+01 3.255420e+01 3.130153e+01 1.240813e+00 4.410259e-01 5.954200e-01 4.993328e-01 1.548395e+00 1.671524e+00 1.672649e+00 1.827651e+00 1.089302e+00 1.392668e+00 1.776832e+00 1.809612e+00 1.326400e+00 2.114269e-01 8.204689e-02 9.001200e-02 9.646609e-02 1.114838e-01 2.523419e-01 2.721471e-01 1.781217e-01 1.666770e-01 2.018927e-01 2.407534e-01 2.262372e-01 1.834979e-01 6.062320e-03
<GCONST> 8.474818e+01
<STATE> 4
<MEAN> 39
 -3.244347e+00 -3.881842e+00 -1.891207e+00 -9.521951e+00 -3.365985e+00 -8.015696e+00 -1.088916e+00 -8.732974e+00 -4.324258e+00 -7.120052e+00 -1.906873e+00 -7.105268e+00 1.713248e+01 1.768501e-02 2.205676e-01 1.049620e-01 2.065501e-01 3.193775e-01 1.039531e-01 -2.925321e-01 -2.637351e-01 8.569282e-02 -1.439417e-02 1.277886e-01 4.227567e-02 -1.184133e-01 -5.595603e-02 -7.367297e-02 -7.384463e-02 -8.778009e-02 -2.233367e-02 9.372193e-02 1.106988e-01 -4.596702e-03 1.866145e-02 1.745087e-02 -3.220638e-02 2.023123e-02 1.415731e-02
<VARIANCE> 39
 4.974839e+00 1.019478e+01 9.926714e+00 1.395348e+01 2.822467e+01 3.043303e+01 2.586527e+01 4.089535e+01 3.293281e+01 3.570395e+01 3.328817e+01 2.974880e+01 1.533691e+00 2.533934e-01 5.250462e-01 5.539052e-01 8.538662e-01 1.339954e+00 1.253489e+00 1.628736e+00 1.363171e+00 1.438484e+00 1.411170e+00 1.273562e+00 9.896286e-01 9.358767e-02 3.738629e-02 7.812207e-02 8.698361e-02 1.507715e-01 2.341876e-01 2.027749e-01 2.726197e-01 2.366432e-01 2.360254e-01 2.409607e-01 2.174076e-01 1.500706e-01 1.437087e-02
<GCONST> 7.928014e+01
<TRANSP> 5
 0.000000e+00 1.000000e+00 0.000000e+00 0.000000e+00 0.000000e+00
 0.000000e+00 9.125739e-01 8.742611e-02 0.000000e+00 0.000000e+00
 0.000000e+00 0.000000e+00 9.003658e-01 9.963413e-02 0.000000e+00
 0.000000e+00 0.000000e+00 0.000000e+00 9.365582e-01 6.344181e-02
 0.000000e+00 0.000000e+00 0.000000e+00 0.000000e+00 0.000000e+00
<ENDHMM>
~h "three"
<BEGINHMM>
<NUMSTATES> 5
<STATE> 2
<MEAN> 39
 -7.753084e+00 -6.035267e+00 -4.949138e+00 -1.011977e+01 -8.176906e-01 -4.845856e+00 -5.887970e-01 -8.498262e+00 -2.602042e+00 -5.425551e+00 9.830298e-01 -3.779382e+00 1.488863e+01 1.181819e-01 -8.363584e-02 2.207189e-01 -4.797704e-02 -4.167405e-01 -2.858677e-01 -6.849120e-02 1.494119e-02 7.425298e-02 3.189592e-02 1.361408e-02 4.311816e-04 9.208703e-02 1.742198e-01 2.254027e-02 1.428290e-01 1.951589e-03 -2.577675e-01 -1.755563e-01 -7.574126e-02 -1.877704e-02 1.537901e-02 -9.218359e-03 -3.924774e-02 -7.054549e-02 8.471631e-02
<VARIANCE> 39
 5.400859e+00 6.329594e+00 9.779343e+00 1.060192e+01 1.435538e+01 1.431226e+01 1.606516e+01 1.761143e+01 1.951328e+01 1.776078e+01 1.686059e+01 1.459230e+01 1.170455e+00 7.019920e-01 5.235445e-01 8.963117e-01 7.510097e-01 1.499185e+00 1.312560e+00 9.016346e-01 1.036179e+00 9.999573e-01 9.323081e-01 9.825643e-01 9.153203e-01 1.193091e-01 5.916814e-02 9.076451e-02 9.846701e-02 1.380230e-01 2.011591e-01 1.855363e-01 1.564496e-01 2.030749e-01 1.781607e-01 1.662449e-01 1.641534e-01 1.611113e-01 4.958383e-03
<GCONST> 7.052036e+01
<STATE> 3
<MEAN> 39
 -2.518138e+00 -6.783538e+00 2.449300e+00 -1.140187e+01 -1.369864e+01 -9.363328e+00 -3.152540e+00 -9.428352e+00 -9.454494e-03 -5.130505e+00 1.270096e-01 -5.735048e+00 1.823541e+01 -6.862434e-02 4.227101e-01 6.951838e-01 -1.049856e+00 -3.996556e-01 3.060268e-01 -8.254075e-01 1.096444e-01 3.076166e-01 -2.807255e-02 6.153169e-02 -1.674222e-01 2.367502e-01 -2.156732e-01 2.146463e-01 -2.005199e-01 -1.428200e-01 5.230274e-01 4.712652e-02 -5.942009e-02 1.143473e-01 -1.140714e-01 -2.023153e-02 2.135182e-02 3.956062e-02 -6.774375e-02
<VARIANCE> 39
 6.507152e+00 1.457568e+01 2.008426e+01 4.937642e+01 4.245370e+01 6.100886e+01 3.522884e+01 3.826536e+01 3.064141e+01 2.820660e+01 3.707790e+01 3.334344e+01 1.447084e+00 9.619795e-01 1.476628e+00 9.228637e-01 2.725313e+00 4.895090e+00 3.382432e+00 2.206999e+00 1.969152e+00 1.296620e+00 1.095892e+00 1.152278e+00 1.164600e+00 6.899491e-02 6.798213e-02 1.290743e-01 1.773857e-01 3.907524e-01 3.806305e-01 6.812705e-01 3.772551e-01 2.755094e-01 2.400974e-01 1.746557e-01 1.705918e-01 1.637535e-01 3.908583e-03
<GCONST> 9.265439e+01
<STATE> 4
<MEAN> 39
 -6.590550e+00 3.298163e+00 -7.803097e-01 -1.672947e+01 -2.106743e+00 -1.135582e+01 -6.399221e+00 -7.962156e+00 -3.159438e+00 -5.505671e+00 -3.370737e-01 -6.525784e+00 1.789479e+01 -2.820184e-02 6.330235e-02 -6.391528e-01 7.253048e-01 7.234846e-01 -1.648767e-01 5.492615e-01 -8.268400e-02 -3.564596e-01 1.203060e-02 -7.059464e-02 5.073477e-02 -1.956445e-01 5.814814e-02 -2.881114e-01 2.508736e-03 1.697349e-01 -2.211506e-01 1.819724e-01 1.647816e-01 -6.734893e-02 9.742332e-02 8.240737e-03 2.041626e-02 2.496872e-02 -3.092085e-02
<VARIANCE> 39
 7.580477e+00 1.700895e+01 1.909988e+01 3.484709e+01 2.704756e+01 2.948784e+01 4.823338e+01 4.778465e+01 3.321847e+01 3.976917e+01 4.240155e+01 3.677535e+01 1.619884e+00 3.151340e-01 1.882919e+00 6.700025e-01 1.043732e+00 1.834889e+00 2.559860e+00 1.467141e+00 1.693771e+00 1.384672e+00 1.287923e+00 1.031997e+00 9.705021e-01 3.582553e-02 4.748386e-02 9.098800e-02 9.640386e-02 2.205419e-01 1.814733e-01 2.352873e-01 2.696367e-01 2.497841e-01 1.837021e-01 1.709958e-01 1.443271e-01 1.353046e-01 2.469562e-03
<GCONST> 8.276376e+01
<TRANSP> 5
 0.000000e+00 1.000000e+00 0.000000e+00 0.000000e+00 0.000000e+00
 0.000000e+00 9.016224e-01 9.837764e-02 0.000000e+00 0.000000e+00
 0.000000e+00 0.000000e+00 8.936677e-01 1.063323e-01 0.000000e+00
 0.000000e+00 0.000000e+00 0.000000e+00 9.153336e-01 8.466636e-02
 0.000000e+00 0.000000e+00 0.000000e+00 0.000000e+00 0.000000e+00
<ENDHMM>
~h "one"
<BEGINHMM>
<NUMSTATES> 5
<STATE> 2
<MEAN> 39
 -4.518768e-01 -3.402777e+00 -8.443938e+00 -1.270264e+01 -1.875614e+00 -5.987659e+00 -2.275716e+00 -8.867912e+00 -2.601649e+00 -6.646009e+00 -1.475402e+00 -7.365995e+00 1.769859e+01 2.104008e-01 -3.606911e-01 -7.771883e-01 3.866601e-01 4.274696e-01 9.435824e-02 -2.048131e-01 2.134633e-01 1.819858e-01 -2.419248e-01 -3.084238e-01 -2.085061e-01 1.796990e-01 -1.118920e-01 -1.460605e-01 2.928749e-02 2.153377e-01 1.225257e-02 -9.389219e-02 -2.920052e-03 1.044306e-01 5.144316e-03 -7.578743e-02 2.515041e-03 7.602534e-02 -1.570845e-02
<VARIANCE> 39
 5.495437e+00 8.375271e+00 3.133016e+01 2.276513e+01 2.856288e+01 2.622850e+01 2.260915e+01 2.060508e+01 2.743978e+01 2.315640e+01 3.019644e+01 3.007906e+01 2.038587e+00 4.331114e-01 7.311467e-01 9.486056e-01 2.139369e+00 1.343971e+00 1.366098e+00 1.271949e+00 1.039805e+00 1.139392e+00 9.681920e-01 1.111003e+00 9.685565e-01 5.947197e-02 3.949685e-02 5.502402e-02 1.856311e-01 2.318591e-01 2.499854e-01 2.470848e-01 2.300211e-01 1.749950e-01 1.963439e-01 1.583903e-01 1.854133e-01 1.750186e-01 4.527913e-03
<GCONST> 7.904120e+01
<STATE> 3
<MEAN> 39
 -2.465528e+00 -1.063754e+01 -1.057806e+01 -1.816908e+00 -8.205470e-01 -9.426723e+00 -2.030193e+00 -4.359933e+00 -3.708458e+00 -1.158849e+01 -2.280303e+00 -6.159990e+00 1.852691e+01 -5.923277e-01 -3.130915e-01 1.360807e+00 4.865214e-01 -1.327705e+00 -2.683888e-01 1.140200e+00 -1.565530e-01 -8.915380e-01 -1.471509e-02 5.522591e-01 9.288809e-02 -5.213554e-02 3.157355e-02 3.182563e-01 2.336372e-01 -5.691893e-01 -9.458911e-02 3.616250e-01 5.219197e-02 -4.228611e-01 2.293620e-02 3.597810e-01 2.881084e-02 -1.620895e-01 -2.971559e-02
<VARIANCE> 39
 6.425583e+00 9.764843e+00 1.981021e+01 2.419559e+01 2.885880e+01 1.776319e+01 3.884040e+01 3.255225e+01 4.659213e+01 3.887001e+01 3.430859e+01 3.411105e+01 1.525047e+00 1.633406e-01 5.914728e-01 6.367478e-01 1.980053e+00 7.715734e-01 1.823209e+00 1.053310e+00 2.307831e+00 1.240629e+00 1.946859e+00 1.064870e+00 1.293227e+00 8.977613e-03 2.596252e-02 5.244817e-02 1.077563e-01 1.227773e-01 3.162038e-01 1.590559e-01 4.062649e-01 1.859153e-01 3.425929e-01 2.133333e-01 2.683238e-01 1.720579e-01 8.707184e-04
<GCONST> 7.673706e+01
<STATE> 4
<MEAN> 39
 -3.841173e+00 -4.380169e+00 -1.380848e+00 -8.920091e+00 -3.196705e+00 -6.281982e+00 -2.462190e+00 -1.221241e+01 -5.214593e+00 -8.497518e+00 -2.664970e+00 -8.175460e+00 1.759470e+01 -3.697255e-03 5.640336e-01 2.622651e-01 -4.548962e-01 4.116563e-01 1.698895e-01 -3.735668e-01 -2.333192e-01 1.575186e-01 1.861182e-01 -2.806953e-02 1.649844e-01 -1.759986e-01 -2.107811e-02 -1.171221e-01 -2.145137e-01 1.096543e-01 8.704651e-02 -2.722210e-02 2.045679e-02 1.849955e-01 4.517046e-02 -7.363594e-02 3.749553e-02 8.076170e-02 -1.677493e-02
<VARIANCE> 39
 6.725616e+00 2.077655e+01 9.946240e+00 1.740462e+01 2.093878e+01 4.195571e+01 3.341074e+01 3.282928e+01 4.008433e+01 4.409935e+01 3.259618e+01 3.568708e+01 1.337944e+00 3.443296e-01 1.010750e+00 9.863676e-01 1.216703e+00 8.805133e-01 1.865036e+00 1.353860e+00 1.411840e+00 1.573527e+00 1.478435e+00 1.085054e+00 1.050132e+00 2.735217e-02 5.694377e-02 1.045750e-01 8.382134e-02 1.278463e-01 1.951440e-01 2.806745e-01 2.505347e-01 1.784447e-01 2.218365e-01 2.216924e-01 1.661901e-01 1.590878e-01 2.928948e-03
<GCONST> 7.987354e+01
<TRANSP> 5
 0.000000e+00 1.000000e+00 0.000000e+00 0.000000e+00 0.000000e+00
 0.000000e+00 9.096044e-01 9.039566e-02 0.000000e+00 0.000000e+00
 0.000000e+00 0.000000e+00 8.314078e-01 1.685922e-01 0.000000e+00
 0.000000e+00 0.000000e+00 0.000000e+00 9.086887e-01 9.131133e-02
 0.000000e+00 0.000000e+00 0.000000e+00 0.000000e+00 0.000000e+00
<ENDHMM>
~h "sil"
<BEGINHMM>
<NUMSTATES> 5
<STATE> 2
<MEAN> 39
 -5.629642e+00 -5.381876e+00 -3.959649e+00 -9.043990e+00 -2.191816e-01 -4.181947e+00 -1.412886e-01 -8.546721e+00 -2.498068e+00 -5.830965e+00 5.865780e-01 -4.487360e+00 1.512057e+01 -2.989976e-01 -2.485864e-01 -1.857912e-01 -5.062667e-02 6.953476e-02 1.348614e-01 8.168901e-02 -1.642823e-03 1.418120e-02 1.866462e-02 1.135566e-01 5.824608e-02 -1.518555e-01 2.366641e-02 -7.472616e-03 -3.844213e-02 -6.360448e-02 -7.384100e-02 -6.420025e-02 -4.217773e-02 -1.949429e-03 -3.811585e-03 -6.770141e-03 -1.693830e-02 -5.217392e-03 2.531361e-02
<VARIANCE> 39
 6.971153e+00 8.607486e+00 9.564873e+00 1.168487e+01 1.486950e+01 1.538814e+01 1.765944e+01 1.877699e+01 2.046499e+01 1.954519e+01 1.858394e+01 1.638750e+01 1.209577e+00 1.686659e-01 3.746071e-01 4.430736e-01 5.866191e-01 7.339902e-01 8.284982e-01 8.455009e-01 9.076090e-01 9.109290e-01 8.356495e-01 9.046679e-01 7.998170e-01 2.155278e-02 2.201150e-02 4.568583e-02 6.338252e-02 7.749975e-02 1.032744e-01 1.189166e-01 1.186156e-01 1.276627e-01 1.369566e-01 1.216474e-01 1.281471e-01 1.153789e-01 2.526401e-03
<GCONST> 5.922251e+01
<STATE> 3
<MEAN> 39
 -7.156939e+00 -7.236734e+00 -5.866395e+00 -1.018522e+01 -1.012348e+00 -4.339154e+00 -3.654399e-01 -8.603598e+00 -2.680012e+00 -5.571365e+00 1.005066e+00 -4.037417e+00 1.452098e+01 -3.584261e-03 4.973494e-03 -6.192433e-03 3.801558e-03 1.879225e-03 4.715810e-03 1.254834e-03 -9.875993e-03 -4.555706e-03 1.094669e-02 -2.631741e-04 2.492705e-03 -1.193115e-03 -2.367656e-04 4.887872e-03 2.877432e-03 5.286408e-03 1.315771e-03 2.870262e-03 5.485946e-04 5.853312e-03 2.717678e-03 -8.293798e-04 -4.062819e-03 -3.430441e-03 1.585005e-03
<VARIANCE> 39
 3.027166e+00 3.564784e+00 6.172709e+00 8.254450e+00 1.253748e+01 1.387374e+01 1.474216e+01 1.582846e+01 1.623780e+01 1.398252e+01 1.548318e+01 1.300188e+01 1.028432e+00 5.842910e-02 1.319095e-01 2.563354e-01 3.600306e-01 4.751975e-01 6.449599e-01 6.224146e-01 6.900989e-01 6.643438e-01 5.534238e-01 6.422849e-01 5.676934e-01 2.417422e-03 1.073370e-02 2.426565e-02 4.638904e-02 6.443693e-02 8.854958e-02 1.218526e-01 1.105602e-01 1.289115e-01 1.215520e-01 9.644406e-02 1.150024e-01 1.070999e-01 5.051141e-04
<GCONST> 4.276596e+01
<STATE> 4
<MEAN> 39
 -8.044106e+00 -6.369839e+00 -6.079109e+00 -1.016942e+01 -1.188543e+00 -4.700865e+00 -5.106563e-01 -8.720682e+00 -2.519547e+00 -5.941777e+00 9.985304e-01 -4.417085e+00 1.453677e+01 3.423506e-03 1.545877e-01 2.794369e-02 1.227896e-02 -7.638071e-02 -6.393976e-02 -6.564852e-02 4.921002e-02 -5.532643e-02 -8.987745e-02 -1.027087e-01 -6.833770e-02 4.892001e-02 4.561817e-02 5.645905e-02 2.690590e-02 -6.751223e-03 -2.036031e-03 -2.716337e-02 -1.659568e-02 -1.573690e-02 -1.398933e-02 -1.821257e-02 -3.889869e-02 -1.456903e-02 3.347785e-02
<VARIANCE> 39
 5.361446e+00 5.850632e+00 7.452220e+00 1.031433e+01 1.202341e+01 1.461872e+01 1.655215e+01 1.791414e+01 1.851073e+01 1.737204e+01 1.645254e+01 1.416317e+01 1.276581e+00 2.534417e-01 3.365528e-01 3.772617e-01 5.664119e-01 6.053326e-01 7.375283e-01 7.088110e-01 9.202836e-01 8.939191e-01 7.990487e-01 7.762728e-01 6.718946e-01 2.073161e-02 3.954313e-02 5.724533e-02 6.069193e-02 9.818342e-02 9.287854e-02 1.226491e-01 1.060878e-01 1.502723e-01 1.416595e-01 1.225171e-01 1.118090e-01 9.929992e-02 4.412928e-03
<GCONST> 5.788787e+01
<TRANSP> 5
 0.000000e+00 1.000000e+00 0.000000e+00 0.000000e+00 0.000000e+00
 0.000000e+00 7.692414e-01 2.307586e-01 0.000000e+00 0.000000e+00
 0.000000e+00 0.000000e+00 9.590835e-01 4.091651e-02 0.000000e+00
 0.000000e+00 0.000000e+00 0.000000e+00 7.109239e-01 2.890761e-01
 0.000000e+00 0.000000e+00 0.000000e+00 0.000000e+00 0.000000e+00
<ENDHMM>
~h "six"
<BEGINHMM>
<NUMSTATES> 5
<STATE> 2
<MEAN> 39
 -9.124295e+00 -4.836953e+00 -7.749949e+00 -8.266639e+00 -2.438857e+00 -2.834770e+00 -1.487292e+00 -7.798928e+00 -3.116517e+00 -4.969313e+00 3.618695e-01 -3.493940e+00 1.461232e+01 2.726813e-02 1.591593e-01 1.186000e-01 -3.531423e-01 -3.868239e-01 -2.528209e-01 -1.307449e-02 8.920072e-03 1.418942e-01 1.896523e-01 -1.204983e-01 9.512750e-03 1.277529e-01 1.224180e-01 8.574618e-02 1.920704e-01 -2.156928e-01 -1.443492e-01 -1.911087e-01 -1.348153e-02 -1.142854e-02 4.335984e-02 1.788297e-02 -7.846192e-02 -1.185634e-01 9.579259e-02
<VARIANCE> 39
 5.881857e+00 7.824515e+00 1.145771e+01 1.170149e+01 1.691563e+01 1.670038e+01 1.585943e+01 1.681437e+01 1.957148e+01 2.023768e+01 1.844873e+01 1.536605e+01 1.012899e+00 5.537623e-01 4.715973e-01 1.205764e+00 1.010493e+00 1.007774e+00 1.470688e+00 8.038244e-01 8.137798e-01 1.030869e+00 1.294180e+00 9.459649e-01 9.358562e-01 1.411679e-01 4.636099e-02 5.967520e-02 9.845396e-02 1.366895e-01 1.730452e-01 1.833199e-01 1.418880e-01 1.549592e-01 1.804593e-01 1.774092e-01 1.522814e-01 1.540163e-01 7.503507e-03
<GCONST> 7.075550e+01
<STATE> 3
<MEAN> 39
 -6.389795e+00 -1.255084e+00 -8.810624e-01 -1.937228e+01 -7.577194e+00 -8.493301e+00 -2.595069e+00 -6.569140e+00 3.325130e-02 -3.820273e+00 -2.226168e+00 -7.108534e+00 1.817332e+01 6.033789e-02 -1.004581e-01 1.973093e-01 -2.318161e-01 3.399072e-01 1.645808e-01 -1.732648e-01 1.224700e-01 4.917456e-02 -1.716382e-01 1.772009e-01 -6.580665e-03 -4.431790e-02 -7.081280e-02 -1.914884e-01 -2.624973e-01 4.212633e-01 2.477778e-01 2.067546e-01 8.841415e-02 -7.030383e-02 -1.214316e-01 -5.252281e-02 1.186420e-01 1.339913e-01 -1.487445e-01
<VARIANCE> 39
 7.367367e+00 9.635595e+00 1.569742e+01 2.776347e+01 5.692442e+01 3.167277e+01 3.629292e+01 2.495915e+01 3.438403e+01 5.661711e+01 3.469410e+01 3.674877e+01 1.645047e+00 3.757045e-01 7.674609e-01 1.271302e+00 3.640179e+00 2.695807e+00 1.950655e+00 1.896175e+00 1.366034e+00 1.928482e+00 2.033425e+00 1.879827e+00 2.011311e+00 3.396145e-01 6.646573e-02 6.525156e-02 1.520792e-01 2.585391e-01 3.130457e-01 3.120062e-01 3.695939e-01 2.303203e-01 2.922211e-01 3.375136e-01 2.687100e-01 2.614650e-01 1.433634e-02
<GCONST> 9.337854e+01
<STATE> 4
<MEAN> 39
 -8.222577e+00 -6.451437e+00 -6.277396e+00 -9.275580e+00 -2.415955e+00 -3.256267e+00 -9.182795e-01 -8.615625e+00 -2.795307e+00 -5.153826e+00 7.408613e-01 -4.248632e+00 1.464348e+01 -7.442146e-02 -1.118080e-01 -2.389876e-01 2.870741e-01 3.500226e-02 6.666959e-02 1.390737e-01 -4.188100e-02 -8.121280e-02 -2.483432e-03 7.366128e-03 3.130433e-02 -6.889638e-02 2.173761e-02 7.154374e-02 7.432572e-02 -1.248944e-01 -5.118545e-02 -6.603879e-02 -5.131238e-02 3.815523e-02 2.469896e-02 6.733138e-03 -2.995414e-02 -2.922745e-02 4.497595e-02
<VARIANCE> 39
 7.836407e+00 8.036996e+00 1.202001e+01 1.253897e+01 1.775489e+01 1.684576e+01 1.688475e+01 1.718216e+01 1.742179e+01 1.762553e+01 1.547863e+01 1.427367e+01 1.310076e+00 3.471870e-01 5.518959e-01 7.463470e-01 9.087875e-01 9.875022e-01 1.059264e+00 1.026785e+00 9.108875e-01 8.760951e-01 8.051554e-01 7.558442e-01 6.350732e-01 5.456959e-02 4.509159e-02 7.355034e-02 1.100384e-01 1.327705e-01 1.825923e-01 1.706938e-01 1.655957e-01 1.667245e-01 1.581869e-01 1.441438e-01 1.370198e-01 1.246720e-01 7.388052e-03
<GCONST> 6.779649e+01
<TRANSP> 5
 0.000000e+00 1.000000e+00 0.000000e+00 0.000000e+00 0.000000e+00
 0.000000e+00 9.049472e-01 9.505286e-02 0.000000e+00 0.000000e+00
 0.000000e+00 0.000000e+00 8.983328e-01 1.016672e-01 0.000000e+00
 0.000000e+00 0.000000e+00 0.000000e+00 9.437303e-01 5.626969e-02
 0.000000e+00 0.000000e+00 0.000000e+00 0.000000e+00 0.000000e+00
<ENDHMM>
~h "two"
<BEGINHMM>
<NUMSTATES> 5
<STATE> 2
<MEAN> 39
 -9.639384e+00 -4.513419e+00 -6.580738e+00 -9.863550e+00 -9.720687e-01 -4.070687e+00 -1.373341e+00 -8.179421e+00 -2.537155e+00 -5.722522e+00 1.014191e+00 -3.721766e+00 1.495430e+01 -3.758466e-02 2.631136e-01 2.263373e-01 -3.008478e-01 -8.029219e-02 -1.059183e-02 -1.952108e-01 2.048020e-02 1.192920e-01 3.786870e-02 -4.394892e-03 -2.839604e-02 9.347308e-02 1.950327e-01 9.726116e-02 2.115307e-01 -1.064898e-01 -1.587307e-01 -1.867033e-01 -1.174414e-01 -6.690846e-02 -2.515928e-02 -1.346582e-03 -7.481471e-02 -1.170505e-01 8.904149e-02
<VARIANCE> 39
 9.732258e+00 8.411865e+00 1.057137e+01 1.130263e+01 1.669862e+01 1.858914e+01 1.761609e+01 1.993474e+01 2.015005e+01 2.109536e+01 2.063021e+01 1.756303e+01 9.683664e-01 1.154742e+00 7.385865e-01 1.484535e+00 7.320567e-01 1.243841e+00 1.212136e+00 9.533136e-01 1.050649e+00 1.054676e+00 1.129717e+00 1.398418e+00 9.929938e-01 1.174516e-01 1.107615e-01 1.110957e-01 1.232446e-01 1.199815e-01 2.136392e-01 1.859785e-01 1.655750e-01 1.895574e-01 1.984025e-01 1.764035e-01 2.621551e-01 1.380706e-01 7.422635e-03
<GCONST> 7.620215e+01
<STATE> 3
<MEAN> 39
 -4.756927e+00 1.149319e+00 1.778226e+00 -1.527068e+01 -6.598805e+00 -9.672951e+00 -6.598328e+00 -1.044179e+01 -2.516045e+00 -5.320361e+00 -1.030022e+00 -7.239760e+00 1.830119e+01 7.193316e-01 5.999751e-01 8.360481e-01 -6.091868e-01 -1.201094e+00 -1.150002e+00 -6.212710e-01 -3.241047e-01 -7.638555e-02 1.074630e-01 -2.783293e-01 -6.924759e-01 4.804430e-01 -2.461663e-01 -2.219688e-01 -4.234546e-01 2.838060e-01 2.397684e-01 2.108273e-01 2.293689e-01 1.474371e-01 -1.436222e-02 5.922058e-03 1.442221e-01 1.762002e-01 -1.356786e-01
<VARIANCE> 39
 7.637055e+00 8.201180e+00 1.359603e+01 2.286914e+01 4.094154e+01 2.664878e+01 2.842987e+01 2.392865e+01 3.044523e+01 5.369550e+01 4.334023e+01 4.700752e+01 1.220934e+00 6.002334e-01 6.134157e-01 9.871256e-01 1.413978e+00 1.245543e+00 1.154155e+00 1.636979e+00 1.535898e+00 1.877875e+00 2.038628e+00 2.554882e+00 1.859359e+00 8.416662e-02 6.196137e-02 5.703237e-02 8.188548e-02 1.318224e-01 2.159619e-01 1.828539e-01 2.050726e-01 1.926455e-01 2.096131e-01 2.724445e-01 2.909154e-01 2.224142e-01 8.053109e-03
<GCONST> 8.427509e+01
<STATE> 4
<MEAN> 39
 -3.074160e+00 -2.498510e-01 -1.582096e-01 -1.281028e+01 -6.631960e+00 -1.135589e+01 -5.742240e+00 -1.003087e+01 -3.079259e+00 -5.508291e+00 -1.510165e-01 -7.402940e+00 1.806439e+01 2.856418e-02 -3.108902e-01 -3.225634e-01 4.777231e-01 4.160341e-01 2.897206e-01 2.823398e-01 6.164464e-02 -7.978728e-02 -2.571215e-03 1.468312e-01 2.523626e-01 -1.813451e-01 -7.879079e-02 -6.534901e-02 -4.715155e-02 -2.747077e-03 8.374628e-02 1.333991e-01 8.168748e-02 3.501740e-02 2.799214e-02 -2.889550e-03 -1.431963e-02 4.589149e-02 -4.147512e-02
<VARIANCE> 39
 6.126966e+00 7.980877e+00 1.202322e+01 3.019343e+01 3.252040e+01 2.281901e+01 3.197463e+01 3.246531e+01 4.006976e+01 4.282230e+01 5.143118e+01 4.045086e+01 1.492823e+00 2.866627e-01 2.399527e-01 4.425735e-01 6.655244e-01 9.312071e-01 1.150723e+00 1.105538e+00 1.194716e+00 1.057023e+00 1.124071e+00 1.145986e+00 1.082552e+00 3.967651e-02 3.091886e-02 3.306121e-02 5.466451e-02 9.506745e-02 1.114157e-01 1.450114e-01 1.389046e-01 1.749011e-01 1.699729e-01 1.672947e-01 1.672982e-01 1.557807e-01 3.008824e-03
<GCONST> 7.111191e+01
<TRANSP> 5
 0.000000e+00 1.000000e+00 0.000000e+00 0.000000e+00 0.000000e+00
 0.000000e+00 9.084746e-01 9.152547e-02 0.000000e+00 0.000000e+00
 0.000000e+00 0.000000e+00 7.698596e-01 2.301404e-01 0.000000e+00
 0.000000e+00 0.000000e+00 0.000000e+00 9.201575e-01 7.984255e-02
 0.000000e+00 0.000000e+00 0.000000e+00 0.000000e+00 0.000000e+00
<ENDHMM>
~h "nine"
<BEGINHMM>
<NUMSTATES> 5
<STATE> 2
<MEAN> 39
 -4.077333e+00 -3.898049e+00 -1.677267e+00 -8.971153e+00 -2.804495e+00 -6.378207e+00 -1.642720e+00 -1.116134e+01 -5.117403e+00 -8.041979e+00 -2.887750e+00 -7.734884e+00 1.762904e+01 -1.811329e-01 -6.858044e-01 -2.834646e-01 4.408273e-01 -4.285438e-01 2.355708e-01 4.030294e-01 -1.731194e-01 -1.880368e-02 -1.236196e-01 -8.592749e-02 -8.366877e-02 2.069315e-01 -5.922489e-02 -1.590377e-01 -1.030370e-01 1.132274e-01 -5.453093e-03 -1.169333e-03 5.204884e-02 4.893642e-02 3.952451e-02 9.370367e-03 7.326277e-02 3.877689e-02 -9.215261e-03
<VARIANCE> 39
 8.090961e+00 1.916343e+01 1.444467e+01 1.669297e+01 2.834811e+01 2.875758e+01 3.145670e+01 2.650793e+01 4.734476e+01 3.538879e+01 3.033128e+01 3.281610e+01 1.829774e+00 4.871433e-01 1.494064e+00 1.080496e+00 1.097172e+00 1.264091e+00 1.393839e+00 1.627393e+00 1.205141e+00 1.553541e+00 1.157375e+00 1.183342e+00 1.006629e+00 4.894996e-02 6.265630e-02 1.682047e-01 1.288505e-01 1.425367e-01 2.181610e-01 2.178719e-01 2.447260e-01 1.814130e-01 2.032966e-01 1.691317e-01 1.711287e-01 1.443606e-01 4.463013e-03
<GCONST> 8.221029e+01
<STATE> 3
<MEAN> 39
 -6.347527e+00 -1.160442e+01 -4.860510e+00 -2.734691e+00 -5.693743e+00 -5.250024e+00 1.736060e+00 -1.135922e+01 -5.539678e+00 -9.015328e+00 -1.699770e+00 -7.646741e+00 1.861514e+01 -1.102202e-01 9.686060e-02 2.307477e-01 -2.420475e-01 -2.305183e-02 2.140791e-01 -1.050664e-01 -8.696251e-02 1.959001e-01 5.474260e-02 -5.526768e-02 4.596746e-02 -2.113688e-02 2.517123e-03 1.935469e-01 6.929503e-02 -2.402585e-01 4.426290e-02 6.240282e-02 -1.060978e-01 1.121207e-02 7.537670e-02 -1.084901e-02 -6.778217e-02 2.441986e-02 -1.480030e-02
<VARIANCE> 39
 7.253240e+00 8.472350e+00 2.450036e+01 3.236936e+01 1.900658e+01 3.083622e+01 3.095137e+01 3.397373e+01 4.391690e+01 4.150164e+01 2.842895e+01 3.075454e+01 1.006126e+00 8.384611e-02 3.840284e-01 4.111281e-01 1.132712e+00 5.000371e-01 6.241730e-01 5.587701e-01 5.153652e-01 6.511037e-01 6.707070e-01 6.806695e-01 5.420508e-01 4.827253e-03 1.133340e-02 3.005360e-02 4.127556e-02 5.547938e-02 7.264969e-02 7.246986e-02 7.391031e-02 8.095076e-02 8.281080e-02 8.716506e-02 7.873289e-02 7.922967e-02 3.983417e-04
<GCONST> 5.405605e+01
<STATE> 4
<MEAN> 39
 -5.408935e+00 -2.488682e+00 -1.320186e+00 -1.141011e+01 -1.443076e+00 -5.341780e+00 -3.676826e+00 -1.048140e+01 -3.509036e+00 -8.117114e+00 -2.930942e+00 -6.527737e+00 1.769446e+01 2.317151e-01 5.105900e-01 -3.093132e-03 -1.016922e-01 4.411192e-01 -2.479248e-01 -2.011420e-01 2.756156e-01 -1.277938e-01 8.107442e-02 2.108434e-01 1.169408e-01 -1.723584e-01 -2.715111e-02 -1.583066e-01 -8.625391e-02 1.474565e-01 -3.839161e-02 -6.090278e-03 1.204324e-01 1.985703e-02 -5.447877e-02 4.231445e-02 7.832277e-02 -9.554904e-03 -2.023006e-02
<VARIANCE> 39
 1.166846e+01 1.632527e+01 1.132170e+01 2.321635e+01 3.171841e+01 3.320288e+01 3.064789e+01 2.993113e+01 4.733529e+01 3.817847e+01 3.626937e+01 3.985384e+01 1.211663e+00 5.065153e-01 1.171872e+00 6.359944e-01 1.643074e+00 1.303740e+00 1.550627e+00 1.528431e+00 1.269756e+00 1.658818e+00 1.184173e+00 1.105880e+00 1.068940e+00 2.538143e-02 7.071382e-02 8.681946e-02 9.031530e-02 1.779846e-01 1.819096e-01 2.449434e-01 1.820611e-01 2.039851e-01 2.436526e-01 1.943311e-01 1.735393e-01 1.451956e-01 2.221679e-03
<GCONST> 8.083681e+01
<TRANSP> 5
 0.000000e+00 1.000000e+00 0.000000e+00 0.000000e+00 0.000000e+00
 0.000000e+00 9.012507e-01 9.874934e-02 0.000000e+00 0.000000e+00
 0.000000e+00 0.000000e+00 9.153502e-01 8.464981e-02 0.000000e+00
 0.000000e+00 0.000000e+00 0.000000e+00 9.176030e-01 8.239705e-02
 0.000000e+00 0.000000e+00 0.000000e+00 0.000000e+00 0.000000e+00
<ENDHMM>
~h "five"
<BEGINHMM>
<NUMSTATES> 5
<STATE> 2
<MEAN> 39
 -6.145309e+00 -8.579067e+00 -7.592478e+00 -9.225049e+00 -4.230667e-01 -6.121460e+00 6.971254e-03 -6.825422e+00 -3.778215e+00 -6.490664e+00 -3.219383e-01 -4.546301e+00 1.643808e+01 1.117994e-01 -6.872138e-01 -4.785934e-01 3.255059e-01 2.195614e-01 -2.712137e-01 2.421205e-01 2.802728e-01 -3.435881e-01 -1.302728e-01 -1.266208e-01 1.666918e-02 2.472811e-01 -1.687407e-03 -5.660712e-03 5.737687e-02 4.688849e-02 -1.725619e-02 -3.236498e-02 -1.989595e-02 -4.941021e-02 -1.732871e-02 2.411584e-02 1.546228e-02 -1.459354e-02 2.061869e-02
<VARIANCE> 39
 1.125218e+01 1.815388e+01 1.972014e+01 1.332429e+01 1.796995e+01 2.025480e+01 1.944232e+01 3.697222e+01 2.612187e+01 2.326820e+01 2.203222e+01 1.616224e+01 4.948141e+00 7.423177e-01 6.844201e-01 8.868361e-01 8.866013e-01 8.226779e-01 1.096098e+00 9.428292e-01 1.701118e+00 1.496832e+00 1.271830e+00 1.231869e+00 8.357613e-01 2.129112e-01 1.004225e-01 1.065271e-01 1.570923e-01 1.148709e-01 1.338450e-01 1.695190e-01 1.473376e-01 2.760083e-01 2.348385e-01 1.802755e-01 1.906096e-01 1.286199e-01 2.516607e-02
<GCONST> 8.141046e+01
<STATE> 3
<MEAN> 39
 -5.829909e+00 -1.543208e+01 -8.489591e+00 -3.791504e+00 1.364196e+00 -9.061789e+00 2.480586e+00 -7.543465e+00 -7.266442e+00 -5.482923e+00 -5.596456e-01 -4.576599e+00 1.903887e+01 -1.610333e-01 9.881321e-02 4.891212e-01 -2.808349e-01 -2.718478e-01 4.465797e-01 6.804509e-02 -3.852472e-01 3.469802e-02 2.820534e-01 5.019212e-02 -7.338849e-02 -4.962921e-02 4.119492e-02 1.198991e-01 1.074242e-02 -1.944130e-01 -5.746680e-02 8.541068e-02 -2.819498e-02 2.903886e-02 6.260722e-02 -5.057398e-02 -7.345666e-02 -1.855369e-02 -1.597169e-02
<VARIANCE> 39
 9.235520e+00 9.516525e+00 2.487407e+01 2.134833e+01 1.890436e+01 2.361059e+01 1.802780e+01 4.020389e+01 4.783453e+01 4.513333e+01 2.691066e+01 2.542698e+01 1.368737e+00 9.077763e-02 1.726028e-01 2.727431e-01 6.954164e-01 5.202831e-01 5.777699e-01 5.082272e-01 5.121692e-01 6.401095e-01 6.122535e-01 5.999656e-01 4.835860e-01 5.997588e-03 1.192115e-02 2.521034e-02 3.123390e-02 4.833080e-02 5.224701e-02 5.349392e-02 5.804965e-02 6.689402e-02 9.045389e-02 8.805475e-02 6.807330e-02 7.103814e-02 9.688314e-04
<GCONST> 5.083689e+01
<STATE> 4
<MEAN> 39
 -5.452400e+00 -7.798189e+00 -3.664722e+00 -1.292934e+01 -3.057851e+00 -3.760871e+00 1.120413e+00 -8.346090e+00 -3.888037e+00 -5.631060e+00 -1.734030e+00 -5.653007e+00 1.761938e+01 6.896080e-02 9.293814e-01 2.307972e-01 -1.987873e-01 -1.315921e-01 -8.908948e-02 -2.932280e-01 7.891077e-02 3.928490e-01 -1.370572e-01 7.672864e-02 1.233731e-02 -2.762189e-01 -4.002652e-02 -7.254092e-02 -8.900349e-02 1.945949e-01 1.092603e-01 -8.830144e-02 -1.665533e-02 -4.516101e-03 -4.075462e-02 1.309688e-02 7.345094e-02 3.240529e-02 -1.782523e-02
<VARIANCE> 39
 7.533133e+00 2.308250e+01 1.185585e+01 2.986160e+01 3.748624e+01 2.150839e+01 2.415423e+01 3.057125e+01 4.223594e+01 2.629447e+01 2.688214e+01 2.787959e+01 2.629520e+00 3.400317e-01 7.374042e-01 6.409172e-01 2.733147e+00 1.682088e+00 1.393089e+00 9.393061e-01 1.417222e+00 1.594575e+00 1.266554e+00 1.316849e+00 1.013080e+00 6.819279e-02 5.715522e-02 1.022110e-01 9.524725e-02 3.009322e-01 2.342667e-01 2.509232e-01 1.675268e-01 2.084454e-01 2.011775e-01 1.717468e-01 2.163431e-01 1.726193e-01 9.082130e-03
<GCONST> 8.298359e+01
<TRANSP> 5
 0.000000e+00 1.000000e+00 0.000000e+00 0.000000e+00 0.000000e+00
 0.000000e+00 9.300390e-01 6.996097e-02 0.000000e+00 0.000000e+00
 0.000000e+00 0.000000e+00 9.152319e-01 8.476809e-02 0.000000e+00
 0.000000e+00 0.000000e+00 0.000000e+00 8.980054e-01 1.019946e-01
 0.000000e+00 0.000000e+00 0.000000e+00 0.000000e+00 0.000000e+00
<ENDHMM>
~h "four"
<BEGINHMM>
<NUMSTATES> 5
<STATE> 2
<MEAN> 39
 -7.667615e+00 -6.677808e+00 -5.470643e+00 -9.688792e+00 -1.112551e+00 -4.543475e+00 -5.189725e-01 -8.559962e+00 -2.271120e+00 -5.732478e+00 1.121441e+00 -4.080834e+00 1.494338e+01 3.138353e-01 1.474914e-02 -3.778506e-01 -2.939829e-01 -1.125255e-01 -9.205846e-02 -1.320308e-01 -8.569979e-03 1.231803e-01 1.055105e-01 -1.625176e-02 -4.077200e-02 1.258384e-01 2.438173e-01 9.813487e-02 -1.170317e-01 -1.288144e-01 -5.303994e-02 -1.112580e-01 -1.097987e-01 -1.808107e-02 -8.184137e-03 7.009553e-03 -7.390762e-02 -1.029496e-01 1.065350e-01
<VARIANCE> 39
 4.657698e+00 4.193451e+00 6.876488e+00 8.704022e+00 1.156782e+01 1.418993e+01 1.488089e+01 1.611070e+01 1.489992e+01 1.410061e+01 1.539703e+01 1.167687e+01 9.116803e-01 1.047065e+00 4.639228e-01 5.766307e-01 6.437171e-01 6.049651e-01 9.842692e-01 9.577661e-01 8.519983e-01 8.544639e-01 7.821128e-01 1.037501e+00 8.674537e-01 1.654568e-01 5.929433e-02 5.711765e-02 1.015155e-01 1.069120e-01 1.041819e-01 1.638892e-01 1.311690e-01 1.613807e-01 1.551103e-01 1.347689e-01 1.544513e-01 1.329648e-01 6.555353e-03
<GCONST> 6.410859e+01
<STATE> 3
<MEAN> 39
 1.545542e+00 -3.506073e+00 -1.204608e+01 -1.693926e+01 -4.004879e+00 -6.246487e+00 -3.255047e+00 -8.958975e+00 -1.451340e+00 -3.992062e+00 3.068355e-01 -6.856421e+00 1.889500e+01 3.433107e-01 -1.623348e-01 -3.558474e-01 -7.217012e-02 6.820397e-02 -2.290281e-02 -2.270717e-01 1.736723e-01 3.472253e-01 1.047986e-01 -2.364448e-01 -2.329478e-01 1.594964e-01 -1.728061e-01 -1.511378e-01 1.446060e-01 2.267973e-01 4.013342e-02 -2.949185e-02 4.305377e-02 1.087216e-01 4.690723e-02 -7.877225e-02 -5.253188e-02 5.703615e-02 -6.698088e-02
<VARIANCE> 39
 4.227960e+00 1.022245e+01 1.029037e+01 1.432916e+01 2.460275e+01 1.721146e+01 1.818636e+01 1.709347e+01 2.334695e+01 2.481168e+01 3.750478e+01 3.594286e+01 1.115800e+00 5.912059e-01 7.438597e-01 7.231893e-01 1.240829e+00 9.895769e-01 7.948632e-01 9.115142e-01 9.642964e-01 1.307602e+00 1.180656e+00 1.372135e+00 1.243436e+00 1.038316e-01 4.871599e-02 4.642916e-02 9.628291e-02 8.305276e-02 1.340594e-01 1.435020e-01 1.544317e-01 1.396360e-01 1.799932e-01 1.932644e-01 2.021902e-01 1.820074e-01 7.090523e-03
<GCONST> 7.298954e+01
<STATE> 4
<MEAN> 39
 -5.429496e-01 -1.072220e+01 -7.323113e+00 -8.565814e+00 -5.391744e+00 -8.704764e+00 -2.323943e+00 -4.895534e+00 1.832018e-01 -7.540124e+00 -3.910871e+00 -7.426216e+00 1.840887e+01 -6.129128e-01 7.465138e-02 1.055966e+00 4.896518e-01 -3.433492e-01 7.616297e-02 5.981663e-01 -1.811752e-01 -6.240196e-01 -3.440990e-01 1.658256e-01 3.014707e-01 -2.432766e-01 -9.001626e-02 2.380777e-01 -4.453187e-02 -1.996031e-01 1.165281e-01 1.960449e-01 3.099985e-02 -1.858950e-01 -1.287926e-01 1.032562e-01 1.745548e-01 4.439829e-02 -4.962713e-02
<VARIANCE> 39
 7.333428e+00 1.779958e+01 3.181578e+01 1.828338e+01 4.522200e+01 3.700929e+01 3.509685e+01 4.319413e+01 4.621209e+01 3.482878e+01 3.460001e+01 3.076933e+01 1.741630e+00 2.971710e-01 1.587486e+00 9.179292e-01 1.626264e+00 2.564564e+00 2.221740e+00 1.718491e+00 2.564769e+00 1.885270e+00 1.705947e+00 1.829049e+00 1.123808e+00 5.832916e-02 2.926797e-02 1.346432e-01 2.064868e-01 1.690597e-01 4.288344e-01 2.940586e-01 3.516554e-01 3.668475e-01 3.851871e-01 2.816705e-01 3.092500e-01 2.124643e-01 3.411655e-03
<GCONST> 9.085587e+01
<TRANSP> 5
 0.000000e+00 1.000000e+00 0.000000e+00 0.000000e+00 0.000000e+00
 0.000000e+00 9.011176e-01 9.888238e-02 0.000000e+00 0.000000e+00
 0.000000e+00 0.000000e+00 9.186853e-01 8.131469e-02 0.000000e+00
 0.000000e+00 0.000000e+00 0.000000e+00 8.810121e-01 1.189879e-01
 0.000000e+00 0.000000e+00 0.000000e+00 0.000000e+00 0.000000e+00
<ENDHMM>
~h "zero"
<BEGINHMM>
<NUMSTATES> 5
<STATE> 2
<MEAN> 39
 -6.758197e+00 -3.060527e+00 -4.886798e+00 -7.466873e+00 -1.265797e+00 -3.807543e+00 -1.414113e+00 -8.520006e+00 -3.457363e+00 -5.106212e+00 5.901117e-01 -4.556118e+00 1.523185e+01 -8.170136e-02 3.317806e-01 1.413752e-01 -3.041289e-01 -2.133289e-01 -2.737705e-01 -1.777347e-01 -1.205131e-01 1.233140e-01 2.201333e-01 -1.254688e-02 -1.822840e-04 1.060454e-01 6.806368e-02 1.068913e-01 1.512877e-01 -2.256993e-01 -1.459344e-01 -2.462545e-01 -6.497147e-02 -7.538816e-02 6.202520e-02 1.080050e-02 -2.262663e-02 -5.403276e-02 8.252113e-02
<VARIANCE> 39
 7.745533e+00 1.028867e+01 1.429246e+01 1.360926e+01 1.783338e+01 1.930363e+01 1.877959e+01 1.949851e+01 2.377090e+01 2.085618e+01 1.977662e+01 1.678329e+01 1.208746e+00 4.211693e-01 7.290817e-01 1.003677e+00 9.500265e-01 8.893812e-01 1.750826e+00 9.589515e-01 1.102071e+00 1.068044e+00 8.963273e-01 1.006097e+00 1.001632e+00 1.192546e-01 5.258034e-02 9.179021e-02 1.144094e-01 1.198336e-01 1.237966e-01 1.946414e-01 1.597985e-01 1.730614e-01 1.607247e-01 1.399863e-01 1.706404e-01 1.584599e-01 7.959113e-03
<GCONST> 7.320324e+01
<STATE> 3
<MEAN> 39
 -5.592095e+00 3.947924e-01 8.079390e-01 -1.662410e+01 -7.708005e+00 -9.224522e+00 -4.659799e+00 -8.628942e+00 -4.980724e-02 -3.802458e+00 1.258631e-01 -6.759896e+00 1.834425e+01 3.379456e-01 -6.248828e-01 4.886792e-01 -2.655300e-01 -1.102031e+00 1.290050e-01 1.549431e-01 1.538308e-01 3.348837e-01 -5.400464e-02 2.663066e-02 -1.552790e-01 1.949112e-01 4.520105e-02 -2.660320e-01 -1.692161e-01 3.432932e-01 9.451905e-03 1.402736e-01 1.908019e-01 7.236187e-02 -7.130002e-02 -4.765814e-02 -7.074230e-03 6.282102e-02 -6.164546e-02
<VARIANCE> 39
 7.281559e+00 1.916436e+01 1.718698e+01 2.744103e+01 5.847871e+01 3.936941e+01 3.189014e+01 4.336151e+01 3.246156e+01 3.001736e+01 3.379618e+01 4.994855e+01 1.156427e+00 4.295182e-01 1.775810e+00 8.555834e-01 2.664881e+00 1.664655e+00 2.654102e+00 1.727533e+00 1.475487e+00 1.340072e+00 1.175717e+00 1.141480e+00 1.379943e+00 7.313951e-02 5.099250e-02 1.107295e-01 1.223801e-01 1.857589e-01 2.375712e-01 3.918816e-01 2.244484e-01 2.434513e-01 2.200116e-01 1.773815e-01 1.724156e-01 2.131463e-01 4.550987e-03
<GCONST> 8.729089e+01
<STATE> 4
<MEAN> 39
 -1.649495e+00 -9.930202e+00 -4.550666e+00 -9.836857e+00 -9.202536e+00 -8.373689e+00 4.411411e-02 -4.372849e+00 -3.071284e-01 -6.662961e+00 -1.066677e+00 -5.913443e+00 1.846298e+01 -1.753798e-03 4.112621e-02 -4.249310e-01 2.121487e-01 6.904305e-01 -3.666323e-02 1.302169e-02 7.659864e-02 -1.453020e-01 -9.953417e-02 -4.258221e-02 5.560245e-02 -9.981187e-02 -8.147250e-02 1.027208e-01 5.156509e-02 -8.308347e-02 8.994123e-02 7.162390e-02 -5.898665e-02 -6.224519e-02 -2.368842e-02 2.519871e-02 2.528682e-02 8.751927e-03 -2.410498e-02
<VARIANCE> 39
 6.049092e+00 2.022785e+01 2.591608e+01 2.576166e+01 6.116740e+01 5.180172e+01 3.776273e+01 3.636166e+01 4.391798e+01 3.594057e+01 2.597991e+01 3.311903e+01 1.509376e+00 3.011808e-01 8.276484e-01 7.834047e-01 1.013744e+00 1.236765e+00 1.841321e+00 1.589975e+00 1.897709e+00 1.647496e+00 1.476201e+00 1.053256e+00 9.581052e-01 3.797321e-02 2.902771e-02 5.182486e-02 8.360697e-02 1.130993e-01 1.905564e-01 2.371128e-01 2.060701e-01 2.034600e-01 2.219572e-01 2.011833e-01 1.522533e-01 1.418975e-01 2.415708e-03
<GCONST> 8.034298e+01
<TRANSP> 5
 0.000000e+00 1.000000e+00 0.000000e+00 0.000000e+00 0.000000e+00
 0.000000e+00 8.903296e-01 1.096704e-01 0.000000e+00 0.000000e+00
 0.000000e+00 0.000000e+00 8.972769e-01 1.027230e-01 0.000000e+00
 0.000000e+00 0.000000e+00 0.000000e+00 9.447587e-01 5.524130e-02
 0.000000e+00 0.000000e+00 0.000000e+00 0.000000e+00 0.000000e+00
<ENDHMM>
