~o
<STREAMINFO> 1 39
<VECSIZE> 39<NULLD><MFCC_E_D_A><DIAGC>
~h "eight"
<BEGINHMM>
<NUMSTATES> 5
<STATE> 2
<MEAN> 39
 -7.525488e+00 -3.420118e+00 -5.693811e+00 -1.668570e+01 -6.481143e-01 -5.185543e+00 5.470177e-01 -6.743500e+00 -1.553069e+00 -6.762629e+00 -1.027929e+00 -5.332025e+00 1.715006e+01 -1.898311e-01 7.577122e-01 -8.176351e-02 -7.809229e-01 3.907210e-02 -4.151603e-01 5.471162e-02 2.965394e-01 3.012314e-01 4.611484e-02 -9.424017e-02 -9.563173e-02 2.139707e-01 3.511712e-02 8.240443e-02 1.099036e-02 8.986190e-02 -4.099647e-02 -1.680097e-01 -8.085669e-02 -2.305283e-02 2.695722e-02 6.059893e-02 5.865880e-02 -4.492614e-03 3.408581e-03
<VARIANCE> 39
 1.075486e+01 2.307434e+01 1.837160e+01 3.944825e+01 4.045596e+01 2.354922e+01 2.443400e+01 2.433188e+01 3.137318e+01 2.546360e+01 2.575635e+01 2.446930e+01 3.380705e+00 3.361021e-01 9.648909e-01 6.845654e-01 1.411318e+00 1.253961e+00 1.634573e+00 1.347969e+00 1.127935e+00 1.374128e+00 1.216877e+00 1.140574e+00 1.007644e+00 1.229265e-01 4.082141e-02 8.493619e-02 8.461920e-02 2.010769e-01 1.478442e-01 1.778034e-01 1.529219e-01 1.814141e-01 2.320802e-01 1.694670e-01 1.833129e-01 1.573055e-01 1.323825e-02
<GCONST> 8.183669e+01
<STATE> 3
<MEAN> 39
 -7.934731e+00 5.477154e+00 -4.907471e+00 -1.664367e+01 -2.357501e+00 -1.442213e+01 -3.037937e+00 -8.594378e+00 -1.335084e+00 -4.426079e+00 9.917125e-01 -5.286070e+00 1.807259e+01 2.039294e-01 -4.300276e-01 1.808576e-01 9.725593e-01 1.363588e-01 7.028230e-02 -3.418226e-01 -6.697160e-01 -5.153328e-01 -4.171416e-02 2.097906e-01 1.947607e-01 -2.365520e-01 1.017414e-02 -3.329968e-01 -3.051595e-02 6.374228e-02 4.254453e-02 3.534963e-01 1.235564e-01 5.607811e-02 -2.337961e-02 -9.200624e-02 -6.272292e-02 3.819378e-03 -6.256994e-02
<VARIANCE> 39
 9.285377e+00 1.351125e+01 2.249686e+01 3.247889e+01 1.967260e+01 2.419907e+01 5.252932e+01 3.437444e+01 4.416660e+01 2.638201e+01 3.191437e+01 2.703621e+01 1.960391e+00 2.642413e-01 1.895582e+00 4.089054e-01 7.645962e-01 7.866999e-01 2.501965e+00 1.307679e+00 1.117099e+00 1.804448e+00 1.194807e+00 1.398584e+00 1.008864e+00 6.755549e-02 3.642331e-02 9.031817e-02 5.903160e-02 1.265412e-01 9.249812e-02 1.744557e-01 1.630213e-01 2.078730e-01 2.768601e-01 1.690901e-01 1.959234e-01 1.643308e-01 4.023981e-03
<GCONST> 7.874309e+01
<STATE> 4
<MEAN> 39
 -7.116812e+00 -6.541197e+00 -5.514956e+00 -1.004291e+01 -1.215387e+00 -4.682313e+00 -8.408571e-01 -8.921440e+00 -3.019630e+00 -5.935814e+00 9.428458e-01 -4.004994e+00 1.468659e+01 -7.181042e-02 -3.659820e-01 -1.176281e-01 1.204015e-01 -4.112121e-02 3.695666e-01 1.855186e-01 1.809973e-01 1.167327e-01 8.814107e-03 1.649700e-02 9.386479e-03 -9.299190e-02 -5.678963e-03 1.757368e-01 1.040282e-02 -6.683695e-02 -1.211667e-02 -1.464336e-01 -4.599471e-02 -1.504721e-02 -6.338661e-03 2.178857e-02 -5.190496e-03 -1.391284e-02 4.871860e-02
<VARIANCE> 39
 4.560818e+00 6.158397e+00 8.314590e+00 9.574147e+00 1.262558e+01 1.589314e+01 1.697593e+01 1.696662e+01 1.732009e+01 1.627310e+01 1.523353e+01 1.399431e+01 1.034473e+00 2.099200e-01 8.404215e-01 4.288103e-01 5.954869e-01 4.862479e-01 1.170369e+00 9.930804e-01 8.546541e-01 9.812546e-01 7.909512e-01 7.432305e-01 7.056772e-01 4.873557e-02 3.459796e-02 9.647760e-02 7.128768e-02 1.091532e-01 9.177161e-02 1.887667e-01 1.756949e-01 1.504270e-01 1.623725e-01 1.354742e-01 1.324262e-01 1.272725e-01 4.818551e-03
<GCONST> 6.216113e+01
<TRANSP> 5
 0.000000e+00 1.000000e+00 0.000000e+00 0.000000e+00 0.000000e+00
 0.000000e+00 9.122227e-01 8.777727e-02 0.000000e+00 0.000000e+00
 0.000000e+00 0.000000e+00 8.975597e-01 1.024402e-01 0.000000e+00
 0.000000e+00 0.000000e+00 0.000000e+00 9.213884e-01 7.861157e-02
 0.000000e+00 0.000000e+00 0.000000e+00 0.000000e+00 0.000000e+00
<ENDHMM>
~h "oh"
<BEGINHMM>
<NUMSTATES> 5
<STATE> 2
<MEAN> 39
 -5.072872e+00 -9.817608e+00 -7.833452e+00 -8.759817e+00 -2.347725e+00 -7.078489e+00 2.847811e+00 -7.616823e+00 -4.773076e+00 -6.878182e+00 -1.688049e+00 -4.955338e+00 1.721412e+01 4.015796e-01 -2.821327e-01 -5.485520e-01 2.171477e-01 1.401579e-01 -4.946040e-01 2.322622e-01 5.781173e-01 -1.037388e-01 -3.932719e-01 -3.404593e-01 -6.351507e-02 2.903919e-01 6.013323e-02 8.892501e-02 -1.210046e-02 -5.545064e-02 1.547167e-02 -6.011966e-02 -1.276612e-01 1.861519e-02 1.092606e-01 1.498397e-03 -5.272017e-02 -5.050198e-02 1.424151e-02
<VARIANCE> 39
 8.382449e+00 1.228193e+01 1.538582e+01 1.591973e+01 2.185706e+01 2.340187e+01 2.846186e+01 5.757740e+01 3.748610e+01 3.054251e+01 2.664025e+01 2.711346e+01 3.812009e+00 4.044842e-01 5.594931e-01 6.603066e-01 6.405939e-01 7.460910e-01 1.180118e+00 1.235320e+00 1.815309e+00 1.533160e+00 1.309636e+00 1.311755e+00 1.081989e+00 1.254092e-01 4.813036e-02 7.023174e-02 8.521661e-02 8.555359e-02 1.118060e-01 1.482317e-01 1.609954e-01 2.226756e-01 2.095416e-01 1.953572e-01 2.000369e-01 1.548805e-01 1.713548e-02
<GCONST> 7.894424e+01
<STATE> 3
<MEAN> 39
 -4.965525e-01 -8.085467e+00 -1.303814e+01 -1.018387e+01 -8.909400e-01 -1.201037e+01 -8.893922e-01 -1.284865e+00 1.940595e-01 -7.884097e+00 -5.009656e+00 -6.855143e+00 1.903839e+01 2.239001e-01 4.083393e-01 -6.282705e-03 -3.375518e-01 -6.151884e-02 -1.962684e-02 -6.569642e-01 -2.515340e-01 6.164014e-01 5.838863e-01 3.181310e-02 -3.234780e-01 -1.058484e-02 -4.688103e-02 2.213050e-02 1.000660e-01 -1.013740e-02 -5.009532e-02 8.897574e-02 1.630922e-02 -1.447832e-01 -8.520982e-02 7.581069e-02 1.148444e-01 2.392480e-02 -2.662397e-02
<VARIANCE> 39
 6.028912e+00 9.347513e+00 1.555819e+01 1.589705e+01 1.975387e+01 2.333698e+01 4.428261e+01 3.314348e+01 4.055740e+01 3.755803e+01 3.123165e+01 3.914709e+01 1.183742e+00 8.543247e-02 1.427011e-01 2.976770e-01 2.936640e-01 3.913121e-01 5.535854e-01 7.245868e-01 1.116327e+00 7.998189e-01 8.947196e-01 8.656743e-01 6.944247e-01 1.391771e-02 1.175624e-02 1.537111e-02 3.537062e-02 3.572034e-02 4.852983e-02 7.178164e-02 8.156291e-02 1.012439e-01 1.109306e-01 1.075020e-01 9.628406e-02 9.289309e-02 1.245776e-03
<GCONST> 5.396386e+01
<STATE> 4
<MEAN> 39
 -7.421296e-01 -3.730283e+00 -8.383009e+00 -1.248774e+01 -3.621934e+00 -9.299798e+00 -3.999849e+00 -8.066806e+00 -2.981584e-01 -3.366438e+00 3.571078e-01 -6.248465e+00 1.795402e+01 -5.069423e-01 1.202623e-01 7.349947e-01 2.727426e-01 1.218226e-02 5.559648e-01 3.365221e-01 -4.405016e-01 -5.363702e-01 -1.885975e-01 3.968587e-01 4.349285e-01 -2.802435e-01 -1.126414e-01 -1.139992e-01 -2.909392e-02 7.593995e-02 9.950154e-02 8.984425e-02 1.345682e-01 9.031436e-02 -3.951534e-02 -1.066526e-01 -6.856532e-02 5.313571e-02 -3.463734e-02
<VARIANCE> 39
 9.362351e+00 7.810646e+00 2.079540e+01 1.825518e+01 1.941309e+01 2.692030e+01 3.110370e+01 2.683593e+01 3.198965e+01 4.008363e+01 3.906028e+01 3.790115e+01 2.412690e+00 3.826980e-01 4.593743e-01 5.507503e-01 6.217652e-01 8.842595e-01 1.264762e+00 1.251901e+00 1.298697e+00 1.305805e+00 1.263450e+00 1.279156e+00 1.245756e+00 5.453476e-02 3.299804e-02 4.469987e-02 8.896884e-02 8.728372e-02 1.097015e-01 1.661362e-01 1.871943e-01 1.997306e-01 2.127174e-01 2.068780e-01 1.755915e-01 1.748512e-01 4.195431e-03
<GCONST> 7.532814e+01
<TRANSP> 5
 0.000000e+00 1.000000e+00 0.000000e+00 0.000000e+00 0.000000e+00
 0.000000e+00 9.027599e-01 9.724011e-02 0.000000e+00 0.000000e+00
 0.000000e+00 0.000000e+00 9.042482e-01 9.575189e-02 0.000000e+00
 0.000000e+00 0.000000e+00 0.000000e+00 8.838473e-01 1.161527e-01
 0.000000e+00 0.000000e+00 0.000000e+00 0.000000e+00 0.000000e+00
<ENDHMM>
~h "seven"
<BEGINHMM>
<NUMSTATES> 5
<STATE> 2
<MEAN> 39
 -8.806772e+00 -4.769340e+00 -7.050142e+00 -8.596667e+00 -2.107479e+00 -3.131370e+00 -1.276508e+00 -8.136163e+00 -2.909432e+00 -5.214530e+00 6.798695e-01 -3.793400e+00 1.484344e+01 4.741837e-02 -4.084422e-02 -4.357256e-02 -3.257105e-01 -2.671337e-01 -1.353496e-01 2.667568e-01 1.513871e-02 1.375852e-01 -7.697052e-04 -2.047753e-01 -6.333633e-02 1.080963e-01 1.304068e-01 9.207703e-03 8.983576e-02 -1.476378e-01 -1.309369e-01 -1.120288e-01 8.733474e-02 -1.238505e-02 2.002126e-02 -2.644147e-02 -8.712133e-02 -9.269889e-02 9.199526e-02
<VARIANCE> 39
 8.339410e+00 1.013032e+01 1.380052e+01 1.310781e+01 1.612576e+01 1.581987e+01 1.759676e+01 1.745251e+01 1.826365e+01 1.723346e+01 1.706731e+01 1.463342e+01 9.047160e-01 7.144073e-01 4.608405e-01 8.613280e-01 9.991058e-01 9.701347e-01 1.283292e+00 9.959704e-01 8.576022e-01 1.029543e+00 1.155908e+00 9.210016e-01 9.517339e-01 1.512408e-01 5.368102e-02 6.783895e-02 9.750121e-02 1.360520e-01 1.662436e-01 1.770651e-01 1.648988e-01 1.457002e-01 1.700115e-01 1.546186e-01 1.450100e-01 1.504829e-01 8.093814e-03
<GCONST> 7.123399e+01
<STATE> 3
<MEAN> 39
 -5.558048e+00 -7.172781e+00 -5.193475e+00 -1.591168e+01 -6.355674e+00 -4.897058e+00 4.772470e+00 -8.474911e+00 -2.770205e+00 -6.761097e+00 -3.975017e+00 -6.626532e+00 1.896181e+01 1.894578e-01 -2.722508e-01 1.233880e-01 3.883532e-02 -6.136831e-02 -1.088106e-01 2.446367e-01 2.681850e-01 -2.807078e-01 -5.543515e-02 -6.963349e-02 -1.107221e-01 1.236320e-01 -4.178146e-02 7.839766e-02 1.111975e-02 2.926426e-01 1.553706e-01 -2.480578e-02 -2.548953e-01 3.867261e-02 -2.090953e-02 1.591942e-02 1.771673e-01 7.159782e-02 -1.270843e-01
<VARIANCE> 39
 9.614623e+00 1.303322e+01 9.436761e+00 1.827791e+01 4.580225e+01 3.937854e+01 3.187659e+01 3.950927e+01 4.652948e+01 5.849188e+01 3.255413e+01 3.130154e+01 1.240822e+00 4.410246e-01 5.954297e-01 4.993360e-01 1.548400e+00 1.671521e+00 1.672653e+00 1.827702e+00 1.089301e+00 1.392697e+00 1.776834e+00 1.809622e+00 1.326401e+00 2.114291e-01 8.204631e-02 9.001155e-02 9.646577e-02 1.114837e-01 2.523404e-01 2.721459e-01 1.781213e-01 1.666813e-01 2.018923e-01 2.407517e-01 2.262366e-01 1.834972e-01 6.062367e-03
<GCONST> 8.474825e+01
<STATE> 4
<MEAN> 39
 -3.244358e+00 -3.881813e+00 -1.891107e+00 -9.521801e+00 -3.365820e+00 -8.015495e+00 -1.089062e+00 -8.732947e+00 -4.324172e+00 -7.119995e+00 -1.906713e+00 -7.105058e+00 1.713238e+01 1.765663e-02 2.205477e-01 1.049474e-01 2.065579e-01 3.193800e-01 1.039728e-01 -2.924993e-01 -2.637195e-01 8.568873e-02 -1.437950e-02 1.277743e-01 4.227522e-02 -1.184178e-01 -5.595790e-02 -7.367554e-02 -7.385181e-02 -8.778638e-02 -2.234108e-02 9.371736e-02 1.107079e-01 -4.590387e-03 1.865732e-02 1.744758e-02 -3.220740e-02 2.023132e-02 1.415787e-02
<VARIANCE> 39
 4.974898e+00 1.019471e+01 9.926265e+00 1.395367e+01 2.822450e+01 3.043297e+01 2.586520e+01 4.089286e+01 3.293303e+01 3.570334e+01 3.328841e+01 2.974838e+01 1.533707e+00 2.534085e-01 5.250522e-01 5.539218e-01 8.538457e-01 1.339950e+00 1.253468e+00 1.628710e+00 1.363173e+00 1.438492e+00 1.411155e+00 1.273538e+00 9.896259e-01 9.358523e-02 3.738606e-02 7.812091e-02 8.698426e-02 1.507710e-01 2.341854e-01 2.027751e-01 2.726130e-01 2.366388e-01 2.360235e-01 2.409572e-01 2.174059e-01 1.500708e-01 1.437037e-02
<GCONST> 7.927988e+01
<TRANSP> 5
 0.000000e+00 1.000000e+00 0.000000e+00 0.000000e+00 0.000000e+00
 0.000000e+00 9.125715e-01 8.742846e-02 0.000000e+00 0.000000e+00
 0.000000e+00 0.000000e+00 9.003673e-01 9.963273e-02 0.000000e+00
 0.000000e+00 0.000000e+00 0.000000e+00 9.365606e-01 6.343937e-02
 0.000000e+00 0.000000e+00 0.000000e+00 0.000000e+00 0.000000e+00
<ENDHMM>
~h "three"
<BEGINHMM>
<NUMSTATES> 5
<STATE> 2
<MEAN> 39
 -7.753192e+00 -6.035340e+00 -4.949172e+00 -1.011984e+01 -8.177727e-01 -4.845885e+00 -5.888758e-01 -8.498251e+00 -2.601958e+00 -5.425533e+00 9.830621e-01 -3.779273e+00 1.488860e+01 1.182055e-01 -8.362579e-02 2.207387e-01 -4.798706e-02 -4.167562e-01 -2.858767e-01 -6.850074e-02 1.493918e-02 7.425126e-02 3.189661e-02 1.359698e-02 4.027446e-04 9.210313e-02 1.742276e-01 2.254872e-02 1.428330e-01 1.961261e-03 -2.577660e-01 -1.755577e-01 -7.574116e-02 -1.877947e-02 1.537518e-02 -9.217652e-03 -3.924592e-02 -7.055333e-02 8.471809e-02
<VARIANCE> 39
 5.400287e+00 6.329448e+00 9.779475e+00 1.060182e+01 1.435539e+01 1.431237e+01 1.606433e+01 1.761137e+01 1.951263e+01 1.776063e+01 1.686077e+01 1.459207e+01 1.170423e+00 7.019891e-01 5.235403e-01 8.963028e-01 7.510034e-01 1.499193e+00 1.312603e+00 9.016268e-01 1.036183e+00 9.999433e-01 9.322866e-01 9.825670e-01 9.152920e-01 1.193016e-01 5.916638e-02 9.076228e-02 9.846860e-02 1.380204e-01 2.011608e-01 1.855380e-01 1.564505e-01 2.030754e-01 1.781598e-01 1.662447e-01 1.641551e-01 1.611100e-01 4.958342e-03
<GCONST> 7.051994e+01
<STATE> 3
<MEAN> 39
 -2.518354e+00 -6.783180e+00 2.449551e+00 -1.140274e+01 -1.369825e+01 -9.362889e+00 -3.153163e+00 -9.428037e+00 -9.363715e-03 -5.130613e+00 1.270759e-01 -5.735073e+00 1.823543e+01 -6.867494e-02 4.228325e-01 6.950682e-01 -1.049867e+00 -3.993889e-01 3.058907e-01 -8.254185e-01 1.097295e-01 3.075093e-01 -2.807482e-02 6.154169e-02 -1.674006e-01 2.367269e-01 -2.156480e-01 2.146297e-01 -2.005434e-01 -1.427418e-01 5.229875e-01 4.706471e-02 -5.934922e-02 1.143149e-01 -1.140858e-01 -2.021380e-02 2.134442e-02 3.955936e-02 -6.774214e-02
<VARIANCE> 39
 6.507649e+00 1.457697e+01 2.008410e+01 4.938340e+01 4.245479e+01 6.100824e+01 3.523283e+01 3.826878e+01 3.064135e+01 2.820684e+01 3.707763e+01 3.334378e+01 1.447059e+00 9.619514e-01 1.476737e+00 9.229962e-01 2.725132e+00 4.895690e+00 3.382525e+00 2.206931e+00 1.969157e+00 1.296741e+00 1.095912e+00 1.152231e+00 1.164551e+00 6.899755e-02 6.798695e-02 1.290721e-01 1.773823e-01 3.908098e-01 3.806280e-01 6.812790e-01 3.773054e-01 2.755187e-01 2.400924e-01 1.746558e-01 1.705902e-01 1.637521e-01 3.908427e-03
<GCONST> 9.265546e+01
<STATE> 4
<MEAN> 39
 -6.589938e+00 3.297667e+00 -7.812586e-01 -1.672778e+01 -2.106404e+00 -1.135606e+01 -6.398267e+00 -7.962955e+00 -3.160042e+00 -5.505696e+00 -3.375029e-01 -6.525940e+00 1.789446e+01 -2.813637e-02 6.303274e-02 -6.389929e-01 7.254329e-01 7.232534e-01 -1.645828e-01 5.494022e-01 -8.275966e-02 -3.562574e-01 1.198461e-02 -7.060102e-02 5.077411e-02 -1.956490e-01 5.810405e-02 -2.880624e-01 2.532800e-03 1.696257e-01 -2.210792e-01 1.820110e-01 1.647171e-01 -6.729249e-02 9.743592e-02 8.228811e-03 2.043466e-02 2.496942e-02 -3.091479e-02
<VARIANCE> 39
 7.581699e+00 1.700822e+01 1.909748e+01 3.484910e+01 2.704189e+01 2.948042e+01 4.822870e+01 4.777990e+01 3.321572e+01 3.976514e+01 4.239766e+01 3.677465e+01 1.620087e+00 3.150941e-01 1.882566e+00 6.701085e-01 1.043482e+00 1.834505e+00 2.559627e+00 1.466936e+00 1.693550e+00 1.384723e+00 1.287838e+00 1.031989e+00 9.705228e-01 3.582520e-02 4.748655e-02 9.099749e-02 9.638643e-02 2.205106e-01 1.815009e-01 2.352133e-01 2.695790e-01 2.497542e-01 1.836995e-01 1.709899e-01 1.443297e-01 1.353191e-01 2.469506e-03
<GCONST> 8.276138e+01
<TRANSP> 5
 0.000000e+00 1.000000e+00 0.000000e+00 0.000000e+00 0.000000e+00
 0.000000e+00 9.016200e-01 9.838007e-02 0.000000e+00 0.000000e+00
 0.000000e+00 0.000000e+00 8.936759e-01 1.063241e-01 0.000000e+00
 0.000000e+00 0.000000e+00 0.000000e+00 9.153472e-01 8.465276e-02
 0.000000e+00 0.000000e+00 0.000000e+00 0.000000e+00 0.000000e+00
<ENDHMM>
~h "one"
<BEGINHMM>
<NUMSTATES> 5
<STATE> 2
<MEAN> 39
 -4.520035e-01 -3.398893e+00 -8.439910e+00 -1.270849e+01 -1.880419e+00 -5.988140e+00 -2.271554e+00 -8.869216e+00 -2.604616e+00 -6.645202e+00 -1.473796e+00 -7.364719e+00 1.769803e+01 2.110095e-01 -3.602279e-01 -7.779468e-01 3.852341e-01 4.277005e-01 9.545361e-02 -2.044869e-01 2.127617e-01 1.820276e-01 -2.413677e-01 -3.086136e-01 -2.091488e-01 1.798539e-01 -1.118935e-01 -1.463204e-01 2.887481e-02 2.157219e-01 1.283086e-02 -9.386182e-02 -3.459593e-03 1.044366e-01 5.473997e-03 -7.579054e-02 2.255320e-03 7.594301e-02 -1.569780e-02
<VARIANCE> 39
 5.495842e+00 8.355503e+00 3.129966e+01 2.273101e+01 2.854219e+01 2.623787e+01 2.258476e+01 2.060312e+01 2.742370e+01 2.315584e+01 3.019143e+01 3.008185e+01 2.037885e+00 4.329250e-01 7.311454e-01 9.482437e-01 2.137519e+00 1.344728e+00 1.364857e+00 1.271865e+00 1.039188e+00 1.139382e+00 9.677338e-01 1.110952e+00 9.683594e-01 5.948540e-02 3.951115e-02 5.496205e-02 1.854604e-01 2.317969e-01 2.496678e-01 2.472000e-01 2.297241e-01 1.750104e-01 1.961895e-01 1.584106e-01 1.853667e-01 1.750424e-01 4.530953e-03
<GCONST> 7.902660e+01
<STATE> 3
<MEAN> 39
 -2.462706e+00 -1.063519e+01 -1.058363e+01 -1.822501e+00 -8.146034e-01 -9.420738e+00 -2.036071e+00 -4.365297e+00 -3.703065e+00 -1.158188e+01 -2.281849e+00 -6.164770e+00 1.852719e+01 -5.923099e-01 -3.139709e-01 1.359455e+00 4.887150e-01 -1.325826e+00 -2.697067e-01 1.137723e+00 -1.551167e-01 -8.898832e-01 -1.596809e-02 5.510821e-01 9.338320e-02 -5.203415e-02 3.139615e-02 3.180704e-01 2.340664e-01 -5.687053e-01 -9.535866e-02 3.608091e-01 5.293200e-02 -4.220362e-01 2.244630e-02 3.590263e-01 2.915941e-02 -1.615124e-01 -2.972050e-02
<VARIANCE> 39
 6.430885e+00 9.771302e+00 1.983500e+01 2.420317e+01 2.888819e+01 1.778540e+01 3.887064e+01 3.255866e+01 4.660258e+01 3.888443e+01 3.430905e+01 3.412090e+01 1.524952e+00 1.632488e-01 5.921043e-01 6.378805e-01 1.983973e+00 7.734870e-01 1.824261e+00 1.057576e+00 2.308892e+00 1.242111e+00 1.946927e+00 1.065757e+00 1.292644e+00 8.988081e-03 2.598752e-02 5.244987e-02 1.079761e-01 1.228516e-01 3.165855e-01 1.594014e-01 4.065557e-01 1.863057e-01 3.427169e-01 2.136636e-01 2.682701e-01 1.722569e-01 8.704581e-04
<GCONST> 7.677117e+01
<STATE> 4
<MEAN> 39
 -3.840353e+00 -4.378534e+00 -1.379947e+00 -8.920557e+00 -3.195367e+00 -6.281970e+00 -2.462789e+00 -1.221120e+01 -5.213347e+00 -8.497133e+00 -2.664603e+00 -8.174208e+00 1.759418e+01 -3.737952e-03 5.637418e-01 2.619302e-01 -4.545036e-01 4.117422e-01 1.696612e-01 -3.734543e-01 -2.329184e-01 1.573327e-01 1.860239e-01 -2.791099e-02 1.650715e-01 -1.759910e-01 -2.112301e-02 -1.171805e-01 -2.144633e-01 1.096257e-01 8.693417e-02 -2.716246e-02 2.057787e-02 1.849235e-01 4.510942e-02 -7.356322e-02 3.752859e-02 8.071470e-02 -1.676855e-02
<VARIANCE> 39
 6.726055e+00 2.076575e+01 9.944430e+00 1.740177e+01 2.093690e+01 4.194763e+01 3.339883e+01 3.282718e+01 4.008078e+01 4.409053e+01 3.259561e+01 3.568097e+01 1.338300e+00 3.442792e-01 1.010746e+00 9.860754e-01 1.216603e+00 8.802805e-01 1.864504e+00 1.353704e+00 1.411287e+00 1.573237e+00 1.478143e+00 1.084895e+00 1.049968e+00 2.735070e-02 5.692990e-02 1.045348e-01 8.381380e-02 1.278453e-01 1.950958e-01 2.806447e-01 2.504280e-01 1.784330e-01 2.217636e-01 2.216467e-01 1.661607e-01 1.590492e-01 2.928703e-03
<GCONST> 7.986687e+01
<TRANSP> 5
 0.000000e+00 1.000000e+00 0.000000e+00 0.000000e+00 0.000000e+00
 0.000000e+00 9.095334e-01 9.046664e-02 0.000000e+00 0.000000e+00
 0.000000e+00 0.000000e+00 8.316592e-01 1.683408e-01 0.000000e+00
 0.000000e+00 0.000000e+00 0.000000e+00 9.087171e-01 9.128289e-02
 0.000000e+00 0.000000e+00 0.000000e+00 0.000000e+00 0.000000e+00
<ENDHMM>
~h "sil"
<BEGINHMM>
<NUMSTATES> 5
<STATE> 2
<MEAN> 39
 -5.630549e+00 -5.382241e+00 -3.959860e+00 -9.043724e+00 -2.188163e-01 -4.181190e+00 -1.407766e-01 -8.546245e+00 -2.497536e+00 -5.830391e+00 5.873544e-01 -4.486918e+00 1.512012e+01 -2.990054e-01 -2.486580e-01 -1.858799e-01 -5.076411e-02 6.935009e-02 1.347653e-01 8.167596e-02 -1.599729e-03 1.415434e-02 1.866784e-02 1.135518e-01 5.826028e-02 -1.518317e-01 2.370417e-02 -7.442865e-03 -3.843310e-02 -6.359435e-02 -7.385813e-02 -6.424356e-02 -4.222644e-02 -1.989263e-03 -3.841975e-03 -6.788509e-03 -1.696205e-02 -5.216773e-03 2.532517e-02
<VARIANCE> 39
 6.970095e+00 8.602815e+00 9.563910e+00 1.168310e+01 1.486761e+01 1.538454e+01 1.765794e+01 1.877086e+01 2.046360e+01 1.954361e+01 1.858077e+01 1.638501e+01 1.209205e+00 1.686597e-01 3.745320e-01 4.430283e-01 5.865594e-01 7.338557e-01 8.284754e-01 8.454657e-01 9.075511e-01 9.108697e-01 8.356435e-01 9.047116e-01 7.998045e-01 2.155136e-02 2.201006e-02 4.568361e-02 6.338149e-02 7.750080e-02 1.032663e-01 1.189154e-01 1.186135e-01 1.276532e-01 1.369495e-01 1.216543e-01 1.281420e-01 1.153779e-01 2.526139e-03
<GCONST> 5.921870e+01
<STATE> 3
<MEAN> 39
 -7.156933e+00 -7.236742e+00 -5.866404e+00 -1.018524e+01 -1.012360e+00 -4.339177e+00 -3.654509e-01 -8.603606e+00 -2.680028e+00 -5.571378e+00 1.005063e+00 -4.037412e+00 1.452098e+01 -3.581451e-03 4.977107e-03 -6.186564e-03 3.806539e-03 1.882892e-03 4.718219e-03 1.256751e-03 -9.878232e-03 -4.555908e-03 1.094727e-02 -2.640423e-04 2.491350e-03 -1.192590e-03 -2.380003e-04 4.886778e-03 2.877044e-03 5.286835e-03 1.317057e-03 2.872102e-03 5.504267e-04 5.854887e-03 2.719370e-03 -8.282752e-04 -4.062731e-03 -3.431235e-03 1.584532e-03
<VARIANCE> 39
 3.027153e+00 3.564768e+00 6.172682e+00 8.254435e+00 1.253750e+01 1.387376e+01 1.474217e+01 1.582844e+01 1.623776e+01 1.398249e+01 1.548322e+01 1.300189e+01 1.028434e+00 5.842822e-02 1.319091e-01 2.563323e-01 3.600281e-01 4.751965e-01 6.449592e-01 6.224115e-01 6.900955e-01 6.643434e-01 5.534183e-01 6.422824e-01 5.676922e-01 2.417384e-03 1.073345e-02 2.426543e-02 4.638862e-02 6.443664e-02 8.854966e-02 1.218527e-01 1.105601e-01 1.289108e-01 1.215515e-01 9.644302e-02 1.150020e-01 1.070995e-01 5.050912e-04
<GCONST> 4.276574e+01
<STATE> 4
<MEAN> 39
 -8.044044e+00 -6.369680e+00 -6.078995e+00 -1.016921e+01 -1.188471e+00 -4.700708e+00 -5.107409e-01 -8.720668e+00 -2.519544e+00 -5.941683e+00 9.985536e-01 -4.417009e+00 1.453680e+01 3.407307e-03 1.545883e-01 2.793018e-02 1.228193e-02 -7.638281e-02 -6.393717e-02 -6.565718e-02 4.921936e-02 -5.530590e-02 -8.983075e-02 -1.026925e-01 -6.831631e-02 4.891928e-02 4.560937e-02 5.645749e-02 2.690176e-02 -6.767123e-03 -2.045282e-03 -2.717667e-02 -1.659143e-02 -1.573557e-02 -1.399107e-02 -1.820821e-02 -3.889856e-02 -1.456825e-02 3.347856e-02
<VARIANCE> 39
 5.361486e+00 5.850991e+00 7.452367e+00 1.031461e+01 1.202339e+01 1.461844e+01 1.655227e+01 1.791385e+01 1.851077e+01 1.737192e+01 1.645256e+01 1.416305e+01 1.276537e+00 2.534417e-01 3.365465e-01 3.772711e-01 5.664195e-01 6.053177e-01 7.375389e-01 7.088159e-01 9.202608e-01 8.939147e-01 7.990714e-01 7.762567e-01 6.718806e-01 2.073128e-02 3.954420e-02 5.724654e-02 6.069189e-02 9.818768e-02 9.287702e-02 1.226506e-01 1.060928e-01 1.502713e-01 1.416601e-01 1.225180e-01 1.118095e-01 9.929709e-02 4.413133e-03
<GCONST> 5.788803e+01
<TRANSP> 5
 0.000000e+00 1.000000e+00 0.000000e+00 0.000000e+00 0.000000e+00
 0.000000e+00 7.691940e-01 2.308060e-01 0.000000e+00 0.000000e+00
 0.000000e+00 0.000000e+00 9.590830e-01 4.091707e-02 0.000000e+00
 0.000000e+00 0.000000e+00 0.000000e+00 7.109417e-01 2.890583e-01
 0.000000e+00 0.000000e+00 0.000000e+00 0.000000e+00 0.000000e+00
<ENDHMM>
~h "six"
<BEGINHMM>
<NUMSTATES> 5
<STATE> 2
<MEAN> 39
 -9.124315e+00 -4.836959e+00 -7.749978e+00 -8.266648e+00 -2.438891e+00 -2.834799e+00 -1.487295e+00 -7.798896e+00 -3.116483e+00 -4.969271e+00 3.618949e-01 -3.493881e+00 1.461232e+01 2.727139e-02 1.591711e-01 1.186067e-01 -3.531357e-01 -3.868295e-01 -2.528132e-01 -1.307181e-02 8.918653e-03 1.418968e-01 1.896536e-01 -1.204955e-01 9.499677e-03 1.277556e-01 1.224195e-01 8.574554e-02 1.920713e-01 -2.156906e-01 -1.443488e-01 -1.911071e-01 -1.348287e-02 -1.142746e-02 4.335846e-02 1.787898e-02 -7.846277e-02 -1.185677e-01 9.579318e-02
<VARIANCE> 39
 5.881806e+00 7.824499e+00 1.145766e+01 1.170153e+01 1.691551e+01 1.670081e+01 1.585936e+01 1.681427e+01 1.957138e+01 2.023753e+01 1.844878e+01 1.536621e+01 1.012897e+00 5.537712e-01 4.715818e-01 1.205763e+00 1.010522e+00 1.007764e+00 1.470780e+00 8.038409e-01 8.137740e-01 1.030872e+00 1.294173e+00 9.459692e-01 9.358386e-01 1.411678e-01 4.636056e-02 5.967518e-02 9.845454e-02 1.366906e-01 1.730453e-01 1.833205e-01 1.418894e-01 1.549592e-01 1.804590e-01 1.774095e-01 1.522817e-01 1.540175e-01 7.503501e-03
<GCONST> 7.075561e+01
<STATE> 3
<MEAN> 39
 -6.389792e+00 -1.255076e+00 -8.810636e-01 -1.937229e+01 -7.577197e+00 -8.493307e+00 -2.595068e+00 -6.569141e+00 3.325124e-02 -3.820264e+00 -2.226177e+00 -7.108533e+00 1.817332e+01 6.033831e-02 -1.004566e-01 1.973115e-01 -2.318190e-01 3.399051e-01 1.645808e-01 -1.732648e-01 1.224713e-01 4.917511e-02 -1.716374e-01 1.772019e-01 -6.580473e-03 -4.431695e-02 -7.081253e-02 -1.914884e-01 -2.624977e-01 4.212640e-01 2.477785e-01 2.067550e-01 8.841379e-02 -7.030388e-02 -1.214315e-01 -5.252343e-02 1.186427e-01 1.339911e-01 -1.487447e-01
<VARIANCE> 39
 7.367376e+00 9.635606e+00 1.569744e+01 2.776341e+01 5.692443e+01 3.167278e+01 3.629295e+01 2.495921e+01 3.438405e+01 5.661707e+01 3.469411e+01 3.674877e+01 1.645038e+00 3.757043e-01 7.674592e-01 1.271297e+00 3.640169e+00 2.695805e+00 1.950652e+00 1.896173e+00 1.366035e+00 1.928482e+00 2.033424e+00 1.879828e+00 2.011312e+00 3.396139e-01 6.646574e-02 6.525153e-02 1.520790e-01 2.585384e-01 3.130453e-01 3.120058e-01 3.695940e-01 2.303204e-01 2.922211e-01 3.375135e-01 2.687098e-01 2.614649e-01 1.433627e-02
<GCONST> 9.337850e+01
<STATE> 4
<MEAN> 39
 -8.222584e+00 -6.451446e+00 -6.277404e+00 -9.275600e+00 -2.415922e+00 -3.256263e+00 -9.182462e-01 -8.615608e+00 -2.795306e+00 -5.153830e+00 7.408784e-01 -4.248661e+00 1.464350e+01 -7.442270e-02 -1.118026e-01 -2.389871e-01 2.870704e-01 3.501006e-02 6.666923e-02 1.390739e-01 -4.188149e-02 -8.120938e-02 -2.479494e-03 7.370079e-03 3.130655e-02 -6.889518e-02 2.173770e-02 7.154511e-02 7.432801e-02 -1.248979e-01 -5.118893e-02 -6.604084e-02 -5.131299e-02 3.815485e-02 2.469857e-02 6.733999e-03 -2.995573e-02 -2.922494e-02 4.497693e-02
<VARIANCE> 39
 7.836440e+00 8.036962e+00 1.201995e+01 1.253903e+01 1.775481e+01 1.684585e+01 1.688500e+01 1.718210e+01 1.742164e+01 1.762553e+01 1.547859e+01 1.427369e+01 1.310075e+00 3.471850e-01 5.519019e-01 7.463563e-01 9.088150e-01 9.875149e-01 1.059270e+00 1.026788e+00 9.108831e-01 8.760927e-01 8.051574e-01 7.558429e-01 6.350811e-01 5.457126e-02 4.509200e-02 7.355113e-02 1.100386e-01 1.327727e-01 1.825934e-01 1.706952e-01 1.655964e-01 1.667238e-01 1.581879e-01 1.441436e-01 1.370197e-01 1.246733e-01 7.388175e-03
<GCONST> 6.779667e+01
<TRANSP> 5
 0.000000e+00 1.000000e+00 0.000000e+00 0.000000e+00 0.000000e+00
 0.000000e+00 9.049464e-01 9.505358e-02 0.000000e+00 0.000000e+00
 0.000000e+00 0.000000e+00 8.983328e-01 1.016672e-01 0.000000e+00
 0.000000e+00 0.000000e+00 0.000000e+00 9.437304e-01 5.626968e-02
 0.000000e+00 0.000000e+00 0.000000e+00 0.000000e+00 0.000000e+00
<ENDHMM>
~h "two"
<BEGINHMM>
<NUMSTATES> 5
<STATE> 2
<MEAN> 39
 -9.639618e+00 -4.513521e+00 -6.580958e+00 -9.863639e+00 -9.719487e-01 -4.070525e+00 -1.373300e+00 -8.179370e+00 -2.537210e+00 -5.722503e+00 1.014307e+00 -3.721681e+00 1.495424e+01 -3.754679e-02 2.631480e-01 2.263604e-01 -3.008597e-01 -8.032231e-02 -1.064173e-02 -1.952208e-01 2.047395e-02 1.192904e-01 3.788221e-02 -4.412668e-03 -2.841253e-02 9.350054e-02 1.950466e-01 9.728187e-02 2.115499e-01 -1.064820e-01 -1.587346e-01 -1.867115e-01 -1.174503e-01 -6.691874e-02 -2.516259e-02 -1.347898e-03 -7.481638e-02 -1.170523e-01 8.904404e-02
<VARIANCE> 39
 9.730996e+00 8.411669e+00 1.057001e+01 1.130263e+01 1.669752e+01 1.858873e+01 1.761624e+01 1.993472e+01 2.014953e+01 2.109548e+01 2.062966e+01 1.756318e+01 9.682820e-01 1.154720e+00 7.385386e-01 1.484549e+00 7.320563e-01 1.243841e+00 1.212075e+00 9.533357e-01 1.050652e+00 1.054644e+00 1.129683e+00 1.398248e+00 9.928992e-01 1.174318e-01 1.107596e-01 1.110777e-01 1.232372e-01 1.199822e-01 2.136448e-01 1.859783e-01 1.655679e-01 1.895574e-01 1.983962e-01 1.764072e-01 2.621600e-01 1.380737e-01 7.422597e-03
<GCONST> 7.620089e+01
<STATE> 3
<MEAN> 39
 -4.756948e+00 1.149302e+00 1.778238e+00 -1.527069e+01 -6.598866e+00 -9.672943e+00 -6.598328e+00 -1.044181e+01 -2.516035e+00 -5.320366e+00 -1.030044e+00 -7.239773e+00 1.830120e+01 7.193212e-01 5.999475e-01 8.360151e-01 -6.091473e-01 -1.201062e+00 -1.149978e+00 -6.212328e-01 -3.240928e-01 -7.639110e-02 1.074608e-01 -2.783158e-01 -6.924652e-01 4.804285e-01 -2.461583e-01 -2.219656e-01 -4.234491e-01 2.838067e-01 2.397725e-01 2.108250e-01 2.293645e-01 1.474353e-01 -1.436537e-02 5.920317e-03 1.442234e-01 1.761995e-01 -1.356775e-01
<VARIANCE> 39
 7.637094e+00 8.201251e+00 1.359604e+01 2.286921e+01 4.094201e+01 2.664870e+01 2.843015e+01 2.392884e+01 3.044554e+01 5.369551e+01 4.334072e+01 4.700738e+01 1.220938e+00 6.002294e-01 6.134316e-01 9.871479e-01 1.414015e+00 1.245560e+00 1.154171e+00 1.637014e+00 1.535876e+00 1.877846e+00 2.038603e+00 2.554832e+00 1.859341e+00 8.417183e-02 6.196294e-02 5.703215e-02 8.188500e-02 1.318223e-01 2.159625e-01 1.828553e-01 2.050744e-01 1.926453e-01 2.096144e-01 2.724445e-01 2.909139e-01 2.224134e-01 8.053117e-03
<GCONST> 8.427528e+01
<STATE> 4
<MEAN> 39
 -3.074183e+00 -2.499969e-01 -1.583131e-01 -1.281002e+01 -6.631752e+00 -1.135575e+01 -5.742079e+00 -1.003087e+01 -3.079236e+00 -5.508225e+00 -1.508593e-01 -7.402817e+00 1.806429e+01 2.852338e-02 -3.109031e-01 -3.225629e-01 4.777289e-01 4.160719e-01 2.897624e-01 2.823550e-01 6.165076e-02 -7.978311e-02 -2.575297e-03 1.468209e-01 2.523747e-01 -1.813581e-01 -7.879453e-02 -6.534711e-02 -4.714496e-02 -2.761297e-03 8.372854e-02 1.333931e-01 8.168530e-02 3.502193e-02 2.799542e-02 -2.891536e-03 -1.432689e-02 4.588779e-02 -4.147181e-02
<VARIANCE> 39
 6.126545e+00 7.980963e+00 1.202297e+01 3.019323e+01 3.252032e+01 2.281938e+01 3.197481e+01 3.246489e+01 4.006882e+01 4.282138e+01 5.142971e+01 4.044996e+01 1.492986e+00 2.866839e-01 2.399594e-01 4.425755e-01 6.654963e-01 9.312073e-01 1.150746e+00 1.105543e+00 1.194724e+00 1.057029e+00 1.124082e+00 1.145979e+00 1.082552e+00 3.967727e-02 3.091878e-02 3.306088e-02 5.466358e-02 9.506496e-02 1.114157e-01 1.450098e-01 1.389034e-01 1.748986e-01 1.699696e-01 1.672928e-01 1.672970e-01 1.557782e-01 3.008824e-03
<GCONST> 7.111184e+01
<TRANSP> 5
 0.000000e+00 1.000000e+00 0.000000e+00 0.000000e+00 0.000000e+00
 0.000000e+00 9.084709e-01 9.152909e-02 0.000000e+00 0.000000e+00
 0.000000e+00 0.000000e+00 7.698688e-01 2.301312e-01 0.000000e+00
 0.000000e+00 0.000000e+00 0.000000e+00 9.201596e-01 7.984046e-02
 0.000000e+00 0.000000e+00 0.000000e+00 0.000000e+00 0.000000e+00
<ENDHMM>
~h "nine"
<BEGINHMM>
<NUMSTATES> 5
<STATE> 2
<MEAN> 39
 -4.077599e+00 -3.898321e+00 -1.677423e+00 -8.970929e+00 -2.804823e+00 -6.377776e+00 -1.642527e+00 -1.116163e+01 -5.117459e+00 -8.042314e+00 -2.887658e+00 -7.735007e+00 1.762900e+01 -1.811575e-01 -6.858711e-01 -2.834951e-01 4.408395e-01 -4.285975e-01 2.355970e-01 4.030348e-01 -1.731216e-01 -1.879742e-02 -1.236714e-01 -8.595563e-02 -8.370811e-02 2.069668e-01 -5.922021e-02 -1.590486e-01 -1.030452e-01 1.132408e-01 -5.432173e-03 -1.182935e-03 5.205440e-02 4.894692e-02 3.952372e-02 9.374781e-03 7.326283e-02 3.878476e-02 -9.218094e-03
<VARIANCE> 39
 8.091030e+00 1.916356e+01 1.444458e+01 1.669330e+01 2.834826e+01 2.875789e+01 3.145782e+01 2.650749e+01 4.734483e+01 3.538760e+01 3.033002e+01 3.281459e+01 1.829911e+00 4.871884e-01 1.494177e+00 1.080593e+00 1.097255e+00 1.264170e+00 1.393963e+00 1.627497e+00 1.205197e+00 1.553665e+00 1.157422e+00 1.183418e+00 1.006678e+00 4.894691e-02 6.266142e-02 1.682138e-01 1.288585e-01 1.425455e-01 2.181753e-01 2.178841e-01 2.447419e-01 1.814227e-01 2.033089e-01 1.691401e-01 1.711370e-01 1.443676e-01 4.463423e-03
<GCONST> 8.221189e+01
<STATE> 3
<MEAN> 39
 -6.347572e+00 -1.160435e+01 -4.860386e+00 -2.734916e+00 -5.693785e+00 -5.249898e+00 1.736013e+00 -1.135931e+01 -5.539556e+00 -9.015256e+00 -1.699864e+00 -7.646706e+00 1.861514e+01 -1.102233e-01 9.688576e-02 2.307474e-01 -2.420797e-01 -2.303156e-02 2.140867e-01 -1.050967e-01 -8.694621e-02 1.959168e-01 5.473027e-02 -5.528016e-02 4.597996e-02 -2.113830e-02 2.521812e-03 1.935531e-01 6.928708e-02 -2.402499e-01 4.427328e-02 6.238524e-02 -1.061023e-01 1.122436e-02 7.536861e-02 -1.085350e-02 -6.776999e-02 2.441864e-02 -1.480064e-02
<VARIANCE> 39
 7.253354e+00 8.472386e+00 2.450022e+01 3.237008e+01 1.900663e+01 3.083624e+01 3.095165e+01 3.397343e+01 4.391774e+01 4.150172e+01 2.842952e+01 3.075492e+01 1.006115e+00 8.384893e-02 3.840924e-01 4.111363e-01 1.132810e+00 5.000769e-01 6.241895e-01 5.588160e-01 5.153832e-01 6.511379e-01 6.707333e-01 6.806884e-01 5.420631e-01 4.827506e-03 1.133418e-02 3.005451e-02 4.127775e-02 5.548225e-02 7.265337e-02 7.247715e-02 7.391230e-02 8.095503e-02 8.281492e-02 8.716678e-02 7.873649e-02 7.923086e-02 3.983528e-04
<GCONST> 5.405747e+01
<STATE> 4
<MEAN> 39
 -5.408513e+00 -2.488548e+00 -1.320147e+00 -1.140967e+01 -1.442586e+00 -5.341949e+00 -3.676785e+00 -1.048090e+01 -3.509176e+00 -8.116760e+00 -2.930575e+00 -6.527572e+00 1.769423e+01 2.317071e-01 5.104632e-01 -3.157453e-03 -1.015530e-01 4.411064e-01 -2.478889e-01 -2.011152e-01 2.755563e-01 -1.277933e-01 8.105906e-02 2.108411e-01 1.169595e-01 -1.723608e-01 -2.717282e-02 -1.583074e-01 -8.625716e-02 1.474210e-01 -3.842384e-02 -6.054158e-03 1.204343e-01 1.983903e-02 -5.446162e-02 4.231712e-02 7.830746e-02 -9.562448e-03 -2.022704e-02
<VARIANCE> 39
 1.166818e+01 1.632291e+01 1.132136e+01 2.321497e+01 3.171517e+01 3.320042e+01 3.064577e+01 2.993222e+01 4.733232e+01 3.817698e+01 3.626895e+01 3.985163e+01 1.211908e+00 5.065054e-01 1.171864e+00 6.360138e-01 1.642899e+00 1.303665e+00 1.550536e+00 1.528385e+00 1.269695e+00 1.658756e+00 1.184119e+00 1.105829e+00 1.068972e+00 2.538290e-02 7.071196e-02 8.681178e-02 9.031579e-02 1.779870e-01 1.818964e-01 2.449308e-01 1.820540e-01 2.039736e-01 2.436457e-01 1.943257e-01 1.735402e-01 1.451973e-01 2.221833e-03
<GCONST> 8.083576e+01
<TRANSP> 5
 0.000000e+00 1.000000e+00 0.000000e+00 0.000000e+00 0.000000e+00
 0.000000e+00 9.012372e-01 9.876281e-02 0.000000e+00 0.000000e+00
 0.000000e+00 0.000000e+00 9.153543e-01 8.464576e-02 0.000000e+00
 0.000000e+00 0.000000e+00 0.000000e+00 9.176102e-01 8.238983e-02
 0.000000e+00 0.000000e+00 0.000000e+00 0.000000e+00 0.000000e+00
<ENDHMM>
~h "five"
<BEGINHMM>
<NUMSTATES> 5
<STATE> 2
<MEAN> 39
 -6.145871e+00 -8.579156e+00 -7.592526e+00 -9.225179e+00 -4.231548e-01 -6.121195e+00 7.052853e-03 -6.825911e+00 -3.778589e+00 -6.490840e+00 -3.215953e-01 -4.546293e+00 1.643801e+01 1.118815e-01 -6.873536e-01 -4.786669e-01 3.255028e-01 2.195698e-01 -2.713297e-01 2.421021e-01 2.804518e-01 -3.436050e-01 -1.303076e-01 -1.266388e-01 1.660548e-02 2.473567e-01 -1.656456e-03 -5.651293e-03 5.736234e-02 4.689880e-02 -1.722441e-02 -3.238783e-02 -1.990330e-02 -4.939391e-02 -1.731725e-02 2.414430e-02 1.542443e-02 -1.459698e-02 2.062952e-02
<VARIANCE> 39
 1.124973e+01 1.815420e+01 1.972075e+01 1.332487e+01 1.797090e+01 2.025489e+01 1.944308e+01 3.696966e+01 2.612076e+01 2.326869e+01 2.203102e+01 1.616216e+01 4.948413e+00 7.422944e-01 6.841835e-01 8.867944e-01 8.866475e-01 8.227209e-01 1.096018e+00 9.428655e-01 1.700842e+00 1.496781e+00 1.271798e+00 1.231847e+00 8.357183e-01 2.128745e-01 1.004200e-01 1.065297e-01 1.570949e-01 1.148738e-01 1.338421e-01 1.695227e-01 1.473377e-01 2.760167e-01 2.348404e-01 1.802694e-01 1.905885e-01 1.286251e-01 2.516706e-02
<GCONST> 8.140953e+01
<STATE> 3
<MEAN> 39
 -5.829903e+00 -1.543207e+01 -8.489603e+00 -3.791532e+00 1.364185e+00 -9.061773e+00 2.480582e+00 -7.543448e+00 -7.266463e+00 -5.482942e+00 -5.596595e-01 -4.576604e+00 1.903887e+01 -1.610340e-01 9.881481e-02 4.891227e-01 -2.808330e-01 -2.718528e-01 4.465804e-01 6.804866e-02 -3.852465e-01 3.469799e-02 2.820536e-01 5.019297e-02 -7.338829e-02 -4.962948e-02 4.119477e-02 1.199002e-01 1.074349e-02 -1.944119e-01 -5.746798e-02 8.541011e-02 -2.819564e-02 2.903884e-02 6.260934e-02 -5.057310e-02 -7.345562e-02 -1.855433e-02 -1.597207e-02
<VARIANCE> 39
 9.235529e+00 9.516556e+00 2.487404e+01 2.134841e+01 1.890441e+01 2.361060e+01 1.802791e+01 4.020400e+01 4.783442e+01 4.513331e+01 2.691065e+01 2.542691e+01 1.368738e+00 9.077885e-02 1.726055e-01 2.727442e-01 6.954223e-01 5.202887e-01 5.777736e-01 5.082278e-01 5.121734e-01 6.401189e-01 6.122597e-01 5.999694e-01 4.835894e-01 5.997681e-03 1.192121e-02 2.521055e-02 3.123428e-02 4.833057e-02 5.224725e-02 5.349439e-02 5.805018e-02 6.689409e-02 9.045469e-02 8.805507e-02 6.807373e-02 7.103840e-02 9.688609e-04
<GCONST> 5.083710e+01
<STATE> 4
<MEAN> 39
 -5.452359e+00 -7.797984e+00 -3.664606e+00 -1.292911e+01 -3.057777e+00 -3.760918e+00 1.120366e+00 -8.346161e+00 -3.887987e+00 -5.631054e+00 -1.733978e+00 -5.652927e+00 1.761927e+01 6.889224e-02 9.293057e-01 2.307674e-01 -1.987437e-01 -1.315138e-01 -8.907513e-02 -2.932213e-01 7.892434e-02 3.928597e-01 -1.370693e-01 7.676458e-02 1.237425e-02 -2.762345e-01 -4.004112e-02 -7.254512e-02 -8.900575e-02 1.945407e-01 1.092570e-01 -8.828820e-02 -1.663064e-02 -4.503624e-03 -4.075083e-02 1.308662e-02 7.343887e-02 3.239929e-02 -1.781979e-02
<VARIANCE> 39
 7.532956e+00 2.308230e+01 1.185590e+01 2.986143e+01 3.748557e+01 2.150787e+01 2.415393e+01 3.057028e+01 4.223481e+01 2.629436e+01 2.688202e+01 2.787921e+01 2.629620e+00 3.400259e-01 7.374698e-01 6.409185e-01 2.733202e+00 1.682145e+00 1.393091e+00 9.393040e-01 1.417217e+00 1.594546e+00 1.266521e+00 1.316812e+00 1.013074e+00 6.818262e-02 5.715412e-02 1.022104e-01 9.524579e-02 3.009888e-01 2.342649e-01 2.509255e-01 1.675245e-01 2.084455e-01 2.011744e-01 1.717480e-01 2.163418e-01 1.726139e-01 9.082820e-03
<GCONST> 8.298354e+01
<TRANSP> 5
 0.000000e+00 1.000000e+00 0.000000e+00 0.000000e+00 0.000000e+00
 0.000000e+00 9.300318e-01 6.996816e-02 0.000000e+00 0.000000e+00
 0.000000e+00 0.000000e+00 9.152325e-01 8.476745e-02 0.000000e+00
 0.000000e+00 0.000000e+00 0.000000e+00 8.980107e-01 1.019893e-01
 0.000000e+00 0.000000e+00 0.000000e+00 0.000000e+00 0.000000e+00
<ENDHMM>
~h "four"
<BEGINHMM>
<NUMSTATES> 5
<STATE> 2
<MEAN> 39
 -7.667805e+00 -6.677886e+00 -5.470777e+00 -9.688733e+00 -1.112613e+00 -4.543425e+00 -5.189344e-01 -8.559991e+00 -2.271093e+00 -5.732481e+00 1.121490e+00 -4.080824e+00 1.494335e+01 3.137853e-01 1.469648e-02 -3.778335e-01 -2.939665e-01 -1.125248e-01 -9.208278e-02 -1.320399e-01 -8.601713e-03 1.231763e-01 1.054693e-01 -1.627632e-02 -4.076272e-02 1.258221e-01 2.438211e-01 9.814400e-02 -1.170227e-01 -1.288191e-01 -5.304297e-02 -1.112697e-01 -1.098117e-01 -1.808914e-02 -8.180141e-03 7.014581e-03 -7.391095e-02 -1.029525e-01 1.065367e-01
<VARIANCE> 39
 4.656718e+00 4.193410e+00 6.876311e+00 8.703889e+00 1.156794e+01 1.419016e+01 1.488102e+01 1.611071e+01 1.490034e+01 1.410076e+01 1.539697e+01 1.167663e+01 9.116586e-01 1.047033e+00 4.638194e-01 5.766445e-01 6.437370e-01 6.049671e-01 9.842488e-01 9.577690e-01 8.519684e-01 8.544632e-01 7.821396e-01 1.037518e+00 8.674182e-01 1.654486e-01 5.929592e-02 5.711726e-02 1.015151e-01 1.069124e-01 1.041850e-01 1.638972e-01 1.311692e-01 1.613808e-01 1.551096e-01 1.347690e-01 1.544542e-01 1.329670e-01 6.555502e-03
<GCONST> 6.410823e+01
<STATE> 3
<MEAN> 39
 1.545484e+00 -3.506236e+00 -1.204603e+01 -1.693918e+01 -4.004638e+00 -6.246419e+00 -3.255037e+00 -8.958954e+00 -1.451367e+00 -3.992051e+00 3.067324e-01 -6.856416e+00 1.889496e+01 3.433179e-01 -1.623249e-01 -3.558448e-01 -7.215571e-02 6.820653e-02 -2.290607e-02 -2.270805e-01 1.736884e-01 3.472312e-01 1.048070e-01 -2.364420e-01 -2.329558e-01 1.594994e-01 -1.727988e-01 -1.511238e-01 1.446081e-01 2.267902e-01 4.011596e-02 -2.949523e-02 4.305691e-02 1.087283e-01 4.690032e-02 -7.877479e-02 -5.253143e-02 5.703386e-02 -6.697828e-02
<VARIANCE> 39
 4.228164e+00 1.022194e+01 1.029128e+01 1.432954e+01 2.460269e+01 1.721138e+01 1.818644e+01 1.709360e+01 2.334636e+01 2.481172e+01 3.750462e+01 3.594311e+01 1.115932e+00 5.912236e-01 7.439235e-01 7.231955e-01 1.240842e+00 9.895822e-01 7.948738e-01 9.115148e-01 9.643260e-01 1.307607e+00 1.180669e+00 1.372159e+00 1.243444e+00 1.038354e-01 4.871810e-02 4.641961e-02 9.628174e-02 8.305331e-02 1.340560e-01 1.435008e-01 1.544325e-01 1.396354e-01 1.799965e-01 1.932653e-01 2.021900e-01 1.820086e-01 7.090778e-03
<GCONST> 7.298990e+01
<STATE> 4
<MEAN> 39
 -5.432224e-01 -1.072204e+01 -7.322634e+00 -8.565650e+00 -5.391615e+00 -8.704530e+00 -2.323979e+00 -4.896070e+00 1.827310e-01 -7.540233e+00 -3.910630e+00 -7.426168e+00 1.840875e+01 -6.129224e-01 7.473083e-02 1.055925e+00 4.895783e-01 -3.433163e-01 7.619367e-02 5.981238e-01 -1.811718e-01 -6.239657e-01 -3.440344e-01 1.658425e-01 3.014480e-01 -2.432847e-01 -9.000414e-02 2.380653e-01 -4.456272e-02 -1.996102e-01 1.165178e-01 1.960415e-01 3.100433e-02 -1.858590e-01 -1.287634e-01 1.032571e-01 1.745542e-01 4.438341e-02 -4.962215e-02
<VARIANCE> 39
 7.333540e+00 1.779938e+01 3.181597e+01 1.828264e+01 4.522068e+01 3.700858e+01 3.509602e+01 4.319768e+01 4.621355e+01 3.482825e+01 3.460070e+01 3.076855e+01 1.741780e+00 2.972094e-01 1.587477e+00 9.179081e-01 1.626303e+00 2.564542e+00 2.221691e+00 1.718472e+00 2.564700e+00 1.885316e+00 1.705923e+00 1.828994e+00 1.123815e+00 5.833573e-02 2.926555e-02 1.346284e-01 2.064874e-01 1.690453e-01 4.288068e-01 2.940535e-01 3.516424e-01 3.668583e-01 3.851922e-01 2.816602e-01 3.092428e-01 2.124548e-01 3.411685e-03
<GCONST> 9.085568e+01
<TRANSP> 5
 0.000000e+00 1.000000e+00 0.000000e+00 0.000000e+00 0.000000e+00
 0.000000e+00 9.011142e-01 9.888580e-02 0.000000e+00 0.000000e+00
 0.000000e+00 0.000000e+00 9.186863e-01 8.131373e-02 0.000000e+00
 0.000000e+00 0.000000e+00 0.000000e+00 8.810185e-01 1.189815e-01
 0.000000e+00 0.000000e+00 0.000000e+00 0.000000e+00 0.000000e+00
<ENDHMM>
~h "zero"
<BEGINHMM>
<NUMSTATES> 5
<STATE> 2
<MEAN> 39
 -6.759758e+00 -3.060065e+00 -4.887239e+00 -7.467495e+00 -1.266512e+00 -3.807238e+00 -1.415071e+00 -8.520693e+00 -3.458304e+00 -5.106595e+00 5.890161e-01 -4.555941e+00 1.523178e+01 -8.146501e-02 3.321011e-01 1.417931e-01 -3.049139e-01 -2.139414e-01 -2.744432e-01 -1.778352e-01 -1.207438e-01 1.236112e-01 2.200134e-01 -1.242904e-02 -3.321551e-04 1.063145e-01 6.813847e-02 1.069361e-01 1.513370e-01 -2.257566e-01 -1.459913e-01 -2.463351e-01 -6.501159e-02 -7.539255e-02 6.212969e-02 1.081077e-02 -2.255584e-02 -5.412126e-02 8.254799e-02
<VARIANCE> 39
 7.740659e+00 1.029429e+01 1.429307e+01 1.361641e+01 1.784096e+01 1.929911e+01 1.878527e+01 1.950078e+01 2.377702e+01 2.086011e+01 1.977840e+01 1.678528e+01 1.208924e+00 4.213370e-01 7.292356e-01 1.004440e+00 9.503595e-01 8.894202e-01 1.751245e+00 9.592882e-01 1.102751e+00 1.068081e+00 8.962497e-01 1.006222e+00 1.002105e+00 1.193056e-01 5.257701e-02 9.180412e-02 1.144274e-01 1.198163e-01 1.238033e-01 1.945938e-01 1.597944e-01 1.730912e-01 1.607425e-01 1.399910e-01 1.706765e-01 1.584765e-01 7.957517e-03
<GCONST> 7.320940e+01
<STATE> 3
<MEAN> 39
 -5.578966e+00 3.507354e-01 8.180047e-01 -1.661605e+01 -7.749188e+00 -9.196729e+00 -4.642580e+00 -8.628723e+00 -4.169628e-02 -3.798122e+00 1.239283e-01 -6.762341e+00 1.834606e+01 3.392771e-01 -6.299385e-01 4.826077e-01 -2.555043e-01 -1.101116e+00 1.285849e-01 1.624395e-01 1.525480e-01 3.318329e-01 -5.454121e-02 2.522981e-02 -1.530365e-01 1.938658e-01 4.428496e-02 -2.634174e-01 -1.700425e-01 3.413271e-01 1.272820e-02 1.372652e-01 1.899613e-01 7.302173e-02 -7.216527e-02 -4.766442e-02 -7.564579e-03 6.331720e-02 -6.135356e-02
<VARIANCE> 39
 7.296540e+00 1.949028e+01 1.716285e+01 2.749000e+01 5.875290e+01 3.963870e+01 3.187463e+01 4.331348e+01 3.240627e+01 2.999778e+01 3.376067e+01 4.986621e+01 1.154834e+00 4.301813e-01 1.771912e+00 8.592152e-01 2.678858e+00 1.663843e+00 2.653940e+00 1.734877e+00 1.477483e+00 1.339189e+00 1.173758e+00 1.139360e+00 1.378554e+00 7.296460e-02 5.108249e-02 1.116312e-01 1.220526e-01 1.862518e-01 2.392047e-01 3.928964e-01 2.239779e-01 2.431474e-01 2.195268e-01 1.773804e-01 1.720500e-01 2.127429e-01 4.550812e-03
<GCONST> 8.732961e+01
<STATE> 4
<MEAN> 39
 -1.645738e+00 -9.934515e+00 -4.571642e+00 -9.822592e+00 -9.181310e+00 -8.385879e+00 4.771150e-02 -4.362315e+00 -3.121758e-01 -6.673851e+00 -1.069444e+00 -5.910323e+00 1.846180e+01 -3.586900e-03 4.579871e-02 -4.241428e-01 2.081563e-01 6.950180e-01 -3.644376e-02 8.546072e-03 7.694075e-02 -1.450985e-01 -9.933849e-02 -4.195531e-02 5.498971e-02 -1.002028e-01 -8.133800e-02 1.022549e-01 5.262097e-02 -8.314466e-02 8.834982e-02 7.308598e-02 -5.917040e-02 -6.292932e-02 -2.314102e-02 2.539246e-02 2.566209e-02 8.375743e-03 -2.416348e-02
<VARIANCE> 39
 6.048636e+00 2.024755e+01 2.581112e+01 2.565900e+01 6.109900e+01 5.170676e+01 3.780830e+01 3.633253e+01 4.397046e+01 3.592557e+01 2.597597e+01 3.310854e+01 1.512154e+00 2.996204e-01 8.220361e-01 7.844680e-01 1.005459e+00 1.228268e+00 1.838525e+00 1.584042e+00 1.897658e+00 1.649657e+00 1.478119e+00 1.054318e+00 9.578894e-01 3.802165e-02 2.899896e-02 5.187144e-02 8.333047e-02 1.130485e-01 1.897805e-01 2.362951e-01 2.063222e-01 2.033777e-01 2.221629e-01 2.011863e-01 1.523832e-01 1.418524e-01 2.418333e-03
<GCONST> 8.030105e+01
<TRANSP> 5
 0.000000e+00 1.000000e+00 0.000000e+00 0.000000e+00 0.000000e+00
 0.000000e+00 8.903008e-01 1.096992e-01 0.000000e+00 0.000000e+00
 0.000000e+00 0.000000e+00 8.977938e-01 1.022062e-01 0.000000e+00
 0.000000e+00 0.000000e+00 0.000000e+00 9.446254e-01 5.537457e-02
 0.000000e+00 0.000000e+00 0.000000e+00 0.000000e+00 0.000000e+00
<ENDHMM>
