~o
<STREAMINFO> 1 39
<VECSIZE> 39<NULLD><MFCC_E_D_A><DIAGC>
~s "silst"
<MEAN> 39
 -6.164834e+00 -4.395566e+00 -3.823740e+00 -8.639787e+00 -7.066655e-01 -4.653067e+00 -1.024935e+00 -9.122560e+00 -3.157278e+00 -6.126859e+00 1.637851e-01 -5.059154e+00 1.535107e+01 -7.336270e-01 -5.712748e-01 -6.093510e-01 2.792793e-02 2.059964e-01 6.353335e-01 3.898987e-01 2.005402e-01 2.044760e-01 1.597932e-01 3.199859e-01 3.839550e-01 -3.594247e-01 5.729008e-02 -3.162778e-03 -5.458919e-02 -1.413844e-01 -1.459270e-01 -1.705728e-01 -8.290601e-02 3.009820e-02 9.389564e-03 -4.344665e-03 -4.741754e-02 -3.657527e-02 6.383624e-02
<VARIANCE> 39
 1.002010e+01 9.632187e+00 1.222031e+01 1.177850e+01 1.740518e+01 1.887701e+01 2.033135e+01 2.111480e+01 2.319619e+01 2.256783e+01 2.143754e+01 1.905512e+01 1.418480e+00 3.453679e-01 5.669907e-01 7.035137e-01 7.652152e-01 1.092569e+00 1.231917e+00 1.143146e+00 1.173642e+00 1.319735e+00 1.235264e+00 1.239640e+00 1.041180e+00 4.624846e-02 6.558708e-02 9.988715e-02 1.121481e-01 1.097675e-01 1.497821e-01 1.869313e-01 1.799650e-01 1.857911e-01 1.991193e-01 1.713462e-01 1.734920e-01 1.420266e-01 7.085632e-03
<GCONST> 7.327692e+01
~h "eight"
<BEGINHMM>
<NUMSTATES> 5
<STATE> 2
<MEAN> 39
 -8.229088e+00 -2.054264e+00 -5.956385e+00 -1.873097e+01 -1.118611e-01 -5.630262e+00 8.825060e-01 -6.352413e+00 -1.177080e+00 -7.235443e+00 -1.681340e+00 -5.870698e+00 1.755697e+01 -1.367326e-01 1.014155e+00 -6.050595e-02 -8.434440e-01 -9.479780e-02 -7.300711e-01 -3.859867e-03 3.603971e-01 3.808083e-01 1.192117e-01 -6.319513e-02 -1.979701e-01 2.861438e-01 2.885502e-02 5.635345e-02 1.588230e-02 1.700196e-01 -4.789507e-02 -1.674313e-01 -8.719151e-02 -6.036909e-02 1.024579e-03 8.605146e-02 1.156138e-01 2.105591e-02 -2.299492e-02
<VARIANCE> 39
 8.001781e+00 2.266793e+01 2.058799e+01 3.134090e+01 4.022605e+01 2.384891e+01 2.800805e+01 2.345306e+01 3.086132e+01 2.189494e+01 2.381688e+01 2.491222e+01 3.131121e+00 3.180243e-01 6.880677e-01 6.074553e-01 1.380629e+00 1.158461e+00 1.362523e+00 1.405165e+00 9.778359e-01 1.288517e+00 1.175447e+00 1.190913e+00 9.332600e-01 1.029574e-01 3.874966e-02 7.948986e-02 7.446470e-02 1.813314e-01 1.305726e-01 1.568789e-01 1.418606e-01 1.661844e-01 2.209100e-01 1.520326e-01 1.616558e-01 1.430304e-01 1.176320e-02
<GCONST> 7.874348e+01
<STATE> 3
<MEAN> 39
 -8.184072e+00 6.325161e+00 -5.053106e+00 -1.709721e+01 -2.679469e+00 -1.509235e+01 -2.988979e+00 -8.126983e+00 -6.658624e-01 -3.874470e+00 1.461888e+00 -5.148960e+00 1.828756e+01 2.122218e-01 -2.143037e-01 2.220763e-01 1.038993e+00 1.682379e-01 -1.688020e-01 -4.804305e-01 -8.687958e-01 -6.666179e-01 -5.251466e-02 2.273958e-01 2.127944e-01 -2.027727e-01 3.745290e-02 -3.919367e-01 -1.404766e-02 8.569162e-02 7.056816e-02 4.210989e-01 1.209592e-01 2.529049e-02 -8.694111e-02 -1.443022e-01 -1.072646e-01 -2.819776e-03 -7.223547e-02
<VARIANCE> 39
 9.585026e+00 1.084138e+01 2.186213e+01 3.060103e+01 1.897458e+01 2.237242e+01 5.357022e+01 3.246139e+01 4.102439e+01 2.636463e+01 3.243245e+01 2.800220e+01 1.697589e+00 2.312647e-01 1.400712e+00 3.455731e-01 6.788291e-01 7.601084e-01 1.890104e+00 9.965057e-01 8.699223e-01 1.626005e+00 1.137429e+00 1.336206e+00 9.570087e-01 5.022754e-02 3.229961e-02 7.793921e-02 5.161343e-02 1.149665e-01 8.896885e-02 1.636023e-01 1.630954e-01 1.966211e-01 2.566936e-01 1.628596e-01 1.935335e-01 1.703447e-01 3.488303e-03
<GCONST> 7.515069e+01
<STATE> 4
<MEAN> 39
 -6.340528e+00 -3.344589e+00 -4.112195e+00 -1.067786e+01 -6.628758e-01 -7.575019e+00 -3.142530e+00 -1.115258e+01 -4.747131e+00 -6.496189e+00 4.419692e-01 -4.461318e+00 1.545009e+01 -9.099064e-03 -1.878911e+00 -2.538572e-01 5.732912e-01 3.565941e-02 1.684815e+00 6.653020e-01 5.087619e-01 2.101086e-01 -1.111985e-01 1.758179e-02 1.203348e-01 -4.596181e-01 -1.228937e-01 2.958026e-01 -9.360420e-02 -1.942807e-01 -8.693920e-02 -2.477645e-01 7.648985e-02 1.461736e-01 1.848277e-01 1.411642e-01 6.597628e-02 -2.631635e-02 7.161570e-02
<VARIANCE> 39
 4.118152e+00 1.738620e+01 1.219710e+01 1.224983e+01 1.372191e+01 2.533581e+01 2.314320e+01 2.061610e+01 2.656714e+01 2.079445e+01 2.022001e+01 1.616809e+01 1.862885e+00 3.277096e-01 7.501321e-01 6.447138e-01 9.654385e-01 6.226364e-01 1.307610e+00 1.660756e+00 1.218837e+00 2.007011e+00 1.261800e+00 1.212497e+00 1.096748e+00 4.161374e-02 3.351294e-02 1.362943e-01 7.486182e-02 1.157866e-01 8.879709e-02 2.153878e-01 2.010844e-01 1.985926e-01 2.447104e-01 1.528836e-01 1.799249e-01 1.561660e-01 6.596648e-03
<GCONST> 7.316428e+01
<TRANSP> 5
 0.000000e+00 1.000000e+00 0.000000e+00 0.000000e+00 0.000000e+00
 0.000000e+00 8.876027e-01 1.123973e-01 0.000000e+00 0.000000e+00
 0.000000e+00 0.000000e+00 8.740419e-01 1.259581e-01 0.000000e+00
 0.000000e+00 0.000000e+00 0.000000e+00 7.583253e-01 2.416748e-01
 0.000000e+00 0.000000e+00 0.000000e+00 0.000000e+00 0.000000e+00
<ENDHMM>
~h "oh"
<BEGINHMM>
<NUMSTATES> 5
<STATE> 2
<MEAN> 39
 -4.398205e+00 -1.034999e+01 -8.424934e+00 -8.579141e+00 -2.560987e+00 -7.681344e+00 3.562700e+00 -7.351830e+00 -5.210559e+00 -7.147961e+00 -2.390433e+00 -5.314425e+00 1.777258e+01 5.439331e-01 -1.959649e-01 -5.948681e-01 1.469641e-01 7.190652e-02 -6.995261e-01 1.305564e-01 7.149907e-01 1.016646e-03 -4.195167e-01 -4.219263e-01 -1.510168e-01 3.564361e-01 1.195561e-02 9.803710e-02 1.312642e-03 -4.787704e-02 3.204744e-02 -1.359220e-02 -1.456428e-01 8.852946e-03 1.296958e-01 2.713352e-02 -1.536545e-02 -3.369681e-02 -1.909619e-02
<VARIANCE> 39
 8.962557e+00 1.222213e+01 1.610669e+01 1.723409e+01 2.229538e+01 2.455775e+01 3.037739e+01 6.363297e+01 3.776189e+01 3.378659e+01 2.703680e+01 3.085663e+01 3.147384e+00 3.031489e-01 5.730627e-01 6.409897e-01 6.394359e-01 6.922793e-01 9.253240e-01 1.326217e+00 1.770531e+00 1.549065e+00 1.273807e+00 1.240712e+00 1.042188e+00 9.509485e-02 4.064923e-02 6.378514e-02 7.554586e-02 7.952087e-02 9.114841e-02 1.292712e-01 1.545858e-01 2.136861e-01 1.848114e-01 1.968578e-01 1.832341e-01 1.383064e-01 1.369890e-02
<GCONST> 7.704563e+01
<STATE> 3
<MEAN> 39
 -4.650072e-01 -8.005364e+00 -1.332254e+01 -1.023944e+01 -6.699767e-01 -1.221243e+01 -1.184076e+00 -7.942182e-01 4.422984e-01 -7.960519e+00 -5.142234e+00 -6.692569e+00 1.905046e+01 2.151361e-01 4.065081e-01 5.916433e-03 -3.533579e-01 -5.537508e-02 2.589761e-02 -6.752639e-01 -3.214013e-01 6.374403e-01 6.385422e-01 2.139860e-02 -3.500562e-01 -1.354128e-02 -4.454717e-02 2.055354e-02 1.041874e-01 -1.425432e-02 -5.764415e-02 9.151003e-02 2.456475e-02 -1.507247e-01 -9.512684e-02 7.979704e-02 1.248663e-01 1.798627e-02 -2.573611e-02
<VARIANCE> 39
 6.117591e+00 9.138344e+00 1.453930e+01 1.575399e+01 1.880819e+01 2.228654e+01 4.234101e+01 2.843659e+01 3.921609e+01 3.676705e+01 3.195459e+01 3.949943e+01 1.203350e+00 8.390265e-02 1.435265e-01 2.804993e-01 2.916490e-01 3.934813e-01 5.151800e-01 7.087216e-01 1.008332e+00 7.485806e-01 8.401852e-01 8.539098e-01 6.939110e-01 1.320366e-02 1.154767e-02 1.487902e-02 3.403236e-02 3.535160e-02 4.672150e-02 6.956168e-02 8.088092e-02 9.672888e-02 1.067558e-01 1.023001e-01 9.369504e-02 8.947338e-02 1.186749e-03
<GCONST> 5.269017e+01
<STATE> 4
<MEAN> 39
 -2.560028e-02 -3.521419e+00 -9.022600e+00 -1.312538e+01 -3.848471e+00 -1.000047e+01 -4.772150e+00 -7.737666e+00 2.248835e-01 -2.864446e+00 5.784608e-02 -6.854321e+00 1.836198e+01 -4.552985e-01 2.226731e-01 8.607025e-01 2.415131e-01 -9.542039e-02 4.831661e-01 3.077497e-01 -5.245867e-01 -6.087980e-01 -1.929139e-01 4.654156e-01 4.577805e-01 -2.717485e-01 -1.399193e-01 -1.253652e-01 7.689336e-03 1.217547e-01 1.305523e-01 1.127290e-01 1.780051e-01 9.203163e-02 -6.840806e-02 -1.462750e-01 -7.960579e-02 7.289150e-02 -4.777556e-02
<VARIANCE> 39
 6.552671e+00 7.139245e+00 2.056602e+01 1.639354e+01 1.911071e+01 2.652799e+01 3.141951e+01 2.807585e+01 3.249372e+01 4.080824e+01 4.012027e+01 3.784610e+01 1.687734e+00 2.793636e-01 4.026128e-01 4.299124e-01 6.034163e-01 8.434926e-01 1.119510e+00 1.244263e+00 1.301554e+00 1.252456e+00 1.243459e+00 1.241324e+00 1.110438e+00 3.871920e-02 2.508944e-02 3.956671e-02 8.026806e-02 7.636635e-02 1.014485e-01 1.651466e-01 1.742682e-01 2.009444e-01 2.156480e-01 2.100759e-01 1.776838e-01 1.667587e-01 2.923700e-03
<GCONST> 7.189673e+01
<TRANSP> 5
 0.000000e+00 1.000000e+00 0.000000e+00 0.000000e+00 0.000000e+00
 0.000000e+00 8.840315e-01 1.159685e-01 0.000000e+00 0.000000e+00
 0.000000e+00 0.000000e+00 8.956929e-01 1.043070e-01 0.000000e+00
 0.000000e+00 0.000000e+00 0.000000e+00 8.612955e-01 1.387046e-01
 0.000000e+00 0.000000e+00 0.000000e+00 0.000000e+00 0.000000e+00
<ENDHMM>
~h "sp"
<BEGINHMM>
<NUMSTATES> 5
<STATE> 2
~s "silst"
<STATE> 3
<MEAN> 39
 -7.707726e+00 -6.427415e+00 -6.160188e+00 -9.685740e+00 -1.375168e+00 -4.100677e+00 -7.144825e-01 -8.595057e+00 -2.863984e+00 -5.604132e+00 9.082496e-01 -4.068189e+00 1.481311e+01 -7.147965e-02 4.319978e-03 -8.237550e-02 9.505105e-03 -1.644481e-02 1.397160e-02 -2.047528e-02 2.177152e-02 -1.187050e-02 1.504205e-02 3.251335e-02 2.886708e-02 -7.057589e-03 5.131493e-02 6.789071e-02 5.438591e-02 -8.233479e-03 -3.237027e-03 -4.270010e-02 -2.668978e-02 -1.163703e-02 -4.707961e-03 -1.479453e-02 -2.729552e-02 -2.776831e-02 3.807341e-02
<VARIANCE> 39
 5.408446e+00 6.004534e+00 8.577682e+00 1.030718e+01 1.420166e+01 1.562862e+01 1.532256e+01 1.668773e+01 1.749371e+01 1.631734e+01 1.603486e+01 1.392549e+01 1.109335e+00 1.381843e-01 2.196646e-01 3.302511e-01 4.267313e-01 5.554514e-01 6.778597e-01 6.475425e-01 7.047722e-01 7.244968e-01 6.466457e-01 6.394188e-01 5.644815e-01 5.201228e-03 3.009107e-02 4.956269e-02 6.824489e-02 9.016553e-02 1.119943e-01 1.404994e-01 1.265015e-01 1.419403e-01 1.445695e-01 1.211970e-01 1.224139e-01 1.123770e-01 3.675323e-03
<GCONST> 5.379356e+01
<STATE> 4
<MEAN> 39
 -8.077396e+00 -5.212555e+00 -6.092122e+00 -9.127139e+00 -1.770975e+00 -4.029260e+00 -9.247101e-01 -8.347775e+00 -2.932667e+00 -5.635999e+00 7.495791e-01 -4.150177e+00 1.511829e+01 2.107370e-01 2.012455e-01 4.993961e-02 -1.876237e-01 -6.969149e-02 -2.373338e-01 -4.066857e-02 6.798360e-02 -2.416583e-02 -7.913239e-02 -1.776029e-01 -4.605454e-02 2.041565e-01 2.106958e-01 4.703116e-02 3.338622e-02 -1.739286e-01 -1.105483e-01 -2.027247e-01 -2.384601e-02 1.307555e-02 1.048154e-02 -5.904851e-03 -1.208702e-01 -9.218588e-02 1.220830e-01
<VARIANCE> 39
 1.142975e+01 1.081511e+01 1.573232e+01 1.432943e+01 1.852847e+01 1.853466e+01 1.795712e+01 2.029877e+01 2.055436e+01 1.964391e+01 1.873223e+01 1.739952e+01 1.578220e+00 4.869697e-01 4.723873e-01 5.678105e-01 7.447985e-01 7.853661e-01 8.601177e-01 7.868338e-01 1.096074e+00 1.005680e+00 8.384455e-01 8.829128e-01 7.468672e-01 4.127104e-02 6.780279e-02 1.092928e-01 1.584956e-01 1.336642e-01 1.723772e-01 1.807113e-01 1.670211e-01 2.228651e-01 1.989349e-01 1.787412e-01 1.756107e-01 1.547528e-01 8.328095e-03
<GCONST> 7.199956e+01
<TRANSP> 5
 0.000000e+00 7.704504e-01 2.295496e-01 0.000000e+00 0.000000e+00
 0.000000e+00 7.604970e-01 2.395030e-01 0.000000e+00 0.000000e+00
 0.000000e+00 0.000000e+00 8.387731e-01 1.612269e-01 0.000000e+00
 0.000000e+00 0.000000e+00 0.000000e+00 4.681566e-01 5.318433e-01
 0.000000e+00 0.000000e+00 0.000000e+00 0.000000e+00 0.000000e+00
<ENDHMM>
~h "seven"
<BEGINHMM>
<NUMSTATES> 5
<STATE> 2
<MEAN> 39
 -8.575943e+00 -4.388083e+00 -6.971434e+00 -8.821104e+00 -3.024279e+00 -3.843671e+00 -9.126713e-01 -8.017919e+00 -2.604144e+00 -4.658321e+00 -3.062036e-01 -3.640595e+00 1.507568e+01 8.102682e-01 1.390242e-01 7.087973e-01 -1.192009e+00 -9.364184e-01 -8.642015e-01 7.937462e-01 -1.244379e-01 3.248116e-01 6.566755e-02 -6.713510e-01 -5.670282e-01 5.867717e-01 9.583241e-02 -7.975864e-02 2.564462e-02 -3.107397e-01 -2.472102e-01 -2.784829e-02 2.804259e-01 5.959483e-02 1.947408e-02 -9.493656e-02 -1.710881e-01 -1.873084e-01 1.552348e-01
<VARIANCE> 39
 8.361626e+00 7.878438e+00 1.348933e+01 1.197605e+01 1.737984e+01 1.734750e+01 1.692486e+01 1.767245e+01 1.849506e+01 2.083579e+01 1.749047e+01 1.611310e+01 1.517142e+00 5.261202e-01 4.562365e-01 6.651431e-01 1.055341e+00 1.218482e+00 1.485115e+00 1.261807e+00 1.054972e+00 1.114161e+00 2.135001e+00 1.054362e+00 1.108694e+00 9.536159e-02 7.558797e-02 6.114657e-02 1.075889e-01 1.163760e-01 1.932155e-01 2.103712e-01 1.554054e-01 1.613768e-01 1.756535e-01 2.084543e-01 1.406340e-01 1.787212e-01 7.913996e-03
<GCONST> 7.366675e+01
<STATE> 3
<MEAN> 39
 -5.611459e+00 -7.260844e+00 -5.240224e+00 -1.603295e+01 -6.283005e+00 -4.685122e+00 4.869528e+00 -8.594393e+00 -2.689641e+00 -6.884038e+00 -4.055431e+00 -6.556173e+00 1.898936e+01 1.668985e-01 -2.794216e-01 9.145733e-02 7.147024e-02 -2.617250e-02 -6.516009e-02 2.299620e-01 2.580025e-01 -3.063439e-01 -4.486563e-02 -4.029771e-02 -8.799820e-02 1.115816e-01 -3.491453e-02 8.488481e-02 2.014660e-02 3.038140e-01 1.527556e-01 -4.306159e-02 -2.656630e-01 4.415121e-02 -2.284491e-02 2.394120e-02 1.864889e-01 6.727677e-02 -1.311494e-01
<VARIANCE> 39
 9.584368e+00 1.258447e+01 9.204113e+00 1.782569e+01 4.671825e+01 3.921273e+01 3.162002e+01 3.884333e+01 4.704993e+01 5.877098e+01 3.274877e+01 3.203354e+01 1.225427e+00 4.178711e-01 5.819476e-01 4.638263e-01 1.468434e+00 1.600694e+00 1.620510e+00 1.720985e+00 1.085876e+00 1.333273e+00 1.766402e+00 1.768694e+00 1.286170e+00 1.995297e-01 8.203603e-02 8.878030e-02 9.368321e-02 1.099108e-01 2.578114e-01 2.722465e-01 1.745359e-01 1.617159e-01 2.023799e-01 2.417732e-01 2.293486e-01 1.862594e-01 5.785563e-03
<GCONST> 8.408240e+01
<STATE> 4
<MEAN> 39
 -3.182976e+00 -3.924764e+00 -1.904830e+00 -9.670417e+00 -3.753783e+00 -7.984742e+00 -7.303156e-01 -8.220934e+00 -4.105432e+00 -6.815532e+00 -1.675969e+00 -6.929901e+00 1.712867e+01 7.301649e-02 3.108530e-01 1.900427e-01 2.333436e-01 3.681018e-01 4.225972e-02 -3.767270e-01 -3.225184e-01 3.992179e-02 -5.769807e-02 1.058214e-01 1.361828e-02 -9.949037e-02 -5.014560e-02 -6.788350e-02 -6.134446e-02 -7.587074e-02 -3.547704e-03 1.093713e-01 1.029450e-01 -2.079109e-02 2.007416e-02 1.491700e-02 -3.537405e-02 2.897899e-02 1.364935e-02
<VARIANCE> 39
 4.907196e+00 1.058855e+01 9.972430e+00 1.380927e+01 2.801906e+01 3.155161e+01 2.620488e+01 4.116991e+01 3.352750e+01 3.626203e+01 3.294520e+01 2.941617e+01 1.625199e+00 2.019268e-01 4.478562e-01 4.930732e-01 8.786008e-01 1.348994e+00 1.227235e+00 1.630218e+00 1.281717e+00 1.374494e+00 1.400578e+00 1.256286e+00 9.540664e-01 8.850159e-02 3.592967e-02 7.897805e-02 8.640442e-02 1.504415e-01 2.412834e-01 2.045618e-01 2.831561e-01 2.286795e-01 2.329371e-01 2.442421e-01 2.160807e-01 1.497857e-01 1.485043e-02
<GCONST> 7.873844e+01
<TRANSP> 5
 0.000000e+00 1.000000e+00 0.000000e+00 0.000000e+00 0.000000e+00
 0.000000e+00 7.266586e-01 2.733414e-01 0.000000e+00 0.000000e+00
 0.000000e+00 0.000000e+00 8.983167e-01 1.016833e-01 0.000000e+00
 0.000000e+00 0.000000e+00 0.000000e+00 9.344530e-01 6.554702e-02
 0.000000e+00 0.000000e+00 0.000000e+00 0.000000e+00 0.000000e+00
<ENDHMM>
~h "three"
<BEGINHMM>
<NUMSTATES> 5
<STATE> 2
<MEAN> 39
 -7.186459e+00 -5.481922e+00 -3.598963e+00 -1.045261e+01 -2.037536e+00 -6.125057e+00 -1.245025e+00 -8.341262e+00 -2.697037e+00 -5.586418e+00 5.897883e-01 -4.068855e+00 1.537506e+01 9.544884e-01 4.090710e-03 1.005521e+00 1.375682e-01 -1.536214e+00 -1.041594e+00 -3.996237e-01 -8.667177e-02 1.015264e-01 -2.888031e-02 -1.654338e-01 -3.206302e-01 4.526235e-01 2.182698e-01 -1.067170e-01 1.454789e-01 5.523583e-02 -4.514788e-01 -1.957964e-01 -1.788125e-02 -2.979851e-02 8.188884e-02 5.012009e-02 -8.721634e-03 -5.788703e-02 8.369817e-02
<VARIANCE> 39
 9.026306e+00 8.407265e+00 1.202268e+01 1.356112e+01 2.034468e+01 2.093978e+01 1.924382e+01 2.098193e+01 2.174263e+01 1.889691e+01 2.253946e+01 1.653208e+01 1.722506e+00 5.454017e-01 6.462110e-01 5.911967e-01 1.174591e+00 1.601917e+00 1.829552e+00 9.063033e-01 1.225919e+00 1.312438e+00 1.016609e+00 1.489974e+00 1.281973e+00 4.956480e-02 8.416790e-02 1.048448e-01 1.102742e-01 2.087014e-01 2.009746e-01 2.757500e-01 1.767448e-01 2.251471e-01 2.003588e-01 1.734265e-01 2.280842e-01 1.957816e-01 6.385995e-03
<GCONST> 7.720164e+01
<STATE> 3
<MEAN> 39
 -2.431692e+00 -7.008363e+00 2.760354e+00 -1.151236e+01 -1.430834e+01 -9.305048e+00 -3.103997e+00 -9.406974e+00 2.856990e-01 -5.060945e+00 2.426585e-01 -5.785114e+00 1.835227e+01 -1.922735e-01 4.854648e-01 6.538137e-01 -1.168874e+00 -2.258846e-01 4.642290e-01 -8.627012e-01 1.315460e-01 3.317825e-01 -3.613351e-02 8.776779e-02 -1.420855e-01 2.066454e-01 -2.265942e-01 2.510271e-01 -2.152802e-01 -1.570749e-01 5.780963e-01 3.670168e-02 -7.433914e-02 1.211039e-01 -1.291868e-01 -2.789941e-02 1.409357e-02 4.373079e-02 -7.234710e-02
<VARIANCE> 39
 6.530869e+00 1.430546e+01 1.984732e+01 5.233506e+01 4.029372e+01 6.416688e+01 3.657116e+01 3.919170e+01 2.991666e+01 2.844178e+01 3.715963e+01 3.410756e+01 1.340398e+00 8.282691e-01 1.498460e+00 9.339237e-01 2.661048e+00 4.870755e+00 3.175901e+00 2.300190e+00 2.001555e+00 1.240349e+00 1.072425e+00 1.075913e+00 1.074727e+00 6.136745e-02 6.828213e-02 1.152835e-01 1.810074e-01 4.030728e-01 3.609151e-01 7.196856e-01 3.893980e-01 2.780792e-01 2.442038e-01 1.718455e-01 1.627996e-01 1.591462e-01 3.663595e-03
<GCONST> 9.203456e+01
<STATE> 4
<MEAN> 39
 -6.633872e+00 3.451749e+00 -8.388208e-01 -1.709529e+01 -2.258764e+00 -1.164774e+01 -6.460977e+00 -7.884505e+00 -3.034095e+00 -5.315721e+00 -2.893553e-01 -6.454873e+00 1.798266e+01 1.434294e-02 1.604538e-01 -6.260731e-01 7.342945e-01 7.389900e-01 -2.693403e-01 5.346777e-01 -1.233048e-01 -3.970888e-01 -1.448728e-02 -1.201970e-01 1.614530e-02 -1.688221e-01 7.198150e-02 -2.942552e-01 2.341295e-02 1.853974e-01 -2.143416e-01 2.038646e-01 1.625572e-01 -7.150973e-02 8.854170e-02 4.648959e-03 1.692521e-02 1.861548e-02 -3.053083e-02
<VARIANCE> 39
 7.845968e+00 1.682932e+01 2.007696e+01 3.294939e+01 2.684490e+01 2.903133e+01 4.990237e+01 4.813127e+01 3.380946e+01 3.971721e+01 4.211599e+01 3.671969e+01 1.527417e+00 3.008641e-01 1.725000e+00 6.698211e-01 1.088286e+00 1.845235e+00 2.363626e+00 1.456558e+00 1.684986e+00 1.309974e+00 1.239228e+00 8.906633e-01 8.966933e-01 2.718922e-02 4.328134e-02 9.215978e-02 9.197381e-02 2.200288e-01 1.842997e-01 2.290314e-01 2.740445e-01 2.453734e-01 1.833399e-01 1.676884e-01 1.392923e-01 1.339476e-01 2.377163e-03
<GCONST> 8.172608e+01
<TRANSP> 5
 0.000000e+00 1.000000e+00 0.000000e+00 0.000000e+00 0.000000e+00
 0.000000e+00 7.648430e-01 2.351570e-01 0.000000e+00 0.000000e+00
 0.000000e+00 0.000000e+00 8.845003e-01 1.154997e-01 0.000000e+00
 0.000000e+00 0.000000e+00 0.000000e+00 9.119465e-01 8.805351e-02
 0.000000e+00 0.000000e+00 0.000000e+00 0.000000e+00 0.000000e+00
<ENDHMM>
~h "one"
<BEGINHMM>
<NUMSTATES> 5
<STATE> 2
<MEAN> 39
 -6.587876e-01 -3.832196e+00 -9.244072e+00 -1.275765e+01 -1.589916e+00 -5.544289e+00 -2.015236e+00 -8.874557e+00 -2.711984e+00 -6.726380e+00 -1.535849e+00 -7.274798e+00 1.770652e+01 2.892371e-01 -3.975390e-01 -8.647400e-01 4.546929e-01 4.848551e-01 3.118927e-02 -2.976713e-01 2.276801e-01 2.015021e-01 -3.066204e-01 -3.888561e-01 -2.646051e-01 2.419392e-01 -1.149965e-01 -1.420642e-01 5.701894e-02 2.618695e-01 3.548015e-03 -1.199375e-01 -1.110383e-02 9.144669e-02 -1.410287e-02 -9.375736e-02 9.459704e-03 8.082491e-02 -2.013654e-02
<VARIANCE> 39
 8.055800e+00 9.327424e+00 2.902070e+01 2.294271e+01 2.847798e+01 2.528308e+01 2.291702e+01 2.064901e+01 2.831337e+01 2.402252e+01 2.959995e+01 2.877053e+01 2.342641e+00 4.633834e-01 8.105537e-01 8.826962e-01 2.256496e+00 1.373485e+00 1.454570e+00 1.269637e+00 1.076183e+00 1.136824e+00 1.039453e+00 1.102292e+00 1.045241e+00 4.770931e-02 4.675589e-02 6.296661e-02 1.898613e-01 2.177057e-01 2.633579e-01 2.489764e-01 2.389230e-01 1.814822e-01 2.008339e-01 1.708095e-01 1.899365e-01 1.844000e-01 5.151552e-03
<GCONST> 8.046753e+01
<STATE> 3
<MEAN> 39
 -2.464476e+00 -1.071582e+01 -1.067698e+01 -1.699932e+00 -7.179950e-01 -9.453941e+00 -2.172887e+00 -4.352646e+00 -3.739342e+00 -1.167237e+01 -2.297772e+00 -6.142543e+00 1.853473e+01 -5.998255e-01 -3.263496e-01 1.362963e+00 4.901101e-01 -1.340693e+00 -2.670562e-01 1.165161e+00 -1.571383e-01 -8.931941e-01 -3.294389e-02 5.677052e-01 8.788922e-02 -5.272274e-02 3.091028e-02 3.175600e-01 2.350743e-01 -5.780142e-01 -9.954365e-02 3.686509e-01 5.688933e-02 -4.275276e-01 2.355730e-02 3.669665e-01 2.828078e-02 -1.656067e-01 -2.944377e-02
<VARIANCE> 39
 6.290822e+00 9.769215e+00 1.937088e+01 2.358243e+01 2.810526e+01 1.747308e+01 3.865134e+01 3.229962e+01 4.634374e+01 3.768729e+01 3.398803e+01 3.366885e+01 1.533361e+00 1.590165e-01 5.571123e-01 6.176992e-01 1.911715e+00 7.443162e-01 1.787422e+00 1.010059e+00 2.290389e+00 1.215015e+00 1.910061e+00 1.037510e+00 1.293739e+00 8.662133e-03 2.493098e-02 5.252902e-02 1.041566e-01 1.216468e-01 3.049798e-01 1.556907e-01 3.938257e-01 1.811871e-01 3.390654e-01 2.064282e-01 2.669331e-01 1.717569e-01 8.586997e-04
<GCONST> 7.593982e+01
<STATE> 4
<MEAN> 39
 -3.900373e+00 -4.732475e+00 -1.447016e+00 -8.989985e+00 -3.510327e+00 -6.275762e+00 -2.249472e+00 -1.217676e+01 -4.844795e+00 -8.560909e+00 -2.795556e+00 -8.319528e+00 1.772228e+01 9.815367e-02 7.505100e-01 4.090959e-01 -5.340457e-01 4.200257e-01 4.761142e-02 -4.919122e-01 -3.285434e-01 9.605165e-02 1.945145e-01 -1.006042e-01 1.237219e-01 -1.405073e-01 3.879148e-03 -1.046187e-01 -2.093548e-01 1.477062e-01 1.150719e-01 -2.093725e-02 -1.592989e-03 1.792654e-01 2.688334e-02 -9.387206e-02 3.995340e-02 8.262379e-02 -1.435220e-02
<VARIANCE> 39
 6.792927e+00 2.228841e+01 1.036965e+01 1.880227e+01 1.998185e+01 4.448888e+01 3.513223e+01 3.426934e+01 4.201706e+01 4.555134e+01 3.320104e+01 3.662101e+01 1.282674e+00 2.713769e-01 8.087161e-01 8.552864e-01 1.236307e+00 8.588545e-01 1.862888e+00 1.210000e+00 1.377749e+00 1.556657e+00 1.448340e+00 9.910757e-01 9.634154e-01 1.618332e-02 5.339588e-02 1.136214e-01 8.373542e-02 1.249220e-01 1.861280e-01 3.069856e-01 2.547810e-01 1.819552e-01 2.309001e-01 2.214814e-01 1.675950e-01 1.641479e-01 2.664173e-03
<GCONST> 7.883286e+01
<TRANSP> 5
 0.000000e+00 1.000000e+00 0.000000e+00 0.000000e+00 0.000000e+00
 0.000000e+00 8.988833e-01 1.011167e-01 0.000000e+00 0.000000e+00
 0.000000e+00 0.000000e+00 8.310869e-01 1.689131e-01 0.000000e+00
 0.000000e+00 0.000000e+00 0.000000e+00 9.022372e-01 9.776282e-02
 0.000000e+00 0.000000e+00 0.000000e+00 0.000000e+00 0.000000e+00
<ENDHMM>
~h "sil"
<BEGINHMM>
<NUMSTATES> 5
<STATE> 2
<MEAN> 39
 -6.601988e+00 -6.297339e+00 -4.617571e+00 -8.720706e+00 1.123818e-01 -3.369796e+00 2.025875e-02 -8.799500e+00 -2.713197e+00 -5.790073e+00 5.513796e-01 -4.296097e+00 1.471565e+01 -7.754190e-02 -2.488338e-02 4.495582e-04 6.002291e-02 9.339000e-02 6.550879e-02 8.477251e-02 3.066193e-02 -1.109673e-02 8.910380e-03 3.789373e-03 1.676105e-02 -2.637968e-02 -4.527564e-02 -6.518950e-02 -1.187882e-01 -1.478122e-01 -1.386886e-01 -1.232504e-01 -5.048221e-02 1.891697e-02 -6.775287e-03 1.121416e-02 3.689167e-02 2.879890e-02 -1.032674e-04
<VARIANCE> 39
 4.447972e+00 4.887688e+00 6.188295e+00 7.876748e+00 1.201183e+01 1.386937e+01 1.567776e+01 1.661151e+01 1.590999e+01 1.443193e+01 1.613267e+01 1.364454e+01 1.193825e+00 9.950712e-02 1.877369e-01 3.027624e-01 4.139766e-01 5.301145e-01 6.671811e-01 6.864862e-01 7.563018e-01 7.588747e-01 6.254885e-01 6.623607e-01 5.779506e-01 8.887803e-03 1.166648e-02 2.385289e-02 3.973332e-02 5.175267e-02 7.287488e-02 1.009347e-01 1.061142e-01 1.304422e-01 1.124855e-01 9.627449e-02 1.081809e-01 9.859060e-02 6.923730e-04
<GCONST> 4.624067e+01
<STATE> 3
~s "silst"
<STATE> 4
<MEAN> 39
 -7.414685e+00 -7.390823e+00 -6.415354e+00 -1.080357e+01 -1.616358e+00 -4.848519e+00 -5.909318e-01 -8.479041e+00 -2.626848e+00 -5.489102e+00 1.212679e+00 -3.982938e+00 1.447961e+01 5.246601e-03 1.487820e-02 -1.978715e-02 -1.997015e-02 -4.549338e-02 -2.197320e-02 -4.402938e-02 -1.831505e-02 -1.428104e-02 -6.467588e-03 -5.050478e-03 -1.355694e-02 1.010090e-03 2.670925e-02 4.531732e-02 6.934877e-02 8.124596e-02 7.368004e-02 6.498629e-02 2.401944e-02 -4.477681e-03 6.302855e-03 -1.074836e-02 -2.976454e-02 -1.897546e-02 6.209807e-03
<VARIANCE> 39
 3.214669e+00 3.735628e+00 5.974946e+00 7.827242e+00 1.203505e+01 1.337397e+01 1.472094e+01 1.585768e+01 1.703382e+01 1.458289e+01 1.532661e+01 1.308794e+01 1.010432e+00 6.608125e-02 1.497182e-01 2.644935e-01 3.842115e-01 4.843367e-01 6.690395e-01 6.156734e-01 7.099118e-01 6.708353e-01 5.717388e-01 6.707761e-01 5.951445e-01 2.679764e-03 1.186742e-02 2.566460e-02 3.950621e-02 5.733984e-02 7.942533e-02 1.158187e-01 1.079544e-01 1.276137e-01 1.272101e-01 9.907950e-02 1.138093e-01 1.083259e-01 7.627038e-04
<GCONST> 4.360492e+01
<TRANSP> 5
 0.000000e+00 1.000000e+00 0.000000e+00 0.000000e+00 0.000000e+00
 0.000000e+00 6.946680e-01 3.565029e-02 2.696817e-01 0.000000e+00
 0.000000e+00 0.000000e+00 7.800308e-01 2.199692e-01 0.000000e+00
 0.000000e+00 1.151474e-01 0.000000e+00 8.335924e-01 5.126022e-02
 0.000000e+00 0.000000e+00 0.000000e+00 0.000000e+00 0.000000e+00
<ENDHMM>
~h "six"
<BEGINHMM>
<NUMSTATES> 5
<STATE> 2
<MEAN> 39
 -8.913308e+00 -4.368077e+00 -7.283319e+00 -8.571327e+00 -2.867610e+00 -3.884263e+00 -1.942172e+00 -8.173658e+00 -3.482704e+00 -4.107430e+00 1.053867e-01 -3.095318e+00 1.483934e+01 6.608290e-01 6.505020e-01 1.152269e+00 -1.286046e+00 -1.080755e+00 -1.160000e+00 2.893327e-02 -1.419858e-01 3.837467e-01 3.565414e-01 -4.926645e-01 -4.122123e-01 5.963454e-01 8.799955e-02 1.204751e-01 2.503103e-01 -4.838156e-01 -2.983524e-01 -2.054414e-01 4.262978e-02 6.676270e-02 1.928263e-01 1.553163e-02 -1.338225e-01 -2.258740e-01 1.534957e-01
<VARIANCE> 39
 6.835982e+00 7.656876e+00 1.206527e+01 1.117774e+01 1.790597e+01 1.809373e+01 1.487733e+01 1.824753e+01 1.959226e+01 2.770480e+01 1.926941e+01 1.695583e+01 1.650565e+00 3.556431e-01 4.563528e-01 8.844749e-01 1.135360e+00 1.073280e+00 1.299583e+00 9.375803e-01 7.966816e-01 1.387665e+00 2.200396e+00 1.058758e+00 1.251744e+00 8.253226e-02 6.049899e-02 5.652162e-02 1.163460e-01 9.642380e-02 1.976226e-01 1.963002e-01 1.473976e-01 1.703148e-01 1.883848e-01 2.314692e-01 1.745452e-01 1.734127e-01 7.448318e-03
<GCONST> 7.300835e+01
<STATE> 3
<MEAN> 39
 -6.466274e+00 -1.100727e+00 -8.967900e-01 -2.000967e+01 -7.923094e+00 -8.797072e+00 -2.400503e+00 -6.404579e+00 1.320142e-01 -3.724821e+00 -2.557143e+00 -7.357142e+00 1.833685e+01 3.451351e-02 -6.976159e-02 2.531342e-01 -3.243291e-01 3.313331e-01 1.928289e-01 -2.663659e-01 1.780799e-01 5.570564e-02 -1.874940e-01 1.694835e-01 -1.897964e-02 -2.880036e-02 -5.792500e-02 -2.025059e-01 -2.625389e-01 4.789771e-01 2.876925e-01 2.275813e-01 6.402248e-02 -8.807205e-02 -1.383580e-01 -6.261131e-02 1.521046e-01 1.646237e-01 -1.662429e-01
<VARIANCE> 39
 7.629979e+00 9.663686e+00 1.644828e+01 2.388627e+01 5.777910e+01 3.076649e+01 3.697651e+01 2.467554e+01 3.501056e+01 5.897755e+01 3.510903e+01 3.729791e+01 1.379468e+00 3.580429e-01 6.625068e-01 1.091453e+00 3.277923e+00 2.431892e+00 1.834701e+00 1.745544e+00 1.333915e+00 1.897832e+00 2.011240e+00 1.874185e+00 1.925419e+00 3.017201e-01 6.793553e-02 6.647433e-02 1.604185e-01 2.310457e-01 3.037815e-01 3.147124e-01 3.799989e-01 2.258210e-01 2.874708e-01 3.429012e-01 2.612959e-01 2.543898e-01 1.169613e-02
<GCONST> 9.200856e+01
<STATE> 4
<MEAN> 39
 -7.843205e+00 -6.090635e+00 -5.004764e+00 -1.034373e+01 -2.517491e+00 -3.322731e+00 -1.519027e+00 -8.804090e+00 -2.187394e+00 -5.356813e+00 8.436404e-01 -4.281397e+00 1.459176e+01 -2.432619e-01 -4.740403e-01 -7.751038e-01 1.028935e+00 2.141972e-01 3.367219e-01 5.499202e-01 -2.924621e-01 -2.145221e-01 -4.690140e-03 7.266110e-02 1.753097e-01 -2.960542e-01 -4.030065e-02 1.173826e-01 1.222882e-01 -2.846757e-01 -1.914337e-01 -1.153261e-01 -5.042352e-02 1.207653e-01 6.947941e-02 6.261844e-02 -1.103478e-01 -8.765429e-02 9.422152e-02
<VARIANCE> 39
 8.760559e+00 8.504260e+00 1.381925e+01 1.465210e+01 2.192811e+01 1.752623e+01 1.970858e+01 1.852785e+01 1.901190e+01 1.880773e+01 1.763562e+01 1.491008e+01 1.365305e+00 3.920328e-01 8.906559e-01 1.038147e+00 1.381387e+00 1.959958e+00 1.372539e+00 1.627519e+00 1.184875e+00 1.110439e+00 1.151588e+00 1.044472e+00 8.936715e-01 1.139368e-01 6.069309e-02 9.201594e-02 1.696842e-01 1.721172e-01 2.706753e-01 1.852683e-01 2.414807e-01 1.918434e-01 1.874036e-01 1.842534e-01 1.816905e-01 1.612159e-01 1.093492e-02
<GCONST> 7.767447e+01
<TRANSP> 5
 0.000000e+00 1.000000e+00 0.000000e+00 0.000000e+00 0.000000e+00
 0.000000e+00 7.233916e-01 2.766084e-01 0.000000e+00 0.000000e+00
 0.000000e+00 0.000000e+00 8.899022e-01 1.100978e-01 0.000000e+00
 0.000000e+00 0.000000e+00 0.000000e+00 8.389017e-01 1.610983e-01
 0.000000e+00 0.000000e+00 0.000000e+00 0.000000e+00 0.000000e+00
<ENDHMM>
~h "two"
<BEGINHMM>
<NUMSTATES> 5
<STATE> 2
<MEAN> 39
 -1.098045e+01 -3.357651e+00 -7.009727e+00 -1.047099e+01 -1.199607e+00 -3.899992e+00 -1.884951e+00 -7.530281e+00 -2.364014e+00 -5.630651e+00 1.203613e+00 -3.325088e+00 1.502934e+01 3.785140e-01 6.176212e-01 8.696837e-01 -5.284452e-01 -2.475452e-01 -3.224716e-01 -4.487448e-01 -1.669857e-01 7.079770e-02 -2.063810e-02 -2.083870e-01 -3.012349e-01 2.988693e-01 2.883505e-01 4.878816e-02 2.961080e-01 -1.359936e-01 -1.711550e-01 -2.178944e-01 -1.049600e-01 -1.176905e-01 -2.003242e-02 4.819951e-03 -7.814589e-02 -1.605036e-01 8.591924e-02
<VARIANCE> 39
 8.526368e+00 8.519477e+00 1.240560e+01 1.242254e+01 1.835674e+01 2.244914e+01 1.891445e+01 2.122775e+01 2.057554e+01 2.299813e+01 2.412319e+01 1.927864e+01 9.111878e-01 1.398540e+00 5.485299e-01 1.372391e+00 8.190259e-01 1.314329e+00 1.273304e+00 9.641238e-01 1.181034e+00 1.134604e+00 1.270286e+00 1.749020e+00 1.063623e+00 6.953119e-02 1.242426e-01 1.131823e-01 1.273245e-01 1.282500e-01 2.375742e-01 2.027899e-01 1.728818e-01 2.181813e-01 2.175152e-01 1.938700e-01 3.437155e-01 1.549917e-01 8.054789e-03
<GCONST> 7.843308e+01
<STATE> 3
<MEAN> 39
 -4.650608e+00 1.227893e+00 1.848784e+00 -1.542335e+01 -6.802548e+00 -9.843886e+00 -6.678079e+00 -1.048501e+01 -2.476807e+00 -5.215490e+00 -1.103238e+00 -7.257566e+00 1.836689e+01 6.927989e-01 5.807954e-01 7.995626e-01 -5.904610e-01 -1.201833e+00 -1.140340e+00 -6.042589e-01 -3.037973e-01 -6.974739e-02 1.186424e-01 -2.486014e-01 -6.672596e-01 4.713044e-01 -2.535189e-01 -2.296272e-01 -4.307443e-01 2.931125e-01 2.569863e-01 2.235322e-01 2.360809e-01 1.516090e-01 -1.384808e-02 -2.275660e-03 1.508387e-01 1.810740e-01 -1.418711e-01
<VARIANCE> 39
 7.423918e+00 8.102031e+00 1.367012e+01 2.250361e+01 4.004849e+01 2.586488e+01 2.814907e+01 2.420543e+01 3.107327e+01 5.442167e+01 4.331221e+01 4.772478e+01 1.098412e+00 5.791647e-01 6.200276e-01 9.723780e-01 1.428213e+00 1.261421e+00 1.160113e+00 1.654960e+00 1.525586e+00 1.882003e+00 2.021648e+00 2.467494e+00 1.852407e+00 8.503446e-02 6.073462e-02 5.581276e-02 8.113925e-02 1.285123e-01 2.110114e-01 1.811853e-01 2.036576e-01 1.909388e-01 2.126119e-01 2.711475e-01 2.888281e-01 2.210240e-01 7.083444e-03
<GCONST> 8.381699e+01
<STATE> 4
<MEAN> 39
 -3.090344e+00 -1.973897e-01 -1.468237e-01 -1.316972e+01 -6.924406e+00 -1.164781e+01 -5.793048e+00 -9.826695e+00 -2.907760e+00 -5.481342e+00 -1.908551e-01 -7.493614e+00 1.815989e+01 1.043186e-01 -2.620738e-01 -2.862665e-01 5.151678e-01 3.833011e-01 1.994767e-01 2.055726e-01 3.263408e-03 -1.132696e-01 -3.888273e-02 1.228040e-01 1.993209e-01 -1.534117e-01 -7.083173e-02 -5.602324e-02 -3.719768e-02 1.081382e-02 9.856623e-02 1.431395e-01 8.445733e-02 2.359570e-02 2.298939e-02 5.770281e-03 -5.911274e-03 5.022477e-02 -4.320863e-02
<VARIANCE> 39
 6.120174e+00 8.101595e+00 1.241553e+01 2.974079e+01 3.246408e+01 2.212501e+01 3.265428e+01 3.332735e+01 4.005278e+01 4.301469e+01 5.269586e+01 4.140377e+01 1.407721e+00 1.973154e-01 1.926131e-01 4.001487e-01 6.549883e-01 9.271360e-01 1.033062e+00 1.006724e+00 1.126171e+00 1.000817e+00 1.087119e+00 1.106070e+00 1.033161e+00 2.666809e-02 2.811134e-02 3.084615e-02 5.489803e-02 9.155994e-02 1.094842e-01 1.386250e-01 1.414308e-01 1.711490e-01 1.639463e-01 1.656656e-01 1.636499e-01 1.562512e-01 2.925918e-03
<GCONST> 6.925101e+01
<TRANSP> 5
 0.000000e+00 1.000000e+00 0.000000e+00 0.000000e+00 0.000000e+00
 0.000000e+00 8.364284e-01 1.635716e-01 0.000000e+00 0.000000e+00
 0.000000e+00 0.000000e+00 7.626858e-01 2.373141e-01 0.000000e+00
 0.000000e+00 0.000000e+00 0.000000e+00 9.142573e-01 8.574264e-02
 0.000000e+00 0.000000e+00 0.000000e+00 0.000000e+00 0.000000e+00
<ENDHMM>
~h "nine"
<BEGINHMM>
<NUMSTATES> 5
<STATE> 2
<MEAN> 39
 -4.476911e+00 -4.276628e+00 -2.051706e+00 -8.963307e+00 -2.949090e+00 -6.160038e+00 -1.531211e+00 -1.110074e+01 -4.996721e+00 -8.031636e+00 -2.860833e+00 -7.760087e+00 1.751208e+01 -1.331123e-01 -6.590575e-01 -2.146606e-01 4.818722e-01 -4.877086e-01 1.829932e-01 3.770009e-01 -1.982381e-01 -4.846648e-02 -1.577929e-01 -1.853614e-01 -1.349922e-01 2.482142e-01 -3.674347e-02 -1.256917e-01 -7.343704e-02 1.175184e-01 1.368927e-02 -9.737005e-03 4.029833e-02 2.686422e-02 8.620972e-03 3.621056e-03 7.247753e-02 3.282432e-02 -8.122530e-03
<VARIANCE> 39
 8.935551e+00 1.979810e+01 1.547598e+01 1.667082e+01 2.856665e+01 2.886468e+01 3.184485e+01 2.742806e+01 4.722229e+01 3.531041e+01 3.014167e+01 3.248523e+01 2.385312e+00 5.368083e-01 1.572295e+00 1.163257e+00 1.100313e+00 1.145107e+00 1.437607e+00 1.642803e+00 1.279066e+00 1.533052e+00 1.144008e+00 1.229183e+00 1.033110e+00 3.777988e-02 6.560484e-02 1.785176e-01 1.355547e-01 1.393833e-01 2.023332e-01 2.202239e-01 2.429469e-01 1.844242e-01 2.010731e-01 1.627920e-01 1.761880e-01 1.455120e-01 5.083612e-03
<GCONST> 8.291390e+01
<STATE> 3
<MEAN> 39
 -6.321638e+00 -1.160524e+01 -4.876911e+00 -2.673131e+00 -5.687632e+00 -5.287493e+00 1.766731e+00 -1.132287e+01 -5.582431e+00 -9.003812e+00 -1.675494e+00 -7.665960e+00 1.861105e+01 -1.101672e-01 9.251761e-02 2.334300e-01 -2.380321e-01 -2.904234e-02 2.154799e-01 -9.752712e-02 -9.182199e-02 1.933954e-01 5.814852e-02 -5.438932e-02 4.269665e-02 -2.139919e-02 7.034626e-04 1.915745e-01 7.091821e-02 -2.417178e-01 4.186569e-02 6.658912e-02 -1.057875e-01 8.186810e-03 7.779493e-02 -1.050171e-02 -7.103618e-02 2.448234e-02 -1.455393e-02
<VARIANCE> 39
 7.252976e+00 8.571757e+00 2.452288e+01 3.205400e+01 1.892662e+01 3.065515e+01 3.083245e+01 3.405509e+01 4.356228e+01 4.170489e+01 2.831588e+01 3.053686e+01 1.016236e+00 8.295059e-02 3.676997e-01 4.056929e-01 1.104296e+00 4.877582e-01 6.204044e-01 5.475445e-01 5.085549e-01 6.416808e-01 6.635946e-01 6.743131e-01 5.381749e-01 4.772606e-03 1.100420e-02 2.990227e-02 4.069857e-02 5.484159e-02 7.173130e-02 7.061266e-02 7.368998e-02 7.993520e-02 8.172963e-02 8.668278e-02 7.810535e-02 7.902180e-02 3.958668e-04
<GCONST> 5.368233e+01
<STATE> 4
<MEAN> 39
 -5.647600e+00 -2.639475e+00 -1.424941e+00 -1.177601e+01 -1.610845e+00 -5.223190e+00 -3.606857e+00 -1.030395e+01 -3.171656e+00 -8.128929e+00 -3.019999e+00 -6.505509e+00 1.783286e+01 3.531476e-01 6.773137e-01 1.072024e-01 -1.390664e-01 4.894943e-01 -3.819114e-01 -3.452136e-01 2.584881e-01 -2.023236e-01 5.603390e-02 1.528873e-01 6.768144e-02 -1.382298e-01 -3.830697e-03 -1.488299e-01 -6.521561e-02 1.886885e-01 -2.365184e-02 -9.953352e-03 1.230094e-01 -6.334727e-03 -7.210790e-02 3.196291e-02 8.554842e-02 -1.458949e-02 -1.772919e-02
<VARIANCE> 39
 1.223318e+01 1.762929e+01 1.174028e+01 2.304422e+01 3.323016e+01 3.435306e+01 3.175346e+01 3.054538e+01 4.899646e+01 3.954541e+01 3.831123e+01 4.231802e+01 1.058848e+00 4.042648e-01 1.017377e+00 5.683247e-01 1.789308e+00 1.336583e+00 1.429555e+00 1.430604e+00 1.289927e+00 1.612759e+00 1.140896e+00 1.083244e+00 1.032871e+00 1.323371e-02 6.973622e-02 9.188670e-02 9.071188e-02 1.645662e-01 1.862068e-01 2.509851e-01 1.807913e-01 2.057729e-01 2.454970e-01 1.964114e-01 1.785885e-01 1.438857e-01 1.965196e-03
<GCONST> 7.983661e+01
<TRANSP> 5
 0.000000e+00 1.000000e+00 0.000000e+00 0.000000e+00 0.000000e+00
 0.000000e+00 8.975055e-01 1.024945e-01 0.000000e+00 0.000000e+00
 0.000000e+00 0.000000e+00 9.143406e-01 8.565939e-02 0.000000e+00
 0.000000e+00 0.000000e+00 0.000000e+00 9.089655e-01 9.103451e-02
 0.000000e+00 0.000000e+00 0.000000e+00 0.000000e+00 0.000000e+00
<ENDHMM>
~h "five"
<BEGINHMM>
<NUMSTATES> 5
<STATE> 2
<MEAN> 39
 -4.419333e+00 -1.102098e+01 -9.771626e+00 -8.437192e+00 3.511969e-01 -7.867299e+00 3.371139e-01 -4.891423e+00 -5.039366e+00 -7.819657e+00 -1.606917e+00 -4.818922e+00 1.776333e+01 4.144041e-01 -1.157496e+00 -7.426547e-01 7.392644e-01 4.982069e-01 -6.580397e-01 3.025033e-01 4.381240e-01 -7.269098e-01 -2.472179e-01 -3.286339e-01 -2.023737e-02 5.745212e-01 -1.694420e-01 -1.376389e-03 1.419808e-01 9.796237e-02 -1.787803e-03 8.341374e-02 3.244318e-02 -1.802465e-01 6.649131e-03 1.217401e-01 1.348678e-01 4.589124e-02 -5.887721e-02
<VARIANCE> 39
 1.145177e+01 1.971395e+01 2.376633e+01 1.627548e+01 1.853362e+01 2.099364e+01 2.470764e+01 5.039579e+01 3.201371e+01 2.728516e+01 2.458044e+01 1.964041e+01 4.743443e+00 7.833561e-01 5.615022e-01 1.122394e+00 9.160026e-01 7.874571e-01 9.735500e-01 9.898150e-01 2.299981e+00 1.711739e+00 1.696611e+00 1.340376e+00 1.022139e+00 1.191983e-01 1.007249e-01 1.367336e-01 1.925911e-01 1.208318e-01 1.339057e-01 1.503217e-01 1.554128e-01 3.090749e-01 2.720546e-01 2.004164e-01 1.843744e-01 1.400154e-01 3.057645e-02
<GCONST> 8.463108e+01
<STATE> 3
<MEAN> 39
 -5.818457e+00 -1.542903e+01 -8.512728e+00 -3.722820e+00 1.404680e+00 -9.076597e+00 2.518202e+00 -7.550545e+00 -7.221675e+00 -5.437788e+00 -5.043064e-01 -4.529099e+00 1.904479e+01 -1.651663e-01 9.501640e-02 4.912252e-01 -2.759391e-01 -2.729076e-01 4.484498e-01 6.644829e-02 -3.937054e-01 3.514440e-02 2.906418e-01 5.508837e-02 -7.887138e-02 -4.891799e-02 4.095091e-02 1.187442e-01 1.093292e-02 -1.974401e-01 -5.701385e-02 8.866452e-02 -2.969563e-02 2.918470e-02 5.966417e-02 -5.273802e-02 -7.510427e-02 -1.883305e-02 -1.574876e-02
<VARIANCE> 39
 9.161821e+00 9.440223e+00 2.497236e+01 2.098121e+01 1.886212e+01 2.338578e+01 1.762951e+01 3.953495e+01 4.768237e+01 4.455236e+01 2.689743e+01 2.546807e+01 1.374743e+00 9.067455e-02 1.657339e-01 2.732164e-01 6.820226e-01 5.154683e-01 5.717050e-01 5.074571e-01 5.072861e-01 6.279238e-01 5.993181e-01 5.886366e-01 4.788467e-01 5.984771e-03 1.186714e-02 2.499136e-02 3.091739e-02 4.888303e-02 5.189128e-02 5.267844e-02 5.808894e-02 6.583907e-02 8.963621e-02 8.620033e-02 6.827880e-02 7.109985e-02 9.714573e-04
<GCONST> 5.051053e+01
<STATE> 4
<MEAN> 39
 -5.450489e+00 -8.769863e+00 -3.765095e+00 -1.404922e+01 -3.543651e+00 -3.292008e+00 1.579362e+00 -8.155419e+00 -4.050663e+00 -5.407088e+00 -2.250887e+00 -5.749055e+00 1.819710e+01 1.827957e-01 1.181319e+00 3.716883e-01 -4.616227e-01 -3.423629e-01 -1.628603e-01 -3.397798e-01 2.070936e-01 5.163858e-01 -1.627266e-01 -6.941419e-03 -6.068896e-02 -2.708239e-01 -4.652335e-02 -5.666589e-02 -7.548568e-02 3.485820e-01 1.727389e-01 -1.286402e-01 -4.077477e-02 -3.040332e-02 -5.061891e-02 2.332702e-02 1.245210e-01 5.683783e-02 -5.150697e-02
<VARIANCE> 39
 8.137256e+00 2.408192e+01 1.228363e+01 2.946415e+01 4.144254e+01 2.275907e+01 2.537665e+01 3.531212e+01 4.935386e+01 2.792640e+01 2.702053e+01 3.051326e+01 1.802538e+00 2.402992e-01 5.313569e-01 5.733093e-01 2.831352e+00 1.508264e+00 1.527681e+00 9.838429e-01 1.389698e+00 1.687965e+00 1.325927e+00 1.266535e+00 9.766942e-01 4.917530e-02 5.004998e-02 1.003805e-01 8.383644e-02 2.230109e-01 2.267286e-01 2.613990e-01 1.714049e-01 2.220473e-01 2.143746e-01 1.803054e-01 2.053974e-01 1.704719e-01 4.175957e-03
<GCONST> 8.115536e+01
<TRANSP> 5
 0.000000e+00 1.000000e+00 0.000000e+00 0.000000e+00 0.000000e+00
 0.000000e+00 8.550233e-01 1.449768e-01 0.000000e+00 0.000000e+00
 0.000000e+00 0.000000e+00 9.149377e-01 8.506229e-02 0.000000e+00
 0.000000e+00 0.000000e+00 0.000000e+00 8.712553e-01 1.287446e-01
 0.000000e+00 0.000000e+00 0.000000e+00 0.000000e+00 0.000000e+00
<ENDHMM>
~h "four"
<BEGINHMM>
<NUMSTATES> 5
<STATE> 2
<MEAN> 39
 -6.915510e+00 -6.631812e+00 -5.497381e+00 -9.728863e+00 -1.555543e+00 -5.449307e+00 -1.126664e+00 -8.327931e+00 -2.003059e+00 -5.537822e+00 1.025215e+00 -4.253306e+00 1.529401e+01 1.517640e+00 5.179927e-01 -8.557741e-01 -8.054727e-01 -2.959392e-01 -5.246450e-01 -6.777245e-01 -1.816806e-01 2.039182e-01 1.961143e-01 -3.263950e-01 -4.731502e-01 6.231037e-01 3.632933e-01 1.303513e-01 -3.386643e-01 -3.181480e-01 -6.069203e-02 -1.876609e-02 -9.122118e-02 -2.505722e-02 3.137117e-03 5.518727e-02 -8.071306e-02 -1.296657e-01 1.475847e-01
<VARIANCE> 39
 6.825650e+00 5.233920e+00 5.509588e+00 7.751755e+00 1.003767e+01 1.243955e+01 1.471142e+01 1.373365e+01 1.610897e+01 1.339645e+01 1.595428e+01 1.211879e+01 1.641319e+00 5.512509e-01 4.260280e-01 6.248171e-01 7.500671e-01 6.972341e-01 9.034959e-01 7.500855e-01 8.186534e-01 9.756988e-01 1.053313e+00 1.491036e+00 1.179143e+00 6.423653e-02 6.300386e-02 5.384819e-02 6.045624e-02 8.287269e-02 1.006693e-01 1.543257e-01 1.213434e-01 1.557754e-01 1.423886e-01 1.603599e-01 1.973437e-01 1.875187e-01 6.502899e-03
<GCONST> 6.374021e+01
<STATE> 3
<MEAN> 39
 1.581160e+00 -3.473098e+00 -1.211899e+01 -1.702964e+01 -4.007867e+00 -6.210260e+00 -3.177742e+00 -8.959031e+00 -1.421924e+00 -3.880595e+00 4.305910e-01 -6.755987e+00 1.890154e+01 3.085756e-01 -1.813049e-01 -3.265027e-01 -4.195458e-02 7.503531e-02 -1.511998e-02 -2.210914e-01 1.733233e-01 3.521360e-01 9.511872e-02 -2.256184e-01 -2.228584e-01 1.440863e-01 -1.734033e-01 -1.528612e-01 1.482397e-01 2.335551e-01 3.910716e-02 -3.385734e-02 3.933318e-02 1.097376e-01 4.780856e-02 -8.427672e-02 -5.580986e-02 5.534277e-02 -6.741529e-02
<VARIANCE> 39
 4.152857e+00 1.026190e+01 9.770185e+00 1.374473e+01 2.450383e+01 1.711521e+01 1.848405e+01 1.714038e+01 2.356820e+01 2.472449e+01 3.800536e+01 3.737812e+01 1.098011e+00 5.372303e-01 7.281397e-01 6.918620e-01 1.221142e+00 9.760422e-01 7.753724e-01 9.081862e-01 9.527165e-01 1.314319e+00 1.178955e+00 1.352046e+00 1.243161e+00 9.541435e-02 4.921367e-02 4.572054e-02 9.545747e-02 8.033965e-02 1.355216e-01 1.428181e-01 1.554859e-01 1.401084e-01 1.809441e-01 1.918118e-01 2.011759e-01 1.861791e-01 7.149785e-03
<GCONST> 7.259890e+01
<STATE> 4
<MEAN> 39
 -4.825964e-01 -1.088266e+01 -7.418561e+00 -8.716646e+00 -5.543181e+00 -8.659220e+00 -2.199194e+00 -4.865469e+00 2.484829e-01 -7.574782e+00 -3.876559e+00 -7.416317e+00 1.845052e+01 -5.785434e-01 7.978498e-02 1.092875e+00 4.817449e-01 -4.011719e-01 5.162323e-02 5.787261e-01 -2.005057e-01 -6.392053e-01 -3.567864e-01 1.273569e-01 2.733775e-01 -2.272170e-01 -8.454659e-02 2.576839e-01 -3.297246e-02 -1.870791e-01 1.369310e-01 1.837276e-01 1.862041e-02 -1.921906e-01 -1.312632e-01 1.077186e-01 1.737904e-01 4.347485e-02 -5.024773e-02
<VARIANCE> 39
 7.378286e+00 1.649965e+01 3.095287e+01 1.966034e+01 4.537259e+01 3.933156e+01 3.458709e+01 4.315753e+01 4.725568e+01 3.537455e+01 3.461694e+01 3.169015e+01 1.627247e+00 2.483892e-01 1.598120e+00 8.049862e-01 1.635252e+00 2.454455e+00 2.196614e+00 1.713908e+00 2.526375e+00 1.835147e+00 1.676479e+00 1.784223e+00 1.104330e+00 4.901338e-02 2.943968e-02 1.170511e-01 1.988743e-01 1.801094e-01 4.215398e-01 3.097736e-01 3.493666e-01 3.607861e-01 3.784988e-01 2.789347e-01 3.040189e-01 2.144648e-01 3.232237e-03
<GCONST> 9.006207e+01
<TRANSP> 5
 0.000000e+00 1.000000e+00 0.000000e+00 0.000000e+00 0.000000e+00
 0.000000e+00 7.097443e-01 2.902557e-01 0.000000e+00 0.000000e+00
 0.000000e+00 0.000000e+00 9.190006e-01 8.099938e-02 0.000000e+00
 0.000000e+00 0.000000e+00 0.000000e+00 8.818864e-01 1.181137e-01
 0.000000e+00 0.000000e+00 0.000000e+00 0.000000e+00 0.000000e+00
<ENDHMM>
~h "zero"
<BEGINHMM>
<NUMSTATES> 5
<STATE> 2
<MEAN> 39
 -6.678966e+00 -2.180475e+00 -4.495828e+00 -7.605282e+00 -2.129665e+00 -4.553122e+00 -2.370197e+00 -8.735190e+00 -3.604409e+00 -4.554158e+00 4.114155e-01 -4.483383e+00 1.546382e+01 2.259724e-01 9.199240e-01 7.963315e-01 -8.512417e-01 -6.400537e-01 -1.096755e+00 -5.061305e-01 -4.579073e-01 2.524935e-01 2.611244e-01 -9.281786e-02 -1.953866e-01 3.988692e-01 2.779357e-02 8.113863e-02 1.538031e-01 -2.957697e-01 -1.462182e-01 -2.017569e-01 -1.129031e-02 -2.939492e-02 1.330277e-01 9.131435e-03 9.603336e-03 -7.387909e-02 7.608691e-02
<VARIANCE> 39
 7.500567e+00 1.160819e+01 1.654637e+01 1.411544e+01 2.069986e+01 2.132139e+01 1.980811e+01 2.002694e+01 2.845558e+01 2.366329e+01 2.242020e+01 1.939658e+01 1.443460e+00 3.850594e-01 5.177988e-01 9.027103e-01 1.182350e+00 9.090576e-01 1.584567e+00 1.049363e+00 1.217262e+00 1.320024e+00 9.397079e-01 1.175868e+00 1.431643e+00 7.606708e-02 5.589543e-02 1.028805e-01 1.414945e-01 1.171026e-01 1.274882e-01 2.084333e-01 1.685695e-01 1.907205e-01 1.705912e-01 1.439365e-01 1.795661e-01 1.714429e-01 8.514379e-03
<GCONST> 7.556978e+01
<STATE> 3
<MEAN> 39
 -5.541189e+00 1.597902e-01 9.784049e-01 -1.687837e+01 -8.053567e+00 -9.070950e+00 -4.538143e+00 -8.502061e+00 1.855457e-01 -3.742207e+00 1.608967e-01 -6.824811e+00 1.841947e+01 3.433254e-01 -7.496101e-01 4.270451e-01 -1.387866e-01 -1.089312e+00 2.404959e-01 2.313371e-01 1.829683e-01 3.147096e-01 -7.702985e-02 3.827779e-02 -1.188957e-01 1.658980e-01 4.946806e-02 -2.597680e-01 -1.766646e-01 3.628505e-01 2.577127e-02 1.237723e-01 1.919291e-01 6.299298e-02 -8.870959e-02 -4.403066e-02 -1.240282e-02 7.070840e-02 -6.313084e-02
<VARIANCE> 39
 7.399492e+00 2.167113e+01 1.731077e+01 2.678815e+01 6.065425e+01 4.164071e+01 3.201496e+01 4.415098e+01 3.108646e+01 3.016191e+01 3.405778e+01 5.067490e+01 1.084283e+00 4.412967e-01 1.624771e+00 8.238391e-01 2.671916e+00 1.720985e+00 2.535376e+00 1.721734e+00 1.442364e+00 1.338575e+00 1.168913e+00 1.098498e+00 1.318242e+00 6.340037e-02 5.090394e-02 1.159482e-01 1.246966e-01 1.815778e-01 2.492673e-01 4.126489e-01 2.241328e-01 2.465969e-01 2.118572e-01 1.741761e-01 1.713642e-01 2.153723e-01 4.553064e-03
<GCONST> 8.717747e+01
<STATE> 4
<MEAN> 39
 -1.540430e+00 -1.000710e+01 -4.727007e+00 -9.897540e+00 -9.102797e+00 -8.305246e+00 1.353049e-01 -4.291261e+00 -2.197504e-01 -6.684343e+00 -1.035427e+00 -5.802812e+00 1.847680e+01 2.536376e-02 8.318611e-02 -4.234954e-01 1.747029e-01 6.633627e-01 -9.234329e-02 -1.631056e-02 9.412500e-02 -1.283050e-01 -1.085673e-01 -6.141588e-02 1.885729e-02 -8.566801e-02 -7.482008e-02 1.093893e-01 6.579985e-02 -7.128047e-02 8.336104e-02 7.106251e-02 -6.666681e-02 -6.861917e-02 -2.634773e-02 2.640627e-02 2.351949e-02 1.412678e-03 -2.304584e-02
<VARIANCE> 39
 6.296356e+00 1.998764e+01 2.593604e+01 2.583620e+01 6.128439e+01 5.147408e+01 3.775878e+01 3.636415e+01 4.415152e+01 3.554194e+01 2.581828e+01 3.280519e+01 1.501664e+00 2.480130e-01 8.161381e-01 7.740716e-01 9.790075e-01 1.208859e+00 1.701613e+00 1.515980e+00 1.881472e+00 1.622625e+00 1.436532e+00 1.039281e+00 9.300417e-01 2.797205e-02 2.714073e-02 4.621085e-02 7.837945e-02 1.140151e-01 1.857501e-01 2.294713e-01 2.006576e-01 1.992557e-01 2.225560e-01 1.941421e-01 1.535601e-01 1.410855e-01 2.329775e-03
<GCONST> 7.912874e+01
<TRANSP> 5
 0.000000e+00 1.000000e+00 0.000000e+00 0.000000e+00 0.000000e+00
 0.000000e+00 7.873409e-01 2.126591e-01 0.000000e+00 0.000000e+00
 0.000000e+00 0.000000e+00 8.943526e-01 1.056475e-01 0.000000e+00
 0.000000e+00 0.000000e+00 0.000000e+00 9.448122e-01 5.518774e-02
 0.000000e+00 0.000000e+00 0.000000e+00 0.000000e+00 0.000000e+00
<ENDHMM>
