~o
<STREAMINFO> 1 39
<VECSIZE> 39<NULLD><MFCC_E_D_A><DIAGC>
~s "silst"
<MEAN> 39
 -5.085786e+00 -3.737326e+00 -3.205143e+00 -8.837995e+00 -1.241804e+00 -5.746458e+00 -1.826867e+00 -9.464784e+00 -3.497434e+00 -6.419978e+00 -3.622417e-01 -5.632114e+00 1.585677e+01 -6.626965e-01 -4.417536e-01 -4.517998e-01 1.683193e-01 3.069210e-01 7.057455e-01 3.760450e-01 1.104456e-01 1.448018e-01 1.514179e-01 3.332062e-01 3.706574e-01 -3.626089e-01 -2.681397e-02 -6.992803e-02 -1.095608e-01 -1.275187e-01 -9.687502e-02 -7.265690e-02 6.116526e-04 7.269146e-02 3.783201e-02 9.398858e-03 -1.481208e-02 4.124753e-03 2.654502e-02
<VARIANCE> 39
 1.127549e+01 1.071855e+01 1.346479e+01 1.340660e+01 2.076662e+01 2.466961e+01 2.383463e+01 2.472764e+01 2.790918e+01 2.727404e+01 2.580338e+01 2.359208e+01 2.019752e+00 3.749234e-01 7.426358e-01 8.195485e-01 8.108828e-01 1.143988e+00 1.287747e+00 1.254596e+00 1.299798e+00 1.408971e+00 1.271306e+00 1.246111e+00 1.113654e+00 5.125209e-02 6.984089e-02 1.001292e-01 1.067239e-01 1.139584e-01 1.560680e-01 2.203466e-01 1.943500e-01 1.871822e-01 2.098263e-01 1.843008e-01 1.820515e-01 1.530728e-01 9.213964e-03
<GCONST> 7.758765e+01
~h "eight"
<BEGINHMM>
<NUMSTATES> 5
<STATE> 2
<MEAN> 39
 -8.246667e+00 -2.957837e+00 -5.891161e+00 -1.828782e+01 2.116324e-01 -4.916654e+00 8.343920e-01 -6.799780e+00 -1.596016e+00 -7.453368e+00 -1.735752e+00 -5.732046e+00 1.742360e+01 -1.716638e-01 1.037539e+00 -1.018288e-01 -1.061723e+00 -4.275141e-02 -5.848877e-01 8.708119e-02 4.710905e-01 3.878478e-01 -1.021925e-02 -1.760334e-01 -2.417926e-01 3.315423e-01 2.973388e-02 8.796167e-02 5.986135e-03 1.457068e-01 -6.153559e-02 -1.932900e-01 -8.386736e-02 -1.866414e-02 2.322276e-02 9.369574e-02 1.163007e-01 -1.035450e-04 -1.833706e-02
<VARIANCE> 39
 7.976844e+00 2.043369e+01 1.888058e+01 3.151342e+01 4.202282e+01 2.226897e+01 2.490520e+01 2.276786e+01 3.074377e+01 2.351233e+01 2.471211e+01 2.559806e+01 3.258448e+00 3.431001e-01 7.502903e-01 6.391252e-01 1.273864e+00 1.188445e+00 1.357693e+00 1.451028e+00 9.930352e-01 1.347708e+00 1.118139e+00 1.075785e+00 9.613022e-01 1.022388e-01 4.196549e-02 7.999276e-02 7.528221e-02 1.932960e-01 1.372148e-01 1.690318e-01 1.487881e-01 1.686080e-01 2.268948e-01 1.636597e-01 1.698276e-01 1.471594e-01 1.294668e-02
<GCONST> 7.929448e+01
<STATE> 3
<MEAN> 39
 -8.392678e+00 5.782065e+00 -5.518881e+00 -1.923091e+01 -2.891891e+00 -1.376189e+01 -1.646849e+00 -5.955908e+00 7.392268e-01 -4.022118e+00 7.668722e-01 -5.690233e+00 1.854655e+01 1.009876e-01 5.014266e-01 2.031044e-01 8.285037e-01 -1.126194e-02 -9.355711e-01 -6.089219e-01 -8.134230e-01 -3.609561e-01 3.264112e-01 4.635805e-01 2.255605e-01 -7.223509e-02 4.929288e-02 -2.812448e-01 2.281130e-02 1.887723e-01 8.654469e-02 2.726268e-01 2.111641e-02 -1.581569e-01 -1.936029e-01 -1.402096e-01 -7.190162e-02 3.676362e-02 -6.156110e-02
<VARIANCE> 39
 1.001370e+01 1.131201e+01 2.485779e+01 2.641493e+01 2.097033e+01 2.362322e+01 5.648119e+01 2.709532e+01 2.951187e+01 2.182647e+01 3.271402e+01 2.504240e+01 1.478102e+00 1.825102e-01 5.046458e-01 2.621635e-01 6.243363e-01 8.219550e-01 1.014007e+00 7.491680e-01 8.230225e-01 1.769674e+00 1.023048e+00 1.189262e+00 8.483912e-01 2.528447e-02 2.770330e-02 7.069911e-02 4.940496e-02 9.894552e-02 8.104908e-02 1.525674e-01 1.404562e-01 1.338456e-01 1.672680e-01 1.385745e-01 1.857185e-01 1.362191e-01 3.379710e-03
<GCONST> 6.900961e+01
<STATE> 4
<MEAN> 39
 -6.983075e+00 1.115259e+00 -4.081382e+00 -1.221208e+01 -1.203721e+00 -1.172180e+01 -4.080274e+00 -1.160476e+01 -4.450312e+00 -5.781607e+00 8.157350e-01 -4.550463e+00 1.652173e+01 2.181530e-01 -1.855073e+00 -1.696160e-04 8.876859e-01 2.209001e-01 1.603537e+00 3.199585e-01 -2.976127e-02 -3.279335e-01 -3.987021e-01 -1.448973e-01 9.625074e-02 -4.692845e-01 -7.014757e-02 -1.002800e-01 -9.851366e-02 -1.305387e-01 -4.591229e-02 1.600907e-01 1.925986e-01 2.725632e-01 2.060882e-01 6.444961e-02 2.209508e-02 -3.131897e-02 -6.502234e-03
<VARIANCE> 39
 6.051342e+00 3.356971e+01 1.485790e+01 1.933298e+01 1.614338e+01 3.817725e+01 3.281847e+01 2.462097e+01 3.945702e+01 2.739769e+01 2.593312e+01 2.417240e+01 2.807348e+00 3.507860e-01 7.449755e-01 6.178263e-01 1.035083e+00 6.515123e-01 1.245492e+00 1.758108e+00 1.480858e+00 2.021445e+00 1.219306e+00 1.376258e+00 1.140290e+00 3.566369e-02 4.192006e-02 2.588436e-01 6.977662e-02 1.186239e-01 9.771571e-02 3.266709e-01 1.809930e-01 1.962756e-01 2.997634e-01 1.796548e-01 1.978904e-01 1.934132e-01 1.055263e-02
<GCONST> 8.037081e+01
<TRANSP> 5
 0.000000e+00 1.000000e+00 0.000000e+00 0.000000e+00 0.000000e+00
 0.000000e+00 8.666535e-01 1.333465e-01 0.000000e+00 0.000000e+00
 0.000000e+00 0.000000e+00 8.552374e-01 1.447626e-01 0.000000e+00
 0.000000e+00 0.000000e+00 0.000000e+00 8.207560e-01 1.792440e-01
 0.000000e+00 0.000000e+00 0.000000e+00 0.000000e+00 0.000000e+00
<ENDHMM>
~h "oh"
<BEGINHMM>
<NUMSTATES> 5
<STATE> 2
<MEAN> 39
 -4.346305e+00 -1.038617e+01 -8.319391e+00 -8.571264e+00 -2.647131e+00 -7.668423e+00 3.613191e+00 -7.394821e+00 -5.273110e+00 -7.113125e+00 -2.459282e+00 -5.435220e+00 1.783452e+01 5.452268e-01 -2.031137e-01 -6.061368e-01 1.688034e-01 9.485286e-02 -6.937581e-01 1.408792e-01 7.359782e-01 -1.441558e-02 -4.296384e-01 -4.091604e-01 -1.484224e-01 3.492480e-01 9.206279e-03 1.044000e-01 3.540550e-03 -5.295013e-02 3.919633e-02 -9.427588e-03 -1.537287e-01 7.481515e-03 1.331855e-01 2.632426e-02 -8.768279e-03 -2.713430e-02 -2.236571e-02
<VARIANCE> 39
 8.684726e+00 1.229754e+01 1.668989e+01 1.815233e+01 2.301126e+01 2.457990e+01 3.069559e+01 6.491125e+01 3.840197e+01 3.412225e+01 2.703955e+01 3.154071e+01 2.976637e+00 2.955951e-01 5.771136e-01 6.283458e-01 6.364019e-01 6.817965e-01 9.323567e-01 1.328552e+00 1.778657e+00 1.552258e+00 1.255232e+00 1.250255e+00 1.045946e+00 9.601007e-02 3.974978e-02 6.258027e-02 7.476921e-02 7.922215e-02 9.145387e-02 1.296142e-01 1.553346e-01 2.151210e-01 1.863980e-01 1.963602e-01 1.843133e-01 1.400727e-01 1.323037e-02
<GCONST> 7.707931e+01
<STATE> 3
<MEAN> 39
 -5.695276e-01 -8.240175e+00 -1.318325e+01 -9.931795e+00 -6.943687e-01 -1.204593e+01 -8.151076e-01 -7.749762e-01 1.405825e-01 -8.229077e+00 -5.129758e+00 -6.598123e+00 1.903633e+01 2.228888e-01 4.046906e-01 -2.764877e-02 -3.477809e-01 -3.617195e-02 -2.777060e-03 -6.740819e-01 -2.469691e-01 6.655089e-01 6.050197e-01 -3.221130e-02 -3.518499e-01 -9.710709e-03 -4.121600e-02 2.429537e-02 1.012127e-01 -2.061167e-02 -5.740593e-02 9.284474e-02 1.184068e-02 -1.581831e-01 -8.143372e-02 9.156320e-02 1.213735e-01 1.124624e-02 -2.517900e-02
<VARIANCE> 39
 6.096070e+00 8.375393e+00 1.530440e+01 1.468539e+01 1.916638e+01 2.241544e+01 4.160877e+01 3.065877e+01 3.919754e+01 3.569313e+01 3.180883e+01 4.012885e+01 1.218476e+00 8.017907e-02 1.367393e-01 2.628765e-01 2.765302e-01 3.855424e-01 5.140759e-01 7.292562e-01 1.008535e+00 7.301498e-01 8.534878e-01 7.857830e-01 6.994886e-01 1.317286e-02 1.110292e-02 1.420853e-02 3.352835e-02 3.312540e-02 4.696314e-02 6.865367e-02 7.736269e-02 9.564588e-02 1.049852e-01 1.012714e-01 9.141748e-02 8.851288e-02 1.197380e-03
<GCONST> 5.208176e+01
<STATE> 4
<MEAN> 39
 1.793078e-01 -3.748025e+00 -9.930633e+00 -1.348592e+01 -3.321276e+00 -1.008135e+01 -4.948919e+00 -7.352007e+00 1.043813e+00 -2.363264e+00 -1.831567e-01 -7.006345e+00 1.844947e+01 -3.488311e-01 2.883404e-01 8.525542e-01 1.505836e-01 -2.193385e-01 3.721130e-01 2.098918e-01 -5.762743e-01 -5.868467e-01 -1.040993e-01 5.089680e-01 4.132406e-01 -2.309348e-01 -1.311594e-01 -1.055702e-01 5.190124e-02 1.420161e-01 1.060892e-01 8.462407e-02 1.854831e-01 8.485436e-02 -1.053007e-01 -1.823696e-01 -7.815018e-02 8.005976e-02 -4.432220e-02
<VARIANCE> 39
 6.293361e+00 7.040632e+00 1.859482e+01 1.556597e+01 1.893453e+01 2.847834e+01 3.127551e+01 2.747114e+01 3.058734e+01 3.711820e+01 3.965797e+01 3.648277e+01 1.764639e+00 2.388627e-01 3.548211e-01 4.248259e-01 5.881797e-01 6.864999e-01 8.703189e-01 1.177306e+00 1.224629e+00 1.196066e+00 1.307746e+00 1.200848e+00 1.026253e+00 3.052497e-02 2.296575e-02 3.297458e-02 6.560732e-02 6.527350e-02 9.793717e-02 1.570764e-01 1.654056e-01 1.873761e-01 2.027361e-01 1.906812e-01 1.711829e-01 1.630780e-01 2.734474e-03
<GCONST> 6.920450e+01
<TRANSP> 5
 0.000000e+00 1.000000e+00 0.000000e+00 0.000000e+00 0.000000e+00
 0.000000e+00 8.829320e-01 1.170680e-01 0.000000e+00 0.000000e+00
 0.000000e+00 0.000000e+00 8.920004e-01 1.079996e-01 0.000000e+00
 0.000000e+00 0.000000e+00 0.000000e+00 8.562431e-01 1.437569e-01
 0.000000e+00 0.000000e+00 0.000000e+00 0.000000e+00 0.000000e+00
<ENDHMM>
~h "sp"
<BEGINHMM>
<NUMSTATES> 5
<STATE> 2
~s "silst"
<STATE> 3
<MEAN> 39
 -7.756571e+00 -6.421471e+00 -6.103854e+00 -9.680760e+00 -1.379977e+00 -4.051631e+00 -6.688980e-01 -8.576252e+00 -2.836831e+00 -5.598396e+00 9.453294e-01 -4.059075e+00 1.480029e+01 -9.644336e-02 -1.452390e-02 -1.067305e-01 -6.303939e-04 -2.641476e-02 2.787686e-02 -7.878514e-03 3.363750e-02 1.639143e-03 1.737082e-02 3.157037e-02 3.923793e-02 -1.241814e-02 6.308036e-02 7.964180e-02 6.193749e-02 -1.335290e-02 -9.289412e-03 -5.837499e-02 -3.883235e-02 -1.882097e-02 -8.871198e-03 -1.599042e-02 -3.394085e-02 -3.330162e-02 4.410364e-02
<VARIANCE> 39
 5.403757e+00 6.006477e+00 8.670368e+00 1.022397e+01 1.438886e+01 1.551019e+01 1.556252e+01 1.665719e+01 1.759851e+01 1.644100e+01 1.600334e+01 1.380673e+01 1.091044e+00 1.617698e-01 2.423075e-01 3.669391e-01 4.373971e-01 5.708684e-01 6.831266e-01 6.530103e-01 7.238030e-01 7.456453e-01 6.608205e-01 6.565628e-01 5.707614e-01 7.590043e-03 3.375319e-02 5.441933e-02 7.276227e-02 9.172198e-02 1.145277e-01 1.433847e-01 1.320649e-01 1.440641e-01 1.472069e-01 1.255691e-01 1.258062e-01 1.148205e-01 4.141931e-03
<GCONST> 5.533506e+01
<STATE> 4
<MEAN> 39
 -8.430926e+00 -5.027948e+00 -6.251625e+00 -9.026787e+00 -1.924252e+00 -3.819617e+00 -9.676105e-01 -8.364977e+00 -2.934214e+00 -5.501945e+00 6.529190e-01 -4.111564e+00 1.506581e+01 3.733627e-01 1.758323e-01 1.471868e-01 -2.274758e-01 -2.824298e-01 -4.032509e-01 -3.382705e-02 7.517292e-02 -1.547001e-02 -4.303375e-02 -2.382318e-01 -1.207073e-01 2.680713e-01 2.207604e-01 6.566610e-03 5.289780e-02 -1.644744e-01 -1.651560e-01 -2.230957e-01 4.414034e-03 2.524059e-02 1.244968e-02 -1.291736e-03 -1.178610e-01 -9.217224e-02 1.237604e-01
<VARIANCE> 39
 1.155781e+01 1.131557e+01 1.690689e+01 1.542531e+01 1.891223e+01 1.837409e+01 1.801469e+01 1.998627e+01 2.150591e+01 1.982032e+01 1.879887e+01 1.702653e+01 1.499331e+00 6.093453e-01 5.389597e-01 8.047758e-01 8.675795e-01 1.043582e+00 1.078160e+00 9.250931e-01 1.255039e+00 1.080058e+00 1.018376e+00 9.693962e-01 8.102615e-01 6.129666e-02 7.012154e-02 1.105225e-01 1.687218e-01 1.527058e-01 2.060657e-01 1.948474e-01 1.780322e-01 2.303207e-01 2.100544e-01 1.854144e-01 1.798914e-01 1.620253e-01 8.895572e-03
<GCONST> 7.550517e+01
<TRANSP> 5
 0.000000e+00 8.224833e-01 1.775167e-01 0.000000e+00 0.000000e+00
 0.000000e+00 7.939693e-01 2.060307e-01 0.000000e+00 0.000000e+00
 0.000000e+00 0.000000e+00 8.547682e-01 1.452318e-01 0.000000e+00
 0.000000e+00 0.000000e+00 0.000000e+00 5.674027e-01 4.325973e-01
 0.000000e+00 0.000000e+00 0.000000e+00 0.000000e+00 0.000000e+00
<ENDHMM>
~h "seven"
<BEGINHMM>
<NUMSTATES> 5
<STATE> 2
<MEAN> 39
 -5.715315e+00 -4.283534e+00 -4.873816e+00 -1.370269e+01 -6.959068e+00 -6.911267e+00 1.945816e+00 -8.020707e+00 -1.500870e+00 -5.009139e+00 -2.860233e+00 -6.121624e+00 1.725828e+01 4.873560e-01 -2.577572e-01 2.521835e-01 -1.333831e+00 -8.056025e-01 -1.909843e-01 1.088228e+00 1.127213e-02 1.205178e-01 -3.609049e-01 -8.089126e-01 -6.582360e-01 6.920441e-01 -1.877977e-01 -1.803091e-01 -1.931458e-01 1.384634e-01 2.381966e-01 3.171042e-01 -2.261430e-03 2.441930e-02 -1.491197e-01 -1.186021e-01 7.965168e-02 7.664316e-02 -3.348552e-02
<VARIANCE> 39
 1.062774e+01 6.328028e+00 1.012326e+01 2.909828e+01 3.421251e+01 3.007139e+01 2.880697e+01 2.559480e+01 2.847566e+01 6.018519e+01 2.716879e+01 2.709789e+01 4.035729e+00 6.458768e-01 5.458353e-01 7.600884e-01 9.026033e-01 1.805184e+00 1.934952e+00 1.369228e+00 1.224628e+00 1.509651e+00 2.119282e+00 1.224724e+00 1.541532e+00 6.394186e-02 8.493585e-02 5.830665e-02 8.734746e-02 2.321748e-01 2.908454e-01 2.086134e-01 1.899698e-01 1.478579e-01 1.628072e-01 2.886490e-01 1.934005e-01 2.148499e-01 3.025616e-02
<GCONST> 8.463319e+01
<STATE> 3
<MEAN> 39
 -6.227940e+00 -8.538107e+00 -5.702872e+00 -1.580114e+01 -4.633450e+00 -2.776261e+00 5.260226e+00 -9.170833e+00 -3.297262e+00 -7.503682e+00 -3.826971e+00 -5.882026e+00 1.910591e+01 1.493414e-01 -2.103758e-01 1.485050e-01 6.076255e-01 1.658026e-01 -1.952510e-01 -1.347444e-01 3.321689e-01 -4.457105e-01 2.027622e-01 2.498907e-01 1.038605e-01 -1.093844e-01 9.682115e-02 2.148733e-01 1.417652e-01 2.530962e-01 -2.557286e-02 -2.856986e-01 -2.957356e-01 9.023389e-02 6.631402e-02 6.498848e-02 1.699939e-01 -2.840088e-02 -1.174704e-01
<VARIANCE> 39
 9.174769e+00 9.162011e+00 8.216531e+00 1.586779e+01 4.718042e+01 3.125015e+01 3.267255e+01 3.946016e+01 5.052570e+01 4.570618e+01 3.504879e+01 3.276257e+01 1.258154e+00 3.454499e-01 5.567688e-01 3.864357e-01 6.172689e-01 1.218983e+00 1.511680e+00 1.216615e+00 9.802597e-01 1.085925e+00 1.593756e+00 1.621538e+00 9.379377e-01 6.143836e-02 4.469141e-02 4.305654e-02 4.694990e-02 9.888420e-02 2.086121e-01 1.423202e-01 1.916187e-01 1.559373e-01 1.973355e-01 1.869910e-01 2.496557e-01 1.716785e-01 4.848910e-03
<GCONST> 7.590958e+01
<STATE> 4
<MEAN> 39
 -3.266697e+00 -4.176483e+00 -2.053490e+00 -9.798656e+00 -4.066736e+00 -7.980651e+00 -4.479113e-01 -7.800721e+00 -3.915096e+00 -6.626691e+00 -1.653818e+00 -7.024694e+00 1.715574e+01 1.037721e-01 3.760425e-01 2.366641e-01 2.437836e-01 3.908983e-01 -3.661266e-02 -4.428528e-01 -3.534974e-01 4.452977e-02 -7.805807e-02 8.766928e-02 -1.267182e-02 -9.234650e-02 -4.183124e-02 -5.660486e-02 -5.326319e-02 -7.370842e-02 7.992796e-03 1.149423e-01 8.866720e-02 -5.096776e-02 -9.467516e-04 -1.446934e-03 -4.399839e-02 3.708064e-02 1.892749e-02
<VARIANCE> 39
 4.979912e+00 1.065392e+01 1.023592e+01 1.382857e+01 2.850851e+01 3.241306e+01 2.633579e+01 4.146498e+01 3.189758e+01 3.586721e+01 3.238447e+01 2.851472e+01 1.737619e+00 1.945172e-01 4.219264e-01 4.837970e-01 9.332110e-01 1.402819e+00 1.183942e+00 1.678891e+00 1.273065e+00 1.416131e+00 1.402680e+00 1.280479e+00 9.402090e-01 9.253878e-02 3.559368e-02 8.057514e-02 8.845186e-02 1.532725e-01 2.522474e-01 2.065496e-01 2.867711e-01 2.300367e-01 2.303392e-01 2.411982e-01 2.152451e-01 1.499900e-01 1.520161e-02
<GCONST> 7.897401e+01
<TRANSP> 5
 0.000000e+00 1.000000e+00 0.000000e+00 0.000000e+00 0.000000e+00
 0.000000e+00 8.001180e-01 1.998820e-01 0.000000e+00 0.000000e+00
 0.000000e+00 0.000000e+00 8.534810e-01 1.465190e-01 0.000000e+00
 0.000000e+00 0.000000e+00 0.000000e+00 9.305916e-01 6.940844e-02
 0.000000e+00 0.000000e+00 0.000000e+00 0.000000e+00 0.000000e+00
<ENDHMM>
~h "three"
<BEGINHMM>
<NUMSTATES> 5
<STATE> 2
<MEAN> 39
 -3.022110e+00 -6.969688e+00 -2.668403e-01 -8.975024e+00 -1.057329e+01 -1.092486e+01 -1.260650e+00 -8.810860e+00 -1.762757e+00 -5.076359e+00 -2.089338e-01 -5.336298e+00 1.742751e+01 4.637671e-01 -1.328046e-01 9.496229e-01 -2.895570e-01 -1.565709e+00 -7.384412e-02 -2.596168e-01 -2.369750e-01 4.097758e-01 1.045597e-01 -2.649145e-02 -2.384392e-01 3.667440e-01 -1.823129e-01 1.238723e-01 1.103598e-03 -2.979368e-01 2.311948e-01 3.086684e-01 -1.673245e-01 1.828096e-02 7.784939e-02 -1.879923e-02 4.488502e-02 8.431309e-03 -3.345877e-02
<VARIANCE> 39
 1.150201e+01 1.272882e+01 1.702479e+01 3.011643e+01 5.288829e+01 4.897601e+01 2.349133e+01 2.662216e+01 2.840398e+01 2.603116e+01 3.435635e+01 3.198922e+01 2.718727e+00 7.933226e-01 7.040682e-01 8.019146e-01 2.149331e+00 1.949621e+00 3.505710e+00 1.455353e+00 1.564669e+00 1.254814e+00 1.073581e+00 1.374095e+00 1.273476e+00 6.039490e-02 1.125537e-01 1.477056e-01 1.347939e-01 2.988794e-01 4.768597e-01 4.272658e-01 2.928475e-01 2.418680e-01 1.950266e-01 1.814256e-01 1.985493e-01 1.930295e-01 9.900695e-03
<GCONST> 8.980179e+01
<STATE> 3
<MEAN> 39
 -5.111927e+00 -3.501238e+00 5.563102e+00 -1.916194e+01 -1.217870e+01 -4.184185e+00 -8.815001e+00 -8.597944e+00 1.856703e+00 -5.826328e+00 1.046000e+00 -5.969805e+00 1.864570e+01 -8.407531e-01 1.796815e+00 -2.997542e-01 -1.678423e+00 2.388669e+00 -1.864326e-01 -1.427897e+00 9.174868e-01 -4.456017e-01 -2.264111e-01 1.139117e-01 2.472595e-02 -2.548176e-02 4.984334e-02 1.122604e-01 -4.600350e-01 5.303141e-01 3.698103e-01 -6.713852e-01 4.434997e-01 4.450545e-02 -3.661745e-01 7.893768e-02 -5.653504e-02 3.716341e-02 -5.313841e-02
<VARIANCE> 39
 7.764003e+00 2.370037e+01 1.172961e+01 3.062847e+01 6.008373e+01 2.838935e+01 4.149099e+01 6.447308e+01 2.628884e+01 2.812324e+01 3.810601e+01 2.977571e+01 1.297788e+00 2.520948e-01 6.042846e-01 1.000898e+00 1.792636e+00 1.329579e+00 3.579527e+00 2.062714e+00 1.344165e+00 1.388683e+00 1.090659e+00 7.145103e-01 7.908693e-01 1.958388e-02 5.022552e-02 1.559843e-01 9.320273e-02 2.325608e-01 4.926490e-01 2.358266e-01 3.785145e-01 3.774055e-01 1.679348e-01 1.489313e-01 1.328081e-01 1.106081e-01 2.142493e-03
<GCONST> 8.237009e+01
<STATE> 4
<MEAN> 39
 -6.744732e+00 4.103636e+00 -1.737801e+00 -1.632606e+01 -1.323357e+00 -1.258749e+01 -5.440774e+00 -8.176205e+00 -3.433542e+00 -4.964835e+00 -2.646638e-01 -6.249637e+00 1.786689e+01 1.497464e-01 -9.798222e-02 -5.590581e-01 9.735026e-01 4.091445e-01 -1.175922e-01 7.108719e-01 -3.743406e-01 -3.045698e-01 -2.330779e-02 -1.985715e-01 2.229864e-03 -1.799867e-01 6.390046e-02 -3.144401e-01 9.530354e-02 7.963324e-02 -2.289212e-01 3.124606e-01 3.457374e-02 -3.103816e-02 1.382855e-01 -3.406740e-02 2.267207e-02 1.237662e-02 -2.586542e-02
<VARIANCE> 39
 7.457920e+00 1.519872e+01 1.621154e+01 3.032035e+01 2.257829e+01 2.537071e+01 4.752446e+01 4.489255e+01 3.219553e+01 4.071803e+01 4.083492e+01 3.689447e+01 1.619564e+00 2.167929e-01 1.340163e+00 6.409052e-01 8.473825e-01 1.196092e+00 2.032189e+00 1.290419e+00 1.483850e+00 1.224262e+00 1.176380e+00 8.524346e-01 8.697577e-01 2.474476e-02 3.732578e-02 9.149177e-02 7.172122e-02 1.603093e-01 1.829511e-01 1.711463e-01 2.103276e-01 2.208243e-01 1.733529e-01 1.653626e-01 1.335069e-01 1.305250e-01 2.688418e-03
<GCONST> 7.745824e+01
<TRANSP> 5
 0.000000e+00 1.000000e+00 0.000000e+00 0.000000e+00 0.000000e+00
 0.000000e+00 8.773435e-01 1.226565e-01 0.000000e+00 0.000000e+00
 0.000000e+00 0.000000e+00 7.862538e-01 2.137462e-01 0.000000e+00
 0.000000e+00 0.000000e+00 0.000000e+00 8.902349e-01 1.097651e-01
 0.000000e+00 0.000000e+00 0.000000e+00 0.000000e+00 0.000000e+00
<ENDHMM>
~h "one"
<BEGINHMM>
<NUMSTATES> 5
<STATE> 2
<MEAN> 39
 -5.578972e-01 -3.775796e+00 -9.288663e+00 -1.282488e+01 -1.659605e+00 -5.562958e+00 -2.020365e+00 -8.864102e+00 -2.704662e+00 -6.731623e+00 -1.550863e+00 -7.298068e+00 1.775103e+01 2.764923e-01 -4.074634e-01 -8.741462e-01 4.600739e-01 4.896816e-01 4.127361e-02 -2.920082e-01 2.273740e-01 2.048988e-01 -3.067084e-01 -3.896419e-01 -2.717966e-01 2.371808e-01 -1.196420e-01 -1.467618e-01 5.470061e-02 2.658459e-01 8.077494e-03 -1.162542e-01 -1.529757e-02 9.398624e-02 -1.103573e-02 -9.047122e-02 1.131616e-02 8.348621e-02 -2.123607e-02
<VARIANCE> 39
 7.531051e+00 9.256275e+00 2.884906e+01 2.285641e+01 2.892888e+01 2.535383e+01 2.283290e+01 2.066825e+01 2.828986e+01 2.397547e+01 2.968821e+01 2.874568e+01 2.262386e+00 4.569772e-01 7.989609e-01 8.710527e-01 2.245095e+00 1.371527e+00 1.441571e+00 1.268711e+00 1.066522e+00 1.133118e+00 1.021040e+00 1.095181e+00 1.045272e+00 4.806158e-02 4.466633e-02 6.120090e-02 1.908741e-01 2.173834e-01 2.631607e-01 2.527884e-01 2.369154e-01 1.811509e-01 2.007189e-01 1.693514e-01 1.889356e-01 1.837430e-01 4.987644e-03
<GCONST> 8.015951e+01
<STATE> 3
<MEAN> 39
 -2.365920e+00 -1.071523e+01 -1.090180e+01 -1.688626e+00 -4.438769e-01 -9.495042e+00 -2.446677e+00 -4.206490e+00 -3.535897e+00 -1.172852e+01 -2.377867e+00 -6.055108e+00 1.853588e+01 -6.083152e-01 -3.737945e-01 1.339370e+00 5.725191e-01 -1.353593e+00 -3.281139e-01 1.195942e+00 -8.907773e-02 -9.247275e-01 -9.228836e-02 5.863419e-01 1.197726e-01 -4.917936e-02 2.359920e-02 3.139496e-01 2.517537e-01 -5.823675e-01 -1.342579e-01 3.766539e-01 9.198011e-02 -4.377261e-01 -1.788474e-04 3.805884e-01 4.404193e-02 -1.768644e-01 -2.978474e-02
<VARIANCE> 39
 6.138182e+00 9.607662e+00 1.865524e+01 2.375321e+01 2.700764e+01 1.740286e+01 3.766747e+01 3.138564e+01 4.646070e+01 3.755192e+01 3.383800e+01 3.321463e+01 1.544390e+00 1.544865e-01 5.158803e-01 6.042424e-01 1.831579e+00 7.391785e-01 1.711736e+00 1.007106e+00 2.247347e+00 1.165603e+00 1.864502e+00 1.028498e+00 1.293622e+00 8.477421e-03 2.364217e-02 5.254896e-02 1.008120e-01 1.224643e-01 2.852626e-01 1.528295e-01 3.759637e-01 1.781746e-01 3.358787e-01 2.003196e-01 2.674368e-01 1.680790e-01 8.554034e-04
<GCONST> 7.512885e+01
<STATE> 4
<MEAN> 39
 -4.105791e+00 -5.419953e+00 -1.639686e+00 -8.748617e+00 -4.067595e+00 -5.850065e+00 -1.672743e+00 -1.194941e+01 -4.640584e+00 -8.689328e+00 -2.582523e+00 -8.293690e+00 1.778402e+01 1.509004e-01 9.714367e-01 6.262022e-01 -7.292873e-01 4.275878e-01 -6.627502e-02 -6.318309e-01 -4.445628e-01 8.197983e-02 2.300948e-01 -1.761352e-01 5.056519e-02 -1.279362e-01 4.443816e-02 -6.845820e-02 -2.143263e-01 1.672593e-01 1.613901e-01 -6.902154e-02 -6.824889e-02 1.651970e-01 1.349136e-02 -1.166334e-01 1.023004e-02 7.499410e-02 -5.517283e-03
<VARIANCE> 39
 6.950991e+00 2.330252e+01 1.104048e+01 2.144429e+01 1.961234e+01 4.667822e+01 3.617128e+01 3.533559e+01 4.121179e+01 4.575535e+01 3.325986e+01 3.779980e+01 1.325832e+00 2.767197e-01 6.130173e-01 8.056887e-01 1.205875e+00 9.142954e-01 1.968484e+00 1.134760e+00 1.445074e+00 1.609110e+00 1.542170e+00 9.444503e-01 9.597440e-01 1.268176e-02 4.884684e-02 1.200429e-01 8.176114e-02 1.340382e-01 2.007302e-01 3.083473e-01 2.741117e-01 1.859092e-01 2.304000e-01 2.259117e-01 1.685974e-01 1.676151e-01 1.601870e-03
<GCONST> 7.851724e+01
<TRANSP> 5
 0.000000e+00 1.000000e+00 0.000000e+00 0.000000e+00 0.000000e+00
 0.000000e+00 8.980410e-01 1.019590e-01 0.000000e+00 0.000000e+00
 0.000000e+00 0.000000e+00 8.248615e-01 1.751385e-01 0.000000e+00
 0.000000e+00 0.000000e+00 0.000000e+00 8.841665e-01 1.158335e-01
 0.000000e+00 0.000000e+00 0.000000e+00 0.000000e+00 0.000000e+00
<ENDHMM>
~h "sil"
<BEGINHMM>
<NUMSTATES> 5
<STATE> 2
<MEAN> 39
 -6.779176e+00 -6.749726e+00 -5.112038e+00 -9.122527e+00 -3.035624e-02 -3.400089e+00 1.692226e-01 -8.543045e+00 -2.621485e+00 -5.770156e+00 5.601693e-01 -4.298831e+00 1.461584e+01 -3.753450e-02 -2.027218e-03 -2.006255e-03 3.424479e-02 4.182156e-02 2.690058e-02 4.768559e-02 3.285732e-03 -1.780417e-02 5.943571e-03 1.647043e-02 1.315823e-02 -1.224600e-02 -2.604793e-02 -3.370327e-02 -7.329172e-02 -1.076664e-01 -1.175432e-01 -1.148569e-01 -6.078232e-02 -7.565462e-03 -2.114466e-02 1.070748e-02 3.695006e-02 2.931653e-02 1.872914e-03
<VARIANCE> 39
 3.592513e+00 4.329999e+00 5.965405e+00 7.600827e+00 1.197757e+01 1.365956e+01 1.465173e+01 1.630225e+01 1.572553e+01 1.373469e+01 1.577999e+01 1.309563e+01 1.166543e+00 7.766590e-02 1.582023e-01 2.700107e-01 3.721946e-01 4.930002e-01 6.554110e-01 6.789024e-01 7.111950e-01 6.928738e-01 5.742226e-01 6.348007e-01 5.625120e-01 4.968882e-03 1.084198e-02 2.392451e-02 4.022939e-02 5.012324e-02 7.076677e-02 1.017681e-01 1.068555e-01 1.300506e-01 1.116668e-01 9.221435e-02 1.051949e-01 9.909923e-02 6.301020e-04
<GCONST> 4.367661e+01
<STATE> 3
~s "silst"
<STATE> 4
<MEAN> 39
 -7.612637e+00 -7.341542e+00 -6.624112e+00 -1.117325e+01 -2.173034e+00 -5.390529e+00 -1.003040e+00 -8.634894e+00 -2.692902e+00 -5.392078e+00 1.458975e+00 -3.845817e+00 1.448302e+01 -3.200314e-03 7.065830e-03 -2.851489e-02 -3.039735e-02 -5.490511e-02 -2.121879e-02 -6.063934e-02 -7.241617e-03 -3.341724e-03 -6.419989e-03 -2.154405e-02 -2.017073e-02 7.630049e-05 3.945710e-02 5.915423e-02 9.674541e-02 1.264972e-01 1.318484e-01 1.252940e-01 6.192745e-02 1.451838e-02 2.532374e-02 -1.778416e-02 -5.665629e-02 -4.018981e-02 8.979484e-03
<VARIANCE> 39
 3.537505e+00 4.175087e+00 6.421893e+00 7.868000e+00 1.127142e+01 1.261799e+01 1.499648e+01 1.599115e+01 1.774065e+01 1.534343e+01 1.513270e+01 1.342876e+01 9.962687e-01 7.796296e-02 1.692377e-01 2.890234e-01 4.172329e-01 5.058905e-01 6.768752e-01 5.965694e-01 7.447384e-01 7.112149e-01 6.085851e-01 7.015638e-01 6.135030e-01 3.297767e-03 1.450950e-02 2.904355e-02 4.220299e-02 5.742295e-02 7.360786e-02 1.091733e-01 1.041399e-01 1.286815e-01 1.335454e-01 1.061683e-01 1.176057e-01 1.100508e-01 1.134243e-03
<GCONST> 4.560954e+01
<TRANSP> 5
 0.000000e+00 1.000000e+00 0.000000e+00 0.000000e+00 0.000000e+00
 0.000000e+00 7.712826e-01 2.416058e-02 2.045568e-01 0.000000e+00
 0.000000e+00 0.000000e+00 8.267193e-01 1.732806e-01 0.000000e+00
 0.000000e+00 1.881921e-01 0.000000e+00 7.415954e-01 7.021248e-02
 0.000000e+00 0.000000e+00 0.000000e+00 0.000000e+00 0.000000e+00
<ENDHMM>
~h "six"
<BEGINHMM>
<NUMSTATES> 5
<STATE> 2
<MEAN> 39
 -8.651053e+00 -4.238451e+00 -6.943055e+00 -8.760606e+00 -3.134913e+00 -4.292982e+00 -1.962856e+00 -8.226830e+00 -3.546986e+00 -3.976770e+00 1.184732e-01 -3.144442e+00 1.496816e+01 6.815841e-01 6.856519e-01 1.210908e+00 -1.398229e+00 -1.172114e+00 -1.222897e+00 4.413413e-02 -1.305462e-01 4.297315e-01 3.501606e-01 -5.242144e-01 -4.850065e-01 6.363650e-01 6.250267e-02 1.130663e-01 2.223903e-01 -4.786016e-01 -2.744429e-01 -1.633522e-01 4.440764e-02 7.730749e-02 2.056110e-01 -3.545508e-03 -1.364712e-01 -2.399529e-01 1.435606e-01
<VARIANCE> 39
 7.541815e+00 7.819603e+00 1.274243e+01 1.150057e+01 1.920297e+01 2.021488e+01 1.523653e+01 1.794052e+01 2.010337e+01 3.003898e+01 1.913436e+01 1.707674e+01 1.896548e+00 3.593255e-01 4.716966e-01 8.850387e-01 1.149662e+00 1.080228e+00 1.327925e+00 1.012127e+00 8.123996e-01 1.424921e+00 2.249564e+00 1.081456e+00 1.333051e+00 7.589437e-02 6.204706e-02 5.618601e-02 1.153593e-01 9.846339e-02 2.026151e-01 2.098221e-01 1.472208e-01 1.775444e-01 1.847439e-01 2.378883e-01 1.709716e-01 1.683839e-01 9.048471e-03
<GCONST> 7.418949e+01
<STATE> 3
<MEAN> 39
 -6.473084e+00 -1.099709e+00 -8.557819e-01 -2.013205e+01 -7.857510e+00 -8.730926e+00 -2.438381e+00 -6.376856e+00 2.512782e-01 -3.798001e+00 -2.525978e+00 -7.323802e+00 1.833024e+01 2.345852e-02 -8.800428e-02 2.193198e-01 -2.788088e-01 3.784412e-01 2.157387e-01 -2.755261e-01 1.719429e-01 3.635433e-02 -1.969864e-01 1.712786e-01 8.947562e-03 -4.901882e-02 -5.653924e-02 -2.054124e-01 -2.670399e-01 4.885031e-01 2.883465e-01 2.207517e-01 6.814266e-02 -9.134668e-02 -1.470868e-01 -5.869278e-02 1.517933e-01 1.663928e-01 -1.671888e-01
<VARIANCE> 39
 7.693454e+00 9.754908e+00 1.664397e+01 2.297711e+01 5.855554e+01 3.111663e+01 3.721031e+01 2.461047e+01 3.463622e+01 5.831548e+01 3.544820e+01 3.745644e+01 1.431918e+00 3.493613e-01 6.518523e-01 1.074661e+00 3.227303e+00 2.391159e+00 1.756116e+00 1.734578e+00 1.341740e+00 1.887357e+00 2.011173e+00 1.866966e+00 1.894944e+00 2.930474e-01 6.822308e-02 6.608791e-02 1.610694e-01 2.254556e-01 3.064393e-01 3.194359e-01 3.839404e-01 2.240960e-01 2.869220e-01 3.401635e-01 2.638174e-01 2.553652e-01 1.166138e-02
<GCONST> 9.187396e+01
<STATE> 4
<MEAN> 39
 -6.563626e+00 -6.253493e+00 -4.683545e+00 -1.081021e+01 -1.003305e+00 -3.975101e+00 -1.431924e+00 -8.750770e+00 -2.165491e+00 -5.867924e+00 1.161498e+00 -4.221678e+00 1.475119e+01 -2.349374e-01 -9.091889e-01 -1.003626e+00 1.459115e+00 4.113891e-01 4.083740e-01 9.059093e-01 -4.555642e-01 -2.808305e-01 -4.090941e-02 1.988660e-01 2.976011e-01 -4.635404e-01 -1.054907e-01 1.695459e-01 2.078337e-01 -4.380243e-01 -3.783287e-01 -1.602949e-01 -8.616929e-02 1.716969e-01 1.164564e-01 1.032329e-01 -1.788584e-01 -1.428738e-01 1.500506e-01
<VARIANCE> 39
 3.287169e+00 5.447533e+00 9.434369e+00 1.105034e+01 1.461173e+01 1.564340e+01 1.948533e+01 1.855768e+01 1.686559e+01 1.703809e+01 1.860738e+01 1.491104e+01 1.490609e+00 2.679521e-01 4.878789e-01 8.978745e-01 1.312539e+00 2.109874e+00 1.649851e+00 1.602968e+00 1.249965e+00 1.216035e+00 1.204232e+00 1.179114e+00 1.022887e+00 7.975011e-02 3.885910e-02 6.524981e-02 1.378445e-01 1.467596e-01 2.331855e-01 1.806126e-01 2.655961e-01 1.925606e-01 1.855589e-01 1.735370e-01 1.978520e-01 1.824368e-01 5.792307e-03
<GCONST> 7.240214e+01
<TRANSP> 5
 0.000000e+00 1.000000e+00 0.000000e+00 0.000000e+00 0.000000e+00
 0.000000e+00 7.143030e-01 2.856970e-01 0.000000e+00 0.000000e+00
 0.000000e+00 0.000000e+00 8.890125e-01 1.109875e-01 0.000000e+00
 0.000000e+00 0.000000e+00 0.000000e+00 7.508364e-01 2.491636e-01
 0.000000e+00 0.000000e+00 0.000000e+00 0.000000e+00 0.000000e+00
<ENDHMM>
~h "two"
<BEGINHMM>
<NUMSTATES> 5
<STATE> 2
<MEAN> 39
 -1.102881e+01 -3.224095e+00 -6.871190e+00 -1.053714e+01 -1.073426e+00 -3.867505e+00 -1.999772e+00 -7.553901e+00 -2.351664e+00 -5.694637e+00 1.134015e+00 -3.338084e+00 1.506710e+01 4.502401e-01 6.199867e-01 9.566861e-01 -5.626147e-01 -2.487578e-01 -3.305242e-01 -4.635240e-01 -1.995214e-01 6.263428e-02 -5.376207e-02 -2.397765e-01 -3.322227e-01 3.130575e-01 2.999780e-01 5.010685e-02 2.956092e-01 -1.332900e-01 -1.880986e-01 -2.290677e-01 -1.094610e-01 -1.210383e-01 -2.476259e-02 4.004769e-03 -7.534467e-02 -1.649990e-01 8.871718e-02
<VARIANCE> 39
 8.687188e+00 8.129592e+00 1.281058e+01 1.250451e+01 1.845264e+01 2.276574e+01 1.908543e+01 2.138887e+01 2.098067e+01 2.361832e+01 2.448392e+01 1.973763e+01 9.029274e-01 1.394545e+00 5.624198e-01 1.318900e+00 8.306171e-01 1.346030e+00 1.288744e+00 9.721217e-01 1.189316e+00 1.154324e+00 1.277770e+00 1.835555e+00 1.098542e+00 7.210168e-02 1.239567e-01 1.113893e-01 1.328958e-01 1.285694e-01 2.322603e-01 2.004250e-01 1.745194e-01 2.237590e-01 2.226702e-01 1.998683e-01 3.549358e-01 1.588870e-01 8.036427e-03
<GCONST> 7.887829e+01
<STATE> 3
<MEAN> 39
 -4.606357e+00 1.260755e+00 1.853902e+00 -1.550563e+01 -6.925347e+00 -9.926669e+00 -6.688763e+00 -1.043687e+01 -2.413305e+00 -5.177572e+00 -1.121269e+00 -7.303087e+00 1.840138e+01 6.672053e-01 5.456795e-01 7.477739e-01 -5.435108e-01 -1.163752e+00 -1.107562e+00 -5.685377e-01 -2.816730e-01 -6.568027e-02 1.263597e-01 -2.161389e-01 -6.259624e-01 4.525315e-01 -2.500353e-01 -2.338184e-01 -4.258558e-01 2.983120e-01 2.703487e-01 2.307328e-01 2.350157e-01 1.457464e-01 -1.875396e-02 -8.912900e-03 1.529443e-01 1.827863e-01 -1.445196e-01
<VARIANCE> 39
 7.471191e+00 8.107075e+00 1.363877e+01 2.235414e+01 3.978239e+01 2.567911e+01 2.823155e+01 2.452572e+01 3.157615e+01 5.526524e+01 4.389965e+01 4.840213e+01 1.043694e+00 5.698080e-01 6.280793e-01 9.910370e-01 1.463476e+00 1.292917e+00 1.203645e+00 1.679900e+00 1.517827e+00 1.849173e+00 1.990066e+00 2.399973e+00 1.872349e+00 8.942026e-02 6.144702e-02 5.394813e-02 8.128961e-02 1.252563e-01 2.060304e-01 1.815056e-01 2.043723e-01 1.912974e-01 2.127284e-01 2.740711e-01 2.887938e-01 2.220532e-01 6.609678e-03
<GCONST> 8.382008e+01
<STATE> 4
<MEAN> 39
 -3.233923e+00 -5.502409e-02 -4.100277e-02 -1.366880e+01 -7.125250e+00 -1.157530e+01 -5.644425e+00 -9.634142e+00 -2.708323e+00 -5.306175e+00 -1.589640e-01 -7.599942e+00 1.824100e+01 1.671692e-01 -2.230012e-01 -2.383049e-01 5.384241e-01 3.361340e-01 8.529729e-02 9.804646e-02 -5.487197e-02 -1.935932e-01 -8.661564e-02 7.787824e-02 1.595800e-01 -1.198894e-01 -4.350258e-02 -3.800783e-02 -2.662965e-02 2.460830e-02 9.585087e-02 1.093770e-01 5.164530e-02 4.632650e-03 1.986779e-02 1.166607e-03 -5.837430e-03 4.463850e-02 -3.525003e-02
<VARIANCE> 39
 5.894646e+00 7.953778e+00 1.254120e+01 2.979221e+01 3.401479e+01 2.155866e+01 3.315921e+01 3.371674e+01 3.985487e+01 4.293772e+01 5.473599e+01 4.157066e+01 1.358428e+00 1.334882e-01 1.530355e-01 3.772100e-01 6.213065e-01 9.115644e-01 8.551450e-01 8.811782e-01 1.028520e+00 9.022065e-01 9.879836e-01 1.046140e+00 9.317733e-01 1.449398e-02 2.163255e-02 2.516546e-02 5.076471e-02 8.859463e-02 1.056364e-01 1.240738e-01 1.291694e-01 1.599448e-01 1.488209e-01 1.526737e-01 1.593335e-01 1.459304e-01 2.345241e-03
<GCONST> 6.574708e+01
<TRANSP> 5
 0.000000e+00 1.000000e+00 0.000000e+00 0.000000e+00 0.000000e+00
 0.000000e+00 8.262401e-01 1.737599e-01 0.000000e+00 0.000000e+00
 0.000000e+00 0.000000e+00 7.677056e-01 2.322944e-01 0.000000e+00
 0.000000e+00 0.000000e+00 0.000000e+00 9.013567e-01 9.864335e-02
 0.000000e+00 0.000000e+00 0.000000e+00 0.000000e+00 0.000000e+00
<ENDHMM>
~h "nine"
<BEGINHMM>
<NUMSTATES> 5
<STATE> 2
<MEAN> 39
 -4.466745e+00 -4.320522e+00 -2.080810e+00 -8.922609e+00 -3.043907e+00 -6.192758e+00 -1.510918e+00 -1.117626e+01 -5.008855e+00 -8.087788e+00 -2.960542e+00 -7.815073e+00 1.757330e+01 -1.383934e-01 -6.749675e-01 -2.238368e-01 4.966685e-01 -4.940752e-01 1.753404e-01 3.888901e-01 -1.974836e-01 -3.770395e-02 -1.529959e-01 -1.770791e-01 -1.448198e-01 2.491156e-01 -3.840672e-02 -1.265703e-01 -7.492255e-02 1.150873e-01 1.916322e-02 -6.528468e-03 3.804445e-02 3.162349e-02 1.022199e-02 6.523959e-03 8.115152e-02 3.534995e-02 -1.079501e-02
<VARIANCE> 39
 8.935637e+00 2.040870e+01 1.531246e+01 1.686269e+01 2.864614e+01 2.894381e+01 3.201590e+01 2.752598e+01 4.731911e+01 3.538190e+01 3.015217e+01 3.278726e+01 2.293808e+00 5.318940e-01 1.580410e+00 1.145460e+00 1.118166e+00 1.137010e+00 1.424374e+00 1.645902e+00 1.278160e+00 1.529145e+00 1.155077e+00 1.246498e+00 1.038634e+00 3.756020e-02 6.482855e-02 1.815815e-01 1.344751e-01 1.402298e-01 2.017487e-01 2.221786e-01 2.428676e-01 1.863196e-01 1.998525e-01 1.610715e-01 1.732822e-01 1.448369e-01 4.917857e-03
<GCONST> 8.288400e+01
<STATE> 3
<MEAN> 39
 -6.290519e+00 -1.167306e+01 -4.987501e+00 -2.492769e+00 -5.655642e+00 -5.432253e+00 1.785429e+00 -1.126468e+01 -5.680037e+00 -9.068647e+00 -1.604764e+00 -7.685283e+00 1.862178e+01 -1.082462e-01 6.590822e-02 2.330331e-01 -2.054938e-01 -4.684788e-02 2.055366e-01 -7.343327e-02 -1.009340e-01 1.717542e-01 6.960806e-02 -3.996875e-02 3.054250e-02 -1.980930e-02 -3.010889e-03 1.878561e-01 7.743450e-02 -2.486280e-01 3.302705e-02 8.102538e-02 -1.012123e-01 -1.961318e-03 8.311155e-02 -5.378505e-03 -7.946306e-02 2.509409e-02 -1.439498e-02
<VARIANCE> 39
 7.198345e+00 8.452076e+00 2.463151e+01 3.136968e+01 1.880472e+01 3.042271e+01 3.088297e+01 3.410260e+01 4.310111e+01 4.184395e+01 2.805929e+01 3.031880e+01 1.011909e+00 8.115239e-02 3.211540e-01 4.020740e-01 1.031752e+00 4.632890e-01 6.108944e-01 5.231254e-01 4.995750e-01 6.120661e-01 6.481127e-01 6.582708e-01 5.176991e-01 4.580153e-03 1.054311e-02 2.931677e-02 3.925809e-02 5.256537e-02 6.928550e-02 6.525562e-02 7.262980e-02 7.667246e-02 7.949504e-02 8.554921e-02 7.633252e-02 7.775679e-02 3.924425e-04
<GCONST> 5.266582e+01
<STATE> 4
<MEAN> 39
 -6.220861e+00 -3.175433e+00 -1.625670e+00 -1.203802e+01 -1.903136e+00 -4.488684e+00 -3.315089e+00 -1.019662e+01 -2.792078e+00 -8.220428e+00 -3.089412e+00 -6.512013e+00 1.789981e+01 3.932680e-01 8.498191e-01 1.536178e-01 -3.104216e-01 5.438210e-01 -4.756714e-01 -4.739757e-01 3.277827e-01 -1.989794e-01 5.478032e-02 9.729032e-02 5.327620e-02 -1.226430e-01 4.369667e-02 -1.235093e-01 -3.705800e-02 2.356617e-01 -1.487580e-02 -7.332829e-02 1.047756e-01 -3.506141e-02 -1.090581e-01 2.573193e-02 7.970238e-02 -2.942393e-02 -1.025639e-02
<VARIANCE> 39
 1.144952e+01 2.011257e+01 1.219798e+01 2.402657e+01 3.583005e+01 3.415435e+01 3.367426e+01 2.992392e+01 4.907014e+01 3.962991e+01 3.857367e+01 4.243404e+01 1.075874e+00 4.063525e-01 9.276343e-01 5.741622e-01 1.873213e+00 1.354299e+00 1.383438e+00 1.361078e+00 1.284789e+00 1.675546e+00 1.184636e+00 1.059478e+00 1.024101e+00 9.884857e-03 5.703977e-02 9.918114e-02 8.650910e-02 1.494048e-01 1.942468e-01 2.405117e-01 1.805743e-01 1.979436e-01 2.316283e-01 1.955255e-01 1.707178e-01 1.415374e-01 1.007781e-03
<GCONST> 7.866674e+01
<TRANSP> 5
 0.000000e+00 1.000000e+00 0.000000e+00 0.000000e+00 0.000000e+00
 0.000000e+00 8.953065e-01 1.046935e-01 0.000000e+00 0.000000e+00
 0.000000e+00 0.000000e+00 9.109059e-01 8.909415e-02 0.000000e+00
 0.000000e+00 0.000000e+00 0.000000e+00 8.980509e-01 1.019491e-01
 0.000000e+00 0.000000e+00 0.000000e+00 0.000000e+00 0.000000e+00
<ENDHMM>
~h "five"
<BEGINHMM>
<NUMSTATES> 5
<STATE> 2
<MEAN> 39
 -4.107959e+00 -1.143361e+01 -1.014931e+01 -8.221243e+00 5.234669e-01 -8.209898e+00 3.444048e-01 -4.591282e+00 -5.298334e+00 -7.980866e+00 -1.870767e+00 -4.921356e+00 1.803161e+01 3.474118e-01 -1.177737e+00 -7.067326e-01 7.931207e-01 5.198048e-01 -6.326048e-01 3.389761e-01 3.856386e-01 -7.518789e-01 -2.099774e-01 -2.870802e-01 2.429415e-03 5.595283e-01 -1.960852e-01 3.298093e-02 1.839167e-01 8.822403e-02 -1.656497e-02 1.092976e-01 2.955174e-02 -2.107995e-01 3.212057e-02 1.423642e-01 1.651386e-01 5.149537e-02 -7.829358e-02
<VARIANCE> 39
 1.070833e+01 1.955105e+01 2.370557e+01 1.684371e+01 1.909566e+01 2.043822e+01 2.540260e+01 5.177662e+01 3.241380e+01 2.819594e+01 2.503379e+01 2.005618e+01 4.264494e+00 7.718486e-01 5.623798e-01 1.178963e+00 9.032403e-01 7.899203e-01 9.833322e-01 9.682987e-01 2.203025e+00 1.727269e+00 1.727496e+00 1.362589e+00 1.026542e+00 1.235083e-01 9.356929e-02 1.317078e-01 1.748084e-01 1.233251e-01 1.365048e-01 1.438256e-01 1.541530e-01 2.985598e-01 2.737177e-01 1.913266e-01 1.745053e-01 1.405101e-01 2.758574e-02
<GCONST> 8.422659e+01
<STATE> 3
<MEAN> 39
 -5.811398e+00 -1.545222e+01 -8.550948e+00 -3.642645e+00 1.423656e+00 -9.173237e+00 2.538011e+00 -7.499998e+00 -7.215858e+00 -5.448205e+00 -4.617416e-01 -4.501397e+00 1.904619e+01 -1.656871e-01 8.433198e-02 4.905158e-01 -2.588972e-01 -2.714605e-01 4.348460e-01 6.851228e-02 -3.990002e-01 2.744067e-02 3.039856e-01 6.037679e-02 -8.475311e-02 -4.859934e-02 4.025567e-02 1.142260e-01 1.119054e-02 -1.965756e-01 -5.468807e-02 9.319988e-02 -2.884258e-02 2.476377e-02 5.626793e-02 -4.920497e-02 -7.805801e-02 -1.862672e-02 -1.489105e-02
<VARIANCE> 39
 9.171016e+00 9.381598e+00 2.482366e+01 2.081626e+01 1.874627e+01 2.313770e+01 1.749179e+01 3.902674e+01 4.702530e+01 4.447337e+01 2.686733e+01 2.551291e+01 1.356731e+00 8.771054e-02 1.527877e-01 2.695799e-01 6.325727e-01 4.951227e-01 5.510617e-01 4.975828e-01 4.925093e-01 6.118537e-01 5.697148e-01 5.676130e-01 4.731686e-01 5.845838e-03 1.173129e-02 2.415477e-02 3.024622e-02 4.801048e-02 5.111585e-02 5.158771e-02 5.695064e-02 6.412581e-02 8.513484e-02 8.414113e-02 6.634589e-02 7.031012e-02 8.990014e-04
<GCONST> 4.958699e+01
<STATE> 4
<MEAN> 39
 -5.752882e+00 -9.411120e+00 -3.940886e+00 -1.391051e+01 -3.282331e+00 -2.813594e+00 1.870432e+00 -8.421562e+00 -4.205188e+00 -5.237658e+00 -2.264429e+00 -5.521060e+00 1.830207e+01 2.169569e-01 1.206480e+00 3.702173e-01 -6.418018e-01 -3.922616e-01 -1.029561e-01 -3.102845e-01 2.564048e-01 5.544121e-01 -2.121038e-01 -7.184432e-02 -8.885109e-02 -2.459303e-01 -1.744328e-02 -2.150860e-02 -5.278671e-02 3.435940e-01 1.402884e-01 -1.802331e-01 -6.282516e-02 -1.009315e-02 -4.297163e-02 1.661053e-02 1.214451e-01 3.993152e-02 -4.833879e-02
<VARIANCE> 39
 7.867824e+00 2.308998e+01 1.221664e+01 3.191595e+01 4.211697e+01 1.957911e+01 2.462845e+01 3.666379e+01 5.312910e+01 2.795759e+01 2.708760e+01 3.008996e+01 1.837660e+00 2.146118e-01 4.990388e-01 5.739406e-01 2.636838e+00 1.471077e+00 1.621494e+00 9.745312e-01 1.331580e+00 1.638204e+00 1.337669e+00 1.268706e+00 9.161516e-01 4.136674e-02 4.305322e-02 9.681739e-02 7.588477e-02 2.402893e-01 2.361782e-01 2.300918e-01 1.662977e-01 2.294328e-01 2.226107e-01 1.790774e-01 2.066261e-01 1.646267e-01 4.442506e-03
<GCONST> 8.035803e+01
<TRANSP> 5
 0.000000e+00 1.000000e+00 0.000000e+00 0.000000e+00 0.000000e+00
 0.000000e+00 8.457791e-01 1.542209e-01 0.000000e+00 0.000000e+00
 0.000000e+00 0.000000e+00 9.123495e-01 8.765056e-02 0.000000e+00
 0.000000e+00 0.000000e+00 0.000000e+00 8.642505e-01 1.357494e-01
 0.000000e+00 0.000000e+00 0.000000e+00 0.000000e+00 0.000000e+00
<ENDHMM>
~h "four"
<BEGINHMM>
<NUMSTATES> 5
<STATE> 2
<MEAN> 39
 -6.699199e+00 -6.517396e+00 -5.540955e+00 -9.777953e+00 -1.592420e+00 -5.587188e+00 -1.241216e+00 -8.416555e+00 -1.992657e+00 -5.578278e+00 9.501225e-01 -4.283799e+00 1.537847e+01 1.583601e+00 5.416726e-01 -9.186094e-01 -8.727464e-01 -3.087102e-01 -5.386056e-01 -7.008572e-01 -1.964004e-01 1.912719e-01 2.033891e-01 -3.484922e-01 -4.932049e-01 6.495368e-01 3.455343e-01 1.229884e-01 -3.363572e-01 -3.153110e-01 -5.645870e-02 -2.827751e-03 -7.728244e-02 -1.597469e-02 1.441676e-03 5.372639e-02 -7.800303e-02 -1.308959e-01 1.414385e-01
<VARIANCE> 39
 7.836885e+00 5.477363e+00 5.400235e+00 7.866946e+00 1.005016e+01 1.250196e+01 1.446823e+01 1.360309e+01 1.601409e+01 1.350047e+01 1.620790e+01 1.227562e+01 1.750300e+00 5.078637e-01 4.373728e-01 5.944931e-01 7.402272e-01 7.193732e-01 9.112085e-01 7.468889e-01 8.232775e-01 1.028437e+00 1.098626e+00 1.537226e+00 1.241020e+00 5.658205e-02 6.913768e-02 5.328686e-02 6.046912e-02 8.245667e-02 1.011394e-01 1.514700e-01 1.211774e-01 1.498480e-01 1.395110e-01 1.605754e-01 1.994742e-01 1.876650e-01 7.328311e-03
<GCONST> 6.410066e+01
<STATE> 3
<MEAN> 39
 1.598291e+00 -3.481607e+00 -1.217368e+01 -1.705358e+01 -4.001127e+00 -6.173658e+00 -3.166869e+00 -8.952266e+00 -1.397928e+00 -3.853795e+00 4.313818e-01 -6.777937e+00 1.891622e+01 3.014609e-01 -1.881836e-01 -3.233024e-01 -3.469693e-02 7.473478e-02 -1.704196e-02 -2.184572e-01 1.757410e-01 3.541911e-01 9.299234e-02 -2.293998e-01 -2.193088e-01 1.419746e-01 -1.734956e-01 -1.542762e-01 1.502595e-01 2.365353e-01 3.840438e-02 -3.685629e-02 3.785453e-02 1.110281e-01 4.738306e-02 -8.565640e-02 -5.596687e-02 5.679213e-02 -6.757247e-02
<VARIANCE> 39
 4.138707e+00 1.027472e+01 9.571269e+00 1.372802e+01 2.441709e+01 1.714712e+01 1.858223e+01 1.715401e+01 2.363833e+01 2.482957e+01 3.811563e+01 3.758701e+01 1.085241e+00 5.184786e-01 7.259468e-01 6.838920e-01 1.210737e+00 9.691747e-01 7.705578e-01 9.083824e-01 9.563538e-01 1.307345e+00 1.174307e+00 1.337140e+00 1.240239e+00 9.236604e-02 4.953974e-02 4.575778e-02 9.588365e-02 8.006736e-02 1.358711e-01 1.434777e-01 1.561515e-01 1.412971e-01 1.815682e-01 1.921336e-01 1.991850e-01 1.871226e-01 7.215464e-03
<GCONST> 7.249794e+01
<STATE> 4
<MEAN> 39
 -2.645553e-01 -1.131188e+01 -7.978493e+00 -8.561642e+00 -5.377466e+00 -8.944886e+00 -2.202216e+00 -4.233067e+00 6.474475e-01 -7.567601e+00 -3.911428e+00 -7.362644e+00 1.854943e+01 -5.527235e-01 -3.270666e-02 1.188510e+00 5.179962e-01 -5.925381e-01 2.888391e-02 6.832035e-01 -1.585156e-01 -6.808483e-01 -3.924243e-01 1.338904e-01 2.578517e-01 -2.038997e-01 -8.728245e-02 3.020936e-01 7.349973e-04 -2.178986e-01 1.357239e-01 2.153176e-01 1.412188e-02 -2.457804e-01 -1.513039e-01 1.212913e-01 1.775791e-01 3.062864e-02 -5.097860e-02
<VARIANCE> 39
 6.979684e+00 1.431096e+01 2.849492e+01 1.842944e+01 4.719321e+01 3.739770e+01 3.524911e+01 3.895150e+01 4.505288e+01 3.449601e+01 3.467434e+01 3.192990e+01 1.577116e+00 2.194189e-01 1.523494e+00 6.632761e-01 1.663166e+00 2.090744e+00 2.162609e+00 1.566539e+00 2.597142e+00 1.819708e+00 1.725728e+00 1.796450e+00 1.076812e+00 4.096278e-02 2.919674e-02 9.478907e-02 1.878984e-01 1.663630e-01 4.426442e-01 3.016195e-01 3.550219e-01 3.384888e-01 3.788658e-01 2.794812e-01 3.071771e-01 2.166464e-01 3.209566e-03
<GCONST> 8.839841e+01
<TRANSP> 5
 0.000000e+00 1.000000e+00 0.000000e+00 0.000000e+00 0.000000e+00
 0.000000e+00 6.996663e-01 3.003336e-01 0.000000e+00 0.000000e+00
 0.000000e+00 0.000000e+00 9.181560e-01 8.184401e-02 0.000000e+00
 0.000000e+00 0.000000e+00 0.000000e+00 8.713432e-01 1.286568e-01
 0.000000e+00 0.000000e+00 0.000000e+00 0.000000e+00 0.000000e+00
<ENDHMM>
~h "zero"
<BEGINHMM>
<NUMSTATES> 5
<STATE> 2
<MEAN> 39
 -6.833764e+00 -1.830903e+00 -4.556603e+00 -7.693914e+00 -2.560049e+00 -4.736908e+00 -2.872059e+00 -8.942035e+00 -3.646744e+00 -4.136446e+00 1.070857e-01 -4.383896e+00 1.567439e+01 2.796457e-01 1.047400e+00 9.766790e-01 -1.164529e+00 -8.329074e-01 -1.413086e+00 -6.262769e-01 -6.046534e-01 3.255986e-01 3.373151e-01 -1.306470e-01 -2.368165e-01 4.928581e-01 3.463355e-02 9.113198e-02 1.807945e-01 -3.573673e-01 -1.704198e-01 -2.260496e-01 6.096389e-03 -1.911044e-02 1.705310e-01 -8.258228e-04 3.248072e-02 -8.941288e-02 9.081163e-02
<VARIANCE> 39
 6.903532e+00 1.041232e+01 1.562668e+01 1.479205e+01 2.116739e+01 2.233470e+01 1.917504e+01 1.978836e+01 2.978197e+01 2.464424e+01 2.236793e+01 2.010059e+01 1.483524e+00 3.168008e-01 4.287880e-01 7.624168e-01 9.419389e-01 8.513565e-01 1.289226e+00 9.734418e-01 1.181335e+00 1.346756e+00 9.780697e-01 1.205270e+00 1.537222e+00 4.257905e-02 4.665919e-02 1.026756e-01 1.279000e-01 1.085719e-01 1.315555e-01 2.184173e-01 1.587844e-01 1.927263e-01 1.622717e-01 1.511080e-01 1.798826e-01 1.672625e-01 6.464677e-03
<GCONST> 7.332757e+01
<STATE> 3
<MEAN> 39
 -5.561095e+00 3.091190e-01 9.512532e-01 -1.694858e+01 -7.867790e+00 -9.182355e+00 -4.571343e+00 -8.437252e+00 1.801875e-01 -3.754374e+00 1.733590e-01 -6.835118e+00 1.841016e+01 3.377145e-01 -7.470959e-01 4.395804e-01 -1.657714e-01 -1.079856e+00 2.672765e-01 2.072382e-01 1.959992e-01 3.191237e-01 -7.890034e-02 4.351511e-02 -1.244123e-01 1.651373e-01 5.192134e-02 -2.689555e-01 -1.737907e-01 3.724549e-01 1.670004e-02 1.347057e-01 1.952412e-01 5.499323e-02 -8.720733e-02 -4.380690e-02 -1.283379e-02 7.189357e-02 -6.444871e-02
<VARIANCE> 39
 7.436589e+00 2.068656e+01 1.739157e+01 2.624388e+01 5.936820e+01 4.058854e+01 3.225728e+01 4.424035e+01 3.108899e+01 3.029442e+01 3.455040e+01 5.111204e+01 1.091454e+00 4.424882e-01 1.621000e+00 8.021844e-01 2.614351e+00 1.742985e+00 2.522961e+00 1.686383e+00 1.421982e+00 1.340835e+00 1.176875e+00 1.106641e+00 1.318820e+00 6.257441e-02 5.142830e-02 1.131084e-01 1.261076e-01 1.801565e-01 2.457301e-01 4.098286e-01 2.257887e-01 2.479241e-01 2.119491e-01 1.743577e-01 1.723673e-01 2.174140e-01 4.562347e-03
<GCONST> 8.704382e+01
<STATE> 4
<MEAN> 39
 -1.604123e+00 -1.051453e+01 -4.391291e+00 -9.814328e+00 -9.684341e+00 -8.038939e+00 5.598633e-01 -4.105667e+00 -1.760713e-01 -6.701157e+00 -1.004323e+00 -5.665860e+00 1.854224e+01 8.285197e-02 1.145821e-02 -5.496047e-01 1.630367e-01 6.667802e-01 -1.772104e-01 -1.679808e-02 2.076867e-01 -6.444108e-02 -1.488758e-01 -9.256130e-02 -7.574453e-03 -5.364638e-02 -5.976523e-02 1.431544e-01 6.315345e-02 -8.624138e-02 8.687023e-02 4.125971e-02 -9.764308e-02 -8.213483e-02 -2.049406e-02 3.423087e-02 2.042239e-02 -8.850232e-03 -1.775921e-02
<VARIANCE> 39
 6.463166e+00 1.774082e+01 2.651992e+01 2.678699e+01 6.271896e+01 5.436694e+01 3.558537e+01 3.645129e+01 4.419185e+01 3.498132e+01 2.490711e+01 3.291564e+01 1.495042e+00 2.245718e-01 8.375381e-01 6.306297e-01 1.037181e+00 1.226585e+00 1.669757e+00 1.528703e+00 1.766171e+00 1.573719e+00 1.377133e+00 1.023313e+00 9.264504e-01 1.576634e-02 2.391060e-02 3.502055e-02 7.638437e-02 1.110558e-01 1.910966e-01 2.325797e-01 1.870190e-01 1.959258e-01 2.164880e-01 1.823378e-01 1.466971e-01 1.334040e-01 1.766973e-03
<GCONST> 7.714757e+01
<TRANSP> 5
 0.000000e+00 1.000000e+00 0.000000e+00 0.000000e+00 0.000000e+00
 0.000000e+00 7.323778e-01 2.676222e-01 0.000000e+00 0.000000e+00
 0.000000e+00 0.000000e+00 8.920327e-01 1.079673e-01 0.000000e+00
 0.000000e+00 0.000000e+00 0.000000e+00 9.397655e-01 6.023446e-02
 0.000000e+00 0.000000e+00 0.000000e+00 0.000000e+00 0.000000e+00
<ENDHMM>
