~o
<STREAMINFO> 1 39
<VECSIZE> 39<NULLD><MFCC_E_D_A><DIAGC>
~s "silst"
<MEAN> 39
 -5.512745e+00 -3.959659e+00 -3.431803e+00 -8.742851e+00 -1.142087e+00 -5.377087e+00 -1.588108e+00 -9.377780e+00 -3.386133e+00 -6.297985e+00 -1.280866e-01 -5.388265e+00 1.566077e+01 -7.015800e-01 -4.915971e-01 -5.167702e-01 1.180813e-01 2.811179e-01 6.936763e-01 3.927419e-01 1.519234e-01 1.719965e-01 1.520629e-01 3.288102e-01 3.810627e-01 -3.669636e-01 1.940284e-03 -4.758198e-02 -9.338283e-02 -1.346959e-01 -1.087215e-01 -1.057661e-01 -2.703628e-02 6.338985e-02 2.895124e-02 5.732389e-03 -3.076395e-02 -1.284074e-02 3.909707e-02
<VARIANCE> 39
 1.119312e+01 1.064179e+01 1.297286e+01 1.267547e+01 1.953749e+01 2.291119e+01 2.268429e+01 2.374263e+01 2.598872e+01 2.558357e+01 2.413486e+01 2.190569e+01 1.813270e+00 3.599589e-01 6.810849e-01 7.821795e-01 8.013958e-01 1.139483e+00 1.279837e+00 1.225822e+00 1.255921e+00 1.377977e+00 1.266642e+00 1.250633e+00 1.086369e+00 4.902890e-02 7.157030e-02 1.020724e-01 1.109913e-01 1.112281e-01 1.550238e-01 2.090780e-01 1.907239e-01 1.898030e-01 2.063165e-01 1.786052e-01 1.779307e-01 1.491801e-01 8.823977e-03
<GCONST> 7.638016e+01
~h "eight"
<BEGINHMM>
<NUMSTATES> 5
<STATE> 2
<MEAN> 39
 -8.220600e+00 -2.304383e+00 -5.918275e+00 -1.862941e+01 -2.279128e-02 -5.371888e+00 8.635139e-01 -6.463740e+00 -1.328136e+00 -7.335221e+00 -1.731770e+00 -5.870031e+00 1.752157e+01 -1.425200e-01 1.020622e+00 -7.152233e-02 -9.046161e-01 -8.312106e-02 -6.932477e-01 2.271349e-02 3.935943e-01 3.815158e-01 8.727715e-02 -9.834296e-02 -2.123374e-01 2.970731e-01 2.839635e-02 6.594762e-02 1.237537e-02 1.634927e-01 -5.219066e-02 -1.796804e-01 -8.640195e-02 -4.925619e-02 9.758982e-03 9.321527e-02 1.172673e-01 1.652487e-02 -2.186944e-02
<VARIANCE> 39
 7.993173e+00 2.177423e+01 2.017311e+01 3.142750e+01 4.080467e+01 2.299281e+01 2.720956e+01 2.301964e+01 3.068193e+01 2.225040e+01 2.452647e+01 2.519946e+01 3.143957e+00 3.283396e-01 7.005691e-01 6.206392e-01 1.353542e+00 1.175474e+00 1.369026e+00 1.420732e+00 9.771234e-01 1.292620e+00 1.156560e+00 1.162387e+00 9.399180e-01 1.032385e-01 3.949800e-02 7.903503e-02 7.499631e-02 1.844835e-01 1.325427e-01 1.590157e-01 1.433850e-01 1.658398e-01 2.230583e-01 1.545456e-01 1.648902e-01 1.439001e-01 1.196385e-02
<GCONST> 7.886742e+01
<STATE> 3
<MEAN> 39
 -8.353347e+00 6.391418e+00 -5.315536e+00 -1.793111e+01 -2.867724e+00 -1.494224e+01 -2.476905e+00 -7.226243e+00 9.121223e-02 -3.669266e+00 1.406447e+00 -5.246251e+00 1.843422e+01 1.726540e-01 1.091752e-01 2.345685e-01 9.902747e-01 1.002608e-01 -5.177391e-01 -5.809896e-01 -9.189338e-01 -5.866179e-01 7.390080e-02 3.212809e-01 2.324162e-01 -1.460744e-01 5.270758e-02 -3.692130e-01 8.687075e-03 1.283205e-01 9.067920e-02 3.950108e-01 7.773759e-02 -5.287489e-02 -1.534915e-01 -1.760730e-01 -1.157525e-01 5.638353e-04 -7.004008e-02
<VARIANCE> 39
 9.777488e+00 1.075541e+01 2.276152e+01 2.907220e+01 1.941228e+01 2.234091e+01 5.570695e+01 3.014602e+01 3.578416e+01 2.397324e+01 3.246048e+01 2.778333e+01 1.573592e+00 2.073726e-01 9.500546e-01 2.854574e-01 6.351487e-01 7.755427e-01 1.414951e+00 7.886238e-01 7.845496e-01 1.688814e+00 1.106969e+00 1.260306e+00 9.119332e-01 3.800252e-02 2.934390e-02 8.254103e-02 4.769200e-02 1.087197e-01 8.403334e-02 1.644357e-01 1.554935e-01 1.696248e-01 2.085374e-01 1.463645e-01 1.884575e-01 1.593053e-01 3.569884e-03
<GCONST> 7.228126e+01
<STATE> 4
<MEAN> 39
 -6.516142e+00 -1.235882e+00 -3.919678e+00 -1.135736e+01 -7.898200e-01 -9.527072e+00 -3.710073e+00 -1.165921e+01 -4.957163e+00 -6.356240e+00 4.495988e-01 -4.596923e+00 1.597413e+01 1.106888e-01 -1.993788e+00 -1.489913e-01 7.371218e-01 1.422205e-01 1.791509e+00 5.536584e-01 3.158107e-01 -4.976578e-02 -2.514429e-01 -4.900762e-02 1.136329e-01 -4.889621e-01 -1.177573e-01 1.096421e-01 -1.163062e-01 -1.739568e-01 -8.681540e-02 -6.490328e-02 1.501086e-01 2.361104e-01 2.406869e-01 1.399493e-01 6.899777e-02 -1.733769e-02 3.314300e-02
<VARIANCE> 39
 4.737700e+00 2.670178e+01 1.344645e+01 1.553058e+01 1.453504e+01 3.279479e+01 2.742947e+01 2.276243e+01 3.318055e+01 2.400688e+01 2.285104e+01 1.938170e+01 2.435606e+00 3.623813e-01 6.902601e-01 6.762360e-01 1.046528e+00 6.614584e-01 1.183693e+00 1.784305e+00 1.348564e+00 2.122096e+00 1.294129e+00 1.369317e+00 1.150639e+00 3.620100e-02 3.528011e-02 2.119447e-01 7.229318e-02 1.158882e-01 9.005200e-02 2.825412e-01 1.942918e-01 2.064441e-01 2.692255e-01 1.546702e-01 1.852168e-01 1.754522e-01 9.720055e-03
<GCONST> 7.737022e+01
<TRANSP> 5
 0.000000e+00 1.000000e+00 0.000000e+00 0.000000e+00 0.000000e+00
 0.000000e+00 8.822479e-01 1.177521e-01 0.000000e+00 0.000000e+00
 0.000000e+00 0.000000e+00 8.625605e-01 1.374395e-01 0.000000e+00
 0.000000e+00 0.000000e+00 0.000000e+00 7.873496e-01 2.126503e-01
 0.000000e+00 0.000000e+00 0.000000e+00 0.000000e+00 0.000000e+00
<ENDHMM>
~h "oh"
<BEGINHMM>
<NUMSTATES> 5
<STATE> 2
<MEAN> 39
 -4.360540e+00 -1.039025e+01 -8.440929e+00 -8.555827e+00 -2.572737e+00 -7.730931e+00 3.594972e+00 -7.338610e+00 -5.227001e+00 -7.164684e+00 -2.437937e+00 -5.326117e+00 1.780907e+01 5.467046e-01 -1.940365e-01 -5.996754e-01 1.512291e-01 7.999634e-02 -7.015319e-01 1.240238e-01 7.162533e-01 3.500073e-03 -4.197444e-01 -4.238086e-01 -1.477059e-01 3.554878e-01 1.022876e-02 1.007158e-01 2.314708e-03 -5.027847e-02 3.246940e-02 -1.060722e-02 -1.495043e-01 7.458990e-03 1.312197e-01 2.858603e-02 -1.289076e-02 -3.332531e-02 -2.095810e-02
<VARIANCE> 39
 8.906137e+00 1.219028e+01 1.618404e+01 1.727600e+01 2.244956e+01 2.465711e+01 3.043519e+01 6.417841e+01 3.801287e+01 3.401031e+01 2.717074e+01 3.105200e+01 3.076638e+00 3.009760e-01 5.744159e-01 6.359141e-01 6.401269e-01 6.873104e-01 9.270403e-01 1.330627e+00 1.768022e+00 1.556028e+00 1.264137e+00 1.244917e+00 1.045606e+00 9.509058e-02 4.039342e-02 6.355508e-02 7.518047e-02 7.895844e-02 9.116212e-02 1.291593e-01 1.540053e-01 2.139713e-01 1.842446e-01 1.978103e-01 1.845256e-01 1.388201e-01 1.353690e-02
<GCONST> 7.703094e+01
<STATE> 3
<MEAN> 39
 -5.164082e-01 -8.138626e+00 -1.328735e+01 -1.005537e+01 -6.842797e-01 -1.211009e+01 -1.043485e+00 -7.164220e-01 2.757182e-01 -8.093203e+00 -5.133852e+00 -6.611695e+00 1.904277e+01 2.190121e-01 4.080849e-01 -7.166415e-03 -3.555103e-01 -4.735930e-02 1.488579e-02 -6.785303e-01 -2.863894e-01 6.482766e-01 6.214042e-01 -4.837960e-03 -3.561333e-01 -1.169063e-02 -4.218693e-02 2.304288e-02 1.041548e-01 -1.894244e-02 -5.894295e-02 9.337356e-02 1.973065e-02 -1.547629e-01 -8.826518e-02 8.649294e-02 1.245979e-01 1.383566e-02 -2.533199e-02
<VARIANCE> 39
 6.127420e+00 8.489538e+00 1.480671e+01 1.482003e+01 1.888527e+01 2.208653e+01 4.228577e+01 2.882562e+01 3.892245e+01 3.629907e+01 3.202587e+01 3.978619e+01 1.216818e+00 8.149016e-02 1.382546e-01 2.713820e-01 2.784458e-01 3.911820e-01 5.135414e-01 7.160499e-01 1.021658e+00 7.413181e-01 8.481705e-01 8.253824e-01 6.957320e-01 1.320726e-02 1.116699e-02 1.429006e-02 3.356531e-02 3.324519e-02 4.653328e-02 6.855462e-02 7.946043e-02 9.621620e-02 1.065671e-01 1.013118e-01 9.216805e-02 8.861495e-02 1.188036e-03
<GCONST> 5.219258e+01
<STATE> 4
<MEAN> 39
 1.279289e-01 -3.598533e+00 -9.532360e+00 -1.342470e+01 -3.601387e+00 -1.011124e+01 -4.860301e+00 -7.566784e+00 6.901523e-01 -2.603592e+00 -1.639350e-01 -6.973675e+00 1.843144e+01 -3.933568e-01 2.558418e-01 8.551435e-01 2.082113e-01 -1.557908e-01 4.007633e-01 2.507648e-01 -5.346367e-01 -5.860254e-01 -1.478205e-01 4.837133e-01 4.367755e-01 -2.483788e-01 -1.375071e-01 -1.159643e-01 3.523976e-02 1.381933e-01 1.210042e-01 1.005330e-01 1.845028e-01 8.626617e-02 -9.092707e-02 -1.629566e-01 -7.029767e-02 7.859673e-02 -4.742647e-02
<VARIANCE> 39
 6.257697e+00 7.079012e+00 1.925238e+01 1.580383e+01 1.938986e+01 2.779411e+01 3.092206e+01 2.761891e+01 3.175002e+01 3.871502e+01 4.072293e+01 3.762136e+01 1.689226e+00 2.514763e-01 3.772361e-01 4.250909e-01 6.012405e-01 7.718624e-01 9.465568e-01 1.190274e+00 1.251724e+00 1.228749e+00 1.274005e+00 1.206423e+00 1.048622e+00 3.404612e-02 2.369858e-02 3.524625e-02 6.786061e-02 6.767726e-02 9.932337e-02 1.621134e-01 1.658376e-01 1.884093e-01 2.069846e-01 2.012758e-01 1.774974e-01 1.658295e-01 2.797818e-03
<GCONST> 7.021848e+01
<TRANSP> 5
 0.000000e+00 1.000000e+00 0.000000e+00 0.000000e+00 0.000000e+00
 0.000000e+00 8.828030e-01 1.171970e-01 0.000000e+00 0.000000e+00
 0.000000e+00 0.000000e+00 8.928654e-01 1.071346e-01 0.000000e+00
 0.000000e+00 0.000000e+00 0.000000e+00 8.593728e-01 1.406272e-01
 0.000000e+00 0.000000e+00 0.000000e+00 0.000000e+00 0.000000e+00
<ENDHMM>
~h "sp"
<BEGINHMM>
<NUMSTATES> 5
<STATE> 2
~s "silst"
<STATE> 3
<MEAN> 39
 -7.689572e+00 -6.473014e+00 -6.086514e+00 -9.733352e+00 -1.345840e+00 -4.098813e+00 -6.514257e-01 -8.587645e+00 -2.851499e+00 -5.629125e+00 9.402779e-01 -4.083288e+00 1.480101e+01 -8.738231e-02 -6.811006e-03 -9.907068e-02 4.983902e-04 -2.659854e-02 2.446452e-02 -1.497105e-02 2.752155e-02 -4.718165e-03 1.740811e-02 3.311505e-02 3.450022e-02 -9.931908e-03 5.700234e-02 7.745185e-02 5.814117e-02 -8.863178e-03 -7.152537e-03 -4.938738e-02 -3.614771e-02 -1.534264e-02 -6.662205e-03 -1.460178e-02 -3.032394e-02 -3.012284e-02 4.178083e-02
<VARIANCE> 39
 5.234103e+00 5.810527e+00 8.432499e+00 1.003982e+01 1.425406e+01 1.537410e+01 1.532929e+01 1.663579e+01 1.755352e+01 1.629750e+01 1.596313e+01 1.380778e+01 1.091830e+00 1.505421e-01 2.265468e-01 3.482287e-01 4.283391e-01 5.675769e-01 6.751250e-01 6.506909e-01 7.112457e-01 7.337398e-01 6.561546e-01 6.494367e-01 5.676255e-01 6.385082e-03 3.211240e-02 5.185266e-02 7.060716e-02 9.044568e-02 1.140519e-01 1.415761e-01 1.301664e-01 1.428159e-01 1.461192e-01 1.238802e-01 1.241602e-01 1.137652e-01 3.937846e-03
<GCONST> 5.443663e+01
<STATE> 4
<MEAN> 39
 -8.583328e+00 -4.924623e+00 -6.446229e+00 -8.903973e+00 -2.054125e+00 -3.687755e+00 -1.065933e+00 -8.359996e+00 -2.909142e+00 -5.441972e+00 6.033275e-01 -4.100386e+00 1.505948e+01 2.109314e-01 2.027009e-01 3.202303e-02 -1.506156e-01 -9.046393e-02 -2.369420e-01 -5.346479e-02 8.411858e-02 -3.613254e-02 -5.198560e-02 -1.982963e-01 -5.191505e-02 2.026715e-01 2.149322e-01 1.834148e-02 5.352280e-02 -1.669196e-01 -1.006221e-01 -2.077906e-01 -1.017182e-02 1.603746e-02 7.589214e-03 -7.408263e-03 -1.064606e-01 -8.485259e-02 1.122423e-01
<VARIANCE> 39
 1.218292e+01 1.155460e+01 1.710644e+01 1.575074e+01 1.940837e+01 1.880391e+01 1.829874e+01 2.043371e+01 2.095468e+01 1.995466e+01 1.887129e+01 1.731684e+01 1.547430e+00 5.506729e-01 5.230719e-01 6.670091e-01 7.766962e-01 8.419964e-01 9.221982e-01 8.352079e-01 1.142123e+00 1.026597e+00 9.077774e-01 8.927053e-01 7.357504e-01 4.877948e-02 6.879897e-02 1.126718e-01 1.691116e-01 1.373905e-01 1.850136e-01 1.849597e-01 1.700321e-01 2.245167e-01 2.017785e-01 1.801694e-01 1.779761e-01 1.521227e-01 9.412641e-03
<GCONST> 7.374061e+01
<TRANSP> 5
 0.000000e+00 7.954912e-01 2.045088e-01 0.000000e+00 0.000000e+00
 0.000000e+00 7.846244e-01 2.153757e-01 0.000000e+00 0.000000e+00
 0.000000e+00 0.000000e+00 8.461040e-01 1.538960e-01 0.000000e+00
 0.000000e+00 0.000000e+00 0.000000e+00 5.403281e-01 4.596719e-01
 0.000000e+00 0.000000e+00 0.000000e+00 0.000000e+00 0.000000e+00
<ENDHMM>
~h "seven"
<BEGINHMM>
<NUMSTATES> 5
<STATE> 2
<MEAN> 39
 -7.930333e+00 -4.495925e+00 -6.317401e+00 -9.303882e+00 -3.271411e+00 -4.495955e+00 -6.376998e-01 -8.136045e+00 -2.506944e+00 -4.335452e+00 -3.592093e-01 -3.713582e+00 1.532304e+01 8.733668e-01 1.182954e-01 7.344010e-01 -1.325273e+00 -1.078676e+00 -9.087967e-01 9.128006e-01 -1.110172e-01 3.418069e-01 6.421119e-02 -7.603610e-01 -6.651887e-01 6.524751e-01 5.001548e-02 -9.270662e-02 -3.266231e-02 -2.852057e-01 -2.196066e-01 4.137183e-02 2.676271e-01 6.409536e-02 -1.123859e-04 -1.304004e-01 -1.764032e-01 -1.745978e-01 1.448610e-01
<VARIANCE> 39
 8.814333e+00 6.276157e+00 1.255952e+01 1.129043e+01 1.844357e+01 2.039509e+01 1.786342e+01 1.794150e+01 1.806651e+01 2.427092e+01 1.758183e+01 1.579198e+01 2.028770e+00 4.545216e-01 4.265587e-01 6.358782e-01 9.556012e-01 1.274790e+00 1.532894e+00 1.326554e+00 1.125469e+00 1.178242e+00 2.247114e+00 1.084572e+00 1.163880e+00 7.926481e-02 7.961297e-02 5.383550e-02 1.001434e-01 1.137352e-01 2.034224e-01 2.114338e-01 1.549436e-01 1.594717e-01 1.667023e-01 1.976362e-01 1.386065e-01 1.828055e-01 9.550821e-03
<GCONST> 7.385170e+01
<STATE> 3
<MEAN> 39
 -5.686555e+00 -7.374703e+00 -5.315246e+00 -1.614108e+01 -6.208005e+00 -4.507912e+00 4.928415e+00 -8.635168e+00 -2.685791e+00 -7.060575e+00 -4.120294e+00 -6.586553e+00 1.901852e+01 1.475123e-01 -2.887269e-01 7.553660e-02 1.123936e-01 1.832134e-02 -3.759301e-02 2.005822e-01 2.584666e-01 -3.207515e-01 -5.755402e-02 -1.285126e-02 -6.000382e-02 9.422322e-02 -2.726628e-02 9.305438e-02 2.981997e-02 3.118590e-01 1.508828e-01 -6.021403e-02 -2.745929e-01 4.439471e-02 -1.996366e-02 3.287917e-02 1.956584e-01 6.765341e-02 -1.338173e-01
<VARIANCE> 39
 9.536607e+00 1.227017e+01 9.049883e+00 1.769266e+01 4.751489e+01 3.865283e+01 3.187374e+01 3.902138e+01 4.801351e+01 5.810891e+01 3.312728e+01 3.249963e+01 1.209558e+00 4.056950e-01 5.803955e-01 4.493189e-01 1.394882e+00 1.510852e+00 1.590855e+00 1.660430e+00 1.079111e+00 1.311613e+00 1.748144e+00 1.745721e+00 1.245244e+00 1.868030e-01 8.167069e-02 8.788305e-02 9.103260e-02 1.100495e-01 2.622519e-01 2.674015e-01 1.742814e-01 1.627132e-01 2.056435e-01 2.425251e-01 2.302172e-01 1.880261e-01 5.661877e-03
<GCONST> 8.366533e+01
<STATE> 4
<MEAN> 39
 -3.216889e+00 -4.050440e+00 -1.967013e+00 -9.760260e+00 -3.877515e+00 -7.969532e+00 -5.811324e-01 -8.030927e+00 -3.980231e+00 -6.708616e+00 -1.661595e+00 -6.912182e+00 1.712733e+01 9.253994e-02 3.425261e-01 2.079980e-01 2.308615e-01 3.710209e-01 2.208259e-04 -3.977440e-01 -3.339932e-01 3.636682e-02 -6.390598e-02 9.696950e-02 -8.696965e-04 -9.217692e-02 -4.336381e-02 -6.151607e-02 -5.665039e-02 -7.313874e-02 1.813774e-04 1.113090e-01 9.315995e-02 -3.604753e-02 5.762322e-03 2.917830e-03 -3.939247e-02 2.870110e-02 1.743571e-02
<VARIANCE> 39
 4.937116e+00 1.051894e+01 1.007781e+01 1.371746e+01 2.814920e+01 3.209088e+01 2.637503e+01 4.109388e+01 3.286313e+01 3.582951e+01 3.236936e+01 2.904600e+01 1.677434e+00 1.943274e-01 4.291954e-01 4.876926e-01 8.940197e-01 1.375294e+00 1.193197e+00 1.657694e+00 1.287556e+00 1.386454e+00 1.409752e+00 1.259233e+00 9.405196e-01 8.885755e-02 3.522526e-02 7.927883e-02 8.570205e-02 1.521687e-01 2.455534e-01 2.055182e-01 2.867868e-01 2.258074e-01 2.317972e-01 2.427020e-01 2.137956e-01 1.491149e-01 1.490743e-02
<GCONST> 7.866949e+01
<TRANSP> 5
 0.000000e+00 1.000000e+00 0.000000e+00 0.000000e+00 0.000000e+00
 0.000000e+00 7.171777e-01 2.828223e-01 0.000000e+00 0.000000e+00
 0.000000e+00 0.000000e+00 8.951802e-01 1.048198e-01 0.000000e+00
 0.000000e+00 0.000000e+00 0.000000e+00 9.324659e-01 6.753416e-02
 0.000000e+00 0.000000e+00 0.000000e+00 0.000000e+00 0.000000e+00
<ENDHMM>
~h "three"
<BEGINHMM>
<NUMSTATES> 5
<STATE> 2
<MEAN> 39
 -5.171554e+00 -5.692037e+00 -2.488886e+00 -9.674747e+00 -4.907831e+00 -9.011577e+00 -1.868401e+00 -8.358130e+00 -2.571672e+00 -5.725785e+00 1.717369e-01 -4.625146e+00 1.622382e+01 9.592625e-01 -2.154126e-01 8.707259e-01 3.353764e-01 -1.702507e+00 -1.123015e+00 -2.188360e-01 -7.002924e-02 1.401039e-01 4.776476e-02 -1.366722e-01 -2.781236e-01 4.542049e-01 2.920637e-02 -9.755628e-02 7.473915e-02 -2.620528e-02 -2.593991e-01 5.161640e-02 4.940658e-02 -3.961471e-02 9.150896e-02 6.549500e-02 2.532608e-02 -1.890919e-02 2.894820e-02
<VARIANCE> 39
 1.373359e+01 9.854745e+00 1.279020e+01 1.982431e+01 3.102104e+01 3.835524e+01 2.082997e+01 2.125462e+01 2.559106e+01 2.364606e+01 2.850818e+01 2.235113e+01 2.646979e+00 4.876035e-01 6.263881e-01 7.462594e-01 1.259473e+00 1.756782e+00 1.910607e+00 1.082223e+00 1.237532e+00 1.278280e+00 1.162223e+00 1.490486e+00 1.438060e+00 5.036148e-02 1.241372e-01 9.837688e-02 1.292834e-01 2.339330e-01 2.658354e-01 3.805590e-01 1.947229e-01 2.313181e-01 1.989402e-01 1.859008e-01 2.152752e-01 1.920716e-01 1.091958e-02
<GCONST> 8.326065e+01
<STATE> 3
<MEAN> 39
 -2.611970e+00 -7.293471e+00 3.856639e+00 -1.246297e+01 -1.574777e+01 -7.948504e+00 -3.254405e+00 -9.788723e+00 1.077289e+00 -4.853807e+00 4.916447e-01 -5.867914e+00 1.856428e+01 -5.091053e-01 7.969340e-01 6.750110e-01 -1.705956e+00 2.618524e-01 9.550718e-01 -1.153997e+00 1.776414e-01 3.811481e-01 -9.962747e-02 1.393558e-01 -1.293116e-01 1.424308e-01 -2.096584e-01 3.499429e-01 -2.740029e-01 -1.519212e-01 7.361646e-01 -9.543677e-02 -1.407423e-01 1.820372e-01 -1.974849e-01 -5.699588e-02 -2.527971e-03 4.393267e-02 -7.472000e-02
<VARIANCE> 39
 6.904099e+00 1.468194e+01 1.763201e+01 5.521961e+01 3.871134e+01 6.505888e+01 4.094711e+01 4.394038e+01 2.651961e+01 2.684162e+01 3.662120e+01 3.493518e+01 1.215410e+00 5.338445e-01 1.419293e+00 9.499586e-01 1.865805e+00 4.734947e+00 2.509223e+00 2.257891e+00 2.214358e+00 1.240214e+00 9.491181e-01 9.648000e-01 9.202690e-01 4.557166e-02 7.300987e-02 8.188110e-02 1.747606e-01 4.551071e-01 3.006467e-01 7.767661e-01 4.238865e-01 2.735837e-01 2.366727e-01 1.574835e-01 1.537997e-01 1.518379e-01 3.093598e-03
<GCONST> 8.967037e+01
<STATE> 4
<MEAN> 39
 -6.774033e+00 3.560880e+00 -7.346249e-01 -1.743564e+01 -2.246683e+00 -1.163644e+01 -6.582166e+00 -7.721779e+00 -2.993630e+00 -5.230293e+00 -1.555163e-01 -6.397773e+00 1.802660e+01 1.819306e-02 2.302588e-01 -6.473191e-01 7.345711e-01 7.717596e-01 -3.519205e-01 5.400085e-01 -1.469389e-01 -4.403665e-01 -1.832557e-02 -1.636903e-01 6.816823e-04 -1.598272e-01 8.668026e-02 -3.051619e-01 2.973221e-02 2.021154e-01 -2.322224e-01 2.049579e-01 1.653492e-01 -8.412109e-02 9.026295e-02 -1.789175e-03 9.917978e-03 1.488467e-02 -2.945385e-02
<VARIANCE> 39
 7.534516e+00 1.719613e+01 2.008737e+01 3.187077e+01 2.738576e+01 2.993547e+01 5.055014e+01 4.870489e+01 3.391317e+01 3.956728e+01 4.218697e+01 3.645978e+01 1.528970e+00 2.999880e-01 1.685497e+00 6.540349e-01 1.102067e+00 1.874685e+00 2.303194e+00 1.431792e+00 1.690839e+00 1.292587e+00 1.213691e+00 8.382394e-01 8.771560e-01 2.450779e-02 3.942516e-02 9.053276e-02 9.200388e-02 2.199537e-01 1.810347e-01 2.325936e-01 2.824720e-01 2.460976e-01 1.836586e-01 1.632624e-01 1.357468e-01 1.314702e-01 2.381277e-03
<GCONST> 8.131472e+01
<TRANSP> 5
 0.000000e+00 1.000000e+00 0.000000e+00 0.000000e+00 0.000000e+00
 0.000000e+00 8.270931e-01 1.729069e-01 0.000000e+00 0.000000e+00
 0.000000e+00 0.000000e+00 8.491381e-01 1.508618e-01 0.000000e+00
 0.000000e+00 0.000000e+00 0.000000e+00 9.073564e-01 9.264357e-02
 0.000000e+00 0.000000e+00 0.000000e+00 0.000000e+00 0.000000e+00
<ENDHMM>
~h "one"
<BEGINHMM>
<NUMSTATES> 5
<STATE> 2
<MEAN> 39
 -6.326558e-01 -3.823419e+00 -9.266851e+00 -1.276996e+01 -1.600385e+00 -5.550736e+00 -2.022048e+00 -8.867797e+00 -2.710379e+00 -6.737187e+00 -1.540070e+00 -7.290632e+00 1.771685e+01 2.846765e-01 -4.003950e-01 -8.662618e-01 4.571097e-01 4.867528e-01 3.343957e-02 -2.959018e-01 2.289252e-01 2.029535e-01 -3.078964e-01 -3.882461e-01 -2.656251e-01 2.402549e-01 -1.160742e-01 -1.433665e-01 5.695391e-02 2.620323e-01 4.016471e-03 -1.184615e-01 -1.148105e-02 9.228226e-02 -1.253248e-02 -9.216276e-02 1.012197e-02 8.130056e-02 -2.043675e-02
<VARIANCE> 39
 7.930197e+00 9.345189e+00 2.895895e+01 2.294212e+01 2.854038e+01 2.531955e+01 2.293328e+01 2.065868e+01 2.831200e+01 2.400799e+01 2.967680e+01 2.865285e+01 2.333597e+00 4.586515e-01 8.070256e-01 8.772478e-01 2.254545e+00 1.370526e+00 1.451309e+00 1.267418e+00 1.071476e+00 1.133769e+00 1.031494e+00 1.098808e+00 1.043216e+00 4.743683e-02 4.626977e-02 6.260540e-02 1.898500e-01 2.181543e-01 2.633268e-01 2.505155e-01 2.385952e-01 1.815786e-01 2.010969e-01 1.707211e-01 1.893934e-01 1.836002e-01 5.111490e-03
<GCONST> 8.037370e+01
<STATE> 3
<MEAN> 39
 -2.431479e+00 -1.072124e+01 -1.076019e+01 -1.676356e+00 -6.149423e-01 -9.471838e+00 -2.275115e+00 -4.305436e+00 -3.672356e+00 -1.168889e+01 -2.325151e+00 -6.112144e+00 1.853768e+01 -6.049575e-01 -3.449143e-01 1.353827e+00 5.190053e-01 -1.350276e+00 -2.836167e-01 1.178873e+00 -1.330689e-01 -9.043880e-01 -5.501771e-02 5.740337e-01 9.868933e-02 -5.140829e-02 2.833661e-02 3.163797e-01 2.413340e-01 -5.809529e-01 -1.122036e-01 3.727607e-01 6.968397e-02 -4.311593e-01 1.577356e-02 3.717101e-01 3.375140e-02 -1.697723e-01 -2.959898e-02
<VARIANCE> 39
 6.246700e+00 9.719365e+00 1.906419e+01 2.362611e+01 2.762776e+01 1.740035e+01 3.826219e+01 3.214494e+01 4.642955e+01 3.757273e+01 3.400778e+01 3.358545e+01 1.540486e+00 1.565483e-01 5.370160e-01 6.074642e-01 1.880109e+00 7.359663e-01 1.766714e+00 1.005135e+00 2.272708e+00 1.197330e+00 1.890393e+00 1.035796e+00 1.295385e+00 8.594487e-03 2.436825e-02 5.266584e-02 1.025188e-01 1.217292e-01 2.968096e-01 1.538637e-01 3.867722e-01 1.803335e-01 3.386575e-01 2.041383e-01 2.673452e-01 1.708727e-01 8.596700e-04
<GCONST> 7.561230e+01
<STATE> 4
<MEAN> 39
 -4.011904e+00 -5.055344e+00 -1.543172e+00 -8.899076e+00 -3.709424e+00 -6.069407e+00 -1.960446e+00 -1.203294e+01 -4.675764e+00 -8.565678e+00 -2.701489e+00 -8.330520e+00 1.775376e+01 1.334208e-01 8.535569e-01 5.080312e-01 -6.167890e-01 4.144880e-01 -2.315388e-02 -5.583014e-01 -3.934467e-01 7.858366e-02 1.973754e-01 -1.444576e-01 7.661539e-02 -1.278929e-01 2.627726e-02 -8.590794e-02 -2.081150e-01 1.586016e-01 1.296365e-01 -4.178546e-02 -3.302949e-02 1.676538e-01 1.344802e-02 -1.073268e-01 2.842528e-02 7.999615e-02 -8.680627e-03
<VARIANCE> 39
 6.796255e+00 2.276910e+01 1.068232e+01 1.978905e+01 2.022624e+01 4.560869e+01 3.539684e+01 3.449011e+01 4.158567e+01 4.597238e+01 3.284204e+01 3.702899e+01 1.274635e+00 2.642401e-01 7.229683e-01 8.320270e-01 1.225950e+00 8.782277e-01 1.884221e+00 1.167129e+00 1.374239e+00 1.574538e+00 1.480149e+00 9.381882e-01 9.369485e-01 1.281857e-02 4.939451e-02 1.154088e-01 8.291719e-02 1.270777e-01 1.945283e-01 3.116545e-01 2.613017e-01 1.806766e-01 2.261936e-01 2.210482e-01 1.675786e-01 1.650667e-01 2.039719e-03
<GCONST> 7.825529e+01
<TRANSP> 5
 0.000000e+00 1.000000e+00 0.000000e+00 0.000000e+00 0.000000e+00
 0.000000e+00 8.987004e-01 1.012996e-01 0.000000e+00 0.000000e+00
 0.000000e+00 0.000000e+00 8.285092e-01 1.714908e-01 0.000000e+00
 0.000000e+00 0.000000e+00 0.000000e+00 8.944154e-01 1.055846e-01
 0.000000e+00 0.000000e+00 0.000000e+00 0.000000e+00 0.000000e+00
<ENDHMM>
~h "sil"
<BEGINHMM>
<NUMSTATES> 5
<STATE> 2
<MEAN> 39
 -6.732710e+00 -6.537217e+00 -4.887636e+00 -8.821181e+00 1.204162e-01 -3.335561e+00 9.124190e-02 -8.721682e+00 -2.716562e+00 -5.718613e+00 5.934739e-01 -4.310679e+00 1.465791e+01 -5.380493e-02 -1.126525e-02 -5.680246e-03 4.338441e-02 6.591038e-02 5.112413e-02 5.996069e-02 5.688076e-03 -1.544556e-02 1.948613e-02 1.288492e-02 4.949601e-03 -1.776745e-02 -3.529087e-02 -4.895679e-02 -9.609870e-02 -1.359603e-01 -1.357508e-01 -1.257656e-01 -5.514028e-02 8.414462e-03 -1.132174e-02 5.599170e-03 3.380938e-02 3.054295e-02 8.033152e-04
<VARIANCE> 39
 4.060929e+00 4.616022e+00 6.075926e+00 7.593719e+00 1.198729e+01 1.379785e+01 1.529375e+01 1.659790e+01 1.571632e+01 1.402798e+01 1.610719e+01 1.330679e+01 1.187876e+00 8.949411e-02 1.742845e-01 2.890277e-01 3.965675e-01 5.145088e-01 6.651229e-01 6.875268e-01 7.355304e-01 7.275137e-01 6.041476e-01 6.512234e-01 5.585628e-01 6.603105e-03 1.148663e-02 2.397030e-02 4.026868e-02 4.946913e-02 7.133594e-02 1.007677e-01 1.064194e-01 1.329112e-01 1.120539e-01 9.427975e-02 1.077687e-01 9.681287e-02 6.791772e-04
<GCONST> 4.506837e+01
<STATE> 3
~s "silst"
<STATE> 4
<MEAN> 39
 -7.470264e+00 -7.383666e+00 -6.502351e+00 -1.102964e+01 -1.893862e+00 -5.082211e+00 -7.274145e-01 -8.490011e+00 -2.613298e+00 -5.494259e+00 1.272119e+00 -3.926168e+00 1.448200e+01 1.452554e-03 1.151374e-02 -1.926665e-02 -2.140728e-02 -5.200505e-02 -2.669920e-02 -4.765349e-02 -8.134586e-03 -9.351217e-03 -1.384644e-02 -1.150663e-02 -8.373052e-03 2.776456e-04 3.167571e-02 5.163151e-02 8.202168e-02 1.058277e-01 1.016810e-01 9.282339e-02 3.696828e-02 -5.496287e-04 1.069030e-02 -9.474726e-03 -3.692280e-02 -2.761501e-02 7.295253e-03
<VARIANCE> 39
 3.316684e+00 3.899363e+00 6.177415e+00 7.613620e+00 1.162153e+01 1.303787e+01 1.480999e+01 1.577229e+01 1.740152e+01 1.487955e+01 1.516978e+01 1.323855e+01 1.004989e+00 6.920214e-02 1.562043e-01 2.710436e-01 3.936625e-01 4.917662e-01 6.703398e-01 6.086520e-01 7.217122e-01 6.813499e-01 5.809587e-01 6.790779e-01 6.111762e-01 2.856593e-03 1.265504e-02 2.689231e-02 4.013289e-02 5.546832e-02 7.539631e-02 1.124571e-01 1.073418e-01 1.263987e-01 1.297864e-01 1.016505e-01 1.148081e-01 1.105108e-01 8.732987e-04
<GCONST> 4.416259e+01
<TRANSP> 5
 0.000000e+00 1.000000e+00 0.000000e+00 0.000000e+00 0.000000e+00
 0.000000e+00 7.264986e-01 2.941943e-02 2.440820e-01 0.000000e+00
 0.000000e+00 0.000000e+00 8.121641e-01 1.878358e-01 0.000000e+00
 0.000000e+00 1.504575e-01 0.000000e+00 7.912744e-01 5.826816e-02
 0.000000e+00 0.000000e+00 0.000000e+00 0.000000e+00 0.000000e+00
<ENDHMM>
~h "six"
<BEGINHMM>
<NUMSTATES> 5
<STATE> 2
<MEAN> 39
 -8.728503e+00 -4.289914e+00 -7.060816e+00 -8.690616e+00 -3.047524e+00 -4.152524e+00 -1.948286e+00 -8.221157e+00 -3.558218e+00 -4.051037e+00 1.335867e-01 -3.131423e+00 1.492684e+01 6.720814e-01 6.671823e-01 1.186035e+00 -1.347911e+00 -1.131399e+00 -1.190974e+00 3.759359e-02 -1.364716e-01 4.082140e-01 3.479577e-01 -5.071776e-01 -4.555504e-01 6.187768e-01 7.255827e-02 1.166512e-01 2.333491e-01 -4.782973e-01 -2.833827e-01 -1.785678e-01 4.202759e-02 7.233601e-02 2.008801e-01 4.064656e-03 -1.361934e-01 -2.328603e-01 1.467272e-01
<VARIANCE> 39
 7.336479e+00 7.732169e+00 1.263042e+01 1.143294e+01 1.871302e+01 1.955666e+01 1.508549e+01 1.829576e+01 1.995070e+01 2.913958e+01 1.911605e+01 1.702871e+01 1.827526e+00 3.593238e-01 4.701621e-01 8.860208e-01 1.168195e+00 1.078261e+00 1.325803e+00 9.883162e-01 8.053350e-01 1.407436e+00 2.218435e+00 1.071488e+00 1.306855e+00 7.960654e-02 6.176072e-02 5.637052e-02 1.167969e-01 9.727693e-02 2.021903e-01 2.056222e-01 1.474182e-01 1.758947e-01 1.855587e-01 2.369269e-01 1.706113e-01 1.690433e-01 8.526879e-03
<GCONST> 7.388937e+01
<STATE> 3
<MEAN> 39
 -6.466658e+00 -1.099979e+00 -8.599484e-01 -2.010112e+01 -7.867814e+00 -8.743675e+00 -2.433804e+00 -6.387104e+00 2.372070e-01 -3.790910e+00 -2.521342e+00 -7.318187e+00 1.832666e+01 2.548583e-02 -8.450111e-02 2.241920e-01 -2.876692e-01 3.699978e-01 2.082765e-01 -2.743228e-01 1.723137e-01 3.966453e-02 -1.949407e-01 1.685930e-01 3.864652e-03 -4.538164e-02 -5.706752e-02 -2.048929e-01 -2.666894e-01 4.860990e-01 2.880489e-01 2.220911e-01 6.761778e-02 -9.054405e-02 -1.459826e-01 -5.891039e-02 1.512620e-01 1.651504e-01 -1.668332e-01
<VARIANCE> 39
 7.690381e+00 9.732302e+00 1.660473e+01 2.320429e+01 5.840576e+01 3.108975e+01 3.715613e+01 2.459522e+01 3.462201e+01 5.837242e+01 3.539751e+01 3.738862e+01 1.433285e+00 3.503218e-01 6.539980e-01 1.077114e+00 3.232055e+00 2.406224e+00 1.769422e+00 1.734233e+00 1.340290e+00 1.888620e+00 2.009812e+00 1.867723e+00 1.900759e+00 2.950892e-01 6.814019e-02 6.604794e-02 1.606811e-01 2.266093e-01 3.056890e-01 3.192109e-01 3.829292e-01 2.242540e-01 2.866929e-01 3.402041e-01 2.632342e-01 2.552174e-01 1.166318e-02
<GCONST> 9.189671e+01
<STATE> 4
<MEAN> 39
 -6.553267e+00 -6.249136e+00 -4.682268e+00 -1.082315e+01 -1.003175e+00 -3.989978e+00 -1.440361e+00 -8.742302e+00 -2.151986e+00 -5.857696e+00 1.167112e+00 -4.219235e+00 1.475563e+01 -2.290013e-01 -9.111022e-01 -1.007729e+00 1.464779e+00 4.188742e-01 4.049326e-01 9.070664e-01 -4.633434e-01 -2.802683e-01 -4.580706e-02 2.024094e-01 2.960582e-01 -4.649231e-01 -1.058914e-01 1.683449e-01 2.082617e-01 -4.376414e-01 -3.789128e-01 -1.593547e-01 -8.333251e-02 1.724069e-01 1.162120e-01 1.047922e-01 -1.786527e-01 -1.435451e-01 1.499047e-01
<VARIANCE> 39
 3.274446e+00 5.463201e+00 9.437337e+00 1.113871e+01 1.466121e+01 1.557057e+01 1.947308e+01 1.861741e+01 1.681394e+01 1.701033e+01 1.859631e+01 1.491077e+01 1.493109e+00 2.638357e-01 4.855895e-01 8.946930e-01 1.312195e+00 2.114443e+00 1.653326e+00 1.601938e+00 1.245456e+00 1.213016e+00 1.198503e+00 1.174615e+00 1.024268e+00 7.935067e-02 3.856389e-02 6.534248e-02 1.384686e-01 1.474766e-01 2.334131e-01 1.808481e-01 2.663043e-01 1.917416e-01 1.856368e-01 1.732742e-01 1.977536e-01 1.828018e-01 5.801600e-03
<GCONST> 7.237422e+01
<TRANSP> 5
 0.000000e+00 1.000000e+00 0.000000e+00 0.000000e+00 0.000000e+00
 0.000000e+00 7.234119e-01 2.765881e-01 0.000000e+00 0.000000e+00
 0.000000e+00 0.000000e+00 8.893836e-01 1.106164e-01 0.000000e+00
 0.000000e+00 0.000000e+00 0.000000e+00 7.497242e-01 2.502757e-01
 0.000000e+00 0.000000e+00 0.000000e+00 0.000000e+00 0.000000e+00
<ENDHMM>
~h "two"
<BEGINHMM>
<NUMSTATES> 5
<STATE> 2
<MEAN> 39
 -1.093040e+01 -3.372003e+00 -6.798972e+00 -1.062578e+01 -1.028899e+00 -3.905451e+00 -1.908236e+00 -7.509260e+00 -2.327802e+00 -5.662888e+00 1.170308e+00 -3.344189e+00 1.503058e+01 4.612056e-01 6.183116e-01 9.652901e-01 -5.709032e-01 -2.687879e-01 -3.570560e-01 -4.613746e-01 -1.945759e-01 8.026675e-02 -4.410884e-02 -2.162274e-01 -3.425646e-01 3.157693e-01 2.898264e-01 6.609716e-02 2.886932e-01 -1.295847e-01 -2.026801e-01 -2.340574e-01 -1.162307e-01 -1.240699e-01 -2.431660e-02 2.831048e-03 -8.067537e-02 -1.699049e-01 9.202122e-02
<VARIANCE> 39
 8.749671e+00 8.350116e+00 1.237461e+01 1.216961e+01 1.834603e+01 2.256978e+01 1.900982e+01 2.102656e+01 2.112063e+01 2.357436e+01 2.453543e+01 1.952253e+01 8.957082e-01 1.383202e+00 5.537952e-01 1.306576e+00 8.216624e-01 1.333421e+00 1.277160e+00 9.843838e-01 1.191895e+00 1.156924e+00 1.278404e+00 1.827068e+00 1.091515e+00 7.143193e-02 1.269690e-01 1.093209e-01 1.306469e-01 1.295055e-01 2.292238e-01 1.997337e-01 1.745334e-01 2.208525e-01 2.250409e-01 1.989762e-01 3.549315e-01 1.568856e-01 7.883683e-03
<GCONST> 7.867773e+01
<STATE> 3
<MEAN> 39
 -4.621671e+00 1.242939e+00 1.852333e+00 -1.545423e+01 -6.866532e+00 -9.889428e+00 -6.679019e+00 -1.046478e+01 -2.442865e+00 -5.188691e+00 -1.104100e+00 -7.263345e+00 1.838562e+01 6.820546e-01 5.644754e-01 7.746496e-01 -5.674543e-01 -1.185977e+00 -1.129723e+00 -5.889065e-01 -2.968054e-01 -6.710479e-02 1.220907e-01 -2.352713e-01 -6.468341e-01 4.630535e-01 -2.531016e-01 -2.319777e-01 -4.292672e-01 2.949973e-01 2.643023e-01 2.275169e-01 2.352295e-01 1.494385e-01 -1.639504e-02 -6.184262e-03 1.518999e-01 1.808917e-01 -1.434061e-01
<VARIANCE> 39
 7.472063e+00 8.083397e+00 1.366023e+01 2.242526e+01 3.983640e+01 2.574825e+01 2.809846e+01 2.437635e+01 3.144838e+01 5.483507e+01 4.355657e+01 4.797456e+01 1.066601e+00 5.742244e-01 6.265941e-01 9.861583e-01 1.452408e+00 1.278049e+00 1.178644e+00 1.671444e+00 1.522274e+00 1.868840e+00 2.010087e+00 2.432277e+00 1.859639e+00 8.703252e-02 6.113445e-02 5.490916e-02 8.102304e-02 1.270770e-01 2.086707e-01 1.824262e-01 2.038366e-01 1.914904e-01 2.136992e-01 2.727484e-01 2.891213e-01 2.217789e-01 6.837754e-03
<GCONST> 8.384000e+01
<STATE> 4
<MEAN> 39
 -3.209044e+00 -9.814228e-02 -6.680185e-02 -1.351527e+01 -7.092214e+00 -1.162303e+01 -5.702219e+00 -9.709285e+00 -2.812636e+00 -5.418289e+00 -2.132979e-01 -7.611905e+00 1.822329e+01 1.608921e-01 -2.334637e-01 -2.506661e-01 5.351083e-01 3.489356e-01 1.036308e-01 1.167948e-01 -3.573930e-02 -1.646251e-01 -6.763175e-02 9.543059e-02 1.782214e-01 -1.258882e-01 -5.075280e-02 -4.428137e-02 -3.042941e-02 1.993381e-02 9.836049e-02 1.234705e-01 6.428070e-02 1.201402e-02 2.320469e-02 7.730662e-03 -3.599870e-03 4.895079e-02 -3.844628e-02
<VARIANCE> 39
 5.995315e+00 8.054129e+00 1.254667e+01 2.987949e+01 3.334020e+01 2.201067e+01 3.315331e+01 3.331683e+01 4.027451e+01 4.344407e+01 5.434531e+01 4.174024e+01 1.364390e+00 1.444913e-01 1.620143e-01 3.827825e-01 6.369681e-01 9.113694e-01 8.907782e-01 8.979253e-01 1.067083e+00 9.323911e-01 1.006766e+00 1.053312e+00 9.653683e-01 1.650636e-02 2.385568e-02 2.714583e-02 5.273839e-02 9.067950e-02 1.068532e-01 1.315749e-01 1.354664e-01 1.652407e-01 1.551502e-01 1.603419e-01 1.624799e-01 1.486997e-01 2.654549e-03
<GCONST> 6.692626e+01
<TRANSP> 5
 0.000000e+00 1.000000e+00 0.000000e+00 0.000000e+00 0.000000e+00
 0.000000e+00 8.254889e-01 1.745111e-01 0.000000e+00 0.000000e+00
 0.000000e+00 0.000000e+00 7.642450e-01 2.357550e-01 0.000000e+00
 0.000000e+00 0.000000e+00 0.000000e+00 9.061658e-01 9.383416e-02
 0.000000e+00 0.000000e+00 0.000000e+00 0.000000e+00 0.000000e+00
<ENDHMM>
~h "nine"
<BEGINHMM>
<NUMSTATES> 5
<STATE> 2
<MEAN> 39
 -4.474307e+00 -4.297885e+00 -2.065994e+00 -8.919239e+00 -2.981084e+00 -6.170909e+00 -1.502621e+00 -1.112075e+01 -5.015851e+00 -8.051678e+00 -2.906224e+00 -7.769077e+00 1.753486e+01 -1.369152e-01 -6.669257e-01 -2.235644e-01 4.911474e-01 -4.953610e-01 1.828057e-01 3.869072e-01 -2.007219e-01 -4.340860e-02 -1.567275e-01 -1.820288e-01 -1.401676e-01 2.484777e-01 -3.733018e-02 -1.261964e-01 -7.415346e-02 1.157107e-01 1.597031e-02 -7.654331e-03 3.814948e-02 2.902863e-02 8.979433e-03 3.817145e-03 7.608755e-02 3.449701e-02 -9.173628e-03
<VARIANCE> 39
 8.945185e+00 2.006249e+01 1.533093e+01 1.677758e+01 2.860927e+01 2.885879e+01 3.196550e+01 2.757196e+01 4.720596e+01 3.537810e+01 3.012350e+01 3.261529e+01 2.344367e+00 5.338064e-01 1.573689e+00 1.155964e+00 1.107399e+00 1.136055e+00 1.439062e+00 1.636273e+00 1.275096e+00 1.522102e+00 1.148301e+00 1.235004e+00 1.036525e+00 3.749696e-02 6.534366e-02 1.798595e-01 1.347453e-01 1.395153e-01 2.020365e-01 2.215707e-01 2.421142e-01 1.852835e-01 1.992086e-01 1.625930e-01 1.741789e-01 1.452832e-01 5.023221e-03
<GCONST> 8.287039e+01
<STATE> 3
<MEAN> 39
 -6.303761e+00 -1.164429e+01 -4.942671e+00 -2.564640e+00 -5.670206e+00 -5.372976e+00 1.781488e+00 -1.129590e+01 -5.640960e+00 -9.038257e+00 -1.636148e+00 -7.678483e+00 1.861770e+01 -1.093311e-01 7.672106e-02 2.332680e-01 -2.192814e-01 -3.914739e-02 2.106959e-01 -8.316129e-02 -9.747688e-02 1.818000e-01 6.428394e-02 -4.624767e-02 3.733486e-02 -2.044610e-02 -1.379963e-03 1.897249e-01 7.474551e-02 -2.460435e-01 3.716310e-02 7.498332e-02 -1.036130e-01 2.586816e-03 8.115160e-02 -8.304534e-03 -7.579877e-02 2.494360e-02 -1.448319e-02
<VARIANCE> 39
 7.222558e+00 8.511255e+00 2.458022e+01 3.160906e+01 1.884949e+01 3.048522e+01 3.084775e+01 3.413858e+01 4.330083e+01 4.179980e+01 2.813888e+01 3.036902e+01 1.014893e+00 8.198769e-02 3.422555e-01 4.048262e-01 1.067364e+00 4.723722e-01 6.170381e-01 5.320482e-01 5.031145e-01 6.254417e-01 6.556270e-01 6.657081e-01 5.306517e-01 4.673772e-03 1.073835e-02 2.963722e-02 3.989564e-02 5.342418e-02 7.050359e-02 6.744914e-02 7.320227e-02 7.827602e-02 8.049196e-02 8.626360e-02 7.715092e-02 7.825910e-02 3.949915e-04
<GCONST> 5.313930e+01
<STATE> 4
<MEAN> 39
 -5.961580e+00 -2.935529e+00 -1.528890e+00 -1.197342e+01 -1.790138e+00 -4.814724e+00 -3.377727e+00 -1.018259e+01 -2.908789e+00 -8.123327e+00 -3.054974e+00 -6.461721e+00 1.787010e+01 3.861263e-01 7.755766e-01 1.406217e-01 -2.303383e-01 5.139590e-01 -4.511705e-01 -4.227266e-01 2.854319e-01 -2.117693e-01 4.986845e-02 1.134529e-01 5.226420e-02 -1.259100e-01 2.454829e-02 -1.316936e-01 -4.788311e-02 2.178136e-01 -1.913795e-02 -4.636903e-02 1.080149e-01 -2.825948e-02 -9.671629e-02 2.727624e-02 8.414730e-02 -2.212551e-02 -1.184909e-02
<VARIANCE> 39
 1.188676e+01 1.895861e+01 1.201826e+01 2.312857e+01 3.477431e+01 3.426175e+01 3.266342e+01 2.985880e+01 4.863770e+01 3.952664e+01 3.853250e+01 4.278931e+01 1.061719e+00 3.951623e-01 9.693150e-01 5.674516e-01 1.843461e+00 1.349908e+00 1.361230e+00 1.385243e+00 1.294234e+00 1.631904e+00 1.152683e+00 1.082487e+00 1.010787e+00 1.032672e-02 6.213376e-02 9.569561e-02 8.811752e-02 1.552173e-01 1.899938e-01 2.444251e-01 1.811766e-01 2.000304e-01 2.369059e-01 1.960215e-01 1.763979e-01 1.430943e-01 1.267511e-03
<GCONST> 7.891969e+01
<TRANSP> 5
 0.000000e+00 1.000000e+00 0.000000e+00 0.000000e+00 0.000000e+00
 0.000000e+00 8.967401e-01 1.032599e-01 0.000000e+00 0.000000e+00
 0.000000e+00 0.000000e+00 9.124649e-01 8.753518e-02 0.000000e+00
 0.000000e+00 0.000000e+00 0.000000e+00 9.030291e-01 9.697084e-02
 0.000000e+00 0.000000e+00 0.000000e+00 0.000000e+00 0.000000e+00
<ENDHMM>
~h "five"
<BEGINHMM>
<NUMSTATES> 5
<STATE> 2
<MEAN> 39
 -4.276037e+00 -1.122265e+01 -9.960566e+00 -8.323678e+00 4.430661e-01 -8.034785e+00 3.518438e-01 -4.766305e+00 -5.177264e+00 -7.898163e+00 -1.724928e+00 -4.861783e+00 1.789593e+01 3.782436e-01 -1.165655e+00 -7.231879e-01 7.651995e-01 5.042851e-01 -6.461660e-01 3.219542e-01 4.115578e-01 -7.421035e-01 -2.295900e-01 -3.104043e-01 -9.958345e-03 5.663927e-01 -1.820548e-01 1.524874e-02 1.631783e-01 9.408735e-02 -9.423473e-03 9.742260e-02 3.078033e-02 -1.936596e-01 1.976457e-02 1.336902e-01 1.490886e-01 4.736935e-02 -6.813713e-02
<VARIANCE> 39
 1.107942e+01 1.970246e+01 2.369761e+01 1.658433e+01 1.884939e+01 2.071771e+01 2.501860e+01 5.104692e+01 3.212343e+01 2.783758e+01 2.490594e+01 1.984903e+01 4.519413e+00 7.744897e-01 5.649275e-01 1.157888e+00 9.115292e-01 7.884757e-01 9.837386e-01 9.756761e-01 2.277219e+00 1.717222e+00 1.712551e+00 1.355569e+00 1.023648e+00 1.222138e-01 9.716285e-02 1.348638e-01 1.823705e-01 1.228168e-01 1.353310e-01 1.458703e-01 1.545467e-01 3.035319e-01 2.731786e-01 1.948935e-01 1.797445e-01 1.403262e-01 2.909993e-02
<GCONST> 8.447210e+01
<STATE> 3
<MEAN> 39
 -5.814277e+00 -1.544349e+01 -8.529738e+00 -3.671422e+00 1.414242e+00 -9.131981e+00 2.526026e+00 -7.525572e+00 -7.216833e+00 -5.445184e+00 -4.828740e-01 -4.515349e+00 1.904488e+01 -1.656353e-01 8.903929e-02 4.909324e-01 -2.675941e-01 -2.720171e-01 4.416712e-01 6.648740e-02 -3.976793e-01 3.122666e-02 2.988148e-01 5.793346e-02 -8.231457e-02 -4.876792e-02 4.053424e-02 1.160416e-01 1.078222e-02 -1.974002e-01 -5.531194e-02 9.157205e-02 -2.917372e-02 2.670384e-02 5.749836e-02 -5.097708e-02 -7.685359e-02 -1.852603e-02 -1.516722e-02
<VARIANCE> 39
 9.172493e+00 9.412615e+00 2.491217e+01 2.086426e+01 1.877745e+01 2.325471e+01 1.753695e+01 3.924656e+01 4.734993e+01 4.450978e+01 2.691583e+01 2.549379e+01 1.364408e+00 8.865477e-02 1.577639e-01 2.713745e-01 6.538946e-01 5.049481e-01 5.604705e-01 5.030110e-01 4.985868e-01 6.175360e-01 5.812238e-01 5.761251e-01 4.764186e-01 5.894529e-03 1.179405e-02 2.446136e-02 3.053894e-02 4.856619e-02 5.137669e-02 5.191365e-02 5.731744e-02 6.483044e-02 8.716014e-02 8.502920e-02 6.737852e-02 7.057347e-02 9.218251e-04
<GCONST> 4.997324e+01
<STATE> 4
<MEAN> 39
 -5.660166e+00 -9.195741e+00 -3.849370e+00 -1.408063e+01 -3.382475e+00 -2.916040e+00 1.771401e+00 -8.317316e+00 -4.110152e+00 -5.288337e+00 -2.317588e+00 -5.589712e+00 1.828316e+01 2.196817e-01 1.209785e+00 3.761145e-01 -5.906902e-01 -3.998263e-01 -1.419438e-01 -3.229732e-01 2.652401e-01 5.404950e-01 -1.963940e-01 -4.455912e-02 -9.648120e-02 -2.511844e-01 -2.511816e-02 -3.344355e-02 -5.920146e-02 3.579905e-01 1.533843e-01 -1.687323e-01 -5.717297e-02 -2.615715e-02 -4.559503e-02 1.997274e-02 1.282216e-01 4.785405e-02 -5.087294e-02
<VARIANCE> 39
 7.944718e+00 2.340140e+01 1.231042e+01 3.074906e+01 4.249143e+01 2.045095e+01 2.489022e+01 3.621728e+01 5.204161e+01 2.810699e+01 2.677254e+01 3.047795e+01 1.784313e+00 2.120636e-01 5.032020e-01 5.736598e-01 2.705960e+00 1.418368e+00 1.591024e+00 9.758714e-01 1.308999e+00 1.671550e+00 1.341703e+00 1.280965e+00 9.403387e-01 4.343472e-02 4.494609e-02 9.872597e-02 7.814156e-02 2.311069e-01 2.331254e-01 2.415454e-01 1.694332e-01 2.237933e-01 2.201582e-01 1.827505e-01 2.037435e-01 1.680065e-01 4.180229e-03
<GCONST> 8.045367e+01
<TRANSP> 5
 0.000000e+00 1.000000e+00 0.000000e+00 0.000000e+00 0.000000e+00
 0.000000e+00 8.511960e-01 1.488040e-01 0.000000e+00 0.000000e+00
 0.000000e+00 0.000000e+00 9.134171e-01 8.658290e-02 0.000000e+00
 0.000000e+00 0.000000e+00 0.000000e+00 8.651924e-01 1.348076e-01
 0.000000e+00 0.000000e+00 0.000000e+00 0.000000e+00 0.000000e+00
<ENDHMM>
~h "four"
<BEGINHMM>
<NUMSTATES> 5
<STATE> 2
<MEAN> 39
 -6.829542e+00 -6.588513e+00 -5.516947e+00 -9.740491e+00 -1.564836e+00 -5.506608e+00 -1.164920e+00 -8.353265e+00 -2.005594e+00 -5.557197e+00 9.993605e-01 -4.259742e+00 1.532866e+01 1.538923e+00 5.256860e-01 -8.757040e-01 -8.277701e-01 -3.007344e-01 -5.274619e-01 -6.854954e-01 -1.848965e-01 1.986589e-01 2.007264e-01 -3.314607e-01 -4.786784e-01 6.315610e-01 3.563954e-01 1.280725e-01 -3.366195e-01 -3.173937e-01 -5.992989e-02 -1.197801e-02 -8.599173e-02 -2.252748e-02 3.275464e-03 5.502927e-02 -7.825717e-02 -1.303723e-01 1.451895e-01
<VARIANCE> 39
 7.233901e+00 5.353230e+00 5.474803e+00 7.738389e+00 1.000673e+01 1.241000e+01 1.457216e+01 1.373328e+01 1.608168e+01 1.350608e+01 1.599244e+01 1.214902e+01 1.689072e+00 5.397103e-01 4.289687e-01 6.186228e-01 7.498136e-01 7.034500e-01 9.056824e-01 7.531491e-01 8.185681e-01 9.942263e-01 1.066505e+00 1.510440e+00 1.203291e+00 6.215105e-02 6.537452e-02 5.372100e-02 6.060235e-02 8.257161e-02 1.009015e-01 1.529530e-01 1.209491e-01 1.531686e-01 1.404534e-01 1.607143e-01 1.987883e-01 1.873801e-01 6.829713e-03
<GCONST> 6.391062e+01
<STATE> 3
<MEAN> 39
 1.593678e+00 -3.476983e+00 -1.215071e+01 -1.704226e+01 -3.998708e+00 -6.189529e+00 -3.166043e+00 -8.954584e+00 -1.407537e+00 -3.867132e+00 4.257926e-01 -6.766307e+00 1.891052e+01 3.070184e-01 -1.830250e-01 -3.261179e-01 -4.127565e-02 7.240649e-02 -1.825143e-02 -2.201452e-01 1.728014e-01 3.508055e-01 9.331882e-02 -2.287160e-01 -2.208239e-01 1.439954e-01 -1.733976e-01 -1.539579e-01 1.490370e-01 2.351904e-01 3.852028e-02 -3.544555e-02 3.786819e-02 1.103226e-01 4.769364e-02 -8.448221e-02 -5.536254e-02 5.611558e-02 -6.748249e-02
<VARIANCE> 39
 4.137578e+00 1.026093e+01 9.656584e+00 1.374475e+01 2.442858e+01 1.713091e+01 1.851378e+01 1.712840e+01 2.358392e+01 2.475796e+01 3.801566e+01 3.750894e+01 1.089506e+00 5.285842e-01 7.278041e-01 6.883574e-01 1.215930e+00 9.695687e-01 7.721385e-01 9.085566e-01 9.553890e-01 1.310875e+00 1.175659e+00 1.338791e+00 1.243198e+00 9.379848e-02 4.941769e-02 4.567530e-02 9.576794e-02 8.028988e-02 1.353573e-01 1.431683e-01 1.555313e-01 1.407627e-01 1.811699e-01 1.915837e-01 1.992282e-01 1.865728e-01 7.189445e-03
<GCONST> 7.252413e+01
<STATE> 4
<MEAN> 39
 -3.352935e-01 -1.116926e+01 -7.758087e+00 -8.625042e+00 -5.473373e+00 -8.819860e+00 -2.159773e+00 -4.463023e+00 4.963690e-01 -7.572289e+00 -3.897715e+00 -7.393923e+00 1.851542e+01 -5.588236e-01 1.725724e-02 1.154962e+00 5.049351e-01 -5.167587e-01 4.826053e-02 6.388149e-01 -1.870995e-01 -6.623561e-01 -3.736598e-01 1.297027e-01 2.605245e-01 -2.124327e-01 -8.685851e-02 2.857735e-01 -1.304435e-02 -2.037694e-01 1.410752e-01 2.004177e-01 1.193473e-02 -2.248054e-01 -1.454162e-01 1.131574e-01 1.763355e-01 3.774323e-02 -5.128220e-02
<VARIANCE> 39
 7.033211e+00 1.490753e+01 2.941741e+01 1.915186e+01 4.655055e+01 3.856983e+01 3.522529e+01 4.003161e+01 4.552582e+01 3.485135e+01 3.474403e+01 3.194656e+01 1.585731e+00 2.255423e-01 1.569610e+00 7.115794e-01 1.644481e+00 2.227069e+00 2.164069e+00 1.619417e+00 2.571007e+00 1.830337e+00 1.710663e+00 1.796281e+00 1.101659e+00 4.407873e-02 2.932785e-02 1.024484e-01 1.924816e-01 1.739598e-01 4.344814e-01 3.076850e-01 3.544603e-01 3.457283e-01 3.776437e-01 2.814685e-01 3.063052e-01 2.177107e-01 3.184608e-03
<GCONST> 8.905597e+01
<TRANSP> 5
 0.000000e+00 1.000000e+00 0.000000e+00 0.000000e+00 0.000000e+00
 0.000000e+00 7.076361e-01 2.923638e-01 0.000000e+00 0.000000e+00
 0.000000e+00 0.000000e+00 9.184713e-01 8.152872e-02 0.000000e+00
 0.000000e+00 0.000000e+00 0.000000e+00 8.757806e-01 1.242193e-01
 0.000000e+00 0.000000e+00 0.000000e+00 0.000000e+00 0.000000e+00
<ENDHMM>
~h "zero"
<BEGINHMM>
<NUMSTATES> 5
<STATE> 2
<MEAN> 39
 -6.732093e+00 -1.957680e+00 -4.396153e+00 -7.739703e+00 -2.388527e+00 -4.838527e+00 -2.689863e+00 -8.897035e+00 -3.598028e+00 -4.304986e+00 2.373698e-01 -4.576133e+00 1.560784e+01 2.550736e-01 9.748176e-01 8.998892e-01 -1.042447e+00 -7.497165e-01 -1.275274e+00 -5.668155e-01 -5.363619e-01 3.050593e-01 2.926664e-01 -1.052388e-01 -2.299119e-01 4.510762e-01 2.755442e-02 8.102186e-02 1.574124e-01 -3.201566e-01 -1.530225e-01 -1.997388e-01 -5.423791e-04 -1.595594e-02 1.508885e-01 -1.851842e-03 2.053044e-02 -8.039112e-02 8.081666e-02
<VARIANCE> 39
 7.235016e+00 1.127146e+01 1.579303e+01 1.467696e+01 2.174913e+01 2.264750e+01 1.916796e+01 2.050478e+01 2.993927e+01 2.513911e+01 2.266167e+01 2.049454e+01 1.579053e+00 3.694104e-01 5.049152e-01 8.404935e-01 1.059304e+00 8.941291e-01 1.433793e+00 9.702128e-01 1.216426e+00 1.373017e+00 9.862495e-01 1.192939e+00 1.496730e+00 6.321436e-02 5.584520e-02 1.061522e-01 1.355439e-01 1.124716e-01 1.316413e-01 2.213358e-01 1.526847e-01 1.964426e-01 1.704929e-01 1.524605e-01 1.813705e-01 1.719327e-01 8.269989e-03
<GCONST> 7.539243e+01
<STATE> 3
<MEAN> 39
 -5.529058e+00 1.279743e-01 1.012684e+00 -1.694280e+01 -8.079571e+00 -9.039829e+00 -4.521623e+00 -8.450292e+00 2.188931e-01 -3.772766e+00 1.725640e-01 -6.837436e+00 1.842896e+01 3.451634e-01 -7.765421e-01 4.114907e-01 -1.068306e-01 -1.081781e+00 2.684754e-01 2.428165e-01 1.912170e-01 3.044792e-01 -8.477095e-02 3.948694e-02 -1.148786e-01 1.579497e-01 5.134991e-02 -2.589903e-01 -1.772560e-01 3.672754e-01 2.702586e-02 1.194055e-01 1.933964e-01 5.852027e-02 -9.156088e-02 -4.111043e-02 -1.436767e-02 7.259677e-02 -6.326770e-02
<VARIANCE> 39
 7.476291e+00 2.200798e+01 1.733224e+01 2.653396e+01 6.090101e+01 4.193325e+01 3.224389e+01 4.428096e+01 3.085008e+01 2.998206e+01 3.424178e+01 5.074905e+01 1.079983e+00 4.411978e-01 1.587427e+00 8.131469e-01 2.655030e+00 1.730345e+00 2.497403e+00 1.727183e+00 1.441223e+00 1.334133e+00 1.161641e+00 1.094149e+00 1.307705e+00 6.056740e-02 5.069074e-02 1.168054e-01 1.251305e-01 1.810609e-01 2.515444e-01 4.154278e-01 2.242866e-01 2.465877e-01 2.104030e-01 1.726337e-01 1.709079e-01 2.156518e-01 4.586210e-03
<GCONST> 8.709821e+01
<STATE> 4
<MEAN> 39
 -1.550798e+00 -1.031256e+01 -4.627243e+00 -9.851177e+00 -9.380297e+00 -8.179757e+00 3.613752e-01 -4.113811e+00 -1.587227e-01 -6.707805e+00 -1.031138e+00 -5.736657e+00 1.851608e+01 5.864202e-02 5.867359e-02 -4.919437e-01 1.537791e-01 6.729583e-01 -1.518116e-01 -3.411995e-02 1.591405e-01 -9.071537e-02 -1.269030e-01 -8.381980e-02 -4.272125e-03 -6.561272e-02 -6.510548e-02 1.295868e-01 7.026644e-02 -7.726769e-02 8.297546e-02 5.741997e-02 -8.460723e-02 -8.262456e-02 -2.394127e-02 2.914153e-02 2.203586e-02 -4.040051e-03 -2.022855e-02
<VARIANCE> 39
 6.405046e+00 1.870365e+01 2.613114e+01 2.623993e+01 6.201065e+01 5.290146e+01 3.689790e+01 3.599003e+01 4.429615e+01 3.545829e+01 2.526885e+01 3.272113e+01 1.508681e+00 2.239158e-01 8.161041e-01 6.975638e-01 9.868400e-01 1.197217e+00 1.652220e+00 1.493173e+00 1.816195e+00 1.594095e+00 1.407423e+00 1.032403e+00 9.240992e-01 1.941001e-02 2.492082e-02 3.880484e-02 7.655179e-02 1.131519e-01 1.868926e-01 2.291339e-01 1.937601e-01 1.950427e-01 2.192847e-01 1.898931e-01 1.500705e-01 1.364364e-01 2.033053e-03
<GCONST> 7.781251e+01
<TRANSP> 5
 0.000000e+00 1.000000e+00 0.000000e+00 0.000000e+00 0.000000e+00
 0.000000e+00 7.666473e-01 2.333527e-01 0.000000e+00 0.000000e+00
 0.000000e+00 0.000000e+00 8.933117e-01 1.066883e-01 0.000000e+00
 0.000000e+00 0.000000e+00 0.000000e+00 9.416606e-01 5.833942e-02
 0.000000e+00 0.000000e+00 0.000000e+00 0.000000e+00 0.000000e+00
<ENDHMM>
