~o
<STREAMINFO> 1 39
<VECSIZE> 39<NULLD><MFCC_E_D_A><DIAGC>
~h "eight"
<BEGINHMM>
<NUMSTATES> 5
<STATE> 2
<MEAN> 39
 -7.524306e+00 -3.425247e+00 -5.693411e+00 -1.668146e+01 -6.472506e-01 -5.182539e+00 5.464666e-01 -6.746542e+00 -1.554669e+00 -6.763764e+00 -1.027598e+00 -5.331607e+00 1.714915e+01 -1.900111e-01 7.575371e-01 -8.186458e-02 -7.814530e-01 3.923216e-02 -4.146100e-01 5.497142e-02 2.967916e-01 3.011596e-01 4.556043e-02 -9.448553e-02 -9.567159e-02 2.139849e-01 3.509489e-02 8.254012e-02 1.092874e-02 8.964286e-02 -4.103868e-02 -1.680751e-01 -8.082505e-02 -2.284951e-02 2.705019e-02 6.061712e-02 5.858419e-02 -4.577311e-03 3.464109e-03
<VARIANCE> 39
 1.075571e+01 2.305900e+01 1.835834e+01 3.944756e+01 4.045792e+01 2.353761e+01 2.441579e+01 2.433794e+01 3.137280e+01 2.547031e+01 2.575895e+01 2.447287e+01 3.380888e+00 3.360931e-01 9.651000e-01 6.847309e-01 1.411197e+00 1.254016e+00 1.634329e+00 1.348148e+00 1.128193e+00 1.374371e+00 1.216735e+00 1.140064e+00 1.007751e+00 1.229765e-01 4.082832e-02 8.491941e-02 8.461761e-02 2.011329e-01 1.478581e-01 1.778283e-01 1.529697e-01 1.814238e-01 2.320954e-01 1.695054e-01 1.833553e-01 1.573075e-01 1.323963e-02
<GCONST> 8.183717e+01
<STATE> 3
<MEAN> 39
 -7.935248e+00 5.476034e+00 -4.908564e+00 -1.664714e+01 -2.357282e+00 -1.441948e+01 -3.035322e+00 -8.590933e+00 -1.333346e+00 -4.426850e+00 9.895317e-01 -5.287175e+00 1.807282e+01 2.038449e-01 -4.290556e-01 1.808126e-01 9.720700e-01 1.361455e-01 6.937623e-02 -3.419740e-01 -6.694660e-01 -5.148535e-01 -4.115377e-02 2.100245e-01 1.946012e-01 -2.363368e-01 1.021136e-02 -3.328974e-01 -3.043581e-02 6.395247e-02 4.254457e-02 3.532609e-01 1.234227e-01 5.586593e-02 -2.347017e-02 -9.194316e-02 -6.257919e-02 3.913553e-03 -6.257630e-02
<VARIANCE> 39
 9.284502e+00 1.350733e+01 2.250829e+01 3.248489e+01 1.967632e+01 2.420494e+01 5.254491e+01 3.438083e+01 4.415767e+01 2.637338e+01 3.191338e+01 2.703326e+01 1.959835e+00 2.642213e-01 1.895685e+00 4.088324e-01 7.647159e-01 7.868082e-01 2.502140e+00 1.307342e+00 1.116784e+00 1.804262e+00 1.195097e+00 1.398753e+00 1.008700e+00 6.759202e-02 3.641403e-02 9.029911e-02 5.905460e-02 1.265751e-01 9.250819e-02 1.745009e-01 1.630080e-01 2.078772e-01 2.767965e-01 1.690462e-01 1.958888e-01 1.643083e-01 4.024216e-03
<GCONST> 7.874337e+01
<STATE> 4
<MEAN> 39
 -7.116768e+00 -6.541069e+00 -5.514881e+00 -1.004293e+01 -1.215375e+00 -4.682476e+00 -8.409387e-01 -8.921488e+00 -3.019660e+00 -5.935844e+00 9.428704e-01 -4.004979e+00 1.468662e+01 -7.179819e-02 -3.660462e-01 -1.176297e-01 1.204235e-01 -4.112476e-02 3.696090e-01 1.855411e-01 1.810013e-01 1.167376e-01 8.797874e-03 1.649086e-02 9.387847e-03 -9.300537e-02 -5.685109e-03 1.757349e-01 1.040006e-02 -6.684004e-02 -1.211831e-02 -1.464314e-01 -4.599058e-02 -1.503967e-02 -6.331750e-03 2.179348e-02 -5.186263e-03 -1.391506e-02 4.871767e-02
<VARIANCE> 39
 4.560892e+00 6.159133e+00 8.314754e+00 9.574126e+00 1.262566e+01 1.589430e+01 1.697649e+01 1.696683e+01 1.732070e+01 1.627313e+01 1.523353e+01 1.399439e+01 1.034501e+00 2.099293e-01 8.405219e-01 4.288098e-01 5.955226e-01 4.862403e-01 1.170443e+00 9.931188e-01 8.546669e-01 9.812952e-01 7.909750e-01 7.432471e-01 7.057054e-01 4.874180e-02 3.460024e-02 9.647735e-02 7.128521e-02 1.091524e-01 9.177047e-02 1.887647e-01 1.756935e-01 1.504275e-01 1.623779e-01 1.354729e-01 1.324255e-01 1.272722e-01 4.818406e-03
<GCONST> 6.216206e+01
<TRANSP> 5
 0.000000e+00 1.000000e+00 0.000000e+00 0.000000e+00 0.000000e+00
 0.000000e+00 9.121935e-01 8.780646e-02 0.000000e+00 0.000000e+00
 0.000000e+00 0.000000e+00 8.976245e-01 1.023755e-01 0.000000e+00
 0.000000e+00 0.000000e+00 0.000000e+00 9.213891e-01 7.861087e-02
 0.000000e+00 0.000000e+00 0.000000e+00 0.000000e+00 0.000000e+00
<ENDHMM>
~h "oh"
<BEGINHMM>
<NUMSTATES> 5
<STATE> 2
<MEAN> 39
 -5.072905e+00 -9.817540e+00 -7.833381e+00 -8.759858e+00 -2.347719e+00 -7.078439e+00 2.847757e+00 -7.616872e+00 -4.773008e+00 -6.878156e+00 -1.687977e+00 -4.955316e+00 1.721408e+01 4.015594e-01 -2.821489e-01 -5.485504e-01 2.171543e-01 1.401625e-01 -4.945704e-01 2.322900e-01 5.781047e-01 -1.037479e-01 -3.932614e-01 -3.404430e-01 -6.349593e-02 2.903819e-01 6.013409e-02 8.892404e-02 -1.210247e-02 -5.544883e-02 1.547178e-02 -6.012437e-02 -1.276604e-01 1.861832e-02 1.092553e-01 1.494933e-03 -5.272231e-02 -5.050197e-02 1.424363e-02
<VARIANCE> 39
 8.382318e+00 1.228219e+01 1.538583e+01 1.591972e+01 2.185691e+01 2.340164e+01 2.846191e+01 5.757664e+01 3.748623e+01 3.054214e+01 2.663989e+01 2.711326e+01 3.812016e+00 4.045041e-01 5.595050e-01 6.603167e-01 6.405979e-01 7.460982e-01 1.180175e+00 1.235328e+00 1.815302e+00 1.533160e+00 1.309645e+00 1.311777e+00 1.082004e+00 1.254164e-01 4.813061e-02 7.023268e-02 8.521730e-02 8.555454e-02 1.118070e-01 1.482320e-01 1.609972e-01 2.226751e-01 2.095435e-01 1.953586e-01 2.000354e-01 1.548820e-01 1.713555e-02
<GCONST> 7.894450e+01
<STATE> 3
<MEAN> 39
 -4.965968e-01 -8.085556e+00 -1.303811e+01 -1.018379e+01 -8.909637e-01 -1.201037e+01 -8.892467e-01 -1.284804e+00 1.939245e-01 -7.884262e+00 -5.009703e+00 -6.855101e+00 1.903839e+01 2.239068e-01 4.083355e-01 -6.300218e-03 -3.375473e-01 -6.150988e-02 -1.964631e-02 -6.569716e-01 -2.515025e-01 6.164256e-01 5.838712e-01 3.178690e-02 -3.234854e-01 -1.058175e-02 -4.688031e-02 2.213264e-02 1.000645e-01 -1.014030e-02 -5.009496e-02 8.897679e-02 1.630315e-02 -1.447874e-01 -8.520380e-02 7.581908e-02 1.148444e-01 2.391881e-02 -2.662398e-02
<VARIANCE> 39
 6.028928e+00 9.347398e+00 1.555830e+01 1.589686e+01 1.975417e+01 2.333682e+01 4.428235e+01 3.314376e+01 4.055780e+01 3.755705e+01 3.123153e+01 3.914727e+01 1.183735e+00 8.543301e-02 1.427005e-01 2.976725e-01 2.936641e-01 3.913102e-01 5.535882e-01 7.245917e-01 1.116326e+00 7.998057e-01 8.947303e-01 8.656525e-01 6.944234e-01 1.391790e-02 1.175630e-02 1.537127e-02 3.537054e-02 3.572029e-02 4.852976e-02 7.178196e-02 8.156157e-02 1.012436e-01 1.109302e-01 1.074999e-01 9.628417e-02 9.289262e-02 1.245800e-03
<GCONST> 5.396381e+01
<STATE> 4
<MEAN> 39
 -7.418341e-01 -3.730198e+00 -8.383312e+00 -1.248795e+01 -3.622053e+00 -9.300129e+00 -4.000141e+00 -8.066682e+00 -2.979580e-01 -3.366259e+00 3.569790e-01 -6.248659e+00 1.795416e+01 -5.069041e-01 1.203003e-01 7.349997e-01 2.727187e-01 1.213807e-02 5.559264e-01 3.365035e-01 -4.405220e-01 -5.363587e-01 -1.885749e-01 3.968876e-01 4.349123e-01 -2.802323e-01 -1.126515e-01 -1.140012e-01 -2.907982e-02 7.595365e-02 9.950942e-02 8.985763e-02 1.345907e-01 9.031346e-02 -3.953710e-02 -1.066716e-01 -6.855630e-02 5.315260e-02 -3.464264e-02
<VARIANCE> 39
 9.361529e+00 7.810206e+00 2.079553e+01 1.825481e+01 1.941332e+01 2.692006e+01 3.110314e+01 2.683561e+01 3.199023e+01 4.008416e+01 3.906115e+01 3.790235e+01 2.412508e+00 3.826953e-01 4.593660e-01 5.507371e-01 6.217660e-01 8.842404e-01 1.264740e+00 1.251874e+00 1.298651e+00 1.305792e+00 1.263463e+00 1.279159e+00 1.245755e+00 5.453470e-02 3.299594e-02 4.469847e-02 8.896672e-02 8.728140e-02 1.096995e-01 1.661355e-01 1.871806e-01 1.997286e-01 2.127137e-01 2.068777e-01 1.755924e-01 1.748505e-01 4.194903e-03
<GCONST> 7.532740e+01
<TRANSP> 5
 0.000000e+00 1.000000e+00 0.000000e+00 0.000000e+00 0.000000e+00
 0.000000e+00 9.027607e-01 9.723934e-02 0.000000e+00 0.000000e+00
 0.000000e+00 0.000000e+00 9.042472e-01 9.575283e-02 0.000000e+00
 0.000000e+00 0.000000e+00 0.000000e+00 8.838432e-01 1.161568e-01
 0.000000e+00 0.000000e+00 0.000000e+00 0.000000e+00 0.000000e+00
<ENDHMM>
~h "seven"
<BEGINHMM>
<NUMSTATES> 5
<STATE> 2
<MEAN> 39
 -8.806637e+00 -4.769283e+00 -7.050022e+00 -8.596655e+00 -2.107395e+00 -3.131442e+00 -1.276508e+00 -8.136147e+00 -2.909430e+00 -5.214482e+00 6.799250e-01 -3.793394e+00 1.484347e+01 4.741137e-02 -4.084798e-02 -4.356904e-02 -3.256985e-01 -2.671278e-01 -1.353353e-01 2.667651e-01 1.513744e-02 1.375781e-01 -7.732983e-04 -2.047788e-01 -6.332432e-02 1.080882e-01 1.303979e-01 9.204713e-03 8.983045e-02 -1.476357e-01 -1.309363e-01 -1.120199e-01 8.732998e-02 -1.238436e-02 2.002489e-02 -2.644496e-02 -8.712232e-02 -9.269782e-02 9.199277e-02
<VARIANCE> 39
 8.339980e+00 1.013035e+01 1.380077e+01 1.310765e+01 1.612600e+01 1.582006e+01 1.759686e+01 1.745255e+01 1.826358e+01 1.723363e+01 1.706742e+01 1.463344e+01 9.047270e-01 7.144124e-01 4.608474e-01 8.613424e-01 9.991091e-01 9.701377e-01 1.283293e+00 9.959628e-01 8.575957e-01 1.029544e+00 1.155907e+00 9.210109e-01 9.517392e-01 1.512427e-01 5.368416e-02 6.783886e-02 9.750180e-02 1.360509e-01 1.662413e-01 1.770662e-01 1.648983e-01 1.456986e-01 1.700096e-01 1.546174e-01 1.450091e-01 1.504833e-01 8.093947e-03
<GCONST> 7.123419e+01
<STATE> 3
<MEAN> 39
 -5.558074e+00 -7.172778e+00 -5.193472e+00 -1.591174e+01 -6.355660e+00 -4.897011e+00 4.772486e+00 -8.475005e+00 -2.770162e+00 -6.761118e+00 -3.975048e+00 -6.626519e+00 1.896182e+01 1.894534e-01 -2.722628e-01 1.233813e-01 3.882827e-02 -6.137358e-02 -1.088006e-01 2.446582e-01 2.681849e-01 -2.807245e-01 -5.543026e-02 -6.964462e-02 -1.107267e-01 1.236366e-01 -4.178002e-02 7.839749e-02 1.111914e-02 2.926458e-01 1.553700e-01 -2.480865e-02 -2.548967e-01 3.867868e-02 -2.091171e-02 1.592025e-02 1.771702e-01 7.159719e-02 -1.270850e-01
<VARIANCE> 39
 9.614646e+00 1.303328e+01 9.436709e+00 1.827780e+01 4.580248e+01 3.937848e+01 3.187668e+01 3.950838e+01 4.652961e+01 5.849231e+01 3.255421e+01 3.130153e+01 1.240814e+00 4.410260e-01 5.954199e-01 4.993330e-01 1.548395e+00 1.671524e+00 1.672650e+00 1.827652e+00 1.089302e+00 1.392669e+00 1.776832e+00 1.809613e+00 1.326400e+00 2.114269e-01 8.204690e-02 9.001199e-02 9.646609e-02 1.114839e-01 2.523419e-01 2.721471e-01 1.781217e-01 1.666771e-01 2.018927e-01 2.407533e-01 2.262372e-01 1.834979e-01 6.062322e-03
<GCONST> 8.474818e+01
<STATE> 4
<MEAN> 39
 -3.244347e+00 -3.881840e+00 -1.891206e+00 -9.521947e+00 -3.365976e+00 -8.015688e+00 -1.088917e+00 -8.732977e+00 -4.324253e+00 -7.120048e+00 -1.906867e+00 -7.105261e+00 1.713247e+01 1.768376e-02 2.205665e-01 1.049612e-01 2.065500e-01 3.193769e-01 1.039542e-01 -2.925304e-01 -2.637340e-01 8.569282e-02 -1.439335e-02 1.277885e-01 4.227535e-02 -1.184136e-01 -5.595607e-02 -7.367305e-02 -7.384488e-02 -8.778021e-02 -2.233393e-02 9.372154e-02 1.106988e-01 -4.596353e-03 1.866140e-02 1.745079e-02 -3.220642e-02 2.023119e-02 1.415735e-02
<VARIANCE> 39
 4.974837e+00 1.019478e+01 9.926704e+00 1.395348e+01 2.822467e+01 3.043305e+01 2.586526e+01 4.089526e+01 3.293279e+01 3.570391e+01 3.328815e+01 2.974876e+01 1.533693e+00 2.533941e-01 5.250471e-01 5.539060e-01 8.538651e-01 1.339953e+00 1.253489e+00 1.628735e+00 1.363170e+00 1.438484e+00 1.411169e+00 1.273560e+00 9.896280e-01 9.358753e-02 3.738626e-02 7.812198e-02 8.698361e-02 1.507713e-01 2.341873e-01 2.027749e-01 2.726193e-01 2.366428e-01 2.360251e-01 2.409604e-01 2.174073e-01 1.500706e-01 1.437083e-02
<GCONST> 7.928008e+01
<TRANSP> 5
 0.000000e+00 1.000000e+00 0.000000e+00 0.000000e+00 0.000000e+00
 0.000000e+00 9.125738e-01 8.742619e-02 0.000000e+00 0.000000e+00
 0.000000e+00 0.000000e+00 9.003658e-01 9.963415e-02 0.000000e+00
 0.000000e+00 0.000000e+00 0.000000e+00 9.365584e-01 6.344163e-02
 0.000000e+00 0.000000e+00 0.000000e+00 0.000000e+00 0.000000e+00
<ENDHMM>
~h "three"
<BEGINHMM>
<NUMSTATES> 5
<STATE> 2
<MEAN> 39
 -7.753092e+00 -6.035272e+00 -4.949141e+00 -1.011977e+01 -8.176929e-01 -4.845855e+00 -5.888014e-01 -8.498262e+00 -2.602038e+00 -5.425552e+00 9.830309e-01 -3.779375e+00 1.488863e+01 1.181831e-01 -8.363530e-02 2.207195e-01 -4.797812e-02 -4.167408e-01 -2.858680e-01 -6.849154e-02 1.494149e-02 7.425310e-02 3.189603e-02 1.361316e-02 4.296610e-04 9.208786e-02 1.742203e-01 2.254095e-02 1.428293e-01 1.952192e-03 -2.577673e-01 -1.755565e-01 -7.574127e-02 -1.877715e-02 1.537879e-02 -9.218161e-03 -3.924753e-02 -7.054602e-02 8.471644e-02
<VARIANCE> 39
 5.400815e+00 6.329587e+00 9.779353e+00 1.060191e+01 1.435538e+01 1.431225e+01 1.606511e+01 1.761143e+01 1.951324e+01 1.776077e+01 1.686061e+01 1.459230e+01 1.170451e+00 7.019907e-01 5.235445e-01 8.963114e-01 7.510088e-01 1.499184e+00 1.312560e+00 9.016350e-01 1.036179e+00 9.999562e-01 9.323068e-01 9.825645e-01 9.153188e-01 1.193087e-01 5.916801e-02 9.076431e-02 9.846709e-02 1.380229e-01 2.011593e-01 1.855363e-01 1.564497e-01 2.030750e-01 1.781606e-01 1.662450e-01 1.641536e-01 1.611113e-01 4.958379e-03
<GCONST> 7.052031e+01
<STATE> 3
<MEAN> 39
 -2.518144e+00 -6.783528e+00 2.449305e+00 -1.140190e+01 -1.369863e+01 -9.363316e+00 -3.152557e+00 -9.428343e+00 -9.452189e-03 -5.130507e+00 1.270104e-01 -5.735048e+00 1.823541e+01 -6.862520e-02 4.227132e-01 6.951807e-01 -1.049856e+00 -3.996490e-01 3.060224e-01 -8.254077e-01 1.096465e-01 3.076136e-01 -2.807261e-02 6.153186e-02 -1.674216e-01 2.367497e-01 -2.156725e-01 2.146457e-01 -2.005205e-01 -1.428179e-01 5.230260e-01 4.712487e-02 -5.941813e-02 1.143464e-01 -1.140718e-01 -2.023110e-02 2.135158e-02 3.956059e-02 -6.774367e-02
<VARIANCE> 39
 6.507162e+00 1.457572e+01 2.008425e+01 4.937663e+01 4.245376e+01 6.100883e+01 3.522890e+01 3.826546e+01 3.064140e+01 2.820660e+01 3.707789e+01 3.334344e+01 1.447084e+00 9.619794e-01 1.476631e+00 9.228678e-01 2.725308e+00 4.895103e+00 3.382435e+00 2.206997e+00 1.969151e+00 1.296623e+00 1.095892e+00 1.152277e+00 1.164598e+00 6.899499e-02 6.798224e-02 1.290743e-01 1.773857e-01 3.907537e-01 3.806302e-01 6.812707e-01 3.772562e-01 2.755095e-01 2.400973e-01 1.746556e-01 1.705918e-01 1.637534e-01 3.908582e-03
<GCONST> 9.265440e+01
<STATE> 4
<MEAN> 39
 -6.590533e+00 3.298150e+00 -7.803372e-01 -1.672943e+01 -2.106734e+00 -1.135583e+01 -6.399195e+00 -7.962177e+00 -3.159454e+00 -5.505672e+00 -3.370848e-01 -6.525789e+00 1.789478e+01 -2.820023e-02 6.329467e-02 -6.391482e-01 7.253082e-01 7.234783e-01 -1.648683e-01 5.492651e-01 -8.268628e-02 -3.564537e-01 1.202915e-02 -7.059459e-02 5.073586e-02 -1.956447e-01 5.814698e-02 -2.881100e-01 2.509327e-03 1.697319e-01 -2.211487e-01 1.819733e-01 1.647798e-01 -6.734736e-02 9.742363e-02 8.240514e-03 2.041675e-02 2.496874e-02 -3.092068e-02
<VARIANCE> 39
 7.580514e+00 1.700892e+01 1.909982e+01 3.484713e+01 2.704741e+01 2.948767e+01 4.823326e+01 4.778455e+01 3.321840e+01 3.976906e+01 4.240148e+01 3.677534e+01 1.619890e+00 3.151329e-01 1.882909e+00 6.700057e-01 1.043725e+00 1.834880e+00 2.559854e+00 1.467133e+00 1.693765e+00 1.384672e+00 1.287920e+00 1.031998e+00 9.705029e-01 3.582554e-02 4.748391e-02 9.098820e-02 9.640337e-02 2.205413e-01 1.814740e-01 2.352854e-01 2.696349e-01 2.497833e-01 1.837019e-01 1.709957e-01 1.443273e-01 1.353049e-01 2.469560e-03
<GCONST> 8.276370e+01
<TRANSP> 5
 0.000000e+00 1.000000e+00 0.000000e+00 0.000000e+00 0.000000e+00
 0.000000e+00 9.016222e-01 9.837785e-02 0.000000e+00 0.000000e+00
 0.000000e+00 0.000000e+00 8.936680e-01 1.063320e-01 0.000000e+00
 0.000000e+00 0.000000e+00 0.000000e+00 9.153340e-01 8.466595e-02
 0.000000e+00 0.000000e+00 0.000000e+00 0.000000e+00 0.000000e+00
<ENDHMM>
~h "one"
<BEGINHMM>
<NUMSTATES> 5
<STATE> 2
<MEAN> 39
 -4.518683e-01 -3.402742e+00 -8.443924e+00 -1.270271e+01 -1.875654e+00 -5.987653e+00 -2.275684e+00 -8.867919e+00 -2.601683e+00 -6.645996e+00 -1.475393e+00 -7.365989e+00 1.769859e+01 2.104064e-01 -3.606907e-01 -7.771975e-01 3.866512e-01 4.274722e-01 9.436670e-02 -2.048094e-01 2.134594e-01 1.819883e-01 -2.419213e-01 -3.084278e-01 -2.085120e-01 1.797012e-01 -1.118927e-01 -1.460633e-01 2.928451e-02 2.153428e-01 1.225805e-02 -9.389301e-02 -2.924173e-03 1.044307e-01 5.146923e-03 -7.578894e-02 2.512570e-03 7.602535e-02 -1.570865e-02
<VARIANCE> 39
 5.495389e+00 8.375101e+00 3.132995e+01 2.276482e+01 2.856276e+01 2.622863e+01 2.260900e+01 2.060508e+01 2.743960e+01 2.315651e+01 3.019640e+01 3.007914e+01 2.038570e+00 4.331102e-01 7.311471e-01 9.486030e-01 2.139360e+00 1.343982e+00 1.366090e+00 1.271952e+00 1.039800e+00 1.139390e+00 9.681872e-01 1.111001e+00 9.685569e-01 5.947197e-02 3.949690e-02 5.502332e-02 1.856302e-01 2.318583e-01 2.499832e-01 2.470866e-01 2.300195e-01 1.749954e-01 1.963427e-01 1.583913e-01 1.854128e-01 1.750193e-01 4.527934e-03
<GCONST> 7.904108e+01
<STATE> 3
<MEAN> 39
 -2.465507e+00 -1.063753e+01 -1.057809e+01 -1.816961e+00 -8.205133e-01 -9.426668e+00 -2.030214e+00 -4.359988e+00 -3.708421e+00 -1.158842e+01 -2.280306e+00 -6.160032e+00 1.852691e+01 -5.923266e-01 -3.130958e-01 1.360798e+00 4.865330e-01 -1.327687e+00 -2.683963e-01 1.140179e+00 -1.565465e-01 -8.915215e-01 -1.472102e-02 5.522469e-01 9.289064e-02 -5.213490e-02 3.157236e-02 3.182554e-01 2.336394e-01 -5.691847e-01 -9.459361e-02 3.616175e-01 5.219541e-02 -4.228532e-01 2.293389e-02 3.597738e-01 2.881243e-02 -1.620840e-01 -2.971564e-02
<VARIANCE> 39
 6.425648e+00 9.764907e+00 1.981043e+01 2.419563e+01 2.885909e+01 1.776335e+01 3.884066e+01 3.255230e+01 4.659224e+01 3.887022e+01 3.430855e+01 3.411116e+01 1.525044e+00 1.633400e-01 5.914821e-01 6.367565e-01 1.980094e+00 7.715906e-01 1.823226e+00 1.053343e+00 2.307842e+00 1.240644e+00 1.946862e+00 1.064878e+00 1.293223e+00 8.977717e-03 2.596287e-02 5.244818e-02 1.077585e-01 1.227779e-01 3.162082e-01 1.590587e-01 4.062686e-01 1.859186e-01 3.425941e-01 2.133372e-01 2.683234e-01 1.720598e-01 8.707172e-04
<GCONST> 7.673737e+01
<STATE> 4
<MEAN> 39
 -3.841152e+00 -4.380128e+00 -1.380829e+00 -8.920103e+00 -3.196670e+00 -6.281977e+00 -2.462200e+00 -1.221238e+01 -5.214557e+00 -8.497492e+00 -2.664948e+00 -8.175422e+00 1.759469e+01 -3.698873e-03 5.640259e-01 2.622561e-01 -4.548852e-01 4.116586e-01 1.698835e-01 -3.735644e-01 -2.333096e-01 1.575133e-01 1.861155e-01 -2.806596e-02 1.649856e-01 -1.759984e-01 -2.107953e-02 -1.171240e-01 -2.145122e-01 1.096538e-01 8.704317e-02 -2.722052e-02 2.046002e-02 1.849939e-01 4.516912e-02 -7.363500e-02 3.749592e-02 8.076102e-02 -1.677475e-02
<VARIANCE> 39
 6.725606e+00 2.077627e+01 9.946178e+00 1.740450e+01 2.093873e+01 4.195545e+01 3.341039e+01 3.282917e+01 4.008423e+01 4.409911e+01 3.259617e+01 3.568697e+01 1.337958e+00 3.443280e-01 1.010749e+00 9.863566e-01 1.216701e+00 8.805076e-01 1.865022e+00 1.353853e+00 1.411826e+00 1.573520e+00 1.478425e+00 1.085049e+00 1.050127e+00 2.735210e-02 5.694331e-02 1.045738e-01 8.382103e-02 1.278461e-01 1.951428e-01 2.806738e-01 2.505315e-01 1.784438e-01 2.218346e-01 2.216914e-01 1.661893e-01 1.590870e-01 2.928939e-03
<GCONST> 7.987332e+01
<TRANSP> 5
 0.000000e+00 1.000000e+00 0.000000e+00 0.000000e+00 0.000000e+00
 0.000000e+00 9.096034e-01 9.039662e-02 0.000000e+00 0.000000e+00
 0.000000e+00 0.000000e+00 8.314105e-01 1.685895e-01 0.000000e+00
 0.000000e+00 0.000000e+00 0.000000e+00 9.086895e-01 9.131049e-02
 0.000000e+00 0.000000e+00 0.000000e+00 0.000000e+00 0.000000e+00
<ENDHMM>
~h "sil"
<BEGINHMM>
<NUMSTATES> 5
<STATE> 2
<MEAN> 39
 -5.629675e+00 -5.381880e+00 -3.959651e+00 -9.043986e+00 -2.191693e-01 -4.181923e+00 -1.412768e-01 -8.546715e+00 -2.498051e+00 -5.830945e+00 5.866040e-01 -4.487348e+00 1.512056e+01 -2.989973e-01 -2.485906e-01 -1.857950e-01 -5.063082e-02 6.952728e-02 1.348584e-01 8.168896e-02 -1.639693e-03 1.418095e-02 1.866378e-02 1.135558e-01 5.824676e-02 -1.518543e-01 2.366775e-02 -7.471475e-03 -3.844200e-02 -6.360404e-02 -7.384109e-02 -6.420162e-02 -4.217908e-02 -1.950773e-03 -3.812754e-03 -6.770736e-03 -1.693922e-02 -5.217405e-03 2.531400e-02
<VARIANCE> 39
 6.971110e+00 8.607322e+00 9.564820e+00 1.168482e+01 1.486944e+01 1.538801e+01 1.765937e+01 1.877677e+01 2.046494e+01 1.954510e+01 1.858384e+01 1.638741e+01 1.209564e+00 1.686656e-01 3.746028e-01 4.430704e-01 5.866174e-01 7.339833e-01 8.284972e-01 8.454993e-01 9.076040e-01 9.109252e-01 8.356467e-01 9.046682e-01 7.998157e-01 2.155270e-02 2.201142e-02 4.568571e-02 6.338239e-02 7.749981e-02 1.032741e-01 1.189165e-01 1.186156e-01 1.276619e-01 1.369561e-01 1.216477e-01 1.281470e-01 1.153788e-01 2.526395e-03
<GCONST> 5.922233e+01
<STATE> 3
<MEAN> 39
 -7.156939e+00 -7.236735e+00 -5.866395e+00 -1.018523e+01 -1.012348e+00 -4.339155e+00 -3.654400e-01 -8.603598e+00 -2.680012e+00 -5.571366e+00 1.005066e+00 -4.037416e+00 1.452098e+01 -3.584110e-03 4.973618e-03 -6.192162e-03 3.801756e-03 1.879410e-03 4.715940e-03 1.254973e-03 -9.876100e-03 -4.555667e-03 1.094673e-02 -2.632134e-04 2.492632e-03 -1.193095e-03 -2.368119e-04 4.887830e-03 2.877424e-03 5.286431e-03 1.315824e-03 2.870334e-03 5.486665e-04 5.853368e-03 2.717758e-03 -8.293253e-04 -4.062805e-03 -3.430470e-03 1.584983e-03
<VARIANCE> 39
 3.027164e+00 3.564780e+00 6.172704e+00 8.254440e+00 1.253747e+01 1.387374e+01 1.474216e+01 1.582846e+01 1.623779e+01 1.398251e+01 1.548319e+01 1.300188e+01 1.028432e+00 5.842904e-02 1.319094e-01 2.563353e-01 3.600304e-01 4.751975e-01 6.449601e-01 6.224143e-01 6.900986e-01 6.643434e-01 5.534232e-01 6.422849e-01 5.676932e-01 2.417420e-03 1.073369e-02 2.426563e-02 4.638898e-02 6.443690e-02 8.854952e-02 1.218526e-01 1.105601e-01 1.289114e-01 1.215520e-01 9.644400e-02 1.150024e-01 1.070999e-01 5.051129e-04
<GCONST> 4.276595e+01
<STATE> 4
<MEAN> 39
 -8.044102e+00 -6.369827e+00 -6.079103e+00 -1.016941e+01 -1.188541e+00 -4.700857e+00 -5.106624e-01 -8.720681e+00 -2.519547e+00 -5.941770e+00 9.985312e-01 -4.417081e+00 1.453677e+01 3.422759e-03 1.545880e-01 2.794266e-02 1.227930e-02 -7.638159e-02 -6.394015e-02 -6.564970e-02 4.920993e-02 -5.532585e-02 -8.987476e-02 -1.027079e-01 -6.833646e-02 4.891996e-02 4.561756e-02 5.645869e-02 2.690558e-02 -6.751929e-03 -2.036621e-03 -2.716387e-02 -1.659552e-02 -1.573694e-02 -1.398949e-02 -1.821237e-02 -3.889858e-02 -1.456878e-02 3.347777e-02
<VARIANCE> 39
 5.361458e+00 5.850663e+00 7.452238e+00 1.031436e+01 1.202343e+01 1.461873e+01 1.655216e+01 1.791413e+01 1.851075e+01 1.737204e+01 1.645254e+01 1.416316e+01 1.276583e+00 2.534419e-01 3.365524e-01 3.772629e-01 5.664123e-01 6.053320e-01 7.375294e-01 7.088115e-01 9.202819e-01 8.939190e-01 7.990502e-01 7.762723e-01 6.718943e-01 2.073159e-02 3.954316e-02 5.724538e-02 6.069207e-02 9.818350e-02 9.287862e-02 1.226492e-01 1.060880e-01 1.502723e-01 1.416595e-01 1.225171e-01 1.118091e-01 9.929977e-02 4.412930e-03
<GCONST> 5.788789e+01
<TRANSP> 5
 0.000000e+00 1.000000e+00 0.000000e+00 0.000000e+00 0.000000e+00
 0.000000e+00 7.692401e-01 2.307599e-01 0.000000e+00 0.000000e+00
 0.000000e+00 0.000000e+00 9.590834e-01 4.091660e-02 0.000000e+00
 0.000000e+00 0.000000e+00 0.000000e+00 7.109259e-01 2.890741e-01
 0.000000e+00 0.000000e+00 0.000000e+00 0.000000e+00 0.000000e+00
<ENDHMM>
~h "six"
<BEGINHMM>
<NUMSTATES> 5
<STATE> 2
<MEAN> 39
 -9.124294e+00 -4.836953e+00 -7.749949e+00 -8.266640e+00 -2.438858e+00 -2.834773e+00 -1.487293e+00 -7.798927e+00 -3.116516e+00 -4.969311e+00 3.618708e-01 -3.493937e+00 1.461232e+01 2.726811e-02 1.591596e-01 1.186000e-01 -3.531420e-01 -3.868241e-01 -2.528202e-01 -1.307410e-02 8.920061e-03 1.418944e-01 1.896523e-01 -1.204980e-01 9.512294e-03 1.277529e-01 1.224180e-01 8.574616e-02 1.920704e-01 -2.156927e-01 -1.443492e-01 -1.911086e-01 -1.348162e-02 -1.142849e-02 4.335980e-02 1.788275e-02 -7.846197e-02 -1.185635e-01 9.579261e-02
<VARIANCE> 39
 5.881858e+00 7.824513e+00 1.145772e+01 1.170149e+01 1.691563e+01 1.670040e+01 1.585943e+01 1.681437e+01 1.957148e+01 2.023768e+01 1.844873e+01 1.536605e+01 1.012899e+00 5.537630e-01 4.715970e-01 1.205765e+00 1.010494e+00 1.007774e+00 1.470694e+00 8.038253e-01 8.137797e-01 1.030870e+00 1.294179e+00 9.459652e-01 9.358557e-01 1.411680e-01 4.636097e-02 5.967519e-02 9.845401e-02 1.366895e-01 1.730452e-01 1.833199e-01 1.418881e-01 1.549592e-01 1.804593e-01 1.774093e-01 1.522814e-01 1.540163e-01 7.503504e-03
<GCONST> 7.075551e+01
<STATE> 3
<MEAN> 39
 -6.389795e+00 -1.255084e+00 -8.810621e-01 -1.937228e+01 -7.577194e+00 -8.493302e+00 -2.595069e+00 -6.569140e+00 3.325135e-02 -3.820272e+00 -2.226169e+00 -7.108534e+00 1.817332e+01 6.033788e-02 -1.004580e-01 1.973094e-01 -2.318163e-01 3.399071e-01 1.645809e-01 -1.732648e-01 1.224701e-01 4.917455e-02 -1.716383e-01 1.772009e-01 -6.580659e-03 -4.431785e-02 -7.081278e-02 -1.914884e-01 -2.624974e-01 4.212634e-01 2.477779e-01 2.067547e-01 8.841413e-02 -7.030383e-02 -1.214316e-01 -5.252285e-02 1.186420e-01 1.339913e-01 -1.487445e-01
<VARIANCE> 39
 7.367369e+00 9.635597e+00 1.569742e+01 2.776346e+01 5.692444e+01 3.167277e+01 3.629293e+01 2.495916e+01 3.438404e+01 5.661712e+01 3.469410e+01 3.674877e+01 1.645047e+00 3.757045e-01 7.674609e-01 1.271301e+00 3.640178e+00 2.695807e+00 1.950656e+00 1.896175e+00 1.366034e+00 1.928482e+00 2.033425e+00 1.879827e+00 2.011311e+00 3.396144e-01 6.646573e-02 6.525157e-02 1.520792e-01 2.585391e-01 3.130457e-01 3.120062e-01 3.695939e-01 2.303204e-01 2.922210e-01 3.375136e-01 2.687100e-01 2.614650e-01 1.433633e-02
<GCONST> 9.337854e+01
<STATE> 4
<MEAN> 39
 -8.222577e+00 -6.451437e+00 -6.277396e+00 -9.275582e+00 -2.415954e+00 -3.256265e+00 -9.182778e-01 -8.615624e+00 -2.795307e+00 -5.153826e+00 7.408615e-01 -4.248633e+00 1.464349e+01 -7.442129e-02 -1.118076e-01 -2.389875e-01 2.870741e-01 3.500275e-02 6.666941e-02 1.390734e-01 -4.188122e-02 -8.121271e-02 -2.483394e-03 7.366355e-03 3.130452e-02 -6.889634e-02 2.173761e-02 7.154378e-02 7.432580e-02 -1.248944e-01 -5.118561e-02 -6.603893e-02 -5.131244e-02 3.815515e-02 2.469889e-02 6.733246e-03 -2.995417e-02 -2.922731e-02 4.497598e-02
<VARIANCE> 39
 7.836406e+00 8.036992e+00 1.202001e+01 1.253897e+01 1.775488e+01 1.684576e+01 1.688477e+01 1.718215e+01 1.742179e+01 1.762552e+01 1.547863e+01 1.427367e+01 1.310076e+00 3.471871e-01 5.518963e-01 7.463476e-01 9.087882e-01 9.875025e-01 1.059264e+00 1.026785e+00 9.108869e-01 8.760952e-01 8.051552e-01 7.558447e-01 6.350738e-01 5.456966e-02 4.509158e-02 7.355034e-02 1.100383e-01 1.327705e-01 1.825923e-01 1.706938e-01 1.655958e-01 1.667244e-01 1.581870e-01 1.441438e-01 1.370198e-01 1.246721e-01 7.388053e-03
<GCONST> 6.779649e+01
<TRANSP> 5
 0.000000e+00 1.000000e+00 0.000000e+00 0.000000e+00 0.000000e+00
 0.000000e+00 9.049472e-01 9.505282e-02 0.000000e+00 0.000000e+00
 0.000000e+00 0.000000e+00 8.983328e-01 1.016672e-01 0.000000e+00
 0.000000e+00 0.000000e+00 0.000000e+00 9.437304e-01 5.626967e-02
 0.000000e+00 0.000000e+00 0.000000e+00 0.000000e+00 0.000000e+00
<ENDHMM>
~h "two"
<BEGINHMM>
<NUMSTATES> 5
<STATE> 2
<MEAN> 39
 -9.639400e+00 -4.513426e+00 -6.580753e+00 -9.863555e+00 -9.720588e-01 -4.070674e+00 -1.373339e+00 -8.179419e+00 -2.537159e+00 -5.722521e+00 1.014198e+00 -3.721761e+00 1.495430e+01 -3.758187e-02 2.631153e-01 2.263389e-01 -3.008486e-01 -8.029410e-02 -1.059527e-02 -1.952114e-01 2.047998e-02 1.192920e-01 3.786959e-02 -4.395590e-03 -2.839675e-02 9.347485e-02 1.950337e-01 9.726264e-02 2.115321e-01 -1.064894e-01 -1.587311e-01 -1.867040e-01 -1.174421e-01 -6.690913e-02 -2.515947e-02 -1.346565e-03 -7.481489e-02 -1.170507e-01 8.904169e-02
<VARIANCE> 39
 9.732170e+00 8.411842e+00 1.057127e+01 1.130263e+01 1.669853e+01 1.858910e+01 1.761612e+01 1.993476e+01 2.015002e+01 2.109539e+01 2.063018e+01 1.756304e+01 9.683607e-01 1.154741e+00 7.385843e-01 1.484537e+00 7.320575e-01 1.243841e+00 1.212132e+00 9.533151e-01 1.050649e+00 1.054675e+00 1.129716e+00 1.398406e+00 9.929878e-01 1.174502e-01 1.107613e-01 1.110944e-01 1.232442e-01 1.199816e-01 2.136397e-01 1.859784e-01 1.655746e-01 1.895574e-01 1.984020e-01 1.764039e-01 2.621555e-01 1.380708e-01 7.422637e-03
<GCONST> 7.620210e+01
<STATE> 3
<MEAN> 39
 -4.756928e+00 1.149318e+00 1.778225e+00 -1.527068e+01 -6.598806e+00 -9.672948e+00 -6.598326e+00 -1.044179e+01 -2.516044e+00 -5.320363e+00 -1.030023e+00 -7.239761e+00 1.830119e+01 7.193313e-01 5.999742e-01 8.360471e-01 -6.091853e-01 -1.201093e+00 -1.150001e+00 -6.212695e-01 -3.241042e-01 -7.638570e-02 1.074629e-01 -2.783289e-01 -6.924757e-01 4.804425e-01 -2.461660e-01 -2.219685e-01 -4.234543e-01 2.838058e-01 2.397683e-01 2.108271e-01 2.293685e-01 1.474369e-01 -1.436241e-02 5.921977e-03 1.442222e-01 1.762002e-01 -1.356785e-01
<VARIANCE> 39
 7.637054e+00 8.201180e+00 1.359603e+01 2.286914e+01 4.094155e+01 2.664877e+01 2.842987e+01 2.392866e+01 3.044523e+01 5.369548e+01 4.334024e+01 4.700748e+01 1.220935e+00 6.002333e-01 6.134163e-01 9.871263e-01 1.413979e+00 1.245544e+00 1.154156e+00 1.636979e+00 1.535897e+00 1.877873e+00 2.038627e+00 2.554880e+00 1.859358e+00 8.416689e-02 6.196143e-02 5.703237e-02 8.188546e-02 1.318223e-01 2.159620e-01 1.828538e-01 2.050728e-01 1.926454e-01 2.096131e-01 2.724444e-01 2.909153e-01 2.224142e-01 8.053122e-03
<GCONST> 8.427509e+01
<STATE> 4
<MEAN> 39
 -3.074160e+00 -2.498561e-01 -1.582142e-01 -1.281027e+01 -6.631950e+00 -1.135588e+01 -5.742233e+00 -1.003087e+01 -3.079259e+00 -5.508289e+00 -1.510112e-01 -7.402936e+00 1.806439e+01 2.856270e-02 -3.108908e-01 -3.225635e-01 4.777228e-01 4.160352e-01 2.897227e-01 2.823405e-01 6.164495e-02 -7.978711e-02 -2.571274e-03 1.468310e-01 2.523631e-01 -1.813455e-01 -7.879087e-02 -6.534898e-02 -4.715135e-02 -2.747568e-03 8.374572e-02 1.333988e-01 8.168726e-02 3.501740e-02 2.799232e-02 -2.889631e-03 -1.432002e-02 4.589127e-02 -4.147497e-02
<VARIANCE> 39
 6.126960e+00 7.980884e+00 1.202321e+01 3.019341e+01 3.252042e+01 2.281904e+01 3.197464e+01 3.246529e+01 4.006972e+01 4.282226e+01 5.143115e+01 4.045083e+01 1.492830e+00 2.866637e-01 2.399530e-01 4.425736e-01 6.655242e-01 9.312069e-01 1.150724e+00 1.105539e+00 1.194717e+00 1.057023e+00 1.124071e+00 1.145986e+00 1.082552e+00 3.967656e-02 3.091887e-02 3.306119e-02 5.466447e-02 9.506734e-02 1.114156e-01 1.450114e-01 1.389045e-01 1.749011e-01 1.699728e-01 1.672946e-01 1.672981e-01 1.557807e-01 3.008828e-03
<GCONST> 7.111192e+01
<TRANSP> 5
 0.000000e+00 1.000000e+00 0.000000e+00 0.000000e+00 0.000000e+00
 0.000000e+00 9.084742e-01 9.152575e-02 0.000000e+00 0.000000e+00
 0.000000e+00 0.000000e+00 7.698602e-01 2.301398e-01 0.000000e+00
 0.000000e+00 0.000000e+00 0.000000e+00 9.201576e-01 7.984244e-02
 0.000000e+00 0.000000e+00 0.000000e+00 0.000000e+00 0.000000e+00
<ENDHMM>
~h "nine"
<BEGINHMM>
<NUMSTATES> 5
<STATE> 2
<MEAN> 39
 -4.077339e+00 -3.898058e+00 -1.677272e+00 -8.971148e+00 -2.804504e+00 -6.378194e+00 -1.642715e+00 -1.116135e+01 -5.117406e+00 -8.041987e+00 -2.887750e+00 -7.734889e+00 1.762904e+01 -1.811337e-01 -6.858070e-01 -2.834659e-01 4.408281e-01 -4.285451e-01 2.355713e-01 4.030298e-01 -1.731189e-01 -1.880333e-02 -1.236207e-01 -8.592796e-02 -8.366958e-02 2.069323e-01 -5.922478e-02 -1.590377e-01 -1.030371e-01 1.132278e-01 -5.452546e-03 -1.169623e-03 5.204889e-02 4.893664e-02 3.952450e-02 9.370425e-03 7.326280e-02 3.877705e-02 -9.215386e-03
<VARIANCE> 39
 8.090960e+00 1.916348e+01 1.444467e+01 1.669299e+01 2.834809e+01 2.875759e+01 3.145674e+01 2.650792e+01 4.734478e+01 3.538877e+01 3.033125e+01 3.281606e+01 1.829776e+00 4.871443e-01 1.494066e+00 1.080497e+00 1.097175e+00 1.264092e+00 1.393842e+00 1.627395e+00 1.205142e+00 1.553545e+00 1.157376e+00 1.183343e+00 1.006630e+00 4.894982e-02 6.265644e-02 1.682050e-01 1.288506e-01 1.425370e-01 2.181613e-01 2.178723e-01 2.447264e-01 1.814132e-01 2.032969e-01 1.691318e-01 1.711289e-01 1.443608e-01 4.463021e-03
<GCONST> 8.221033e+01
<STATE> 3
<MEAN> 39
 -6.347527e+00 -1.160442e+01 -4.860508e+00 -2.734694e+00 -5.693743e+00 -5.250023e+00 1.736059e+00 -1.135922e+01 -5.539677e+00 -9.015327e+00 -1.699771e+00 -7.646741e+00 1.861514e+01 -1.102202e-01 9.686113e-02 2.307478e-01 -2.420482e-01 -2.305156e-02 2.140793e-01 -1.050669e-01 -8.696236e-02 1.959004e-01 5.474241e-02 -5.526792e-02 4.596756e-02 -2.113692e-02 2.517156e-03 1.935469e-01 6.929492e-02 -2.402584e-01 4.426304e-02 6.240265e-02 -1.060979e-01 1.121220e-02 7.537661e-02 -1.084905e-02 -6.778204e-02 2.441987e-02 -1.480030e-02
<VARIANCE> 39
 7.253241e+00 8.472352e+00 2.450037e+01 3.236939e+01 1.900658e+01 3.083621e+01 3.095137e+01 3.397374e+01 4.391691e+01 4.150165e+01 2.842896e+01 3.075455e+01 1.006126e+00 8.384614e-02 3.840289e-01 4.111281e-01 1.132713e+00 5.000376e-01 6.241732e-01 5.587707e-01 5.153654e-01 6.511045e-01 6.707073e-01 6.806697e-01 5.420508e-01 4.827255e-03 1.133341e-02 3.005361e-02 4.127560e-02 5.547941e-02 7.264977e-02 7.246993e-02 7.391035e-02 8.095080e-02 8.281086e-02 8.716506e-02 7.873292e-02 7.922968e-02 3.983417e-04
<GCONST> 5.405606e+01
<STATE> 4
<MEAN> 39
 -5.408926e+00 -2.488680e+00 -1.320185e+00 -1.141010e+01 -1.443068e+00 -5.341783e+00 -3.676824e+00 -1.048139e+01 -3.509039e+00 -8.117106e+00 -2.930933e+00 -6.527733e+00 1.769446e+01 2.317146e-01 5.105873e-01 -3.094363e-03 -1.016896e-01 4.411188e-01 -2.479238e-01 -2.011413e-01 2.756142e-01 -1.277937e-01 8.107430e-02 2.108433e-01 1.169408e-01 -1.723585e-01 -2.715154e-02 -1.583066e-01 -8.625402e-02 1.474555e-01 -3.839210e-02 -6.089547e-03 1.204323e-01 1.985686e-02 -5.447835e-02 4.231441e-02 7.832245e-02 -9.554916e-03 -2.023001e-02
<VARIANCE> 39
 1.166846e+01 1.632523e+01 1.132169e+01 2.321632e+01 3.171833e+01 3.320284e+01 3.064785e+01 2.993113e+01 4.733523e+01 3.817845e+01 3.626937e+01 3.985381e+01 1.211668e+00 5.065148e-01 1.171871e+00 6.359946e-01 1.643070e+00 1.303739e+00 1.550625e+00 1.528429e+00 1.269753e+00 1.658816e+00 1.184171e+00 1.105878e+00 1.068940e+00 2.538146e-02 7.071371e-02 8.681929e-02 9.031525e-02 1.779846e-01 1.819092e-01 2.449430e-01 1.820609e-01 2.039846e-01 2.436524e-01 1.943309e-01 1.735394e-01 1.451955e-01 2.221681e-03
<GCONST> 8.083680e+01
<TRANSP> 5
 0.000000e+00 1.000000e+00 0.000000e+00 0.000000e+00 0.000000e+00
 0.000000e+00 9.012504e-01 9.874969e-02 0.000000e+00 0.000000e+00
 0.000000e+00 0.000000e+00 9.153503e-01 8.464973e-02 0.000000e+00
 0.000000e+00 0.000000e+00 0.000000e+00 9.176031e-01 8.239692e-02
 0.000000e+00 0.000000e+00 0.000000e+00 0.000000e+00 0.000000e+00
<ENDHMM>
~h "five"
<BEGINHMM>
<NUMSTATES> 5
<STATE> 2
<MEAN> 39
 -6.145346e+00 -8.579068e+00 -7.592476e+00 -9.225057e+00 -4.230725e-01 -6.121440e+00 6.975121e-03 -6.825459e+00 -3.778240e+00 -6.490675e+00 -3.219158e-01 -4.546301e+00 1.643807e+01 1.118040e-01 -6.872234e-01 -4.785986e-01 3.255055e-01 2.195620e-01 -2.712204e-01 2.421201e-01 2.802847e-01 -3.435883e-01 -1.302746e-01 -1.266216e-01 1.666534e-02 2.472855e-01 -1.685412e-03 -5.660124e-03 5.737570e-02 4.688887e-02 -1.725418e-02 -3.236669e-02 -1.989648e-02 -4.940890e-02 -1.732786e-02 2.411773e-02 1.545978e-02 -1.459378e-02 2.061942e-02
<VARIANCE> 39
 1.125202e+01 1.815391e+01 1.972019e+01 1.332434e+01 1.797000e+01 2.025477e+01 1.944237e+01 3.697208e+01 2.612181e+01 2.326822e+01 2.203214e+01 1.616224e+01 4.948156e+00 7.423170e-01 6.844035e-01 8.868328e-01 8.866042e-01 8.226808e-01 1.096092e+00 9.428323e-01 1.701099e+00 1.496830e+00 1.271828e+00 1.231868e+00 8.357588e-01 2.129093e-01 1.004223e-01 1.065272e-01 1.570925e-01 1.148711e-01 1.338448e-01 1.695193e-01 1.473376e-01 2.760090e-01 2.348386e-01 1.802749e-01 1.906081e-01 1.286202e-01 2.516611e-02
<GCONST> 8.141036e+01
<STATE> 3
<MEAN> 39
 -5.829910e+00 -1.543208e+01 -8.489589e+00 -3.791507e+00 1.364194e+00 -9.061784e+00 2.480585e+00 -7.543466e+00 -7.266442e+00 -5.482922e+00 -5.596477e-01 -4.576600e+00 1.903887e+01 -1.610333e-01 9.881376e-02 4.891213e-01 -2.808356e-01 -2.718482e-01 4.465803e-01 6.804501e-02 -3.852471e-01 3.469830e-02 2.820531e-01 5.019188e-02 -7.338832e-02 -4.962926e-02 4.119494e-02 1.198993e-01 1.074242e-02 -1.944129e-01 -5.746689e-02 8.541052e-02 -2.819500e-02 2.903900e-02 6.260740e-02 -5.057408e-02 -7.345657e-02 -1.855368e-02 -1.597172e-02
<VARIANCE> 39
 9.235527e+00 9.516533e+00 2.487408e+01 2.134836e+01 1.890437e+01 2.361061e+01 1.802782e+01 4.020392e+01 4.783456e+01 4.513334e+01 2.691068e+01 2.542699e+01 1.368737e+00 9.077776e-02 1.726035e-01 2.727435e-01 6.954184e-01 5.202842e-01 5.777712e-01 5.082279e-01 5.121700e-01 6.401108e-01 6.122548e-01 5.999663e-01 4.835865e-01 5.997599e-03 1.192116e-02 2.521039e-02 3.123395e-02 4.833083e-02 5.224707e-02 5.349403e-02 5.804973e-02 6.689407e-02 9.045406e-02 8.805483e-02 6.807338e-02 7.103819e-02 9.688343e-04
<GCONST> 5.083693e+01
<STATE> 4
<MEAN> 39
 -5.452396e+00 -7.798167e+00 -3.664716e+00 -1.292933e+01 -3.057847e+00 -3.760876e+00 1.120407e+00 -8.346091e+00 -3.888031e+00 -5.631060e+00 -1.734021e+00 -5.653003e+00 1.761937e+01 6.895895e-02 9.293778e-01 2.307946e-01 -1.987848e-01 -1.315885e-01 -8.908987e-02 -2.932276e-01 7.891093e-02 3.928486e-01 -1.370575e-01 7.672987e-02 1.233842e-02 -2.762190e-01 -4.002700e-02 -7.254155e-02 -8.900397e-02 1.945924e-01 1.092601e-01 -8.830073e-02 -1.665448e-02 -4.515447e-03 -4.075440e-02 1.309671e-02 7.345019e-02 3.240506e-02 -1.782484e-02
<VARIANCE> 39
 7.533110e+00 2.308245e+01 1.185583e+01 2.986153e+01 3.748615e+01 2.150836e+01 2.415421e+01 3.057113e+01 4.223579e+01 2.629442e+01 2.688215e+01 2.787954e+01 2.629523e+00 3.400325e-01 7.374071e-01 6.409177e-01 2.733145e+00 1.682089e+00 1.393086e+00 9.393045e-01 1.417220e+00 1.594572e+00 1.266551e+00 1.316848e+00 1.013080e+00 6.819290e-02 5.715520e-02 1.022107e-01 9.524717e-02 3.009340e-01 2.342665e-01 2.509229e-01 1.675267e-01 2.084451e-01 2.011770e-01 1.717466e-01 2.163433e-01 1.726193e-01 9.082166e-03
<GCONST> 8.298357e+01
<TRANSP> 5
 0.000000e+00 1.000000e+00 0.000000e+00 0.000000e+00 0.000000e+00
 0.000000e+00 9.300386e-01 6.996141e-02 0.000000e+00 0.000000e+00
 0.000000e+00 0.000000e+00 9.152319e-01 8.476804e-02 0.000000e+00
 0.000000e+00 0.000000e+00 0.000000e+00 8.980057e-01 1.019942e-01
 0.000000e+00 0.000000e+00 0.000000e+00 0.000000e+00 0.000000e+00
<ENDHMM>
~h "four"
<BEGINHMM>
<NUMSTATES> 5
<STATE> 2
<MEAN> 39
 -7.667620e+00 -6.677809e+00 -5.470647e+00 -9.688790e+00 -1.112553e+00 -4.543473e+00 -5.189704e-01 -8.559961e+00 -2.271117e+00 -5.732475e+00 1.121442e+00 -4.080832e+00 1.494338e+01 3.138340e-01 1.474748e-02 -3.778503e-01 -2.939824e-01 -1.125260e-01 -9.205982e-02 -1.320315e-01 -8.570774e-03 1.231804e-01 1.055088e-01 -1.625283e-02 -4.077215e-02 1.258381e-01 2.438174e-01 9.813508e-02 -1.170315e-01 -1.288145e-01 -5.304004e-02 -1.112585e-01 -1.097992e-01 -1.808137e-02 -8.184152e-03 7.009634e-03 -7.390775e-02 -1.029498e-01 1.065351e-01
<VARIANCE> 39
 4.657672e+00 4.193456e+00 6.876480e+00 8.704016e+00 1.156782e+01 1.418994e+01 1.488088e+01 1.611069e+01 1.489993e+01 1.410063e+01 1.539703e+01 1.167685e+01 9.116802e-01 1.047065e+00 4.639199e-01 5.766310e-01 6.437178e-01 6.049654e-01 9.842676e-01 9.577656e-01 8.519973e-01 8.544633e-01 7.821141e-01 1.037501e+00 8.674510e-01 1.654565e-01 5.929440e-02 5.711770e-02 1.015155e-01 1.069119e-01 1.041821e-01 1.638895e-01 1.311688e-01 1.613806e-01 1.551101e-01 1.347689e-01 1.544513e-01 1.329648e-01 6.555362e-03
<GCONST> 6.410857e+01
<STATE> 3
<MEAN> 39
 1.545541e+00 -3.506078e+00 -1.204608e+01 -1.693925e+01 -4.004872e+00 -6.246485e+00 -3.255047e+00 -8.958974e+00 -1.451341e+00 -3.992062e+00 3.068324e-01 -6.856421e+00 1.889500e+01 3.433107e-01 -1.623346e-01 -3.558470e-01 -7.216965e-02 6.820389e-02 -2.290290e-02 -2.270718e-01 1.736729e-01 3.472254e-01 1.047986e-01 -2.364448e-01 -2.329478e-01 1.594964e-01 -1.728059e-01 -1.511374e-01 1.446060e-01 2.267971e-01 4.013300e-02 -2.949191e-02 4.305386e-02 1.087217e-01 4.690703e-02 -7.877229e-02 -5.253181e-02 5.703613e-02 -6.698081e-02
<VARIANCE> 39
 4.227968e+00 1.022244e+01 1.029039e+01 1.432917e+01 2.460277e+01 1.721145e+01 1.818636e+01 1.709348e+01 2.334693e+01 2.481168e+01 3.750477e+01 3.594286e+01 1.115804e+00 5.912063e-01 7.438612e-01 7.231895e-01 1.240830e+00 9.895773e-01 7.948633e-01 9.115140e-01 9.642973e-01 1.307602e+00 1.180656e+00 1.372135e+00 1.243436e+00 1.038317e-01 4.871602e-02 4.642894e-02 9.628285e-02 8.305277e-02 1.340593e-01 1.435020e-01 1.544316e-01 1.396360e-01 1.799933e-01 1.932644e-01 2.021902e-01 1.820074e-01 7.090532e-03
<GCONST> 7.298954e+01
<STATE> 4
<MEAN> 39
 -5.429608e-01 -1.072219e+01 -7.323092e+00 -8.565810e+00 -5.391740e+00 -8.704756e+00 -2.323941e+00 -4.895559e+00 1.831795e-01 -7.540126e+00 -3.910861e+00 -7.426210e+00 1.840886e+01 -6.129135e-01 7.465492e-02 1.055963e+00 4.896484e-01 -3.433464e-01 7.616495e-02 5.981642e-01 -1.811752e-01 -6.240175e-01 -3.440969e-01 1.658261e-01 3.014700e-01 -2.432771e-01 -9.001580e-02 2.380766e-01 -4.453314e-02 -1.996030e-01 1.165278e-01 1.960444e-01 3.099981e-02 -1.858931e-01 -1.287912e-01 1.032560e-01 1.745545e-01 4.439776e-02 -4.962690e-02
<VARIANCE> 39
 7.333438e+00 1.779963e+01 3.181577e+01 1.828338e+01 4.522192e+01 3.700929e+01 3.509683e+01 4.319429e+01 4.621213e+01 3.482875e+01 3.460000e+01 3.076931e+01 1.741636e+00 2.971722e-01 1.587487e+00 9.179316e-01 1.626267e+00 2.564563e+00 2.221739e+00 1.718491e+00 2.564766e+00 1.885272e+00 1.705945e+00 1.829047e+00 1.123808e+00 5.832935e-02 2.926793e-02 1.346432e-01 2.064869e-01 1.690594e-01 4.288334e-01 2.940585e-01 3.516549e-01 3.668481e-01 3.851874e-01 2.816701e-01 3.092500e-01 2.124638e-01 3.411662e-03
<GCONST> 9.085589e+01
<TRANSP> 5
 0.000000e+00 1.000000e+00 0.000000e+00 0.000000e+00 0.000000e+00
 0.000000e+00 9.011174e-01 9.888250e-02 0.000000e+00 0.000000e+00
 0.000000e+00 0.000000e+00 9.186853e-01 8.131468e-02 0.000000e+00
 0.000000e+00 0.000000e+00 0.000000e+00 8.810124e-01 1.189876e-01
 0.000000e+00 0.000000e+00 0.000000e+00 0.000000e+00 0.000000e+00
<ENDHMM>
~h "zero"
<BEGINHMM>
<NUMSTATES> 5
<STATE> 2
<MEAN> 39
 -6.758276e+00 -3.060504e+00 -4.886815e+00 -7.466908e+00 -1.265832e+00 -3.807513e+00 -1.414166e+00 -8.520050e+00 -3.457414e+00 -5.106226e+00 5.900598e-01 -4.556104e+00 1.523185e+01 -8.168922e-02 3.317963e-01 1.413985e-01 -3.041709e-01 -2.133624e-01 -2.738095e-01 -1.777393e-01 -1.205256e-01 1.233288e-01 2.201261e-01 -1.253928e-02 -1.904287e-04 1.060602e-01 6.806745e-02 1.068934e-01 1.512906e-01 -2.257022e-01 -1.459384e-01 -2.462587e-01 -6.497342e-02 -7.538822e-02 6.203132e-02 1.080017e-02 -2.262274e-02 -5.403758e-02 8.252258e-02
<VARIANCE> 39
 7.745317e+00 1.028893e+01 1.429254e+01 1.360967e+01 1.783375e+01 1.930326e+01 1.877991e+01 1.949861e+01 2.377118e+01 2.085645e+01 1.977674e+01 1.678340e+01 1.208757e+00 4.211763e-01 7.290932e-01 1.003720e+00 9.500486e-01 8.893872e-01 1.750847e+00 9.589696e-01 1.102108e+00 1.068048e+00 8.963248e-01 1.006104e+00 1.001659e+00 1.192575e-01 5.258035e-02 9.179065e-02 1.144102e-01 1.198330e-01 1.237966e-01 1.946391e-01 1.597982e-01 1.730628e-01 1.607256e-01 1.399872e-01 1.706423e-01 1.584612e-01 7.959022e-03
<GCONST> 7.320358e+01
<STATE> 3
<MEAN> 39
 -5.591309e+00 3.922777e-01 8.085726e-01 -1.662354e+01 -7.710559e+00 -9.222835e+00 -4.658831e+00 -8.629033e+00 -4.925482e-02 -3.802363e+00 1.259116e-01 -6.759946e+00 1.834436e+01 3.380488e-01 -6.251841e-01 4.883178e-01 -2.648931e-01 -1.102014e+00 1.289202e-01 1.554142e-01 1.537586e-01 3.347143e-01 -5.403052e-02 2.656225e-02 -1.551552e-01 1.948467e-01 4.515207e-02 -2.658795e-01 -1.692663e-01 3.431782e-01 9.641316e-03 1.400879e-01 1.907551e-01 7.241542e-02 -7.135837e-02 -4.764685e-02 -7.105776e-03 6.284400e-02 -6.162813e-02
<VARIANCE> 39
 7.282504e+00 1.918234e+01 1.718583e+01 2.744416e+01 5.849733e+01 3.938544e+01 3.188921e+01 4.335939e+01 3.245868e+01 3.001515e+01 3.379329e+01 4.994358e+01 1.156353e+00 4.295381e-01 1.775598e+00 8.558108e-01 2.665786e+00 1.664510e+00 2.654029e+00 1.728040e+00 1.475615e+00 1.340030e+00 1.175567e+00 1.141351e+00 1.379839e+00 7.313015e-02 5.099378e-02 1.107812e-01 1.223627e-01 1.857792e-01 2.376621e-01 3.919454e-01 2.244195e-01 2.434325e-01 2.199854e-01 1.773736e-01 1.723956e-01 2.131194e-01 4.551001e-03
<GCONST> 8.729295e+01
<STATE> 4
<MEAN> 39
 -1.649279e+00 -9.930484e+00 -4.551908e+00 -9.836059e+00 -9.201261e+00 -8.374456e+00 4.436323e-02 -4.372132e+00 -3.074724e-01 -6.663497e+00 -1.066912e+00 -5.913300e+00 1.846291e+01 -1.875267e-03 4.139897e-02 -4.248804e-01 2.118925e-01 6.907184e-01 -3.661842e-02 1.274529e-02 7.661514e-02 -1.452955e-01 -9.952288e-02 -4.255548e-02 5.557306e-02 -9.983364e-02 -8.146764e-02 1.026944e-01 5.162811e-02 -8.308816e-02 8.985010e-02 7.171475e-02 -5.899972e-02 -6.229429e-02 -2.365149e-02 2.520410e-02 2.531027e-02 8.733062e-03 -2.410856e-02
<VARIANCE> 39
 6.049108e+00 2.022897e+01 2.590970e+01 2.575624e+01 6.116222e+01 5.179615e+01 3.776515e+01 3.635866e+01 4.392099e+01 3.594080e+01 2.597987e+01 3.311863e+01 1.509533e+00 3.010932e-01 8.273153e-01 7.834700e-01 1.013249e+00 1.236258e+00 1.841215e+00 1.589586e+00 1.897708e+00 1.647615e+00 1.476333e+00 1.053324e+00 9.581098e-01 3.797700e-02 2.902766e-02 5.182794e-02 8.358989e-02 1.131007e-01 1.905143e-01 2.370648e-01 2.060850e-01 2.034539e-01 2.219679e-01 2.011892e-01 1.522601e-01 1.418974e-01 2.415870e-03
<GCONST> 8.034071e+01
<TRANSP> 5
 0.000000e+00 1.000000e+00 0.000000e+00 0.000000e+00 0.000000e+00
 0.000000e+00 8.903282e-01 1.096718e-01 0.000000e+00 0.000000e+00
 0.000000e+00 0.000000e+00 8.973073e-01 1.026927e-01 0.000000e+00
 0.000000e+00 0.000000e+00 0.000000e+00 9.447507e-01 5.524925e-02
 0.000000e+00 0.000000e+00 0.000000e+00 0.000000e+00 0.000000e+00
<ENDHMM>
